0.06254933866865554,-0.04488657393057462,-0.07304028161589017,-0.010990302357092618,-0.013563769132583003,-0.0605354606054253,0.02885542523499925,0.044928780591407654,-0.004253705136246758,0.02276594517869531,0.07121194684158069,0.11258141248468373,0.08821924150401984,-0.007436912755636922,0.09826001240615595,0.10283619563422507,-0.08055225262209474,0.038693540670395266,0.10906986760073804,-0.048313508069133884,0.08017312515361912,0.029802217415253632,-0.04238371220237744,-0.019272262411258824,-0.002820624033840843,0.09774024715840746,-0.039533875616599136,0.10074449912021304,-0.06071947010453734,0.10701601051925429,-0.0208093257998858,0.052412179415695634,-0.05722957989792894,-0.06964362728894577,0.03788541770256979,0.11521609304582833,0.10460542116733977,0.11493575188174598,0.015790698998847292,-0.032713865177806285,0.06993527408502408,-0.010517753259106952,0.057160324071382204,0.04567221066247377,0.11364390277860857,0.02867001144756142,-0.0638382049964208,0.0957327299488447,0.08406293072648073,-0.03981152063674627,-0.037359580422601506,-0.027942384680328447,0.07743622191736534,-0.012721208827024284,-0.016841146195463935,-0.06043032445085201,-0.012467451733917194,0.023887764799386098,0.10692996894363123,0.031147860631431035,-0.04301431087533111,-0.05062141890263975,-0.0016492122996700262,-0.014283592640030825,0.06473963619657416,-0.06823186744060558,0.044303585369216816,-0.025435637850770177,0.00987462742260323,0.03081042191159898,-0.048917135026967866,-0.04316061047274977,0.052713252403538094,0.004563890523810172,0.09867050947575658,0.010554456936974583,0.06895010973395503,0.09918311517987258,0.018954008461272653,0.09089562084990972,0.09000300858022399,0.0552682275355215,-0.0002864283825506263,0.05539091124194716,0.009537454851075051,-0.02348753090346397,-0.01915390394736743,-0.03354007279590261,-0.06932058855015369,0.06056330864026034,0.09191273143098563,0.06956076402383385,0.02678939971291708,0.10372845850466324,-0.024869185607356337,-0.02709816461566145,0.06351055073349571,0.03542170699656409,0.08487556466799531,0.11160080567732565,0.07761863871454731,-0.06677227948840943,-0.0507646502605898,0.08573487980265793,0.04801547581069451,0.01739985875692068,-0.04588581508565733,0.034158467520398535,-0.06757677392525621,0.04152101064345524,0.11548484451851207,0.03767758768404092,-0.07137846495009469,0.04733766620342314,0.0296096345057762,0.09901450471824293,-0.03605264196299172,-0.020381028205788233,-0.052902561854218356,0.056015494550223276,-0.01292746966770945,0.02125294471690308,-0.009388612432737352,-0.061751612592797,0.00926514086712281,0.022454805149583652,-0.03760046786642078,0.06486733357506452,-0.011038650485524774,0.06265737087326022,-0.02918108310153315,0.11450758336478223,0.0921023792945611,-0.02945976334309026,-0.03479085281498695,0.053367063120141896,-0.02829023978108296,-0.010864492242698087,0.08857388400726927,0.10994518514441501,-0.07908250776354561,-0.02756480980147097,0.06716754379009683,0.07776929915909449,-0.05393012228241759,0.03575431091504222,0.010830231601404483,-0.04446336996585845,0.014487957314438955,0.043228255157814865,-0.033312419236134296,0.036757234722883905,0.0332552718942081,-0.0010925304947012103,0.06908418170463557,0.11715457514546464,-0.009251076973495524,0.008505510232752972,-0.059306030984725366,-0.017563167698399117,0.11344154045363568,-0.013448543109451703,-0.04088069794341334,0.10034066557271792,0.1088197096230669,0.08036893102038856,0.03793196813993436,-0.03595779918113577,-0.02336042822798279,0.026506850397560577,-0.0746699772252913,0.0027613127878192084,-0.02472318675706401,-0.023372565009123006,0.11582145939979199,0.11142661851088827,0.11391151898526294,-0.007639277649998082,0.0678916563151303,0.006968650978853799,-0.015380920934756376,0.0324957281220756,0.0048453685098609495,0.11411233139095893,-0.06348049863902747,0.006194865899583741,0.042992611992405845,0.11784476806755735,-0.020117573021522284,0.09901130705573372,-0.02563134083659386,0.0966976733569921,0.10604778259272794,-0.06368894522873103,0.023397189638347367,0.09989046845216912,-0.019979238168824597,0.03186476875548265,-0.04429577171251159,-0.042057372710383546,0.024522017757406547,0.055181609510039274,0.041637762488574204,0.0939977202771132,-0.011547374693353141,-0.07915890568523662,0.1132946514518001,0.08060433772656461,0.09995983448718954,0.06186256961050646,0.0702645289258981,0.08373191372203512,0.055359767070903364,0.04443557016032734,0.03630173622122471,0.06218980972788538,0.023727679187223412,0.10199495200879596,-0.03825392720435224,0.031060143130679705,0.016638527758425153,0.01962797387055701,-0.005015313360102152,0.059264194148679984,0.01055044501947738,0.048379338748945885,0.1139734098930705,-0.07337642411205174,0.017004209978574603,-0.04229894943809895,-0.006499386676353509,0.08098288010001964,-0.02061039580054917,0.047616615058552615,0.02470944144586841,-0.015254850448914099,0.0037243606273205557,0.10093962443485943,0.10147251467761059,0.09671766624513466,0.06999086445152755,-0.014662661212669674,0.017531480943369804,-0.00858027644731063,0.06250661179089208,0.035693669692936435,-0.051356039976427986,0.07427456055152248,-0.009440487300240837,-0.056966358620058034,-0.06606573921959276,0.11064733957125454,0.05629524327652548,0.04869724826092757,0.047113029092385045,-0.0321872371850857,0.056360524300048315,0.038357784464313455,0.033710312099444854,0.03265739196177032,-0.07050613716607994,-0.05286343966053932,0.10015020229138268,0.06892226794539189,0.008099948659737587,0.11473227240044848,0.024973200946544632,0.016571122437260506,0.09304667818829601,-0.01977477345747612,0.07582220982457978,-0.01039661842343683,-0.017088782883025927,-0.03921583293480392,0.040407737542452776,0.06822591294542983,0.004858963691836263,0.06307667181464519,-0.025837986144173156,0.04954839965911812,0.08134312574915464,0.019307729583680946,0.07043317559524621,-0.008856462150833584,0.005008377539742442,0.07537197952946952,-0.058938906691433916,0.07219273391975638,-0.036014261500935583,0.10111644336998668,-0.01931221284997824,0.04259430668996915,0.09788412856935397,0.05275894002654442,-0.0652295184197396,-0.03261468485699697,0.0875226986232466,0.0023623980146666402,-0.03180968947438728,-0.02479222313088308,0.04879278873451407,-0.061212067306846425,-0.018053737339194447,0.07592324405108285,-0.07258707325233192,0.045890511506687194,0.11493779215989679,0.03433573363596794,-0.02334832970648525,0.0028389809945336083,-0.010589766254814816,0.06183925951299342,0.052366091575683664,-0.01461171294514479,-0.037784756750247964,-0.07412325995181314,0.10314605168400527,-0.011501911400743138,0.047022453009319995,-0.004537543186835363,0.10141338418423856,-0.070122075356709,-0.0549847547302279,0.07079082885473217,0.003442194821297901,-0.046827477847395146,0.09753555364128708,0.07102690772470936,0.06320995516233964,-0.026042575756252337,0.09628476065422296,-0.022258291611558047,-0.030701300771250436,-0.04097667521800018,0.11129803776584923,0.014502328608474857,0.04697950953531906,0.11215364186790966,-0.024101747022296855,0.09373685732959064,0.03871641838997947,0.03829147825532382,0.04051357649159738,0.07899132376040882,-0.04860726021148789,-0.07761658152706143,-0.014969138614910086,0.0283729728411375,0.05864223742477365,0.03977367063218322,0.07111807545473361,-0.06100071371946474,0.0006809059683065144,0.12539821966126508,0.045750043671758,0.12354758952212082,0.10569455549894029,0.03174705276576037,-0.07635866136136435,0.029714285492387894,0.07755774732156182,-0.003946665732457553,-0.06781323082843389,-0.0309710123884035,0.10879736481646912,0.02172952717690657,0.06673262137457747,-0.0018036113658118525,-0.037121535515327216,0.06752731267743231,-0.014382089532634148,0.1120825814918401,-0.04740429679319844,0.04873228443110389,-0.012040995126587531,-0.03242827693130256,0.11134725926351587,0.04209873276946531,0.12192423443300528,0.08671868491264087,-0.016151162134697875,-0.04300973787394774,-0.007022379680081486,-0.006297105221869033,0.011738675322709386,0.11778880612200213,-0.02568219350371598,0.017945234910686773,-0.004834632063680332,-0.07840149881513264,-0.03297833621302043,-0.012254616920942164,0.051507526933239164,-0.07730653784640021,0.0648917473758188,0.06913380124960522,0.0076548973523619815,-0.06497048759839134,0.07766667575792674,0.001742114233766341,0.11792574399328734,0.036735069298961066,-0.035019007050784104,0.08924439944344056,0.07920588160254448,0.08206658586460853,0.02858210264021882,-0.0036990307180322264,-0.042266176904451946,0.0637666614922586,-0.01735987447164026,-0.0584179841940369,0.08469293015364393,0.03121823503610749,0.021755453084527556,0.05648824025563184,0.08494216509708198,-0.0214705662835719,-0.06752005113363692,-0.0021864863189619134,0.0860264767012042,0.06661598521376177,0.03573338494521146,0.02823836949193993,-0.03566495924469104,0.1119307763939577,-0.03184182211704141,0.030474675969406666,0.008580750416096204,0.00380802701419243,0.0657212615966427,-0.04487031597040891,-0.009293431074030216,-0.04345412548437259,0.11041401212215543,-0.018372055473187657,-0.0002293984601209066,0.07503205629503988,-0.03754136195210679,-0.058932476917266885,-0.017387419916527532,0.001325208269960865,0.10942398046128587,-0.06490313488876177,0.10935756192268682,-0.023888339169576455,-0.005413880195708431,0.08430214568620027,-0.07465137293949253,0.10549996404647774,0.05922847162009268,0.06154004367177251,0.10412664521818252,0.06677707555870693,0.11750079917941232,-0.040136186784007544,0.049169337786206094,-0.033126863634641644,-0.06661510930233168,-0.028556610636101057,0.07210571157775832,-0.01872749049578302,0.1271577250176586,-0.048788173679798895,0.05043992705169589,0.11831195317409858,0.11955382696827194,-0.0112328807837407,0.07448803834351973,0.09561647077142957,0.06762503303943995,-0.04041577799973535,-0.06350613071784743,0.043126302836161104,0.09075806647428028,-0.03892237265253723,0.0742467927701658,0.0012835030699639067,0.05255004523018506,-0.009094329341011776,-0.022209295650278963,-0.06100071423185148,0.09332552366023186,0.009722367580037828,0.07950112329294642,0.015517011204564096,-0.026993440267462556,-0.011781718466903084,0.03126579057294762,0.02595278363260042,-0.01898726417766143,0.10415176145002795,-0.05590325790883347,0.05307220834152445,-0.032598257932246445,0.01726398672371589,0.10427642107823207,-0.017938894760005063,-0.06871915135210097,0.07174535535576404,0.09755414676287116,-0.06783449310794516,0.014978746177748756,-0.015823777888862887,-0.006146299787670828,-0.06566409760860348,-0.016936617216235274,0.06932898651966574,0.10925395219651689,0.045094755107736695,-0.0038497582951715764,0.07432264987345524,-0.010036619889336032,-0.06873397398022485,-0.015961555207378745,0.025345144927785022,0.07508912872032333,0.07343203422525522,0.08202441560444228,0.05622953967614835,0.02520792085496282,0.00975386010147755,0.02850608463437507,0.034806857901235874,-0.06635649524109653,-0.04904626681329504,0.022009306992572815,0.06023519883922113,0.02322995390139387,-0.05737904402637767,-0.038934043605630235,0.10294707224471629,-0.010716985754899586,-0.03381465636748841,-0.03422981465895474,0.08436146109416734,-0.05544594284810811,0.11021099596290826,0.10025026031969521,-0.05975034812703121,0.06454786286025485,0.10171956371480331,-0.04248138571655291,0.06304656979314226,-0.050002348964764416,-0.052848175425395286,0.10784706520440429,0.06485198744347709,0.11321832458752294,0.058784523672803554,0.09501929897115924,0.02434374910945747,0.05380791066150886,0.08106630171508378,0.007994297466071177,0.0010099385272795205,-0.027837126726298653,0.03462294834484892,0.06572924338898524,-0.03949834251281456,-0.010685590753778399,-0.020592288166837853,0.04484117385296737,0.111110153198166,-0.018865295745742684,0.05509945608311203,0.07075172374754127,0.06375651303877547,0.11868898666236956,0.10544492147281422,-0.0699422079196139,0.038903541413708255,0.07003940154403394,-0.039647171896935694,-0.022358976997628774,0.06625821367651495,0.036362823900400784,-0.01191063032253942,-0.04575285380075456,0.027561778238746573,0.009323985396981017,0.10568692432760993,-0.0064805896936190556,0.0918169821077421,-0.06594951547757444,-0.027255823205756965,0.010172367347585877,-0.05280539900501298,0.08339580981270227,0.09756199277548497,0.09569279927423674,0.045602653987682054,-0.016015783645022205,0.058761804850946994,-0.03634121921636154,0.02716486011274997,-0.06459655836165715,-0.0272937128177776,0.12058151556176673,0.018193693078928454,0.11562795346744714,-0.02406586339594036,0.03301568558634971,0.09270054749909407,-0.0649784788456466,0.01817335899872848,0.0018077364718191815,0.009997919770865775,0.014482714357964454,-0.015739026951061857,-0.033720929014036,0.009840418521056559,0.02895677658536421,0.021537235802549386,0.10850215782479003,-0.020050405737430416,-0.06413129777832045,-0.027318974579205894,-0.028114160070336593,0.057238136755760796,0.07998209948977038,-0.02322524508402809,-0.0714792568710118,0.10572806527054132,0.02431066816445259,0.05503310584299287,-0.03977674177002121,-0.06776511718257527,-0.032716011212923536,0.031092493115269702,0.07946343874158644,-0.02404407539934791,0.04970141630163222,0.1054102185591418,-0.003921761980678575,-0.038407222676484706,-0.05540458666623225,-0.0688033965399848,0.005249217803533842,0.022818780196443067,-0.004023591878741744,0.06806675405087148,-0.053433267046642564,-0.002343479123569838,-0.047661917256375926,0.0505956226533032,0.09233988833112583,0.030307673817304995,-0.044090261556260106,-0.05298805936368011,0.08091280542548111,-0.07612081004589887,0.07628355116373409,-0.02909783625320195,0.04490856033906688,0.11605716703066622,0.055372168548155944,0.09503982562732295,-0.05652826180606959,0.04619953292722585,0.10833220811298241,-0.018277275175674217,0.018390693684994984,0.05175726914156338,0.05998580741330179,-0.049734600154971095,-0.0674446536032418,0.09320221165839644,0.027101822714693427,0.09437730617145736,-0.05687489411103826,0.022419456287723235,0.1210632600958131,-0.06762757855601338,0.06103263181557571,-0.010721189058272922,-0.028210195252441027,-0.04112548748633108,-0.044592973368162245,0.09980174529269498,-0.018009587430056654,0.07521682890849066,0.004485317718560214,0.03307924373678466,0.011457525774482684,0.016769222962369237,-0.06916289723609428,-0.025324592325682717,0.021492067884387765,-0.0652001347176597,0.0608901228157311,0.12055282293852941,0.05451214479858867,0.034400406821454774,0.08078413945966194,0.014439017375274924,0.10931873492445073,-0.01412621500733696,-0.037631722910627434,0.11514436703615827,0.05190721702886611,0.06825312744115464,0.05655746507717608,0.09198015302439631,0.05105416199851175,0.107777543748527,0.09553875193534374,0.06747011825112692,-0.07291305523930182,-0.024713050131440182,-0.05225491646975552,-0.06654965469395306,-0.0666656025607367,-0.04362056577216328,-0.023878472958989847,-0.01421158885702602,0.061198304060898774,-0.00787585573192593,0.11231361288394467,0.009377089568096898,0.1060633872165958,-0.006150371821409985,0.11537144500327114,-0.05669310275227209,-0.034292573139150094,0.0025986435774614292,-0.02042560828439334,0.04232100898728599,-0.019059038646585067,0.039016038428147604,0.07014971385896933,-0.015125344203410796,0.03865632565290587,-0.025330520518719618,-0.058762420621191185,0.1165947770207883,0.06403098707093582,-0.07616524045132898,0.023918801027199912,0.056484225636811776,0.04574346292057503,0.0495147323506533,0.11243085492325648,-0.07209392742628341,-0.04217500449429575,-0.04587786584193275,0.007005931341797187,0.006881658158316288,-0.012641373292429954,-0.07500921042455602,-0.08057472108934531,0.005963533293027324,0.06264691821678292,-0.010806034580391664,-0.01840299082372036,0.052528608575800245,0.034817045063649084,-0.0054121556802641775,0.020458377762317632,-0.019756474694854725,-0.06753252285611362,-0.059402625968224744,-0.06602989801092275,0.04275907473490374,0.11702643330663222,0.012911726208024974,-0.04961977788682588,-0.06819340396465616,0.04920008479982882,-0.013425265230622553,0.0950705312471201,0.02375044011040118,0.01751507833213347,0.0739135550254752,-0.04046301649593633,-0.017255553293796383,0.11023841584218136,0.06354059034599967,0.05998315020764852,0.057553489200883136,-0.04550314616887882,-0.01486886611422245,0.09851351695608705,-0.05466939097291529,-0.03471231890364988
-8.946431816104809,-0.3671476609546401,-0.41358817843408463,-0.34353141791439484,-0.14388954531779444,-0.6886806528107389,-0.12660666476541424,0.001910675175175956,-0.22806913350981414,-0.33096011822835997,-0.18342186111882677,-0.190552958756113,-0.5148464302813053,-0.19719144727691784,-0.08714045477735952,-0.15415000760562683,-0.25391308175278243,-0.2899731604720603,-0.4554586906997811,-0.3238139049448584,0.11367001801096398,-0.03315802498269527,-0.24582441430930035,-0.3370626180338631,-0.79540343903235,-0.2742570838189499,-0.2585909773555224,-0.35384350932432257,-0.16210279212192605,-0.03171156182760869,0.06806857587366814,-0.25192105084686645,-0.03977343379672425,-0.14676994554502484,0.0320793552735551,-0.16003754459626274,-0.246152772888255,-0.5195081988487753,-0.35777811984125507,-0.4453674448803138,0.07980017085468698,-0.11748257095901307,-0.39943372192168264,-0.2813516881117364,-0.43793495065965754,0.13438571687115014,-0.2997389651907684,-0.2472753669935259,-0.016820857411503257,-0.42717660559381726,-0.3615788216317643,-0.3779774347205675,-0.23329744423194973,-0.3611040045233025,-0.4816365966233768,-0.4243226951652084,0.028830222122319085,0.0674297409794175,-0.6758324274972111,-0.25962633414565117,-0.052813709261486624,-0.25343694750597257,-0.41604219302760675,-0.07355293532149021,-0.40175733391891005,-0.13265295709376185,-0.5253051406273613,-0.22982313669953855,-0.13180307329670668,-0.1326199783832562,0.0724393451257243,-0.16087579256727294,-0.030522314718393537,-0.3432766906698058,-0.3520392393270458,-0.07455762752042702,-0.5489731121259592,-0.43855217594930007,0.049026855102627886,-0.20049438651825705,-0.536906486218296,-0.3386763558423049,-0.46045124204216137,-0.33740624893102183,-0.30330361291349395,-0.3635754092487048,-0.5764453560317669,-0.6065853535824713,0.06657966837570507,0.11639711496366613,-0.581261402350184,-0.052608407879446206,-0.419062428914489,0.08886025772905236,-0.3792649143301488,-0.6796497983601517,-0.2495352747940004,-0.22149124173123225,-0.6933385910163881,-0.7721007468737362,-0.7603159337057187,-0.6572892884800781,-0.7267797256616935,-0.36466010247285474,-0.3421164714621434,-0.3991348851647472,-0.8907941099517789,-0.3544418694884219,-0.12423769079503096,-0.4490568303993389,-0.14783949240123778,-0.008964195956379992,-0.30487076957956516,0.19523822936409824,-0.46002304282924034,-0.4810324110433433,-0.3718737594790546,0.08051567106989962,-0.40673989772208596,-0.3472763711568253,0.19009593879698086,0.011837988204025394,0.08935072576858011,0.06901153659471641,-0.517441198718352,-0.6657921802598213,-0.9402436431417298,-1.216747571055251,-1.2313716823399914,-1.3612798775198758,-1.1668366188521913,-0.5519781271695607,-0.24352076832944072,0.25163858631190394,-0.23663835277838388,-0.9471892484057469,-0.34019711641540107,-0.3993413614139667,-0.5077425321995522,-0.0750022530528262,-0.3131627639435813,-0.45574361266325847,-0.17599715897603163,-0.23513330747772537,-0.21096340324802218,-0.5716470142520652,-0.4868565530975092,-0.013381344073160632,-0.14221410929197986,0.726034615329981,0.6593211780917994,0.02661138176425965,-0.4133440054737339,0.025760576774455226,-0.2607433756059056,-0.698781874931998,-0.5337862764101273,-0.8507283192507717,0.2600481454047967,0.2632528139461461,0.2609488251659556,-0.38183470753406595,-0.2385978023647374,-0.2258682326092066,0.020834809277722778,0.3918921875573265,-0.8736159228352665,-0.5294439840565213,-0.6361991337190324,-0.6533896861362893,-0.3006071143636047,-0.5013533970104589,-0.18759411608251406,-0.24553344233786073,-0.09307964877568889,0.24972209946978888,0.30498377757059747,0.11065375817624706,0.5216124435232491,0.6630597947495627,0.2648583547142786,0.7359925886619751,0.28693398975658563,0.04891807595335943,0.2371955375331216,0.9791888112300244,0.6354596519078246,1.1830182515997956,0.5405063591369658,0.4605175253966949,-0.02439281179434057,0.29255216005354606,-0.3337368558611737,-0.05033791864756857,-0.06596485556576505,-0.09468586301348805,-0.20341628722988433,-0.334534834403146,0.15653096347638523,-0.23096176651316508,-0.35897718157304753,-0.056099461068388486,-0.04013717076400512,0.3746785002266359,0.6188076861346935,1.0138378337694038,0.37327063319499876,1.4289280346362956,0.16933261950384762,0.1986797020440718,0.7375673794998198,0.2710818189528184,0.9599015499989261,1.2216329762120153,1.202629879971451,0.9889100309280965,1.2577418179760222,0.8113927496753915,0.7713323572093288,0.919212628859135,-0.012170236500604798,0.09228476175426137,0.07269682430287706,-0.22994166168531696,-0.6137486427975627,-0.2955828019631331,-0.05909693333078391,0.061873572308289174,0.3082206782620333,-0.28623365519939903,0.14553966071824395,0.5659936882461599,1.3795870983710237,0.8659401927809242,0.8386726052931366,0.5585875963900703,0.21074353215830627,0.46199669035426394,0.24971384594506843,0.8524702645583704,0.8413157559703754,0.8553022158356047,1.4722442127723636,0.782552113080318,0.48404720903650633,0.6838390240277965,0.7120414815474987,0.5603974439038164,-0.3621919039444374,-0.34174118778487295,-0.04429376606579975,-0.539782725711804,-0.5115348953665444,0.13095369245079613,-0.1657904574556088,-0.13426255430301756,0.3415283412383412,-0.25558342613991664,0.3737442103250854,0.7651691564010665,0.9280279996272303,0.7718622700162946,0.506121364752772,0.9849891631371185,1.1083961445660686,0.694464614059707,0.8390574407381464,0.6191855275466106,1.0161869850577296,1.266352292883823,0.56345663878829,0.5262703819472198,0.28722060423239304,0.8033898551233857,0.8755212725640437,0.41215670698329665,0.46399723181872154,0.05914311790927133,-0.2905240494609205,-0.6177672454312916,0.0558784981064894,-0.381288334527174,0.4080358665417782,0.2101742041232717,-0.2772051755341778,0.006761530356715821,-0.08038030591610316,0.7144514673415585,0.37850020985010274,0.3123569170411558,0.32067294452408046,0.550617234008045,0.5341197903682543,0.6190270311871663,0.40508036233890937,-0.1513942674592569,0.9871529991515309,1.1400394883328355,0.794403849278474,0.10875205477629606,0.8782186908164261,0.9210149445703177,0.7098281545405755,0.5524777211404659,0.15851992505483303,0.0560338243268558,-0.1395029049632714,-0.27960157539444774,-0.5589271335084773,-0.19919206169090065,-0.32301540441432947,-0.2575969695246894,-0.17541100702168383,-0.2662954192447598,-0.1607993820014453,0.291041510554359,0.13604669493058288,0.33868204948423913,0.04743621890248956,0.5824243714912444,0.8718447392697405,1.001768520524225,0.10827594275421185,0.04881062776148609,0.35408106963155944,0.33194370109343163,1.1225890033483423,0.38739918048881405,0.6877918095735902,0.57892769434677,0.6985319662266456,0.7011430551301316,0.16977242814150983,-0.17022328256198893,-0.14291245344790124,-0.6900216558622371,-0.2733034141080446,0.020681321725554248,-0.5727314014887518,-0.17472956075297846,-0.07261122174922807,-0.2915559167897001,0.13382607540359823,-0.2296619971236158,-0.06213033580967803,0.3106932952172176,-0.17002042282861415,0.3440528011909412,0.8535152294114832,0.020667436715737255,-0.2031549413717638,0.16550819693591434,0.7272597612852908,0.8314300787536638,0.46399670885095284,0.7338031996876134,0.44843325057665967,1.004474049476512,0.4054461736413875,0.7166511228375158,0.12787887588360777,-0.3935656502916281,-0.40262680314628707,-0.5012453019524981,-0.06180572961898817,-0.31066880686337794,0.15655474377542053,0.20330096969211517,-0.08195711646654313,-0.01753973318988361,-0.26179250965075074,0.05115725835214038,-0.4393973106672496,-1.0554418084585122,-0.4715120423112209,-0.6653223352648875,-0.919148506771559,-0.18836486337879202,-0.05094010309671056,-0.12741613945747277,1.180697097168677,0.5866280408867435,0.34445517157763117,0.026265011908424472,0.35933112639231835,0.30376445014986586,0.7008929202847315,0.46427218430606176,0.17082785405041584,-0.29050904560815205,0.12340100446074288,0.15964181829436278,-0.1917956082184565,-0.400263089283378,-0.6462247335681729,-0.3974324870775392,-0.3581140526005162,-0.3064258145255288,0.23274078802630674,-0.5556729744117869,-0.716424401540336,-0.6923349183504343,-1.2337498921470405,-1.162723355061241,-0.7709879270134744,-0.3023712445258741,0.1400317727939961,0.20714759138642744,0.3887915477860177,-0.18717699425389087,-0.9895039906895774,-1.1205340250421247,-0.44163670493147045,-0.08248395233509057,0.5776306323538909,-0.05125844833467588,0.4561890003421621,-0.4514630951237547,-0.38736140216702314,-0.39099349838006764,-0.3208079206283561,0.44388176193816664,-0.2947235619719706,-0.6267061600243481,-0.028206179000239934,0.22625327048364627,-0.3775506626079447,-0.555207826897968,-0.9070191003770648,-0.7222796462549868,-1.1534221018868909,-1.3787710170361338,-0.7069047343200295,0.47170012262728056,0.48618409050393124,1.0277222490855338,0.23056281379536897,-0.5030109880287361,-1.8817989045375338,-1.5037861874228295,-1.157699157668446,0.30852024691720153,0.2608439902410261,0.4197515605568325,0.06857858875043679,-0.32995705103930745,-0.3111718918558007,-0.08378004152413109,-0.24552243238287136,0.08716034503992433,-0.6827614704082668,-0.45698532928550406,0.19174517767896126,-0.9828481039418622,-0.2733476548382991,-0.37197621724988195,-0.7551580678363329,-0.6519769910364415,-0.576784621178956,-0.11597977541850155,0.7038937599538929,2.370214611084727,2.2068512928292874,0.9721471274435697,-0.05276004001306548,-1.2742963703351389,-1.857398899845101,-1.297611078345865,-0.7474817941586755,0.2777857388652381,0.5349622212665314,0.7296824267978864,0.08963738637854765,-0.28989580889863,-0.3177309819392173,-0.5006156250530681,-0.05571689631126859,-0.5397673523580254,-0.34892693051441215,-0.4621427000893595,-0.42943178137862764,-0.43444243462783855,-0.36480072462758933,-0.8358829390633026,-0.4981311143807834,0.013933807836064805,0.6675910294773003,1.7677852468149202,2.09759259793284,3.1999344698588956,2.6628743223106834,1.0578883171266822,-0.4777529453850522,-1.7837863348008687,-2.1724687361927297,-1.5686192540377044,-0.7982064711996595,-0.11742379965740445,1.1447051946557998,0.9743173179165613,0.31953160581850304,-0.3272122900751459,-0.29261115854374925,-0.06349551829303896,-0.5432126409631808,-0.3270979782551389,-0.503956496126492,-0.5615145924193049,-0.0976331511829158,-0.8432046396962474,-0.49065617479222995,-0.40218542668030427,0.6088030443152506,0.7665356817494997,1.8548892944838349,2.3979368567462203,3.052852621912736,3.322082290149478,1.581408777906214,0.20418723729785745,-0.6511718531283193,-1.327391802328966,-1.1944059017706783,-1.427740019874595,-0.057660514230338855,0.47273708969327555,0.4844484588121983,0.7938056983226931,0.048784735738630215,-0.35002846007217026,-0.6773407445680486,-0.39072412081466035,0.013873912099528304,-0.2090427896745284,-0.31688394373285983,0.07992759521901885,-0.4401800771350274,-0.023540466725955243,-1.4485833770338228,-0.30084048868363916,-0.4793724785715886,0.7755042227013784,1.3168434318561812,2.6402332600414984,2.6083805206900066,2.5267453576771914,0.5184079082978434,-0.8761370200909767,-1.9584499864046532,-1.2050568674456188,-1.2733261329070344,-0.8713148087812163,0.34994445491821347,1.2928414328804216,1.3097350802620005,0.6850326049776067,-0.1136356594818863,0.12695613648024168,-0.4339900365978549,-0.5705184986230626,-0.694878162730295,-0.10989650083068078,-0.09559626646484826,0.08552635344356302,-0.7277782114272683,-0.7563697649190715,-0.64072933276259,-0.8104759116414196,-0.5575109769121995,0.4829163416662501,1.518756877462912,2.238207827528516,2.096361484021082,0.7723660785315543,-0.7608522339368169,-2.1098080761495748,-1.1015772021260277,-1.2616944981162606,-0.39891218067863504,-0.09947579322659797,1.101385348493964,1.525427498324763,1.15180519100867,0.3435287715042387,0.14065439389976828,-0.3861022761734765,-0.6114030718051443,-0.271073625783292,-0.47817691642029625,-0.47214482580786415,-0.1906209966660037,-0.06446621130447994,-0.497920825490357,-0.6713583486349894,-0.4298961320222917,-0.372588038879256,-0.5409123465524225,0.22545397375091178,1.458376156508928,1.6277331721070267,1.7464730711731329,0.09475025119249697,-1.400381416412116,-2.0176110141513948,-0.9307163469050502,-0.8546727245632777,0.4909324783469766,0.3573537504727117,1.298360214849734,1.1864577463934323,1.0027730728919846,-0.18858078197025455,-0.6983633956728464,-0.08619388546427911,-0.2986581956748935,-0.18899388568757766,-0.7602398114375066,0.015386875049570647,-0.14498895372318293,-0.42279293141690183,-0.11237532312513117,-0.28553878095397267,-0.5587364905046042,-0.3328929775205213,-0.4644380832083989,0.48722108415682286,1.5118318970611606,2.2616799657466107,1.3743152072055984,-0.5582778836254297,-0.41636914698173333,-0.8374763539962959,-0.39457084213160004,0.5364128383856493,0.7286740074050504,1.3394481798356117,0.8170001588784589,1.0731005605625392,0.12054842695103558,-0.114440130313394,-0.09676674151320548,-0.21392204134690337,-0.30723266166266266,-0.11233110274643952,-0.3362455608814807,0.011640909997783161,-0.4914688846633341,0.07630770513440245,-0.03225241792270501,-0.33986302418060294,-0.3628591479958529,-0.06486961495984114,0.06406950502647524,0.620158630305618,1.2055891150122993,1.4874114947058523,1.1249437164425062,0.46113205176977196,-0.213841322735845,0.11250134101472048,0.8580876099295697,0.8316315032446132,0.7716439464338073,0.6389788731420494,-0.04535698489492218,0.41027007034415264,-0.32942484681212914,-0.8574648783445397,0.04669286433492348,-0.13621109382356508,-0.7430916382820142,-0.3597515470617918,-0.5679671276671617,-0.4057979677226304,0.11931920858194651,-0.5814168068743867,-0.3051501748666706,-0.3523048197521905,-0.4246426793007797,-0.5309438481236964,-0.27402492930379585,0.6701216796255833,0.45703256928121594,0.8396681616271704,0.5146941190103863,0.40769737945700096,0.2191056824236731,0.585946737369056,0.39067391216020975,0.40622728804218927,0.2540062976775616,-0.214742315144728,-0.23291591135867776,-0.24264131047482043,-0.3160299776535212,-0.3968485668117565,-0.3982106288771778,-0.2753839537079265,-0.03530297761837267,-0.45041072005501764,-0.10448926494694391,-0.0013379081967268612,-0.7153271877281816,-0.07047843133243922,-0.19083210765418235,-0.6385975681901983,0.07948872124565645,-0.27645848117210176,0.30542733278650425,0.17264848786310147,0.42137769485501275,0.25592904476869405,-0.33597049018937175,-0.5289731537456975,-0.40513729380754326,-0.38215183941883757,-0.2793329466621795,0.049535164191271436,0.07802090778548834,0.08819241596279387,-0.38415168926080123,0.074892917821786,0.062196230985213916,0.06438394159234663,-0.2718194777562742,-0.3499792689577233,-0.3872755616513127,-0.2833713574499481,-0.1385569726193508,-0.18823912878505558,0.13256145426296592,-0.4563122123566204,-0.3220367714273178,-0.4018381460020041,-0.87367421245168,-0.365873795691482,0.014492732777903194,0.3747382615256026,-0.3325647135028853,0.15801186174950266,-0.32891511189683603,-0.5038085153525895,0.06604694399889473,0.13660760879659795,-0.31873713314551233,-0.23374875509978388,-0.6760123907517723,-0.06287765347900269,-0.38128003131639765,-0.18708892487627296,-0.21728055549600325,-0.21718011348312627,0.2309032134785169,0.026147732340801037,-0.5450795812911183,-0.6668175292768702,-0.19737315805972755,-0.21452994416684681,-0.3151000580791549,-0.6571783884192101,-0.6874420820934679,-0.22477317587524528,-0.3675648520413662,-0.1844213201697699,-0.5424965539396032,-0.7655605761926912,-0.4750098972793212,-0.36881393356103886,-0.08754958437927633,-0.6615835630791007,0.16196143935622584,-0.08580695771720535,-0.4307316238669479,-0.35537024416686613,-0.8512349784131659,-0.10881214916936317,-0.44088763882572546,-0.023319909006468957,-0.2931699468579361,-1.0689963545621015,-0.040775848626561174,-0.4768350017770575,-0.8019186408053709,-0.24719619535884169,-0.29906929156687434
0.05828763258859616,0.01545910099703092,-0.030280240774621072,0.05903157917284583,0.06853740930421008,-0.045282850373329186,0.01396343456239431,0.050737540453565474,0.03332465063200015,0.07853432000746209,0.06865249277156088,0.04546243545548685,-0.05466961725925942,-0.04936437819824008,0.03322024396577584,0.017719478693651973,0.05491212643691019,-0.019995529478411822,-0.014851611757956192,0.050681890281098985,0.11224857314475138,0.11052339310865067,-0.050635855462525525,-0.06264985109950068,0.024807616315206726,0.06384245227345348,-0.054551821571737553,-0.05063670585532227,0.0919227019515984,-0.048766599280332196,-0.014023962631848469,-0.011307814264886577,-0.005069111278317722,0.047501820190484864,0.06350230208997938,0.04302264212064607,-0.043809391555718044,0.01966073418401881,-0.033141290517594145,-0.07738788828745521,-0.05122368599636508,0.02045597811604619,-0.07597537630655347,0.06559555027525873,-0.06314453584792756,0.07699439400547967,0.10025940226128241,0.053197992428946406,0.07724433628029835,0.006756643034656024,-0.026622255366673123,0.10136949877881486,0.043843352591288465,0.05873070657106884,-0.032782480602485974,0.0247975810522422,-0.06570358542153582,-0.06033536442467468,0.08081805047729572,-0.041960501512418695,-0.03946318076501546,-0.014160557787579898,-0.03203537454179213,-0.06252505034165344,0.00869568247034469,0.0768232687619798,0.02478165376408801,0.007159973313527183,0.07720187585145764,0.011871866804206871,0.10914829415219403,0.0333870075228813,0.10517479970037683,0.06437309279864249,-0.030312535322662832,0.06605679721239854,0.05449542060039071,0.04826323635612844,-0.03130270441323497,-0.058387279367675016,0.012018826895459498,-0.07716021146670653,-0.03825591995085648,0.10764072538248733,0.05074262495310226,-0.0730899316990673,0.08951664935302234,0.09326810167328813,-0.05258257337630239,0.08894813641593609,0.01560502261239913,0.03202455677092904,0.08310502180491595,0.0655505949811381,0.09864448346653606,0.03942028182644097,0.07627472353813845,0.047217019474757385,-0.08018006598935583,0.019916548698041762,0.12213232193266517,0.028075075089149498,0.05440167025492151,-0.06393765842862274,0.05192276686752439,0.057544034627327864,0.04044230383110452,0.011286008010474816,0.11008013806463504,0.015966385327566075,0.04681911614882798,0.009319289996894986,0.10944540582281637,-0.011393711026982924,-0.03528531142851353,0.035905872601254836,-0.04877544912487086,-0.06585531323303938,0.09352236344075236,0.07814866754731153,-0.010647150299571901,0.012530594628492644,0.05832731419645886,0.04534386000130326,-0.01346399246873266,-0.01850110108617346,-0.007366135260542548,-0.05978497517864822,0.07574508836467732,-0.06656075694590304,0.05158941407891495,0.01062415855763923,-0.08051976162073125,-0.023725750192905324,0.014418472293918244,-0.051093481513097304,-0.01910656934121033,-0.05886457136183163,0.010414187284736184,0.014978551092574252,-0.04207576154007055,-0.05180477937432745,-0.0025455465431072897,-0.0604246299838993,0.05744525584833,0.08995119065410326,-0.009941675864162497,0.010700014341955945,-0.029552511587521688,0.0687010567101452,0.10074395364361645,0.07400186587201404,-0.05000031737531671,-0.035830234112262334,0.05978836598804166,-0.07213415303259668,0.018517080339382902,-0.01876597238749774,-0.017203957928359277,0.0850811249985948,0.056526567666084354,-0.06837960904603443,0.03802107561332173,0.061174324830375534,0.09953843769450385,0.06129894977088259,-0.035633908018196235,0.03128645776543285,0.10405372790417364,-0.009237417244202328,-0.04508168821373967,-0.06715927211549175,-0.05349893603918354,-0.03665634807470632,-0.027484609956948444,0.008208155446220337,0.014010331353380425,0.0019223002619201711,0.08476373603097714,-0.021048574383554106,-0.033011394248199565,-0.02352760643333255,-0.047164672650673554,0.07597259422326941,0.01860119798519464,-0.059826750125258066,0.0903747807911552,0.027642563910085,-0.07385710686059933,-0.053787474133467975,-0.04929358062967488,0.0228054196905523,-0.07560337937170254,-0.010733449658289368,0.052752138282628154,-0.06804116312325993,0.05419768693267854,0.03272955949311323,-0.014562262303254598,0.040003069400112015,-0.05745272842430201,0.09524840985998306,0.1066921298095042,-0.053671692808162336,-0.030736266036815646,-0.060321315087956316,-0.021153926968737583,-0.059542815468665966,-0.08360731015250268,0.0048601808200453974,0.10097959035179188,0.06812409742907723,0.08011269954492392,0.027720182468683793,0.06894548067831338,0.047580683223405536,0.0857536494837768,0.0961705605063998,0.008193819738215093,-0.05019999715149693,-0.03612271738351382,0.06648397105680066,-0.02254024003258344,0.02267218830187169,-0.02038803624201053,0.04168158594790814,-0.03468502790457235,0.045623735988746646,0.000983133484029706,0.016402459699532187,0.0013655696474228433,0.06572760407439028,-0.06722967600488121,0.08807350571141627,-0.03692080235734002,-0.0442723892015899,-0.04576079035659692,0.1059501193536507,0.09655469634330728,0.02332467612820774,0.009343879378627195,0.08677959991979399,-0.04502770081940076,0.06974266444108401,-0.017742961225280022,0.007158116125381354,0.04337582859754935,0.03294739492470301,0.11045590753249473,-0.07903747684298909,-0.046194511315990915,-0.04498496272591102,0.0021530943441260236,0.07621575370361021,-0.04007140996418678,-0.013701863533723454,0.10621721878473525,-0.008929397312794561,0.060553235761990405,0.0798056422779155,0.047042482304213096,-0.03405505188128933,0.006065281888520398,-0.05684931221554546,0.09308585545898718,0.10407575825488405,-0.03317000251969171,0.025875095383194973,-0.05438180495914093,0.08622517427617414,0.10547845562368992,0.033264652816904744,0.1187622673478146,0.07673737815341594,-0.07011285319510158,-0.07117510692368431,-0.07180533615889295,0.006526940669237879,-0.07020696139623596,-0.03480916207502301,0.05097537177806318,-0.033232254330757625,0.004275298072327261,0.05519242159190236,0.0794823886979184,-0.06531339054146666,-0.06494304741109143,0.014928733334037719,0.10489067250448367,0.05960744129005121,-0.01811979858828967,0.08497201769089498,0.03236608104480894,0.12062535633840576,-0.022196291251340153,0.09613965222487797,-0.02900493433851164,0.07293143827644531,0.12153722350261904,0.10156008643613537,-0.07785219722730088,-0.029212428239790318,0.1108384932659187,0.07119845534567756,0.025731090638886202,0.10124231092240878,0.00108338273479039,0.029050652797150047,0.07926954107097185,0.07515412635773117,-0.07712792400643824,0.10304229420107248,0.09110621152237189,-0.05313351456237971,-0.00985213302096069,-0.008219180582286838,0.03159046311873616,0.03544821925239339,0.04578265816635249,0.08084592031120127,0.01231464430727634,0.03000229817394334,-0.039225826394406756,-0.06096199385171173,0.026160361843405512,0.054249809913006077,0.09517306266971189,-0.07094045418971033,0.04580913706235129,-0.06595477232038748,0.08660289854959843,0.029612739509731364,-0.008441801853070143,0.05628196251256792,0.038755164149517345,0.0008182317095051669,0.06922223918266787,-0.07045987651094084,0.047564320324632474,-0.08255336797840997,0.0910306478521783,0.023819384291200313,0.027283316287389916,0.10877475229360052,-0.033064716659646075,-0.033774491547690515,-0.018044041158137555,0.06250683006067172,-0.054983643796964445,-0.07082657172760015,-0.06119139830012761,0.09314696490385636,0.07773878951873084,0.1183301402492466,0.0957568426738532,0.10417753045833605,0.09390373289863707,-0.008674685002272173,-0.06192921323345353,0.05906508708185611,0.02993266514142566,0.05680339663305215,0.06646008354406871,0.09841933060538036,-0.01755768428655712,0.014866655846274831,0.10280117116183213,-0.03994220765534738,0.09758297344121396,-0.04044415060309979,-0.028725235982612212,0.08844871094172616,0.04790541652233391,0.0875006847033532,-0.047181281836993154,-0.07306821721214421,0.09980919691020533,-0.0574830523560584,-0.06218395590134893,0.0008450817205796509,0.10200136037759873,0.08755845320333634,0.09497971397005543,-0.011636821093882024,-0.055498577717333304,0.04512414703278977,-0.04775616658211133,0.09313452510050724,-0.0415015155639155,0.08332450832087374,0.00024302850413461893,-0.06492605800774236,-0.013716266904490678,0.01714059269346946,-0.003930940355758874,0.0804323101477405,-0.07569504798625609,0.07696320972052363,0.0815056096220051,0.013090468019616311,-0.043259707333651476,0.04380200113607634,0.09213846486713838,0.08937376869141166,-0.0048047288719561335,0.0883761365651412,0.11351155116550216,-0.05084654674946204,0.05596053325325012,0.01858181477301285,0.11916634122848907,0.0791995034677492,0.0953528381144497,-0.001250680762440463,0.020681736745261744,0.01941211892238518,-0.07519491896073632,0.11437314915873567,0.10064920426509995,0.1100554806952483,-0.04821854461771144,0.018280105903591568,0.0120932779275217,0.07549068919731515,0.10975436886764597,-0.042758628103935596,0.07588957621475419,0.008059510767636837,-0.02963710474176209,-0.06412075092864639,0.04850155423347459,0.06197462700090057,0.03574391030099088,0.10996819049269088,0.027323114014498117,-0.031480675193675464,0.09238443163974755,0.09703190180651222,0.06320707125645976,0.03112091093272323,0.061566390026090836,0.08572970015615128,0.10588455709265304,0.061454549068672884,-0.017043667401095697,-0.022494203762686054,0.10529972572525242,0.011280783735883667,-0.07854128623532956,-0.040771254780910746,-0.0006154541445864591,0.012997626193442226,-0.02862218741944717,-0.008567845020398096,0.10237964240395402,0.025992322855269118,-0.008261761088059953,0.07588552821757101,-0.009254940262674987,0.043439505038207864,0.1131208436408986,0.033368433200426685,0.0884804755559766,0.12952446688717126,0.13134661002384515,0.006248434606061236,0.04455599025105147,0.09919612788252326,-0.0038737030309131844,0.07506020666400819,-0.026461445151084388,0.10492892835268627,0.06704408226727329,0.0914070646806672,0.02898880468608867,0.015191649080042596,0.05709944157809554,-0.04552613525331269,-0.04947633699611395,0.057188994519380094,0.09946712517607124,-0.049123605488963454,0.08343795132965727,-0.0719128837091221,0.11433745377988709,-0.050416939109386834,-0.07465002775457501,0.09517476833902416,0.05444603004449906,-0.017832158525458833,0.039595049171527875,-0.037725851774109295,0.0764321810787678,0.022190675296120146,0.0872766870255448,0.061572419315883385,0.09173373124368961,0.06410427594074812,-0.016336514647184403,0.09247427073248615,0.06395113566180205,0.0559344234793945,0.10243322798935167,0.0034509300265710644,-0.034473493321784746,-0.007530331464186854,-0.06098819449120962,0.019655309344345794,-0.017835774019986306,0.10957244024164832,0.08883580021853557,0.07545892685362908,-0.06957573942150791,-0.006593886754989853,0.06357832313261608,0.01530961571301634,0.023623770144812074,-0.020658296167052555,0.044040278353900904,0.053340431233443134,0.017245656228860876,0.030764776862077913,0.0730891612959845,-0.004524543565652505,0.047815033454660795,-0.03332586046249339,0.03719262490397197,-0.0800317551758649,0.053443890494047686,-0.06519044790894082,-0.05910232810776241,-0.009406192829031906,0.08986252952095744,-0.06288567338445274,0.0041172878801297415,-0.013732042220227456,-0.005294738564315976,-0.012677075724156866,0.048435545333019636,0.0358365495479343,0.08863490361451162,-0.026055023488624776,0.014347734771317558,0.0014764998904138904,0.03106237317519431,0.09894221988597417,0.05842447648714474,-0.02489583240437151,0.06101381401694293,0.03080759131144419,-0.07228092510880338,0.031318612825096015,0.08287324083759842,0.011123392688640744,0.10695335964570783,-0.017450287014658963,-0.03174046219704341,0.02696741828382606,0.013674075428260967,0.10420464660084595,-0.0318563496761302,-0.030577431471658152,0.07771149757668967,0.04798400426258118,-0.017757987211137752,0.03954625797003585,0.01108745952363026,0.017621432617111885,-0.04979965152991471,0.04126105271707099,0.10888247118478458,-0.008365368238329837,0.02119035743561562,0.02048083252546136,0.0009811102533976443,0.02915947196838586,0.06572935755296168,0.09292828660988987,-0.03284179217846014,-0.01925976732770709,0.0156337370259503,-0.0334700860733865,0.06390273771403977,0.014742367755815626,-0.018006004854151707,0.0772835622397205,0.09071287896256901,0.036210701958468726,0.011096160728173321,-0.015078920868363833,-0.06994066781127085,0.025123960735104835,-0.005291510345196274,0.02378082714839742,0.07839725547444493,0.028433585331105248,-0.0691111530292207,-0.006198066765734926,0.10634107760432938,0.09535868997823878,0.11620616715229606,0.09120823642291853,-0.024686765650980737,0.08829596252609759,0.11801100424428752,0.040991287758875755,0.03516306082560054,0.049177529759462865,0.08248199767232053,0.09145067662863757,0.02383509695166005,0.028048748624462067,0.005021321050878181,0.07101588789961678,0.10305750958959815,0.007874690111040607,0.021119293184899166,-0.0389324383938892,0.018899303953326698,0.05272120950145619,0.012276837753022539,-0.0760242876991329,-0.049290245033592105,-0.06365715886825556,0.11327276497297882,-0.01792609291191933,-0.017729952359921388,-0.05781131518231963,-0.07224167543618605,0.09790495085575407,0.10137485629135573,-0.06798152082295239,-0.06076950757430568,0.0758764690352217,-0.07517470995030827,0.040206620970155496,-0.04764963593622875,-0.019874914273918562,0.03574267131539635,0.09777491971112201,0.1095970987034217,-0.009895501118423662,-0.031438196490590375,0.015144233991505494,-0.05383164718421776,-0.004731943988365662,0.022110040780700228,0.007394237549342315,-0.03685933916843769,-0.009664919157555529,0.11061494732787094,0.03429840700385553,0.04774288847694933,0.11365589593523069,0.04972265449146097,0.01050906762964912,0.07506508439385114,-0.07184283959175963,0.044391175292090385,0.05252317535795071,0.001257942086411933,-0.07526472234142907,0.0002957773171107934,0.0861544346664074,0.06229610286338601,-0.025821618637239054,0.0885770586658327,-0.07354526470837196,0.04831127760679044,0.034164633115798995,0.03208031120170164,0.0028418797339335574,-0.06940097187612274,0.07752329914422548,0.10474920302168525,0.09176919851874783,0.046584121490032444,-0.07569821283790888,-0.00870930558847286,0.07135555195441809,-0.040337363946781564,0.10030745481958539,0.11735319612078077,-0.058550944290144985,-0.031842553738345006,-0.045573114819134716,-0.045710684206532126,-0.01520925221342155,-0.03222728007971866,0.037404670139379384,0.06576104214021675,-0.04907233439940579,0.03847182804501853,-0.03487649189209529,-0.05618714436306202,0.048781173275355576,0.034367512409965745,0.04423989874106154,0.09911196409493651,0.11818307929899731,0.03683696872716911,0.05489637178904692,0.03483534664999269,-0.024901336511618005,0.057005838603534295,0.03895208758402681,-0.024242077179972902,0.0833010716374513,0.11320403959133464,0.07089288941679012,-0.06171244123198331,-0.04900975332673906,0.04267660218491636,0.08824692960428485,0.10758703812463988,0.06165160405951329,0.06163198538691997,0.05187545811408466,0.04614419231433055,0.09161042024176144,-0.044980388243983045,-0.07713914568224146,0.08729265461822595,0.09344489484519819,0.01984308651847508,-0.03640969709674778,0.0270369878182926,-0.02084178743446757,0.08576403937295043,-0.009613070925117335,0.09269015181844278,0.01812984719875282,-0.07387840595824458,-0.014390245474281183,0.082748081876681,-0.06853897390232191,-0.04911651077062612,-0.04725441065940838,0.10834746971281423,0.07149581800952909,-0.04070721690930326,0.033858450774360366,-0.04531088205523913,-0.04123183993948006,0.10659644988191799,-0.03344045917165571,0.015900759441243934,0.03745821685350653,-0.07990022745195957,-0.006771976083054044,-0.07464970098967862,0.009796900415056322,-0.06137955386167799,0.038900040761357293,0.0188209791207874,0.020192845862800332,0.054594827015833645,0.0015095626660582453,-0.07559117103855258,0.10109346021877845,0.10206384679927914,-0.06890516118789637,0.06419656740010733,-0.06589554754174555,-0.03519676497177843,0.10412593186853189,0.04582467648320592,0.10941116819060039,-0.06555184184442822,-0.030576448261406822,-0.041113597450624616,0.037813328818727544,0.019132237676696116,0.05070520353321718,-0.021232839641897594,-0.04578710940595405,0.10944224056797744,0.04318324386729795,0.04301191599767952,0.11186863999247863,-0.03564795308081338,-0.0006402440482954982,0.07681240322989757,0.00813854647871332,-0.007600501030323378
0.05300571486094712,0.023254369465830402,-0.0002637567296767916,-0.061024143094349066,0.1041745632019435,0.09882007288682546,-0.06522925516767353,-0.04034810146364319,-0.012758647195779155,0.10555107817460276,-0.05013792168396926,0.07461671474905755,0.10099843469252952,0.09126538785353451,0.0642248650155661,0.10593809291209559,-0.05366007791771542,-0.05645568660221113,0.01680190321611623,0.11092066103349406,0.022911427598130488,0.033784062580293914,0.08213332480833771,-0.017693455755462547,0.07895079868143673,0.0143735246328341,0.10904970492771485,0.06776189542996729,0.07382461599211201,0.07190201655107817,-0.058559421845515755,-0.013178301434000558,-0.053103684414170634,0.06523804002449564,-0.05137811685521823,0.07457273059569056,0.04585846200248837,-0.05846236680237488,-0.03862806051057292,-0.01654817814440046,0.049911927811505864,0.041333129816089206,0.0695044995137894,0.0926987217785396,0.05823758976445234,0.02459048324818545,0.09171853754848351,0.08997087455629404,0.02043730214226466,-0.011461527528140806,-0.01833893966903622,0.035532732342133784,-0.04736263046608047,-0.034287717640351344,0.005206497413079007,0.10329556315178601,0.0673871772951877,0.047203048189316435,-0.009555516325618693,0.05926856417569649,-0.07621811029208365,0.061651206005745675,0.01058651226595914,0.007055423590754281,0.0980106261597206,0.10351228623504759,-0.03793306663306843,0.0720373134783341,0.011972726177572677,0.0327871633304185,0.029239252235854832,0.08116781864146914,-0.054336453207142914,0.02311908390164284,-0.050686566821373014,0.008845938420677216,-0.06103773375814823,-0.014103927454610308,-0.06407695914259491,-0.057906723040542514,0.01087110626968518,0.0700491953873695,-0.04792801104841864,0.06917860663703936,0.0024868229665669663,0.06514074145072626,0.06769645033552713,-0.06345864442735587,0.11421871423281575,0.006826558822505075,0.027757221274582883,0.006435444682735733,-0.014379653496961553,0.06370974636455583,0.06868407317238795,0.09983977833709658,0.022318041374319746,0.08285151705870761,-0.03385590281920808,0.07537974999037943,0.08924990941459553,0.09652101087077153,0.046034031155680825,0.02494641650654456,0.09383771899181292,0.10564306192404524,-0.00047863232980486527,0.0929171208025931,-0.007055022120112182,0.09818306704707865,0.0714366310819507,0.02546397418264537,-0.06277692727977763,0.09839265290685753,0.07133924887458358,-0.02612654975693713,0.07772240872216801,0.10232531349329092,-0.01806873184456274,0.04478933528951568,0.033985508234662294,0.02242232468661569,-0.063582734824398,-0.010292434947901209,-0.031118007822888614,-0.03136736191778465,-0.0425297857614616,-0.014146409640135674,-0.0037271083705735482,-0.06587998116469244,0.0858105496964642,-0.049418138974303576,-0.011234051804971975,-0.05148183742339004,0.021256844115606653,0.023264258194270748,-0.058368867127766115,-0.07058140074215086,0.014316771193176514,-0.027652818898688876,0.06845335302046066,0.022753975911961953,-0.06779625342201064,0.024238110818207852,0.021577048447603286,-0.08477176059472188,0.10117349761029878,0.09737616032997866,-0.04516735493051829,0.03718221413491532,0.08238205530331372,0.08912916348891042,0.040325351546562915,0.011626810736055735,0.08409409448261349,0.03892832483836082,-0.05441032013112904,0.022114736099839365,0.10472899308060092,-0.07359756298808255,0.11338845927345867,0.0726140573534715,-0.05811504227836679,0.024237327411299334,-0.0014478190266079389,0.0788916017919385,0.022714474558127917,0.08646183160842842,0.05600300716930666,0.06281207254078128,0.02601020029205575,0.00638746894414327,0.06211227043701192,0.1017266746872509,-0.00746469576843151,0.06214995134204246,-0.07616781618337552,-0.017131446184043726,0.08440374105281388,-0.05478999884709875,0.03395583877775058,0.023995626277737502,-0.03844192157890091,0.030715962346189278,0.11870378516198056,-0.02283013180693506,0.058740102402989026,0.10466772667802711,-0.05587620429410226,0.09234281974576163,0.09371472712045165,0.09963093582555793,0.05481837770300084,0.04492457216211293,0.01074133167777071,0.09951007946336138,0.0424869078333532,-0.007535328774872049,-0.043845515384845934,0.020758003953220704,0.0007544961089916005,-0.008215071284674975,0.04099301448593719,0.00609727167599801,-0.016691512543399442,0.08036291602492818,-0.019213381467674012,0.10142519524269547,0.010790100829430504,0.018869699820591206,-0.06700127638929292,-0.06145318291074359,-0.06439987140966136,-0.060881311134429336,-0.02241000399379335,0.11959714294928886,-0.07404831628239342,-0.041432302272551354,0.11131934744679432,-0.02057794414404474,0.1149531181052931,0.076560757451789,-0.041556182680177994,0.1048995291655263,0.07569238640336756,-0.002742165717140038,-0.03543639428293503,-0.0671567216559368,-0.05097332596087262,-0.0855087846328582,0.08517057338467963,-0.029961738374507593,0.09542731877353818,-0.053030761527312266,0.10040512960349911,0.04818323490876803,-0.001241594821344409,-0.05596906107403194,0.024912872603351705,0.06153631788714009,-0.015160870807679833,-0.06910789841613132,0.07414361518154934,0.04648825491847752,0.04050566073451993,0.09085596497531287,0.10712456265148608,0.06681134710929057,0.09263402150884056,0.07376322584220849,-0.0550019352771859,0.049462273554480775,-0.004614144035044259,0.0077160681900848745,0.018682211033381725,-0.05437691335892786,0.017193412722577944,0.049842359037849324,-0.07695302479699513,0.10298293158620593,0.03167046728532952,0.09825516678866801,0.0976511716336625,-0.06719830739183716,0.05512110549648528,-0.019696059527998213,0.029618346894493885,0.03705783900373945,0.11737906114475427,0.016541272862376916,0.024184591445953973,-0.04044267819306719,-0.05334950756001236,0.022496860847373394,0.04994384504430497,-0.011672091497729081,0.006725362758026066,0.03822121652976676,0.03180111028427124,-0.026564532034686807,0.02912335199725101,-0.01889461380354028,0.07501562178849054,0.10444420095412901,0.06387998775559504,-0.024991136630462388,-0.015530435970331963,0.10561144120001935,0.04043444684982834,0.05079404729442994,-0.053268560745276264,0.09188782283482773,-0.045498132557404904,-0.01800105530734806,0.032030451990503334,-0.05613796153950566,0.107595802594498,-0.07178791874789202,-0.03836057165067705,0.0828047903974804,-0.06669241772707518,0.06751577873598028,0.006860076544518942,0.07174569057946398,0.02207050403906623,-0.059070407214597144,0.10897845533447088,0.08428597271210617,0.05992294249827625,-0.05871118816834512,-0.06184108524629242,0.09691894397329069,-0.0017431875282338265,-0.076206577379514,-0.011495205881938437,0.06439767938937313,-0.06950219360088584,-0.021281624543716997,-0.0536792011695531,0.09195165044734185,0.07868772992098526,-0.044474759764600295,0.031565972423546404,0.060897450964086934,0.0380130639971422,0.0011213531300711607,-0.03183384590026867,0.07484012954976497,-0.003622746165543007,0.10592734668004354,-0.030962114153726225,0.03448876380854959,-0.07410462449430148,0.0705878557248266,0.08563299197818436,-0.00606583497856751,-0.05238920790782669,0.04229893999944952,-0.029704728966704466,0.015784577304644356,0.03429416505451507,0.003147279439201086,-0.032545617515833646,-0.03733079661309914,-0.06093139180849629,-0.012025400501597257,-0.027250464053823684,0.030103361533282098,0.077295792278486,0.1154521397559014,-0.03182928845180323,0.09334952966391914,-0.03953233696074114,0.011662355858717516,0.08398289600548811,0.016236729563523452,0.04025761879801828,0.030990050388461646,0.08838325458469079,0.024712938352746166,-0.0003618487117339386,-0.040054177523343996,-0.07015401329792055,0.08504302895032201,0.07664595101090325,-0.07668597075767965,0.11339578784202978,0.08030614172458765,0.04642156869258828,-0.07145387636648762,0.04681858229506973,-0.03167813232757316,0.10679051074182284,0.03266763582507868,-0.06681904492785025,0.035837659894185726,-0.05671945141037045,-0.019792396937372236,0.03458589501056993,-0.07003452911327955,0.05338674017856891,-0.000506257373874679,0.03420907602259989,0.05417205338307264,0.025944726826206806,-0.04553097204915543,-0.04361403454809322,0.05869326653865802,0.02375867996362174,-0.06991440614554942,0.09463612412173289,0.10948686356112823,-0.04625340253991048,-0.050818071195373966,0.032186867218974985,0.06373062052560774,0.10841875685905882,-0.03714047473035011,0.03856921100458736,-0.05814693752806682,-0.04116012022719596,0.031033939990060554,0.12152609779987124,0.07817772472000722,0.07036637287658931,0.09139707034908799,0.09144430142214072,-0.0686830977598685,0.09496521270585731,0.12347968535363785,0.06385830579054047,-0.014969034689299561,0.01084747326361965,-0.014187236890236186,0.015718361258186084,0.02563503885101037,-0.07213141044441003,0.06896354868205253,0.0350853715507407,-0.06867342362431539,0.10389592952358313,0.05855777006216873,-0.0410962278812026,-0.04860590661230156,-0.023483614035669384,-0.08262809672454019,0.10481871943396534,0.08753864664419293,0.009538411725603045,-0.00489069963239412,0.0372702625364988,0.05534834589534281,0.08132791781704206,0.0791092863754787,0.012543793623223037,0.05993552668093909,0.005655757710561327,-0.00481128837665358,-0.022914729752634318,-0.04644873336817808,-0.025101224342381576,0.10579049572842839,-0.07168389663874096,0.008059771657778969,-0.06181899071699105,0.09740996880965343,0.11063582369193689,0.09390397840472887,-0.06270523791094959,0.0830358923755266,-0.0426968340208119,0.030583105154599003,0.005493176651472293,0.05476483409977905,-0.0778335013384549,-0.0492660120788288,-0.06369547059784912,0.006587631250921786,0.05086041507931213,0.05566771631717948,-0.04747457273145151,-0.06189667811312867,0.04465818593441636,0.10420723750001275,0.052594331210963824,0.026216895001486336,0.01474032053579811,0.06532916083669446,0.014339903930485877,0.06302975631522997,0.02873541869314171,0.0750397638361671,0.09099831004802893,0.00917653708761967,0.10203020087753849,0.08964409188831923,0.06646789337790555,0.01931161619611914,-0.040193715966858,0.0116208213208562,0.08219085031472974,-0.01989301990051225,0.05553602731463362,0.10257226649241963,0.06093646885775093,-0.048818060152631515,-0.002517549598957021,0.03192999723898691,0.11754787638144515,0.029109124038666917,0.05622811498665859,0.1140451589323958,-0.0011217984487471985,-0.015625334303836308,0.0453042376249646,0.024324947133755416,0.0774006612431527,-0.06980729476701174,0.08789828500725944,-0.016484696090948735,0.07142437121871942,0.010043943462491415,0.023090060103400162,0.1036009137218788,0.09347594700128166,-0.06890697534244594,-0.04594109787777893,-0.0668302912146283,-0.0413807579664527,0.028831754850226824,0.027160613365519837,-0.05751211175852631,-0.007959647547507413,0.017835390508079054,0.07395690024315034,-0.05311441328058261,0.04037493949548312,0.08834928265771404,0.015587018245419483,0.07316444387861235,-0.05111148054090185,-0.03532599586127485,0.10336971872430775,0.011152470535636795,0.09942918152635369,0.09799432242174376,-0.07528783504243033,0.03436997411248203,0.04662547157541072,0.0290951462426319,0.048254984445563545,0.06615058258212099,0.10448415942085268,-0.002946380650577114,-0.006148443227688581,-0.07291169979476013,-0.056195878756225365,0.06667791110598627,0.09262785086243956,-0.07137911884357954,0.09764346221196289,0.03389024590579601,-0.04358544718635626,-0.001989108636965611,0.04425683244061951,0.010271737608386624,0.04499122640586719,0.021174182492857595,0.016792825340226532,-0.007125887805440101,-0.028770410449575456,-0.018567538004014998,0.04656124457807615,0.0144592463061709,-0.06554840324843332,-0.03151160746474971,0.00863318366516986,0.09928817037431155,-0.009695924469053421,-0.03256368086904051,0.0941912603803695,-0.050297279873422064,-0.05336179966203717,0.10318259016627222,0.028789941214376096,0.011054267947862207,-0.06561537764864202,-0.021057928890578937,0.0017049768325867562,0.030047848293253885,0.08516603009284442,0.0451077126176114,-0.04062785381604462,-0.0020199205497210323,0.06123652138195717,0.023232252900444412,0.009889566003406791,0.08144933025164759,0.10955480208217681,-0.04604832150149722,0.10478762345884211,0.10228899453125136,0.05245695174657605,-0.0418795239086981,0.10345060308245474,0.08933654353679954,0.005842673311901976,-0.06755831751136546,0.05428467376101712,-0.05276872843750895,0.03845042700407878,0.10169202715429045,0.03553772378957097,0.05157966830162047,0.057930645372145644,-0.04399618540316741,-0.07092703363301005,-0.009239367756386157,0.013851633506247893,-0.04226123051975684,0.041942741027566545,0.0036624162975645905,-0.02775737467746016,0.11934305844926348,0.022027714332920622,0.04692217124543587,-0.005447404644205378,0.11296897794534409,0.03325654800101674,-0.05306112216773305,0.09359106410292321,-0.03180162835718334,0.06968069652698651,-0.055127573931741634,0.04311122381458408,0.0543763477068115,-0.037894125184247396,0.10524237534816008,-0.05065731005796506,-0.007125437973400049,0.021616877488666916,-0.011859558404040474,-0.031082138398631026,0.07627719906535346,0.09685329655517382,0.025666692150524834,0.015091008206783593,0.11342608269777714,0.07904418217041398,0.08643980400942435,0.09408989032049007,0.07168991635745699,0.0664746750623856,-0.0071630412496407475,-0.06551131890034555,-0.04780275907750444,0.034092582674558135,0.023946167030319137,-0.006361170772420702,-0.0779208584589212,0.02199286742470094,-0.02080677154447546,-0.059980281445973935,0.094211576896103,-0.032068821480593805,0.024034521703345618,0.02227020612797586,0.1019676223488676,0.05852160063491488,0.044256607013195996,0.08735659417795914,0.008012722830173796,0.017657603540785664,0.04062012398474951,0.07424722840750062,-0.03886700466875095,-0.07349227988520769,0.04341744883092359,0.11166664532897708,0.009959815370748717,0.09951902865929486,0.03765105633184042,0.055573726858618465,0.09491002205220593,-0.00403575740291358,-0.02507400400382814,0.09269743716296827,0.053768471814875166,-0.05035358158097133,-0.0017475771266812453,-0.004318046363438602,0.08652071537368078,-0.015704449071744668,0.0020767310081032425,-0.024157140638248916,-0.06437930856465812,-0.006205849510108215,-0.06788704765458035,0.010171983995905435,-0.07865546647592181,-0.01408307975141196,0.04330430238807224,-0.03386621493070965,0.114494884704305,0.09391358453154289,0.08125387707591084,-0.06562400291595934,-0.009757136826993473,0.0223430263370782,-0.03585297495403286,0.10452167378162051,0.08466977305758992,-0.00719499004591607,0.02034073641370639,-0.026979010725966802,0.0014787226229965999,0.09332705316052453,-0.05590481299899971,0.07732331175663158,-0.0312965912781609,-0.05258613315195421,-0.009746994354964846,0.07909857107716331,-0.012091926211272986,0.009941234514681749,-0.0753021088508929,-0.02411560349902061,-0.00999290045287222,0.019741510292785296,-0.043033470024533275,0.026057254694204925,0.05099660722547226,-0.055077714997267976,-0.056391003240807105,0.09449664112510234,0.07386192223571246,0.06732899581711183,-0.019655968910851182,0.006618394559809864,-0.05817227175938909,0.10104882325759813,0.009917917531182341,0.07552916614864343,0.05219809598415896,-0.0017398807853957487,0.10576856843488458,-0.06813747996446697,0.03066326433135603,0.017200872391846766,0.08102065167013589,0.02527492761703299,0.014057504347162972,-0.056297383953448535,0.07698000621244626,0.08313504080069013,0.1016316806991315,-0.0008674748914600296,0.08524297897436997,0.08963858832562983,-0.023991770035697354,0.019135221952952013,0.06138657729587248,0.020965428185304523,-0.06445212434642057,-0.039015617469327454,0.08528040771434561,-0.07684214175295685,0.028678027563260877,-0.018117337139701626,-0.06350870158092745,0.09915882609409271,-0.014747074338548695,0.06584844048152834,0.10585028433007074,-0.0017768602350524973,0.08163450547298545,0.03725455017621131,0.011918686006579237,-0.06694833342020826,0.07763624950577142,-0.03197501257335419,0.053899309913776415,-0.05429488768314869,0.06703369699944595,-0.03088684507998109,0.01781483626721881,0.05643767531399972,0.08685663111417385,-0.035698322325683644,0.03203610623765509,0.08429189859648951,0.04557817210977784,0.08921539607413359,0.02906867642439761,0.0367361163939076,-0.07275976177349507,0.03559461961882835,-0.05876631759773104,0.01645035709321361,0.06232522468750451,-0.03242074966978517,0.02892251238605257,0.06524619663669926,-0.01677059169718242,0.06898166066588408
0.0646978329561754,0.05982280701154821,-0.07031850786924504,0.09086212479951505,0.10399073011182089,0.08933075601589482,-0.032689900090191945,-0.028065910095862498,0.019647758492754373,-0.0502066613964296,0.09208540717682587,0.0015582894486952858,-0.06192402603071676,-0.0138130143238658,0.04801663891276489,0.05356358789297537,-0.02294353569806092,0.10978661195969486,-0.0383934656304545,0.11891495562414443,-0.018119835431832185,-0.0019235800027737864,0.05539878363164021,-0.07682592328622267,0.005158589173090216,0.0996684425240186,0.07192585623994123,0.002977124767459652,0.09568196818847637,0.0026423798249251896,0.014918593621138187,0.015930070011995954,0.012292716101654477,0.05389993369577632,0.10608535588064834,0.04524904921340816,0.0902748389913347,0.07356181729613522,-0.06909551809817865,0.09057652668903596,-0.023890188144112905,0.010433995364628697,-0.04175735178964185,0.006852020639794762,-0.027089701824630667,-0.07103311576535043,0.11395815355706776,-0.031104856967904302,0.11867055649459869,-0.05978597493313472,0.02354712219335006,0.08170140966243661,0.11870145922979816,-0.06996127989653333,-0.033028267423059796,-0.07899765093774376,0.07513472011974257,0.1135595300099201,-0.08036619365756842,-0.07043463377938598,0.01924543222190158,0.10955023295349206,-0.024792743669099553,0.09885993153053729,0.010896380666655875,0.009971105740126742,-0.05975240121360657,0.02519854768448412,-0.050199383179071605,-0.04497456371327366,-0.04200591632548015,-0.051333305296121894,0.025498928781951178,-0.03586808747812536,0.0024731411539087767,0.010300733733275008,0.0007644063752014906,0.045731250213574236,-0.026704871477583245,0.004124779960763213,0.07300502035228913,-0.07339397569752869,-0.0204396986216676,-0.010333903046965704,0.07897645241136483,0.052404178628917344,0.07220499667925699,0.07125444219130357,0.040534406122688174,-0.08041852073133678,0.054824634095499945,0.06275464378380557,0.03887817490074894,-0.06535550025041238,0.0021975696145604914,-0.010653223475093137,0.033669546060786044,0.10344267587166371,0.09715648571353615,0.0028545361690241297,0.029531480276661914,-0.031152618470686427,-0.0379476784273008,0.0035417566440784456,-0.02675523617795618,0.0008732448237881005,0.09000618880437886,0.03457301017428451,-0.02093925851923528,0.10321779418714068,0.06570170889920901,-0.03201994606792059,0.012321783397017937,0.0440650196727807,-0.06006273584295386,-0.062114670824693526,-0.005566015800713524,-0.01976846792334255,-0.07347802329857472,0.06781045997031207,0.019846485927464238,-0.026150627518843086,-0.0866249035263535,-0.022827298168399787,0.07760284231015754,0.037021925686035635,-0.06423837589385675,-0.06349866454158978,0.07730754251527859,0.02127672249011394,0.10690757924424801,0.02092583693284161,0.04921814053376437,0.058406062013942786,-0.001364527856726806,0.11412005459942527,0.039532457312357286,-0.04929304255232171,-0.03124629892302941,-0.060246469913111826,0.01396902736324345,-0.08215212179995639,-0.03476126930355144,0.07164357492194469,0.05870148585660712,0.08573170740648262,0.08583929211230654,0.058168979152034686,0.11142878003226932,0.02812508000255869,0.04235669349528639,0.07897213445806361,-0.024068898237473643,-0.011131724660744738,-0.057094014263428756,0.05455075176850276,0.07189303101048218,-0.052062105733206694,0.11195068330495969,0.10286403095487202,0.0710997125335694,0.0060622221236192615,-0.007754707397669723,-0.018989868235027994,0.09871012129656907,0.10867501095306059,0.09022278198121253,0.031138088192690625,0.10845932952370942,-0.061997547525690574,0.09462101204530972,0.028407909685194355,0.04253480161996886,-0.042588371546892635,0.06844173623947514,-0.005006121039032856,0.08373532385376067,0.03184528122982895,-0.03478681867105273,-0.010052841199970386,0.08732045894299215,0.011493651442960905,-0.03662414537975749,-0.06829609482416295,0.0033771636520582167,0.0321681806348187,0.06042615061310022,0.03451490413692231,0.0366378442282754,0.06469367231038654,-0.06062895696389139,-0.0545564532895576,0.00367611388544178,0.09011409809485665,0.0776539241300134,0.08294487470446235,0.05992386068717998,-0.04641167235525204,-0.0009131100051353269,-0.07007788011016725,-0.06374083672542709,0.04071088260022628,0.11090787604383358,-0.002052261185090768,0.023361818558007216,-0.056460208326980614,-0.07794507594420376,0.046510188562230874,-0.055936223004349445,-0.009242988437823662,0.04491080607260121,-0.012253185222603583,0.008459951928328697,0.09939139107212554,0.1083332645115898,0.11233335400911416,0.04830376090474376,-0.0013083408571216942,-0.047850058240260486,-0.029830096621227178,0.08087116458543332,-0.03080638620425132,0.11127807640512909,0.10593399831527173,0.04713829735544169,0.09411436417490267,0.09599594452421915,0.04411983355701673,-0.030483355109324636,-0.019009810030439216,-0.04471077259419678,0.044950067932054284,0.11058330199811675,0.04118636565068381,0.08032831596961025,0.004805605506124271,0.02756984766236088,-0.0630570564862627,-0.03765573288797214,0.04345935815790996,0.10059189478979075,0.04424894302372897,-0.02394295728392436,0.10535218049114974,0.08358718594870629,0.0884740079430121,-0.07855032773246677,-0.013680854634230542,0.049262852995948105,-0.023321852510906193,-0.028046225718021123,0.0004260287735815483,0.11816342381813266,0.07605235201772276,-0.06661468789312562,0.08357537601629095,0.059860734283042005,-0.07420860517599152,0.0070204852831983544,0.10672541901918103,0.11233681420497765,0.03880852951635608,0.06862896220819519,-0.030749599494073698,0.10230672066682005,-0.042125290305715955,-0.05769196241445424,0.06248521613718297,0.10702953775175228,-0.04227377679997069,0.050133701125652554,0.07496385461151407,-0.014880573534035326,-0.03574738519779253,0.10262636798292113,0.07065578169437159,0.04854697745925463,-0.0580599040230674,0.08805783593313163,0.11428260076815407,0.002134552896371952,0.016289826905936593,0.04973711786220302,-0.02344049043247392,0.1083939302898849,0.08417087438035611,0.0020667355605698203,-0.06085001678018497,-0.07430900494652481,0.09441569359751066,0.09687433275121786,-0.004330032442778072,0.030850999099616534,0.09183452870777442,0.054826070838018895,0.046990586714603384,-0.03672994929291425,-0.06834835097698609,0.02378297067987075,-0.03277977668945622,0.06123557671792525,0.03883648268138182,0.00998518220196675,0.03646017730338492,-0.06530181500246136,0.10125613138128875,0.036474190145031074,-0.05793711264466279,-0.02675606441408195,0.07645990361186285,-0.00029221105484754736,0.07466510401072138,-0.035430789244658804,0.03373549625851764,0.059147380734925356,-0.07390434642780735,-0.019497968424403135,0.003139904495702372,0.01962195353434868,-0.0437137306293128,-0.009401661280956758,0.07586096970101584,-0.014434844490612692,-0.05459819904080086,0.11973491808056853,-0.06952427808226791,0.11348048140813181,0.048949151287878974,0.04442457336350751,-0.04423406352036265,-0.04991749635747506,0.08460631085746322,0.014962272969641501,0.04810283261048371,-0.0827915154884297,-0.051017560315437464,0.07447411435558868,0.10275859131523475,0.0922493555617307,0.006671966199752747,0.11798030368116066,0.026551421457180494,0.11526452504705587,0.002035680447807381,-0.0788162870603192,0.025457297274455556,-0.038341828237986784,0.023481153980431383,-0.028735066092895042,-0.008330683137727333,-0.052593630917760655,0.0823177974997009,7.291721080269991e-05,-0.03601408185790849,0.04709210880795058,0.022897887129658956,-0.016956948274188154,0.07746758553152,-0.014418175905051749,0.010007706216669722,0.016949182855189898,-0.008035282852539329,-0.01306385459065533,-0.03772236100850143,0.015285524068343818,0.0033565359643442988,0.06810105653113002,-0.04434406440707707,-0.00876911699565435,-0.06924488245832519,0.10020649479729263,0.1039549007853845,0.015135367752789546,-0.0415857706618211,0.04888999829682283,-0.02683979167638486,0.10953389292369044,0.07861946711397996,0.09161162305948432,0.08365137841554132,-0.033236674995424514,-0.021615574423364804,0.0544755843493025,0.12192975283060367,0.11270618613438445,-0.033197485221448546,0.09454594520575302,0.010007042022714057,0.10995382565211245,0.036720448951584383,0.07456796358409516,0.10544931589490437,0.09073948143138402,0.07421318098046623,-0.06346313349936449,-0.07340059500350127,0.07349780742536886,0.0306323250587226,0.03349852528447582,0.011661568787910083,0.0914820432349363,0.06372258387465672,0.059074960743687246,-0.06752097848661699,0.11371118163995067,-0.021620451642689872,0.12171105598035847,-0.01775373941753534,-0.0511337732058315,0.09867015775303192,0.029602219959415414,-0.03302427608771289,0.10768884394069358,-0.06316023414138992,-0.061699929180922694,0.08022781048929892,0.10365837137219391,-0.034688965147040944,0.08657236498798263,0.07828505814163314,0.022099562730447612,0.052011959170323356,0.06200678949904454,-0.0682128063620887,-0.06439398329307519,0.09713754241931488,0.06661796918838815,0.040955803516112776,0.07927137643308037,0.048461252686684886,-0.06166371262129301,0.03785517196157435,-0.01988924749702003,0.08594141277265283,0.11357313084423305,0.09668929671175001,0.02145235467694549,0.009234956387213644,0.03218893803776653,0.09485439955991865,-0.050456028685947486,0.04174188743521867,-0.05578715933854352,-0.012916302200218612,-0.05598290903848464,0.025183738205313323,0.09198107591647083,-0.031449981784283404,0.06593344401251994,0.0658940388451579,-0.0073791369114603374,-0.04620766610442044,-0.018317113601416128,0.07826002542234964,-0.04187894942025223,0.0406346566999316,0.10380717481130537,-0.00556125097442653,-0.022117100111665774,0.0015330282109945882,-0.037053019176490475,-0.03911330315393714,-0.05166038824705734,-0.03130072101458751,0.034509648591500734,0.1025122200713531,0.11646234526201683,0.057202714110965204,-0.06794827233059535,-0.062229882684939654,0.0037031359259638895,0.07101407727008631,0.056142979823760715,-0.05749775691769171,0.01986802856187043,0.00457849030336924,0.03155119321466897,0.06825765090988933,0.09248755460233844,-0.0726495562781947,-0.05124578633094341,0.020656034647507177,0.051596745924562086,0.02119054346441349,0.1163132367778254,0.05878851404061636,0.0038237622072363627,0.04614723979611688,0.011496134939849622,0.031103254056142154,-0.06559422430553315,0.07455795899808594,-0.0659525263333131,0.049335050916881173,0.02279660204017182,0.07657519269000393,0.07749540297765597,-0.05540378432274306,-0.00529226186092688,-0.03726683903121956,0.02517995362280173,-0.03280910488458513,-0.07603722989704499,-0.026813824042652482,0.07641495315413165,-0.06279465181878857,-0.0001099821886447471,0.06185717854873744,0.09582707755684153,-0.003191829175489217,-0.06105327637487415,0.09528438666837573,-0.04596524994371405,0.11335299802099211,-0.0009087908797236887,0.035333632549554524,-0.039866427825426536,0.030415884001846274,-0.012253100768976547,-0.035454700907129225,0.0821353705096281,0.07486388367355669,-0.06598312702266637,0.10260321306538717,0.09096198340436862,0.029084910847209645,-0.06815394783214211,0.10690804321975288,0.08989949769705287,0.0335385578930069,-0.06550637683551927,-0.01860876988869914,0.062205117742701266,0.09462465912932398,0.002146372072677874,0.01982461207774567,0.0012871145714056476,0.09592492764813561,-0.0009327393909049006,0.08652974752744964,-0.06991361214236665,-0.03786309841234394,-0.031254810514404555,-0.02695062782013196,-0.04506213945785411,0.07911233411531413,0.12413027259281376,0.11869356350910816,0.029098503098920845,0.05319722603133071,0.09648075130493204,-0.05978619535925217,0.07686369767127268,0.018113296325696533,-0.07692943618627035,-0.0737499747674813,0.08474621092506723,0.06947786501474097,0.1121372883094013,-0.014323803101627806,0.014674017976817284,0.027851413207290416,0.04396597905195803,0.06024047364409983,0.04448698984317697,0.027517004892963402,-0.014650727044002368,0.08760120245811097,-0.020413494705443708,0.06926610294143608,-0.019509905564275384,-0.006511931025752808,0.07752718073312333,0.1082428868040704,-0.01950792198662096,0.11374648698773888,0.02170994042621322,0.11032394458970592,0.10235470676453813,-0.03845362861064568,0.1140563615865706,0.10330865899890278,-0.030553034260246158,0.11016548205734888,0.08978167208257341,0.08156603329030968,-0.0560294186296063,0.036414390435750454,-0.016671046081271332,0.00445524218453228,0.05993658787954857,0.03236785772967103,0.04304379068338667,0.11351010853297426,0.003114045602857053,-0.025877672637652224,0.06723888034781826,-0.053943338195182565,0.10804215344263574,0.12115961108682814,-0.04971963192000637,-0.05282378687317651,0.08237483876917288,-0.004479621756694219,-0.06122904798954002,0.11749953142748765,0.025564538574704088,-0.06165360408556101,-0.05389427559623044,0.01578374488498293,-0.02551799098917775,-0.03353585315964004,0.025755368616157587,-0.05506349937898165,-0.004544409910095361,-0.07440407545192008,-0.05193192030132904,-0.06268193763268518,-0.076324279105917,0.10776436674733854,0.0875173207304899,0.08192720994963312,-0.040913423326484295,-0.07051951086052578,0.056615028948323126,-0.0690185100405561,-0.03979230027087183,0.07625402269837409,-0.026914092537412046,-0.041605880934805876,-0.0026290463562795583,0.12526787001800324,-0.061403799835624356,0.05232349574322211,-0.08171513347477626,0.026469297156897706,-0.05460332140321476,0.04716791862648888,0.09891661752937378,-0.0713640370899494,0.08105044672876932,-0.07336902215521819,0.05906758823642125,-0.012105060116969905,-0.06418255740919383,-0.07507067966310903,-0.05078613906134479,0.001937778647227579,-0.0819323586906408,0.10011713968080317,0.07602388143716882,-0.015662422897117476,0.07862008835783167,-0.02889149419927401,0.0785751598330776,-0.03411769578395448,0.10076501280347482,-0.04277584813703551,-0.04974277019020707,-0.02705618647985799,-0.024320729063244062,0.005783144822168323,0.011297311780585031,0.031337150620620036,0.042703482320176255,-0.05111832037518766,0.018944188842246804,-0.02970617487689846,-0.07330410576447095,0.05497180583240051,0.0228053309206419,0.058216255996856654,0.018731131134105933,-0.022015701223595727,0.08474360500013445,0.020462103287658913,0.047772075789368734,-0.02689171194914606,0.09167986436729528,0.10208493549078959,-0.03959915663796041,0.06730349068242986,0.06696153209895854,0.01693488631494449,0.03820160024208592,-0.0500085260066633,0.1189289632130109,0.09478206956186978,0.10548602313384588,0.06471152132558436,0.08216905763995928,0.0018098077960872437,-0.0323731155743659,0.09301946676321837,0.05489193478783159,-0.007752534283251719,-0.05287928653110345,0.0763956724465191,-0.07224186245101244,0.09067692459949882,0.07209008546498169,0.034794156626574944,-0.04377224133585637,0.020066657651144425,0.06837321286031611,0.07002467985799517,0.04257205342796556,0.05674666167586397,-0.014920660596699713,-0.06629175215106287,-0.06845486533377876,0.005375763135093237,0.0468910801593171,-0.01724070054578043,-0.02468312428747313,0.051848726776376725,0.002215070809740533,-0.03159971666671303,-0.0250093321988493,0.0599392503763009,0.10559783399743712,-0.05571133153912889,0.02927852955614364,-0.05982082194255593,-0.013110280423596663,0.04005614073958962,0.008617320227605307,0.08700429352809338,0.061324685618914535,0.03966265986539771,0.08217090475428532,-0.06462516879597428,0.09332910751812286,-0.06340085453945485,0.06890844925765087,-0.013298592182518507,-0.06811838915252838,0.08159122781802196,0.00669700516046507,0.11332141930438545,-0.08177698052321536,-0.047124102834897826,0.022620406340358355,-0.011975800350574951,0.09830212724208977,-0.04657403852467611,0.051946463299546754,-0.040751325899374996,0.06253158170081607,0.01687553552927221,-0.039280947473630604,0.008400221505718234,0.08203546717293284,-0.034879410792521895,0.06404435431572321,0.09128529422017549,0.06611501947702715,-0.07687086944938396,0.025789355723966935,0.0813862651398315,0.004494817446088495,0.07116632819951432,0.046509087680053275,0.1118997551160692,0.04522714009690651,-0.06324132267077878,0.027443552767657548,-0.00037387488679267863,0.06271069402357211,0.102284422773759,-0.055700995746230116,-0.045379538917383735,-0.07828301292863586,0.09979596177311857,0.09751433458319338,0.0926714137885483,0.0692862534770569,0.007979372506985868,0.06238495810532841,-0.003368036668241141,-0.0651009543920582,0.07828242085462786,0.09156298279518883,0.05977147737260774,-0.04905515349499038
2.808644356764694,0.01796732348575584,-0.09118847363599868,-0.40274206286754266,-0.34645145712693254,-0.215127900398938,-0.19637016625391884,-0.11352458490640074,0.24307070920361662,0.0377100431788882,0.034302363866202626,0.17360364208957127,0.23390234191600692,0.516235856754723,0.062798815294584,-0.08619098314044456,-0.22015336811147068,-0.510508527498294,0.12001162645777731,0.2484811163958595,0.039371246775533074,0.03099206424186113,0.19803258648050082,-0.19561984798815046,0.1777395042687375,0.25331770510908647,0.12720064006901208,0.4819318786912822,-0.5854339370839624,0.04864958047349388,-0.1980808324198329,0.2240455645037944,-0.470168063502539,0.6405885749893201,-0.1680820525118674,0.3055663450516165,-0.10295468033919059,0.37869932973917075,0.09689588890055811,-0.002953063519324472,-0.2751798693449539,-0.40832538611461944,0.4699029803553287,0.2897245599980824,0.3377567767378517,0.03968833700747083,0.14016810772325988,0.1636231824909851,-0.11667773045529854,0.035379151987457357,0.1298513981456629,-0.19645062173150493,-0.22479499963503494,0.5334927486199209,-0.04158798643778524,-0.05655514290792896,-0.34848258341872995,-0.11654381417298736,-0.23871688369286545,0.5825929546755753,0.10070989258034592,-0.055072236872256576,-0.06618354537610611,-0.12389556561045703,-0.004277153358036485,0.156740648420741,-0.23480693393689933,-0.32942978733444755,0.27367873534563286,-0.38829583897234304,-0.09821523187580274,-0.35617336981903436,0.049474190114305955,-0.32216313737053076,-0.3359053635477587,0.17452075660878982,-0.15494786361333698,-0.1401246403967585,0.308335742856057,-0.18786369129703653,-0.04694240303657586,-0.43474120311777564,0.044371488301417794,0.19256058611765844,-0.40781549417081664,0.13722322783611055,-0.08210847208290717,0.3475418956787332,-0.48601321124788316,-0.056742121294358155,0.2404025525291965,0.2711764891724862,0.12993121016831385,-0.038841884052829054,-0.1853688442936682,0.09564763649956226,-0.3850288625637141,0.15695704922227827,-0.2567821679307189,-0.18057498268698297,-0.5551091018477202,-0.528258544506771,-0.08148244172246495,-0.4058518377125236,-0.3792992046189388,0.42477445585229473,-0.18873962904965183,0.004871095372844895,-0.010324429129951003,0.232021595082418,-0.12242304842107578,0.008668618433212906,-0.11373216938151233,0.42152188972582216,0.607859324584625,-0.00912975975008471,-0.27089523718734043,-0.358552831015147,0.0665205639176416,0.15283692158015963,-0.2982894825612331,1.1457105176767888,0.33826807019162086,0.07301373536546728,0.45319345053413046,0.09921900878413295,-0.46746845380864993,-0.6012852590498245,-0.9834944113289604,-0.85863710927445,-0.703768553788752,-0.2127934704862735,-0.6520355727139631,0.17826211471535428,-0.13837577336946053,-0.08469380021462455,0.2672052345350718,-0.06572345352773282,-0.5035242313885755,-0.1420530149021963,0.005009901869427364,0.1851775882157488,0.006749906609993862,0.3034768838863048,-0.13255489964888656,-0.3553785211359397,0.08012875286354014,0.2093185824960763,0.3786078162900788,0.6897841576040997,0.3414313833459296,0.5524503676945928,0.23343728722266724,-0.28864023577551895,-0.3531473891429073,-1.0339671811633082,-1.504861749135664,-1.6463177068054784,-1.189538573847526,-0.6636309082566498,-0.9583775506634604,-0.533813618175214,-0.6737058322257832,-0.6932631766772822,0.5108715680798455,-0.014188199813381343,-0.06110933177700456,-0.017089113043312825,-0.21962673621950368,-0.045813597212477644,0.7809256135471961,0.08414998223968523,-0.061731441580256285,0.4279774141568931,-0.0678382712041954,0.2646718599688048,0.6617385407167304,0.46514921671319504,0.2182358064418324,-0.411192801465417,-0.452014869023392,-0.8884615197925748,-2.204253308833433,-1.8489975215176844,-1.5024528848096317,-1.009700347415244,-1.1726557465114524,-1.132786757905861,-1.3428833323457723,-0.6116663308687068,-0.5223463971626761,-0.3200097619945871,-0.23251834585799117,0.23766927229844717,-0.09206665730118406,-0.022271111113040528,-0.2833714628866338,-0.17745238848041858,-0.06606510923355836,0.4060174078376025,-0.19114011815197315,0.08152272582450641,-0.0724638700937247,0.32270570530105236,0.6542608049335703,0.3912015321196751,0.24375910885458948,-0.533310207193671,-1.3070948565236553,-1.6963666958804713,-1.609240289729875,-1.4730614744843735,0.3715980650761443,0.9245359321435044,0.6044953725325141,0.11620118786678028,-0.6669704382727659,-0.5697085759425802,-1.2158395990984006,-0.3957447182346863,0.2370831916221222,0.5770725893833152,0.29327753059357786,-0.08359840234740508,-0.035502956845493025,-0.07463760656356135,-0.021442354312505418,0.04579128676303176,-0.40043690012913047,0.3255748518378071,0.8410110380715804,0.7926169129756447,0.6592095607154792,0.5085429398241854,0.3323054757111924,-0.8393599071321735,-1.7215650161500635,-1.2928590168891476,-0.10750508703757006,0.9770031246383056,2.397630879027578,3.2459038364250192,3.0219863281966757,1.3748228554878479,-0.22157594841263994,-1.1220554315279099,-0.6430891116660783,-0.7213249515959367,-0.3532858367039746,0.17940858865168624,0.3359816363626748,0.31101026914901064,0.1075323809822288,-0.0029044487488265416,-0.18447526966232322,0.18088779135614458,0.6303973713545725,0.45981487171233776,0.6566242609506309,0.9339228614155703,0.41524185641437306,0.5442793073304404,-0.5768375923509171,-1.565157259565925,-0.9187064296346956,-0.22784681870788656,1.7656956691268457,3.315427032726249,4.1656143732257185,4.975614761434657,4.1699113770083915,1.7393778191985039,0.07906317997910964,-1.3664339790733289,-0.3819119738431563,-0.3739417439476535,-0.27513711745959607,0.17505527638453414,-0.09078929652402308,-0.7018963316900301,-0.2846051675288407,0.030387720189653203,0.10631642223386116,0.07453269603148518,0.468911702841119,-0.0031270657048125703,0.2516066987156278,0.2646687321542032,-0.029150038555964212,-0.4189420619605899,-1.0508700926775107,-1.3529813795570595,-0.7728336784891546,1.2389956665287267,2.4970070741755404,4.028058337840582,4.712319555486013,4.944543337043252,2.9373970611949547,0.5364713504171861,-1.323751782065082,-0.9479774978224365,-0.6501664427422119,0.15308068616042525,0.3759703036418155,-0.22339709555706858,0.014890159256162962,0.3383889449257226,-0.2959817867258355,0.04721259096856352,-0.04092666176207961,-0.6192121136805655,0.056483649294501996,0.49517355457609125,0.5287009295487278,0.33739400625200555,0.37445569652391064,-0.7747458740589503,-1.2504115809696021,-0.7876350425064299,-0.2087240999906362,1.97739395460568,2.7263610811207197,3.206620794926608,3.6647950362290524,2.7655435124501992,1.543034081171645,-1.1608859621328793,-1.8578808646785587,-1.4402431296031282,-0.238698167105277,0.19029440794895758,-0.14335979916950553,0.026669375027380312,0.297291503773857,-0.22938333730769278,-0.6100252369172132,0.3752069965694296,0.41591549949665096,0.1854567278719726,0.10991812675691326,-0.17494663626284798,0.2138860119189098,-0.26862529408918157,0.15012385556521843,-0.5220905808123194,-0.858453381988821,-0.8643861129592383,0.12372707944183965,1.6573709353756252,1.8044687316702617,2.242127116774296,2.1091553468999638,1.3091123342893334,-0.604297524155554,-2.180680100907734,-2.3963297526257685,-1.3005113869866913,-0.1824161786900455,0.11978548371056912,0.25244580519598003,-0.05181848736958111,-0.23717163672631533,-0.09908125590101437,-0.3158830785434268,-0.0661163816489913,0.0471777150943363,0.11274902251609757,0.06442475890003886,0.275213356870151,0.45032911893712096,-0.3514121217884508,-0.606059875565393,-0.7269181349665533,-0.8868311598840539,-0.3467696689747345,0.41022023847703765,0.7315234127666095,1.5215929292862158,0.9988751218115257,0.021734045131640876,-0.9546650599332246,-1.3781286949054778,-2.2440493721767445,-1.401688936242264,-1.3921531323205045,0.17314650019354924,-0.09924641118902523,-0.08082846511435748,0.3698393911332619,-0.32744875658443046,0.3954539865733705,0.007123429341775492,-0.4047684466822897,0.06256856947666194,0.33223931303310883,0.044533011258917884,0.3640622862955668,-0.21093091074168668,0.20029164517216297,-0.44968476306132155,-0.6528276920073481,-0.9153079625229465,-0.27077659708057894,-0.2805602700406262,0.2261237930906919,-0.09390145808989936,-0.15889451231854562,-0.6844660565391427,-1.0596216946801542,-1.5624052516103637,-1.2934393661434012,-0.8950882174582785,-0.0159630952414285,-0.08689380236947883,-0.1535773662585276,0.2027955000983471,-0.03305616223435447,-0.05157977220803223,-0.10127683703515117,0.04283706524921217,0.10980266469742057,-0.019982261859477615,0.2963752773958343,0.00035088109341425,0.021591749527313842,-0.2694427202553817,-0.41086696606395584,-0.4970870813452158,-1.0408217307264105,-1.007237279814519,-0.4110099825414998,-0.15469692250956948,-0.7673646010677717,-1.0891352709264057,-1.0803385477649377,-0.7150826660756472,-0.73374444756161,-0.6951555499944441,-0.7131430577235024,-0.32374872544754135,-0.492075474351764,-0.41292199512959044,-0.030578697373503695,0.1567709508273116,-0.05098070167727203,0.6669794368157975,-0.15307028405203496,-0.14187139558748496,-0.13020133654606786,0.30731968092981266,-0.28091966106377086,-0.08557842047173696,0.4631214421451346,0.12372965878656444,-0.026464977122320744,-0.5509113901854967,-0.9304453207518403,-0.8199611060870547,-0.8467334228854562,-0.5215097153743243,-0.8696317711651161,-0.838385315710028,-0.9845382203765932,-0.06131153162969871,0.30109827849735105,0.21031999887620437,0.23703383835231406,-0.26061734453360424,-0.23209638386609477,-0.5696259167791795,-0.13191432321706698,0.010852145656223947,-0.07995113845534692,0.0978286964775939,0.21369018378894478,-0.05491790317245046,-0.2963880477928227,0.05210772604791792,0.0560989724236532,-0.570328070075434,-0.22018871208276214,-0.2065434803933522,0.23727891174400687,0.04357949526803955,-0.48993885865560305,-0.5595581728155695,-0.734124020106992,-0.6091147008968202,-0.43380370681653113,-0.7904561281538459,0.09634812475598496,0.17255508330718308,0.7756996779014652,0.9888135676447046,0.9688766820293797,0.2682970732001338,0.07452839594411187,-0.046987445127532716,0.3419179666572031,0.46268706403054327,0.6445377417304339,0.5934184744220025,-0.0642827378101464,0.286707778736702,0.01726470455762017,0.035485628850405966,0.20646607264936476,-0.5306858477720183,0.025413376198940595,-0.16949682702211802,0.2806350952907502,-0.01100018478835486,-0.5134307280121224,-0.8219924108174005,-0.50635888844872,-0.21976429013865625,-0.43720867005037395,0.16163875727477428,0.0594866718589592,0.9271611079309515,1.0956768728377941,0.655994648318655,0.4928849566366317,0.18023316794426592,-0.3280980530422569,0.08513624248817324,-0.45579471611886363,0.1817994765153202,0.01856680197620296,-0.31849569592774496,0.24620751869568747,-0.3017734830132725,-0.1327732087448017,0.3329806986818298,0.12440444844751618,0.0963890571162552,-0.07841136640009451,0.1677117399474522,0.08513717068333551,0.13858332733230813,-0.3144002182133515,-0.014511481041417508,-0.5664784585184638,-0.2324286101978979,-0.2581589288582358,-0.16685895837460496,0.8729831505158485,0.9812609137347246,0.6686321936766182,0.5731275430698269,-0.041310206213222164,0.034660840036713776,-0.27848430634388915,0.2118385728485742,-0.21873955000430814,-0.08312330342681276,0.056076580848482833,0.2835384670791682,-0.4887369391655891,-0.13389187801132227,-0.30405067500180827,0.40368745325580974,0.5090394821542381,-0.33296156538471894,-0.1833931102029183,0.27070649780694145,0.3754203256612722,-0.004765697243864196,0.24182979273648705,0.26032878225771594,-0.0799737606418667,0.23288493656915868,0.20078136340321562,0.27760516776511435,0.9519989381357116,0.8128253941065172,-0.18830281805928936,-0.020623779281220563,-0.06878959199148553,0.37070511846375215,-0.25683139801788074,-0.12818549059724663,0.19207569808208297,0.36183528082332317,0.3438580790917572,0.17320312362362192,0.011548871259105007,0.34836600448265886,0.4583254494967187,0.13952244995871607,-0.08593290528443527,0.23452651849172618,0.08807406076822095,0.4461620899935331,-0.06245640703768336,-0.33505775391217957,0.34875087522640225,0.004926681146692349,0.14409684515229473,0.5309902854993492,0.2329887646899253,0.12770929971738387,0.7049203802326416,-0.03987703127499524,-0.05094511068774446,-0.2460459811120482,-0.5282896767857708,0.06697622966362726,-0.5675063612507092,0.4593669496601379,0.10165893397544729,0.049396462215750274,0.39062332439017317,-0.0984178755150057,0.4333502598768756,0.05281029809177525,-0.470993589508638,0.13194158555101418,0.053492707934553366,-0.1328580950154068,-0.4306103724464267,0.22946555244263037,-0.03393730752901272,-0.5112088924132255,-0.45439149224354847,-0.7116867032630889,-0.542096300554451,-0.04070590414018851,0.1957479783928642,0.17949273398054358,0.04969717445749494,0.1062432755162874,-0.5800566508902201,0.03311709135539359,-0.24207541219053696,-0.5145890795528946,-0.3161432841511913,0.17152078369290802,0.827726110044787,0.12019153181352422,0.17779661883216752,-0.06842912159445942,0.14476082056306172,0.04890726645714341,0.08281511458751158,0.29490394366944933,0.017338040234059843,-0.09206966676183531,0.2487131681826992,-0.6115388067594069,-0.19343501005554703,-0.6280869405344748,-0.7120335273281219,-0.5426329800546467,-0.8956770260646066,-0.28819808840306826,-0.38803003860678,0.27243961599287003,-0.12175743405425371,0.2259633219091193,0.04709248687405818,-0.09142629512257598,0.29513060438384775,-0.1897564776630535,-0.07262632377509569,0.2437298664035885,-0.060613205703381204,-0.06576952003532086,-0.3814303927370044,-0.7587374412086907,0.2777651317326319,-0.26764532508657296,-0.0160897983586863,-0.36698786745400114,-0.22210214048250773,0.2376961124496545,0.035891698092717424,0.3443225980188943,0.0341230438904664,0.037795593054301226,-0.31641071336511123,0.10112692741740398,-0.30642451097523915,-0.02441846492002012,0.09862423543038525,0.15907327217327596,0.2774023688977493,0.6008441571917266,0.48742886996482254,-0.11841841593206637,-0.32565346254154504,0.04025957999678852,0.11501281761034464,0.07750101072896846,-0.3948089405330285,-0.08988304798156913,0.12098825621672288,-0.25971311894815496,0.10609653354841463,0.2051925078623901,0.27355403940814954,0.008378277451893406,0.1843920652821,-0.39634245340534063,-0.034936335948291534,-0.1500350952149739,0.03626192977856845,-0.33919891114810063,-0.25672976403323955,-0.2713945013797793,-0.4831685939707546,-0.4612466548330011,0.5202418488220758,0.6121762702604743,0.3837905764459999,-0.5212597823118309,0.032841178416705134,0.18833579651437277,-0.007574873918971034,0.21360028527949354,0.08712126559537763,-0.01710023960419494,0.12824072810209564,-0.03201837022562152,-0.6351385261972805,-0.285129272942308,-0.29206792620467814,0.07323859734329655,0.20873450111091185,0.35436569402044615,0.012449650287426586,0.0278927369068377,-0.14266185954654362,-0.18695850847280196,-0.21297357798585112,-0.5606021167002367,-0.07988023039305205,0.2551325812660901,0.2392864815572041,0.43573578684062586,0.19342495954838548,0.3341806363620597,0.002839680637146486,0.1697743021543961,0.2358801317303593,0.7246929797504308,-0.07750334670982688,0.15520637568744303,-0.4146490282567189,0.3636165617658809,0.06498521776520345,0.0767224987525877,-0.18318592857855268,0.2085891904527976,-0.15687399650754957,-0.2773786986201335,-0.19018372621995042,0.19581988636177436,-0.27729885249219344,0.17360695823905276,0.49168991379124494,-0.423364035480105,0.25310695155734353,0.26067516868608087,0.14886282471547604,0.026211328700984183,-0.03739268661461813,0.2021301330067072,0.10668613386236125,0.3383128463332331,0.05030928551382382,0.04417507778942491,0.5381953548146244,-0.15958727732610864,0.2406339515774246,0.24384901789715652,0.15350747083431543,0.06170828530098459,-0.3104922477073302,-0.3067941952833546,0.08045604258106512,0.04459205614943742,-0.04976135557178806,0.09569152908989244
