-0.12813666754958578,0.15721584219340248,0.06198932440496954,0.1809503211301822,-0.16094242800883798,0.15603429327096038,0.052991881495527984,0.0033734351235691715,0.1076808593534159,0.09140301873950842,0.03856347400966454,0.08464256795445123,-0.09149942422266526,0.017336931315774913,0.05676758784676021,-0.04164136687967236,0.17882780548093571,0.2065697120581265,-0.16549830757367623,-0.029478269445296565,-0.11301062829691798,0.03806035624651126,-0.03009883612139259,-0.14001346961921485,0.1400752166832957,-0.07908364568335217,-0.1265981513437858,-0.06731297537329702,-0.060305792448880825,-0.1762959917336883,-0.12286725874665953,-0.17327243767065348,-0.1431839570457739,0.15218556063634053,0.15114865638374347,0.14003886588510722,-0.11902318100816742,0.019633729196645237,-0.16655799859172896,0.04087188807916398,0.11178301656029684,-0.052033892634522745,0.013005112204567485,0.10659064214353128,-0.08185618584659592,0.17657361812729788,-0.05485363487390281,-0.09495698157299151,0.1540397782502926,-0.06528780302209339,-0.21472105122219917,-0.038896988366495626,0.04782310706728774,-0.16189520482206876,0.03498139811932277,-0.20557807814235615,-0.17066244750128878,0.11634044358227164,-0.025564229979862987,-0.023806582701371704,-0.043299326873412355,-0.030467093192682725,0.17426981496743255,-0.07742403442002695,-0.10429758716828763
-0.1250792821636037,0.15133832055528026,0.09438609054388518,0.1707707405893382,-0.08577945735650612,0.1302501683722523,0.10605840558753875,-0.027292904164214014,0.027303968823859385,0.10313769372198794,0.06378653931454628,0.20871675870898804,-0.08304435075930226,0.0942272613114514,0.06421356262670563,-0.005116592769041288,0.04781090609512903,0.19545170608923634,-0.1996779663599358,-0.01374696022909225,-0.19262046495793814,0.1289058295875762,0.0037622760947694208,-0.05442583175223364,0.17756123249668093,-0.15397201979357705,0.02535552367011851,-0.1917229225446444,-0.08719678109715248,-0.15051436166961307,-0.11523929429547591,-0.1867694189353379,-0.1250402141583981,0.08590051076889171,0.16834598048297664,0.03428272591962426,-0.02369334718568912,0.05851833593325967,-0.042155941664512725,0.16230156497716253,0.12720412206987974,-0.19026244617713745,0.009334636248124488,0.0029064709845923456,-0.11182647913602861,0.09018683598509553,-0.0041830625780480205,-0.014164534612656838,0.2051976596807736,-0.05361169763166762,-0.059776273632653545,-0.09418280580278848,0.03432245731219578,-0.11834832712299655,-0.016783074867535913,-0.05823479514471549,-0.09746559805706144,0.04045962576844858,-0.11755867820553549,0.01600296334370625,-0.10392410716420897,-0.17907481827041405,0.07571373257451071,-0.18415904949669573,-0.08696982661123089
-0.12177987154186207,0.12786278389758074,0.1236843134757402,0.12504351627699614,-0.17749921462241777,0.14838654332545184,0.20760926682524097,-0.03604007409252794,0.18837804434157948,0.14754248423253893,0.019177562890265003,0.07629841971320742,-0.15422084856843263,0.05728307596968411,0.11076428102319874,-0.18819609229532078,0.06664134196923276,0.17129472629003406,-0.06915135897671826,-0.03744821836390123,-0.1496049612637872,0.17767944638113448,-0.059819081092989855,-0.1016485274546099,0.0837480429011853,-0.19228932409540944,0.020334337508623818,-0.14915718548208065,-0.09074991072799932,-0.07371481981920522,0.030397001728350418,-0.07702341386028488,-0.022178600764499325,0.008963575368285912,0.041753966916891136,0.14092634487100014,-0.05035014668313183,0.1220001855926027,-0.13096005406993236,0.13099463363046904,0.2015940129498202,-0.024726535740582624,0.13223940777222598,0.03419381608980856,-0.12926434820031352,0.015198571405480072,-0.12697853461710926,-0.189966981173987,0.10098062047858403,-0.050489296618151415,-0.15303234212897052,-0.14041850817615395,-0.03304051211913827,-0.1684674684355845,0.06759689159064133,-0.045742080457570916,-0.1510805603948729,0.11397253161184613,-0.04819678975352129,-0.055726641949446626,-0.07234149304993724,-0.11073434784639032,0.1199429600939456,-0.01595168495092504,0.027056836853271447
-0.12472554598562802,0.14247023972356143,0.2080828971119502,0.11345543824807838,-0.07654845734036536,0.16360706179542592,0.05762273868029384,-0.11527527127765391,0.15640922924194373,0.09918692842569488,-0.01821091135046199,0.15243674049006473,-0.09463181126851312,0.08212635416607568,0.18498196606609754,-0.1980157115985229,0.11941360312708992,0.19319603613451664,-0.10239266403772565,-0.026054544172911885,-0.18995393613650793,0.17157204771305443,-0.1048452152279732,-0.1027840983019767,0.11810261134301393,-0.14540623623140278,-0.015542295068345384,-0.016643787899548814,-0.021612456407002788,-0.07862844378257412,-0.0039703065439059245,-0.05364503438975177,-0.01658390598569054,0.062181915725167444,0.1676529531125039,0.15954733440244126,-0.03176013660892336,0.08098521478812042,-0.21520028316354328,0.05901376918437216,0.027860919909860313,-0.11198816209317589,0.12154978953989987,0.05190019006587851,-0.11959556132369348,0.13773431206927825,-0.16394886947787948,-0.030060540774749657,0.20606365594332024,-0.038650482443524405,-0.018774314459304952,-0.17914460961606202,-0.08764578246898663,-0.15947749784792142,0.03791833780105057,-0.05314155454899852,-0.2130863120940219,0.030735584254215007,-0.022332959388309297,-0.0696818055051707,-0.015896006934067303,-0.15079290065730416,0.04245894326088291,-0.20265785435284667,-0.15294034713261218
-0.12579942720396853,0.05051517305506056,0.03156973092880937,0.2128011093904811,-0.15461931794914333,0.018043288156062428,0.11186522162856408,0.03219867498786669,0.16529004861137167,0.09704428286647875,-0.08781665045089827,0.17113470392580768,-0.14112761155514103,0.07332366237624062,0.1578269672175316,-0.09174218521088853,0.20991305652438688,0.08065194167695482,-0.041319508731808785,-0.0575114183547521,-0.1610559317174064,0.04186467936405218,0.008802744025397677,-0.06277020918598833,0.015126090596064548,-0.027341818093235225,0.015718744917670804,-0.1820169427954639,0.06455946550948742,-0.13214806388218323,0.028997060329324555,-0.16044234989755912,-0.17750310120628293,0.003889227787985948,0.148953109323396,0.09619897278370458,-0.19631559458336606,0.08856124438736823,-0.15880307802698795,0.11193962438029544,0.18574111377896804,-0.048716458216533184,0.15468773558701882,0.06486096389767376,-0.17805631738141925,0.073894088001275,-0.13309069283505193,-0.13271560041255182,0.15721229093720304,-0.05861784030279908,-0.04483094952909093,-0.1917179335322436,0.031882575621165345,-0.08079329359693371,-0.05020832624908533,-0.04018019727173639,-0.14248433056864296,0.195942978253225,-0.042005405599558274,-0.1044089997013354,-0.05500788048819598,-0.1846973310016286,0.03831237225321689,-0.06609744365745021,-0.08839009201007443
-0.1330726382268092,0.14683320606748543,0.1540839595412841,0.10246829520250995,-0.1828198432574027,0.17087797087126738,0.09883110663373033,0.006301255576623471,0.14415971578411105,0.19334141916101544,0.030429228269534123,0.12751322810895238,-0.020687992440116546,0.055096148975503176,0.12226512672416051,-0.14573469438261047,0.11081241121480596,0.17563852445237726,-0.043210825513571034,-0.09123119740825318,-0.1829377116724008,0.19630761297856936,-0.06176033842344964,-0.06233075615434097,0.16071449430190424,-0.04847133316904491,-0.10506400529165237,-0.08732531824127232,0.06637817117373992,-0.01669014096214986,0.048148418177403035,-0.15300002019546188,-0.11982900609402741,0.05381868387109578,0.12524726465762523,0.16771711935345573,-0.048857089378159434,0.00691938633792214,-0.09399524915032106,0.19089137983479276,0.07295939441821019,-0.10454410932393904,0.15492880844450732,0.03787112436824237,-0.1428284576261955,0.0882048419757645,-0.12440283117061911,-0.2023385678069978,0.18746141569264202,0.03564736309673313,-0.030611053547176144,-0.026201532278319256,-0.10471507366084522,-0.13918853102682682,0.006106972467611209,-0.07849733278866791,-0.08712359409068318,0.14442644685734152,-0.05287511656059049,-0.07326785586572652,-0.030578231145158445,-0.18350736185039174,0.10092861504655838,-0.03944476789836165,-0.1429342711588856
-0.11831528128731424,0.03688216237950619,0.18491391672154323,0.16505317894409496,-0.018942409333190503,0.1610304006573011,0.13926694456815433,0.03778673541587018,0.1956141493689731,0.17165389867486242,-0.029152659971094647,0.08536390557367915,-0.18825054011004083,0.09008911895190826,0.13867541945874232,-0.13674538891723031,0.01579728094629288,0.11365828202182156,-0.17860450062911923,-0.13180741105000776,-0.06944449764322898,0.20231212090605416,-0.05255513898803927,-0.028593230879257286,0.13863477706684044,-0.054288393643735985,-0.029135118104945436,-0.17530529563810757,-0.039348741721949416,-0.09722151368275865,0.043481049542576276,-0.004196596446713651,-0.017606703360219886,0.10105231698084464,0.14108611376247648,0.12908551175587826,-0.13798621080011048,0.08334415205021799,-0.05747687515999758,0.10725966514039979,0.04330890844388411,-0.18400528914677938,-0.03599936574496635,-0.0231897896628213,-0.11422829825735199,0.19277282122761216,-0.009563307202353087,-0.16274349883183276,0.04004493180227748,0.02004574744418203,-0.1722362112812119,-0.13514268801742568,-0.12927748065989286,-0.09651136091957842,0.01037044459050254,-0.18268447227185494,-0.12397982891972628,0.12909363374458882,-0.1525079374445486,-0.0341834307469456,-0.11970428423007315,-0.1215486317289851,0.06126175101404498,-0.02936929450903454,-0.09691294638679607
-0.13836730586007134,0.20179530373112134,0.16612020970067168,0.05493180786856087,-0.08330109069857503,0.12861572414586625,0.026239134419578904,-0.1016449957732722,0.050898764704523196,0.20561179180669953,0.046113122664843346,0.10907698447104731,-0.13779696074442335,0.0469673926403548,0.15085655104198903,-0.13673342023232196,0.030735908621578455,0.04357908161948327,-0.21896656732772574,-0.1640528566930007,-0.13665580795804672,0.0882179772579184,-0.03007445251921953,-0.07142776234442244,0.11175528233161654,-0.19009918086872069,0.010062703177072987,-0.03811177964362743,-0.05595278456245033,-0.1249183973515557,0.021222500736448817,-0.20354518702510435,-0.1735113829166695,0.05897615187558921,0.028743215760441605,0.1110119428057854,-0.12032522174241994,0.07960959278240418,-0.14051073668267666,0.20617541047298707,0.05833631348294464,-0.08716772523125962,0.1379185832524798,0.03737420818516432,-0.10555918620783106,0.06581933834139514,-0.16488539196349078,-0.06606948672624918,0.039441114689117845,-0.02388745454549441,-0.10389952119364393,-0.2222078501875602,-0.04866774945942132,-0.13555207206319256,0.04433487870782572,-0.02170588996778651,-0.07175782457585735,0.11720486839265229,-0.01373873111256019,-0.030670003510943164,-0.1808791227621716,-0.22075371078146203,0.03483380409746572,-0.03620538323413003,-0.12262470412068527
-0.1377482650263861,0.0996594641746892,0.15330977305566584,0.027768187819405023,-0.2137858204217045,0.20004320677620546,0.06296821950288048,-0.07660127025812459,0.04581270195486053,0.1410626857244851,-0.018515775788899798,0.05537693058703578,-0.0861012381094894,0.19518226749466924,0.03564287213703779,-0.029752759565025846,0.08705543214907212,0.08730671425911724,-0.12744659167023553,-0.04116913886782811,-0.03924740330371302,0.14465007688645484,-0.11923444057332952,-0.06848182211327887,0.19566415684534544,-0.1840765549637146,-0.050474046320309725,-0.19653636922925316,-0.07663796081656882,-0.06925085024070461,-0.11395766668389463,-0.03403988266098945,-0.11711509009349817,0.09781970502782891,0.1726604811096784,0.17004372939534865,-0.1694754645831538,0.12719657337364076,-0.1498656703885125,0.04834435426612513,0.2214520230351216,-0.1846880966926168,0.09353017435708796,-0.02254909089911043,-0.10554567294277563,0.12775578648388053,-0.13106862795116744,-0.12003936963360483,0.09184027757473961,0.03743780945087977,-0.05307454532338858,-0.1658076796275928,-0.09446678076141593,-0.06481453787252162,0.04395210353051717,-0.03016752095856569,-0.12067825506781912,0.1487427824650605,-0.03892369640106627,-0.0008831224997417305,-0.1532842089517966,-0.17101252077585613,0.12865015685668377,-0.045847632043456946,-0.02916059974536495
-0.11233574705371116,0.15525855319849155,0.16071207687483824,0.034461946330193546,-0.06769407291174907,0.08765655982546118,0.03316975052628902,0.004496236077580175,0.06749075840481031,0.15384568280544303,-0.025331787432979494,0.17814045402824852,-0.17924294665777402,0.1092801450297653,0.18444370808615324,-0.02841648621704645,0.11019423370436578,0.20071380616974988,-0.1120997881397526,-0.16797511949194888,-0.1072173954554935,0.13464865813236807,-0.00997001001407088,-0.10943341563015857,0.14085010528544545,-0.16518586087303588,0.01818896366671242,-0.14865064849394813,-0.08572946071741641,-0.10342371659871005,0.045883730057174436,-0.08332740005775505,-0.13876121980181555,0.06693169062274362,0.06072869632081917,0.14249971927112695,-0.07494069623114476,0.07875374190903522,-0.1796867279620369,0.04614505803932802,0.14548681374696523,-0.04190996558820665,-0.004512628404278537,0.1003580223536819,-0.13612499455925733,0.1989881046995988,-0.18076730773455318,-0.001500698515909176,0.09711799981072786,0.028425763529983945,-0.10635484932802883,-0.12251815889976593,-0.10902435315069059,-0.04597058539481883,0.015493314703691726,-0.0032027695812770875,-0.18794271296713336,0.09254922976245909,-0.09371403620088183,0.03889188695824314,-0.1277065149160351,-0.1065632471022307,0.1543781898011478,-0.14842676954148037,-0.13160406471075817
-0.1246473253484366,0.2030772311495274,0.023217594918086684,0.16353352343964264,-0.14722517434579993,0.12208812859201028,0.07231779913464816,-0.01725044480498427,0.10009988035425306,0.054042497328236995,-0.09863192488213159,0.051272101844142985,-0.04570059149734064,0.1803897619362923,0.19512143674487023,-0.1783331870293675,0.08888971591121261,0.1729135348406748,-0.17304717687902446,-0.002131925770716981,-0.0583654984340468,0.14001278504100423,-0.040223876300686974,-0.051220832506122874,0.08053070786680144,-0.019936260860921155,0.029578805722758957,-0.04327140829609787,-0.044695398740712336,-0.16384896063611584,-0.040368202220436605,-0.05703428162536686,-0.14908142661585255,0.14215862327669368,0.18956995732964682,0.06608460400811002,-0.11166126017287602,0.11508886877156506,-0.08824213441291026,0.012477007986160547,0.18069388041543033,-0.12294815039854172,0.09493253750613569,-0.013710621397031397,-0.040884169430746096,0.10836738845076382,0.0010205520531156884,-0.19879983825180156,0.10440493979287153,0.001814351830483067,-0.17701942396302384,-0.13926829324749515,-0.036995587059519545,-0.12198281348252712,0.053407221818711874,-0.04490393744747469,-0.21591807610536884,0.20174653014423735,-0.17476729307120986,0.04023547537133251,-0.213204376719061,-0.027720199496749164,0.19885537409242984,-0.034543491306559385,-0.14860999527437985
-0.11866472656743116,0.20116184426732656,0.044394227844478835,0.058446635180501784,-0.12454882020582435,0.1293147748394835,0.15571514896777552,-0.12950545325625054,0.09457495808989581,0.1600048803186351,-0.08961154698049234,0.11431500584193008,-0.07130276653685456,0.13544210761873782,0.08869006311918153,-0.12291532030003392,0.03454229311019013,0.09472967404460231,-0.16571684875320816,-0.07811540113057489,-0.207125974057957,0.09968537797707766,0.0511228164498897,-0.038402097882266825,0.08681262844034215,-0.08846021144926852,0.014996997536735448,-0.1577307850130236,0.008529269100226621,-0.16932745268368035,-0.1375494295938232,-0.013692661025564467,-0.051505498868399786,0.1850943346601149,0.19459694951298973,0.04052225461582379,-0.19454858698650257,-0.0023715321507027497,-0.14066396204805126,0.04609708571493935,0.11041778591493723,-0.05936246404185262,0.13132045024778763,0.027837918850175204,-0.05004039309351823,0.15499157712918443,-0.0894747710346272,-0.06644830540356346,0.09050356079285747,0.016559391162496398,-0.052748872355217746,-0.1945746730181635,0.047022586497970406,-0.19508583323158066,-0.05027114307913699,-0.1886721806850098,-0.08375106229519458,0.10137972546194803,-0.07774268519681386,-0.12059443906525644,-0.17347010838294424,-0.14116212290576716,0.023696567847039374,-0.040277157915864684,-0.06579129729143485
-0.1267454225900654,0.14397132181892036,0.20559024066017548,0.15579082197131353,-0.02315626278487951,0.18352464178535144,0.21416364746913955,-0.10926207953838697,0.03591753063713279,0.1727588270439802,-0.05059882039872026,0.06621055439194166,-0.16629875534522,0.08950612733320133,0.10598820734880725,-0.1637371540689759,0.13657003888565306,0.13205540455646636,-0.17445587216372876,-0.02763684875251145,-0.0422077441544548,0.17736907018168382,0.035932543914637204,-0.0745840513769312,0.007668298988649047,-0.17205018731724753,-0.07461709936492587,-0.04505635888261173,-0.09794634265063776,-0.06268520864525731,0.02171439712565553,-0.07270985520433661,-0.051490527629054414,0.055203367909577535,0.06276789916524067,0.15821415688816778,-0.07228816500003177,0.05063432904576929,-0.11978233063020241,0.16950164489598932,0.18156473296153097,-0.06038503963482812,0.022388275172832307,0.14226352148999236,-0.017010242888441263,0.12753210797447262,-0.14917639445302272,-0.18625184429147632,0.21246493991987392,-0.07774288422447086,-0.08236633820121284,-0.18002730483653295,-0.06977821566065372,-0.11303141515799701,0.04408800001106304,-0.11842188002745839,-0.20978810543574777,0.09668169332588514,-0.08835257972337528,-0.07499446763205317,-0.08778095158990794,-0.05809303966909354,0.020750900738032624,-0.12678838996688238,-0.03266712732980142
-0.14235214791113426,0.093106193287287,0.03481016451482786,0.12697201024728233,-0.03404946908368511,0.046744704272052996,0.07678375950166093,0.013626665225463823,0.18536433556514637,0.17093477026929832,-0.03198468785450694,0.05271176924845332,-0.06137858921307376,0.047756844943700034,0.20189521184345008,-0.031200236639790654,0.04208193345909328,0.08721496326536513,-0.11939768567177432,-0.11319160421264907,-0.17978884790064548,0.09661244492882318,-0.12070167342575894,0.001348515773551886,0.21176548243013882,-0.09769216731765372,0.0231066764838904,-0.10025760768002241,0.0384682074247398,-0.08675921839504257,-0.012681865206941721,-0.19102745138576047,-0.16130579994067476,0.16986885252577227,0.16660325125300074,0.10744470715334889,-0.1655259904501563,0.03573527129773503,-0.04064243757461018,0.07215834327717854,0.18466198113782906,-0.11226797658576086,0.0009004225000310295,0.01677097840753101,-0.17423840103363225,0.0845231775096518,-0.1270016421596582,-0.18887006052717656,0.07248781229093067,0.015864292644634525,-0.03003312286116385,-0.1013401108743671,-0.13020664877438842,-0.09966592089078159,0.032229869602724774,-0.204173441689789,-0.05942056501392809,0.17176732905214068,-0.18304767374673261,-0.05495685758115095,-0.14560489820931669,-0.07345147383465285,0.08439397590501618,-0.17981475756658027,-0.1272985705943518
-0.12325003278647496,0.14478943506101033,0.13316799852134492,0.04250211618685566,-0.10730277790274298,0.13668542639723713,0.1848294534543832,0.019246075481411423,0.03125985350166131,0.11033884571805008,0.05727005511895333,0.10505071745254835,-0.14553683094719155,0.07408056443138314,0.14660808665246935,-0.058162325181287895,0.2013135068014971,0.13627530189780046,-0.05585995819033294,-0.14799780153302716,-0.1654803861848604,0.1943268843158795,-0.013590173244471364,-0.1543988798710949,0.07338440995925555,-0.04425563256144139,-0.07177392422830392,-0.10401818963792175,-0.0022792035768956537,-0.14426755520627957,-0.0540076376549659,-0.023355336897978685,-0.03824198353211291,0.15106034911137842,0.18109298123189294,0.000822778021202942,-0.17494429720473542,0.07757111041863038,-0.19344689968435907,0.07224527499177795,0.063475385811585,-0.17381340878172707,0.05394503275539258,-0.0134481132857616,-0.20278001907650958,0.1636157146820305,-0.00589678362926793,-0.14586756613870308,0.09649284154864644,-0.0885045382693043,-0.0316724368812811,-0.13437635265949718,-0.08713763097291219,-0.11154217868599982,0.0959144924160289,-0.10074545082593911,-0.1379738257757708,0.1066563770697726,-0.05825318984636724,-0.01715390552922006,-0.13440708050414188,-0.023318111356352745,0.15529397470978867,-0.0649867237296443,0.023688822442485918
-0.11668542474741538,0.192799439166517,0.189226561958565,0.10684994962261085,-0.0588371776225398,0.09592388764590465,0.10122101533434588,-0.11432027807824426,0.09201698443018895,0.15007900353392722,-0.08590718410793718,0.060400174042248435,-0.11979160175185637,0.14198894307085277,0.08297989733479079,-0.09927811114544945,0.1377582178208414,0.03601135028163492,-0.1022098001477789,-0.1288043857220966,-0.05301947489545871,0.2046472999375171,-0.1159094876495143,-0.13129834736561247,-0.0028137209950481667,-0.20864563092477478,-0.04223446934307195,-0.18642235326950654,-0.09923798783742872,-0.02954865284693124,0.0450361300444441,-0.013367236450735589,-0.14626874109395285,0.15465062857365716,0.06791265798923238,-0.002931354730468623,-0.1589051727416319,0.12340852146127884,-0.12854822658192622,0.17886554299330185,0.18920332181410499,-0.15642164516324086,0.075021033468145,-0.03472959939451966,-0.13715586848105785,0.024542163221732843,-0.13397528922605523,-0.05266568719727437,0.010073725746017384,-0.055707267194737294,-0.11079970181716649,-0.16905703894891003,0.007519691872557018,-0.11422315356932546,0.02365497749603594,-0.14228677729913275,-0.07450497534223786,0.06907921231053255,-0.07665600605781844,0.04329927496287086,-0.1456715392499969,-0.17498590136911774,0.11779442078382273,-0.13585589946791934,-0.01749307749965656
-0.11752894360474896,0.18735590616414854,0.20319376225511016,0.12051189699830399,-0.13049859838745978,0.03213788825979462,0.06013752653420755,-0.05008775995835931,0.03711805672005824,0.042279968126517874,-0.007273001303470332,0.11928369716907244,-0.05621917081098284,0.1165486533083111,0.027709230870774405,-0.09933668081345975,0.1749023382012683,0.20151492815274294,-0.15580194125247354,-0.05309611256533126,-0.11162654154889523,0.04420945628195566,0.011052863062383048,-0.10797493602178017,0.02121490983769912,-0.15490299484347778,-0.03758047485981042,-0.15936760949892853,0.05227334162397459,-0.11408053439372742,-0.06632490881439972,-0.13731698657108604,-0.02996184328626456,0.16670381800667974,0.14843722210921842,0.04318321911768688,-0.14284093184355737,-0.04773201330540693,-0.044249148141689676,0.14794098027554878,0.17850205469843275,-0.1602438208151066,0.11378217873414785,-0.015247001471374168,-0.14802589982701772,0.13906095820542985,-0.07405584317524164,-0.12171708827503587,0.16292010730816145,0.008348927007245197,-0.15057456231961022,-0.07245410815604966,-0.03715242003082766,-0.15920181756025933,-0.02398945136788339,-0.18334823858633328,-0.09476028636376246,0.07871262520000034,-0.09144205659173192,-0.07073124849394039,-0.008890383195668837,-0.14754755070933748,0.10512426419923857,-0.10847548437788275,-0.15251216331238435
-0.1402803566692074,0.05189649284523312,0.17291261686288595,0.22593705950841325,-0.1310237025753382,0.11669989557747984,0.14267014300779046,-0.08807964831102442,0.04837187405664797,0.05709053838156211,-0.09688707689840748,0.1989168442498505,-0.12460979713462762,0.08290980636076604,0.11367516353133034,-0.19842604497528932,0.15369573471152248,0.0837071778611267,-0.0920129373001846,-0.10031937632925715,-0.10930007503509652,0.07137869114714313,-0.06707517074539562,-0.11234073798310766,0.1740975478754169,-0.0577976678823514,-0.07063783084753678,-0.04764554011023528,-0.027654364775769713,-0.06274879314403686,-0.09275609126526438,-0.08039529835500596,-0.14292297893081093,0.17309602895869156,0.1474763397644617,0.16985720381811972,-0.10800026734294021,0.0624109607596635,-0.09614552681961837,0.05546228126743593,0.22119583708547444,-0.11884400831357761,-0.019267904852436624,0.03204483096172771,-0.026554963731678566,0.043341510798586176,-0.15747044211550892,-0.21047272959289856,0.05352490377610884,-0.0663736616855773,-0.09418729938621684,-0.05615092464415562,-0.07057423582351047,-0.13587358500138588,0.014532292474984243,-0.1817316962451919,-0.05054736642542428,0.07374708782892302,-0.14082822816531157,-0.07077938545497088,-0.06738117473899671,-0.2189179238118364,0.08216076565502653,-0.13500405759733633,-0.014596819249753685
-0.13402405775645507,0.05035941393684834,0.15114010820402837,0.15033653990815468,-0.18550053442528455,0.13975257686577927,0.029738162547417592,0.039417907394683635,0.21375700062341924,0.08567293837266259,-0.10483193233216972,0.08539996186079572,-0.21270188128648157,0.1993758090293966,0.15707129441454412,-0.07027465220271827,0.11458892653869977,0.02231775427831104,-0.0267968438223687,-0.022496774577358797,-0.13608861206430342,0.17983769826103385,-0.04137983546948833,0.006710553965663225,0.06092045485734589,-0.20514851121057853,0.02338175454579186,-0.16319265337554603,0.0642806915028182,-0.056801157557725274,-0.009072424068148698,-0.039358057315159345,-0.18037383679015526,0.17564458321634682,0.15260610013069972,0.114361045306213,-0.12995230568786417,0.0883136909618243,-0.1082544063067789,0.05785985693604468,0.1928032353390472,-0.20514639860774542,0.026585373152570577,0.0714960887484422,-0.07198950101434476,0.14553226736388716,-0.00512860552336292,-0.07158300098568063,0.06145660995167342,-0.05893977796881594,-0.05586854256339854,-0.10501357553783885,-0.11460042479263051,-0.10402238298000516,0.09213345042286372,-0.05301800378502008,-0.09433296115367847,0.1407320189054665,-0.06609881579344165,-0.034625249743667964,-0.21141589568017383,-0.058725294470391876,0.14842937710308568,-0.08994082124219871,-0.060547615828282185
-0.13934020421408805,0.06658794038293644,0.12173244793625658,0.17917420313994473,-0.18996123285023234,0.042115553503962684,0.186837148663502,0.022388764254980025,0.17102004576136387,0.14449197157377508,-0.1052041430387758,0.09554427749040403,-0.09741031570895427,0.07307783619409543,0.11554620301946748,-0.08321057853593583,0.14573142056122007,0.1838908256246077,-0.062349121804867506,-0.11015489561701719,-0.18062551042682676,0.061425445757304874,-0.09791303559202702,-0.15299579019843676,0.12171065149395884,-0.2096601172622101,-0.13087695993198845,-0.06804662836101771,0.03495507599619634,-0.20908210613307654,0.009504715820845482,-0.12880905778232982,-0.10279388452814663,0.042270286422137156,0.17004449054150522,0.12859131165785423,-0.12915094364706822,0.05892443523311983,-0.07213924556987171,0.07438461086779907,0.2136956626229774,-0.06289926843093577,0.10546589546131467,0.09018292613992497,-0.05464083964189583,0.07483697298415387,-0.019729769604933882,-0.07567798738970778,0.03120308228151967,-0.0919499220010287,-0.11025693867181255,-0.06527376348976346,-0.0679818521215791,-0.18954760612294771,0.022151233856648286,-0.07753188481388013,-0.09070248160681174,0.057684191247245616,-0.15042632292478592,-0.1495606157272122,-0.15291366288204375,-0.0756398896947555,0.19054144806012252,-0.17431392533474166,0.013601849666653435
-0.11743214994276382,0.034376865641774945,0.1508849130471873,0.18278067026071237,-0.1554617816743839,0.011685717429954452,0.2020998687348377,-0.10126275565563722,0.11487877004873555,0.06883498404574154,-0.055726937423701974,0.08182062873323562,-0.18060148341917862,0.12342950669353488,0.03699833229655415,-0.09114211915289182,0.20924943231537116,0.09856388446937427,-0.12473275697215719,-0.05082910649225738,-0.19486109098793655,0.01634464896147546,-0.10103689271668738,-0.015311821484731062,0.12298017932688923,-0.17884576780807887,-0.11858538630816536,-0.06297655330653641,-0.049117171132526095,-0.05891083549734745,-0.0956092410611849,-0.10467578027839151,-0.04038543600449612,0.07928484288887835,0.1181874188387389,0.0030905601992786197,-0.17706434363531878,0.06393833602044266,-0.2131827304803214,0.07935617373988808,0.15457913333842527,-0.1869121429309906,0.09619326116376167,0.042590294681437095,-0.013508066934536782,0.1442224038193367,-0.061132360252829,-0.1759473467005067,0.0956800291234144,0.00831063712353318,-0.12114845213941185,-0.12807485401414884,0.023190712461303345,-0.16516982652952364,0.09333219419659329,-0.12978989134418897,-0.09206309689181841,0.15872290827367427,-0.0287811405480611,-0.041878912344184914,-0.029301051170688656,-0.11902792293063941,0.15101182862116483,-0.07622599604511922,-0.004619536311503619
-0.1334557834959315,0.12806556295662508,0.18376933776475807,0.07077828170933276,-0.09162916791291968,0.22028770617509003,0.02486649414893923,0.04884176034430375,0.059720938711793646,0.1954114730089852,0.04324941057192165,0.15321571857651464,-0.13421184131146172,0.047839958852676924,0.09921914888626389,-0.1355485133500685,0.12442405593144387,0.17195029139753307,-0.02416800469721431,-0.19408054767464258,-0.1802783928643948,0.11923191991323213,-0.1112752229771639,-0.07524001708808944,0.009752190609649174,-0.18136884083492974,0.011744258527913732,-0.1365068594028634,0.010819446274308727,-0.1944551853684593,-0.028326399912291404,-0.13106119976070388,-0.15748421471445362,0.01823564505075739,0.06544562936969268,0.036865791339049374,-0.11780754186158687,0.10513773872159535,-0.1686757727249171,0.025611093851631357,0.09379012190784386,-0.11432755296536776,0.1061062414454445,0.07261847170511991,-0.12313198911186284,0.1299280547578337,-0.07125955498013825,-0.023817627200394757,0.058092293632158815,-0.029907139427317767,-0.17197344931403716,-0.11213617504061645,-0.06521320810294653,-0.06727614236864264,0.10759476353991822,-0.12764510658496403,-0.14235963780234728,0.09575729982376635,-0.08479142409328702,-0.08657500313289627,-0.1553080626515628,-0.15011504161917902,0.09113920170649879,-0.06772748464674996,-0.12461158971309368
-0.11392275088995815,0.1570699279191035,0.06003384466523906,0.20058964931141673,-0.10763109278714857,0.09636291858846445,0.1882496489139203,-0.03608271216460407,0.051046678141322854,0.13912099220267726,-0.10104695079555641,0.05906985029496974,-0.05371264115960838,0.16274855476081515,0.08748010534121033,-0.15261588684077781,0.13376465371684984,0.04638244272563141,-0.0415220879539019,-0.13157371133586482,-0.17865364611211865,0.0710129988935505,-0.06694569693890208,-0.11574676053972097,0.16620176301537098,-0.03417108956604658,0.057535031409996086,-0.14780502560729822,-0.09516292187401848,-0.12273818473933053,0.03982634273318201,-0.055857937927189634,-0.06763729286292594,0.10677478904923814,0.16566069027192695,0.028525977136820608,-0.014505456266129724,0.07425584254663045,-0.17014467203491454,0.19351817678377345,0.10555088453090962,-0.16751529548690147,0.10953853072599516,0.02261841518945477,-0.17004711981922271,0.04235745170242105,-0.06093828529580505,-0.12793593646865703,0.2043725516253738,-0.01081618247908545,-0.13784461909766216,-0.16098355969704434,0.03293420857224846,-0.054611261790745456,-0.0021854246271980956,-0.09407907596835645,-0.14661832707584488,0.0987320435256915,-0.1332850648789226,0.009919830646261354,-0.08585685809911016,-0.14530371166756356,0.083471145929113,-0.10515047204646945,-0.1474488881773447
-0.1286668718685693,0.05796139985231867,0.033577527550174326,0.1904734223907897,-0.18704981659527847,0.1819115618347486,0.1645851285605518,0.004960082886582427,0.21553735461669885,0.050436480935565464,0.059617436825022435,0.12402358439316011,-0.12243177180463582,0.03309803663417032,0.12884215422958456,-0.08660466002530699,0.07773626003950593,0.10657598511528125,-0.16009642520387726,-0.09726332541127823,-0.17264671353024705,0.09657942741914953,0.009129127599781123,-0.06481794397616782,0.07304131190297113,-0.18195733403411585,0.01873145307329369,-0.20734088259545305,0.059191720805848363,-0.1927574156252984,-0.11498866937208961,-0.13987881934748836,-0.039148050148080725,0.08870679889317484,0.05459696122385455,0.0602406385002771,-0.19934646092362657,0.043431102047814654,-0.21110739378802656,0.13451100096371724,0.04619466514193403,-0.13062277992554247,0.06494098740139133,0.06553842797763965,-0.061673978658920665,0.14476484744763,-0.03889128036241184,-0.14986159576442923,0.030324658464742416,-0.10838879649857881,-0.03575041861707501,-0.16264279455790484,0.0054222963426294405,-0.16228389491511966,-0.04763418586177767,-0.023459314642015977,-0.04972451053275315,0.11226821955522188,-0.06745009818015069,0.02535694050643646,-0.17645784458210062,-0.05438363133810495,0.02816608964333796,-0.11825465948665914,-0.08518097072459954
-0.13089867713680478,0.09151393721474985,0.02839531082427826,0.13937117726792664,-0.08642997305367967,0.12376422265792482,0.15478175898105917,-0.08844779750099592,0.16298141858469775,0.12239915599295625,-0.009527139833802224,0.21252107882927468,-0.0985439679219613,0.044261013183579244,0.16953106067643536,-0.11919647517172366,0.04848584467619927,0.13307880360341642,-0.185852475471556,-0.09793902125680248,-0.13430048778956474,0.027043484851287426,0.033697092978621536,-0.04240840058759338,0.12381865986717096,-0.11363566678265316,-0.044533688502855925,-0.1928456702230153,-0.009298391734045496,-0.047465993791530825,0.02751668767109115,-0.04106338137016515,-0.005724550295948664,0.06091870131521876,0.02391169308155865,0.03023138704962488,-0.17180517952492283,-0.005100177740384099,-0.11831490791799969,0.11011137485010807,0.1571662496707988,-0.20520384148618476,-0.019909790462119173,0.09204539744611806,-0.06662874335421415,0.2128286222181505,-0.04255435347392689,-0.16919537466952708,0.19689273205683602,-0.06123564835345939,-0.10402147022368266,-0.0954911917449289,-0.1194313403460872,-0.06031046596004423,0.11828866650404465,-0.10672343146179654,-0.03931333642694037,0.17672580090318232,-0.11445625441754337,0.025740421239092846,-0.1299542445459203,-0.13047712556023638,0.1670145295746643,-0.09457903922827841,-0.0640778564878481
-0.1245271838840019,0.11670049029642289,0.06272149715532366,0.15930842787209906,-0.17699541200099744,0.03333298908591148,0.1632682757610334,-0.07286643927618447,0.11107035597062448,0.21531756445856554,0.030732112151661987,0.13211532330032633,-0.15931661425666002,0.018737804389372666,0.06257528699923248,-0.1265459946999081,0.1734187516059394,0.20116217644793208,-0.1109256081440375,-0.10951163207255407,-0.17725893145578997,0.06450575884740258,-0.10052519148955115,-0.07658789679584672,0.01638146245957215,-0.19601284097311314,0.03360670202395327,-0.20403704105704326,0.012761929227977281,-0.1580376363478658,-0.04357381297826709,-0.11152476235951052,-0.14315777441520922,0.15029656479454528,0.04132328932488004,0.0521937990892308,-0.11677532633176713,-0.01957888919536042,-0.11158298964886493,0.010674525732688882,0.16588721216993016,-0.06550140586816476,0.08853066360488011,-0.031042180937898848,-0.023953635989050915,0.12184109503386009,-0.11628086367675168,-0.08434402175693072,0.06789108324987993,-0.02401694619682955,-0.20151826442308896,-0.07561752341369461,-0.13303516381237165,-0.03472438121689456,0.08673901512155732,-0.16393335245779722,-0.024415357674037092,0.18113093197558028,-0.10739533075597966,-0.04958646298837064,-0.08961973651136845,-0.15428042163603367,0.057404424936765445,-0.10290340909880473,0.02332029097015597
-0.13118492027621317,0.14075674914034086,0.09381551641857853,0.19601467667670577,-0.1315586540315221,0.07529723862717616,0.19009778480271824,-0.014561126503777734,0.05098448474226111,0.15748222426305994,-0.06950896231569745,0.03246375819448986,-0.16894256158184642,0.20061271684081192,0.10105987827255038,-0.02737460816922769,0.1892779773194114,0.15927054978267957,-0.07027330428623287,-0.040333573234696316,-0.06479130872189319,0.19545679663357862,-0.08575845987834715,0.0040974842448993935,0.05889423500088383,-0.18431217046416148,-0.015160280846912544,-0.1452754724495857,0.04779792370043199,-0.14508750928864955,-0.06664683036345827,-0.1830753551482564,-0.024259083979043805,0.0768412801728363,0.1108974572613135,0.13390832955242807,-0.19162375212791646,0.10083448199104467,-0.06153717062199822,0.1095550025110214,0.15653872924858286,-0.21314174691259327,0.06213358987708051,0.08434544185964811,-0.029548571595442684,0.09009168772400312,-0.009604452370093384,-0.17687618842697506,0.03379865869347921,-0.11142046639047919,-0.13505725924055598,-0.03348586637060292,-0.13509781397670978,-0.05602289279742852,-0.05604217755300445,-0.1857826965015911,-0.05765571674314768,0.05748958659621262,-0.023619508660901466,-0.10051275020722757,-0.15498741385078427,-0.09988093579158981,0.13407099124385258,-0.18390638455708821,-0.15600928202968642
-0.13915761416282466,0.0319427364367775,0.1444049398241894,0.0774912774464934,-0.057483078688053545,0.17073309582527674,0.10603116880102399,-0.04396945961504855,0.04240461814551826,0.18309584244323487,0.01842135468219924,0.13357769706918607,-0.05565317759835228,0.10723626128184297,0.15833148133314257,-0.11217365803004245,0.055163364173730925,0.17844725081072166,-0.052710768758314444,-0.050965801736724284,-0.13763406617598598,0.19726094751888185,-0.04855513367826491,-0.1480593816105978,0.0644729409494224,-0.09624627895552373,-0.06227473670471061,-0.09853171768669555,0.07343357477936428,-0.061953750863084835,-0.011393149681565311,-0.08290473512259393,-0.14000461916381268,0.1693048608742003,0.07663551502669388,0.1554047511933161,-0.046878671799424634,0.0540068377373259,-0.09166692735829766,0.11965287715015313,0.11907178689427977,-0.05011033387897678,0.04214916801056793,0.10398249419378347,-0.19981556455231023,0.11751222990841208,-0.03510563117152451,-0.16182362352982807,0.03145457376360169,0.020659302695519348,-0.21311391161126306,-0.18817522780507362,-0.1014905984199979,-0.07947481190406626,0.04292836908915098,-0.07852948814419958,-0.19276019665678132,0.15160652046915182,-0.11495054838210252,-0.06070322471609184,-0.14190808460021395,-0.14482252537484466,0.18953248701635597,-0.13796322245209564,-0.08405856457163081
-0.1277013366590332,0.11585714981599363,0.1948746943733932,0.0384994034372268,-0.027179437862024605,0.2140025932518379,0.18623385248044275,0.043186426559914316,0.025977450143927296,0.14419079705371893,-0.0971047283378995,0.0795494341390525,-0.11672015713456639,0.1566898579315064,0.12326764836815689,-0.12323166842192473,0.13435839898734472,0.11230289938616095,-0.05520921698517512,-0.08979915965843512,-0.15888700434800143,0.1857354249710606,-0.043545297579103664,-0.13464075782036403,0.17547033635967213,-0.13082535328061484,-0.051992369961882626,-0.14494406694295744,0.03631368579926565,-0.075235767357164,0.01237754617672177,-0.013162276430441072,-0.18762189460897516,0.04682434188001699,0.07135966636092138,0.1078537249998103,-0.19945651006802523,0.08898389357737298,-0.02755036037610261,0.09910727597485275,0.08826031123722543,-0.04511080941521439,0.14422721467534372,0.08819595035621255,-0.0226857268242662,0.15933020590753394,-0.10420590825811929,-0.024970791938194646,0.18553520604262733,0.025947323225827438,-0.18685740054624952,-0.16790146417457133,-0.045478419149711256,-0.09012788968215442,0.02200396252048155,-0.19313633227962665,-0.16968872850958555,0.07100948114121311,0.011506327487343449,-0.021481887643934484,-0.03605856261169683,-0.15104447271320492,0.0742173867562216,-0.1427379871901794,-0.10655645310775307
-0.133056161967797,0.10824708886732902,0.1701387013776084,0.21170571583046566,-0.07934087288960238,0.13643920591961853,0.08674460360514134,-0.10173114652603855,0.20750551955570476,0.044876379057233004,-0.07480263277131688,0.13827556201186425,-0.10446910331856081,0.0714040290840378,0.11733050361052647,-0.05582485290950008,0.17635726102390706,0.10146333311543189,-0.058334609239634204,-0.020911195803031333,-0.07502678560951852,0.17834163835868533,-0.10851998651766359,0.016692450982510855,0.07147063814573736,-0.04643324396003625,-0.04356665695740894,-0.1977131236348217,-0.02720099239537984,-0.15350659844265052,-0.07587967896910298,-0.15069939365912396,-0.12648626931086024,0.06583753702756513,0.08477276526319108,0.01562497781189743,-0.18140524066496688,0.11121227961115701,-0.16607215737355502,0.20411095175033284,0.10497993074187813,-0.041351131638419275,0.06843570513862583,-0.03568413692010579,-0.08570757115405925,0.03179572422865774,-0.09326646482428806,-0.186929339329228,0.17377179124138567,-0.04431604810554935,-0.21180142912002364,-0.03698889956912367,-0.092699206957455,-0.1183589111456026,0.1244527893564884,-0.13466998741068512,-0.09254091570269439,0.0831129468494655,-0.17010776084734408,0.017903147849459747,-0.027583841149087338,-0.17904566415928436,0.03881483035933662,-0.15424504194608593,0.009696023025168336
-0.11651702302841775,0.0996431127740222,0.17970048663304944,0.10672112237560225,-0.04282470840849226,0.11704335076910057,0.010829335749835526,-0.12499502133805493,0.12566891758939083,0.08113484537666596,-0.09965020294200895,0.011756962286305904,-0.1024019627215569,0.18535316247961334,0.16515474454665058,-0.13795910921414942,0.03248310755413122,0.1813664427976303,-0.06247109316455,-0.18522235963989256,-0.20938910478975845,0.1826758029405099,-0.003158363396404532,-0.031325091775661236,0.1929444129828036,-0.19024646635984102,2.111555645219896e-05,-0.19106910445887426,0.06746433408291763,-0.16077599870180195,-0.020977875321476228,-0.1609859668698265,-0.025386298032828773,0.1297780706181056,0.020845723311076984,0.07096256409933131,-0.04518972462971575,0.07702623868375551,-0.16650029603231495,0.02134258575315531,0.07414018976111156,-0.1912186274498449,-0.03324481726941983,-0.004132652991278046,-0.0682749230523065,0.16501749448685063,-0.16921952992271244,-0.07333784538866407,0.12233355769714331,-0.05678477957822074,-0.025273136330742567,-0.04540830443077886,-0.0003615088735456493,-0.12690860285489522,-0.01630685713901621,-0.08116902490809677,-0.06392326936213397,0.19145751296949876,-0.013652643457047123,-0.00597859151796586,-0.10469898760467292,-0.10283703278563758,0.12991716836451844,-0.11459982524134767,-0.11553699860393388
-0.12509491187624378,0.059593460362613954,0.07856910746283674,0.03103391298751032,-0.03116935107493022,0.08952351530458896,0.17042544659343184,-0.03810498967476051,0.11155436216641276,0.11497661339023987,-0.05445554985035135,0.04573462808615285,-0.16118941170800816,0.012359506953727496,0.10889334179192987,-0.13697256134016988,0.1953344267467717,0.028833012739265265,-0.06974459799650722,-0.048088674089847135,-0.10134241370041552,0.1157957326309426,-0.09996391594630553,0.012036150941516471,0.08162767436221362,-0.021379356486453803,-0.10791035697478597,-0.09057315186613811,0.02102506991620532,-0.1304389001164578,-0.0881784633561134,-0.17343502803241778,-0.04550567831725348,0.19779856958905093,0.09480329399546708,0.13372254968500355,-0.10100131074765255,0.003487551013534826,-0.2181523851312122,0.14931486980028522,0.1916532904339585,-0.18275435265828371,0.1406659964574308,0.11590101269624392,-0.20252152763731365,0.18947694680226668,-0.11373275174022296,-0.16352896542815307,0.01741393771045952,-0.043488686653496894,-0.09866231599437543,-0.10542276201319302,-0.11978717473985599,-0.14648826280854296,0.0961858826828433,-0.20445602966611892,-0.10217656692442888,0.18298140922328138,-0.15968505846064598,-0.005340069583665793,-0.18284809037224806,-0.08389911876316117,0.15342246547543253,-0.06085441906448307,-0.0609209354623507
-0.12132736786843734,0.15382548028723486,0.018532063138399814,0.16265761872646822,-0.05074576630823872,0.11492043903006388,0.015604324722434736,-0.08283196307635965,0.15540882248606636,0.11307477376184552,-0.10395949507693579,0.06228053480148751,-0.16339780363570666,0.1941541174049069,0.04636186239758327,-0.092141846481144,0.13416236221805727,0.08978490277502002,-0.16189758584108618,0.0037527708162798214,-0.03192570447749478,0.07474290347362277,0.04360109652186678,-0.010772444876536967,0.09555353858102786,-0.19620960003638338,-0.12157252407587356,-0.13745659311712338,-0.0006138270923058665,-0.15084225893868022,0.030758223954553333,-0.2040044304406743,-0.09994040749978297,0.02611869979040371,0.048415483054209424,0.1157210541982184,-0.039197055809883134,0.10359255919900748,-0.14392901913998107,0.10901828830513961,0.16245364387086023,-0.12754923569392923,0.02228355318623146,0.10771152173994268,-0.14790584851100236,0.17727756109747356,-0.1777406729174542,-0.12226198685122101,0.15771266124233366,-0.05934318330909513,-0.17426578557110076,-0.030150876646600655,-0.029895175777125905,-0.10653142428846592,-0.027664193861218753,-0.15880778107163424,-0.16208978417429215,0.028803247488111087,-0.14310482068993033,-0.10729738520972311,-0.04913314329708498,-0.141253866890459,0.14994422069478824,-0.1819267379534155,-0.06416712799447687
-0.10489311443425159,0.12678889397447227,0.1329403637948413,0.12548374030334888,-0.15172094635955163,0.057512371226517485,0.09988795457527554,-0.06952907891224364,0.08023904121112001,0.044986495303165855,-0.016231194205609006,0.03456223609000585,-0.018496274549085562,0.16680092583814624,0.17446923759273505,-0.11710915407924856,0.09190344088501319,0.17075611927558076,-0.14032587947354896,-0.038905217366260285,-0.14615843275515858,0.11031893576068548,-0.10958413025769599,-0.01598591075860338,0.1674305322478806,-0.1898246613764594,-0.06579287561004664,-0.1706233783938274,0.06760219459351914,-0.10850672544263434,0.013041400682581939,-0.16968011323608853,-0.006232217688551876,0.1642285846760656,0.1897221582920814,0.01156562637103579,-0.18379685568529017,0.12190688854500911,-0.14424695489321923,0.10282528759043949,0.0583186473167229,-0.15760839427430215,0.14511224984435397,0.02686521942416729,-0.18126956404181527,0.03824787054650536,0.006580225516904629,-0.17437287344120486,0.061119209783174984,0.03528700883759884,-0.1159839537203608,-0.03704887286341143,-0.0752873639317806,-0.12437528017330203,0.06154299727737616,-0.1560570733514417,-0.0775839096947447,0.1459118699552914,-0.06807896848730069,-0.01401967764275989,-0.195878152946202,-0.0445542904017918,0.04707215551178151,-0.14540526798086298,-0.09523665080928694
-0.13731571289420735,0.07382124779862655,0.03955175519875982,0.20606005880658432,-0.10170000283796711,0.04820277800008338,0.09019740964982476,0.0414552607844177,0.09547276632362552,0.03920873729076811,0.061446146336236504,0.1254450254906618,-0.11469563943400221,0.12046827933250293,0.20852080723472158,-0.16076914136767104,0.12676311507920815,0.13480553046206667,-0.07391655271671614,-0.11166650063097455,-0.18279638275202856,0.04482677066879804,0.04299774577116767,-0.11361250163834148,0.14140146184174696,-0.11984287119555152,0.006120637148740311,-0.04031673144544734,0.0477684036343987,-0.198460520291228,-0.06912271280266917,-0.0513936607716895,-0.1868884245890525,0.09532191422156959,0.14770489675464454,0.08761185915136394,-0.08933875814888634,0.1277292370487243,-0.036343120335802684,0.027073812795861175,0.06659609281846948,-0.21226783905015173,0.1369319831827311,-0.01806980113367092,-0.12124445930086422,0.15949416265578706,-0.11298126587467741,-0.14338385623026456,0.13932484762059882,-0.10326069941875313,-0.03750261113622284,-0.02818768412632898,-0.11303569905204422,-0.13995861600531306,0.09171469594324727,-0.041423133317337824,-0.2151799783420018,0.13865871434343102,-0.07389540377649757,-0.06220743866714817,-0.10511038710147635,-0.21850224039069846,0.056416761631263065,-0.17892887730386997,-0.03377354808803505
-0.12839477019832016,0.11190869291731087,0.11811753130695364,0.09379076700051774,-0.19638662935216364,0.14565995729593526,0.09902758802486387,-0.04853159149804485,0.17613058754716276,0.0916004895599001,-0.10587825727866385,0.028398477819901423,-0.10551119456921335,0.16134565662952083,0.035839434642943514,-0.017893795585786673,0.11218180589041954,0.15255399510627463,-0.21673442172951377,-0.11852521297832146,-0.21760523442687127,0.1274084236990904,-0.0012934634154316358,-0.1486784783866941,0.03544937668024083,-0.09633157762099069,-0.10650011758103581,-0.07828889744370449,-0.05782849575607282,-0.04165244706731987,-0.12139862960553799,-0.12728056553813102,-0.03758822243031775,0.01222486026610714,0.08664757474623673,0.1062048706054767,-0.2213813670843908,0.07058387211075444,-0.07766409457284082,0.18695848851813973,0.037971809901117884,-0.12587558187965156,0.06351199505937499,0.12095625847152723,-0.0657050272957339,0.018837440269624393,-0.047303877936059724,-0.1704330049889385,0.06955380878110731,-0.05483478383412559,-0.19001560115343058,-0.06210022922850078,0.012328537348102525,-0.17494193931732052,-0.001564879798815731,-0.18331984086739775,-0.1997974508006991,0.1416660012399401,-0.03844018444236437,-0.12561990107849327,-0.21125569024307664,-0.10898345974391327,0.0362343155840066,-0.1548472745952981,-0.04929337358934698
-0.1326487801016798,0.08399420500099568,0.034113599577088594,0.056998643084048416,-0.17964061061782013,0.1748643923775792,0.14369941092201644,-0.05684929489024144,0.1468194244553172,0.14369457220591755,-0.00031874217092763067,0.10510104870759371,-0.046921447436990164,0.1816401625188617,0.056387207473842106,-0.15087115363230114,0.16271984429361386,0.04021025478769597,-0.0589323296355563,-0.07972959175198341,-0.10674358175971253,0.14132776645562675,-0.09139105959565852,-0.0512833189631069,0.09686649570938041,-0.0381926466643767,0.02602006080134954,-0.0830113150249021,-0.04225261876082511,-0.03404299234998072,-0.1147290450172767,-0.14848707422001928,-0.10313307977396528,0.10652420795363764,0.2071903125738676,0.08801572462208614,-0.20211244093549155,-0.00571610483073992,-0.11299824467952252,0.07204089040366872,0.22439611400908419,-0.1703629693218429,-0.003852714965106963,0.025391802351814746,-0.1187229903497258,0.21088336272164068,-0.07301287516556472,-0.19119405211511012,0.07732253358631333,-0.04911560335114033,-0.19650862244009853,-0.04449334205596901,-0.0919372014270645,-0.06412885128906481,0.029896193329452245,-0.056062034586041885,-0.11455261335923564,0.1402516285287933,-0.156953421968102,0.00046469614239681283,-0.07711126226634243,-0.09522920656330204,0.0450649420175697,-0.1409315405290418,-0.051037601716967265
-0.12942646843453876,0.14488456703437005,0.02057432497784362,0.21358651013078828,-0.13318716299420622,0.16499367975579657,0.054042789249361005,-0.08111811353712077,0.15820884760629345,0.02606897990981646,0.036812025057767664,0.14785529702646377,-0.2119536153855452,0.023298723135769403,0.12904871555111738,-0.047897720515256544,0.15943599307397602,0.1456711888345986,-0.19730725218212897,-0.14245421421198576,-0.16324881023200863,0.08448696879582834,-0.026159242110499213,-0.08406892024795987,0.09869603919246535,-0.046502122513357926,-0.01642807983435187,-0.045263534969654594,0.0144242720648689,-0.0781412000357207,0.0233110747876143,-0.05474300003014402,-0.0666208730609135,0.16894559930685493,0.07675087335157318,0.027827008746642318,-0.1923792909010824,0.09971573640962561,-0.0871960748675557,0.1746484244537917,0.0764689478843555,-0.2147615114803426,0.04854829182011193,0.02443944150574369,-0.0311806378162008,0.033383766118012415,-0.0963102230605063,-0.029239413324390912,0.1934640505728986,-0.11200043703071919,-0.0924074110282235,-0.0821632593765135,-0.13288072326540235,-0.06692239341708837,0.05287884222750325,-0.15898356120421217,-0.21190476188728702,0.1457946004317655,-0.09664901642837233,-0.08565261070882867,-0.08453476851159428,-0.0592577816900665,0.07758765334881794,-0.19847061535653643,0.012341020574301536
-0.12525543679980658,0.2037406655974595,0.20164625300112046,0.12174462740794244,-0.11752840334826259,0.15599636115990118,0.19978279032638113,-0.09769738516935055,0.07568559038794255,0.05880757759754289,-0.07431015502046218,0.18184682414310083,-0.0788117605678069,0.055918002879354285,0.021250356891878288,-0.10567603503482806,0.04908496552503361,0.10942682364208384,-0.043994929623739756,-0.14548545228747684,-0.09666945680931018,0.10590647500098643,-0.05937669829356212,-0.13627072036691815,0.0860938400050777,-0.11700628888326373,-0.010906998315370767,-0.1669853577006703,0.03070734769436278,-0.11753318406860258,0.01990679320170593,-0.12300521963373431,-0.07377514148877898,0.1570920802708183,0.20441588337521566,0.1043251652794625,-0.213843864542563,0.08085726944368946,-0.16829849631852678,0.1062041202999852,0.0356947839858393,-0.10933850331808284,0.12912947049905144,-0.031242777050149845,-0.1449011901033773,0.1872419348234485,-0.024841992569495087,-0.18189123046446776,0.14895708102367392,-0.09520100526701497,-0.01481540109744119,-0.12404940805096067,0.027147088272692743,-0.008147087875220702,0.06395159306377325,-0.07752554812644688,-0.034687303064816134,0.07737446659454705,-0.08626624948276333,0.005625170500228536,-0.09753947733495608,-0.17583269874563076,0.11879230484640033,-0.08152778480774589,-0.1117660359767211
-0.1328897362251383,0.06216930389213684,0.161828879989802,0.1901425285321551,-0.17326210623135832,0.05747204990314758,0.13616009806834314,-0.11680374121064474,0.058765664634939555,0.06654895257500867,-0.10522260740790068,0.15229635123276802,-0.19847874961088766,0.033905597212313704,0.055154161167886614,-0.16779718971555227,0.08248221068645886,0.08514532280299003,-0.13527391815451004,-0.16597405161302803,-0.20282901347020887,0.10992729613961658,-0.10970630021259545,-0.11264475538948673,0.16336508532438465,-0.06290564026094204,-0.07299661721229589,-0.19506865233247994,-0.037509297300715706,-0.037517613058025985,-0.11428771581345495,-0.019158168106318478,-0.10066927336351357,0.059616111633748775,0.025565382330882493,0.06125787486227056,-0.12303385570999807,-0.03599057290526526,-0.22466739548446732,0.19200650549403833,0.14214971046294653,-0.07771124782564064,0.043265914117504134,0.08806425225065766,-0.026175012807714785,0.04416557164615073,-0.13040415762706525,-0.08408215993462048,0.19792531384036519,-0.055598922893078564,-0.0702601768786949,-0.1507410879901521,-0.011398770257008053,-0.18300493280421232,-0.008284721751506921,-0.044854040972414404,-0.1634188552487106,0.21358482754921548,-0.11688793017232543,-0.03330474176538904,-0.1870036337816912,-0.03148879379604801,0.02108078322136156,-0.05301052618911394,-0.13826530665512551
-0.13298213390808952,0.06628045783451533,0.05000962634312287,0.06695627408343957,-0.05177130386429746,0.15913136902593644,0.025905482018115725,0.020491161545622073,0.1343345470967666,0.1554499485312516,0.011886522163263444,0.10533985668689769,-0.08630225299297782,0.04178781402969003,0.1542360355172516,-0.008142950798789517,0.10397334000232233,0.0994566998463835,-0.2171390428962788,-0.10287242329795541,-0.09800503966213295,0.026869006404756365,-0.09508549946642257,-0.02090091232729924,0.0391678410975342,-0.07129833102536319,0.020828232503329592,-0.14121793550218634,0.009398708336451901,-0.1339440507936188,-0.03231890835137292,-0.05498572356466478,-0.18410599812492964,0.06845054866652851,0.2091763156697447,0.12741842153048658,-0.0844937512847185,0.09383301354137502,-0.14657373929164053,0.13371737931881625,0.18065261653867704,-0.1436987426869757,-0.023559814814260942,0.1271333178732064,-0.118617119932329,0.08569748581012321,-0.0986636181023737,-0.16012415735827085,0.06734338804672271,-0.12399723062389945,-0.19576107971331114,-0.1175939449366102,-0.08391256952483615,-0.21269519123503688,0.0798270468862394,-0.1924342954017795,-0.039077903728478795,0.16949042764899883,-0.02861769253862259,-0.03818055104614754,-0.13567295777739138,-0.1361838281695988,0.19714175557061475,-0.039297879626363885,-0.10656916830521364
-0.14417691130171775,0.08482208071696513,0.17424386064111766,0.10745379676449386,-0.04415734252866107,0.04498521786160321,0.17255589605337632,0.030089176580763904,0.07547026194552275,0.19040498005576245,-0.04676196612475238,0.07866686014929462,-0.06588178987473868,0.07092510145574067,0.04457067691036624,-0.0932957846532564,0.20720659966477806,0.14737993751891115,-0.03786592161524447,-0.09760907440932008,-0.1299838853071553,0.11428725899178976,-0.017691491354355215,-0.02768033267881882,0.08852769747679144,-0.1395194954956691,-0.08435805591925488,-0.04945696073688915,0.0220472343283487,-0.0751563687396251,-0.016100501265886843,-0.14363091602317368,-0.15504123989305216,0.20267438764371445,0.19225253503677678,0.026531553265925777,-0.1366454025783421,0.08400072067917107,-0.05120809156750781,0.21398453819222668,0.11815645948704712,-0.10730045298951472,0.1405408163117321,0.13469356757573375,-0.08692370875947346,0.04588742991945013,-0.18742298812388292,-0.056539621011227004,0.11552794474261716,-0.09878390787087517,-0.15689189219717545,-0.12781684608835095,-0.04625203753367292,-0.054466354677520916,-0.025009723578900318,-0.09760487310659446,-0.2167216995364098,0.16040519639443626,-0.11440190654936688,-0.14028374373260596,-0.15118798477226222,-0.05229922185450212,0.040934728140012984,-0.07117002555274593,-0.11320279801100311
-0.12888272477067886,0.09586354355155614,0.20745095725810375,0.026697506907460623,-0.06007867135005365,0.029560640067450267,0.15108164623917608,0.01915131071566423,0.12434424336801081,0.11669197994289177,0.033257421506715554,0.20630714006127146,-0.025909092846977993,0.1227333961857519,0.03669988039496811,-0.16637456953660595,0.13695434479561605,0.18279579438551044,-0.10411957432635417,-0.01725821189945948,-0.023506556660161482,0.15672579645003878,-0.038565568533971015,-0.015938606224088464,0.19509317933577203,-0.1758390908015439,-0.09378559421907012,-0.19270169537870985,-0.09349887880337066,-0.13987382720104113,-0.12633218454167755,-0.03517729151550088,-0.015351416375021224,0.15044014950812207,0.1376131206027981,0.03691883758979962,-0.09748931842276781,0.0734746862511527,-0.03821887141978379,0.20066988922823056,0.1253531191465342,-0.027475353440608533,0.10066658191063609,0.025691688375118912,-0.03180096526657892,0.1836182312038861,-0.04277491079035738,-0.1146536029242762,0.1148578651082119,-0.11224635767956907,-0.07407446654299876,-0.053021475419351455,-0.08918345241201518,-0.20023428687250006,0.05568761947063113,-0.05541339508356998,-0.161961090731094,0.17339543891532008,-0.07971172328513534,-0.09637827955537605,-0.1508937177596029,-0.06516163897010953,0.15552637246591555,-0.20921441487540246,-0.062096219655443735
-0.10875658258878644,0.13999257126059234,0.01386607439578689,0.0939907116286338,-0.1004989733941112,0.16442010841919416,0.1830464159091331,0.04182848124069518,0.03231425395877237,0.11864035309479812,-0.06235980811545191,0.07241389123732929,-0.05271111525694436,0.03976664649124517,0.1340577406952148,-0.041767643504063104,0.16145096141917772,0.08633774854760232,-0.06051317367134055,-0.0772204422136226,-0.06188490242622416,0.1995885255799804,-0.08556885014333185,0.031708068013559014,0.17354764918301507,-0.06447800903051096,0.02429041991516475,-0.11100747122481137,-0.08662390983084553,-0.043656826492337354,-0.09072999916391473,-0.16601017395938703,-0.0522835618205413,0.18812287156662075,0.1719526524313285,0.028794394328976784,-0.06003082415049142,-0.038778518524117504,-0.1444924716999429,0.18459435899267754,0.11664666862397588,-0.19547352877304425,0.005579348152610065,0.07856626717959107,-0.0820132911175714,0.08424823873073012,-0.17917220034452955,-0.018524150298678068,0.17617347281817367,-0.04037430271283678,-0.04665798467122558,-0.15536771290785675,-0.0033672210646158262,-0.16797173092160644,0.08252702062430585,-0.15295716770544565,-0.12916236212192986,0.10076456996506163,0.018893172831415003,-0.04822965179470206,-0.13968781732053978,-0.16427294909273438,0.08649758664620172,-0.15209459392466265,-0.10135877022080722
-0.12799378662700595,0.06370987600298716,0.18876162741015035,0.032975399901275446,-0.09624649791907645,0.2076864494236446,0.09377029936792053,-0.09917132572858187,0.18403474116127355,0.18647042534000494,0.03298073133558683,0.05426767542256122,-0.08614402960365644,0.07697275739495106,0.08076608457756629,-0.05828395183679588,0.08589286445964922,0.07107818281444363,-0.15726552399613852,-0.05648583901395334,-0.07282779483647883,0.2063996246576137,-0.01666233159768992,-0.13233000974589673,0.1383122738941944,-0.05157170753106801,-0.01665272080623232,-0.07215562929375548,-0.0921801864209784,-0.15019135843187434,-0.09994100540456226,-0.1875061127853903,-0.1589124582648778,0.15341931728894068,0.12471146182400122,-0.0069586045647241175,-0.17729812740730297,0.1358283327486007,-0.033107100606200084,0.09108994781301259,0.10501434618111452,-0.017638890155083048,0.10215870183356546,-0.0300609797003629,-0.033991266182190616,0.09508756130858599,-0.17946332353303743,-0.050635985253284894,0.2171543364184902,-0.06714565260739572,-0.14278788400578965,-0.03911055519829551,0.03357340013027277,-0.17784496292257448,0.10119695036805898,-0.05856768815061302,-0.02258161354045137,0.21133601644601077,-0.13676031225955285,-0.07439719817359951,-0.07357311447175087,-0.18560001285788436,0.2082086338953472,-0.07049990862945416,-0.10586355211241569
-0.12095480629901978,0.20788058860327707,0.17299221826434266,0.1875410757744458,-0.1615289482380268,0.08863341382221293,0.04332436918787133,-0.07694091118259312,0.05955510911011149,0.16634510381865583,-0.07937891483162005,0.08718858508925319,-0.17862708643474265,0.15060950303393264,0.15738601157964707,-0.12025964511672503,0.06011246546917669,0.04953572880471564,-0.12837265235923498,-0.03485580157139661,-0.1405247128324217,0.10594320038534467,-0.007303977589510102,-0.1478422167304655,0.006000259956166908,-0.07089334140738514,-0.08930773888783546,-0.043805828498418374,0.059319291475062055,-0.06860952624661294,-0.11777895696134098,-0.19310327401094102,-0.10363817734273077,0.11839079432341652,0.20754514077272704,0.08398719282822377,-0.21762070221822513,0.08810395379997255,-0.06019017610836758,0.07059356031940099,0.06702596067611163,-0.13303398495831006,-0.011191255320680025,0.016372968793487052,-0.1679128652909963,0.019883808836258204,-0.014064945978196693,-0.1991188793463847,0.2031923152877814,0.04466148923088878,-0.16555327656806768,-0.02536330603765274,0.04926833908883702,-0.08788180207880632,-0.03610999754547298,-0.18763455991001665,-0.060418115497131324,0.09570524191211553,-0.07974043396527515,-0.13701218820964003,-0.16196648605145403,-0.02514281708066979,0.1940045637501412,-0.055971455886825235,-0.14811446384748483
-0.1281154095581091,0.06860130643991157,0.1764653682899026,0.08250081791236027,-0.15281867546815497,0.08503785295195426,0.21369661445895,0.039222593808425646,0.08929973653158886,0.03571353610484778,-0.03454817289451276,0.042945093519505304,-0.08837120644526075,0.17499677948164027,0.21818714150961838,-0.1435817126339677,0.17281221509913725,0.18271084235758026,-0.1363696369357521,-0.10931354552975975,-0.14775455639362506,0.028504786420073668,-0.07745026063314085,-0.1370456838273433,0.1644073884095483,-0.04044291797854511,-0.05991439210799728,-0.12837729865477496,-0.09316548463854182,-0.08067003770354599,0.003138150784638741,-0.031056273487954526,-0.18701114290824022,0.019222815328939734,0.2119077343986294,0.07631740686119626,-0.16419360029509056,0.01605517692228293,-0.04342330012120883,0.04324659535551557,0.11295250359243762,-0.05379283280467005,-0.02984576821679017,0.05791434866663297,-0.09121145865731596,0.06080680910611637,-0.1419490330353221,-0.15806142495294717,0.1393345419247083,-0.10040481722951375,-0.21536498763094133,-0.042308603428078774,-0.08443282216366474,-0.07138357014126492,0.0699925715836828,-0.056099088187643906,-0.1997462348358683,0.084687717814785,-0.17062545464106146,-0.01854580221499908,-0.20545717433216826,-0.09880949833580845,0.04099725805655045,-0.10087606493744869,-0.058683503028934235
-0.1038587321648741,0.12930849247382256,0.08766953583627995,0.1664837142883698,-0.1622332184617979,0.17247663291888923,0.08745694667349826,-0.03926888812012487,0.18905365709306943,0.18332897442058313,0.05532869818463815,0.11898900870043912,-0.049923212132220326,0.16948511853566497,0.043268044469397124,-0.0673917219221591,0.11969744691494766,0.16926960425222298,-0.10509948886229555,-0.17036606600535403,-0.06809321563834865,0.1880576643762654,-0.05466332886115359,-0.1418829715292492,0.1719057416881128,-0.1631310830627553,0.04328920313709805,-0.11962534167413345,-0.02768284909898133,-0.010609994270514025,-0.06840513256327145,-0.09407849632921395,-0.1158526280087236,0.06375342048567502,0.14417951238991866,0.009690555547819663,-0.1741028280638397,0.05511887093891215,-0.06227101753877275,0.09399323345529488,0.07073101699677396,-0.06589781291021472,0.03534363469465947,-0.0388711548777767,-0.1697843310805314,0.07377629823380984,-0.05652156232557579,-0.1402773397058225,0.02167745766979747,0.01413848780029095,-0.12042670069027744,-0.1548219546367643,-0.037252143087887254,-0.16726539224013587,0.04856513239917737,-0.00043329961209676195,-0.15541730494534362,0.015967410918730145,0.013863924138761165,-0.054274091072709925,-0.021031573371981825,-0.13561328378053483,0.1534389230451655,-0.17714725047127147,-0.007530924545490248
-0.12268439838548763,0.11392548337967394,0.02074180912480632,0.04491226890258521,-0.20126344901587875,0.07210132253326457,0.21017615269285664,-0.13054050532227962,0.1802546283847616,0.1585178915629056,0.07206218937089946,0.17306650614110208,-0.16273953744785483,0.15830837722280436,0.10742155622239472,-0.02523588610859339,0.11883253342549893,0.17826790128875547,-0.16458315804122775,-0.0660087326954987,-0.2041694643526236,0.10070165974145123,-0.019361162822549502,0.001865142186387491,0.19825091438771714,-0.1453055377007817,-0.11871256105918968,-0.181475811331201,0.07720063628625398,-0.12396816214739756,-0.05040962960602695,-0.01261160244370964,-0.024505060963956674,0.1207638582743404,0.11972051680637144,0.06927070716521098,-0.1060175695636832,0.11452012465313406,-0.04986944491284401,0.01679834168928596,0.10954890054541569,-0.05185221732388055,-0.017464039590679922,0.06178148740903862,-0.1511659527313829,0.039139388745742756,-0.09714668268725643,-0.17558296272130824,0.187290393636097,-0.06666709309625854,-0.09031418705546801,-0.06267861116784684,-0.07681227133051788,-0.1884361665188259,0.04959431891867126,-0.13911412645071447,-0.10328943166147066,0.056083457624899066,-0.008373596613649545,0.0361232909121262,-0.11943939366980873,-0.08975923172851058,0.08448160111039665,-0.05807517744616056,-0.1165000757068929
-0.12325770012918,0.1918591640934751,0.09221016750277763,0.19132996485314127,-0.09099734737673329,0.10934962273712291,0.05092289660759816,-0.0035358245442141047,0.09314055744371383,0.1567566185319795,-0.01551557906340377,0.13825431731377308,-0.1926855373911999,0.09734072374015393,0.20495847708283285,-0.16722200383362587,0.20519772890433952,0.06404766845240156,-0.13515385514161848,-0.14825165404328097,-0.14713853202117996,0.13292498409838677,-0.07335700974470649,-0.0850010995536251,0.09829811840094363,-0.15850761387443257,-0.10921347720339752,-0.12907422089408177,-0.00787579178554829,-0.03638239109029522,-0.034849287609742194,-0.03825028798063453,-0.13555439913532827,0.11984582840374564,0.11953945008614322,0.04607494995047402,-0.08453614544640806,0.10841469650402856,-0.07710047716410481,0.048071945389453155,0.18286739987898556,-0.1254474102544783,0.10997813298320705,-0.02537095494740455,-0.19664980860515113,0.19880483906230545,-0.020925536394726822,-0.039329590425226615,0.017446772696207404,-0.12955596974576356,-0.08445427445911542,-0.0564242978266987,0.017265969200123642,-0.12030648128086031,0.0005793673767274189,-0.04155267927904818,-0.027084076414598972,0.09919841806322145,-0.16199435561325523,-0.05504063638880097,-0.10855279767910311,-0.017810602709031557,0.1742701175233369,-0.17791026830735712,-0.030827752802795885
-0.13560326899182823,0.03579668623228638,0.12084698209038872,0.10643625766829214,-0.10283822964653355,0.07518114500521131,0.13561340563427307,0.0017956814717224746,0.051242343174995014,0.05016467613678803,-0.039776448427808184,0.06386097415480736,-0.21875435564348536,0.05938988589284031,0.16615296737343835,-0.08227471679285858,0.21477628580731012,0.032555664958770276,-0.05753328331604548,-0.1736565639860784,-0.06957092752571016,0.171752048216847,0.020626361661866575,0.02315723351523745,0.08392794288560032,-0.180283935189414,-0.006481240782660444,-0.13661045936062388,-0.06090170855572151,-0.18163898176994936,-0.09480347138408708,-0.035245166980671865,-0.04227907744282467,0.07290840074702394,0.11524686223571198,0.08074601165615042,-0.20782876751271467,0.10835692084799137,-0.08686640396728791,0.17436136262467974,0.05482087410951553,-0.15099580814967722,-0.0025609398466012127,-0.007293238224263831,-0.14064309550037699,0.07778309661166033,-0.09740143782431894,-0.19908968320899847,0.17266482638738917,-0.11816055474587078,-0.03305656381971707,-0.16759514259530803,0.027728077673992962,-0.11948525913648353,0.112986304440489,-0.18714464240926315,-0.20281553293252566,0.05185688901305017,-0.01596152746658131,-0.12704341663944613,-0.13712138936537052,-0.03453044540408666,0.14293860752429716,-0.0629808252933388,-0.150491843769863
-0.1395989630395938,0.13111309201056817,0.16906546511020748,0.21617592935067168,-0.1963932693708365,0.14440006006168205,0.08928707949647657,0.015129075729437612,0.2278253132423194,0.20373305355447666,-0.0862526723396603,0.08853013892457925,-0.0332812238802805,0.17750817496185128,0.13787152485653278,-0.07036294172317206,0.170580561799262,0.09117179829877871,-0.03972961291353308,-0.057677674163906456,-0.11822705213566077,0.037929754375758656,0.02112393055570117,-0.03806713998021424,0.06158865107808571,-0.058587972544623876,-0.04237032337668465,-0.1477453250010418,-0.012324219018360425,-0.16079859816655018,-0.041029210493316745,-0.15109948962830733,-0.08163359980860123,0.0721113926297624,0.051423832504813194,0.07951423888925178,-0.16007809682376276,0.13059584138809135,-0.16387915326030106,0.22060509782950805,0.058222991924942735,-0.22465658224124876,0.07677318145481547,0.13970916124037988,-0.1692347818782126,0.059546254372192325,-0.037763912231170434,-0.052341303205891386,0.1755795122014034,-0.07110752029746208,-0.07820734075025068,-0.04453259196270422,-0.0852189645371965,-0.10069859581073345,0.04046011254432561,-0.10600808256998671,-0.047950839292944886,0.05174125906958118,-0.13147853945226007,-0.03550876212336437,-0.13236575128920203,-0.13926714499415854,0.06482609925592006,-0.0585559769511353,-0.09716215994402526
-0.12356534193882238,0.15811854315878848,0.12487567829651443,0.07194440726895335,-0.13878460086199454,0.13866225280679517,0.05668573963125485,0.0402466796260303,0.1988820989517669,0.20866735016650378,0.04090007531903107,0.1762931956886706,-0.05379577322066445,0.186424303521293,0.12506179714974736,-0.07716045035044007,0.07196562905700843,0.1015368474080511,-0.043858304525061204,-0.16696741155268321,-0.18618027555611033,0.04427773962305718,0.060566699549303216,-0.1533192924889271,0.15173876580323523,-0.07984517206508907,-0.12685304072807135,-0.16361026107878396,0.03064151956927247,-0.20598629285170036,-0.03609876028048811,-0.1764623017826994,-0.1587568621844872,0.0697066218048117,0.13553533396025344,0.039837131818987376,-0.1476549420218377,-0.03595172760325803,-0.11940946514291303,0.011848085890491411,0.14067653654401754,-0.1944108928785608,0.03668598195555365,0.08305199238426424,-0.026955011849772358,0.17481656455561406,-0.018602277878236196,-0.031702997279694445,0.03119698866469,0.04640602652804395,-0.02248884482125522,-0.13358131562397077,-0.041757499059912384,-0.0680559438325281,0.03323524483892401,-0.07164164307654815,-0.03093488389365624,0.10046295590533347,-0.02977422138309843,-0.09095098516229798,-0.06770047633437092,-0.1521843151774724,0.14000399933794277,-0.20224983612800587,-0.12358439608124247
-0.12484748325091932,0.10952835356849548,0.15683462708292276,0.07060491814109567,-0.06962968705436431,0.20552516654507055,0.030663334316663366,-0.04204707182111246,0.12357799777875927,0.16333835572245411,-0.08595354484918051,0.1642456543866034,-0.1086737785124133,0.1079041892135287,0.048682104228577015,-0.1358247155406045,0.10434699771289739,0.18674054911267565,-0.10601519221686641,-0.05878665572876185,-0.06474989083299217,0.11323781829385095,-0.10696246907492463,-0.12116681129607332,0.08144061714420125,-0.13839039239711134,-0.09791614570328558,-0.15742973443841815,0.010133540860374247,-0.05383234363648167,-0.08051130858561388,-0.08250449531379249,-0.15435480229726461,0.1494346552849628,0.07079568926758024,0.01063514625636872,-0.12489952473759523,-0.01818296006355577,-0.053820442869982235,0.052273296435342335,0.10660617764860424,-0.21254834244942628,0.09716295628708176,-0.030985525234032238,-0.0852792338457846,0.1486982866547855,-0.04491779144152131,-0.15029155240997333,0.21022931197731082,-0.02741319694914432,-0.044989275955781234,-0.09237449734120615,-0.08767622402720424,-0.10504970782739077,0.1061196176215483,-0.13997037231887716,-0.06648343166772837,0.11831615001145444,-0.09152126063295647,-0.025302747665029372,-0.1791535065428648,-0.18569193881248736,0.09654753785831821,-0.15462838072647989,-0.12045614956473473
-0.12256155353421694,0.05629402354659955,0.17632522188665223,0.1612568512853488,-0.018760608902260046,0.1504184148218832,0.06340975590573285,0.04621585774525539,0.19168304082479154,0.01624510881264753,-0.10749553961375859,0.18727984987754642,-0.15725099075143759,0.13695044872012369,0.20253590288573758,-0.07603808944823658,0.17853101605843927,0.10786884030367,-0.1683591072362265,-0.05677206753748048,-0.21137087591456005,0.05615024481087058,0.022383363838696897,-0.0599752620754474,0.04641501154241391,-0.11961616623572364,-0.04271233363020618,-0.14379427822462282,-0.09886253645121357,-0.1634639716546745,-0.0051478008342828695,-0.20199744086587199,-0.05637418383651952,0.15660330827747715,0.03522253922450214,0.13978125503154437,-0.11465565041179168,0.12416749259769948,-0.09913335748083033,0.09050333016945272,0.1756415093393138,-0.09189011548727755,0.11151053794025238,-0.021668647945189,-0.03504645974867504,0.16700008682249132,-0.056751555998351105,-0.06136441572736913,0.15570546812549974,-0.12728991435610246,-0.08253748700057634,-0.04097427718845718,0.04478848490227714,-0.03699929770187628,0.013720630314056964,-0.09092958041525467,-0.19702229660060408,0.040518530699220436,-0.12075168540539188,-0.09799057663033264,-0.0506420091628359,-0.1481895421114844,0.16136945240906742,-0.14168033925265897,-0.015589959026300487
-0.13448375250521616,0.1707753803995742,0.2043319228298814,0.02936378887126641,-0.032547815572864486,0.19433195170485165,0.0526276934977675,-0.052910007429682424,0.11502961116899664,0.08917278994470887,-0.0908603402338353,0.11848123708501442,-0.11173994800203162,0.015501338536697887,0.04168006742397412,-0.1547601395090228,0.16518104361562408,0.07174011155975882,-0.10272971881285312,-0.11244242199697006,-0.12110835646550014,0.20397707498493936,-0.05240292449476979,-0.016293861099409838,0.06333458373897562,-0.12911883539884678,-0.05595015797028611,-0.16454959900699614,0.021070970297290104,-0.1717977082765608,0.02659810255891213,-0.14559457583805283,-0.16524600617852822,0.06611452974357117,0.10867066189792686,0.050766534943827345,-0.04418869188262249,0.03140546178172733,-0.21732888898639782,0.052456107963205316,0.2160497316704041,-0.16659270678626903,0.007621796518336727,0.10763203797772587,-0.21553108591387277,0.15418621019588574,-0.12178491171898236,-0.03926205333245285,0.02488191802840385,-0.0013463733981433385,-0.21581794006659094,-0.05044273273724471,0.03722255916719471,-0.10843942542552813,0.010288094257709324,-0.20216683781052486,-0.03541617604898111,0.06101782174420308,-0.055519594343493676,-0.035782783883283445,-0.08403574608718363,-0.08460705170851626,0.050702074258014054,-0.06001713628877969,-0.04095913766386066
-0.11203343099638292,0.04359319939073244,0.1791953443891386,0.007409478078916468,-0.11047380216457722,0.1901525490453018,0.09216710342143616,-0.09144246363150739,0.17713488637394292,0.12209529445968555,-0.10868322560515477,0.174652967383267,-0.19091335793511316,0.19229792895549,0.20438262303934038,-0.029362776543596446,0.14068289619223784,0.16339266325447918,-0.1405223612994674,-0.025188958354227298,-0.20239181577308232,0.15257540468657235,-0.06769959710860946,-0.10499029423235176,0.038765554164766625,-0.17326838539312073,0.028486134316965,-0.07010673753729126,-0.08188549248393452,-0.19108826146700306,0.009487992476663827,-0.1057964705730281,-0.0019426612052358125,0.08631929529076253,0.14975417781245556,0.033646121879446884,-0.09020839088072603,0.00857989439164863,-0.18761314552251246,0.030449734030155964,0.11640118829231093,-0.18104156119780518,0.0826026093895353,0.0187880925346906,-0.06674918559658416,0.08789252069361703,-0.10758408281788101,-0.08244726395174323,0.11179496969377077,0.012128012294724232,-0.15489684171882445,-0.09113529146655962,-0.10805298219923648,-0.056191429654552115,0.0769552947752486,-0.006543884208239849,-0.19340970715794728,0.06717404459859672,0.02205310331786776,-0.002527924044167948,-0.1372655368371262,-0.16519087140399474,0.047264362162443035,-0.0525551304703435,0.025474329755561777
-0.12063564074690922,0.17940070730754656,0.0416852761075799,0.16580019750540534,-0.016245284356880482,0.15463092296694658,0.202074301969117,-0.08716854321509543,0.196715317497871,0.14680268296952748,-0.01447510336493755,0.008588962540062788,-0.061864638653705686,0.01184459982779278,0.19424838672004324,-0.14467652807946785,0.027285904720612552,0.10632778085058775,-0.07610348039465774,-0.06813479452076278,-0.0717354843592856,0.20541060260748634,-0.08961034951565147,0.004602857511325557,0.1891305672386784,-0.122976996697434,-0.04811869370366747,-0.14935810017960255,-0.05694034452512723,-0.0597986137793953,-0.003739156466084128,-0.0792024889547007,-0.141960904195084,0.15376128224542526,0.17345160130106915,0.1423232170146457,-0.18335645046430668,-0.01692881209468076,-0.11538052465528835,0.05630980385857797,0.10156547742814213,-0.07403322648064009,0.009851930736786307,0.06972664236667797,-0.11877796514573245,0.10555701227530918,-0.17020182886372423,-0.20257349647128034,0.2064435893154708,0.009408728271382432,-0.05330781400956921,-0.021987960475500296,-0.04486306681873474,-0.04301833259455459,0.1000743771338451,-0.09536524874461723,-0.034878763238562926,0.09724945846529494,-0.16270684662715687,-0.08447531102690826,-0.14202881956210953,-0.05033486901103212,0.12701042121418535,-0.20907914930203128,-0.05935717481694031
-0.12203818438850436,0.11208586333539906,0.09918609475472256,0.06351340244687342,-0.1865239959167385,0.2085667077269281,0.16239229742728314,-0.021058547494369473,0.03739005826717289,0.050883002229123515,0.023250404628312654,0.18486155879100044,-0.16624054326250653,0.17851485169004663,0.03846699940514846,-0.08153650812226314,0.12290747731610425,0.14992310340379306,-0.0815140221989715,0.001074295741495043,-0.05969555058862672,0.18458205741402342,-0.0876254709373091,-0.05288108350293216,0.0881036859926684,-0.17352881397739967,-0.1182907331245439,-0.011226765182727255,0.04170545726978177,-0.1513603155256547,-0.07988692798228852,-0.12747366571460225,-0.08497434636115839,0.004679267926642433,0.13070298761690088,0.1605088949142771,-0.09951043243392366,0.08810137241081638,-0.11576520496750568,0.19233425501864646,0.09893334855223038,-0.053174956807990295,-0.033810795465390696,-0.03956973141578308,-0.134636487635703,0.1842241468308335,-0.08348428990729433,-0.12681637590804506,0.1386381753193118,0.016289371628988098,-0.18530755269773433,-0.14236398305870043,0.04878032000140812,-0.14930702378296257,-0.056177484704341224,-0.03898375038047861,-0.18958233736374308,0.13689102022071006,-0.12952273863525293,-0.1274906650041514,-0.05578272643008151,-0.08890836519164083,0.07080559216476989,-0.14306603235294166,0.009396701583950775
-0.1261280015812163,0.15797770352102808,0.0467691592292051,0.20049223134295163,-0.12620475174054446,0.03637737159833375,0.0680472513373811,-0.05070444023060109,0.017991012123086715,0.07790196287693812,-0.08586541431417723,0.1459178432749401,-0.20113527207944826,0.1361743547108197,0.1922257169234529,-0.10905308503171308,0.10531314390813905,0.08824854643211305,-0.19157461640656154,-0.1373780228994644,-0.08333275922425225,0.1519352699706585,-0.01228502783607562,-0.14254104522219088,0.0820473061006619,-0.03853166431195608,-0.088953240977359,-0.14642408811196583,-0.04197535408392111,-0.1174963527798754,-0.11237144249390217,-0.02093844486032847,-0.14738492870903103,0.17246154889014492,0.144603650976178,0.04038764724371276,-0.10429778020965687,0.08418204745813396,-0.13983464028129347,0.0295887847675856,0.06058845394734717,-0.13288401446929335,0.1253533236023745,0.07795801172361305,-0.16332966766629045,0.20483520672889624,-0.040936738809861865,-0.0405545943911972,0.18859032839987397,0.0021715752744274532,-0.05283869736020364,-0.03489283682654301,-0.09691463001646881,-0.039494831703873724,0.042256525527879056,-0.20597401267063525,-0.16043063419054096,0.18186602586684741,-0.11968753474850602,0.03460980629955723,-0.04165995820279572,-0.05742288641101872,0.14975235852459867,-0.20034424642108628,-0.14041490450387514
-0.10953846962889573,0.08546373556249046,0.14094695948167577,0.01889056303201764,-0.16757884614824917,0.05678877927843336,0.19604042937369018,-0.04106249505765327,0.17801586382947457,0.0088272383483603,0.03175064788539485,0.18994924418396603,-0.13454603447633753,0.1677933065769096,0.19834812800957702,-0.15226883796230417,0.12180274066847804,0.0333810049340957,-0.07765023614043427,-0.02064513875573512,-0.19707182253579938,0.1486774083058601,-0.09639215760029507,-0.07921470153068313,-0.0022272473736909717,-0.12329201078809499,0.024642602844802183,-0.10494994015723876,0.030310225461380895,-0.023839049329115826,-0.12316759844029043,-0.17068642337497375,-0.13038779882502233,0.14069683462787758,0.04497481182442832,0.06426630817544747,-0.10312458049300513,-0.03882824758637428,-0.1828327277281656,0.11952434225705437,0.10231421596124787,-0.1077091290869785,0.12235442858259295,0.09321987009172818,-0.13054554899703533,0.17421395482662802,-0.13626932014228738,-0.03288880462338929,0.046327440792147165,0.06210926557437128,-0.013710260052816902,-0.0988124803104837,-0.11042143017910593,-0.13014074444912963,0.052579346065274396,-0.18649096951160923,-0.1801927268482831,0.1921686135564329,-0.15033212744264898,-0.017167490336066203,-0.17157841490721823,-0.009912279723937855,0.05774451014789868,-0.18392858740473367,-0.14130454323221306
-0.1255407391330861,0.19218492717996746,0.18048119796408754,0.03222324598558081,-0.056575898793845315,0.13102724149451525,0.20950037904167534,-0.12066109099203456,0.18243765324918096,0.16511652248637135,-0.053408321639030004,0.1463984653601787,-0.10286212490512121,0.16562158544838632,0.08418496025674502,-0.18964163676308463,0.1181294286042708,0.05306635464088096,-0.08229822791148833,-0.12579689625894563,-0.20357847831908724,0.11145070686191015,-0.05391036432627358,-0.11034657650296623,0.1359530933461032,-0.1081888125954231,0.04843119479106424,-0.19671301281323503,0.0011470874567591468,-0.013271984121742776,-0.004958109031119831,-0.12189051075364936,-0.03132255514135691,0.03564030469646667,0.13002231953965004,-0.018411919719361295,-0.14984530255257336,0.02833394714858413,-0.04422140646722003,0.07620744352326067,0.14083892674041068,-0.02810616481349297,0.10807803273820075,0.07562307735087515,-0.08172334229372889,0.03890847593823491,-0.15594609118486297,-0.0927051418741764,0.07779360731506486,-0.09363795267047045,-0.1949994434801636,-0.0303731822120807,-0.06595235549520691,-0.12147351327924148,-0.009492495398724548,-0.09589957206160352,-0.1246690004442935,0.06805270469692527,-0.1613684794026219,-0.1124799988298179,-0.13936915192724494,-0.06777899011386053,0.1433434694341063,-0.1667643073237347,-0.03876359390732462
-0.1371047149566924,0.22041416568123012,0.041290692082325275,0.05336926408762754,-0.07191569193485074,0.045858770022651756,0.11845857182002238,-0.09463249519664628,0.13598506267531885,0.15837748507355864,0.05485058005726911,0.09055472039663802,-0.03512270919886425,0.06872297502585506,0.0879235795723228,-0.02995407480252088,0.07724307423798968,0.12860245242406362,-0.14822866582056224,-0.026998580317129692,-0.11586266077458927,0.21686594978569443,0.05326534876907377,-0.05619792237035095,0.035367769843728594,-0.1748967583330203,-0.06780066747082221,-0.19643396112371048,0.00011170931063836579,-0.0654581441868371,-0.012201000572524323,-0.11990660243224947,-0.13191345986916947,0.09263480366898064,0.14418607047828058,0.0008011808384077076,-0.09349317796577605,-0.009727825591898207,-0.12130358962285824,0.19328767714227268,0.0662886139867218,-0.12281666870062263,0.1509721644178556,0.12995288918771694,-0.18809943770089144,0.1987022936272292,-0.043625166385770936,-0.1550434910599595,0.19504221563747925,-0.08985367778117702,-0.08822346921705117,-0.21413192867486086,0.00468990822561687,-0.038428819077803066,0.0824380741824082,-0.08820188639894304,-0.21267125144152885,0.16020696015124816,-0.14710499473014935,-0.1084039433643515,-0.040160140971571376,-0.08717622556673403,0.1110341332875924,-0.02725055352467606,-0.1307070657919757
-0.12362806460729661,0.08145792099855285,0.07460828543047626,0.20283615750157868,-0.14678826441578938,0.12644080724635903,0.013580059944280881,-0.06659897210551848,0.15729418773557777,0.15889505502742102,-0.060354351353650436,0.07624496220721003,-0.08920548861095406,0.12666897315622988,0.04413476914529123,-0.1490958870566506,0.17771391991722402,0.20459241541442527,-0.12129143868681443,-0.04506999975835043,-0.045103482208912214,0.08093254083093986,0.034232544771788005,0.017249622988144468,0.12650108477153094,-0.1441915057827731,-0.10373172877079287,-0.14366451582570494,0.045819834996080715,-0.06810948921320384,0.03674626516313269,-0.04629001152752168,-0.1650562802591129,0.08310563413866497,0.020345584472541187,0.05224752989143024,-0.03565938442968853,0.08404966240171832,-0.08444388539249932,0.05344071851008612,0.17797973614776738,-0.12359738537272402,0.004462368996378873,-0.025888822232656674,-0.19051976627047904,0.17210091172657382,-0.07332116726915514,-0.03411844364824817,0.06633255855270846,-0.10727961067243401,-0.11345348942340436,-0.20069621300556534,0.037255441704788526,-0.17494678639212635,-0.023632903301432577,-0.11983673952606032,-0.15486276553905218,0.14507431355427244,-0.004205664744580644,-0.14607533305710027,-0.1522562560264625,-0.12521854795331913,0.06147054868406117,-0.12971790935274685,-0.013180779577876786
-0.13207034024436493,0.13210280444515757,0.10689972494236322,0.10257081857505586,-0.09066302914455084,0.1246379176624935,0.21125204859621163,-0.014258885395943631,0.18573053848205534,0.04231222776632266,-0.06290933021497772,0.09298228519369534,-0.1509967839079437,0.05220032181534836,0.08193793780327457,-0.03904285841744422,0.12603695227768286,0.06541741846161234,-0.07198030236127138,-0.021601171728275262,-0.03442213658197272,0.1571411330308565,-0.0387400568610716,0.0034124452690687,0.015448179412030834,-0.21845341843763413,-0.1311475856637157,-0.11433947354683197,0.029335756387643613,-0.15987620925517618,-0.05238440466466212,-0.04388336469114484,-0.13529738592046595,0.08278991558745459,0.04982971652744917,0.006137995546539892,-0.16843882192999127,0.09925427692915079,-0.21385785837933735,0.05174024233174998,0.04132909952169654,-0.06480961847836227,0.02236523215155967,0.0693619671241891,-0.04942590280064128,0.11144621986569199,-0.13397323033321762,-0.1640086357763668,0.13731252695888188,-0.08686169975487659,-0.14977240637032402,-0.20492693504686232,-0.015477834141914856,-0.03731901708565852,0.07336032839997464,-0.0923353187343749,-0.1964985442256665,0.1747695060800955,-0.01439240186653978,-0.05490829072511778,-0.194549949425614,-0.14439000104533992,0.09563972736891843,-0.12690477171999323,-0.07100330885691783
-0.11854808533275087,0.010528786377375508,0.03856015381820207,0.0393216059977911,-0.13127601354375765,0.009399202048948233,0.16110085041693675,-0.006442912071508777,0.17290985457827723,0.026189237642571497,-0.055326965708249805,0.1372987113238798,-0.08180949581309258,0.15724625193877326,0.20293895938996845,-0.14546178022512063,0.2004782910686808,0.10883881751969943,-0.20103015059948856,-0.18540456781147244,-0.14959955922160814,0.17221807730430747,-0.12153672785717713,-0.15189709940146534,0.029327542598827316,-0.13123029612366016,0.05882602379516193,-0.1204962241155985,0.017745489627741945,-0.1508740584509819,-0.04878594768756195,-0.14393496645789,-0.0867198250943828,0.046646606525561636,0.11824673147425249,0.10133071750183777,-0.18439007712669636,0.00662162099023749,-0.20825997352981426,0.008796573678531493,0.025281864357634697,-0.0984195644165019,0.017791223444546513,0.09018394776658052,-0.19060267861950633,0.052767210232720324,-0.029440466094560646,-0.08012822798947017,0.14182597355133883,-0.12141512242555348,-0.08043899182453992,-0.17103866917440277,-0.0007482119315014861,-0.024537072418224646,0.03634777103142404,-0.07884100135175921,-0.05382038144932521,0.17996778324696344,-0.11228732609563068,-0.11993679491054875,-0.08667815586719156,-0.053082624690468316,0.14741361171348605,-0.10930408045093375,-0.10400327313474662
-0.13092696964636105,0.18161691496734195,0.17147536443091477,0.1293563807206616,-0.06297760917650921,0.04117287315170394,0.08118580270582469,-0.034040893108734184,0.1057957445424044,0.15997474760716165,-0.005188956713530762,0.19687583487696309,-0.021662552354769306,0.06681516538116172,0.05476100131570057,-0.03836677734493698,0.13014396855712626,0.058990259819234024,-0.18652388713866652,-0.1388935786542165,-0.0735093472948962,0.1664435594444514,-0.08555038909771694,-0.1343861929361358,0.052548292772229735,-0.022699097897032155,0.028625473964037463,-0.1326777113268404,0.006473352945953071,-0.1848900277022991,0.03446320704709246,-0.11537450727549985,-0.15782408821247748,0.06042392483397438,0.157865132582978,0.030505180734921675,-0.1575958693629371,0.1262453890728056,-0.06962461417146668,0.12918436450722942,0.038882725219372756,-0.16636951366410083,0.05948671372123081,0.0325515457509319,-0.03871994192523453,0.16648178776882197,-0.07697302182894912,-0.11088591171182219,0.0527867568943164,-0.01194854239259749,-0.11663438756309365,-0.055910969029164446,0.016329507838282457,-0.020508404163171297,0.032313869155014864,-0.19657481823587347,-0.05246739570248202,0.0763751478572331,-0.06622678040654027,0.01654134634111215,-0.08440369070883395,-0.1757149810580829,0.18476863426955276,-0.07066096732612989,-0.17012754650515086
-0.12105666360641215,0.11117004439658111,0.13061332254269098,0.09102890366743226,-0.16372731319077757,0.2073006776200504,0.19882285215592702,-0.12848950404166648,0.05779811721530378,0.04815092739275876,-0.07892403914065327,0.009427243317517825,-0.04237274258877317,0.10456100635110699,0.1863207171918313,-0.14290411081346316,0.0249962152819252,0.14320607901621368,-0.012494820122114733,-0.13257889093789227,-0.1924307544809886,0.14886324971769616,0.03561231753666837,-0.0040458302148768015,0.1945947255641599,-0.1605388116666538,-0.07247964855937294,-0.19074724823256595,-0.07911922303098484,-0.018393380011978346,-0.10617776391468327,-0.030497729208623127,-0.1676617609383296,0.01876647901251086,0.19253140426031273,0.02827214956035967,-0.14922242077458114,0.029948024242605422,-0.08514193060394017,0.10822707385443588,0.09650621120273661,-0.04313415320107176,0.10592461686508646,0.14999395760903,-0.09827928664668835,0.032896988240475405,-0.05959867533634733,-0.05442072374566639,0.13750873887539125,-0.028196290154969765,-0.13826188902336242,-0.03574356102922424,-0.03774159187716195,-0.10072740494120924,0.08966003276837888,-0.0975292138134351,-0.18150094378914283,0.07324141393065826,-0.10256335259303896,0.025375566502101363,-0.034686394365765164,-0.1299298132226645,0.05436557785778741,-0.054903864135205614,-0.12241930983615588
-0.11682450009595609,0.19545860729617323,0.07263061968092341,0.016837110387051553,-0.11401175320071945,0.09830132868782496,0.026520085127105415,-0.12347937522105452,0.20342538060636953,0.1676668230307638,-0.0261552390284437,0.14501013465938223,-0.08938244953944158,0.10055985727174474,0.15932561427058017,-0.07445311688778236,0.01972011311250063,0.03678526610539689,-0.15278575384915302,-0.16417506087600894,-0.014685408716691805,0.1812542900145734,-0.011658854036976132,-0.03928313118435325,0.057578303332928286,-0.008910360325729453,0.013713227876860103,-0.13874920293792337,-0.059164019537305976,-0.11749776026412878,-0.06212465293432537,-0.05405807571465665,-0.11624497432479773,0.12299487757175614,0.12496333082381847,0.14942095642965142,-0.11878311372132658,0.11714080472175004,-0.051636815444214154,0.15818474638649155,0.027777750748502566,-0.025269825397883076,0.1393273169532295,0.11678177999156573,-0.1845085582875859,0.06808047784248705,-0.1489453667038289,-0.08415389786824484,0.050477942869380676,-0.0872680926878365,-0.1277439984077378,-0.1505236662608705,0.003877149750375046,-0.007519061881118603,0.14028132713955224,-0.03790828617390771,-0.03215255262277707,0.005651634274719433,-0.08865571268599876,-0.09582000467554352,-0.12191550755472375,-0.09050559731880413,0.14079911634331788,-0.12520076877855962,0.025227124123456023
-0.10476319049784663,0.1340458304002981,0.07448131524105564,0.00861712150007092,-0.17013226898673964,0.03253271415473949,0.1410141141558254,-0.013761669678298186,0.13143873618108456,0.1199864728892358,-0.04661043670900371,0.006708975208974683,-0.03145544443935144,0.13359390642022756,0.13460116622642243,-0.09505493981101477,0.07571922460581074,0.16955828774552395,-0.1662835373113257,-0.0697319588022309,-0.16204583820391294,0.014410881137632588,-0.04333855753065414,0.05688133809128915,-0.007210661461385912,-0.11841580541839222,0.08114619622767019,-0.02643752274072335,-0.14562181020330003,-0.024774565457522966,0.0009379226115285231,-0.09493890572632573,-0.1554998329170147,-0.0013257805469118293,0.06332013479281162,0.12449467241467727,-0.07734868427409652,0.11517566535463679,-0.17153612534172302,0.15454733055978198,0.16476020614499962,0.0008580684826903788,0.04636057623819732,0.0658755626828323,-0.18354817541778204,0.11239455440803856,-0.03816254712968472,-0.0597909086501308,0.05608048279415702,-0.1408420727618186,-0.13500991962313924,-0.12386884049069447,-0.13056151063433633,-0.12907117505483057,0.18566541286546176,-0.07484733926832746,-0.02245187287680374,0.04667070384123544,-0.07337407307649804,-0.026393918331428408,-0.021436044654480284,-0.1332508605238016,0.01023722624875745,-0.03177370044129777,-0.04198741139462527
-0.08791617193740775,0.07174313677425707,-0.01600026786062374,0.020941589931473895,-0.036860924724404186,0.09351421006488747,0.009994220258992985,0.03823459537891362,0.1427582841971951,0.14954869895012593,-0.11104984180497618,0.15032346676404715,-0.08048104226900087,-0.004122064686763857,0.09646903452102161,-0.060832951277686155,0.10399873910691079,0.15030755752572386,-0.12741010288681892,-0.02847192086177473,-0.09737260753702313,0.1623225275095715,-0.03240091623198245,0.07750912769160409,0.07163031435621649,-0.17039832112976672,0.03407419404660889,0.0168299656045826,-0.17539690831959392,-0.08028197989393851,0.04686952491884234,0.02480958471422333,0.005099226457750106,0.1493360387919146,0.00266198548452007,0.0005570103772901196,-0.1655338877200222,0.10219070402588808,-0.11239698555405916,-0.0046594967323187655,0.1620260340967918,0.008082045148230984,0.016632205209431265,-0.020604113588967417,-0.12362882059702736,0.17026687800413676,0.01152865371340499,-0.024596073295860214,0.14912555484815107,-0.1967319103560148,-0.08019368373491928,-0.1414262725968636,-0.1761624010892665,-0.1645777635366854,0.14667193459180222,-0.007505507508794379,-0.15078691629910862,0.011854985505364783,0.061232448357621184,-0.1362624107816129,-0.07680750009363267,-0.059357203916315965,0.13464211502124612,-0.08563835306629462,0.04441943111819813
-0.09372358521116438,0.04015847737848057,0.11790472490885787,0.18208772788198932,-0.16093154821294636,0.1520109257764461,0.15019266443372434,0.024130044558376477,-0.009665445004537606,0.07201789369520194,-0.015664957443307426,0.1146324328715815,-0.006486868430359214,0.1105880550552426,0.10000636643347591,-0.15518265524128058,0.08187961285196119,0.02174668630402301,-0.054472666685685456,-0.02452964841267712,-0.14867221618752308,0.032027510288625737,-0.016276214530702833,-0.06558690889105913,0.038546245502958,-0.08888433181798168,0.08506096658765781,-0.07204212667447091,-0.14559889011185154,-0.02174668929717726,0.046616789555129955,0.010258955861838535,-0.14109696059613666,0.00258501978270404,0.05113145042334266,0.16812512670188803,-0.15813996197198715,0.07126884900988252,-0.10677405860614862,0.06670768422437659,0.16360851503560753,-0.17281063473577907,-0.022626021855140056,0.052198021346825135,-0.06959522822709091,0.057781392733079424,0.004683411806621045,-0.057315966369466745,0.06379113065346215,-0.07262468351091367,-0.05281116311147155,-0.15940638432579524,-0.0761637788728566,-0.07601417683420211,0.21678147841195297,-0.06083033337947523,-0.09969453301065019,0.022441439223485498,0.04219495835436128,-0.0019271438465365755,-0.15530103465226475,0.005126442012470969,0.11832245474575531,-0.01637993706771923,-0.04096056614390438
-0.07240261680473926,0.10919159309184967,0.09827584315105108,0.0737284852440903,-0.11960337592770195,0.14023015505788874,0.13056989996351923,-0.06634351101989504,-0.005927846059549535,0.10509084794342044,-0.07489707804751677,0.002281430858839017,-0.14211432333855722,0.08398265766614861,0.11627394207536991,-0.11894021378205037,0.14148885701551492,0.07651259222179208,-0.12891678045469726,0.03880278258943408,-0.04147752829818377,0.05679738754931631,0.06303507497462255,-0.015012396794983597,0.018421219460996258,-0.09378442792378244,0.03659500681528188,-0.1486738489029957,-0.16706928341023947,-0.10496913012562842,0.10947671919939408,-0.13781351743398984,0.03750101030088678,0.08513552909069763,0.06834209467198425,0.1858322545490625,-0.14494123862184194,0.048878572946790544,0.012852724791889732,0.14514202197377338,0.1548094450162524,-0.033112642659031556,0.042549343159955205,0.046028315727878584,-0.14963721176214675,0.050487758321953465,-0.13273480910487045,0.018564304756790582,0.0017477346395338633,-0.04077949544969737,0.03286268872775125,-0.07947650768067381,-0.09656053570460414,-0.1346607910271707,0.10956903243780641,-0.05009987612664828,-0.14766894399804467,0.04429060010981932,-0.01669325500391629,-0.031907202507608194,-0.012648520306004328,-0.050337262543238094,0.08627106515315457,-0.10104511241019798,0.10362929199224033
-0.0870574005133875,0.0300410926292915,0.0746133705787358,0.05939768712492858,-0.036730472919243556,-0.023433737566806497,0.025949822685532482,-0.03806410007435049,0.0712140073087222,0.17088224243784414,0.08204787481251512,0.10702334038958088,-0.16958506851077132,0.1084085890090577,0.07914817110895511,-0.10374985320518665,0.03151454324881272,0.017539360952655462,-0.07835268236022185,-0.14182288510496865,-0.12260606305475404,0.10405078349080674,0.07548913825132612,0.01479359249311106,0.050105925148443385,-0.12883226922400412,0.13628041530631443,-0.04940088112217313,-0.15304661722560078,-0.0391300328220798,0.22056252246095367,-0.15133885740220007,0.018402601931873597,0.15052250104154707,0.09087542671742369,0.19658694707584382,-0.13159657447407438,0.09764487397660558,-0.013825833805337261,0.10055281941226031,0.16498010984526068,-0.03524665902916941,-0.13659617858625908,-0.009293871310283943,-0.023346332567521774,0.11919851538659218,-0.1407699260769251,-0.05334038620511242,-0.022399059193363845,-0.2033895167253152,-0.12999967639399912,-0.06996061524344545,-0.23304993929704745,-0.0740418075318257,0.2793287048966365,-0.0629437196248681,0.0019483628836065375,0.10022573884870811,-0.001400151616253636,-0.2334666410615365,-0.0392256048852323,-0.10705272350080142,0.04639530191072828,-0.0830676379843983,0.15573627089611228
