0.07531943989189806,0.11654378837866786,0.0933734872749424,-0.0450374347145066,0.02136558629424507,0.1128168940665533,-0.022394893552660507,0.1215848367851019,0.03494915756778311,-0.0649516982680271,-0.06028753118717139,0.10514434658747647,0.08052026911267034,0.03217631976872161,-0.04505762642942165,-0.0520310546189524,0.03938843074016932,0.0871588224733018,0.060634183764629784,0.07879569667306321,0.10073125687440275,0.007900617752963078,-0.023251720885982305,0.05243305474484182,0.05016539237549145,0.07024046777939347,-0.05579961839819929,0.11304872191875175,-0.07535710106002459,-0.020954899185015915,-0.04852546174769868,-0.06835586410069552,-0.016303791723576867,-0.005550250863060144,0.0006878795063985984,0.0011526245892987286,-0.0032175762625512236,0.05883766452791234,0.05246149101583946,0.09734790326900887,0.10450642146396999,0.09567075801037725,-0.021340868421758794,0.08861337945426655,-0.06681684098572907,0.10823327271874236,-0.06971714609863951,0.038989189631952574,0.06751580077836983,-0.0653890358284855,-0.023785351443379697,-0.03784961741678407,-0.06692754429361164,0.06287686275719918,0.05120073051880923,-0.028481774684532862,0.07202046103459153,0.004803234913107905,0.00036977143795540157,-0.005093495200847195,0.05666204696680774,0.10880300622532216,-0.061595898973239485,-0.06444470352392755,-0.0468538993736296,0.019754788661900523,-0.011110813327920166,0.045476895363332874,0.10020000943225395,0.11473910920797466,-0.05948397834660714,0.052851837691324156,0.05826754641614557,-0.03203157201774376,0.0767989558564668,0.02660972917653725,0.05748916848427951,-0.0009813195748953419,-0.0218321950778244,-0.04149282648635023,-0.02363324241967768,-0.049906480273754265,0.06286926758249463,-0.060452783875988354,0.05206169580560038,0.071093146962378,-0.06933488333614565,-0.06758731210500642,-0.02586925546814445,0.048898361577252254,0.009755761736043254,-0.04868343548414602,-0.004343157492257149,0.018020993566660967,0.04556085797650665,-0.04025818460981737,0.024123097946694226,-0.010140475446563272,0.043326581734414955,0.03685876061359432,-0.0040457185451817,0.11026290369796232,0.020823336937623473,0.0011008693859073503,0.10368723206228225,-0.054616753298188755,-0.05446859529893242,0.023171421221027593,0.06403956077629036,0.02760612031462772,-0.0018539901373086983,0.0643711890818057,-0.06464397753425997,0.06925596229485209,0.1099180974597219,0.024379515632323424,0.09018261352366574,-0.02018444959017439,0.06167349264651973,-0.07635526348857216,-0.060562556579571665,0.021583662527295346,0.004259750656628386,0.09180558957521023,0.10293208685543105,-0.0554240395391432,0.11095180026567643,0.0001039952024924303,0.10953383167435171,-0.017035238501687755,-0.04140484283817078,0.08304561389418827,0.11528787744533406,0.1013099091418517,-0.06094264049693652,-0.00158274693605289,-0.002747966158311215,-0.008676675803828329,-0.010427185307144982,0.00946294838048856,0.0688179070561438,0.10194718394688133,-0.03436603419720852,-0.07381506348462674,0.08613679457082211,0.06568468241171155,-0.05607988176402157,0.1047239276428965,0.009365109427908221,0.1047599920849577,-0.05812401914197612,0.11476708277341054,0.07557058567028743,-0.013275527931218608,0.022074473115365086,0.05660575552087637,0.03700711772697193,0.11054651971097067,0.054922057158916626,0.08746391690981932,-0.00010370613786691214,-0.045404074872847776,0.020122352566167654,-0.008734140757501273,0.09529761044091462,-0.01016305246439157,0.06761717267798815,0.08489937934584656,0.11691532750533822,-0.003832135608618909,-0.0006778202162036267,0.00865894796728228,0.1055802892652668,0.1064320097032446,0.03784798628828638,-0.010407069582286729,0.04159276226642794,0.10991601630943214,0.0917775210758955,-0.04545099921885892,-0.0009782251775995712,0.05627534949500482,0.10502377751250161,0.09748065208549836,0.11050242966018466,0.0254627453860907,0.06587818429196686,-0.033787449456166296,0.014553352943010689,-0.03241525250390403,-0.0038897833373698946,-0.06839488086681604,0.08332740168364719,0.01682712619023239,-0.03391123365919578,0.03939523254494989,-0.04954291886970357,0.10939839457333199,0.06510063686380779,-0.06848721437345008,0.058204642210366954,0.11643746953761518,0.056970402398930975,-0.03738718271200999,0.10779094946660482,-0.03516455027813935,-0.07753108254410601,0.04598642527649883,0.08540031024964043,0.034456651779316665,0.09475370840857814,-0.03095894037907624,0.06387876431493805,-0.00480699746713267,-0.04934543403051141,0.06975380039847862,0.06032019212775535,0.06148622736650822,-0.0031620869338149027,0.11292005250256061,-0.03460380498267468,0.0661209491885818,0.03838087632147695,-0.022474117588512255,0.051280993312148526,0.012325644908429979,-0.06743629423481422,0.052285343600084244,0.011066229770486954,0.06484724263765487,0.04177707873434215,-0.01663518276836063,-0.011743053286756074,0.10894041054442673,0.04115713805782021,0.09217619134148666,-0.04936232927463808,-0.03942486148717778,-0.047169674121683554,-0.05343367196987666,0.10424101297071961,0.10466862579281196,0.04975518243327244,-0.025337049449874163,0.09391648799052112,-0.05513900836533654,0.10408913040181844,-0.06424035502751906,-0.01085375926427352,-0.0712562690695812,0.010440603890852393,-0.02750347234335514,-0.039280653551530965,0.06830260286897374,0.08305747900118644,-0.010437188869771899,0.014113999373027626,0.07195930537278354,-0.06592977220392034,-0.007598186532342625,-0.0438239878682273,-0.0034720702603324694,-0.032035722582794,-0.06203630730616548,0.0601082184357182,-0.01985253453790576,0.06880599408382014,0.09322505619718306,0.05282816734646181,0.013325701491123571,0.00960193317634471,-0.0583591417007126,0.03593051834094667,-0.010994044280871062,-0.04361583549772889,0.06073585627020836,0.0899270248294238,0.10419843737733603,0.0045294698837760414,-0.03612676678987034,-0.07009973585604556,0.0086251906583452,0.09773667940051374,-0.02893540818977823,-0.07624987984628187,-0.0009863786737733195,-0.018430859201612252,-0.07031665026532712,0.07839894577329344,-0.06623903392570821,0.06675940730386473,0.11155890093811742,0.08240295683676625,0.004558833245976437,0.05211204918543223,-0.04840179714820285,-0.0003891372086198648,0.030942656270749738,0.10928692345486424,0.039928288748856205,0.0028240837800589187,0.12484367756586336,-0.004441004516205839,-0.054592646255622955,-0.01640397609722853,0.07639909226988409,-0.061471284631378034,0.0027218492880925014,-0.01573592900555779,0.008659469767695995,0.052973551512662656,-0.0775710124855114,0.06995017341618576,0.03903826955507455,-0.015547956383435755,0.05629211273837714,0.04992528911768425,-0.011368789978017138,0.09022720633881955,-0.01406225086434009,0.09490786241561021,0.11424857508475843,0.05526579826746766,-0.0228449691031837,-0.03190551774364025,0.0725500360527865,0.09135074632414421,0.05898010224814244,-0.06354527377824452,0.08134501005830212,0.11755849652938348,-0.00514874650531261,0.05834615708987328,-0.07619120198106963,-0.0007570518608091455,0.11340128602230926,0.05417941568529812,0.008541001830266173,-0.07349497816801419,-0.05022115977233031,0.031175159801898538,0.05459202047392821,-0.041140968451647573,-0.07049559931321855,0.06301522050674252,0.025686715800607073,0.11569844827050188,0.10013761501699942,0.0010158283107796727,0.10792824371220364,-0.0486969649647789,0.09877230497628554,-0.01694616224200308,-0.02764417711565864,0.04145746118845196,-0.0705971080345856,0.02515463437994135,0.05013192880166027,-0.07218248483555496,-0.05029543321074452,0.07074386241224025,0.07613678323905304,0.05824220234224815,-0.03810234056974494,-0.003221863742358386,-0.06576657314231228,0.03789185660220458,0.10139005436243442,-0.001312729801973141,-0.04307959117705595,0.06321248255185138,-0.0622950050887034,0.05798254175765062,-0.020591690187395026,-0.0410343017903195,0.11813594900881837,0.09420416695028427,0.06688409986909548,-0.002121897267026075,0.029493418720392062,-0.04646221372222565,0.08496780549600091,0.062408294530841533,-0.06315828175217689,0.0017538681508023673,0.10419298678312883,-0.008240701241596546,0.01615453778294437,0.11762742678709195,-0.07069251449934266,0.10481849896121843,-0.02861764001090118,-0.042281145045055174,0.11006705601256112,-0.024147076811372,0.09471175407647969,0.113870641139762,0.015723937659870638,0.09057769953451304,0.08505553269231801,0.014263335394782493,0.02336205215703261,0.03262942944639909,-0.06461684526068198,-0.023130038020738177,0.053444444316263454,0.10384365363739755,0.126710327369981,0.11753204569617152,0.1167068313937931,0.08006832079514317,-0.01623259019185377,0.030382878024346735,0.008846236332504254,0.11617821533421407,0.08139836660737818,-0.05620589254636722,-0.046771884309379265,0.0026002393194301623,0.06701196625176008,0.09784460264169498,0.10682465576984754,0.0895430407506908,0.10955230750140173,0.09274314454692004,0.0048350226525907146,0.08570702410281708,0.00015028460122953446,0.03112188849620387,0.03512090079727648,-0.07320200599715522,0.07766712502816246,-0.03674688635690311,0.08100834633397373,-0.01835116177537353,0.0841690150207576,0.12316156865178027,-0.008373468494680257,0.09102978054231632,0.060439282416966784,0.09238085709719707,-0.0029949515130709005,-0.08047301042642914,-0.04811756348381225,0.058631993443087164,-0.0006478089036517718,-0.06736659823766415,0.017312125327446623,-0.0464312117791397,0.02321381113073901,0.08919797779844933,-0.04106323404646219,-0.05958464685609922,0.06629340195284752,-0.04582355305626788,0.11918630669943922,-0.06991919379580372,0.050463695503983004,-0.015483997350372094,-0.024467251928177766,0.07387727482771655,0.05151921010737885,-0.011563367293883612,0.07374449783281989,0.06985854502159353,-0.02159078087087541,-0.005949384160059035,-0.051310327512300836,0.08180879033735505,-0.050615272517988356,0.11173130264301696,-0.04152790317495642,-0.06389983030223488,-0.010960488206260987,-0.042945172375924004,-0.03505644640206915,-0.008429572308550331,0.10414908929139863,0.10899268723510608,-0.06363858155785986,0.09520885273175932,-0.04582021818558139,-0.0671355809637907,0.03094427494594377,-0.0008160876023565443,0.06122749805241156,-0.04981138055827926,0.005320954544196279,-0.010855285885857912,0.04230850685316151,-0.056810893990838704,-0.024267183932440112,-0.024616552647365737,-0.061786029063900925,0.12335659483729604,0.11378578425959215,0.10722453175692132,0.07130538753863906,0.04477998107570112,0.06007125852414276,-0.019736516343707978,-0.049127197014262235,0.10399681239280716,-0.07768232067691129,0.08775899779572663,0.1110488889052449,-0.002215421610820409,-0.07140970143148105,-0.034350425661010424,0.0444232858157776,0.06697119973894967,-0.0301318985197325,-0.025223493217310187,0.07425348326231981,0.09854414008122066,-0.005618241337948684,0.09912338260068568,0.08358323927166637,-0.0011553732991533376,-0.011395999402014561,-0.05716937807574619,-0.009336483215961828,-0.009203006297266591,0.05060021942694171,0.05646902701352881,0.11284605511344961,-0.053875762413425544,0.02447923464473537,0.07037937283117227,0.0829300353396371,-0.04366073218026723,0.05098042766976451,0.08665971645338598,0.1110669254957322,-0.017263167087773666,0.0836149081538852,0.09321639119644233,-0.018611473081129724,0.08581751239485408,-0.05711758359998441,-0.02264967466129675,-0.01749221950932384,0.08201906066178226,0.024686902199189693,0.023431157501385504,-0.044977406776409934,-0.05321525723236069,-0.005809888763141085,-0.0025224521008637884,0.05380692411376421,0.07049544320416852,-0.04736739367567312,0.0833425227844158,-0.02884070555200043,0.09682053123862346,0.03501794306921908,0.08804301550338435,-0.0396081872233114,0.10679390778068866,0.002980420339633174,-0.05244929742545408,0.04655471521534698,0.018047065764064094,0.022545967060747553,-0.003544608892316206,0.08153434511511656,0.1098474398852609,-0.03965960212296908,-0.026341565794315153,0.021767560334040356,0.06914152938488097,0.07122764521181801,0.11502937895214757,0.03471571072349236,0.006917075145563811,0.03928229462397748,0.029175316251188847,-0.03049190658633949,0.054853910521966996,-0.042237959557552406,0.07583895908452577,0.09742699505312764,-0.0042936663890928775,0.09221770534944888,-0.062657512717846,0.11076723062008871,-0.0032845909598297174,0.044332840011133925,0.06832791049888051,0.10107404243186265,0.044294409669294675,0.08249670096265431,0.02217823539542789,0.00544234569307314,0.10393469985370664,-0.06305369409807288,0.06644641785576388,0.0470769664329682,0.05931045112260015,-0.06443248728343105,0.10722151107236917,0.0518934133850233,0.024561065420255025,0.08865963393950425,0.07001866172723992,-0.012456665976368063,-0.042541150747043864,0.07910965493340197,0.10229940925713892,0.05209670752757949,-0.024065111625112063,-0.06940216433472454,0.07034481578511702,0.06145318333183159,0.004607498279676988,0.008789194749364328,0.11173301080489195,-0.05957781725680654,0.003534657252480655,0.00816800407323727,0.06404783118560234,0.10352327293674894,0.09858671408283852,-0.020333755716940818,0.10581670234639828,-0.05323382066776055,0.03521652451174826,0.09694230816476428,0.03737692225936498,-0.023554924462758486,0.0020147243632703342,-0.058136135617373665,0.07349964611650325,0.016102093323433025,-0.0002876952022752474,0.11251950973327411,-0.05019314193392755,0.012736120431688001,-0.03126969336052579,0.1069490673736736,-0.06536637388718293,-0.01831995998668116,0.0862503263923669,0.06740104274799932,0.09993046321346633,0.01796000551295524,0.007031638214371016,-0.037475345149484585,0.04634706799341274,0.06365040866107441,-0.0005860567578330299,-0.04048802932960221,0.029112482269120332,-0.0016911683527327222,0.046956001007569796,-0.04848289970743112,0.1152313113154585,0.02386671134587422,0.08327241467769848,-0.012222147593781664,-0.07130209658335845,-0.06442210021382572,0.035832778545527785,-0.008835046783598212,0.02855811675715002,-0.027153303250260566,-0.039034194234596226,-0.017316282467317673,0.05276763283836506,0.08528105211958893,-0.008210747396475105,0.09833971523137253,-0.02592360742390804,0.00037640531809314813,0.024581754911483716,-0.022469330386421734,0.023709717783377056,0.09820877247160384,-0.022873300089278313,0.021158442961462538,0.07398512030447273,0.10447383493951187,0.07230246027395394,-0.047437056781041056,0.11033037613887475,0.037282609722987546,0.03945674496893489,-0.012789131348176119,-0.05583076267296255,0.07564603800323097,0.011361718389509837,-0.0296698464871407,-0.03569285791825736,-0.004346439100626218,-0.05724520120683414,0.05056786332791287,0.058796867932455865,0.07483295534701737,0.09501932037685717,-0.02465268175857981,-0.023284802869921243,0.06451916845889624,0.02184427545845575,0.11243697020239801,0.009446690706269778,0.046708409371108435,-0.007342941902085338,0.040006928103444514,-0.04414709423590212,-0.07592127910958538,0.07266140854306327,0.030643936823240955,0.07080734983603103,-0.042415621861669195,0.0017050920167695249,0.019671970212109712,-0.029573648259219796,0.03913398867592438,0.030333606410289943,0.04347942341008945,-0.01133292625533726,0.028732430442209612,0.07427035100289404,0.06418715696365825,-0.03655129768611729,-0.018196541624739816,0.0005584737006530207,-0.056655413633010715,-0.009230365830913214,0.018741763018400796,-0.024541853608420986,0.010582340245776452,0.0073901038105822665,0.07245892471340433,0.05822973738457834,0.028784463625660475,0.09606133857460768,0.009230801695878275,-0.04215691041280918,-0.06316894099172335,-0.053422346793872054,0.06754623724844742,-0.050052059343493265,0.051151223314716866,0.0004742984107699532,0.07740144761657052,-0.062345604991185896,-0.02853461833847377,0.09004314623672922,0.05478264002806458,-0.07802320924161384,-0.042357871706374256,-0.07919375243105914,0.10073525860523855,-0.025453133976032317,0.114946979081131,-0.05376734559451385,0.016538291759536437,0.03915144667204697,0.017724486921323925,-0.002023264118821037,-0.05941166247211213,-0.04434827157708847,-0.030995137876933386,-0.056687519970428854,-0.05524816864859997,0.020305651168817898,-0.08080863644906007,-0.06632883078894622,-0.03341856768860201,-0.022340776763974442,0.10552891747145475,-0.05739296340317544,0.0894676511859694,0.023704407018621403,-0.057166419256473984,-0.06251604271098841,0.08386973390073002,-0.027323092589295554,0.11452837859667454,0.02609394658262871,-0.013990850401748136,-0.03625763208685404,-0.05792911239936929,0.04903150662985183
0.07387732697513351,-0.07710645572079808,0.007537359151408732,-0.02858537351508502,0.036206147818148314,0.0027046186680443913,-0.03391699700129538,-0.06686656876029394,-0.06444595714461572,0.09980996864645227,0.09676373883583889,0.08610243863806703,0.06824256974719471,0.10766063918568865,0.04570728343410137,-0.06043943457430664,0.10473654666527216,0.0034748328717611474,-0.06592140283652438,0.036111599801203306,-0.07436499171078216,0.11569286594831343,-0.018596159559556548,0.039896321074152294,0.07593148072309125,-0.002727793955938981,-0.018038997704162976,0.020005565417387218,0.02460827530572368,-0.07042152836236572,0.09186974992611764,0.08956803568892172,-0.015039329942939002,-0.04628240563346285,0.01792309429901004,-0.025959549246823792,0.1135822813782208,0.005354215586740906,0.048531013562625146,-0.06149544717956405,-0.00653824930617665,-0.04487766467149685,0.027413370266694513,0.052810870656499656,0.049609132149784234,0.08547057511952363,0.04342974939966981,-0.05769208190585288,-0.016672458340701437,-0.02709974837556944,-0.02464937895530438,0.05140160155253319,0.0769019341114997,0.09149224390519185,0.008354959312247374,0.08635320650354035,0.08547976411721503,0.07524318965683832,0.07533715002273396,-0.008663741192877883,0.10113502652733355,0.05922342728198035,0.06942607552395638,0.07874311758705668,-0.06388744976251255,-0.05515244508354583,0.11151733022875976,-0.05469937451390216,0.05081591503827448,-0.03310144623453665,0.058756756273916536,0.03995164524717392,0.02772484878556451,0.07556570103637349,0.08593133559347373,0.037838225933457134,0.03365798652259327,0.05422635033920419,-0.0486151135784516,0.06016945896554288,0.09462693194977542,0.08914767143984532,0.0061884935166768695,0.09191584411264586,0.10762802345585606,0.03483834237712386,0.06320951421871032,0.035181156640407336,0.07959195627294147,0.10674900900372322,0.07133727460209231,0.029955796533137364,0.018881526432592936,0.08040272017630286,0.08480037884521494,0.008553254878755023,0.0011798238216056323,0.017349054482544046,0.10686755603611449,0.032529446344515905,0.02300677393590406,-0.05739953905576953,0.01050726686059419,0.03015616436063743,-0.03632404983208811,0.01455102526214735,-0.06800472427349766,0.08940596373409933,0.06392667633055973,-0.018724922519754102,-0.07998437740383665,-0.06817922647094507,0.014545755482210954,-0.07535855704733088,-0.0003248415481702476,-0.07093488157142608,0.06656490569495256,-0.05500157546108409,0.07068551054521029,-0.06525473279785744,0.10284465262499291,0.03358861248441337,0.08646528893346168,-0.01900846425236002,-0.0027455758043028046,-0.02712121315412056,0.005187938559640605,-0.06359774861998048,-0.0585920758402116,-0.07321621656471332,-0.012050778848374948,-0.0016734727493912113,-0.03668122939972407,-0.058526764744418924,-0.04425222322594875,-0.038565369093564957,0.05051704591275635,-0.007079154497565093,-0.04622887199118145,-0.004338841741261336,0.04213226642591413,0.1137768350186127,-0.06258807319668498,0.06729269023465798,-0.03797352782778649,0.10337877509271225,0.08073153775832259,0.042531657244723194,0.03072307323197029,-0.05685095788469004,-0.0717225140268004,0.09592117124110427,-0.05473095092205178,-0.05262406889046204,-0.011476226584870883,0.046970632300188046,0.043621153214828484,0.07825636868640039,0.07419496123193514,-0.014576804637489124,0.10721617736523276,0.02784741210452639,0.07602288011968834,0.027685868260173486,0.06894746264783368,-0.024291465008609767,-0.0587697758432992,0.052075685503408284,0.09416500802615536,0.07159545316253159,0.018667130657055025,0.09263580454120669,-0.06427505181355948,-0.04211218041496403,0.04391839374479474,0.011823389899395182,0.08100663412579534,0.030776150122365956,0.08337384741914944,0.06874849615181694,0.0008014621725000516,0.00430277622474619,0.023622164436037367,-0.02260917459403013,0.10868598933464886,0.10870626725839821,0.07080815031120315,0.031508703802388564,0.07489083313200373,0.101414638583774,0.05861960128981558,-0.002376324227261494,-0.042192565958848814,0.10681276164903934,-0.006091377599396814,-0.03838773983901229,-0.07100813313713156,-0.07896056120074335,0.10530061155472664,-0.038111097277675074,-0.07375670565235902,0.001023474280478589,0.08246073446096196,0.05234007514694134,-0.06178885160385266,0.022108600294320564,-0.032171446626712154,0.08936051933320337,0.07768605440657182,0.08218206094313762,0.052109692793188195,-0.01788357808154847,0.07287542182440797,-0.06062720276783515,-0.03970916975511234,0.016751882148193033,0.08621663616898592,-0.016374997021260763,0.0756959941305154,-0.05203548901468606,0.008314663140396328,-0.02324603876620606,-0.04249023907894627,-0.026582539732093194,-0.004571298520213653,0.11541231604993903,0.0036007325149155964,-0.005014692770820601,-0.01576203212066973,0.07520835237736945,-0.07195255136756445,0.10536316194831116,-0.061550591945900346,-0.03630705023909869,-0.0014429099658542109,0.056847209359882626,0.038196461209205536,0.0375953219448275,0.020028547407474867,0.09958213203914018,0.0012793460864450653,0.08023523907807338,-0.040631942966547964,0.12208171979115327,0.032456989631417084,0.09706268098639188,-0.01759583006104736,0.10871754214134562,0.02737556766434953,0.06148829850701665,-0.03289462588043834,0.042038800045195585,0.1097733113442628,0.008985138094185531,0.0318995605812942,-0.05184054233128312,0.0026375155517392233,0.06752191411006254,-0.06231849789567777,-0.061268565333679595,-0.06894251702802505,0.10959454191467041,0.11993994421444502,0.013337007102412672,0.06477989912991035,0.044551910732776145,0.13065544008870592,0.044337260416652084,0.07581002602803813,-0.06615223864890686,-0.039110215422222115,-0.0539442175786538,0.12491024261433441,0.022124564787060333,0.017347232662272442,-0.06734450794179861,0.10235529172803703,0.07968912108726817,0.04216342755242164,-0.020399164703249095,0.08961005472421862,0.061424546178568074,-0.06914475241791003,0.028792845171336064,0.08100078183144316,0.06529400955667874,0.0048517148667589945,0.09025231179924816,0.05900400129522838,-0.012164652646456069,0.11766266164854883,0.0335805969784708,-0.018364189613434116,0.11004527403103902,0.032212514728963575,-0.00432135256967132,0.07738332096099532,0.09631512810421404,-0.060274159982695356,0.11973895966589206,-0.06472463785207272,0.03714898455804583,-0.014436200271389074,0.013809503981278495,-0.06920683717275045,0.09692603809661617,0.08898549997318664,0.11635646324465938,0.11325978641957897,0.11239703011690966,0.019758303798483583,0.07742681478072928,-0.01967201886319614,-0.040044912216895184,-0.004518076960659246,-0.0021492695476666933,-0.027234231812996723,-0.05894208358024916,0.1122867494045961,-0.0614619201515673,0.060346181296356625,-0.02918574959509454,-0.04831957119188007,0.1045160559088887,-0.03815166295379179,0.05529847288270278,0.0792377967565576,0.05835189821962091,-0.002413409548638794,-0.061363826314116146,0.04684776829860155,0.05492360652677743,-0.06128850274134379,-0.01927093026464492,0.09040545899401578,0.06170492338307807,-0.08013070331150068,0.08437407147282784,-0.07795750124350097,-0.02462438552683257,0.08823474275720333,-0.008982344579849479,-0.08364712565001388,-0.060463301377114975,0.03966212904325465,0.07476569373731429,0.07496943672805426,0.03506546732872364,-0.018135821392217304,0.058007621795188334,-0.044187447455753856,0.08620865396566943,-0.008585255117075566,0.036066030316588164,0.10957285118879172,0.07240655411025196,-0.05359917068752004,-0.07347690119096117,0.07717844947828427,0.01746998825228533,-0.011995607219841945,0.08562684047066026,0.061822834168016434,0.04363799055725375,-0.05449026530072021,-0.07503201154328447,0.04737666933173369,0.002083000425997645,0.0013423394359891887,0.08090174884609252,0.07736351529110144,-0.07590061110690824,0.05099376869231317,-0.01610153211520053,0.006666051050789695,0.10334878905024301,0.013558720183480904,0.06877396335989706,-0.05665182347366479,0.0124132696316676,0.0787642799478863,0.0723638699340833,0.03991791354961274,0.10612375923034188,0.04839847135610766,0.05878228053038551,0.07152355598765943,-0.04469238956322618,0.08550719758419915,0.10011561629690438,0.07276051200571325,0.1011481631703575,-0.0026825947792044843,-0.07016415480052626,-0.035722326658718356,0.06507133854705706,0.055723847745417075,0.026361955301330096,0.09318481061769443,-0.025010493764151192,0.0849838210478211,0.07838991018671128,0.028243596264033374,0.053613386884085186,0.09328111758187355,0.11593682766054399,-0.052355154477699783,0.10685986557456836,-0.022484050875380482,0.022231703251675988,0.06491656255445977,0.02304517758428544,0.015509015241748586,0.050363745435382766,0.037374231149728834,-0.0010739313941630505,0.048256926274802325,-0.05160367013290406,-0.04539583659265386,-0.05033834504840434,0.10448991892653026,0.06872091791024353,-0.009410933427239617,0.008738848430344568,0.007515374013589933,0.11628458542929748,0.10555859228514632,0.06130700112548525,0.0867282332888854,-0.050451679694365495,0.11878278589585664,0.10965368402454706,0.03608931093424305,0.041115540328366104,0.10962549119971997,-0.03514969558641433,-0.06092538454902793,0.07186115497840835,0.13245318938462572,-0.06052778430526967,0.07960439943251933,0.10291672984259434,0.013558545818698831,-0.02005608971023005,0.11006673012988513,0.07024315352273898,0.07490371936174144,0.02908475774661067,-0.03468549636332629,0.08005179974361144,0.019575646707834893,0.004844972366402343,0.05236089940857479,0.027639776324441874,0.04075294888718812,-0.0004652675580007961,-0.04237176621459496,0.09184599629594002,-0.03567465048280768,-0.0074582504278108515,0.03952826168705934,-0.034111223770962214,0.017141083479717243,0.0694366241828396,0.0036242355834642747,0.009641416909041682,0.11031444467250383,0.06733848755434725,0.07588361605344655,0.016085748754371576,0.0065083449107113086,-0.023826322086641843,-0.07148728412951184,-0.04323609556733063,-0.07743426931538107,-0.04485731314611519,-0.06615470204454976,0.06929965077883143,-0.007059797537599644,0.09644035848732228,0.11126712583287597,0.046566806979894446,-0.025544091641772817,-0.025425977349019642,0.10092217923781567,-0.029102922710703104,-0.01645904483017103,-0.04608122625134028,-0.025462232827693557,0.04290595071617716,0.10101964780779138,0.032572553652670436,0.1337835924643717,-0.040090453890257,0.0024381882075340537,0.1065247349143984,0.060627331844903855,0.10638362894090543,0.037915011289557314,0.08235992270592978,-0.005527375133752125,-0.08261423713516046,0.10323481443423485,-0.006630201208363135,0.09370767999334405,-0.023313578833916205,-0.07344629902574092,0.06736767839216347,-0.02428032212421376,-0.06765938438905378,0.008465980199269021,0.0965073857464052,-0.06704230988139806,0.059584135311256836,0.11390930779597482,0.07034906788754045,-0.050784432502315055,-0.01270499742176672,0.08781803672381722,0.05276946630863867,-0.00375797348860082,0.04147850805315842,0.045810681291787274,-0.03999699600983172,0.1182814493942215,-0.04612491204954363,-0.06698136261229973,0.014780157345104931,0.011711535237208002,-0.06829856805730367,0.11610696363965904,0.06808421478590698,0.007838343866573326,0.07879564288509683,0.0613732242463134,-0.0011854132575484485,0.05746401984609826,0.013244238545016851,-0.018069542858166757,-0.03126452187073562,0.033662271731531884,-0.02411026133484117,-0.015594863897362123,0.10215866258330941,-0.013200095427569204,0.07647954135557836,-0.04365768411145693,0.029923669303393907,-0.0319275492135763,0.004192347839121058,-0.0277065757143304,0.08142819144796616,-0.08168608257717831,-0.08213585891267362,0.10004486301274196,-0.06538670774397366,-0.020775914145883905,0.0757761382851242,-0.009703095148029948,-0.034208943305316826,-0.04772129328338926,-0.06136877077521245,0.013875193653533251,-0.03831006264350324,0.06425851085747769,-0.02217255929228628,0.01698394591982265,0.02380954200174363,0.004268637657961522,0.049801953471765324,-0.03778509351743423,0.12888287276277577,0.11586682062035547,0.04124297412964985,0.12208282466179977,-0.011453465734253189,0.002591991441234224,0.06877408662930119,-0.0671580804301845,0.05541852498564106,-0.0013820093195514363,0.022132285327093798,0.09260085392768505,0.07747533623534508,0.03071656593147109,-0.07564468396594998,-0.05727547665338403,0.07381925158034794,0.10908357821366159,-0.06987736487880217,-0.03795232347108885,-0.0562175937449115,-0.06185559255230156,0.00843525313051393,0.012030454456635371,-0.012973424265262358,0.11261635228599297,-0.021005337559402343,-0.056472109958639084,0.036031560566617306,0.07559149478356224,0.06007851076419512,-0.043989831112214745,9.844023245166808e-05,0.08669347621612053,0.0812900328958555,-0.06888003306871196,-0.060961790072988256,-0.0021789811560143707,-0.02537292224604983,0.026776324246621214,-0.051017928260718756,-0.034998593753927866,0.016311109243356228,-0.039011850521560865,-0.05222688405641262,0.0349885197412903,0.012975310278201006,0.05625921445912495,-0.060983264646130325,-0.06001022871400537,0.0023929176753578014,0.02329640864770231,-0.035425743011573335,0.030018905621792005,-0.05113346352050852,0.08232083985923346,-0.056103649249849404,0.04131389402449903,-0.007534474087359731,0.06269522732122028,0.11323000138403157,0.03903499563378201,-0.04052499919924442,-0.008119570139064771,0.04329027048021279,-0.002364376392295192,0.032278001846144634,0.04133486467071179,0.08654959704745772,-0.029446091305490356,-0.04144352598501928,0.06075011695190469,-0.03779523326586786,0.017413560939250994,-0.058125064126705955,0.049900074638366175,-0.0005819283100508954,0.10516826720584357,0.043400929113064896,-0.07953600923211344,0.08319954889681173,0.111374492425796,-0.024027044275227453,0.011780897456034225,-0.051239708774353396,-0.06137109909634325,-0.024819113437599703,0.09416367365504838,0.01206154406871508,0.013480344436499559,0.03467219813959209,0.07604086337252547,0.040355002808759845,0.07372271091220173,0.04126915978407404,-0.015337300904620378,-0.052398843853282306,0.05586993002745952,0.0968501765992811,-0.029133030255698664,0.06477615199474152,-0.046004029852108566,0.07919256500784869,0.014978351262322023,-0.07047132705711853,0.09322348271698738,0.11351349970883107,0.08855104714323875,0.01754188856054135,0.05261471910964975,-0.006356260524993998,-0.0013181203643841586,0.10480023511480396,0.05351171444267542,-0.018922333861363185,0.015818048320367484,0.06354715483987285,0.08196875426896731,-0.03866616595514541,0.009397126294222916,-0.0448253421495799,-0.014381225182223747,-0.06085805727387063,0.0692301064980065,0.05064993310693674,0.013502453744887202,0.019508519203704958,-0.07431388155863394,0.0009230756586788497,-0.05310998698095924,-0.040025389449059645,0.008301447379713622,-0.03734478988452664,0.10476400680057735,0.05195859892931539,0.04476353378282852,-0.02559989503135258,0.04875426605629979,-0.047850030370164935,-0.02679071850110967,0.063220417900703,-0.07157685320028302,0.02283283333167279,-0.029168318269531063,-0.0726482107525813,0.04713694353386879,0.09422196626498383,0.08370520550372049,0.01628140402980697,0.05518654179754203,-0.08148781805628516,0.03780256938133776,0.0245491126477352,0.10743728179301008,-0.03175703409621424,0.022263827279429042,0.10772669202249369,-0.02570917998530451,-0.06315901666727884,0.05315073291822718,-0.06314365853046129,-0.0057953349571774415,-0.05662148521971377,0.07604957859981924,0.08238737501253106,-0.07274575755117743,0.022439351880738687,0.08764239849376373,-0.004472807260303012,-0.030821379984338784,0.061138929411660436,0.04523033154366759,-0.07635989480229538,0.06066377009136571,0.05351383538112489,-0.054439125051213615,0.032039141980647286,-0.03999257214664149,-0.07337524196758215,-0.022361074909741215,0.05154436470820861,0.0999966411462715,-0.01484149525313733,-0.04850579178904146,-0.03151418048297339,-0.04568921945460814,-0.08021341142877424,0.08589701201596685,-0.070976269832253,0.05709638341303752,-0.049330567802073885,0.10642586593219786,-0.03408986658853419,0.042398836535235705,-0.06822679811845005,-0.033094981550245185,0.09841894337503179,0.00027442775993632675,-0.02351136135344353,-0.035454524634386725,0.03912145830199571,-0.023274857123669307,-0.03259216634739131,0.05500316305428965,-0.058198589042674095,0.06614553738258894,0.11611301840305517,-0.012807241701061347,0.04490065004761652,0.09831301955897448,0.06530483678564974,0.07364945261353438,-0.024315564015925068,0.0478992473654244
0.5208799939587135,-0.2222791053361278,-0.09228156914150802,0.11529175099593922,0.12523890567016002,0.17672907813167982,-0.1138076240536533,-0.11847847829957489,0.20452307385554983,-0.2925385113639335,0.14951282144296463,-0.058631076059446854,-0.2406803460724935,0.21274165376855236,0.2330791228515494,0.15348190167191267,0.02594835886147541,0.07229283370107766,0.20642253804847477,0.17096349156029123,0.023362813056710428,-0.041548578140997314,0.19251980361854482,0.06054225517498497,-0.027885935063383493,-0.13098796254505976,0.11737989459566968,-0.15840953161284846,-0.08685199280077568,-0.12898820910316397,0.1273160834449402,0.0675035495469024,0.07844797759837994,0.06911910415412331,0.1392724771711662,0.16677330022861603,0.04779008966776106,-0.13449413466528135,-0.08782838139460988,0.20768556930698387,0.10669362815003895,-0.36958844466399665,0.006204882057540654,0.18238439513251334,0.5283144473111611,-0.12991656852151257,-0.1336397879149792,-0.017139205166388085,0.2399407003169128,-0.2230122533842377,0.4158320800238563,0.03103090886608721,0.07782828308913073,0.05883277325111861,0.10772810219511966,-0.21958966143261502,-0.008252234597763782,-0.2630780912070329,-0.2073370185755281,0.059011679272820916,0.1640154987537891,-0.2782909614658274,0.03773033517312806,0.07494532240726152,-0.10767080786738742,-0.19436079688126642,0.04690405296155772,0.358587410203932,0.15420552684071828,0.24982562397729285,0.026387801052521767,-0.12341474487577722,-0.3453253942164256,0.20410570107382103,-0.34771777468731163,-0.0016723027337118964,-0.024012586448302516,-0.45467759289495424,-0.07754799914265231,-0.09290637678973251,0.0926170531197339,-0.1326171804800899,-0.08111067925288724,0.11633295960653504,-0.08133634573209424,0.006798878455583539,-0.11835411559514149,0.21537662248978823,0.15933018129299345,-0.07096180742369457,-0.25038327238496166,-0.024686326522374537,-0.083923469699939,-0.04970355762835626,0.1575945696733718,0.03982104002514963,0.1556597317397219,0.2276077674559618,0.05226469510894958,0.3120660683627698,-0.0839210391599655,-0.39539021309804245,-0.37251247512980595,-0.17516716368622426,0.0743229476564641,-0.08247367077684675,0.02474839070419418,0.3269459473270643,-0.06638507594641016,-0.29825278263249005,0.06855551696251025,0.08257767254950885,0.10778882133756067,-0.07222500578538024,-0.14400234107490392,-0.17134866180419495,0.009820315147766705,-0.15350137631904862,-0.0013608763245971304,0.010763853183053335,0.1276868231734996,0.2829068983155226,0.40741006543027325,0.76484708229586,0.9181726227773893,0.8102915853820495,0.8725887318182075,-0.16702073386110844,-0.17749425131350854,-0.2814496243755488,0.03151068893701881,0.2684180155437778,0.1085878206259986,0.09809294214376967,0.3889962237179321,-0.0004023693043630225,-0.24598694088740947,0.08994509352360096,0.07788870190253609,0.1015781434976381,-0.25732425286942073,-0.29105254915790324,-0.0012247869190947838,0.2411837154883119,0.37397020963845445,0.05273380239694297,-0.004176024344518567,0.4430720246056166,0.7453957739593585,0.7801777949448127,1.3010604188573958,1.7254111648321544,1.6319248167248874,1.0940871338270828,0.3422493690937745,-0.24319495202268337,-0.445561582301713,-0.32032173142681825,0.43859373384709577,0.21183013479046153,0.2190144911602799,-0.05426313428952088,0.2345558574146106,-0.15581596757026608,-0.04115258765359286,0.011541698592589413,-0.1525965092323645,0.31801925043231144,0.023384962331919,-0.01397291816145628,0.1153581593852782,0.279722451990221,0.16077192536830462,-0.14334210556668484,0.004236835107640944,0.5349805196216539,0.5948626840080079,1.111125971525231,1.7250900730020242,1.6659595907483664,0.8045998152426114,-0.2783792166014713,-1.1622594047687975,-2.0238378644833483,-1.7068653371610745,-0.6117827273870494,0.04757362329137555,0.15734858292428536,-0.26574701953046886,-0.32076105963999774,-0.15789276431354304,-0.049266089954118186,0.23458955507092658,-0.04565248215198589,-0.09309872913957316,-0.26371228464935714,0.1855489301555779,0.21187745449223352,0.11010560316646109,0.1330056100271896,-0.08568411201845813,0.1629798786397782,0.011518727116465064,0.4466718453400376,0.6822413122248207,0.5933676961171316,1.0549045128036614,0.22121531059307137,-1.3085503350333458,-2.15462412866757,-3.1908433809277548,-3.0764357515611014,-1.8034950866988315,-0.5156779708575766,0.4435204898859184,0.2829962116274903,0.10221313254687771,0.06887857237443262,0.240848476415795,-0.08676956781369599,0.011516623189744644,-0.029071898256317195,0.21835159310784658,-0.05492752451504898,-0.13831839318038272,0.13592373042643296,-0.2611706596732137,-0.09139695744641878,-0.057318922997253524,0.06395181560643472,-0.1340565371543371,0.2805200546325074,0.3000674774522229,0.2082715170514859,-0.21314986757791082,-1.4558756219901736,-2.9481979296679097,-3.7958843391851453,-3.3861943432085537,-2.5098227532724673,-0.9289417716841054,0.22414020274923663,0.7984104763225802,0.5937800184538348,0.32311394693725776,0.268748505764087,0.4574500002326174,0.20045354491105352,0.3008289878934348,0.17259172334503925,0.06688691456762383,-0.19519866784847847,-0.4156088565983532,-0.062062596429395565,0.08773877612827269,0.04811068792699792,0.09595194660885262,0.017273057127020566,-0.14962554650496812,0.2791865933729955,0.06566744705867864,0.16981223544896404,-0.8752094396351299,-1.61188787686111,-2.4471283905214944,-2.694542787428992,-1.912288127479047,-0.49653048201714584,0.4253318484240377,1.0118058302152795,0.9319539550211646,0.43808720376967436,0.3711786395171865,0.4081378573229823,0.4130789995664477,0.14705436728542703,-0.040161904765057266,-0.0092403165417588,0.15178126786298674,0.14171086465846858,0.11747868016952652,0.14508791854283418,0.3527383451293022,0.1595925780038621,-0.26964828525378803,0.206339609788516,0.16914815304546144,0.23672453183669576,0.10534089883953622,0.20111066424237636,-0.45976153663203373,-1.2162205866502929,-1.4768244341045367,-0.9717533142112449,-0.27687355807497743,0.3758391601476057,1.0777198202380367,1.2749193676900679,0.5386151043162271,0.06461456949718011,0.11396165070091184,0.2811372316106876,-0.18000981949413958,-0.12799493250465704,0.252819311354228,-0.09803073421707456,-0.25529682655637176,0.07927074801720796,0.1418745852003567,-0.24813601024719906,0.19113768859222188,-0.10337289339177824,-0.2760996184065366,0.12214307150695763,0.021214208760154094,-0.116697085388104,0.19914575454727426,0.11355204482901367,0.0691485429456067,-0.5568252102597445,-0.41045023880739917,0.30229300996746966,0.5785035562735377,0.858946920259344,1.0783208835115003,0.689278579843341,0.21417490375620252,0.07333806553195052,0.13661747842429123,0.25624020178607043,0.3842586348217836,-0.3573455349251899,-0.27598197600836305,-0.14705101209918714,0.019624189175383545,0.096613215390396,0.009494069140781021,-0.059432652559260946,0.4155030624114978,0.11218403157369052,0.2694125816144208,0.12483048195554833,-0.02797624082659016,0.009090146209891696,0.2350189985277172,0.211726980978468,0.08149245684415876,0.03772520725497887,0.22476794434516115,0.4994081675549259,0.4409959087605613,0.5832998425315558,0.45911371398348844,0.43168629271867853,-0.06562388047814913,-0.26515032549157747,0.10186796554342199,0.1754127482269677,0.2669057766636804,-0.05967222404874563,-0.12642383905726484,-0.03551404721693334,-0.2186173945124955,-0.2710974444791563,0.035234526342955534,0.07798560473460542,-0.1765186606890044,0.06866265421469575,0.10139376246607865,0.16808582754561668,0.17198757571130327,0.009453008634219016,0.21319460980015162,0.5129650109869758,0.457427604277067,0.22494696574686548,0.668946067488462,0.6516218335374724,0.344373779876078,-0.19507811022438154,-0.04777615764789094,-0.10577147374675293,0.017485441526592604,-0.13784158416287234,0.24433938859553098,0.38581250267859535,-0.14516823717388921,-0.0673596083336386,-0.21270509545499375,-0.03182876005933765,-0.1794056060426672,0.05088320716783238,-0.25988790045582305,-0.16313095335709576,-0.008813596213290208,0.2340862987332481,-0.15311879548727125,0.10388008707632022,0.09854715224950433,-0.09864424949095432,0.12566303786670938,0.3851343002574915,0.1759605380083427,0.7406027234749083,0.6976631129876623,0.4251752788350384,0.3978218685745496,-0.3596357390300248,-0.025391395349869207,0.054755550443087386,0.39252766763010866,0.6025626779354635,0.33877842456591906,0.26711496595138734,-0.03218089767632824,-0.22359166171852304,0.020360367361947303,-0.17204630368503582,-0.011564319700208811,-0.004919509708634091,0.14130404271740277,0.20250604395164654,-0.04103786089318469,-0.18852756064213233,-0.333095945928303,0.0499750452625886,-0.08390955312175584,-0.08321171321415825,0.4171165357438751,0.39223999262549564,0.24107709649760214,0.45959117465570654,0.4202408364459342,0.27559260143717,0.06640341454524036,-0.45936349733627513,-0.45789833108747935,0.05676298493035901,0.5160509795013594,0.40136253914884823,0.14499811106556462,0.2834612225571379,-0.18379821524875808,-0.07906154954477883,-0.07746001514597857,-0.2801544528759319,-0.07809654135261522,0.4120110625560067,-0.13134164919802793,0.03578101737337374,0.15799177049571486,0.09680832868181766,-0.152431764543062,-0.08234599130316582,-0.09516300965119501,0.20256053819997083,0.1780268411519824,0.13017979643782446,0.41393668358463087,0.20291115362633466,0.11866295344906198,0.3157092785682008,-0.16477158126933641,-0.23894973881729228,-0.27063131021164727,0.2399700355203616,0.8882498170646742,0.28569933874801656,0.25698165561767083,-0.03917421003885775,0.0385584024118591,-0.03801448538716611,-0.10846883869803256,-0.14833680912046682,-0.005437294317741221,0.04077826378229136,0.07346533502416296,-0.05063239357922593,0.1223735718524368,0.026005056246572514,0.07610925337312462,0.10724586533400592,-0.06530238334627184,0.22267323760014252,0.2645361884832327,0.16743787137395982,-0.02983490777856373,-0.2114614438773834,-0.4642977806356559,0.01326567332474264,-0.01673797855710851,-0.48186100464038917,-0.18582919305667983,0.07405063296516494,0.06719183177091637,-0.10432595886994675,-0.16890370651589356,0.006032368083881342,-0.027931222133644323,0.12705299898778039,-0.06713431787426294,-0.11448848913181289,-0.032806512873242724,-0.10688672734250027,-0.1240081950742262,0.12583667999458562,-0.2281427349196498,-0.14466071291416943,-0.10819628940403916,0.03417121113446339,-0.28352750316253716,-0.005013114711894157,-0.006205705838169769,-0.20518843899707548,-0.07611268682276259,-0.40220257190878017,-0.21846316633332552,0.19514924492177474,-0.35804272550644767,-0.33555444001127627,-0.4549309360277218,0.024331287721103437,0.21834870150941027,-0.35328991964257056,-0.4806562758296547,-0.3125098295179556,0.19752802714362283,0.06212633598386175,0.2175532262767846,0.033369556872344316,0.23957824055870977,-0.1453217357382446,0.04308246921490046,0.18571018154785016,-0.19864747930669635,0.034515745099628264,0.17839217763508278,-0.17577441534398425,-0.19855473749943514,-0.06584642573540528,-0.1273206554162077,-0.044065177105664606,0.25886688340044917,-0.01899792243827238,0.37976881819120445,0.08023814686798737,-0.0545353636969916,-0.3854650112819258,-0.14570303768914178,0.02184629339872225,0.09744639334088206,-0.6591026602012661,-0.015889597042048422,-0.21591969091428426,0.5616504536279148,0.2727873802693728,0.3194167123519326,-0.03314727951986118,0.3235090266915154,0.05252601927822521,-0.04585041205101784,-0.05966943694819971,0.006800309536536403,0.02972198125263894,-0.00544138654178145,-0.17771809225078028,0.09476912746624726,0.09712856263053644,0.03455084586584669,0.4812285305202475,0.3893438175459367,0.5823527216484374,0.3806396796139766,0.22366277026570267,-0.12915541871329725,-0.42593462687639005,-0.40364334483497843,-0.28929241218106094,-0.6215351258828339,-0.5455919164940525,0.14987529494695653,0.11624403859406832,0.41207267500897626,0.32018146270448494,0.104387399843841,0.03687324034691845,0.0553921511286757,0.23092823804983229,0.13810339258921353,0.051733549915656936,0.0013379310209667412,-0.25763228875093486,-0.07576273747137645,-0.05490914647565468,0.13008890701217313,-0.24419466551983565,-0.10391009424112607,0.3161751874190364,0.6669699118957857,1.0265028934831482,1.016120276692749,0.3283584401308495,-0.7513540313650783,-0.628884572914701,-0.501047574487493,-0.23858549441292828,0.054403297719144886,0.0009100704553883824,0.25480149479232383,0.6259602072963701,0.9287299418597014,0.0075207807714331235,0.014025435789587759,0.021310507759502086,-0.26260921092159517,0.1402028280665026,0.030303387870250963,-0.05692699109568451,-0.02582145246766611,0.14572684162349633,0.46435369176626895,-0.517843240073665,-0.31475830367736196,-0.044070899578604425,0.04603348890108976,0.42124100503967826,0.36458663264645824,0.6483115307153882,0.6556039018155407,0.08680184147828009,-0.2670486509136633,-0.27210289508404434,-0.15658947873683404,0.20693791516637108,0.3180351512595679,0.2572293205974993,0.4016284499978501,0.26708819979634124,0.17671737228782858,0.20392748439980024,0.3667583888346098,0.2191008959711499,-0.06241120731590104,0.04164356901923773,0.10066020272635955,-0.028799143496946292,0.13221034588953184,-0.07334039241217727,0.2538681027221168,-0.061832868209872736,-0.12974829593844064,-0.11397827535598219,-0.10466200885193025,-0.1490649445662941,0.09536840030009437,-0.14396597434982455,0.02807590829348299,-0.2459716061757835,-0.1974315810649345,-0.05237594193583728,0.08649009998382526,0.03074774532909292,0.3104525496440502,0.14376289973987574,0.6508865806607407,0.054072913321112616,0.24630723193309728,0.18115308490749243,0.059709859188690095,-0.018640228416176328,-0.09709074636801554,-0.08696778579506088,-0.16629616301749028,-0.046341396411094304,0.18029542566969955,0.11302934340785177,-0.1416481368038168,0.17148563494439237,0.17752062707471825,0.10800678893336715,-0.27217296672474844,-0.26859757936250345,-0.13691814269156052,-0.5544286172926711,-0.33173056635868353,-0.39159445836643203,-0.43955237079134757,-0.16486370931879707,-0.42547410267757046,0.11249274305488462,0.0767940477199428,-0.16526907298108381,-0.48893276774551725,-0.28848817564998785,-0.2306241997398986,0.2523580887050716,-0.051120620927455535,-0.28824037893059024,0.08797342144787687,0.2971796909157134,0.04035607149262758,-0.11112001024653777,0.04701698062553304,0.15862872241289225,0.04661518968244893,-0.2728666919115166,-0.33009620566778175,-0.17037079704097882,0.16761892494660666,-0.21814112913523412,-0.20376779443092888,-0.4007163219124269,-0.22654348618045808,-0.28440009481160294,-0.4107907301547905,0.08366439721661058,-0.05424225675530983,-0.32506424975998943,-0.20078491538355872,-0.1708113134443397,-0.3113668795108197,-0.29565891097594316,-0.15813408147663796,-0.08089528685994818,0.23286578339379543,0.02629582673676404,0.24008549009977256,0.0033720563558871344,-0.0923212080511629,0.3440771614525876,-0.08457887041400163,-0.22689819344244813,-0.430456628988295,0.02864414006665556,-0.08212874493068086,0.12836179578711787,-0.039841719365792595,-0.10238198367313224,0.0711845195103084,-0.4399768504657349,0.23036200799718906,0.15285054374466114,-0.38377469727401886,-0.07580557423329419,-0.15574574782193454,-0.17061329967192035,-0.4126040948329822,-0.16455974650208235,0.13514474949607755,-0.16955544338144224,0.03103613372684686,-0.14519476008222829,-0.020039630323196056,-0.09244045413861622,0.19228945389467042,0.10012566192801088,-0.08672397302050451,-0.04674913217386747,0.29393763469840667,0.2404395090984363,-0.25956876638617943,0.14463554800217454,-0.05615102567153054,0.018201776348742933,0.1458714694282398,0.060363443405464574,0.2308592807553725,-0.058433064601020684,-0.13350551929905347,0.0003651648576438169,0.20393384392287667,-0.03756309156339738,0.16106160663799754,0.09196282782480189,-0.10791729462836712,-0.227655155476576,-0.005626705312089044,0.10949582763119485,0.015749453414745585,0.0795853135125977,0.2279319332442011,0.14161220048039933,-0.05837428112313494,-0.18656953887202934,-0.07217459985643324
0.07271052540559854,0.0696017821626343,0.04196056091302682,-0.04011011808161258,-0.010827219004934427,-0.031105190053185756,0.038495640696154465,0.09655826594978943,-0.019393105953509113,-0.023878759540935178,0.0773889595926432,0.11270720488654416,-0.08114680078846587,0.019448430663451383,-0.03213025152284966,0.022341437363706307,-0.02823778579964468,-0.06200279331758957,0.06845372851799468,-0.06508490190975584,0.025616512618544817,0.0360552743163067,-0.01727128801875454,-0.0005856392423892573,-0.03967948403198969,0.09199974416255093,0.052870119335878756,-0.01956714186630301,0.024783507885560125,0.0013911965684387172,0.025649208113393093,0.06172891688422543,0.0015619754478896452,-0.03575516914860291,0.03399896090853465,0.0023421367571506584,0.03966968523921727,0.0026018305615828495,-0.07579919094458253,-0.04574867046783573,0.11071001091767907,0.10749618629972053,-0.009498082970064011,-0.06510488454643956,-0.026590745530359543,0.035766422993514874,-0.019550244379570512,-0.07998961443981858,0.10039815930278001,0.0568484483151903,-0.06393378164340927,0.029732161432450728,0.11440753422340158,-0.05868855053412473,0.08663503302291134,0.10882009022849194,0.04077618537729034,0.10518802236778213,-0.015753925721903223,0.08941659979380459,-0.015214264828339109,0.10507114654641876,-0.057443299546394606,-0.01079453335464826,-0.04166875531261797,0.022128240917536922,0.027969018086127843,-0.05563551799389336,0.0399577849897902,0.0018869762136776759,0.11307661353886,-0.07943124449806263,-0.033276696565336585,0.044733474528892855,0.10196678059051369,-0.07679062399317964,-0.02127616623369145,-0.0684798100320737,0.03927498409722472,0.09957166125443175,-0.06284267727896214,0.020280319576740147,-0.015043543740476346,-0.007497876270259238,0.04868244745004568,0.0457820015078397,-0.00042328212822331763,0.07031307142857142,0.05330298611345156,-0.01970647035825855,-0.061720018808465046,-0.03486626311706676,0.01028949094408975,-0.06691494296480795,-0.007378356427730006,0.08052078305939551,0.009715522241033218,0.10439856371402387,0.10266888588411198,0.06815816356378235,0.0033603497436301704,0.08471874650119009,-0.07941291876344664,0.09988056863426524,0.07507876381372004,-0.01985825375044701,-0.018682406353672187,-0.0708558423915616,0.013716885922975111,0.09129796818303726,-0.06083062973694231,0.08877591728406492,0.011229048007134071,0.09406604047263933,0.05361340673801047,0.02098883156529836,0.02763306703233028,0.0984659349668966,0.008360647813837602,0.014365438741029728,0.07879949100670644,0.045806556418741935,0.041167558936205204,0.11698513306499904,0.0389201091523073,-0.06652299854749587,0.016510732411034353,-0.023476455279349245,0.006000939166458527,0.050907073740760055,-0.04705287758550577,-0.057867680468263315,-0.022728872989783447,-0.05618285680438067,-0.021672727714711,0.06681114124945256,0.00039189707627290443,-0.07032794814083841,0.09099319619804276,0.10600261616888865,-0.006217283207516379,0.007672750169739254,0.04841117619374585,-0.05003145726241297,0.08496538865934855,-0.01715533869433971,0.06524708996184231,0.10325354474632624,0.023577146319068043,-0.01018091513927835,0.02099447043029218,-0.016082725922046744,-9.907485109712888e-05,0.06635482699392452,0.10744409741038079,-0.041314856824807,0.11610687872408808,0.043852000929497016,0.01475756281812722,-0.05161987431485768,-0.012518647281618658,0.0730454479579102,-0.03792308785029238,0.0515977982613546,-0.04623222287672219,0.0534224788488931,0.0563964822504024,0.00533095291048941,-0.010468083914990628,0.07774637274125765,-0.07292212681764978,0.0803951916808773,-0.03360797607885802,0.1068201829080851,-0.04366307478141409,0.039037645559052515,-0.059783844896774956,0.021788896061188258,-0.019117244303968214,0.007052755684317151,-0.022611273717608064,0.0951393229291689,0.006100775405926206,0.08515604444082452,0.1159029975273938,0.06915515685526805,0.010072467535907828,0.0029286530480479235,-0.07550328610650091,-0.020147269746245138,-0.03695022418641086,0.04844375544455539,0.0005896952521779983,-0.012170736871831046,0.08928137682679216,-0.06290336960378805,0.05648996983948229,0.0113121685627397,-0.04699151827266947,-0.07158581876427264,0.042219204429095145,0.03477671827177368,0.0679496843282507,0.04445462697798567,0.026715436290646998,0.04850402792407324,-0.05175381607519435,0.09107899392319138,-0.05449818660775078,0.03654971872497171,-0.028013679233598567,0.04533679251135704,-0.00707783154534613,0.1039939484684853,0.07991720208524201,0.02323875655606241,-0.051165611654733226,0.09273448665014145,0.017532471386019752,0.08759190983676562,-0.008630575006659617,-0.026610568059032783,0.0443707284372422,0.019849987548935848,0.05771328739940953,0.0987828395492535,0.02456976657555241,0.061732635252622584,-0.008565166372923936,-0.0447528359213086,0.036594501615342154,0.01331198553331601,-0.06954815957222338,-0.04172467454069441,0.03575363446696544,0.09844254832720047,-0.0028890019410172762,0.1040459839282029,0.07683499970068108,-0.003923740538066966,-0.0019825393875913143,0.00096499666170243,0.0758822545565795,0.06381892561091539,-0.055996226650971426,0.06885481243616558,0.06424835700519269,0.011533151326784386,-0.046047619935120264,0.010371947164023627,0.06030432329029749,-0.01759917977271835,0.02033097255263142,-0.008332946304152012,0.02664701818050635,0.11450316785850617,0.05744011627348112,0.08743069937890836,-0.045320276945890386,0.08456092419942537,0.059000555827483,0.004395274708856874,0.10131086273862604,-0.04565416171257643,0.11942217542117427,0.004831723595075915,-0.05386078474666793,0.09933010057281069,0.11630601015158644,0.07422548707330967,-0.04507298455029962,0.08507912729640014,0.0871071147967057,0.1169674298400119,-0.015514599537879061,-0.04679907186443481,-0.06534953435712296,0.08127858197069912,0.0568492963218306,0.07734084810678855,0.03431162537980944,0.05820775627111698,0.07404237180279319,-0.06606719343803845,0.09154046101262475,-0.02307512740356846,0.11444604471820312,-0.038112669228172046,0.08399247391133124,0.055589946801226725,-0.007077731396938777,0.0774717705744421,-0.034658586295236944,0.11376202279600782,0.10930122373693232,0.06450882861792569,0.07250057853319694,-0.06058157720057468,0.10563027750210692,0.07054744721412223,0.05066982636948731,0.09667077197782346,0.09523599933222844,-0.030912766129837056,-0.0392203241846582,0.05833194177727837,0.028725134730203623,0.05581339165640527,0.09716186847512669,0.04180699674816806,0.08853627797359341,0.0006585861215166666,0.04708014477911096,0.08215415706907787,0.06511726594406292,0.08942110389818306,0.0034060023985073794,0.040152188842307195,0.08437691669044951,0.004480971074983092,0.10468144184760661,-0.0055454355864417194,0.12516717182303605,0.06299226605755281,0.09238564281228956,0.11583850643113883,0.05900158222839821,-0.032316242669921856,0.1082950382126974,-0.007897867997915876,-0.07754657413033118,0.0014773574097077392,0.08377189439261179,-0.03809708211192128,0.023047965264027127,-0.027527722310661373,-0.04674397731082477,0.03978473720621897,0.08893101931304184,0.08310582740375254,0.0016399352961475543,-0.06680252905877145,-0.050629426075761604,-0.00794350285293119,0.08643292250059069,0.07192984851199861,0.05380226064744702,0.11614451901868267,-0.05965927340615167,0.07720232846511986,-0.03972219244839235,0.03942884651058543,0.027723136164263994,-0.01944202167761572,0.024871619674525752,0.05200344244670242,0.08483732835017703,-0.03943442819495665,0.10465545040172777,0.056791228171454045,-0.057671519975777547,0.0782533105709811,-0.050562440590331645,0.020057060678517185,0.003106980185071515,0.09944493405386894,-0.020237993791680665,0.03470252771957221,-0.0003784060872576144,-0.010496354900628453,0.07785766591182823,0.09529156917850352,-0.06582735278187075,0.0666801290660632,0.08514509607988315,-0.01457327612354516,0.023827323380927485,0.027783963402495983,-0.014549693690038747,0.035171337207593904,0.028131791303610716,0.010705784238779291,0.12825901076628535,0.0890549020108339,-0.02279170498814063,0.057611675227193924,-0.03264489648621184,0.021124893047151243,0.06026641399869026,0.007863983502955179,-0.011918087519411095,0.010041550199825977,-0.05936251717390285,0.05827361991874205,0.010941437404626617,-0.0378810706383415,0.026473103697801623,-0.03126536158621056,-0.04985612370234041,-0.04741004945753638,-0.01612916392077808,-0.053182008503790186,0.03777831361782921,-0.055373574584695315,-0.013797518034933596,-0.048115821558967285,-0.054330166361709606,0.08059083613442157,0.01612944578184577,0.0977999355829466,-0.04359586722920724,-0.058059568809445454,-0.026714472461524908,0.08216767782789966,0.013748810020055579,0.04258599473882151,0.09826085757777915,0.0664145675400551,0.0339677200995196,-0.03194080699746634,-0.07188891002628557,-0.06346007285790276,0.07317806157108997,0.06540949729954502,0.03950025422396599,0.07586538396341817,0.05560171149729839,-0.03305998451413518,0.03516103253274355,0.09105884490449986,-0.050620209080094805,-0.002681672149334534,0.07345262768894092,0.06561667402757569,-0.006686961913326152,0.03103493470846711,0.1317223888690114,0.006033085760148301,0.09045226593511002,0.06031240708126231,0.07928214919656114,-0.01868808104998653,0.07219220294389514,-0.021415823423055532,0.10354493780391527,0.029694073134573222,0.08486931213526377,-0.07296821742825635,0.11600571897728013,0.04801905948952735,-0.021296519903391865,0.054712240722144215,0.03501158564448779,0.10451513588850896,0.05924470472597608,0.020474613961642546,-0.07981684134633313,-0.04655079152928138,-0.006768553355050509,-0.004405644174662307,-0.06467181054022768,0.057225438174681405,-0.02264867012154576,-0.04264832678257876,0.05130679735411668,-0.06636266910086445,0.10562377076368482,-0.05730276864589935,0.023684210981669118,0.09340232505598717,-0.007441800139185455,-0.003764761761481288,0.07123250705120719,-0.03201173550975728,-0.03566127507759647,0.011088495444230222,0.023751632284349646,0.012348581110768973,-0.018438474922222354,-0.013534925333592608,0.0818031723479868,-0.0031742440589325027,-0.07538103952535832,0.07548032865962774,0.08679797854633525,0.05111135270483732,0.07543643638868118,-0.041936867192197295,-0.0007356267471519987,0.09103730161902188,-0.016606620809325855,-0.00043832315494298933,-0.004924646001252237,0.07220871270473818,-0.046144599860612714,0.10115164451064922,0.019402957149831684,0.06127527171964653,-0.029087860323663034,-0.025599749145711625,-0.06433433624398718,-0.05197433739847489,0.09691491998264097,-0.0032894722477921075,-0.030902526713973522,-0.03963077428499003,-0.07464929776509957,0.027012456001255663,-0.011727963759078506,0.02732852067296501,0.10705987470006025,0.014709325596005388,0.0874181091814141,0.10009321133934294,0.07042665559974536,-0.006627495652255108,0.08068106123465893,0.07061381028138396,0.0650092912811841,0.05123588257903393,-0.05277681591525089,0.021703894941834296,-0.005789434888143228,0.06941033040531543,0.07768682177802376,-0.017593515143755747,-0.03487225749634489,0.1136720777612588,0.10249439428108527,0.044416561891213506,0.060120688120725976,-0.01171721653507639,-0.027210126029522764,0.014352692048471425,0.07026276125729154,-0.047922812416986246,-0.024047603593343417,0.08199071230060273,-0.07703645626236731,0.07450373056266149,-6.351661147256652e-05,0.10983165050515596,-0.002266528727468874,0.01919425732093297,0.01253343741951177,0.04055616563038599,0.02691846637998576,-0.04561183091498628,0.12169502269047187,0.09676515509200831,0.08172190743468691,-0.002316206869401698,-0.021833371015275722,0.0845552558594179,0.09921000482206546,0.09617138024646898,0.035504404303297835,0.06221372647833826,0.05428358636301815,-0.004914431819871026,0.051559451359558174,-0.04584905425155675,-0.03662943283109742,0.06533021556727735,0.06412911881960828,0.02939314767977712,-0.053908218383711494,0.0871090886016566,0.10896865445294934,0.041223542399318976,-0.07440385550352677,-0.06792352483998824,0.028031316588852086,-0.015025331656892038,0.04512879101133491,0.11065627877902115,-0.037982152062248885,0.07844925335237102,0.058421814691568194,0.057094221825467924,0.045729022905848356,-0.03549448439633954,-0.024717800360846576,-0.03412382233790031,0.012353753840364178,-0.07873912943226515,0.04645967630961395,0.036073878094986966,-0.02143959980453398,0.03706632473689783,0.09917733722184637,-0.039390013434451816,0.11837902020595277,0.10860403882671579,0.08813913201722597,-0.016275472353817325,0.07011319949506897,0.07220235563846918,-0.027601108678320066,-0.03134351556788362,0.11501996621303986,0.030944840283935984,-0.003954391778611222,0.12470835045511884,0.06295612128706336,0.003163528293379347,-0.06554448028017952,0.09599338978416086,0.06162985297204362,0.014035493921153656,0.10997119103345715,-0.03852719545336454,0.05998925104087211,0.09437364664938919,0.05990746106256272,0.0031383706833614487,-0.05464624568036149,-0.06412874818808413,0.016921473439288442,0.007290182873160027,-0.07287331797484654,-0.05778535950401679,0.04661233040915012,0.04014758033065983,0.004104361342892168,-0.004255583236342213,-0.05723660136221898,0.11173375095234331,0.04493732869632544,-0.05887479010044556,0.0352601225313796,0.012077712924806925,0.12853883371152222,0.058490587066091754,-0.060065975478633356,0.09046851486037967,-0.05603179630582188,-0.0725531476979928,0.07574376111398062,0.062411102352233676,0.11216608866365402,0.02890473865067949,-0.006727864268258283,0.07547793067840745,-0.01989083478876087,0.1086659265414208,-0.06479787738645237,-0.01831328316330853,-0.02321572923829557,-0.03200954779813476,-0.007569335099866174,0.015894587411005523,0.01976585917240309,-0.03137272328409742,-0.04008849044659083,0.09869368375882248,0.12838046327858713,0.08057185309366797,-0.042101534993122615,-0.023484733553184044,0.06415523542939654,0.07785822292107769,0.016029696807839916,-0.021972202134538682,0.10935171292142408,0.053879738523107644,0.08099817348830085,-0.05582983843957634,0.0008676779279768552,0.031243094669166614,0.08355516815231492,-0.029664633566297963,-0.031147119875966255,0.08488845589431657,0.06102155831222072,-0.0622628907849846,-0.028811829411096373,-0.06618595628707322,0.02906236031217307,-0.0017078408277913652,-0.05121901756971959,0.07176327298844896,-0.06279787810043569,-0.02929611505173542,0.09446409683481422,0.059350757875383096,0.035812021752875435,0.02093855646073933,-0.05863491592419952,-0.014695240076718982,0.015260162247524203,0.021811664611916998,0.09525024484335999,0.06096842418753991,0.07513921134640081,-0.07143407918383288,-0.08137528820363081,0.07415297181652346,-0.06394174718009557,0.10244444742981769,0.1061206215590311,0.033944112720480084,-0.03237242026710843,0.018424558930555543,0.0064830215108292455,0.013690783739729302,0.10995026573704504,-0.056430549188677924,0.0487160872141593,0.005211965619986192,0.04582870211093112,-0.06892100121861514,0.11549371425418907,-0.06518151009397471,0.007183085632610601,0.05648842277906771,-0.045206024255725834,0.005265802076622549,0.023182181527965084,-0.06168177076925151,0.08693418329065906,-0.03227731881283297,-0.06648465928219914,-0.043252267742947624,-0.07670989986342815,0.006762543652163761,-0.03009074255734503,0.09991142367823065,0.11649360745434369,0.040268765353925866,0.11494447640754844,-0.030226259415207835,-0.07601663612639144,0.04499078710602044,-0.03806603654810115,-0.06711958442637986,-0.03940518973094124,0.0782666652701988,0.06885867515585617,-0.05456887007847954,0.06477073620125194,0.08050621473819577,0.014255720060862438,-0.0010584060202708983,-0.047820554537165105,0.01533867415961403,0.10710692415355248,0.0813552350227353,0.034804478273534084,-0.03456962713863083,0.011594005385331717,0.020663660306394657,-0.029975530319436818,0.012515817823524109,0.045916305930018976,0.06545924876573356,0.047943599814332695,0.1111219750598283,0.06476249034729883,-0.052608568980184935,0.02209524963156449,-0.013494825402857215,0.07494861153663829,0.0933312154260256,0.00404460109747274,0.0833771436565527,0.012203907874439446,0.10242958467561562,0.09073163201652568,-0.004879929565950671,0.07629395674012542,0.00860753108748505,-0.04798554321979134,0.023225629081290673,-0.016598687947624948,0.09233706672399547,-0.0714834928633984,0.027484923030314076,-0.03506923278514067,-0.01210987108174112,0.03419640266836936,0.00016086042221109562,0.06899819202614903,0.005800389221189632,0.061426906795217104
-0.07646748586380717,0.05561921391651856,-0.011189087992116277,0.025750457434915948,0.005119423367632599,0.010464932010746126,0.05773363726346283,0.010727111354879372,-0.025665554736138765,0.0034525761144212222,-0.010458724421621251,0.03622617037058711,0.04435650030112342,0.06497132787068323,-0.0019504049016109554,-0.06449956213855962,0.06536872733765592,-0.03320951093112521,-0.10589588813786346,-0.054872269325451674,-0.11629096961787214,-0.09621538696932194,0.048546288424371746,-0.011520349800336574,-0.07815863934813491,-0.08546147146168394,-0.07343870003363422,0.015696406401449415,-0.11492053774914195,0.0623436282003657,0.023205529202006074,-0.0823152127569209,0.016841825136974922,-0.0031679798840753095,0.05954266616729974,0.02842535694140971,-0.09387312612185607,0.001010439504278764,-0.10646894106942043,-0.05982659973011638,0.06421163693584811,-0.052625291470018855,0.02224661239283832,0.01965658960185721,0.0381983616080262,-0.02355619780577066,-0.08272487331802567,-0.1030239581586161,0.015186379212074974,-0.027402806430066404,-0.024264142061943775,-0.03096795384524516,0.021677390646590716,-0.07052473213846028,-0.05627736892308161,-0.052518483785966914,-0.01584343967596114,-0.019171576437936738,-0.09308481457710598,-0.05983961144924708,-0.002947317090592301,0.07791866774140824,-0.07766001038175561,-0.021525854942117555,0.04169123518135416,-0.11181010313801308,0.05955419832811172,-0.050903868502765556,-0.07282143336496859,-0.0020255535402849455,-0.054646525251031794,0.058875599295196805,0.057531298279442054,-0.06305265909356186,0.06363383742977956,-0.11141413396353307,0.026384636237332983,0.008456648911155745,-0.00997918166506219,0.015476532042079343,-0.08386746156079866,-0.10068970336298098,-0.06765611001609205,0.07683886849127758,0.04766547664881788,0.040910591501101407,-0.07736779355609831,-0.07512604668578088,-0.08650183861537226,-0.008960873034466138,-0.02936326274637176,-0.04551333512753053,-0.027662582000316394,-0.08786227483751621,-0.03830674525662147,-0.08807633471339522,0.054422218733723104,-0.1086008454441539,-0.10481736258248156,-0.08421048036536298,-0.020039464050350498,-0.11139274779524935,0.04723834878144223,0.004028234730745989,-0.003492821358629103,-0.11469151609046975,-0.01597264889859428,0.03692062033312187,0.017988542060797485,-0.07052745312901736,0.02544196902296585,0.05125238523470407,-0.08422060179479642,0.036895409162820345,-0.008800510231011839,-0.07040763175914651,-0.10227376848422827,-0.058043413102597974,0.005801551606750305,0.029288495653153043,-0.08305196204234959,0.07775685234403001,-0.020316604592111702,-0.09068541980305558,0.005547031733077601,-0.0967584566404411,-0.08048345016770236,-0.11873882025500307,-0.08153908351836134,-0.12118835283987846,0.06035598976881012,-0.021616953246610077,-0.07187919966831711,-0.11681710212921509,-0.08120092334299843,-0.09350865009107481,0.06694158394731026,0.05874104269502208,0.005150865604137913,0.00836587460103243,0.06284814157080815,-0.042403849454712025,0.021340776104436455,-0.09383186183836073,0.07040908803924588,-0.03629181490419295,0.018506379426043447,-0.02943495471750767,-0.1087593288961692,0.04625494170418831,0.0293269206972611,-0.002589180940851867,-0.08141919041403187,-0.06893815321781134,0.03396728045173402,0.02402054878634069,-0.08378883464899423,0.03479202147786991,-0.046559781836322756,0.041824797859297234,-0.03228795443981373,-0.0630871393176884,-0.03538615554300987,0.025203872409720517,-0.1011986753584778,-0.07028321111642119,-0.1051185652297585,-0.07264115930231449,-0.11628161501287995,-0.05274946583916927,0.07068885213721128,-0.09289159152397296,-0.03235200267457449,0.04249675032426354,-0.039837325123484715,-0.1006966795694079,-0.0159722348438485,-0.065426671978534,-0.1044767494326103,-0.1112584714215831,-0.00026811681129254664,0.031800531669928925,-0.015671881015991845,-0.05163503403569432,-0.04838207991885305,0.014879110636991596,-0.00444530799546182,-0.06425666909455606,-0.06076272303822699,0.048487658558546795,-0.04947005620044732,0.013743353214967426,-0.10696242053927536,-0.060594212235145536,0.054190203789490264,0.07709590286304478,-0.03529411584247138,-0.108095491784725,-0.10790803343479366,-0.11433432994115841,-0.018502602460318925,-0.0035658462092062284,-0.0491938272516712,-0.01337408858715492,-0.10225106200184796,-0.08460379691514516,0.015607970284822196,0.06535257145653045,-0.01826086753837608,-0.12645924315808407,-0.1152523121352508,0.040882215778944825,-0.12236029924279453,-0.11549136923832981,-0.027984153992402228,-0.054274766439885415,0.022844447034302676,-0.05632999830088412,-0.10850966013670106,0.07035100815024989,-0.11305931354483553,-0.037029378958532325,-0.11662154525326698,0.0387440365993666,-0.07794562103125334,-0.11490289973574763,0.015266558633267131,-0.046334548737176816,-0.08425794662542775,0.07147362069347696,0.07132791037359335,-0.09793549197102253,-0.024669824589166098,-0.06718033337773241,-0.09242656791368581,-0.1159793039154973,-0.026692412029495245,-0.08418019864943567,-0.07268622307177204,0.02441837973668814,-0.0722189628196736,-0.058027015547078266,-0.060475213337559994,-0.06904664044698168,-0.008515684762016282,0.04289640421465868,0.014951164178399024,-0.11055319571341703,0.04775014916667505,0.009693596082067959,-0.06486020434969601,-0.05678256135720178,0.005267553082386112,0.0030658177500802047,0.023254652397888778,-0.042818382500129426,-0.021730265332749854,0.03818667015273638,-0.019177981160064504,-0.07540580695056916,-0.022958998743616104,-0.04081313634601255,-0.1057039498314892,0.023192152476886517,-0.021259308074408758,-0.038002168650768935,0.07112873815482318,-0.039281977092013524,-0.009732159037942613,-0.08541310053276847,0.05797581573974576,0.03112680497000591,-0.00845284184390682,0.027415932871333287,-0.008944347876115142,0.0742241102762025,0.06316931360927938,-0.04036426009040564,-0.002265883040015024,-0.012702693570443098,-0.041799842628729544,-0.09796359364140761,0.0559149124560914,0.03770799630409664,0.05751556646130998,-0.10643596326488167,0.03848094039754125,-0.05764604839040436,0.006929605198718401,-0.052860723820368896,0.013329509140260805,-0.06010270570421201,-0.08456340066679231,-0.09114908821112337,0.06992949174432174,-0.12434973532858523,-0.04273051780042052,0.06698223791191003,-0.11468165723653262,-0.08103887578367511,0.0502798252937473,0.058421515030714806,0.0615066372326403,0.02296203737412747,-0.03500806282933593,-0.06120556403878752,-0.06071411488023084,0.024486645179403077,0.06009540581570102,0.04576180043255702,-0.05529825421927605,-0.10567523153210429,-0.10631616443216793,0.05734316510046365,0.05437555181302959,-0.00590823402317978,0.07548538196724802,0.03469285355256817,-0.032709738284860256,0.0457783827856774,0.04308603633595675,0.038640850313374615,-0.03955457788032251,0.06093711094078719,-0.06917341093975529,-0.08681619799580757,-0.06908275810496341,0.01874015836401096,-0.06287617116700181,-0.07461563177220162,-0.026580038463052152,-0.010607840312417299,0.00545364241027768,-0.03397738886205582,0.026608442376028982,0.0742088971142399,0.05784051216805625,-0.06859790894745169,-0.03106681234194567,-0.07570054796454426,-0.004609874885076301,0.005469064952389761,-0.052744238731550055,-0.028745747804632883,-0.05524962283583231,0.027731084877115793,0.01166458692728278,0.0347732720373899,-0.03787793277253572,-0.11322992324144185,0.04640824838918104,-0.11687094564975752,0.04034505950554502,-0.09172043208971682,0.01566119864190744,-0.12865236069888006,0.06694301675160126,-0.04015768560788345,-0.058766027730736914,0.043482316555858234,0.033324839088126314,-0.1122391221639135,-0.07793062754931013,0.01863171861773136,-0.09389313989631139,-0.03484791889769136,-0.11208853595132118,-0.04299245702690536,0.04558686604264175,0.030548986866265015,-0.10041894121240307,-0.058892884160491314,-0.08660678871013212,-0.06448268348623327,-0.06480171373905623,-0.07552115720724475,0.06262785952667665,0.036367423741806564,-0.04757215371987359,0.056984067396645986,-0.01606410687458022,-0.035580265606887325,0.05259234725327801,-0.057778578254909674,-0.10325357745962722,-0.06615111469879191,-0.04679309424169085,0.048964343964046156,-0.07243754739081586,0.05346968348955817,-0.0640958391571621,0.044029298271094613,-0.03661363743101233,0.07635735866719058,0.02042615694856695,0.05890889382038533,0.04647296677628482,0.07178050964264265,-0.06318438518772491,0.052252740694915756,-0.04288891558210393,-0.09781752721327616,-0.019674188133228677,0.046619796362913114,0.06625666202447446,-0.005214130214570039,-0.07186744150439942,-0.10783311202174745,0.027478503380463506,-0.09302034138932658,-0.11454344763675467,-0.011019347141181319,-0.07996379172407299,-0.06776869103537966,-0.1049884867552098,-0.046457297181426827,-0.07491146078571109,-0.017783671718895798,-0.0012924575576055463,0.033318209569153705,0.045374090102713614,-0.0601239417109804,0.0601548620272967,0.05368790104357136,-0.04268383107146371,0.06634780568093991,-0.054707465573798,-0.04742197747516308,0.048486314286185335,0.07288023961843984,0.03679561244510442,-0.09727775477499051,0.03712775723106393,-0.045103882533631096,-0.045178012687900296,-0.09688191298875647,-0.06610234219851942,-0.1259133837900247,-0.06582035109721608,0.058287545401285334,-0.01969421694981285,0.003288115392070167,-0.10525145001985102,-0.05462208186613228,-0.03486327682097614,0.016699091457479037,0.01115029737553906,-0.0033780481859266294,-0.11684125001503064,-0.07175961016943154,0.05322666011534815,-0.0009658760086566561,-0.0026691822240451817,-0.024472232547667932,0.037479059150949644,0.045714867657644584,-0.059364785658910346,0.035916360376560014,-0.03620711272899786,-0.08467083684765202,0.02405245986682602,-0.016524412625654083,-0.09315200866324766,0.030016651605044423,-0.07756384599625912,-0.08650623832893445,0.014254207321089988,-0.013840814342626169,-0.06441068225448696,0.03521078578885574,-0.016537110207759675,-0.022885125584519668,-0.07949494111632385,0.0019741986125372648,0.03762337402305195,0.07505747527220932,-0.09436739662048114,-0.060302497354856634,-0.06502559246518173,0.07318640893053562,-0.10008846894967521,-0.013933091056396552,0.029788679185348537,-0.002952707732704132,0.056900038716928114,-0.006386268796470101,-0.0380170596289043,-0.11526137320305224,-0.016515399103022434,-0.10436279730678022,-0.05101902041396859,-0.1059759204949834,-0.1348240353702956,0.012175419781227654,-0.11055366126469257,0.045073730409065094,-0.08399986961110803,-0.02424104083288698,-0.09879674592268638,-0.003947189302200145,0.06379007042883102,0.02374707372857629,0.016480629726243548,-0.09504336040966967,0.002575371298883706,0.03335751457100772,0.00842281746345633,0.043583909829538886,0.010299225981809523,-0.08212523271795695,0.053144917544916966,-0.08774434577964547,-0.014151043839879723,0.058667793497140255,-0.09773419211799138,-0.011326406688987602,-0.1182173126833942,-0.012289600694217882,-0.0747668174863302,-0.040231097420117906,-0.07751505506733286,0.054305670149289526,-0.011087542081526468,-0.12021097431633652,0.031539522971896765,-0.08644203358009438,0.04965730256396688,0.009794691210855142,0.07821974775657489,-0.06977943334974232,-0.056285913593337095,-0.01466620643592352,0.05338626981605779,-0.09806654148386225,0.04910434628179871,-0.057814070663543105,-0.040233739271129026,-0.01245804034654968,-0.07766955812623358,0.02042525031315863,-0.1104952021591194,-0.026209686353786666,0.03770211330268332,0.014705131625333248,-0.06794218644332353,-0.05039692387565246,0.01801419806081173,0.00014787418848471784,-0.03486565882396812,0.0383919932453292,-0.06183768286830409,0.054598129887547066,-0.08473493654318759,0.006760448650198394,-0.06158760904977123,-0.07093339587787324,0.037701086662924474,0.0027448453858878383,0.08000963809912258,-0.0078082409838642125,-0.08250803379988637,-0.05529264583093437,-0.07979669593589216,-0.10007398626054761,0.022264402388954246,-0.11351787822606554,-0.10999410405540674,-0.017779803848831245,0.0032186460755180067,-0.06288767135718255,-0.051818412887271056,-0.02748700958508091,-0.08011022589585853,-0.11271575201356003,-0.12169361620843873,-0.02669750737477893,-0.04533806840337847,-0.07733788942036049,-0.05546853107690293,-0.0849230545094455,-0.08113471995688273,-0.05698926287789625,-0.04997811769425378,0.019956649777070762,-0.11356656925291253,-0.019423369577270585,-0.0169953904648224,-0.055729754704522155,-0.04826555225808241,-0.09867331971912174,-0.0721469222768014,-0.011652940726418367,-0.05115083807347225,0.04223810451480912,0.006105224358675041,-0.024439595399599306,-0.07351847555619999,-0.08438061583294451,-0.0334266634896292,0.06361561823362427,-0.10158810978478874,0.06429832764988899,0.02985443430626406,0.008145042120884578,0.0357524661450005,-0.0006204957525835167,-0.09718844457395974,-0.01923938779446242,-0.006152304597727007,-0.04932398356225493,-0.047511189194699995,-0.10213192263193888,-0.056532696408633384,-0.012859518546806475,-0.016353895644137133,-0.10080845580269142,-0.10085549023878328,0.07099006853652425,-0.10932419770705139,0.04509070630654297,-0.1151788158583015,-0.07684228883175963,-0.11214564862884711,-0.07471903667658832,-0.003985227810547028,-0.03467800294491398,-0.02852522793296062,-0.015014225369414496,-0.10432190012750295,0.06013114332654083,-0.019497864343434212,0.06251385192435985,-0.0361718925369373,0.036351478351757074,0.06772834466631954,-0.008546117090435172,-0.0836713423952004,-0.0907128942684835,-0.05227887420256454,0.016644071897945152,-0.04103121597715259,-0.04643769461189546,-0.06302539692819101,-0.09685656601373649,0.05949935129095442,0.010955718372929349,0.04160181423478591,0.029737464031251076,0.03789136088995641,-0.018200939700291328,-0.09059277793225491,-0.10414493169851521,0.03676205045856192,0.0316878070717491,0.03334374568116129,-0.085119256173089,-0.02669616268256174,-0.06699305334872803,0.060645241471582484,0.05473179065978154,0.0007351662485157313,-0.044729382392477104,-0.05357878494180542,-0.017424728607253675,0.002447259316153062,-0.01813662695095431,-0.0135497137927706,-0.03487989442560332,0.02516227919227974,0.02076181523490639,0.05985868723676138,-0.11104491603943806,-0.08467711837960966,0.06328280941420132,0.078661076900386,0.026469212473477863,0.007138826519491717,-0.09813986804598335,-0.044240816673036504,0.05694555425509824,-0.10909480249935519,-0.024900890046606276,-0.035455694415082804,-0.08758147307125633,-0.04333446294357907,-0.01636645260675909,-0.08270378555555326,-0.08077206430872509,-0.10374470632458316,-0.07850041108054884,-0.04012587952519874,0.027104582443544998,0.001012834408546448,-0.11379711082432882,0.03125451908886216,-0.11178982138113162,0.01707086246147711,-0.0413284918212742,0.04446646808741507,-0.09317214164744815,-0.11824284088452333,0.06251903510341945,-0.035807138845930335,0.01397931837905311,-0.03901759831025759,-0.10581883908008266,-0.0871670477190928,0.012473341427056174,-0.003725613953295208,0.008358315490576048,0.07169605563407196,0.050662735901478816,0.03383731165476327,-0.10086171986431942,0.008268434065801215,0.011113716837697237,0.06368292188212717,-0.02549069445857618,0.0010262304922986527,0.06613913048178767,-0.08710765921926976,0.06975265977137853,-0.018644288490396576,-0.05860853218988802,0.07322882632532599,-0.04291421207620231,-0.11703385495250763,-0.05643608997490121,0.04122719001992387,0.08040954078932697,-0.07787554117084697,-0.03980568632751784,-0.04946836039748669,-0.004200649007808769,0.053140210454751376,0.025839163864979097,0.04853815555717386,0.06959401260161839,0.058746322151303286,-0.09770039673200602,-0.0863957601009806,0.05193907681446317,-0.09283159525519012,-0.04869454660304158,0.020796273564380716,-0.060653139490633945,0.02870080643452801,-0.11425809507352823,0.011444364931315409,0.07047856755303727,-0.07632221620074728,-0.10390124642569766,-0.009157543293399836,0.02112058019153342,-0.006741825925280534,-0.042334475622012535,0.047129987385951776,-0.09591691735743944,0.03034750864099239,-0.03343572317315397,-0.07197489297985575,-0.028740893196660455,0.05780071200014221,0.005376730048055512,0.01969229924195135,0.01614887016533619,0.052618839175642966,-0.013219092177639901,-0.049645396327804944,-0.06514292201128723,-0.0018125540024689756,-0.017748596562310193,0.0599150889482478,-0.03958320819382341,-0.06986179863633613,-0.050134300636813386,0.05657158374047211,0.05793228325698664,-0.06587784511088704,0.0646525569338575,0.06969732684192315,-0.03832929468042578,0.010150764723824016,-0.0025606564607188816,0.02805058146791984
0.0769657341487669,0.018291742045337765,0.11787249630275619,0.08247087338122701,0.06803556946636932,0.06804899004821516,0.05937006176483541,-0.007282592953379331,0.010904322788574753,0.04754965742366721,-0.03777620651024669,-0.03449668455663822,0.10253424245440323,0.013488686850318515,-0.0286079405507701,0.10683903533166031,-0.04200726906416011,0.11291163384380826,0.052282220536422584,-0.03834299291198029,-0.07009132458792128,-0.05603340039510273,0.08432301905677828,0.025046936101408505,0.03741274102234678,-0.042968322372906986,-0.01846144217461425,-0.03500390635108928,0.03572138171789385,0.015849529959143644,0.11748302841597635,-0.006018055683889492,0.031651546411806064,0.05144823136805341,-0.051750172203179644,-0.06257998963436852,0.06577973022450437,0.10014561316611116,-0.06104066869226687,-0.010669456853148932,0.07405777395589173,0.03132406987779591,0.05909028472708251,0.10477841588026844,-0.04917421564944103,0.025534657198830933,0.024828300674562608,0.05689733436562545,-0.040750554545988533,0.0875562523543606,0.023452838347623423,-0.03850915355675402,0.0574153151464708,0.0689981450142066,0.08355734939573913,-0.0686493062194142,0.03377059268703113,0.060264845870609034,0.0008703434953636653,0.07217185326978533,0.004761973123835252,0.04376156787827794,0.0889818876336154,-0.028686986617381706,0.1033822922462391,-0.0044468311673693675,0.11067591016981898,-0.013152391109397284,-0.046841093098915515,-0.0697107159844083,-0.03922229845914247,0.005075326273218544,-0.0022088716588940602,-0.032993082627139125,-0.002698154048071592,0.061665243493088245,0.02412518621739975,-0.05123939507098944,-0.045515485114183386,0.035642498705539254,0.07806656401223472,-0.0028473234585761225,0.11210928232242805,-0.05351392473569461,0.06127902928083156,-0.009637196576577096,-0.03816735196907715,0.031142098518930624,0.08920955126286932,0.09871624246115952,0.013148161214910045,-0.07563523870906944,0.11370458956301978,0.09091211066492005,0.03447674503751249,0.00868783849751725,-0.0680338925601918,0.10347534881626315,0.05415011689235671,-0.053992621175890286,0.014273782452044196,0.057089347548188625,0.07584439498453253,0.0003204989874430733,0.04475139892125245,-0.044536557550486224,-0.07783617538401735,0.1054653591496661,0.0049560658030642765,0.07483362835639525,-0.0804703085592191,-0.02492855882895115,0.009828920799032262,0.08860190951906578,-0.013445132725852647,0.03654650451452204,0.07752605506775492,0.09400715161802672,0.11546565116673473,-0.0279127283845221,0.0743807148564331,-0.019725580911543004,0.09647259165138777,0.07527727782743206,0.036167455942554765,0.02033460698739756,-0.05073537531600496,-0.018631799232762668,-0.057640462327529035,0.020670883870236828,0.06272306131732189,0.0015252784403215487,0.009372770977274826,-0.031222540468651208,0.03617089135206295,0.10957015693244924,0.10285363099252148,0.018238762456614238,0.09013561375314806,-0.0042734752786579835,0.0549227446951263,0.05046549188696764,-0.00930343501988701,0.01840446765749703,0.04497204650949172,0.050298551586766854,0.0589036660598368,0.07433897907600254,0.06498779298393524,0.03175575433800442,0.028019832887619747,-0.060197338778525386,0.07020648561876563,0.09990800958309816,0.03069229736084212,0.11415152415875168,-0.05911444734903114,-0.036069307847277035,0.07753523952607903,0.020181928331418086,-0.02882970322359285,-0.0650043892013933,0.06431158175078276,-0.06740909149783413,-0.07520737888595251,-0.07344144280195397,0.07022107042684919,-0.05736417979112311,0.10336000030459536,-0.026293855864089683,-0.03320612482656169,-0.03440518868545473,-0.05561550864155612,-0.04923470224291502,0.1033296396952889,0.09184439117233377,0.011222656828392281,-0.06793528616341572,-0.043219162059762874,-0.07079285294068585,0.07283999446632473,-0.06802890561403771,0.0441065478792466,0.12248147109884035,0.12733187805919716,0.08916223239962696,-0.012825060849186835,-0.04249138767492238,0.10362674176777326,0.0222001556231766,0.05735247321317441,-0.014256132364831014,-0.03473576252900991,0.023363630620524985,-0.022109155125075663,0.054712817574439764,0.07760279927231273,-0.006305375748739557,-0.056373011076377995,-0.02566903924358929,-0.06812806574489931,-0.037293991962513144,0.03386984529872383,0.02068194951624611,0.02406881675862216,-0.06490261134401672,0.07067457446392315,0.020665011839518136,0.007225805048287738,0.06469872306345653,0.05955575315379772,-0.04494240972404082,0.019797678632386444,0.12265007496381554,0.01269542474173988,-0.06638386033596544,0.031020681745810148,0.03688495072459092,-0.06769378932220826,-0.04871825412691802,0.05052991183644421,0.029271301099764932,0.10544341273627023,-0.045560027019735876,0.10424417081913408,0.09455627718313106,-0.014181849921755408,0.10153640546164311,-0.007631796511506404,-0.0508648082715899,0.03292315293536123,0.08481061937175641,-0.013106149366437591,0.09398358597404854,-0.04022919186597243,0.02257588662220532,-0.016605989980831362,0.06686192967127381,0.08958623283853899,-0.04733420876845353,-0.050104182542789547,0.09763063503213518,0.10190376927593062,0.11340087821089391,0.0453247523091319,0.1136598819887031,0.007964471320834993,0.10588957376624157,0.008253959409471386,0.01351943668968236,0.042476039488071264,0.0004136492038938879,-0.07134598227064456,-0.038535015103097855,0.05133641020457825,0.05094203885379981,0.09909094450322883,-0.00693009549682263,0.006506155006613512,-0.060664109156757275,0.07974358536113473,0.05295571172857388,0.06416326419700673,0.03747898596696426,0.08458374813767675,-0.019795416720412563,-0.012982768024773123,0.12431609805740518,-0.005183263759845721,0.08312523748916764,0.10112168640498052,-0.0025386336431554857,-0.008841034093200762,-0.0621733651249664,0.0124833575775329,-0.020283744080052665,0.03132853175982603,-0.0725404390124294,-0.015677394374998137,0.003303599721985373,0.0045421540492284135,-0.03973794280510081,0.031775995673725285,-0.06458570956976435,0.023368198718155708,0.0447200493435717,-0.07241185657027017,0.10450396162968198,-0.028660683601851096,0.1105339651577666,-0.007080778886574192,-0.03797839904214188,-0.0656393331663243,0.08970579814456409,-0.013630493829755742,0.08264511317761324,0.10269289016937484,0.1136290372975261,0.12412582406378433,-0.033921881419009405,-0.036849190541762854,0.007270001636830519,0.10628510383762861,-0.04800470328207369,0.08000644961002062,0.0649250751450301,0.10239968593811954,0.1052671921820132,-0.07572488678644657,0.07021322683306128,0.09624301884079951,-0.030855409071304563,0.011596313180090707,0.033466585798942745,0.106026517913286,-0.0739575282796221,0.0477936300627754,-0.04667428730323075,0.03914533536517118,0.12102493600652,0.05191377484554842,0.019199389550481945,-0.015399633641310159,0.060162294417859696,-0.039755701634690895,-0.04414541209346145,-0.025550849310484743,0.10655089612881596,-0.051952001238212836,0.004791881688502472,-0.08248061988446194,0.03816085464830665,0.09059189473557402,-0.054987896011261556,-0.05634473498301058,-0.00980138190890489,0.009681878700851786,-0.062449589140136055,-0.04088188826281425,0.065607914325218,0.0560940072575223,-0.03697348199281629,-0.07589101580187037,-0.04621703472261628,0.09565002689686025,-0.04154978860007792,-0.060771952951820814,0.0015858961126182694,0.010354198072171954,0.06543504954224733,0.03429702194118699,0.030142219974610238,0.05881385990611383,0.08475524735271134,0.10571614369860596,0.09345298627674553,-0.06417758971136038,-0.04448715729388163,-0.0249260547076069,-0.06921809580407544,0.013963018970715687,-0.00621521984388176,0.034473809314091226,0.017522648190052725,0.01477471472077229,-0.03300027083231466,-0.03155599666830601,0.06879045660319666,0.03761796253742982,-0.04415031972508559,-0.014300577382701844,0.04142060215608734,-0.059429951119116586,0.025610540339414668,0.08731708049975853,-0.01277273670388311,-0.015490056792751205,5.067608090572747e-05,0.01173065823826957,-0.012703636312601341,0.07691016781542952,0.02007204482423163,-0.056679326016167,0.08339637555054427,0.08777989040858168,0.10015732139338904,0.03010582451112952,-0.02103884441998645,0.017439154251860607,-0.004556101541738111,0.028004909053995865,0.014854703304133821,0.09863472248468419,0.10618432021508878,0.02429356925439859,0.028185578483429438,0.037926201451641,0.11492540249143209,-0.033033827113438476,-0.03069780415227071,0.05922764843640196,-0.015174823317659654,0.03683912966589744,0.10043527201490697,-0.005910936497618261,0.10070327803679878,-0.047425456920154055,0.008623927918986054,0.05665545415973257,0.04303201486598061,0.00854472037621337,0.07263118809870983,-0.03282490084758124,0.0925267111111978,0.008061009343762617,-0.06790666915747204,0.06733438016039935,0.00356949814263736,-0.07486357692638462,0.08707295365962331,0.038265110182364274,0.08376356461504021,0.11636291009371996,-0.008034468222563576,-0.025272507153123205,-0.07912404117912546,-0.035648595626320514,0.025503328587394486,-0.05576936223734009,0.04092760693450614,0.08530583594308982,-0.0011948474047832045,0.07090059391702787,0.004821990463797009,-0.01902864416336635,0.027497848737928498,0.11482177288394413,0.06507042178259896,0.054425502967496146,-0.03500013110103458,0.06936488059651513,0.055173417436446964,0.028630276982584673,-0.05759007984141267,-0.030727685886523116,0.09992123589519918,-0.05753246661942923,0.036576448712116245,0.04363831377003024,-0.07169092887873167,0.04603747792207787,-0.07154505330023235,0.11716753667043096,0.07224418526191238,0.09774760906754841,0.008776447611738587,0.11227516103987543,-0.07306201280436204,0.06298617990202204,-0.0651860492062897,0.02529144095803348,-0.04999891533068314,-0.0128143296696232,0.03687059511865692,0.031590273376260934,0.1175544382584686,0.01570501399052257,0.04028498381281459,0.00876775410089933,-0.014519256736467525,0.041219063086684264,0.06825331791121601,0.10874191339244667,0.09577608725303544,-0.05125990248995842,0.045296471573248356,0.025520848887375113,0.041968701818177426,-0.03730274926398875,0.009879180373080212,0.11486367225619683,0.0032460719481866677,-0.020668214252414243,0.04094812603522225,-0.022913772958514732,0.047242344340058515,-0.02938847048921662,-0.040085188618399194,-0.05980626001820233,-0.022295515113312823,0.13402021416422316,0.10172750061739687,0.10774764738029245,-0.03439710851331358,0.002373663390800112,-0.07454246098826926,-0.05013519055774534,0.06710433268456226,0.0656358596981621,0.08682565821673739,-0.036027376857272704,0.06127943427522887,0.0059885123536394256,-0.07131108818651612,0.02762147059561317,0.08946681124441973,-0.074128285797278,0.05149908185895487,-0.06940279549518782,0.0002797045063573757,-0.0077365987383048946,-0.018827640841413012,0.04416266246262548,0.06370702678196062,0.024328467634482147,0.12443150953875515,0.09743358318505187,-0.019727960788869583,0.04722011121444332,0.10966960671435184,0.022383172470510793,0.029136142704533536,0.06571365576913606,0.011154511421271437,0.06657335585956214,0.10834706687154165,0.08421119034402066,0.008192141966055735,-0.022624801053898722,0.05053440978848087,-0.04242644769439478,-0.04241545630863134,0.08484497699060774,0.0517825398422876,-0.0646725645177086,0.11063775274900157,-0.06797543867788658,-0.022411558524134616,0.10614774123546951,0.009121295268643153,0.015727740903953194,0.09505163962984246,0.09380916458858068,-0.03289550310205134,0.014770027093422454,0.12340228637058474,-0.015457855193882007,-0.048680773894956904,-0.03548159634747797,0.030116548066020717,0.07204301025898939,0.10050562742547411,0.0784842227067897,0.08625465818523827,-0.03726163774485548,-0.04621188548997821,0.01319777446398265,-0.08279482318797092,0.06543934657501005,0.07588204138948905,-0.014962524553497116,-0.07608912241931583,0.04489164922101683,-0.05298290779102252,0.008458919296789751,0.008555590365633223,0.014769929634348894,0.03499757381360369,-0.005663924020030451,0.087667849674096,0.005755288187572108,0.028393796439409175,0.12259402917735909,0.021489595617673638,0.009721097136532447,0.11672063807657734,0.05802052549161004,0.02579125061103033,0.11754492358759869,0.07517176561398282,0.07569651974301615,0.0208853417305898,-0.009520114725701696,0.0037534618116758533,0.053523511242286,-0.048528668466758275,0.039705988797304616,-0.008343556680891274,-0.030577474985841183,0.03635348208742679,-0.069685488683866,0.07652689800818538,-0.04838797806704012,-0.055106668123984126,0.06673659462493725,-0.025021251645972225,-0.016815743017631685,0.049042761170535236,-0.05327269725466019,0.000951521529001196,-0.03985027221658646,0.04154452484414696,0.0739632666287895,-0.008735991576511738,0.00531919872751284,0.018662035142352956,0.08832615878140689,0.09397207240700492,-0.05626582186175483,0.10435520409746347,-0.08214917843510461,0.03669094743701444,0.059757251298561076,0.07801267025502209,-0.005633012264104208,0.08637813937804772,0.12062317979924048,-0.02791754920698627,0.05554316401088614,-0.0540683146105648,0.10879923669359216,0.059238321789517843,-0.030041600834560898,-0.06230520217568594,-0.02588647858398234,0.04658393512512738,-0.03170161812219989,0.025758772373183903,0.07715848442731499,0.016339318250877477,0.027280229114863656,0.12108257791932814,0.12066848115375756,0.06980316771464021,0.10684090144745417,-0.04017701156804482,0.11064436699638347,0.1157544122141403,-0.005970496260443351,0.04172322493057069,0.10673077041420984,0.041083741302793596,0.09262414130050363,-0.03426261744461648,-0.0553087728264987,0.094979563430895,0.07274744752595141,0.01912642885846096,0.09474261752401969,0.06643451517256768,0.01621190220129598,0.023158317015314313,0.0009281065498265795,-0.06468873092854906,-0.04847998706509212,0.017052248554176957,-0.041334710322475994,0.08348357917945214,0.07159615244707415,0.05384956671489878,-0.011676393322051943,-0.027226029683774203,-0.06374210139501145,0.004870525745763627,0.07222199030257138,-0.06902507809682437,-0.028528717162117453,0.008923014952425845,0.10925477183546924,-0.03508935479135013,-0.06893136382032948,0.11434796022804125,0.10378166296426829,-0.005657691479237781,0.10197432031079195,0.0024706509908778043,0.04607180684815327,0.02983860276531436,0.06746041217848851,0.08371299737641374,0.09052888807868188,0.0994973631829942,0.10947745377002732,0.04523053481264417,0.11686632665023718,0.013306282957101567,0.11265894297044647,-0.0591696186586169,-0.030884026126448038,0.028474548155850644,0.08282157145659623,0.06458185194383849,0.053663896417241605,0.05215570793984388,0.01965576681246852,-0.042577911341314605,0.09433933120048639,0.03264013160686369,0.0358144137069881,0.057586111829423574,-0.044533403108654404,0.0260438047062171,0.0062817086846517975,-0.028774269524513167,0.0776889506579849,-0.03208252178242913,0.06035029070083838,0.06505474610219932,0.11142240185463431,-0.06677860106890357,0.04396678217021794,-0.022235629729198646,-0.07773598785183465,0.041097818817190455,-0.015481183273119653,-0.024733014349749255,0.09938380773774917,0.10447792225943273,0.051691379475906296,0.024435490625473823,-0.04577237201621694,-0.011018970883689104,0.04890248567325524,0.06327891468056099,0.06612188424777814,0.08804834090074769,-0.06169361473465541,-0.01664755589472731,0.00240004205684084,0.09003672571265087,-0.012802306182930281,0.08723336273387203,0.08727554723516737,-0.016326601753903693,0.008819199032713911,0.01820833795332633,-0.053327950730484894,-0.0365677412047938,0.04821764543972557,0.10677863643718498,-0.004443217487920124,0.04198168712254975,0.06361424539793718,-0.06778223008962747,0.06676690016846314,0.06072039321161809,0.11074253145669322,0.11726855209051015,-0.0469493115195189,0.11516636372387729,-0.07086052457665869,-0.07802159202501635,0.09517323602677513,0.054879829644353825,0.06740102543656538,-0.05395083939097502,-0.009751397186522678,0.09346978734946543,0.016552236876512597,-0.033446067898048215,-0.009192616984565194,0.09465009080044527,-0.06712845280926034,0.04015614984109739,0.06754115235983284,0.05102393466207639,-0.012726393248348223,0.05230938588307615,0.10222650271688215,-0.06952128662977484,0.09250322614743202,-0.006340245673214196,0.0067224992606852805,-0.027992589780043858,0.053935999652361725,-0.04409288182236887,0.0546391419059482,-0.011962147729230462,0.10894768310644552,-0.07734970688600928,0.0317385757660548,0.060215382100377926,0.1109561854841961,0.027308577469027474,0.04659930280392258
