-0.12229566488180059,-0.0799324247146228,0.1673296945177793,0.12492765935340885,-0.14291747986090098,-0.16596514745718097,-0.12038536458119953,0.01634708566244082,0.15579825208127684,0.07395155839266683,0.026366876342140667,0.10405116743780457,-0.15075313864150916,-0.15823485620352426,-0.011498205222176344,0.12418149006003695,0.05955277823608327,-0.04014064570627983,0.030040814898194997,-0.20376846035165322,0.04781919475270371,-0.15627300741638403,0.04662724043918248,-0.030109576394726268,-0.010432456612365663,-0.061755961114500886,-0.03006925354443005,0.0051596231892726665,0.11116650566543189,0.12270107124889018,-0.0803012857538837,0.0987333408300436,-0.17581535050930203,-0.16785640904544374,-0.09586348873280147,0.02541106933387757,0.15491686023514345,0.16946087923089082,-0.050947967808089197,-0.08820406914933061,-0.07252392119349832,0.13309181801246173,-0.09299216822043582,-0.1711736404638336,-0.015416968420757909,-0.03819275837930613,-0.17633719731594907,0.05652521444270686,0.08969686039968902,0.12027176641738486,0.13233751750043554,-0.019846977392023814,0.19860140740790416,-0.2124330829278994,0.1483198770049889,0.022401167865475784,-0.1622925215243623,-0.10431793771196156,-0.09584106896987915,0.021306651751437092,0.1355188640653738,0.130812689728508,0.08436426010580211,0.07418718282968781,0.10024849679443283
-0.10019226676090191,0.0005702418986458671,0.006835432061339307,0.07770681268500301,-0.10773117476862928,-0.07104831210999023,-0.13092634120106136,0.02180232092562329,0.07756659405090591,0.07060856894687255,0.12005635487093012,0.028088619975753376,-0.14481593313777902,-0.149714639814086,-0.17621131508778182,0.07263309144575489,0.003202187655301537,-0.10380573523724486,0.10999108751092612,-0.14069318571966957,0.04243114044270812,-0.08182968756666949,0.1844020730514245,-0.09370574226193805,-0.10489103917969592,0.010875745755389047,-0.14811311121093865,-0.026621736076114188,0.07938063971411348,0.07921002112183866,-0.0222574329056223,0.10208400532996277,-0.14536293207069653,-0.15951559375947233,-0.08249914171340553,0.043257698387982144,0.17845673228741263,0.12275425208182562,0.0022236719303433696,-0.17601326885688567,-0.1427185579341605,-0.008592783791981508,-0.16066914067058752,-0.07832946580470276,-0.13748884824748187,0.010784588594637332,-0.04812994677730961,0.03221245749572791,0.011082523238002582,0.12453147428595969,0.18820374539917514,-0.04761660236256358,0.08625688977144705,-0.1625608231525222,0.11576035970634801,0.12511558067225656,0.006097024709942281,-0.09902071311729706,-0.16813820795074055,0.19178808464306155,0.034200662429838456,0.09534505615441405,0.1730023726050928,0.18750520146635952,0.14041649804027567
-0.1127847751486235,-0.14740778939002522,0.11297132826417729,-0.0009220643515120194,-0.1112165273507093,-0.14056619537990442,-0.05541688320495739,0.093972747557171,0.02669940294417215,0.15829018253959454,0.09267075875593274,0.03152826897024003,-0.031659459711045584,-0.13749484053023694,-0.12256232029278866,0.14465061074522356,0.021630614007293488,-0.05648057951549374,0.1436314461894427,-0.1629270031054229,0.053361854700801514,-0.08410531432812354,0.06089772782538101,-0.05632953855118373,-0.18993800524568294,-0.025609512028656526,-0.1538691027576477,-0.11784667384256463,0.19995786627696913,0.10693308418288032,-0.007475243288903782,0.06561454657758098,-0.18358367018685354,-0.013460472764612203,-0.10543798783279212,0.021934281482087516,0.027169916213364145,0.1465719952265481,-0.01702944641788254,-0.07588923048471298,-0.049578465785619696,0.10410633275960701,-0.17499776152416588,-0.1599484678439121,-0.09617488515077638,0.041655670945228984,-0.09285261355319467,0.1325127580730651,0.116706769969817,0.16590433226352216,0.08684059364569746,-0.08657894858719427,0.02631493201033254,-0.10591391881443449,0.06360363894286541,0.10293574209125962,-0.1023362453638066,-0.1652548895546928,-0.12826348531825135,0.18646669094185525,0.000796715926021093,0.17649323034351105,0.06527218715973009,0.05302534797565026,0.08461085771172648
-0.12104397663965794,-0.10096304837996478,0.195504703916113,0.05267629250091985,-0.1734552899780346,-0.10720975751516974,-0.10842965284933151,0.10882748645874317,0.17766962869231911,0.13217106296174178,0.10055511672163187,0.048976128461884434,-0.07920497838892515,-0.03920656957238813,-0.1382579926681654,0.08193020790715905,0.12303241331838563,-0.19108111481762155,0.013346298307848566,-0.14941915157628355,0.04132397931226067,-0.21084744336513797,0.10703080963227717,-0.06686654418370397,-0.06804149482813983,-0.08212538830487845,-0.07477594707358055,-0.11139560782976721,0.15095129708565558,0.15341134444410537,-0.018463921135180233,0.18219310535634206,-0.041910812473034006,-0.04514207586356729,-0.032053554413636734,0.055585793261078674,0.04459353700019481,0.12125493522527193,-0.06761211817556208,-0.022117719125033613,-0.10771332755072657,0.08256835257249803,-0.1636071038676162,-0.06802967914343476,-0.08423780906491903,-0.09304788363954088,-0.20796028509917702,0.008897851078329135,0.019398172677616156,0.030890908373811657,0.1155274772685505,-0.14583763941594247,0.14142056595813315,-0.16405617005376563,0.16681768064127508,0.031181311197114567,-0.1777905501349382,-0.03150849071481464,-0.09591622837679377,0.10920740506341507,0.10560465948457823,0.17423104901777842,0.12704376415431742,0.08944597262626271,0.01760818319947462
-0.10999884536077477,-0.017358220277031707,0.004102592021436569,-0.03206340272318631,-0.06279673045114395,-0.0037022797521193015,-0.13609349948424396,0.0786598812661149,0.014840321568834419,0.194412555817859,0.1204411855554637,0.11390779412304784,-0.0666472292612847,-0.031307523130836575,-0.12743777537092588,0.09079828455208158,0.06639884371491683,-0.14785806671848248,0.10015820238326037,-0.048975293992720235,0.14803509556043098,-0.06603140175172045,0.16034920211722845,-0.18063616397153176,-0.13721670533647065,-0.031127495209991172,-0.1790586426379067,-0.12426739605935912,0.02423097877022162,0.03700385991883005,-0.19677798677218022,0.17727553903884657,-0.12506556111174297,-0.08952812925579348,-0.03755754092863942,0.03245080927491664,0.044588073453385564,0.039832505531111194,-0.013885078456869602,-0.1609060152536152,-0.19440682999624342,0.038610157748983784,-0.10505950876460797,-0.15699444414579197,-0.15882622616029354,0.03416618430942512,-0.007014730190825906,0.13800160801998268,0.08042984402701982,0.011818343859044175,0.023375030350077337,-0.19014359340438441,0.1351970906092647,-0.1249810457819247,0.1460747613562704,0.16490352040157347,-0.11315480862519854,-0.14171141290216616,-0.02023204361795883,0.07042614250014873,0.18296049389823177,0.07800088222537686,0.042496204087144385,0.14009064616526923,0.189369826260585
-0.11149887914337966,-0.16983771095473021,0.1320434006563585,0.09059514843199064,-0.01906186320370586,-0.07138250748009779,-0.1798755813468515,0.18721108149689342,0.010898280093751257,0.036500542865785815,0.13989245899264957,0.09970229074507211,-0.1891052246005447,-0.007037349007568562,-0.132277080626187,0.0639138951565922,0.13782200298249417,-0.11879148638632638,0.08561428216312376,-0.05706890974879935,-0.021870537403790323,-0.09914969748699716,0.1478430404641064,-0.19371329032517182,-0.04421257047302326,-0.02708244496084789,-0.07092587702142923,-0.046658634688838636,0.15085898636224282,0.13836149386131744,-0.14095534532681878,0.1091423859064611,-0.032086234496264916,-0.14676259142108747,0.018147862867481625,0.013245568596229,0.010609456257561873,0.04274031238798996,-0.009328881164513171,-0.18102443027412887,-0.10023559082539689,0.14404225414113211,-0.16450069570034143,-0.14179732762175676,-0.18352898087456587,-0.06749623101625543,-0.11068806532206725,0.18285296851996632,0.07394583746881654,0.02362616792137021,0.10883813795046178,-0.11186007392462843,0.048171389143049206,-0.02782167167539326,0.09710148694847964,0.14824581147761012,-0.10088149816055372,-0.11539131096870753,-0.04406627278976216,0.19129456393845515,0.10217352806923721,0.02905141240106879,0.14581644903779029,0.024634309010534424,0.09856298194424305
-0.11243679168646882,-0.06649864675665991,0.116329838611511,0.03647509578563204,0.012043532052150679,-0.10460607512333348,-0.029492435079182776,0.06601569176920095,0.0399526352422548,0.09836658329904165,0.1592078767339879,0.18622758443588952,-0.14113437505514298,-0.13786146920503564,-0.09312607209424054,0.026040766318848746,-0.011637001353936142,-0.12526846560322172,0.07260945458934571,-0.10545403475804628,-0.0043160120344969055,-0.09941294028497066,0.07760383309370786,-0.1586541074990125,-0.10401694418088205,-0.08528090796135188,-0.046759441701913686,-0.13636010202901325,0.20036195079013244,0.17673443888904078,-0.09702407777584994,0.16003107648529516,-0.02657473701425267,-0.053685726878392036,0.01867447998743854,0.08714976807889525,0.17072828752922617,0.1839803008649638,-0.013987857952751473,-0.15891136070516568,-0.0308608885563826,0.052150749359235034,-0.02978917487965714,-0.15026636920575331,-0.14048928957059217,-0.0361726692145495,-0.07560977148877294,0.16461768840994695,0.0873536236432258,0.01989907052399478,0.10388186809654114,-0.02482473243336296,0.1378416427239532,-0.06840972459533642,0.05004624502256802,0.04281678347316059,-0.03087166070088444,-0.1907507843580686,-0.09604390946765949,0.08499301739416527,0.19295004395162357,0.0682729699460507,0.049212825638578615,0.207863864909639,0.02913209050988672
-0.11976357151041603,-0.016127459108878774,0.11096003210954086,0.09587159714587681,-0.15841741340485754,-0.043788434825961724,-0.055438725704215285,0.16249348984243717,0.06752710564804966,0.14504143016970228,0.19816704788812875,0.11829289875803727,-0.18277814320828598,-0.10449912614427183,-0.0738960391748948,0.14762313003709457,0.08927753811865435,-0.046627495865918245,0.11919163804268121,-0.14245189565015057,0.14279768537255774,-0.029218688744874436,0.05590790838035579,-0.03849049552838268,-0.20444713441275306,-0.09167235879280959,-0.03404877497073307,0.0010506139467069612,0.042267988263379824,0.06729607525868468,-0.016131709304620327,0.1712030881446477,-0.16201622577483663,-0.0491731011127193,-0.04675059878360909,0.03014170092810428,0.19427454355464494,0.1270222332603062,-0.04769916195167297,-0.15122259035725225,-0.061021808037900825,0.14355533721194152,-0.1352116925304041,-0.09004560517778934,-0.15310628335518847,-0.12445678602890488,-0.1562543903269238,0.03234533799895085,0.0938724582566923,0.11690897461813105,0.05112564215989054,-0.0604316185486407,0.08145977246487839,-0.06715709904314283,0.1676163479975781,0.15512033676157314,-0.017804076776319084,-0.037374004575751005,-0.18400270624712367,0.028378850551297748,0.045458599132184044,0.06981263434718611,0.10512443707304181,0.21183803728567768,0.15970809819099518
-0.10309883746800215,-0.10571443196015462,-0.0003361120369411621,-0.03738699752090877,-0.14633989025658242,-0.15272910438476447,-0.09593974767637198,0.11067178051955928,0.10783357433131889,0.1444657097254178,0.13340378305854997,0.1322484597205404,-0.10725833244193723,-0.12212530575417459,-0.16083155933455498,0.07929619747998866,0.003406347450410231,-0.16984071131223505,0.003691798802750656,-0.11169270157977641,0.04792193539239995,-0.06304374393523904,0.06686748685973273,-0.14736873488482696,-0.07325884474252566,-0.04533845161120946,-0.046121410933913344,0.0012554961485953667,0.135216109780324,0.0041945613138211855,-0.13050660613856369,0.06696328158794887,-0.10992880990716397,-0.06435802538111021,-0.005104225529976698,0.08430737858927102,0.02442715157820347,0.15393985494595178,-0.1620528452912712,-0.18596330999798266,-0.1429186815395172,0.09060176140871938,-0.11361818898678894,-0.14347211804624865,-0.12546097015931168,0.036874149202011874,-0.01404961763877504,-0.004094518666490014,0.15838984499447215,0.10389980517044078,0.05492078003690896,-0.1264777546818267,0.17221170600822044,-0.12323222510823628,0.10136952389371663,0.15131108948830344,-0.1069516135841823,-0.10534004355058788,-0.04552926918885029,0.07801918531915528,0.014052212780222763,0.10695095790293105,0.1498047542807086,0.115886488710369,0.0991407879877922
-0.12176871641423052,-0.15286504223384176,0.09026020920731126,0.050280016386547305,-0.08968086954075992,-0.01810550955226155,-0.056777218032497766,0.1516104996616032,0.1262211282918307,0.024696506506755717,0.12624233133377705,0.0033935673345482768,-0.09475452934802814,-0.117830299155666,-0.10555124054893078,0.02030188724326355,0.049618103541465036,-0.1385807260650332,0.04654121339642341,-0.06062667373526182,0.04420380226468675,-0.13761569048779496,0.08515843665348075,-0.17162340901534232,-0.024239299893323175,-0.20368662111736852,-0.1453493264554468,-0.04194597524252639,0.06506105012955281,0.08006080234472095,-0.058439524879837286,0.18637440744328918,-0.16074181888995892,-0.03262033987060008,0.011630682545979792,0.09854599494769517,0.07747529798030606,0.15978192290852816,-0.21155493006168372,-0.038837168533350695,-0.08321235505209894,0.15644201008325628,-0.17338070787501297,-0.19972064513510873,-0.15460726242610734,-0.11720328598503757,-0.09089208478171794,0.12781434321508475,0.15348947279935635,0.15544914668908624,0.09859028959847821,-0.18960079501032556,0.018816906172302108,-0.03722566447696407,0.10891451819297149,0.07871761602373778,-0.02373830956380721,-0.034624272815307805,-0.12314161203739375,0.06020487788060527,0.12115362525446678,0.1543926204280877,0.1269459967208607,0.07132423921065485,0.029693056707402136
-0.11114636150874525,-0.10364582942505639,0.1350106781932756,0.07974800760262729,-0.06944697918798885,-0.16530565415286488,-0.15158394171267628,0.0451788403003192,0.038656474870488275,0.032485330181490066,0.03690025257912359,0.022029865685829136,-0.04562247522941482,-0.13699872706755942,-0.15216528777471036,0.030531879583727405,-0.00790718338901631,-0.14031216511460412,0.14113182084619583,-0.16974975019825486,0.05446126340517073,-0.088520044915971,0.19631748189812032,-0.0878903672130754,-0.1905714494029922,-0.1581423199611162,-0.05756509961254644,-0.053228763738295604,0.10059504885358285,0.08377907874473713,-0.13465399168617134,0.023495601922003752,-0.14599845927930327,-0.10613223737002878,-0.03444221864719188,-0.0032467447343029958,0.032513703106181485,0.17396513164613311,-0.14261865374282176,-0.06739912625938316,-0.02307097517011134,0.13196852659081187,-0.11282588781393603,-0.009496017048572492,-0.1372718438930541,-0.03688719136202658,-0.08373853758975909,0.08233229339974601,0.09882385479272335,0.16116857304816584,0.11096822438156607,-0.052436018632432156,0.035524328251190083,-0.1504812072484902,0.08628527031837485,0.19142411213436644,-0.18471508657941355,-0.0032759141805078027,-0.05243859584060243,0.08305609502972103,0.011804346386491747,0.1496204307782718,0.13760398348396294,0.1358043756590204,0.12759893457926416
-0.10862276748299678,-0.03001915547030294,0.005786493147203929,0.06582636238862019,-0.1408006848880587,-0.04289017471436386,-0.0870214971994124,0.020225598194948798,-0.006601333058991514,0.06651101366867279,0.08958252051408987,0.1289005755654235,-0.10089513139044456,-0.16917776855409272,-0.0009749729381184363,0.10787085633837763,0.038344176761546334,-0.026408801877231596,0.05160768724089927,-0.12526296726703595,0.05176227749125079,-0.20178246829492133,0.1648917848940309,-0.14365557047850136,-0.1745280931962988,-0.1604209624298591,-0.03108177723119328,-0.10317392278366827,0.19572243170987444,0.12240868851394729,-0.15093030697200935,0.029381223555428167,-0.1842921856072144,-0.035938291408965824,0.06525178754298028,0.06447682715686118,0.02720212008425838,0.14386263130974997,-0.06613202023127415,-0.09702132203088484,-0.14562406386301138,0.10405576816808251,0.0009487340145538724,-0.19661866724036525,-0.02603497793407359,-0.014193559362225938,-0.10528904726409992,0.19044809721669811,0.18604376906534006,0.14510691796648117,0.13799578733570583,-0.032604941238386864,0.03656041593634285,-0.0175795789081884,0.09589476396393286,0.17887749608534825,-0.13401333021411058,-0.01206746023873458,-0.10813995509674414,0.10291895919747583,0.13758523883791257,0.024156853994839574,0.18159273588854224,0.19294415380239308,0.06546438566913873
-0.10729524065664146,-0.03607850936942109,0.062580048428267,0.001286232062111089,-0.05528941943766809,-0.018882111914389446,-0.04965842663218368,0.08994972695474478,0.07679560429220317,0.1824175201612287,0.03118822059496516,0.08346739616392254,-0.09705575812742792,-0.1855444849070115,-0.1103047665553941,0.19347181302008143,0.030656672334185696,-0.15354169783073687,0.09591120140376723,-0.14465041215291458,0.0986274370694792,-0.17259421887012819,0.03195423553752907,-0.17872448964009102,-0.15254784708908142,-0.10115248890437054,-0.10211162063237081,-0.05918183420203958,0.1305052842414267,0.14092761804346407,-0.06229208532254783,0.02669562259166996,-0.02656652217457075,-0.15886666672478114,-0.008068979802258338,-0.022719510763957607,0.006376407087326696,0.19622634183190155,-0.05852280915558026,-0.02557898263878082,-0.011075115284550345,0.10251252040220882,-0.0693388900775881,-0.024051507505432144,-0.03091579608968426,-0.10367428641843629,-0.17026499106574033,0.13153957488947585,0.12717233383549964,0.0617355201328331,0.1005899288874415,-0.1292180798415833,0.19673017586454167,-0.008170276485205644,0.1358137883092037,0.01704850597223611,-0.11517638462807055,-0.05902896935060832,-0.19368431099584782,0.16434357843171546,0.14473288917656135,0.10157886214116398,0.09502276614753624,0.10427116208259365,0.15096938526834688
-0.12145363448580489,-0.04964678533797785,-0.0009752027988551,0.061693520081134615,-0.029617447898346864,-0.14213290468574896,-0.0902607825237027,0.12932655733185625,0.11379772254697514,0.1460706489156285,0.12540401765399606,0.010470228556016384,-0.01834832354391166,-0.04831174470464835,-0.19627865901499622,0.06697422446776581,0.04637475508839496,-0.0104908840596058,0.10634560913410772,-0.04843163022953517,0.037613659441844145,-0.11328518639762489,0.13594177815035435,-0.202371826427623,-0.18811836493646417,-0.171299290606141,-0.044544176451866486,-0.1374658236897993,0.03611160276941105,0.036173642140693685,-0.03693880600720893,0.19516665912023604,-0.12599182941355988,-0.13482153022745855,-0.05257184685725063,-0.012078853701116722,0.051324928400644704,0.04874481306999859,-0.11496090302654814,-0.025798344653690096,-0.17213042842535398,0.13617207136464657,-0.08417266034942195,-0.056685167391092764,-0.11933995848463558,-0.08903478137488961,-0.1019616462750282,0.121092148821278,0.14739040667409853,0.06315597907741678,0.21463338541550292,-0.13583729513731158,0.15689214065949703,-0.09787117767383223,0.11500401648774165,0.18803928772794376,-0.005200041828804261,-0.13793059798986412,-0.1613288660214909,0.1356458394245728,0.13242141550705444,0.02383156366928903,0.12615735978848117,0.0357140640082133,0.03796463850544464
-0.10689484984907434,-0.18728458576556445,0.15320461776158817,0.06443928389026263,-0.08592198854944436,-0.14956301240178654,-0.032808459123797006,0.13915811134497097,0.08820198884396557,0.11731388542888066,0.13548828166025242,0.04944864280819514,-0.003443317702795838,-0.16094105398142183,-0.03667399663039367,0.1093685222302909,0.11996415649758384,-0.15931388565674703,0.036124891554264425,-0.07174858710947628,0.006357770265026312,-0.14950389367300515,0.049729070583583876,-0.08619288798514987,-0.09297633214892005,-0.1779130011103298,-0.07022289212686693,-0.10450111922343613,0.1786293311740539,-0.0026863911171941647,-0.14381113151780434,0.05622949041406181,-0.027624414777913813,-0.05130795655422498,0.039952639621953584,0.009370502303435564,0.11437426793992489,0.08885158952003266,-0.11334358419903798,-0.0989837418769611,-0.09423407761458402,0.022265890278401052,-0.05230520620085966,-0.06147036134821755,-0.09931263095547524,-0.03261670563162995,-0.05510202767189184,0.16486867995030852,0.040460660787639026,0.12274426649272427,0.08000544043086084,-0.17328925024313074,0.13284532759919881,-0.08087499911516695,0.19964034613424794,0.1287549268650793,-0.05684595544501745,-0.17465404270700693,-0.005464735935167482,0.11976989606215716,0.15341549959492312,0.11463344417264736,0.1399844943559466,0.0603327832403126,0.04257301006448313
-0.1266097754312752,-0.06824572767507876,0.19995596066706078,0.07339504845354762,-0.12307227412941994,-0.19212733578041186,-0.16945084248282932,0.060202765679962654,0.14894833739078908,0.11925089090070197,0.11119670522186886,0.09624459470062337,-0.10131171690735065,-0.06935187831744305,-0.10499665008406915,0.016821183471359448,-0.023742510909765514,-0.1403229809119015,0.048476748646171054,-0.14900847151882515,0.1223553158222131,-0.03564897202492694,0.13434957389811428,-0.17582616849031946,-0.04545735025210408,-0.06539794216733004,-0.19516412640004507,-0.05325445119654191,0.0992372908404706,0.1737913079232727,-0.02535595659820178,0.11124642547040169,-0.1740976141036073,-0.0638366606120926,-0.003432267282519118,0.08223278661443621,0.02179529892588212,0.21407816097643498,-0.0422014389130862,-0.10051872012835406,-0.12251455855882318,0.08887765443532972,-0.034423864630684906,-0.18241450524473313,-0.013978220856593249,-0.044774506948031555,-0.17073608077330074,0.027146466529643806,0.11637925066960662,0.021648475401392725,0.1948919839856662,-0.13922537363032075,0.08640537290847632,-0.056704028523017966,0.21295450974382069,0.047550139075237474,-0.024055770971262734,-0.11176334195122409,-0.1689374182705127,0.11323707425420082,0.08982042561698307,0.03536657833688304,0.18287301922808713,0.054589970926858446,0.047980152342542846
-0.1186474777352432,-0.19111494428580622,0.1272177445943864,0.1272514576663901,-0.14328150483761776,-0.19103051556659595,-0.02584196368302793,0.050823306957794655,0.04496275183652338,0.01372899900386502,0.06607488762833594,0.07996270725618661,-0.010875713689442046,-0.14916481233607107,-0.0836710781555594,0.009631290652407374,0.031236659409139552,-0.17639712580526629,0.1946591451080271,-0.1703882084582311,0.07271447823592167,-0.08004445081145835,0.07466512372837987,-0.16894099486274644,-0.07690002566172545,-0.024509257063943756,-0.18448547472342286,-0.042401787583430973,0.20042098122563118,0.09615684072154894,-0.1669156809665918,0.1192025739991425,-0.08504725572311908,-0.05646023083518443,-0.04724177306343878,-0.004581150246219156,0.1158624602662567,0.162182892349809,-0.013811961181605268,-0.1809755848842994,-0.11943413917187533,0.1082248599016388,-0.14279509415577823,-0.05818352643922029,-0.12151923749669351,-0.007190751209898397,-0.09888613368834819,0.18417447377798762,0.09907552269317685,0.019340574533398425,0.02235043767217519,-0.05607863488712376,0.030549844743195553,-0.2036615286430299,0.08745543208285811,0.013857740706959505,-0.19880980125448877,-0.03628141164925796,-0.06071937960273278,0.09991466763950917,0.03198184412196211,0.014424506562313272,0.12025442997867697,0.19353809266492136,0.1011740823448994
-0.1183250499212019,-0.1633173460356131,0.14186275940030704,0.13403675986593383,-0.09531252423553536,-0.010266806894789622,-0.1625109264747977,0.13134226784352004,0.030627159852454282,0.12041476110600831,0.06790707247079869,0.05199935318523424,-0.1051046799624938,-0.04732715720849748,-0.057787676857397906,0.1531786053182745,0.08933038230780245,-0.05482158948921106,0.11626635024362127,-0.13946997459779567,0.14868093763560356,-0.0613638449317916,0.10325384407938618,-0.16570344639790296,-0.1887846734868155,-0.053382335997247905,-0.10951490831740154,-0.1290472131965507,0.06821815559040012,0.05955076583276415,-0.09775753443161979,0.034921812778010305,-0.07226443544173881,-0.06656724351186115,-0.07697519631795574,0.07662322952305539,0.07643312532773824,0.11441902668277215,-0.19829244610877453,-0.011923922507528953,-0.09304746322987244,0.13173024547634288,-0.12935369718368875,-0.15303280279987155,-0.134276576757861,-0.005492243917539756,-0.016028782128076628,0.15929002912360216,0.07954436583889249,0.1710732142455578,0.17959892061510954,-0.1401596390129159,0.06077185669662051,-0.08306472852568726,0.023118881371355676,0.020504770633948573,-0.1138235820573482,-0.0568347758549408,-0.023860466185491754,0.19704272049899133,0.01056200876399572,0.15959980358312195,0.14913124488714133,0.2054672733643734,0.18401770271693527
-0.0966344267888245,-0.09333290819188658,0.011502327019674727,0.10248946342657217,0.012456449270151349,-0.12420382944474209,-0.057437761525257286,-0.007724980663296165,0.1574740053901384,0.18853628682646312,0.1496009890268913,0.04100386291762636,-0.06386155275488677,-0.004983027589985967,-0.13919592174818682,0.14456473387577973,0.10851840516656923,-0.09628246541233561,0.16506724983225854,-0.15260771351599245,0.13754430436231968,-0.16389818631163766,0.052159050681713184,-0.12181176447438942,-0.1385885269027379,-0.11917041233152388,-0.17592244577476068,-0.142686431155152,0.14398896536754127,0.0953074739606461,-0.10452512544294458,0.15200395992224966,-0.05352114630041508,-0.008671862404522727,-0.09457038892781178,0.05777103863895627,0.12062361015363197,0.057506645080289125,-0.17688265350608068,-0.026007254862639644,-0.12831231843445212,0.0172977984244238,0.0015110861864601787,-0.030507715677591214,0.002772273317185824,0.04073881868659822,-0.11781550785880238,0.17233901982619523,-0.0004921790989657653,0.15576249655431595,0.09890566701197637,-0.05075446816344826,0.13594458584260624,-0.12365584600100811,0.13137535362937847,0.1635883136791008,-0.13275423131026987,-0.1875852425954934,-0.1253462686952715,0.015643673965002894,0.17410199772444745,0.1644325077538713,0.08227364221401123,0.1700518585798674,-0.00035905093900815186
-0.11871072565311436,-0.07220501501932185,0.06374020977634752,0.01762006630339263,-0.15723258198370074,-0.153728537917809,-0.02627062104348792,0.03855169177989656,0.03599648622824922,0.18248904279947903,0.02512594302906947,0.09998688308419156,-0.11170974622588122,-0.0038047273990894363,-0.018758418378204935,0.18608332423280138,0.12484179062528493,-0.1682681459226162,0.00585900682133585,-0.09326174405085152,0.12790871288161187,-0.18864946474334926,0.17508790790662698,-0.057197990674191374,-0.18538307195381978,-0.026618249767058677,-0.17436528626296818,-0.13119892635462332,0.03712930710320026,0.05612506526303302,-0.09218506177621008,0.1874258018132827,-0.1471583440711759,-0.19099240713149623,0.005240807738729867,-0.011378721970553498,0.05742326336253308,0.027917693450141865,-0.10210167385309467,-0.04467085895282204,-0.05957028977240621,0.0357944973006881,-0.026746168789580693,-0.10651958541550278,-0.15657682414075325,-0.0650809426878181,-0.17489479696520618,0.1992763141367772,0.06909817183884792,0.0562842386860218,0.11511714999548267,-0.09264462179284068,0.08127029894433088,-0.11992694015102559,0.06958325989290494,0.1313807112547201,-0.17257398390938658,-0.12200268446607318,-0.10805373057856546,0.054463918171278436,0.1484890532989144,0.09643518851142524,0.02762058922294093,0.09774378073770004,0.14751048415674356
-0.11045390864786135,-0.09394340738035413,0.10161722190162972,0.12111413708671002,-0.14782149090410165,-0.08284729795630527,-0.005898041731348951,0.03477276587229207,0.043821180997468755,0.13405678499629797,0.19911549287958602,0.022994516237432535,-0.024887680006275552,-0.051613932412484825,-0.06260832657812489,0.04427171249743488,0.07539085341330973,-0.17999818588827204,0.1397409093980973,-0.039191523204504766,0.0536635366208086,-0.0056987923190793864,0.16148670953305544,-0.16040355912001286,-0.1678451958625543,-0.16176251411864462,-0.1219190893744287,-0.0868557341781621,0.0665496319678146,0.05716841514163009,-0.19150080362024108,0.040993456314574885,-0.10969428491518886,-0.19288879955905353,-0.10412376462670368,0.03711144519829781,0.06519328230882039,0.18359903103937233,-0.06408469997598565,-0.040170390950525284,-0.1522101342393402,0.13054288251032475,-0.14417421741743516,-0.1843752688086256,-0.1379612797272971,-0.041922314087085626,-0.19028877569245364,-0.0028134197739619828,0.10152397959146224,0.08750091188092309,0.12333914720235191,-0.1292281937245536,0.051900721323176836,-0.13042966650853285,0.035861799279761075,0.08759355194881899,-0.0693045691335899,-0.0618873748382281,-0.184955889709705,0.12685351578695245,0.049082330694873846,0.08995101328346561,0.12571129751590074,0.04631657349530882,0.10438702725752627
-0.11235702857406502,-0.07380080295920141,0.10286940496081308,0.11033610539286766,-0.11245879345896577,-0.19053871357304114,-0.06636044898006468,0.12114650718625188,-0.00438535650846955,0.026004661626293533,0.01611408233020392,0.19189685107924512,-0.05993376535778291,-0.03520607680245271,-0.01600255745111955,0.04094376152487876,0.13234472734730954,-0.08748646609073465,-0.0015673101845360491,-0.1302478759533766,0.0012476529264975247,-0.0838690057030518,0.1822267899308276,-0.13471421109195034,-0.11787525934044257,-0.16330875025278083,-0.08560928829991868,-0.10981445891379275,0.01755591420481699,0.13533667180404296,-0.03288162531161052,0.1840855500562752,-0.10841409799419112,-0.1936747180667721,-0.10046553386368298,0.13243055049591765,0.11338115108127836,0.1075743358877895,-0.1590027467665398,-0.197253696305492,-0.10149224585887916,0.022582376930841246,-0.05133899913235044,-0.1079186484992267,-0.11200954939027953,-0.040482783442548256,-0.1206008461840954,0.00445336607347368,0.060075093782966334,0.18451913501686448,0.025743141410372497,-0.18896291892770758,0.1536677147005345,-0.19149875495802346,0.18907764262674567,0.06988041103800745,-0.0064869508418131895,-0.019237236872794546,-0.05597039348435899,0.17983666831265496,0.06491902680389323,0.133812760205927,0.08222544362327763,0.09053638747823367,0.11248026166355282
-0.1043055130175296,-0.15062421186631714,0.13074845772316007,0.11094117800942764,-0.04397544581888193,-0.12026790729016495,-0.06183846282533646,0.12493940577086678,-0.014787098230702633,0.15819370790467865,0.14183928356541445,0.12348039462611148,-0.032000235927271886,-0.08705552744548976,-0.1619664247203137,0.012100461416953623,0.0011959597996531012,-0.1848217456455773,0.1318324370479068,-0.0034183417947718157,0.06397211574760611,-0.06364182011790676,0.09594126374773758,-0.07643185215058247,-0.16271763675513828,-0.18010307919647411,-0.05533009306973284,-0.0434174727260229,0.010597318434783298,0.13353358867785234,-0.16389330872071872,0.1297800420819324,-0.08736367686163302,-0.00939688884695291,-0.07253336030971282,-0.001570700032411175,0.08083177417599151,0.08782383071018371,-0.14372120459640833,-0.1042917739777573,-0.09449310275246987,0.04649469833279783,-0.08822920967590202,-0.10577564544512562,-0.0518280139140813,0.003947904131966646,-0.12729589878460543,0.11199507255621181,0.1249844101069934,0.16402129788032585,0.12002373805268333,-0.037027245232099694,0.12411643764942454,-0.03431679377666029,0.07480605488428338,0.17872791568594604,-0.013160108561239224,-0.15578397111703937,-0.07113605182509507,0.16668969818396662,0.15924150855527086,0.01860841484203164,0.043901915082544464,0.1006871687094967,0.10133346876829527
-0.09693555637823242,-0.10046459359935944,0.0631755625812213,0.028262209977252595,-0.052510401176051276,-0.01724113837935207,0.0033490513541019873,0.16647513782086945,0.12782867908637713,0.12812301689708572,0.137605941150275,0.0760819487142392,-0.01126616583474795,-0.0856513959851046,-0.1355315043942634,0.12153823579058144,-0.00759156912940413,-0.1685519908990337,0.04867094566741313,-0.15772696359333133,0.05440291914921798,-0.1666248050567863,0.07455365275186415,-0.11512132938945593,-0.07327462340691113,-0.15096205358611936,-0.053157612935294224,-0.07894430566248864,0.07517805115873477,0.06925552397795569,-0.1622292946417043,0.14134711726037608,-0.14491205905395324,-0.01564593594997981,0.05471705080907895,-0.040689097458379946,0.14391526935197294,-0.004628474868779545,-0.14488163680470625,-0.11479972595440507,-0.18340496576360957,0.04764170823177298,-0.037883262084457775,-0.042708029284212405,-0.012532059184681607,-0.026713387868554338,-0.15929512612756844,0.11909445193030298,0.09504552272207406,0.12071313895917044,0.18265669268214046,-0.1410801422273008,0.09863188477380784,-0.18488226201517224,0.08016967850291846,0.04257550384317376,-0.1485922712666464,-0.0868083215342357,-0.08864070906000812,0.09740824262445975,0.060326929839217926,-0.0015968789843648838,0.1637865940494964,0.04593112612112372,0.1284599912585055
-0.11170807388045963,-0.149913012413435,0.12409973567168733,-0.03866719239698522,-0.14695602758640777,-0.13506833930560663,-0.05340801880698151,0.08942237238498406,0.051990865349496894,0.05225218757915993,0.027122741972081574,0.10094743961759345,-0.17847897169792742,-0.08264853657535787,-0.027370911535914786,0.05230543832717538,-0.0195054404340034,-0.03890268242308366,0.10765231038384956,-0.1248926673144142,0.1324297011943897,-0.12407711569734954,0.15912093442626649,-0.1005344145555182,-0.1707554144364235,-0.07086205169091253,-0.039772471511262654,-0.012708060998846376,0.10440812901921905,0.06104931891995867,-0.009923645420006604,0.07113933305145556,-0.09793372859428441,-0.19544047334826992,-0.04793778634388876,0.09888948012374477,0.08276356600341142,0.17809158411085804,-0.10969752988745386,-0.11316181717121085,-0.08484065366140914,0.10915492582815213,-0.13797183831847748,-0.197331196710667,-0.1898887367690817,-0.05712022366202694,-0.1050093638181306,0.10732368673155708,0.04571711406358224,0.04137615658487928,0.0994042049805745,-0.04158695302105331,0.06190218832078994,-0.14893611137773047,0.1326735716475767,0.07368784946492335,-0.015733099904795284,-0.06048133033506736,-0.1721553698799406,0.18624124792684207,0.08278854615354556,0.15439456465540863,0.06297927383691816,0.1797253634255194,0.014604840018563929
-0.10406316450365592,-0.1719495205917545,0.014500986578989458,0.09321763579888116,-0.0879278868269804,-0.18374047021010168,-0.12178916231918195,0.1271210883994696,0.14392667134799947,0.11813756261685915,0.18950281171430725,0.11875121183201581,-0.002366563067239101,0.0006449786232550378,-0.021388096778859025,0.06571730611360241,0.04673304678091618,-0.1020279540959863,-0.0053535898589670275,-0.08110728317739631,0.029800291023391635,-0.00220803344516337,0.080372967138383,-0.13984164975750168,-0.09149261889227249,-0.1645060462709418,-0.11942268143668082,-0.01713080244002245,0.15317163452911636,-0.0028175785095915654,-0.009895242445457406,0.02224304666277726,-0.1810158997694877,-0.12149092246504178,0.026740091055542658,0.1247594785378889,0.0833362884108143,0.1579488071377167,-0.11546765704979592,-0.18071895220204298,-0.12522259823640586,0.06225036899370177,-0.10580771290458894,-0.06473397186205074,-0.12605235249526717,-0.10327094611888467,-0.19451202502023768,0.036484861899576955,0.0898228647549363,0.1689739619791841,0.04091088108294992,-0.1283385616272034,0.11537662987161632,-0.11383010854035537,0.16458127064415845,0.04059213295799709,-0.1574661195553759,-0.07805258863255574,-0.09180961778495154,0.15442257333493462,0.17340092375195726,0.006947562722880033,0.13646404751434416,0.1001518405251923,0.18308803180206365
-0.11000717161440386,-0.13075996253846953,0.07879314295734816,0.019125901896241193,-0.0951122313403382,-0.0660028414501317,-0.17392398919377605,0.04449534592128531,0.166958648959231,0.19750293100498373,0.07905042776026916,0.13570949174267827,-0.07056185764975999,-0.03599632022959337,-0.17252301556276523,0.040513443337175985,0.08061253010582736,-0.19495966534665932,0.038686627678385384,-0.06373428058129502,0.08646812932359554,-0.1675163511147818,0.06465546890826494,-0.14068515624990446,-0.13126997155648185,-0.08980721776600548,-0.16261981658801555,-0.12378739723687508,0.056028826261732965,0.037541683701691905,-0.060322100463837645,0.17961382991404665,-0.1198422359897478,-0.006823498717303053,-0.011770674151352887,-0.017745930014975052,0.09500598101669532,0.07463050491333037,-0.09652754324080026,-0.18149928279168148,-0.19776725140833787,0.05042887056074209,-0.16160578891561858,-0.1457264632013839,-0.18852859384919213,-0.08829341958790227,-0.015322181723937083,0.06389213356496803,0.04850581069992678,0.030983681041056522,0.06258014835200984,-0.09872040880099518,0.12663274412623204,-0.1480999231512851,0.05662537005471911,0.19910191394104837,-0.01677228509407003,-0.1252290339616134,-0.07000993305328435,0.08289601979268993,0.10435010137150465,0.19443505775308165,0.07891321754269616,0.049325777421087874,0.10412924820961268
-0.11357292301884511,-0.15865902198373036,0.03893744723075972,0.04612829414034532,-0.00316985461244582,-0.023495171260066935,-0.017946840540292726,0.17263440894359633,0.09371224422885811,0.12346397048816397,0.09386090716867142,0.1759706563439167,-0.05136924271341345,-0.15888904540841797,-0.18966335404634121,0.16675642458725518,0.026926186278476597,-0.15288075560147327,0.15548761990778956,-0.08424714131969814,0.013808842545071861,-0.052522731490578546,0.07516125573587244,-0.05672065389096965,-0.14094783398521785,-0.0020241032796530227,-0.15489172858311331,-0.03142395758677953,0.16429657197703787,0.005713788811746962,-0.0574418709794598,0.11410204926849392,-0.013648086721182829,-0.05105704143952747,-0.07017194090793936,0.0884740880115293,0.183997957402312,0.0500996871797135,-0.15837934813895216,-0.011724909694564505,-0.03482393981334884,0.011116039947560339,-0.007370243739258004,-0.18908445741276786,-0.1762245267306381,-0.005553007819598465,-0.07004424411014584,0.002662331359149585,0.18435911615086265,0.19068484868566374,0.129310735914121,-0.04861775322800486,0.13729308982308108,-0.06420046218322772,0.10380698312892418,0.10472016846864059,-0.12916369291745422,-0.05670417978118368,-0.1844211402812305,0.1602317621052866,0.10493161828624678,0.014917525867699205,0.12879304689448637,0.04430351927652866,0.13509554191654388
-0.11451533349542571,-0.16002277915275287,0.08393692819392319,0.11189357179877447,-0.09912639597287182,-0.17293848414591403,-0.09617545411902126,0.10869397376293566,0.1404957735419981,0.10555275206963163,0.11543146669287886,0.14267598998044853,-0.1548327248394586,-0.18614266879986377,-0.020153742907152192,0.05390025709415563,0.04094576732500012,-0.052727280358612044,0.12809262018449355,-0.12569430681586805,0.08994375131314263,-0.14057827859805708,0.07137104129630777,-0.06730255324049184,-0.10245892786401677,-0.016163266884949807,-0.08986338485557446,-0.11600774972388286,0.08104292457301325,0.06636809669031933,-0.19792724123738004,0.08680679223189228,-0.19274434185095415,-0.18756730810189448,-0.032362610121467135,0.06982690212826127,0.01655736391874283,0.0710343123872468,-0.13136763381066718,-0.12017169810005518,-0.08222235251141236,-0.0055940939785444396,-0.08566241632683264,-0.13461546625294984,-0.006220261043099747,-0.008866234037160843,-0.16653362544823125,0.025417481033243188,0.03848503490469654,0.011332017602386614,0.06647329093986366,-0.09784573279238758,0.09422397258941982,-0.2023104317214742,0.08206338823848452,0.11452964063063246,-0.12195120326528008,-0.19046393245816318,-0.1402241779945977,0.011176704093086147,0.12631530471577956,0.11188831918920711,0.005623368636687915,0.04890311308784321,0.12741294759281377
-0.12382177837271154,-0.02274105565873006,0.05618067693411936,0.07033403311198418,-0.1495416119393079,-0.0992244437535343,-0.00043261387587030883,0.08649767522321561,0.05461115819984451,0.12281004993598976,0.02396664710467095,0.10468246790541924,-0.1140729833216936,-0.13989111967393314,-0.0779178852925202,0.0726114145303885,0.057214517144355444,-0.200342127755093,0.17998063179847654,-0.07686264463826768,-0.02024829154447212,-0.08219420630838416,0.0934660008252629,-0.02141228890832419,-0.01700894318547494,-0.11505372222588044,-0.048232350137783854,-0.09970103654617886,0.08622867184338208,0.046249581388346846,-0.08594237024998184,0.2005212364095757,-0.19239011116775653,-0.20243545896984547,-0.07624767531577623,-0.01564724842640715,0.04477606427205288,0.0488621777637499,-0.15443023062110606,-0.05332526129011264,-0.1758975257746915,-0.001585957612401113,-0.11666434935510814,-0.04526619238703905,-0.07947654409313196,-0.12695534693945768,-0.13396250625516948,0.1168878966913562,0.08675729599517058,0.15974716447652015,0.08381594748855702,-0.1207102651300939,0.19717739128048606,-0.061766270219729934,0.04425582756307158,0.0942248999532517,-0.16837022327240875,-0.06254369488602257,-0.040892122373465116,0.17934988652598782,0.19320399326457893,0.12474736204302624,0.022909823642759626,0.13607645687380618,0.05363425133545501
-0.12043395033877628,-0.07588031219982568,0.1883891128072162,0.02779671252751742,-0.143977774430767,-0.08112380873714962,-0.08866544082019356,0.061574079409857874,0.022174133048707575,0.02187628507906295,0.15845854514740101,0.189916063703261,-0.18107198870329372,-0.03769551526122653,-0.12218030894025778,0.12331744152450465,-0.031772128355214986,-0.18832066067444958,0.18295768256465667,-0.011462504412563438,0.027670384153262947,-0.057920492259951405,0.15865330217119478,-0.12234016660802448,-0.046614855872760146,-0.026398293299325845,-0.0874241536002668,-0.1390457388130395,0.08931348757605548,0.12197647456386992,-0.1294396652771361,0.1902613099976585,-0.02769307295989968,-0.11903553060070923,0.06149932766675475,0.009212224044555233,0.08850578177237874,0.02552416916587497,-0.05593721434057449,-0.07128220629000996,-0.04090145086749663,0.05357944325747936,-0.2041398925004695,-0.11932528055942988,-0.0844953493361736,-0.00959330835130546,-0.020861379339048563,0.11178613800833805,0.022212130191273213,0.09424063421175566,0.05381306937000736,-0.07918859477219524,0.03241787350939495,-0.17702727324685813,0.10772842029415951,0.2008701334020371,-0.021838680272122907,-0.10571484388874758,-0.11990275135743929,0.01643426053842611,0.116497719079252,0.20905680394057083,0.18916581418778,0.02179417705881787,0.166867650781349
-0.1090688523569251,-0.11775439561180455,0.08796793665540947,-0.029612866301785373,-0.12060033468752179,-0.16807689952666552,-0.029143101962245215,0.0722264382992444,0.07978515767409597,0.03995532900565984,0.008834953466281771,0.09170918403532935,-0.1891188967154551,-0.05249824475242561,-0.0014855202171172946,0.06235313189383872,0.12375168751692994,-0.1841198844065313,0.0047145985415339015,-0.10033157401684901,0.05360923872352302,-0.0959959124004673,0.20057892856149506,-0.16745252424098803,-0.15093443505591098,-0.11885663023102265,-0.17571712336121673,-0.02564593477763524,0.19498925552808435,0.04692249067249723,-0.005415706479483289,0.15266029315928578,-0.10395197542027952,-0.04109062512610217,-0.06454547285952382,-0.032315180293237745,0.19734336920494178,0.11876195359183078,-0.1332185462770863,-0.11861149387945008,-0.13137035106443257,0.005031756010553515,-0.09867698698384213,-0.09783960352889338,-0.07861368838022843,-0.046320942783636465,-0.14819396383350905,-0.00011896704120993102,0.16882243376058562,0.03512338890106096,0.11546839688993876,-0.002480619748667477,0.1474305354104679,-0.0818232597055716,0.15208936121489725,0.04608017407031217,-0.16712849263601953,-0.19764384807291127,-0.008588619740182532,0.19682018053828754,0.0036761849374608627,0.057699546568837905,0.15796373930140187,0.0963847237513108,0.048300891423075386
-0.1018255819103376,-0.1241085227247746,0.17233532140764934,0.058224000638227545,-0.14834021573421838,-0.1252239602053123,-0.06849885269794713,0.13083400054399705,0.17552504392566304,0.0228776123225726,-0.006091512902691368,0.14819652990090484,-0.08311159966800256,-0.03864089609735487,0.0010071796220064027,0.1777864551286144,0.046551110236452586,-0.13768691757085794,0.026295775867518318,-0.0792449774416956,-0.034548761186225435,-0.07755210490769858,0.08603122090295298,-0.13857043483764922,-0.1731033745133493,-0.016183469851960473,-0.07877607834749871,-0.08644353438924644,0.058095763149496805,0.07307173499548561,-0.03664554818752503,0.012929393861803268,-0.11456539519316147,-0.08511856289974197,-0.08282311600518288,0.11073844714160838,0.15194002493011294,0.046697319092697066,-0.14438187063524027,-0.12242993975432949,-0.18979301630719642,-0.01391909007228764,-0.1401243139769983,-0.1605693607519256,-0.07307465118067626,-0.09370810859765756,-0.159274900556651,0.10485971191581422,0.18209323409395395,0.09193270882019053,0.09317849394039567,-0.1855315496585958,0.06570725756824339,-0.0956863204393541,0.1537352869588433,0.002083570297775038,-0.10828228489843436,-0.09999555635498789,-0.14859316460413954,0.10352992867677209,0.17537332909436049,0.027503427628761092,0.02995251319875869,0.11955835285648277,0.19369506167777964
-0.1260173215672142,-0.09091720080079206,0.14120793357751094,-0.013737085439449216,-0.01113402717677208,-0.02456415254326517,-0.10507781422888397,0.019542682680000353,0.03126624212370353,0.19298579828995707,0.06570908182002941,0.1289191270584728,-0.0282011434553295,-0.01912946497697223,-0.02797285620241282,0.07228005700607772,0.12027603544320746,-0.09880871146983874,0.11330908683114725,-0.132290602910218,-0.0034472027612282813,-0.20525606263886115,0.1640046091610172,-0.19736632569212587,-0.15481452364423248,-0.1444471135151255,-0.06003071784114184,-0.05318878339080183,0.10210163245955595,0.03766634361183803,-0.05101897530383731,0.21438196559385847,-0.1535900897222469,-0.08531173576676998,0.03805160985365968,-0.0022802955043031664,0.08506787137323507,0.03501596580682007,-0.1729953793071746,-0.03811094337638344,-0.11461876827259482,0.08383410956117063,-0.147430901392696,-0.18686610569581164,-0.027296100963673645,-0.13797041893241263,-0.14909144286556456,0.048551259863127395,0.06950898325622777,0.017966262883071987,0.17279857449579802,-0.15453320104662624,0.05319919705165374,-0.15596560499718093,0.12445234286009044,0.027520384915901606,-0.17334379383112253,-0.1689681980889344,-0.0888852833751691,0.023782302183315247,0.04815162268735901,0.1341964176846711,0.053044814587188474,0.04187535909047668,0.1518064404996751
-0.10402229508655457,-0.02835380117629386,0.1503093623856593,0.06579765897265963,-0.16123806073305297,-0.15947379290744026,-0.050769225338308556,0.16190539909226676,0.001529107935215205,0.17452910436713004,0.13020193223037993,0.1829032088909899,-0.14333029844522752,-0.047178809190295115,-0.030177435682208587,0.17912676432102298,0.040457821688760144,-0.0788438457426275,0.013677061551955121,-0.017220006892327278,0.08922079099512535,-0.1364673946217265,0.1029958755318806,-0.08749404061551025,-0.07236695039947445,-0.14466272790011067,-0.16690330755978847,0.005048099880575511,0.1074219667444484,0.13490574797286808,0.0046561746825534425,0.174460373292726,-0.14199222354878455,-0.14166050066513283,-0.07982251524276326,0.007374312903871049,0.1519966935736462,0.04985509114856449,-0.17634850399592253,0.0007695323090263684,-0.1017235746281396,0.12470113044471576,-0.14891997721928096,-0.17566194226776508,-0.03276259265759547,-0.023943381045180585,-0.19070316301963966,0.1831118182382827,0.011658269081628814,0.12536628352624485,0.17654367274656896,-0.06432418479707501,0.07589436826397825,-0.027018140948553853,0.08479170415270927,0.06629382912695386,-0.045676046653637115,-0.08364330279436805,-0.08813393936803247,0.05608612189211806,0.1495978478178194,0.01748048539764219,0.11201439389604143,0.035235213069532145,0.12072470233792103
-0.10589943524957379,-0.06554594464759013,0.05192004822241962,0.06770096212273632,-0.07943646648336047,-0.011615444717056247,-0.004854710705400711,0.14917274678440773,0.022128568281451533,0.05351571376622354,0.11131661728912949,0.17542578025505806,-0.1587900710999011,-0.17196525684650732,-0.1172541049946796,0.18098957049314646,0.003927180996058541,-0.15265668821441605,0.16427927897593386,-0.1903590277782257,0.06319019822557899,-0.19278818866238429,0.031585961503940316,-0.0319149730362162,-0.1849457354836161,-0.03295897701227276,-0.1490478108163606,-0.06923343216901091,0.16483414791008746,0.028775964227674096,-0.06979770469847553,0.07257743479661245,-0.007878547872801091,-0.18858646917350447,-0.041334166088950436,-0.010376601873245874,0.0778593869260158,0.1008480385056239,-0.08958474170959951,-0.13363310459293595,-0.11513811850044231,0.026496129609405422,-0.10078922002975885,-0.033159567720873674,-0.049252952679120464,-0.12754558262171073,-0.13537970290599968,0.0157569578856917,0.0005289754965422201,0.14955043365155027,0.083488507078416,-0.1551001643786725,0.012337624694666358,-0.06151846495215627,0.17206280859252707,0.0008865997218036409,-0.1518138219173374,-0.030730862524086484,-0.10168034149113013,0.060074590644072445,0.16468700237483538,0.10225350767859313,0.11827296111995919,0.12538299093267943,0.1917813792199388
-0.10477091710132157,-0.1632253126162467,0.0439979521065097,0.02711885771868944,-0.12292726524363118,-0.08168268845590222,-0.14852321722862102,0.14034446227068953,0.12622955387399884,0.10005515454939058,0.07017560145697466,0.0061936265633200475,-0.019941961812636824,-0.07367732640805476,-0.03258143269900598,0.15877019148178761,-0.007946862111069092,-0.1293961276199224,0.07969917795529036,-0.14641524964724156,0.06508786464977007,-0.13304831711427478,0.012008154196735676,-0.11130706722063309,-0.09250729105892777,-0.13404362092428293,-0.09572206209647068,0.0054778014893132115,0.0946084131898552,0.012889966102344271,-0.04484081956590157,0.14211179173393396,-0.14328499836258995,-0.13974295633769238,0.007278782633681474,0.07063382052986307,0.1616530660327385,0.1591741623557865,-0.18728088088189085,-0.1235570938072126,-0.10845785035302472,0.03390699261638891,-0.14299050833261243,0.0028202490511824684,-0.16246370502439533,-0.09235478609363462,-0.13191601431651595,0.1517549231657851,0.18654730929031893,0.11619994319825315,0.11706715426731136,-0.021135892554604793,0.058246315273760445,-0.17051792933889204,0.12844803264155438,0.03318279799053407,-0.0749739308477734,-0.1820293938962939,-0.10420772082205221,0.053566511786707856,0.17510015073482144,0.01526931093633956,0.050123122131410236,0.11838662928252193,0.04513582773006857
-0.10551086004812738,-0.024744620487333422,0.14047877213258553,-0.029146297296850202,-0.13939286909900184,-0.005593973610010872,-0.1390342105460191,0.18599947954901921,0.14149039544686648,0.05921123814200897,0.10071962524069443,0.13240454586982453,-0.09379643272827723,-0.059757120836373225,-0.07238811564470952,0.15402250000410775,0.11549366062878866,-0.15763893842424634,0.12947397139519962,-0.024354855090209467,-0.04011968083437012,-0.17895974545429874,0.11587575058474589,-0.11940543292951872,-0.13052022273799,-0.13901405597891925,-0.15575974641898666,0.029657824844880123,0.16678608018209953,0.06863874651437109,-0.19486463747206542,0.13401215144564455,-0.009383709831517591,-0.16726012963567471,-0.04139202754356795,0.022885327551174745,0.04512085901188802,0.006310674308092019,-0.10575152561972405,-0.10336587722572993,-0.10985052331653977,0.05351194189960877,0.0036215133510919535,-0.18078334830075424,-0.18652696576574163,-0.03174753750407685,-0.11480733518060537,0.052114297137699085,0.17511731648350212,-0.005100800541353102,0.04142016031258996,-0.021287293006107915,0.16847999202550498,-0.04536866505748346,0.13270197743334594,0.08868745003511379,-0.17836949000557625,-0.06906880416778724,-0.07795339472027243,0.16000329812858055,0.11603942461283372,0.043721777639449504,0.015047243529132715,0.09809056006425478,0.1547307596734998
-0.09684997877676896,-0.14586811682832604,0.11619300055269928,0.0452719861321294,-0.051366114439602435,-0.16244041633877093,-0.15404078936295723,0.06475309756607309,0.006006841372629969,0.10164661371317747,0.16719462607349564,0.062410571574263655,-0.017154990397354873,-0.09812397241723608,-0.1742876841533074,0.049619938675461425,0.11577298283468723,-0.07288148246915592,0.0780376008682664,-0.08839079469165988,0.045476641643036664,-0.12383375793268939,0.09935142699027488,-0.17890504492094697,-0.15384320578747238,-0.0967800913057047,-0.13737268070976855,-0.1330950871815224,0.06468447517972951,0.048493273363858176,-0.12501039599036173,0.07654506614363363,-0.13918842837654438,-0.09070102190033116,-0.10460842292106624,0.03456144312896759,0.0007495524734127423,0.12975916745435695,-0.02547291046373565,-0.17699085388070554,-0.18520117002537584,0.1394575599121783,-0.13088784499128225,-0.160202221512127,-0.09206855158951796,-0.03808285564575523,-0.14452734528321848,0.0033405583830528438,0.06111764944811197,0.15219517569524676,0.06189086029622779,-0.09060728993227887,0.008719457345117745,-0.08486027052264462,0.1900642056383653,0.11720068839507933,-0.1180730595472987,-0.0642891131092393,-0.14304866437467054,0.0027699114402043997,0.1839858329116794,0.06912091589737382,-0.0009167995624729993,0.18945745676951456,0.05668867292408005
-0.11246702445630118,-0.02567334826312205,0.14563168969011758,0.10554026776041925,-0.02183212957342404,-0.011575786930333206,-0.06957279334873831,0.032246926474354023,0.15297224471064996,0.07058480756110619,0.15345794122203965,0.09190492414248698,-0.02326099216312392,-0.07924121922973383,-0.004610182443210512,0.06840991585296459,0.1007189586743711,-0.1826564045225835,0.14195457311891416,-0.17940463158297718,-0.012158374865259846,-0.015992426072954893,0.07717084536393445,-0.18984619278850715,-0.11356757119729953,-0.17949961924105998,-0.011798083151000428,0.0024114621872514614,0.0036417903245669903,0.10754517662615931,-0.07511002557516303,0.06681787598432162,-0.01740701194016647,-0.02487986647183168,-0.0227366099889479,0.13458893043875622,0.17277035682426653,0.08526626798124487,-0.16453183130919286,-0.006608503149957105,-0.13537281828389094,-0.014246424623318179,-0.004142083359178771,-0.16606787938952486,-0.16885286206819478,-0.05923072338495664,-0.14846024424014043,0.019475912939999427,0.19900761226674651,0.00501047578376462,0.18088584182786582,-0.17925519468262824,0.019066973009095645,-0.10221606305917354,0.16756467758611995,0.166314438614545,-0.019986909683452486,-0.10422794522029118,-0.17136246321716134,0.024138074545436563,0.15538097225418315,0.10611414049704618,0.1839152904458813,0.16310675874648203,0.19947217132907705
-0.09021517242045021,-0.11688416982495758,0.1679560119885021,-0.032102901235284205,-0.010701989742545912,-0.035711559964556515,0.011893680810206652,0.06738240914701189,0.015920336073193247,-0.011781994734260217,0.13994097026241079,0.08174026099552521,-0.07685399166096253,-0.13101620893553226,-0.01700825059284328,0.02096542557759259,0.05565859351294057,-0.09249425935811795,0.12779542550837744,-0.18066489093168114,-0.04644048830869784,-0.06305832529192577,0.16150037692786046,-0.14425329495806494,-0.0734084754379522,-0.16141747333182976,-0.14031653661884994,0.04009442262843408,0.12657335045485085,0.03885541541476766,-0.12188959607154208,0.024275682941229,-0.136284228059498,-0.14210181328550073,0.0029805292047008626,-0.048671738157382134,0.13296007557200423,0.15197254863645326,0.010278427253775358,-0.16335979802437944,-0.17544735213142457,-0.0040838960556450745,-0.10470385022922436,-0.13460321127377187,-0.12539935905550234,-0.1234693293936955,-0.11274630925917388,0.15764217168251946,0.13965060444465321,0.16534718858717928,0.10649575066591706,-0.1736137900621837,0.11261947886404026,-0.0034365877322157707,0.08518603945409113,0.17252396487003693,-0.04755041075927266,-0.024511354557772452,-0.0918604563271552,0.0376348222889181,0.13688589049079125,0.10146345467170578,-0.011137648974558644,0.16927509511305106,0.09302162258680438
-0.10450859122182612,-0.06896753026527848,0.04479485370591406,0.06785015444376931,0.0149213262274149,-0.16423406845536706,-0.15876817987831712,0.026234154619105218,0.05856029929375251,0.03034099207986118,0.13948126820753137,0.025014477770928648,-0.15990447994477308,-0.01047060060108265,-0.12308807402094205,0.07966707899316848,0.07926367895930594,-0.06277860365924788,0.025300198492848314,-0.16588732611415485,0.11460771911233208,-0.08353960755853121,0.17111940245546312,-0.17478408918897576,-0.13868525375896598,-0.12736591983115825,-0.11922195986682943,-0.10372900302721806,0.15322857848912563,0.182865179078252,-0.016320586703261645,0.008958890892439786,-0.08025462284596839,-0.18121225583700729,-0.03994195176368819,0.11644289434991428,0.18546734627453487,0.14142085618763495,-0.10601697836898576,-0.148564773998345,-0.022504692554372947,0.048925343938592845,-0.07127579910456934,-0.08751078835018947,-0.14143915266347015,-0.05739980923776828,-0.007547584110178167,0.09084815244891223,0.1750168358080889,0.07741712696967507,0.11552777035643269,-0.16593462851860283,0.08751602649513796,-0.041642446526108,0.08540490749237759,0.18095110173835738,-0.0021454094090156478,-0.1340562114206609,-0.1793101951120786,0.055600111297208855,0.10216399872615826,0.08321708814755209,0.1060700738378012,0.10385171009429597,0.0975427042767299
-0.10083610941608444,-0.05366572561108815,0.17130434386357973,0.029584312855729846,-0.032810993714348015,-0.004207667020545403,-0.04721073841468121,0.15104091942681852,0.08943306187197554,0.11677170122836444,0.10307312505413385,0.16795036987548756,-0.1019251994767432,-0.17579052953393204,-0.1339853282464209,-0.003174183388204308,-0.0008793964772849245,-0.01334514101885706,0.10029595952204598,-0.1616089928654768,0.12017970866696873,-0.11490334041756223,0.09616329933947858,-0.10908993963543726,-0.14461200568403484,-0.015641236821808232,-0.04018938292942298,-0.05985563288836549,0.18872246184437588,0.17673611702993325,-0.05441297657379812,0.1602815440417506,-0.09292370736471224,-0.12656729465725908,-0.06268060822189865,-0.006085014706382339,0.12367096549088337,0.06495876957227482,-0.12918016006359365,0.007359639265206436,-0.1685383711539728,-0.009192365166479208,-0.024052578360191264,-0.13853135103243308,-0.1445167890534474,-0.11741791820962533,-0.15962523724465463,0.08146254307245165,0.10410189511575875,0.1386092649016473,0.17564076559888614,-0.09254225686637546,0.057382296830713414,-0.004722790213562589,0.04818350058886507,0.1518859985272693,-0.045091452621402656,-0.13289536721802694,-0.046929282215004364,0.12358924065297941,0.09018644687475892,0.11051256582150211,0.005718085135660283,0.07749999995784558,0.1297908542190566
-0.11933461556876385,-0.0556471741023612,0.021642033436474892,-0.013028805984525132,-0.02077023194917658,-0.046107617060015274,-0.06557888785059336,0.09964696955729369,0.18108796927299628,0.16041796111554155,0.04108488459431297,0.18791942879987042,-0.009072743239851425,-0.04477215477376308,-0.07290967948139798,0.10879169547095759,0.05040103332133249,-0.06964249328136218,0.11963633635938475,-0.18495001457598118,0.06234907470863136,-0.15996636646700194,0.03497373386471619,-0.06442766261638405,-0.038167403817164006,-0.06127768233463567,-0.1668612737670762,-0.01917947549354233,0.0362795763846787,0.045198145590211,-0.013941912218602366,0.06047855599995179,-0.19265184311150735,-0.16117307798302755,-0.06279861415117986,0.0992064505373711,0.049907588990527316,0.09191785209004358,-0.1628001530099586,-0.1952893733749946,-0.15565129739037808,-0.004711723239338421,-0.18743584597711915,-0.17097239750870782,-0.09902933656763167,-0.05674706431395607,-0.0882548138569593,0.16014063619317753,0.1857895075196877,0.1168547815073354,0.1643424878219906,-0.12339765384756703,0.09505721708308675,-0.1882099150213547,0.13808856730404165,0.08877297080990772,-0.004215397211558607,-0.049273598311977945,-0.13312366558695768,0.16860686309070697,0.08281320311641652,0.01796528672748083,0.08695240264927909,0.05106736079151006,0.054201969827542426
-0.10825608811225376,-0.13181674197662224,0.18622505800858916,0.031306943326576804,-0.07023040009952382,-0.06547839752195016,0.012823733023550126,0.17205656805327194,0.13210326672123557,0.16316720282788771,0.08157279248337487,0.005180047366920992,-0.041662349418769444,-0.07661581108741088,-0.17952967556603033,0.05002045434368643,0.09956894158674251,-0.13956631648865306,0.041893103249936246,-0.12835743350553577,0.12731234333868924,-0.02153609978578411,0.1982787261813633,-0.008014754531344332,-0.007363559999697076,-0.1707961135826354,-0.16448994932311023,-0.03301072419258491,0.05004290040158851,0.08419153629268489,-0.18994737042074128,0.17508019248672468,-0.11312743136353616,-0.038296114671106746,-0.0690577274890335,0.10935298944413945,0.007767322475732682,0.052692782703106456,-0.02819679657711827,-0.08379448701684004,-0.15360270766086093,0.025512989124304726,-0.10949962038793046,-0.09088613347997149,-0.12192665320377143,-0.06812076522652662,-0.006738868138291958,0.11062962190013031,0.16661556121868049,0.13630687314665568,0.14896715053211332,-0.19675630408448505,0.17820450919751543,-0.17991183428635732,0.16626996856642842,0.019118766808066217,-0.059611934598783375,-0.08313751845878913,-0.08417832541336945,0.039107097929904536,0.10494373680854704,0.03962992889405242,0.13022405163431075,0.1553399670384294,0.051899343342380395
-0.11791642738182884,-0.14659601029221292,-0.0015640310400922217,0.0851570238917836,-0.09418203948240872,-0.10436834388147273,-0.0891558868425942,0.07048483479043041,0.09122872994200014,0.0630206392302884,0.15438746423614083,0.031473335333198016,-0.10990917120435648,-0.014205944704379227,-0.08532332750827971,0.19133172395472545,0.09018654923766542,-0.10481851272696527,0.1995895748440138,-0.14736143285387052,-0.022856781809602378,-0.17277845584060733,0.0334473161735358,-0.1597105946940517,-0.1166313902293868,-0.11803986122641752,-0.09993369361945607,-0.14259708348238995,0.07126848045306668,0.021209503241739792,-0.12101431243194327,0.0938977045501549,-0.004045940031613765,-0.05250375430250857,0.04782961569427723,0.06755751722208331,0.11110929502172293,0.15344020738146635,-0.045198699737648965,-0.050803671170582515,-0.2049130597759349,-0.01360723540890664,-0.008462249994902816,-0.16812696233349744,-0.07559469135079173,-3.452192352054249e-05,-0.12223370050403498,0.1665713843918544,0.1367738454707442,0.06824248890611213,0.03279554376187841,-0.15000549466296897,0.09760440614510006,-0.12118960748093117,0.19328745137170894,0.021581813297341105,-0.06564724136208866,-0.13551054507060728,-0.0905342461815195,0.1362671847633537,0.04264003203107675,0.20104564060119162,0.17313798213194945,0.026592275440900377,0.03082232287577429
-0.0971092737352752,-0.15439525076278848,-0.018562278813778817,0.09253521974260787,-0.00016869183628173798,-0.08587313951300449,0.007264112182444638,0.15506181334444355,0.046275914579794464,0.008579324327616168,0.1808934594973471,0.1678834052882516,-0.18537820420722267,-0.08458541260259472,0.0008128763525311057,0.1773579880752182,-0.04563676557954491,-0.054526878580002144,0.1649149609852743,-0.17823574748117194,-0.032194236923045426,-0.07064552309569916,-0.004348728031899923,-0.1548417280515419,0.007514642076859248,-0.08667244756939273,-0.053079569109258255,-0.03922165942194944,0.1771413504183237,0.15796583183657992,-0.17977315775692634,0.12592021899230477,-0.06754165414295656,-0.16135777480403182,0.05111118736160777,0.12836679261890377,0.15039670290847415,0.08955510383103339,-0.07934497450614464,-0.13394886076344373,-0.07203522971661418,0.12534559619966817,-0.1012246609696654,-0.019762290603848997,-0.04759202130801657,0.04369276436834144,-0.15485800408870096,0.13089779022094758,0.021819821440064596,0.0532527585341086,0.17760474745681037,-0.1794162287734387,0.047417451609711427,-0.02061788469083469,0.16793368984462742,0.0009101291581790035,-0.14249256557335208,-0.010661819114633441,-0.04733033577295857,0.14667437454159707,0.16432065028323597,0.14830171387180013,0.051194141064680614,0.15233454544091793,0.11207102209595138
-0.1252055340730818,-0.16919268988574837,0.0936458865586185,0.014155732822442901,-0.0853698679679173,-0.06541299481704753,-0.14017713900245307,0.17269138353673527,0.07266995446730296,0.10903897124652719,0.18264593306468555,0.014766610194552388,-0.09469097671643707,-0.012798281908705342,-0.08370394514138015,0.019652623906401104,0.1299118894742376,-0.09102908675590132,0.0428138951924398,-0.0392098644787381,0.05840205823919291,-0.06125331424867985,0.16903721620142234,-0.0984779293833925,-0.20770946696268813,-0.13548408801181946,-0.18961727306391668,-0.14435454090028096,0.04696344576365579,0.06264483854099871,-0.16443663097022804,0.018772920784619042,-0.08655496785580861,-0.1729851850549968,0.019704107400223967,0.0026484486839712085,0.0517875865036457,0.09469810880658511,-0.04539184613102893,-0.15013698212599394,-0.08362234138115872,-0.02057317442089897,-0.08301709237556784,-0.13065453205990962,-0.04110873032986815,-0.07198424255198982,-0.12998693710673337,0.1591745150078043,0.1317302178873528,0.15319127364131724,0.1401460581767441,-0.1563184089253883,0.17673587228715132,-0.10793871498103547,0.039282847531595916,0.03670270281326805,-0.01763321151333513,-0.034374106628812275,-0.016144067595676787,0.08946418946716847,0.17255674906371488,0.04726385961827277,0.11451488858373877,0.21792332341741877,0.15181613045381645
-0.10116094049991597,-0.12816614982904306,0.08999943285226965,0.08697134054176701,-0.05309865517651273,-0.11742839804167404,-0.08729220710092589,0.0023897277794795993,0.08467600429081222,0.10233255035776444,0.1713213262882104,0.06769368607534197,-0.1337430811636276,-0.10059726516715836,-0.12514763038139637,0.057365359218745686,0.06001281101986864,-0.038209744190181125,-0.009183918905545974,-0.11398700545420094,0.05176920706769498,-0.17430596520987943,0.18401426883335245,-0.017273995520326883,-0.13644383131217028,-0.06428587967428488,-0.005158965877349532,-0.08127785339570086,0.003277480509604075,0.03355769379922284,-0.19000963141312954,0.09044710759983544,-0.17883727783433404,-0.028200433059431415,0.059830775774358934,0.08523380179565992,0.004182146921545186,0.07737744404517041,-0.1313221306264676,-0.1556493735577196,-0.14650948276651235,0.11740970161300529,-0.04926585242676808,-0.09291023154337011,-0.12827523131292334,-0.11366018671281473,-0.05587859429392724,0.1594575196943059,0.1789363133689861,0.03120991276651742,0.19570230055531213,-0.176298505246789,0.1438057543360081,-0.10246629041904777,0.15553547215394792,0.17596260907828026,0.003554049601104054,-0.14215041909226125,-0.06283001168233694,0.1115077583160595,0.05726281775287279,0.0922584081124046,0.07936338537439923,0.09403212642931916,0.19603271761225352
-0.11007344509515057,-0.11224444815449054,0.085267725718832,0.01428563892368467,-0.164148845065301,-0.1897393070016371,-0.05395450396567195,0.036462663333646596,0.14289071362704006,0.15430129322167427,0.002420366252592223,0.024733670665216465,0.0005804195183336762,-0.12147503629000526,-0.10562734184446217,0.13391707111990378,0.1143907333560615,-0.06590760121718828,0.06687077747667247,-0.09018350621652488,0.030021744682303186,-0.03011868770870316,0.1381426866429707,-0.09855516348946519,-0.0777244755286378,-0.1003878978051206,-0.13869598520227522,-0.006250875502410092,0.1161039832504584,0.03408514295047278,-0.16540988924316408,0.059023960017338575,-0.029988195130380393,-0.17862805386725925,-0.08831490785697807,0.10038782091728439,0.09891034109123023,0.14751282270414154,-0.12781609968153793,-0.1375203295726471,-0.07639450404018755,0.13598113023922234,-0.17748643664293207,-0.13292178793618156,-0.029572521181064924,-0.09546000511920129,-0.1458266004656622,0.01083047599947846,0.05834694397691172,0.04795149959594321,0.13595702213720107,-0.19255158348519733,0.1359951330750276,-0.1707061161143101,0.11481017568743386,0.11529586182295433,-0.12227575667322023,-0.12757149447021576,-0.12310933395813488,0.17943188229392357,0.1563486427702445,0.12660558596892135,0.012832227190969915,0.07868402460501413,0.08503911806141107
-0.12345025753448867,-0.20667301385922315,0.09101976256207835,0.09727556211177989,-0.16847246186466308,-0.1527461499705292,-0.1553626139596386,0.15573455986291698,0.14567918882567363,0.15959879216383907,0.08983033891547414,0.07292647145267163,-0.08972486345972983,-0.018748752450535186,-0.017903424745555535,0.14876809272132527,0.038726335626566626,-0.1913838039586188,0.1414911711832692,-0.050534890303931865,-0.0056545260336250255,-0.023357259509226697,0.11567289356466262,-0.14609579063063305,-0.071794802400702,-0.12499532141267604,-0.158205537004173,-0.15906824339877731,0.023012707052006986,0.08750933098446065,-0.06417999062828142,0.10196281413822918,-0.053887354384563546,-0.12484065327706918,0.04010890994629282,-0.014463709459496755,0.07488085044746425,0.20241653712752283,-0.029920508078707504,-0.057657186765665815,-0.05463804452958831,0.04101955371356565,-0.12741030001036652,-0.06299541785297341,-0.15197113748260116,-0.12951353591069745,-0.02007618939345005,0.16017937803937035,0.12800038075772363,0.14957915276830663,0.11418104028960611,-0.045954228390805776,0.17295953826536306,-0.12606723973215586,0.10934264156470472,0.02061788164113588,-0.11027927913296988,-0.030059115248354536,-0.15219299403486228,0.03136384094832233,0.08130813322944819,0.20821411742752832,0.03239939174101679,0.08920678473189986,0.1497868371428087
-0.11169152148203625,-0.10194332963891424,0.12716001454674175,0.11413247338851192,-0.05787499331812521,-0.12638405208545028,-0.15676671213003185,0.031478434530628714,0.0906748221161786,0.14009217505793542,0.036897270840436557,0.05961610415401823,-0.13989934904377246,0.0017244392558682213,-0.007263331943538301,0.07952320219303775,0.1039335933339424,-0.09246175945352196,0.048082766408333484,-0.20358333093161,0.08875363315173194,-0.09478089552072419,0.1228554786986374,-0.08728493624744146,-0.0132871665355529,-0.19207031340547429,0.008255701061313696,-0.06908750517530718,0.07819953936100954,0.05297209310422656,-0.08672963687028445,0.18107864651539513,-0.06917842511764155,-0.19933506954130664,-0.09731675241447496,0.007338942248524864,0.0400111003297394,0.07719330033148167,-0.08819449063604558,-0.19270564348904423,-0.029483779881082438,0.022492256812101322,-0.03334342364534515,-0.18398139749938935,-0.10953768126729625,-0.002317261681860836,-0.16748406218573725,0.029248458680026103,0.08364955369113294,0.18226710024137874,0.019402470021320777,-0.19396719111853875,0.13384718237512136,-0.09842476454779575,0.1995472203684541,0.09037978311821891,-0.16705840383734236,-0.1500852325271291,-0.11167294938684182,0.15068980923895609,0.05389898519335322,0.1844822218426612,0.0780277483594737,0.061446164452416095,0.05719654455788861
-0.10253555358346383,-0.11390325374622612,-0.00773511394614856,0.04001524691520952,-0.012414289062081908,-0.014586400563602246,-0.16302939635178174,0.17223058195972557,0.1303363187323969,0.0031901337732338888,0.16453345387312637,0.1020215070572501,-0.11521583263196193,-0.12426195943109974,-0.0905627461049348,0.15235425114768528,0.05938786557855627,-0.08727453693663541,0.08459736020286363,-0.148688823061229,0.13008104847387134,-0.03349497660196542,0.1848270828891132,-0.1462445267399817,-0.14083682860849328,-0.12474847107718559,-0.08107756429985641,-0.09736788138986226,0.17790203834856075,0.14318922440855042,-0.175781124367754,0.08429001905176885,-0.06424869453736827,-0.11851856356592574,0.05431253436257735,-0.02272808451371516,0.12297006603862327,0.04570557734546274,-0.14680674512353714,-0.03533902828283932,-0.12258855739155274,0.13147059180605844,-0.13131206862656764,-0.08938272812021059,-0.09237218157702722,-0.09952757226511662,-0.08296089981588124,0.12811174285263555,0.1491988051699726,0.0017187789265856786,0.12682965981572458,-0.01582334958417957,0.011679638919618438,-0.12263749309121573,0.08155710582327551,0.15771555325143932,-0.06575887458058385,-0.08316168487615931,-0.02846204653539284,0.03330246062123351,0.10286456979658835,0.14215850274433003,0.14475717709152341,0.1551045552771777,0.11691768272357698
-0.11449031927652906,-0.11710889297847893,0.08575611399622812,-0.042447363712592875,-0.1807657598837387,-0.10766996704473875,-0.03682869509682965,0.1294986428113013,0.0028722995686021957,0.16482470015952547,0.04332516447362218,0.07809955038496343,-0.06002548857595423,-0.0752145898734591,-0.03071193630914189,0.08144873102704062,0.06721808380868884,-0.09247358666066549,0.01596155029338218,-0.13089683412982428,0.050317207162489976,-0.0666645486771967,0.11741334298180893,-0.19762102734932752,-0.06605062380643016,-0.07527234161264705,-0.07271405457121374,-0.0735098805607653,0.11741595840815316,0.18832469900351723,-0.055940879939597905,0.1362570676738417,-0.040206590016231794,-0.19525469324074923,-0.01260214825945149,0.004899973477352706,0.0746009129814295,0.042673155326375826,-0.1292330166327186,-0.006459419192387052,-0.15312580015916713,0.08064207481976919,-0.055294350496613354,-0.1939058919749317,-0.15692287557632412,-0.12537591570899928,-0.14572072559586202,0.14288658324175033,0.149489272254663,0.1936306673918517,0.20144546605389557,-0.03148731529457797,0.1979489173189671,-0.07546633829124533,0.031209969602539852,0.20061263913674882,-0.04900225714365911,-0.05746519126101364,-0.1649347932942742,0.20165844811774034,0.0058117059232153595,0.060335862253755035,0.007267141220380948,0.0966268516997562,0.016220720420012606
-0.09624390290011814,-0.07539476278211796,0.13408853898017575,0.07212040917178819,-0.06616691711789081,0.00981425745335905,-0.14475172356848906,0.17615157533613016,0.026531184704251955,0.06458211729946452,0.033028859549405765,0.11424542587861108,-0.07758737918709187,-0.026026170172572246,-0.15366859742386502,0.06614192402510484,0.01861294229149429,-0.11273659033522111,0.10909697231389551,-0.1835398778963474,0.05458042697836346,-0.1380985324672935,-0.00797431023927834,0.010599340741427772,-0.12134718645674009,-0.1630414826846247,-0.09338297583123792,-0.006813803306333714,0.00810982607381265,0.14762122122977556,-0.12949662024633862,0.17822634702795911,-0.11174328207539745,-0.16968027172544772,0.047051677943244635,0.09621726319731967,0.17748152123398048,0.0721147407500038,-0.17943004214804456,-0.09690806997036891,-0.18651242206835458,0.1428791543623538,0.008644966284604429,-0.10706884010668573,-0.023884081162606357,-0.07560198686002143,-0.06216660329475017,0.15162112936235744,0.17909958466242243,0.09814799303205593,0.11300062149932241,0.0017493554614301176,0.1459464115409282,-0.03517596245556265,0.17104127655998355,0.145134817637273,-0.11200998458387595,-0.15592855736653793,-0.1257914057620361,0.029491354946743823,0.1538200650955784,0.0324361590589261,0.10622948641911624,0.07855849084108113,0.13891136017393133
-0.1091283372324897,-0.12854994193865737,0.09294970544962657,0.13384781887482425,-0.0694525819930981,-0.10421163409308953,-0.02112109900889341,0.08064503687872754,0.06691586855031684,0.011829819381659158,0.07395213945032289,0.13927481135687722,-0.12296491779901128,-0.05636718362621215,-0.08967921042185871,0.08082610989682798,0.04857537707964464,-0.18319133832891626,0.16723471279878566,-0.1900240530033378,0.009812132606735888,-0.10961100674512508,0.12058710067879247,-0.014220317846507314,-0.04281574712265082,-0.12915765808271865,-0.06854605077880838,-0.0295837238193084,0.15760496577522226,0.11697128241266491,-0.1635436489373983,0.15848160615722978,-0.19009270288604202,-0.17607901673181248,-0.004644339958625699,0.10207407714687723,0.1513035845008614,0.055210368884311765,-0.14577455393296157,-0.051183894709713185,-0.07323333524235788,0.061475206375625,-0.06141136406847591,-0.012663401442864533,-0.1767158247521669,-0.014727327632619906,-0.11854618660606966,0.07721639960949632,0.16196641595564548,0.12379288706930289,0.10969405121555204,-0.03749058438417646,0.17633125834991464,-0.034242535948223095,0.04020220243571596,0.1723457713306692,-0.055476824973935926,-0.05132434682420503,-0.0892156641111912,0.046273022008309336,0.18000172549859303,0.07255987516021195,0.04399315864594699,0.09888007872676839,0.009050326676742954
-0.11299982684161806,-0.05956620463353273,0.04105060760983894,0.13448990041431844,-0.1762628211985219,-0.1637451689279198,-0.06841344371744905,0.057544933783419766,0.07307568907870689,0.09764288067509429,0.19104404867548,0.15868026537398214,-0.16984372770076503,-0.0014694634347504623,-0.05414777069147896,0.0966958430895831,0.047127939715231076,-0.13754841603132115,0.02432644809511011,-0.12257810685438014,0.04188913576695612,-0.1255242024907127,0.09676926292201432,-0.11362165460452679,-0.03791905634682185,-0.15259266374076316,-0.04152818218781267,-0.12167201081210967,0.13636093337654928,0.18205220338881306,-0.010910149263532298,0.1227019057784633,-0.04607932713356372,-0.19504054736487922,0.05407044077470208,0.0737950167301736,0.15876573967778282,0.17107078749421833,-0.1709693132021309,-0.01991006281603274,-0.0678289766134227,0.0864640588477852,-0.013816192885103072,-0.12397044691574466,-0.08900418460091,0.033200648010733184,-0.05327100605895085,0.18320850412924708,0.06818914134146384,-0.0004884085237548617,0.14387503797065807,-0.10978942911552844,0.16129006121141443,-0.08628243467085732,0.036233579598740184,0.112475353098201,-0.0656188685144485,-0.11017675680982032,-0.1338804516113624,0.08650518704893614,0.10302971128708846,0.07408849019163828,0.1692338179131568,0.10934304050838153,0.0666473845080561
-0.1218199984774695,-0.008265619393845099,0.031648379241746655,-0.005676556515936872,-0.1560262551872045,-0.18641200838801245,-0.02465824153096326,0.13168739151084338,0.14062791935618138,0.11078355066150074,0.08383442877458261,0.15424529306112392,-0.18841599823565086,-0.0801573925120511,-0.16450725391777457,0.02948937293479949,0.07434592553625029,-0.1056744492732403,0.021251907873376646,-0.14258977218703173,0.0002647209933760653,-0.19097635322328754,0.05012581299509533,-0.09035402560156151,-0.02347118295471556,-0.1945949090555203,-0.06747464123202249,-0.05719483744474668,0.14468554907484169,0.18562491283028348,-0.07821256697782604,0.12893842801987146,-0.10868271203872396,-0.07806797015572327,0.05844845756208029,0.058217473993196,0.024359769799854467,0.15983758610275545,-0.02288418393367106,-0.03610260850751819,-0.03144305591323766,-0.008518850418901892,-0.18791248612808809,-0.08254958209610871,-0.054577852255111206,-0.05265709675508539,-0.07983991202676002,0.12112554241342846,0.1207987523883405,0.07912087387271113,0.020814803172909947,-0.14625932511683415,0.039378848097347416,-0.1475030730038625,0.17511183313537038,0.0891394249507962,-0.14679466280595385,-0.041708728698268534,-0.12613646617109864,0.023156142506919275,0.10289648705612477,0.1845613347020246,0.1937391573910583,0.048087305847925116,0.07752744833584345
-0.08879470338548211,-0.15895741843029662,0.16664031556619946,-0.006217456559652108,-0.05762609502259314,-0.12719888651958822,-0.13951371500522292,0.09437633135515422,0.06713363246361359,0.09537830529595925,0.09483088419415803,-0.007102297297502061,-0.16453313967834096,-0.12648153966071424,-0.04836790941646604,0.09006765817144587,-0.002246347964536639,-0.13374382350258254,0.1624732454894247,-0.1674525179939696,0.05667709252554432,0.004535941631219773,0.06687935654358687,-0.06178722542169035,-0.17483269344177244,-0.1404686777434948,-0.0909142317320213,-0.13230172102339888,0.14776702819669962,-0.018513770820879374,-0.021620216324429904,0.07051812354859986,-0.09731990704113731,-0.15276565020678307,-0.05752519994864785,0.11872412373592194,0.17572565352869846,0.08534500198811688,-0.1092164990431904,-0.12953479227085754,-0.15328250459096768,0.12134780005850085,-0.13018370801441836,-0.14558706223080964,-0.1019852128892342,-0.0060874271366852485,-0.12866758332654601,0.10009344437949012,0.14904526024579937,0.15948514868029057,0.022843290873325855,-0.12278484550696549,-0.006550492691766566,-0.14670169918467382,0.17844238993124037,0.05429704022873367,0.006246556533479554,0.0034250864559133144,-0.14795607116577436,0.004205852815667783,0.04176163980065162,0.17758081016283894,0.045351819996062435,0.12703333515906565,0.14840532678701499
-0.10469285341772508,-0.02243590987299638,0.15352671983717153,0.11186582648066176,-0.1653531662943109,-0.011122650449705828,-0.016683043454664707,0.16062635510269654,0.06692900117538673,0.0850697462752426,0.06923619017540068,0.0835325597479819,-0.15557832954485282,-0.07049520206705914,-0.1513414327465755,0.1484217851491661,-0.035469507123097564,-0.02618289010458457,0.041115723841941676,-0.11897243166685025,0.04496372714742305,-0.09924870303233985,0.08761403617993556,-0.17050864649958686,-0.148083981193676,-0.0809652185749351,-0.1267112587524944,-0.02000709242339354,0.13199949693066093,0.08893694805072326,-0.03472387386673017,0.17661089095921328,-0.005190561277035912,-0.03314651423919643,-0.10783049221668269,0.06060343215049125,0.03802494495446097,0.17143361186666575,-0.14852009834974472,-0.0724552623805536,-0.02362785852341771,0.04285048588273763,-0.19021698218559,-0.005691565534962634,-0.12235761988690903,-0.08562008260579278,-0.11031615341666158,0.17879956137519412,0.021950551156350064,0.17279989245122906,0.1976310526972051,-0.06025357974752419,0.050833844926081,-0.19921669868851027,0.1390183505534181,0.19347105209394336,-0.04408488533882161,-0.0058393007348545405,-0.18202818345078148,0.12203446162529412,0.12787652258686374,0.03420304239883116,0.17351515933577202,0.011972959104849232,0.15573650515558848
-0.10679395144226683,-0.1688383428184728,0.13927156507568358,0.05014841133243781,0.01501786521165162,-0.0670579071555025,-0.1655695657699112,0.1677930361766903,0.1331561440494013,0.14675625468146342,0.13075741973104513,0.03555505687021026,-0.03910150172990243,-0.1543135141143809,-0.020257835899868345,0.11517309662939086,0.07557313491158248,0.0024711860666080713,0.10349899609928898,-0.01878646671413775,0.05243272392218644,-0.10163856506731477,0.026411605904301756,-0.1449491713113259,-0.04994168416193611,-0.026344224328398596,0.012783265988269649,-0.09066219180204631,0.03930874719599019,0.10960834596466151,-0.01841219463611273,0.14152240733962895,-0.13006192028246263,-0.17545421050643922,0.00511804902125193,0.13010191639277988,0.036543782433126164,0.026053794228905528,-0.13771454852505202,-0.09649890309227104,-0.0073454793725994975,0.04116104539392616,-0.08478120234485616,-0.14029776393851623,-0.1562587440197051,0.005151644504833913,-0.1643208243435903,0.15654159653305652,0.1738734082200686,0.13065312211946364,0.13246157817133847,-0.17007006269570574,0.03975529990248696,-0.11046125119694912,0.1369635484354942,0.18350011722087223,-0.07701340423537621,-0.1525643440795199,-0.16971107907463123,0.14445891765058572,0.09347920261909377,0.19744518995473054,-0.0035575155517458667,0.06811467596285989,0.08156470521205306
-0.10537615503281333,-0.12387707570881955,0.05092117250892775,0.048243610868059596,-0.0975927544814785,-0.19394277349470337,-0.12196390598699972,0.1955815731654769,0.12789707117867138,0.055307192451123796,0.05404598654682915,0.13427481751900194,-0.11260890640174802,-0.045642990927918695,-0.1726923056174375,0.0202555946261832,-0.0022052311143401318,-0.014916217974988339,0.10450821195090919,-0.032899754567138687,0.09652035636673419,-0.09051898038585426,0.06813922925515262,-0.049689046194909235,-0.05627838812176941,-0.04697198424450996,-0.13869461073397,-0.14207365654740195,0.04814429397289461,0.040904897125425,-0.14488012647996906,0.05708626390109669,-0.18287074801558453,-0.016120234997602758,0.027604870572349827,0.08943228957316267,0.15515836041873393,0.12940850914585525,-0.12547478608625756,-0.17593066459861045,-0.11164822259875484,0.009765316218028708,-0.18210547635676386,-0.02136074249010926,-0.15749511779135095,0.02229868954455422,0.0006765118951139929,0.14344703696632044,0.10938783504211541,0.04106162966313974,0.025071646765971015,-0.060105587332755325,0.10372753628165161,-0.06296795366055596,0.11784058781612951,0.09959505167697578,-0.08217597962732301,-0.1927204748829211,-0.10404808944156252,0.18846993337708218,0.06730568268456306,0.19293629983567262,0.1734512742689065,0.17691127672387494,0.12208601852126182
-0.12268393726754702,-0.05351064384622591,0.03635501309336457,0.1362570652403439,-0.02339986843614746,-0.19904894129145842,-0.07502440600847647,0.12550482288710227,0.04182226307589908,0.15293687359543065,0.10049766951816912,0.06916420564203227,-0.0690900120813009,-0.1616689524522975,-0.08888267876929618,0.15557132035758503,0.05485442016621965,-0.014465562119704845,0.02226833133223035,-0.05520558269387937,-0.016465209041192596,-0.03088320784291989,0.1347476153999803,-0.15112590934007614,-0.15693971199872872,-0.1233015937569327,-0.06652488731904489,-0.04906217497655824,0.1662980096535979,0.13471719103931343,-0.032847161244794275,0.14331910542706205,-0.055289633592718754,-0.11807852083159259,-0.0779443817213208,0.027544011690022446,0.015136692756876851,0.1776317471610332,-0.12083668373931945,-0.02454798062564543,-0.025469014341530028,0.009628505992419661,-0.07897227579818894,-0.09998031426376282,-0.0961100896215321,-0.09100575687837133,-0.1263403068055684,0.11012339241366788,0.158324381860302,0.19606598361435873,0.062268084708194754,-0.05930316903552671,0.206925936990299,-0.11651680708944157,0.10848163394503758,0.08979170267993074,-0.03257949599520349,-0.1630624249569788,-0.15484120715132174,0.10958904596822491,0.013001013746709951,0.09557744339574506,0.1808136923063427,0.10502589432396173,0.044818443057064825
-0.105745021590414,-0.12343842346084075,0.1652047277096007,0.010076885953018939,-0.10043872125328968,-0.10414217194871947,-0.09210158580667724,0.07072782365482927,0.17189589968431296,0.09656996000546422,0.11935481459318212,0.0328936700701222,-0.15240192545685002,-0.1577984875832468,-0.17617268082796234,0.052744184608181074,-0.009954694753945479,-0.03171514727027711,0.10378982040859902,-0.14010312938580222,0.09379704411998366,-0.033884879217907844,0.008804866987348996,-0.15286374802479716,-0.018663472138660528,-0.17690317851175436,-0.04600049280918631,-0.03384957989042185,-0.002260946737624509,0.1918542533207544,-0.024380005106016317,0.021753675057481985,-0.1753903503823781,-0.019893597059225245,-0.027775507217110317,0.11738408583574342,0.004037077985708851,0.010584608850754252,-0.11876043387064207,-0.18482749757682337,-0.1780300395656311,0.03946961574686713,-0.04954152477643786,-0.1060408249057184,-0.061563060851168715,-0.10198528427825836,-0.014692985743392515,0.09260196974990252,0.17353646133217965,0.14838309091066232,0.12274737215779381,-0.18628991944220133,0.021133722918219973,-0.17836299879717,0.14003221184908848,0.17140960265167096,-0.1455769493736655,-0.12336408438752411,-0.12459831107032113,0.018940014521268513,0.1328025467101957,0.0090556771824527,0.1797413202885459,0.1943463807589646,0.014079277935545689
-0.10989282634026373,-0.006965311367767736,0.03328845670928753,-0.003918546863593804,-0.12587342795607803,-0.008041055032189987,-0.07870409551415336,0.14095149259774786,0.127928827219665,0.09370847886780478,0.19730820911333274,0.15374084362355386,-0.1517750376567379,-0.08264503529062854,-0.16174857252667832,0.05611427637207421,0.08702299664906511,-0.10568771392701395,0.1397433923497501,-0.09994876490610798,0.11163836619495282,-0.05950974971639438,0.019740792512087293,-0.1288386688091286,-0.09462504393646373,-0.04509151784627923,-0.016362718540041146,-0.1400330736377863,0.0990051532906629,0.011294325364954177,-0.15597885305983283,0.01193207326526861,-0.07066991768547218,-0.12645707783751267,-0.10798069920710004,0.05738406645794011,0.033808987547835706,0.19885157513621315,-0.1772786237523151,-0.14037656796171663,-0.08596988438980148,-0.0241220696452381,-0.11468768992638088,-0.16572674541503407,-0.1440692895547641,-0.014153552964151706,-0.17639716016398027,0.1210885901782901,0.16813842370845752,0.03209937442275843,0.12913694677895596,-0.12095095034174656,0.08086968365788604,-0.05070966818871068,0.058908212921861054,0.13932264585835044,-0.11200894968510954,-0.050541735619772904,-0.0771570528624402,0.04199070675541926,0.02670657281831053,0.1934303274057407,0.07338930401223065,0.047387453356969096,0.18461720499158993
-0.12179002815162784,-0.15316302264526538,0.008301798983760324,-0.006898601461475461,-0.01800216988277426,-0.11164717901411762,-0.04096776523863858,0.0635130509280513,0.030640858767890498,0.047021331792746444,0.06222743452401312,0.053185382209652424,-0.04149495927054786,-0.062405381280800074,-0.00973006070996069,0.17742699358135092,0.13226564681777403,-0.024737532814151128,0.12435907369986432,-0.08487929676404427,-0.026176015082786268,-0.12861941800687687,0.1368357934757721,-0.08477399014664706,-0.008384780756070112,-0.026240571973488214,-0.1590239081320625,-0.09378294563461827,0.10051902715143497,0.05007105748826677,-0.01861080417180819,0.15238287374634582,-0.017786643337652775,-0.21159747444838434,-0.08571941347895608,0.06487131097198254,0.02423973092365909,0.10150328995655951,-0.15040753439459528,-0.18991927521818602,-0.05119854141825092,0.0366033330377107,-0.04531692427559517,-0.10928801275843986,-0.14582257889919886,-0.025028116789842444,-0.1312666522426371,0.08139331231328228,0.026026520788625378,0.1532368391738183,0.16538460633906787,-0.20240533804145397,0.1731473195056868,-0.1360675011081665,0.2111950223237631,0.05959506517518157,-0.14991036869590105,-0.15711554916900441,-0.13176717915601094,0.07274130964416722,0.15747637840254175,0.13900315798683768,0.03393206393147506,0.03126799371090564,0.08054517658105202
-0.10830657181113856,-0.09724799122224026,0.031652955860169724,0.08881989497966532,-0.0659435558542784,-0.11089721913130277,-0.03853608865707912,0.15681924614941634,0.07243076702302273,0.1266189327776086,0.11488570080530741,0.0019884407099595635,-0.06624067372257228,-0.06594554274456162,-0.014420510815794136,0.15971068040380945,0.06677740637519787,-0.15280353824803944,0.020245026841504397,-0.08492186250427865,0.028682720901647224,-0.066306018889228,0.07354563210123627,-0.0834010198770601,-0.032397297372317536,-0.0741043300304562,-0.17582598162934093,-0.04298726324509458,0.11516493589420698,0.07703009539145754,-0.02632528010776754,0.009838055837542931,-0.13902537867902715,-0.060482688602548365,0.04061309554188795,0.04160905913746655,0.09251430266926654,0.09610621292854635,-0.10293829944139729,-0.16664061928894536,-0.14347808611129953,0.0033382889138021954,-0.18861626899619843,-0.10148090387717787,-0.17299070162121277,-0.02263874326872405,-0.17697571846257615,0.06557788590963347,0.13957494660170935,0.026264624990225506,0.08743083264638747,-0.19953619529236738,0.059710823415803006,-0.03715687212825349,0.13681681394949047,0.1536318903714231,-0.14429093672295282,-0.1536805073587181,-0.03400776371438554,0.17161936895633886,0.03483844798226489,0.17467086027859482,0.12062666041210929,0.00921110490214727,0.03497638761395564
-0.11490384465225445,-0.13646221319198515,0.019568507921403144,0.06468129377309809,-0.023998855238424023,-0.19775669830043224,-0.030715304301543234,0.026213527456410243,0.05849849398425646,0.08260119082569381,0.15715592831190198,0.008710247442631547,-0.1559886017059551,-0.09060710355761277,-0.06057469853334427,0.001130717601985531,0.14904693755813855,-0.011833571203433724,0.0967447705205542,-0.16382386725690412,0.13753961171089507,-0.1384254294738126,0.04013794702914377,-0.16376261889551347,-0.09408937444336647,-0.14642438281762932,-0.14424720783832817,-0.0750393877308918,0.04788299760048398,0.031151765485702258,-0.06909148099651737,0.051682412482461665,-0.16330135061459225,-0.13395815918900358,0.008782388483057195,0.11866038601904959,0.0045316314620967085,0.03974307906265245,-0.09767852070579029,-0.017825948020207105,-0.02279186686039976,-0.030866293385402387,-0.17102814888674545,-0.049781938883101125,-0.17227855541092532,-0.0046905535058813265,-0.022309481243917836,0.05664711598001594,0.1675513314783731,0.0031472785140356195,0.20893877638854932,-0.17581340336107038,0.17087407072461064,-0.06989106428256216,0.11426401940827013,0.03847663611258145,-0.07121431032672673,-0.13901865970549399,-0.024916269682296585,0.05092988848025228,0.2003523051424497,0.12811563315070446,0.030400058852182565,0.1883878500174632,0.10871513889082225
-0.09792656413529645,-0.04183267233193295,0.12407950076409617,-0.036353308653309956,-0.1255605426169535,-0.1782312788001466,-0.08582862382415085,0.07587854279517153,-0.010680036212292542,0.0900145639929442,0.14009632714379722,0.021968302930578748,-0.08297492550912315,-0.07702162319546796,-0.08037748451345596,0.11280435855913883,0.06012750070941078,-0.12071250795594039,0.05932008030542969,-0.14614171462491082,0.09909351887993643,-0.13391574521385577,0.006811705125312898,-0.11519400336036047,-0.006429713788824317,-0.16122510946310575,-0.1562541900374897,0.04375395047068315,0.0556747269821315,0.16342023516161264,-0.08273148381919984,0.1394393521268692,0.008842003850253499,-0.17953793625496836,-0.05784591577852083,0.129285822059479,0.12919636076687377,0.14316437416448025,-0.04207543287568159,-0.013819692372802984,-0.16911791188903588,0.11357282734160333,-0.11715947284122978,-0.020609812957593544,-0.13163122005389327,-0.09320108377380142,-0.06729325821028061,0.01000569712579366,0.17416245541122657,0.04071170219858423,0.14261554063024953,-0.036890438518615315,0.09964866889562304,-0.04024285302887787,0.14546619296866767,0.10247208217545689,-0.09442876679946659,-0.014763822301568983,-0.13364406220034825,-0.0074961883922034745,0.12546045546469536,0.06600166713371013,0.03329441004045337,0.1923018694003084,0.007346526031609297
-0.08259236064833506,-0.1383334720303801,0.06705382697157668,-0.12314687716253164,-0.058144234937487625,-0.0739512514524692,-0.1353324552042717,0.08791254259633179,0.00428608101175605,-0.020358106137584948,0.009591527154309776,0.0960580137771643,0.013747914038357924,-0.0866566413369426,-0.13970564184082546,0.15724593544145418,0.18961889854322805,-0.07777268756720503,0.11441625508754316,-0.08883571396667442,0.0053942051315221335,-0.1559697226641121,0.008901490768243753,-0.17252907521768496,-0.10525907427779309,0.0173389039739526,-0.14780035936190114,-0.006933368397954211,0.10025704821444878,0.06534542309672865,0.004359946054347898,0.014986716785340855,-0.15435182972027028,-0.1308645137658126,-0.058904512231738766,0.012248575735516487,0.06343534167763312,0.17541029117976123,0.015092014870689749,-0.07628958719316602,-0.10959466124869759,0.02056229538204501,-0.16292979950326197,-0.04105311838709928,-0.14228830297327788,-0.03195488350365524,-0.11635469286003015,0.014527981152334057,0.11698980462821643,0.08985688794642853,0.1594803818794,-0.08400719194100072,0.08731922528022852,-0.12660122625902714,0.06615338981232959,0.036506708279446284,-0.013329260113065958,0.00838489905569496,0.025566357428150988,0.11150666773646781,0.117368981186829,0.12379477347045484,0.13066064190833754,0.03240524338413249,0.16253706959400027
-0.07752217051001568,-0.06716454438026,0.08625118000728232,-0.06392754954051708,-0.09886305630589429,0.01133045361402452,-0.05556166731782515,0.17243957080728364,0.09704533529861983,0.05524152532235778,0.1415169076221942,-0.005904296427945914,-0.13833997328050363,-0.10820210304384828,-0.11230743823158745,0.10739098848701105,0.14858918873921864,-0.009469110661199364,0.006827394020616125,-0.13480923057314564,0.061191224067171514,-0.03533321880631249,0.019082694661609518,-0.14287950078641004,-0.06216664496425468,-0.11549394149381746,-0.11797306822532813,-0.05753658475081156,0.13183827446708635,0.10154067495371322,-0.04098986232855432,0.005942751250510197,-0.030968710192203538,-0.05319032181410191,-0.09659600082930539,0.07673457583485005,0.16215494678008033,0.1405381704934489,-0.1288857930133772,-0.0308923267945153,-0.13194631339916663,-0.028391718804847005,-0.06116614799716544,-0.12071350018721012,-0.15327516083838427,-0.10835193988306385,-0.03099611404982856,0.1435980852740254,0.04372493623284682,0.13834092739039353,0.10067306826396262,0.020309955890688854,0.004963124193968181,0.004131700672346428,0.08475777204912847,0.1533164843091557,-0.07278815727965421,0.01139611493334729,-0.08385811316519086,0.1501443613399599,0.15265112341113177,0.028940418712640498,-0.03607581481674613,0.14170399300568376,0.16167440278731945
-0.06872040507392715,-0.1271701287384823,0.06784887457471586,-0.11602718961506553,-0.048003213203238713,-0.0657597869265097,-0.036924340316334486,0.13109498986302281,-0.016366478205436966,0.1478651042991819,0.14133526333746,0.014745837137939335,-0.010489643296992293,-0.0679815294229506,-0.06881144049437347,0.03173076993435835,0.17163105389320468,-0.12096026659883802,0.09422029253716672,-0.05394460308193562,-0.09985713912752513,-0.15395943427190165,0.0970813842748642,-0.028812202508917115,-0.0657236002370362,-0.1190532704386904,-0.043255154050972223,-0.06888338081874291,0.03694707022728719,0.07184044144691937,0.023799930274998615,0.03400081661778714,0.02137987682880414,-0.04460903435566531,-0.10255470835142348,-0.004506500814331527,0.015550485465552138,0.10713054316355392,-0.001027912615169898,-0.14292419776148957,0.016075537447740894,0.0370758681067809,-0.057234604296160646,-0.12358515215559113,-0.08405588027107398,-0.025887135589666568,-0.04787739330126738,0.14634062368866071,0.04363745476864747,0.034798123170435145,0.14515766063869215,-0.10866830029908975,0.04333907131321962,-0.08055229704295212,0.10165712104840782,0.1332514124186926,-0.0916972490671213,-0.07246851969280103,-0.15452995233426514,0.07796908787912483,0.1448688868327344,0.08944933210578279,0.10249800296138446,-0.007959598482987702,0.11897701802077226
-0.09502994306440408,-0.046277151188737424,0.0695323313606895,-0.09449443385789225,-0.1993120230881737,-0.15471619769378336,-0.11423174309012746,0.09590922922251988,0.0425905358971414,0.07995033455285229,0.058273486702869644,0.02267891537299219,-0.08102908562731102,-0.057171316062400064,-0.013252605453402832,0.10164259332711552,0.10541136170924763,-0.1538469297192505,0.13083390480698603,0.002040004577535777,-0.03752003917175164,-0.06461279593320426,0.0010697471023655167,-0.09664415827561941,-0.10161582650307832,-0.09156403150696843,-0.1558151734095574,-0.07599345167641944,0.11857305153923464,0.04903129758562714,-0.04798813620467073,0.1791505061138114,-0.09479680756282986,-0.04378895166877818,-0.024540898540168138,-0.08590087575668566,0.14620364842936437,0.1439031954430802,-0.0476395767643205,-0.13040288888829926,-0.028933222781275737,0.0062436948142736174,-0.1416364468623378,-0.0798659221718051,0.008161228206645407,-0.028924480393187183,-0.06651618509854795,0.07844245938439431,0.037280399145886815,0.06606535657526134,-0.001937528460143132,-0.07938969851554525,0.07023106182316577,-0.14245708866060788,0.05528199826088059,0.13732955170549072,0.012804558428668482,-0.11401057864360985,-0.1392529690842602,0.045473506703692476,0.0016235616177913445,-0.010351223160129463,0.10331468365510199,0.08956876232628917,0.0796124915863165
-0.0932387096873517,-0.0867833409489518,0.06375385245653974,-0.06049842454187347,-0.1512107072187056,-0.10736634283670679,-0.11636371563677596,0.17328608566197043,0.050136656665041635,0.07366491288905376,0.02368597376076463,0.03966732877432886,-0.031275404924370837,-0.10821354885214363,-0.10698085403658199,0.0746720230102971,0.09827063896413335,-0.11911126683936568,0.11832920352605739,-0.05985299907733424,-0.06499009395205063,-0.11713767205725292,0.17927789409865888,-0.174700886027563,-0.1419520111043812,-0.013041358880333578,-0.019815366093739083,0.0492579857197085,0.11736164219537304,0.14808249420900826,-0.0675066561292452,0.0463890771138592,-0.17255212908469167,-0.08004536680347646,0.013055511145006457,-0.06716119072288582,0.07140763760323861,0.11369139875219925,-0.10385267142868167,-0.010152666149564879,-0.140465543533508,0.06259063188148321,-0.02224950880006475,-0.019310025153396585,-0.03647448028523589,-0.04311727377045416,-0.06326618027621542,0.1174394764600304,0.008453533706704994,0.06935570473530445,0.16464204175709674,-0.06140420718960785,0.16619168370104873,-0.013285513658855233,0.04240886325415829,0.1789497670726831,-0.025400126619697056,-0.0036608803599495897,-0.08321122263514841,0.03158892139626749,0.08681896516809186,0.01636616018503212,0.032546635516896086,-0.007084940114391253,0.006031913933217548
