-0.13130617503598954,-0.0857134197912709,-0.17235091111800488,0.12765270207818777,0.06539554357600944,0.09087256621451141,0.05177187718258438,-0.2099162894677569,-0.21471573711781006,-0.049176040262401036,-0.09865067776303219,0.10731898433816837,-0.09753074580863232,0.015762878682190826,0.12219983421200628,0.0005998681511550854,-0.026658351341487002,0.029868343673496035,0.08466135665038552,-0.07963149883462498,0.13000854416221064,0.08643731440113822,-0.03520102061617612,-0.07565699719157912,-0.17709408770644353,0.11762325066731012,-0.024909597276808956,0.023908575360986308,0.04112479609853856,-0.019362390332544367,-0.08505775447116182,-0.14719611033375307,0.07154007591462552,-0.07964063466466378,0.040249981668996196,-0.047632194796010434,0.049129108548615914,-0.025411262086496262,0.02387473572841319,0.03137624908714196,-0.05482037322818832,-0.026370745797848538,-0.007848211084670523,-0.03486957641062867,0.05306733568360866,0.004039538682398239,0.17489858097558464,0.1681585354976667,-0.018837878630482117,-0.07520418640856748,0.09568501213471718,0.21603377108122637,-0.0031319412485257703,-0.05433606966907712,-0.021532617514151364,0.017352649415551372,-0.11734149095050506,-0.029418536442165154,0.06393991401176004,-0.0856422253232378,-0.1673912885712521,0.05999226991025905,0.12753786253593113,0.029834980962903518,-0.04046198032640201
-0.11010762679614415,-0.08600455958127672,-0.12937238036425167,0.13370965262349424,0.060166741466665265,0.06123127260695224,0.16371643310430928,-0.16997394608354055,-0.18503504148657754,0.033680995827396074,-0.12522360411009978,0.1176889766035909,-0.03367499167500383,0.01451749988064192,0.17265597204124516,-0.009767073107354819,-0.09019135124251057,0.07073914079063064,0.06967298359304376,0.004355814405048787,0.06714282790142778,0.0074909563926852775,-0.1525339855219422,-0.02950540872447417,-0.1147537373581424,0.19623687769845102,-0.03600427460536996,0.04742471545477242,0.14702339669236578,0.004079123441145483,-0.019401965520780617,-0.12718980512084777,0.18881424039504463,-0.07974474072255984,0.10937576659885151,-0.10713549947911763,0.06316917258796717,-0.05514751697255408,-0.03816756386893202,0.0033196286625342512,-0.09336229133522148,-0.1892030079001185,-0.0035293018295101033,-0.027357348252723172,0.05089190666137132,-0.012441099745710952,0.02367940021374218,0.0309415660150105,0.03645725326203825,-0.12814609016821338,0.016298546557781304,0.0936088747079638,-0.06068121813208269,-0.008402069797433163,-0.08561304947843175,0.11678101929485112,-0.056557715389628976,-0.049958253917953374,-0.0031224916828022885,-0.03416277430865308,-0.10937212035309322,0.12587321716029579,0.0217208577063793,0.08995229620821134,-0.025253750338187476
-0.09330027713807813,-0.028041097118813002,-0.06452757163653416,0.0754839561725617,0.13685138123539928,0.1215900699022038,0.1762507428047709,0.002405204314270588,-0.14441365377096407,-0.01598832438033185,-0.1550622716700903,0.12376346933694175,-0.1765515141889432,0.002089912311505976,0.11708301623773558,-0.01634338395242408,-0.026068459591543146,0.09960731807773272,0.05779213841005694,-0.005009081086900238,0.1638934463717301,0.008294977122128814,-0.1625669698682764,-0.1466195752652858,-0.04560553860830944,0.0843842543295388,-0.0633152332845796,0.17548951804580243,0.06144459827992403,-0.08127627757961181,-0.058505094060298635,-0.0933199354706991,0.017447604869121662,-0.0009540671976621695,0.021184852148849662,-0.016093772955892288,0.1115598433588731,-0.019731401085947748,0.03368622898036528,0.08511886804081871,-0.05095095675190099,-0.11294517064971475,-0.01174955076166375,-0.11788919496763146,0.028782694170651688,0.027789863384243184,0.12038818125473094,0.16693275743163563,0.012296428299825326,-0.06271417934565861,0.1177324093450402,0.12439149302483683,-0.151630076765908,-0.010617765036565563,-0.010290849755025727,0.06939912743984232,-0.02687460962415847,-0.14410959723065345,0.006309140036115014,-0.043348506082778814,0.01790343730459784,0.05341485098147904,0.09406164811007763,-0.007019137163859134,-0.10850951951195828
-0.08942777248383571,-0.07839131724250585,-0.16405897396700045,0.11651366106418462,0.15634871567117814,0.018634742017473595,0.041849889261431274,-0.14880797594012365,-0.15458876794197923,-0.00290587856052166,-0.09880454598828428,0.12090399755228293,-0.14925492942907972,-0.0472126096525093,0.1339900269038909,0.012649265145258,-0.06663532816198403,0.07305283172846151,0.056560831890555704,-0.09182796179874725,0.018384600775182915,0.05311826632189493,-0.002013317945121585,-0.1330887507470405,-0.14981551021524228,0.08625613541359942,-0.07706281987309255,0.14779843035826887,0.12450697181598919,-0.03657274050595583,-0.048845590809761384,0.004527828178925556,0.13327250763457554,-0.023403155820641012,0.07935727767396066,-0.01568572350358366,0.0065627284426236845,-0.019865700770848836,-0.007759646742036268,-0.004778602185159811,-0.02660049501349313,-0.0470795506770689,-0.047271839724305015,-0.09897122298143428,0.15766126968536473,-0.030125600317216387,0.09963062870414087,0.12491830158531694,-0.018238633526851046,-0.0917770755529208,0.051366145915981716,0.1100104518673152,-0.1596939453444814,-0.0852536652203277,-0.029636445309619213,0.053139634116080754,-0.06110302848231964,-0.04512428350189262,0.05382894251519588,-0.08982870154564003,-0.10299329853579374,0.05644307154656646,0.053572774463236696,0.08672763287924483,-0.11426909573313701
-0.10295529598078366,-0.06736387446407725,-0.03023825757734539,0.055620205825477664,0.02797321925280066,0.049774585190264176,0.05990842238378608,-0.03840151411870445,-0.01743024556168874,-0.035777527222502964,-0.10742534834241696,0.12292272803380275,-0.1645090617647717,-0.015659438001761606,0.1259298542347134,-0.034388690034704184,-0.10690466715211754,0.07107342508636154,0.03055181902273511,-0.04754052160208929,0.048237441490223854,0.054579442230312566,-0.1406003054770172,-0.18243220405748278,-0.14500576530219317,0.12367429671741766,-0.04717885542144918,0.1354445112162387,0.1908717177440514,-0.012513675450590343,-0.08326015931073501,-0.07676729576787603,0.06644758194227242,0.006514102031115174,-0.007105498142351897,-0.007745082785157488,0.15122762089041242,-0.07542891240165082,0.03105393146697617,-0.002763355663963937,0.014243491400556706,-0.05135544322556936,0.0062136424840503615,-0.07404061561805124,0.15138326518524825,-0.02868544504540373,0.06922712235338696,0.07952214682832379,0.0011474828152826925,-0.0013142220855085073,0.00809155837293741,0.16881389778679723,-0.06858602079824785,-0.08454353337143944,-0.07177319953589995,0.14459646981466598,-0.19113386758524736,0.0008520497466541331,0.008000798997541796,-0.024955626037948517,-0.16605240230696885,0.11852849967793952,0.09708147198088167,0.17972446726206123,-0.0774574132236432
-0.10986199995805122,-0.03700695409889158,-0.09491008955084063,0.12976121727252626,0.04788084400129929,0.08005254289144702,0.07200265681133244,-0.11769554016223241,-0.16489239045430848,-0.03437243408453872,-0.19395762323061755,0.08978962167394972,-0.1213077409051041,0.0017646362870005542,0.08481762497950592,-0.002169883680656231,-0.11969399105586753,0.04655480476059725,0.06137607151188735,0.008444909186550772,0.07511004269229928,-0.007712464079738254,-0.08407385659521883,-0.1353343845045607,-0.034543736140433066,0.1455329809738756,-0.011544310685510258,0.11399340709599032,0.18535947062422084,-0.0985844274896756,-0.06062412751351554,-0.10825539958771423,0.048843728772053854,-0.11811094524977502,0.048044213943325496,0.0009971729572235554,0.01289459827612029,-0.05537488958932101,0.06997500563194838,-0.0033077914778980315,-0.12096839714208696,-0.15557485569257146,0.041097675671397695,-0.042881517251825464,0.20328084096535587,0.0055063079948938064,0.11863206715366872,0.15299010581748,0.0721398255086398,-0.055314143319063466,0.0077502691475769825,0.1414613798336435,-0.12669405167044848,-0.020503481373449033,-0.03346268247535668,0.0431482870193456,-0.037721926716918985,0.003302251570512455,0.028042978747096683,0.00807448243326958,-0.14907760722499605,0.06323799202866186,0.0613442601833765,0.06943262204040795,-0.024096806948539985
-0.11754810942221738,-0.06385097161432529,-0.1761230032254404,0.17861087893633054,0.06513573483726905,-0.0034208107238737962,0.17351914686071582,-0.20479890479106536,-0.06722359041470923,-0.012059531993181914,-0.17026513447408037,0.03118008560752937,-0.10492771040594452,0.0074776822329475,0.052182230898249395,-0.028634701470104423,-0.09390832001729557,0.12266587271214523,0.005575607112936732,-0.07739568929577521,0.007528260443321951,-0.009418896871538136,-0.05797965611244617,-0.08747922766144126,-0.06257155695134267,0.00919980037816701,-0.04628656849745604,0.02854244841399197,0.030571789087976375,-0.043583764420720976,-0.03119955343612146,-0.02334796211770471,0.19957809252327155,-0.04106237787111541,0.10161903233020422,-0.09097343356985707,0.09108586439114409,-0.0510049618061658,0.013884305474063179,-0.018570225676115902,-0.12515471584731763,-0.027140339746299032,0.06705265784198157,-0.09572349213587883,0.10618644216853972,-0.03976564502414901,0.10901304060113164,0.18045536270779167,0.08770334751027578,-0.061557358089773515,0.170323346227932,0.03828092153981077,-0.04949939585343812,-0.053101342461355394,-0.09317429191447317,0.05703885017422713,-0.09634543047254254,-0.0890485223150702,-0.007151252832755195,-0.021487809820994738,-0.09491388650489715,0.16369836869155863,0.07427675530747253,0.14065161596704126,-0.18063403378979492
-0.12426119818669962,-0.1131827760881602,-0.18463622880546582,0.0575592702003544,0.123677648390807,0.03821973707053242,0.1557484809635368,-0.09021341551136665,-0.15792983086875664,-0.009052771924285304,-0.05441994509745267,0.03614150562626906,-0.11819564707905231,-0.02222477227751182,0.1824692343729871,0.026300158860158334,-0.09525717782272491,0.06838043869794935,0.004893674949449579,-0.036309896674781135,0.020460142981028103,-0.014136570861683581,-0.0400502944981211,-0.07163585604339356,-0.06060742688393479,0.17390158356731011,-0.09729428925091142,0.023650421857904832,0.05941489680605587,-0.05272953356009733,-0.037333773618545195,-0.07915663607454812,0.09425173981415436,-0.10475317695119203,0.06275043079777184,-0.04039958951869691,0.026241634879327416,-0.06354380878065352,-0.031305455782979455,-0.014406605820229072,-0.062135864039666665,-0.10070523833192227,0.04873389840948844,-0.11057431337877742,0.21085037465848425,-0.026162255048293104,0.16068043376303506,0.1436508001374499,0.07425281147068254,-0.06673996091901888,0.1637420534332662,0.06664764247679898,-0.0007104006774617564,-0.05107530763247483,-0.06233557853777845,0.1383307024458879,-0.19404593475675985,-0.08835951815656039,0.04336351988630737,-0.02856482908149505,-0.05459614094961683,0.18229267212998057,0.018627604359376538,0.16072351962578052,-0.054526716563958175
-0.0970149340166622,-0.05870991774725827,-0.0329909211899491,0.0944862733199329,0.17744896028325685,0.12808392022573403,0.1432674241070113,-0.1348768853342914,-0.09346635916350389,-0.006974062724407266,-0.1299604872327099,0.1273734066405508,-0.04983969131719645,-0.043379991027635484,0.13592968150040344,0.00778130899471506,-0.047650313970830145,0.0816943649500382,-0.00013031517150600427,0.005072100217547521,0.014778991780426893,-0.006806161807991374,-0.13309817467012888,-0.10780206442977144,-0.10533565003918186,0.18494541024077643,-0.005987069960094849,0.06881590020652173,0.017965891230327522,-0.026280401775184824,-0.07725707697049557,0.00046606061792379446,0.19027861286976142,-0.1140161357655571,0.12283261610558044,-0.15414483324218667,0.1553281762866026,-0.05274688571814152,0.01265339348237028,0.031150563602651414,-0.005032411791598647,-0.15713467071165826,0.04953062365937844,-0.04460007314519635,0.14463128175036818,-0.0420065937671239,0.1263463788827585,0.1517928229255809,-0.0017242468016368132,-0.06834176934159242,0.11900835432702742,0.02405395123960051,0.015397817068074894,0.03400679194547252,-0.005664624634886067,0.11012789418908406,-0.06868646063726554,-0.011346292277998838,0.06038345106220925,-0.06218477391196391,-0.030107320600220984,0.0746879370063084,0.05986696640670851,0.05207557627308181,-0.16853026197731583
-0.12350991654921115,-0.03133711736036044,-0.10115971649003769,0.12119369638801636,0.08430956094579613,0.07763389307773372,0.030426994347680578,-0.055681976207823565,-0.0337932619347846,0.002312754747922912,-0.12776136064046986,0.04232108647841538,-0.15512501741962584,-0.014681538660138006,0.17942016866540142,-0.05618322901644389,-0.10952758793380522,0.03267720150434735,0.06028365435417544,-0.01898984348894811,0.08097361488415265,0.024944348016646255,-0.14286829346671298,-0.025204058865733056,-0.05770233779056872,0.03541223159770964,-0.10105187983742668,0.062073985136520314,0.07337827558220947,-0.06936889737249521,-0.045756744467266484,-0.16699596788555632,0.17681628255593887,-0.07088270225174363,0.02187567066025687,-0.08105471451750416,0.1333430518503037,-0.01852625587553554,-0.03656109063654728,0.05389163519357032,-0.06431732055315824,-0.1544298799804153,-0.046111842620341854,-0.14159894158898392,0.030166197493099456,0.03193585786107798,0.03897922407680061,0.09025595844070994,0.09783006494034419,-0.09155649926755773,0.09729076534023577,0.15595298068261884,-0.14227250056377996,-0.00576411719784657,-0.09181742952089167,0.13487828827673637,-0.16058018416279837,-0.10991194146774644,-0.009795414086830658,0.04844382615493021,-0.17907803252801466,0.1352968747315933,0.0011815414941571572,0.06439852394050917,-0.17894614585992702
-0.11268985416222561,-0.028283510326509234,-0.13138841840718485,0.19464466952980403,0.011682383469285452,0.07872259948270953,0.1876753095574903,-0.1306256657203432,-0.12890063125844348,-0.028074702976592845,-0.08281341023715552,0.07246118372601806,-0.11083280833238586,0.0155959941586553,0.11436135847676039,0.03667801088658368,-0.10847511303176989,0.09298054276773131,0.07219740431215795,-0.07981798226885023,0.019653284122360896,0.05900097390368003,-0.18560658970806865,-0.0067186979550280575,-0.10734690770330775,0.09204137652078687,-0.026343913083811635,0.1424913693157633,0.07954818668062641,-0.049209870166642654,-0.05841212725804712,-0.009156590355093632,0.02633343412537003,-0.014084039698068167,0.019635100956323696,-0.10465273417611293,0.1031039518446674,-0.04698685869368884,0.08215662830936588,0.0887825464849756,-0.05431364544849434,0.0017284426106953803,0.01649720166537607,-0.11459361064033592,0.030575547850866316,0.04673723041948957,0.033528373791360755,0.1680382388036514,0.10073479681664849,-0.08306217991402122,0.1675509991396286,0.1447958669679556,-0.12604256627011365,0.005517091461063583,-0.048028458990463735,0.04606869121352871,-0.07299388952683122,-0.1267643706822966,0.0021730563205988127,-0.04361703305445669,-0.07772600143060014,0.03946977762443158,0.04581898176023418,0.12419161666966999,-0.16295811376654917
-0.10967226332433534,-0.1072227423374934,-0.1437518102327108,0.17099668276400415,0.058167524459940244,0.07225168597610655,0.0064052341990646555,-0.06091568951216858,-0.18865394218787837,0.0010927130229586289,-0.08738385158544205,0.10302575957467998,-0.00923063342510054,0.021916773657962033,0.13290153913989092,-0.08657008433487175,-0.013252713248940819,0.02144563993977742,0.052612967675956135,-0.004606865316732601,0.13208731080564085,-0.0029518288241536287,-0.03788143730852865,-0.03253541927122637,-0.0492674430958579,0.14456682216422162,-0.08656202246872471,0.11210941023420118,0.043138099234691425,-0.0521709118383159,-0.06950202792081787,-0.021799935397738706,0.07264901462458288,-0.109836641716045,0.04184375934083312,-0.022640920453995187,0.19021008123880132,-0.036389996788432,-0.043332237004830604,0.07345300755594465,0.003729465022937562,-0.1757856708972145,-0.026594378826122766,-0.11945215681310045,0.12479673601687064,-0.016792528275297154,0.029001783299850238,0.13844056164956944,0.0205310667742388,-0.05744617894360337,0.18650264529653174,0.13066917114045148,-0.01272231332546663,-0.01139288978478252,-0.06572472469282403,0.12678870435009598,-0.18331127056256874,-0.09369758849604187,-0.0007167385827179717,-0.0034428462039337066,-0.07708828355447243,0.010426864085592954,0.1330725628113333,0.19026240904377686,-0.13661281924772348
-0.1028321418022001,-0.03216245611561309,-0.14656743644959846,0.08188454760856399,0.17129235890761155,0.01821834505368863,0.110937250600272,-0.06859842114006032,-0.13639937532362567,-0.01697665110156568,-0.1026651324583542,0.014888074241076306,-0.049458507309412605,-0.03834118565805443,0.18906832759867218,-0.05900490918317863,-0.018639687310581743,0.07074468750795358,0.04891937280438929,-0.08588539765126725,0.08401766146290408,0.050599362797359416,0.0068194463575583855,-0.014119899898739734,-0.12803423667346406,0.024541859202117412,-0.10739943226030901,0.09283204677393098,0.13099863338606033,0.017077377569520328,-0.06940739545109198,-0.1733039574491905,0.1741461375795711,-0.020809781899391734,0.04196637135985294,-0.1249190755714259,0.08203769372358831,-0.06923183655368773,-0.032170606539881616,0.036685428238754196,0.006254590963134271,-0.1548734706834355,0.0014410838364124392,-0.06508934246684203,0.011218006872714925,0.017120417351114338,0.05613032387232502,0.11827012313569922,0.009720085116301326,-0.02342125800288874,0.14994384395562524,0.013094829981185925,-0.1287519455584476,-0.09470167322019292,-0.09447721338513361,0.0076715879123172535,-0.1622846935371053,-0.15042365460988796,0.02212269349044016,0.011863421583353965,-0.027110460716624075,0.14930798386029365,0.00578965030364398,0.09469811893142857,-0.17008246681194406
-0.09680025588925531,-0.0790687680781358,-0.07398531639536443,0.020262179568065718,0.15628899926109593,0.02395506100484753,0.13496775891222332,-0.008003333134641653,-0.15898297515115134,0.030043667955931934,-0.15149718964431733,-0.00597903729531791,-0.010761791387162623,-0.0035809843751910026,0.11340909371591554,0.025454744076890055,-0.019392009727973024,0.05009457465512457,0.0776608867100311,-0.0466357122808567,-0.0017081482012642067,0.026352694289742018,-0.17269926394380178,-0.18653573980056423,-0.10972527236040151,0.08912461227564346,-0.03752641807191111,0.03713918674084445,0.10537893107274016,-0.019338749754944037,-0.11387693832637867,-0.18565044771702527,0.08673965750645563,-0.10143130959431151,0.012858947602973772,-0.07187339035632791,0.18048030654902567,-0.07506587855921193,0.037793988823142145,0.049096967566010084,-0.08151298104585944,-0.13651562073078957,0.008425713395549829,-0.07549350200681476,0.12072504682365671,0.041844164611174794,0.0016360378291961945,0.12364905362290587,0.07775534472307837,-0.08679261490695217,0.16219787411908174,0.07222456421260341,-0.1450359749920075,0.016534073987680278,-0.07250144122178956,2.3120332872554603e-05,-0.04228271698776484,-0.18224235215464624,-0.012877984031109036,-0.011190969798113357,-0.13701664966692384,0.09926247471013482,0.0801570699031536,0.011788694783770865,-0.18270735552709064
-0.10046854758791861,-0.003966603304240145,-0.14046522451584076,0.06637878054603966,0.1652843151806261,0.08405767273224223,0.12075771083825701,-0.15383334046828348,-0.12348315159393725,-0.0019197847828756585,-0.17210734780231848,0.13896630411008923,-0.08785167778383088,0.027632039891532945,0.029733498486825938,-0.0047185325723180715,-0.04122618405160417,0.053969205974321095,0.010476199695423263,0.02194646568617418,0.08371747443540185,-0.014510775035050518,-0.09334464618947949,-0.09293400240707678,-0.09412260526724896,0.08189719055419617,-0.037693197684940775,-0.00420968676076367,0.1266435694835137,-0.05708940274472864,-0.15641853344409504,-0.022257734363797754,0.1378730119532224,-0.04273632020769784,0.07000817361400588,-0.07505251064149744,0.10927582869943857,-0.02448128284971721,0.052060026870333134,0.0327603500395868,0.008061018670920414,-0.10740839518098541,0.06790844343537504,-0.010051194965672857,0.06480998497204317,-0.054826807246212736,-0.005206703470346113,0.1861850974612164,0.06887456847895247,-0.11785429029368781,0.17385459278775542,0.18888431807789322,-0.06213080193194953,0.01783297803136046,-0.0357154130037168,0.010594166249937524,-0.1546226190234003,-0.03783854909822801,0.040316425555710175,-0.03675881873707886,-0.10376688585309907,0.01705727488840531,0.056826707486851945,0.152286629120205,-0.006064518213846781
-0.08223776035906022,-0.011898297140481361,-0.11555287363511971,0.09649488302228659,0.09079503297315433,0.07380290523289805,0.11229976789666636,-0.13110012129210857,-0.11475049578459942,-0.024125445489655287,-0.07672315381362747,0.0926179745587622,-0.17087652557948727,0.023072780343873597,0.13657120897610586,0.006128102350669338,-0.037999421878779624,0.026585185497978718,0.0770297069758737,0.0056682199482725945,0.15759854960278843,0.03510760647302761,-0.08043492269998202,-0.13835391817079987,-0.17670890037779732,0.05956142458268672,0.008933996194812097,0.11491448968720117,0.08018969264585366,-0.05072078181709523,-0.12387327045440252,-0.14480961507051046,0.07540253256917533,-0.03983646671973744,0.04606825515541377,0.0063325365602751585,0.042659400342076804,-0.03365595193660389,0.017469803129183625,0.06714668495719257,-0.0983500082748272,-0.17278399908862402,0.02383616182892083,-0.08720334457524927,0.16819058121007488,-0.005023914414866181,0.07459891165855867,0.15041029173123377,0.0374561318624965,-0.12285563331843576,0.08925911086978523,0.04682816314996801,0.009886632954244872,-0.041956650491312066,-0.07220188080883923,0.017805936136133033,-0.07394430877095375,-0.126328493533584,-0.045133517022491895,0.019252024386922088,-0.08737655091602455,0.00732493861086437,-0.0003065695002636528,0.09782223184061145,-0.10118584432035352
-0.09660769069209185,-0.08132478072351784,-0.10792943551961576,0.01623852076762011,0.06004897355924945,0.12614979742727256,0.1518051873029838,-0.14437927277041304,-0.15851631100187435,0.012628468197521597,-0.10904001606039601,0.1194958737123114,-0.13562997408536726,-0.06413434995765249,0.013215475825636851,0.027148231793575103,-0.02357105686697585,0.09348041823692482,0.039964413897710216,-0.03460181808582267,0.04082709981476117,0.04524659330728277,-0.01295960122397336,-0.18181124771747562,-0.014780138584836731,0.09407682615860886,0.010895958798747036,0.03150656053140259,0.11453221067675137,-0.03942436834797268,-0.13822584403351326,-0.06796379879872404,0.0327631233107204,-0.06077334291875677,-0.00010777019445299611,-0.07902921630434472,0.14905689574121347,-0.03258139133458966,0.05070613041297977,0.014768173489831985,-0.043449861412160985,-0.09013718732979409,-0.002648194211374422,-0.05740217432323604,0.10932591651955839,0.007268831353433812,0.1823819301566615,0.18450428699077426,-0.027868496937292837,-0.019682980935093398,0.17841485509839985,0.17901960462846142,-0.015082506906714014,-0.0627510667727009,-0.039067888747920894,0.12900184373432141,-0.12291274502436897,-0.07188036631907671,0.06400685010216689,-0.0484605352022081,-0.046174366226353736,0.04595859734147872,0.058716424149790496,0.18808802843841366,-0.0674221765417131
-0.09644337922057447,-0.10671857231777421,-0.14528767990952668,0.053339845636407035,0.1784927808918667,0.11703071143546415,0.15921639136940122,-0.04379393014881741,-0.09806715559860794,0.01796689341534242,-0.13680232480486715,0.06219378053416706,-0.040475995905882654,0.010637880141804933,0.16621184969652777,0.03101268146929078,-0.0849226868022685,0.09313718782382321,0.031004063977916656,-0.07759455338320569,0.05948758868511037,0.007104193227185591,-0.09688125231782549,-0.0018858760416867449,-0.15305773498307443,0.01224198440974425,-0.012977400487156343,0.15352862808703008,0.10303199939002171,-0.018871833680430987,-0.09854032856672665,-0.1851956394631011,0.1262023383293426,-0.08227624107466967,0.026800717967038628,-0.17476612165144517,0.1583067278430092,-0.07004940771261237,0.0023069027479847314,0.07433804106618226,-0.07667108541158262,-0.07656194313801863,0.012828607072172631,0.011711156900096052,0.13522038193428804,0.012833867093232004,0.008545451923745876,0.12514231240902748,0.07131134995532205,-0.003090818746744489,0.18223054531344515,0.04927259831843195,-0.09579598188456717,-0.032509737011264514,-0.05862542090133363,0.09346977985754706,0.004084308733332372,-0.12199772927184009,0.05040646521590121,-0.049965042926333726,-0.00011651429835211526,0.04458744716731767,0.04026900822492718,0.18727264343232178,-0.10235156824548719
-0.0927984037628688,-0.06522338068170178,-0.17178248719878525,0.060683327335083324,0.14312378378883972,0.044829667355882966,0.14949901209180674,-0.15330651951120658,-0.17769363427684057,-0.029918253646761272,-0.0788429879465094,0.06236091756748899,-0.025544273472675502,0.024016369756743296,0.1342008688876521,-0.02877295664406871,-0.06080805906423752,0.10072622374698531,0.05446828495121225,0.015246645485648507,0.0863044067021151,0.049870810850698374,-0.12616087233349726,-0.11319513399865966,-0.04202476159348836,0.10553225199811868,-0.008001433354220945,0.14509984888233846,0.09066168847119288,-0.07474036165620691,-0.06174000143464446,-0.10752276385162383,0.12213537623235905,-0.03056937897117571,0.011208606439969572,-0.02288167585075723,0.04020433759578431,-0.011494861664620873,-0.013745844192760051,0.043259115976874235,-0.056310977331067845,-0.05572385139229618,-0.022135512792282635,-0.038556517425124295,0.12816387336426135,-0.003656629800811849,0.11735029464550271,-0.006253783720884949,0.003260676667909706,-0.034955784114170024,0.030413050060430373,0.09315494008574353,-0.15900781201950553,-0.05310473985591392,-0.11266413219155039,0.09446779866323199,-0.1336611441235508,-0.1630437175013731,-0.00035907794778959785,-0.009695840168007218,-0.0868388752954591,0.09826999070399031,0.07604272303172327,0.10383864905176968,-0.05653372680618533
-0.1063765594238889,-0.07585748189558442,-0.18636333792601922,0.045074988644417016,0.1285865833599579,0.09412626514804145,0.19149170345488722,-0.15374846544258844,-0.18502346467108588,-0.003472852202348366,-0.18923386998436612,0.019891149122698258,-0.07404855426983262,-0.04011555226909064,0.13140261536678646,-0.06865407401942075,-0.052351704616922554,0.027470264257258615,0.018709496294105805,0.02042643840612257,0.053354845300904265,-0.020386587386586514,-0.009767402444821091,-0.19499675805415836,-0.150490289443925,0.08666896007366255,-0.09391387366583179,0.0249383199919594,0.04507366930733544,-0.033785100849553884,-0.08710538839966299,-0.09549982262234967,0.11035747012147883,-0.07321261220185304,0.10916132078423345,-0.03338594808177721,0.02194636693149863,-0.06274677233442393,0.012792865721321416,0.047703818829472056,-0.1279409836742574,-0.039721556465616786,0.034081372623114274,-0.10527719311789753,0.16046275247104977,-0.013479433482728183,0.17524274467846424,0.008594480834137677,0.06647457059268938,-0.01864764142608189,0.05841011277368986,0.12613604019444327,-0.024584284564430663,0.0065377291173225735,-0.06250971908878786,0.1320581957793151,-0.12077008910382812,-0.11378964475516165,-0.032462633182855416,0.0034913404561884263,-0.014621867889054188,0.09146391356036258,0.13478315860703854,0.1495345573511087,-0.16496642291126057
-0.11408832234196989,-0.06427321217926116,-0.02388528594310212,0.17138489727583278,0.1610206979110796,0.12479479950280892,0.037488993008364786,-0.09425039940404091,-0.12743545164920164,-0.02734020660213391,-0.15120126661540456,0.10140074372777799,-0.20142635933649758,-0.07340879841612265,0.14239074748711858,0.0278721268727081,-0.04140001871074906,0.09975648572148045,0.0316469337631259,0.0016218128395164978,0.05777708945841845,0.08626559738726318,-0.10560970546983987,-0.19747277147636222,-0.1818244908530858,0.017335097724714477,0.005391896953757276,0.03432400481316138,0.026977634050015003,-0.056981050438459156,-0.08995789384943735,-0.07257517163997959,0.1807840749096615,-0.12372087881955972,0.04296131858296353,-0.09521033998773852,0.1109535963316262,0.009464203762785903,0.062377273414931864,0.07247209269450004,-0.08899667735521713,-0.0638141288141741,0.04385597990257474,-0.09524060167096415,0.04510425559815855,0.05540742476313275,0.19352387700364115,0.04567360724029209,0.08728188158808564,-0.04076995593180054,0.11178683891689097,0.06884013474324087,-0.053408158179688255,-0.0943730626709997,-0.10255791519976366,0.13498789701696004,-0.061300393869111715,-0.04773250524012029,0.025340573989738584,-0.04641958909288462,-0.016622210475869963,0.09320201482847268,0.036655243942229465,0.12030570591584855,-0.16027809391763478
-0.09238180991691265,-0.011043603398268412,-0.043656240804714294,0.186217625083807,0.17423135951248897,0.04740248138902006,-0.0071107866201222504,-0.1459433683009646,-0.12745000049365174,-0.04620106899609184,-0.17424022123979824,0.02575996339962314,-0.15998694065180602,-0.08197400432370723,0.09104321111161816,-0.0026677535971802303,-0.09837175306116251,-0.005094017082409232,0.06905406191435655,-0.06573150384418242,0.09920898920544421,0.06796814133672019,-0.011011104700690631,-0.18377199404972935,-0.12170139483468963,0.041795822600525646,-0.03851736687117388,0.18247018260855863,0.026846917399944475,-0.007468341062214579,-0.018433374467631006,-0.060655183071026304,0.013481711486422363,-0.08607792879180008,0.03170231016969179,-0.14302970814758692,0.03371023728762011,-0.0742654722318451,-0.008777733324176204,-0.011308947328055053,-0.03876251595341831,-0.16426970567859958,-0.014110765941009564,-0.08001739785728072,0.15857382822288282,0.01225106841190753,0.0034858360906099037,0.10271034235491266,0.017682123756527914,-0.13086658876971147,0.12711547231920003,0.1764742663094798,-0.034319035875467134,0.018459744676,-0.09890071619663957,0.07382498302399024,-0.06512323182273361,-0.11040131927957667,0.006880948909517899,-0.013753213842412848,-0.0063852755553499875,0.07428072539125961,0.1280240684479682,0.15240733621447378,-0.117299803114493
-0.11845105030839842,-0.05562172572988108,-0.1455877778846997,0.030018446126162376,0.01609440661680035,0.03713033997573667,0.09539181251676238,-0.13901540091464362,-0.10788753188087485,-0.0005549650437295001,-0.06266141092965073,0.05003539381692786,-0.20544386599875067,0.009867570572107812,0.19237029140930487,-0.008072423866365086,-0.10143427996947163,0.0304104225072098,0.04024828885392468,0.009246687150670454,0.17461287452088578,0.055615904114817594,-0.191863558863582,-0.024991977244528427,-0.03814904117864653,0.045899856454379384,-0.0856672958467802,0.1791389622111158,0.11057623477185212,-0.010041640081829471,-0.06674373772232683,-0.06368724387494347,0.056654373265467836,-0.13712496248336759,0.014365234236956747,-0.061002264403624135,0.015207715743464993,-0.06447870822749789,0.06180998985235122,-0.025145909944755795,-0.11403734575713637,-0.003305508782283089,0.05042570640249998,-0.04362420695329756,0.02255119478155712,-0.027108667281987665,0.1550726878932353,0.1850550692319056,0.04168771614365086,-0.04912041140044923,0.13513186471358932,0.1945352559423897,-0.11134766238323224,-0.027655576233501126,-0.06635567096341811,0.024286650380256992,-0.17056663157129828,-0.015730947270627474,0.031077188600246344,-0.009545393507037996,-0.056050646100113025,0.08643378479998885,0.02645333907277281,0.0931332345922444,-0.10301220924526709
-0.1144876387249775,-0.09279054604261217,-0.19545454307576746,0.012435504000183766,0.15026296398934302,0.12043371250593349,0.08163591189094596,-0.13241165307385844,-0.18207485032911588,-0.03803135928806746,-0.19394692458862048,0.0997524580037131,-0.033999338640137926,-0.028556029131903603,0.18211637075531226,0.026107879622137252,-0.051916330534815425,0.06218886220057022,0.02758775462272689,-0.0051343165685973765,0.1565638196023307,0.0650205424242795,-0.18690399270469352,-0.043158868935122885,-0.1118071186074484,0.11107304934643963,0.009412226635080966,0.1807819985001445,0.0833550730269439,-0.04113636380127946,-0.07720707395441403,-0.0655761668870207,0.0243736505544142,-0.10080820959074162,0.01086789894227885,-0.10697154917214352,0.009593203295548091,-0.006294530147276568,-0.03607012301014873,0.04981446627407522,-0.006692052229025925,-0.04485361735600737,-0.01585764338593683,-0.08304855294759535,0.11299944468671101,0.016857676043253833,0.13836972496824615,0.09426612382855638,0.09375390466463544,-0.0909407606774921,0.07222363683447267,0.09563458277312768,-0.04466827946490361,-0.03016708834559417,-0.024889801496602637,0.1024103692746294,-0.1008002435962177,-0.15618282294134841,0.028023068702879184,-0.06666539054670417,-0.10726084434366419,0.07533223881386576,0.10676858457116933,0.0082542150868862,-0.006754273744626891
-0.0994660319572073,-0.01103590521751146,-0.1488486018750531,0.12870214025492854,0.043587924111568345,0.024711697880028215,0.11153763012204446,-0.14436384686548734,-0.13049641468660614,-0.007811266921010335,-0.10279928115405484,0.08906928532637257,-0.0984719480043699,-0.06050477008158803,0.0044777931957310675,-0.015927778902768436,-0.011973738935816592,0.11013439965791305,-0.009950867014942568,-0.054787447464448163,0.04729008467045226,0.006478462392536827,-0.1734887064876924,-0.034906630701034114,-0.1544233426612781,0.014470752683561515,-0.019957253555145698,0.10396864807122694,0.005132534849782073,-0.016762672709192593,-0.12302374114349265,-0.05261750568232809,0.0463598831362426,-0.1045080806251397,0.01658462635586408,-0.18439919296977425,0.1838427155606331,-0.06669258090276872,0.028609480029160837,-0.012882814744892704,-0.13301065799575698,-0.08446947965338662,0.08522338455422766,-0.10819240670982344,0.07569986841343422,-0.03272337650294358,0.015630184499479168,0.13209059627240283,0.03190119527125271,-0.08859411076160487,0.11027283723411423,0.15665948777052024,-0.13250261079867956,-0.01935647419683269,-0.014196716022832647,0.056076158348161605,-0.18732177097439828,-0.1106258200328051,-0.012353265275799358,-0.0419969571440621,-0.041285919749242866,0.055835749979841004,0.09433991542616399,0.08996502808403625,-0.1154965021806755
-0.13457293119660332,-0.02348910988781619,-0.04388902653908561,0.06772036236386517,0.07829649858993754,0.030552366204859283,0.07551083275584587,-0.06682937630283727,-0.17553320300064645,-0.030353058524067097,-0.12001672533885457,0.05431718959611628,-0.16497148383084215,-0.0034354375876584115,0.10960061078530836,-0.04013959172766323,-0.08200170199949113,0.10094724847118762,0.029360827963541704,-0.02663846702075938,0.07555267520261172,0.09058429771860753,-0.08834989192272172,-0.07347339517373658,-0.18326891276977805,0.04100023168139735,-0.02461088047039358,0.19774410410643162,0.05596756676627322,-0.008949301624915282,-0.11223222968024478,-0.020487086104788287,0.07198827125721306,-0.08965476093658997,0.00897783340114563,-0.17987205660836117,0.15854582356988414,-0.08847091436394915,0.062007661594794095,0.015040783980935588,-0.13970424276982038,-0.10082888369487004,0.04024394062424532,-0.06525465864612776,0.07263562014910971,0.021126646131355693,0.04689784928811899,0.12224195726581794,0.04142391875489711,-0.05026790338712376,0.1541961169549393,0.046349872645593565,-0.12459040408337023,-0.07973778932218502,-0.049135482378504604,0.12472213925005411,-0.11899893126068685,-0.05880757023855984,0.019514107232578497,-0.06370493973628509,-0.12717250897121918,0.1374979217346536,0.0509665525683646,0.040170902392305294,-0.06094287962976055
-0.10481336306117452,-0.015380319149843849,-0.16713801180031235,0.06348960772366113,0.01999653563599284,0.05411199078726329,0.05047417756206861,-0.19503873736709748,-0.12170847879622079,-0.022234095340638475,-0.13411051581007086,0.09726301592199943,-0.18843342938601415,-0.06209224601923424,0.028466377033416236,-0.003462033847377965,-0.032760199282648984,0.08993719169405365,0.006654747572048124,-0.005314354158327538,-0.0013733025543255716,0.035572126183527404,-0.013759660947585167,-0.11859349645720767,-0.07124879303510298,0.13384035375149508,-0.0425127964462649,0.05960488590579095,0.04167511387274796,-0.06447838664315068,-0.13258801674201218,-0.032464297913459554,0.09930185932986024,-0.08818371555830205,0.004911627096040567,-0.11840645020927906,0.027630367203659984,-0.07585345081129038,0.017017013483574744,0.020461969730463884,-0.1060834896456799,-0.14191272885624542,0.0821711051154878,-0.008790014654031036,0.10632894496043371,-0.014576048105541112,0.049450993863475456,0.17986588773938647,0.08136333389935729,-0.13520209736504268,0.08452625638241912,0.14782744041196377,-0.09518888461567582,0.007205214010005258,-0.06409650837445932,0.05707930368648737,-0.1441286063814977,-0.1378067174940159,0.0002443328236711996,-0.05794077917278891,-0.13081054537103964,0.0030559817024481514,0.05680123195399284,0.1435931293001239,-0.12634735247715498
-0.10731831658985308,-0.09332039092085194,-0.03185591454259224,0.11983920944598743,0.12813479187716087,0.05832590782617499,0.004205890662264635,-0.13868375190523885,-0.035594564838734494,-0.008130037137054938,-0.15158507889411274,0.04608065580121005,-0.17458015677347696,-0.05620947683173604,0.11529119550812446,0.02756102030124955,-0.02614535107217647,0.10768991383585788,0.07788700763439946,-0.058559023215164194,0.15863407088567524,0.0015433264163297713,-0.0014589463558312343,-0.1930281159012582,-0.01195480554627485,0.14408592159739558,-0.03348162908640082,0.16147715801160123,0.09086185789642857,0.018986570537569917,-0.029308261158925916,-0.012415674381853559,0.05226485333435389,-0.015268348157757067,0.0504635918235688,-0.027263058439042663,0.15306726807612284,-0.08398953443700645,0.061681831915096616,0.0622083429591597,-0.09850111882302631,-0.08624658892704838,0.0403919474291713,-0.10792110479420661,0.08960785079543239,-0.020589758811628535,0.05403628147078598,0.08335914676935095,0.017233033975119254,-0.052820999678719414,0.05698539951326831,0.07844717004451694,-0.13879501841340633,0.007742132119575434,-0.02234640684058289,0.121850278186894,-0.13784788324299946,-0.09218646842511947,0.05638716972194114,-0.06976523269597208,-0.12937465980562834,0.08473660171284578,0.021481781089212563,0.11420876983208522,-0.18354391631323036
-0.11574719885506649,-0.0033448403458683847,-0.04172530778218092,0.12989747846823335,0.003326840652307429,0.008747703658660039,0.04444088925907719,-0.17227720542373307,-0.08008246703847867,-0.02607476290363967,-0.06550654260237262,0.11315288038861131,-0.014497438090177221,-0.06568704259236544,0.14541510498295743,-0.05832633170129701,-0.08452569919208806,0.023113032721844458,0.040085671921999654,-0.100849023397245,0.16496498815995614,0.067557132906614,-0.030025044520215847,-0.135330264295529,-0.06676075483803015,0.2016503045831914,-0.0381026794836238,0.15951765499433335,0.015620227641428142,-0.06280459935675539,-0.013195999605220702,-0.12716544942500943,0.1381784120211614,-0.012952857641442163,0.040027469555423315,-0.06638625345486511,0.10482874474268047,-0.05101150668659639,0.003417365933315499,0.09591196194439752,-0.0891038033315783,-0.03881030380877352,0.031607977079435266,-0.11366115806882951,0.11208252526652261,-0.04399215546875535,0.12950940570551628,0.0655245432913387,0.020811731701040632,-0.09487276228593522,0.17326898388306655,0.05069903080307878,-0.030451140789332812,-0.04322966098583004,-0.0873372833519135,0.16421738200405878,-0.058777866838835235,-0.20056574127292404,0.023623998675605704,-0.0678806668420797,-0.06154580765260008,0.1640506570906761,0.08138173424268075,0.18354416777659963,-0.11494976651847265
-0.09564097379041306,-0.08048497236711659,-0.042519301970965595,0.15694919382030503,0.15286792993217868,0.0810492637879034,0.07987916968569903,-0.15856157186749417,-0.10732130449163518,-0.010525463923924517,0.009309699704117559,0.04627743135403109,-0.18747726297302938,-0.013861632938318592,0.18427557852229345,0.019382632813198714,-0.07632733118399604,0.13423162012063755,0.057374356056826656,-0.03372705907997149,0.019260217157818286,0.045742415742122955,-0.1540441224285469,-0.04417749543083412,-0.11389691785921362,0.1325080314312678,-0.046887841178546844,0.08810273110502093,0.1597646141980221,-0.03217250323908957,-0.08860622592556022,-0.07493644873129694,0.05135933730105808,-0.04610304558999241,0.10617349859041782,-0.06852279924273505,0.18052817551645042,-0.07076614767970935,0.02208586447328199,0.019373051323901855,-0.08634209202602654,-0.11721057127459795,0.00693414069109198,-0.07588171013827699,0.0023825154132085438,0.02415132812909419,0.13005387140766167,0.16992200736663526,0.07360925745873201,-0.0201200230847116,0.1823851341231011,0.10400135399640696,-0.03767793914886669,-0.07621701781119174,-0.0062494669061373825,0.014156559752330582,-0.004706156238906895,-0.1445644221121747,0.04072570678110445,-0.04663487232169478,-0.09811065400685072,0.0213305214701978,0.009584341272497906,0.03979333763309908,-0.09964078915020018
-0.10814142780708222,-0.09422016561682017,-0.1500634678270544,0.19938241371555993,-0.0005952984937667864,0.03729242046304391,0.035604553124089514,-0.12116570524993832,-0.10857155359141923,-0.02757951713924981,0.0011330157425938332,0.06779087349284962,-0.09142092390569834,-0.07236823231069271,0.11939764184722722,-0.003412901974200289,-0.0036339703667147795,0.1426062838785775,0.00531561182153056,0.00043880975705634716,-0.0034324733500611243,0.05038297202925484,-0.14295714249960653,-0.07483547245921462,-0.08982836977581038,0.19150244547079892,-0.012310777821273534,0.04844592403759221,0.07845711431289785,-0.03632246921201736,-0.1364281119260075,-0.188926379445865,0.1417453063744855,-0.05791493867932359,0.07365147628895126,-0.09993346773380335,0.1579103755226066,-0.06717856590197775,0.0598504596241043,0.015908547900144877,-0.08540293173485218,-0.02263650152311344,0.08411886629739268,-0.04438310303621196,0.03394281717222523,0.032152557241652904,0.09269401279478397,0.16563863127053188,0.02165514861338788,-0.014631242565676205,0.18429693555882207,0.10860320796699463,-0.05245105562050893,-0.10819231167831699,-0.11337284968070716,0.14750806691412857,-0.12888133937734178,-0.11948925506747024,-0.004807245919882713,0.017900697726433143,-0.12990365898405745,0.02255593145082875,0.016693989251548698,0.05769104460735052,-0.039092630231436214
-0.12072808113207502,-0.06669645210999622,-0.13060456910008506,0.15063059487757968,0.13635945667284513,0.13031028871227454,0.042167850130856416,-0.08449051888301712,-0.07175912276668492,-0.05398845022138074,-0.20036725285039636,0.09784667597601866,-0.06774606749817462,-0.04308913748444722,0.14941794702886133,-0.05787379226326964,-0.09922739647445916,0.02150980498905846,0.0002945593221382166,-0.016677832812199395,0.14940529532210717,0.06245138241847019,-0.050593038922701734,-0.12682440973159181,-0.08602394930168124,0.011762392208979757,-0.09070177845149788,0.05234927117823264,0.12808060465298354,-0.10696831065170852,-0.024864085824583982,-0.03381811976369726,0.056507207572413676,-0.1177633692512278,0.11376122526030766,-0.08484769631838678,0.15553809010007083,-0.011747902214340071,-0.05134762288633537,-0.0036676748728370276,-0.05220742562000357,-0.05628746211213208,-0.019556001181872253,-0.024777955407334983,0.1310413167123512,0.004266430395268961,0.0963643189017745,0.027098768906960603,0.1056467725341477,-0.1136644746423911,0.1611799726024563,0.1726857933786204,-0.06422541938737429,0.001706550060879014,-0.025834783740444442,0.03653950234190479,-0.07468872037152396,-0.06981420382528027,-0.03512589158496243,-0.0013296789258746499,-0.13065264947283473,0.06975869975428294,0.043104016040379604,0.03433813128206485,-0.20629256682617378
-0.12522352007981438,-0.0650819691439218,-0.1471156499144691,0.1357981213526341,0.12330889693760047,0.04380791295597414,0.07673871087084859,-0.15108602944047694,-0.03489779776778614,-0.029697544354466757,-0.13732546021397368,0.09797775602970625,-0.12922554364092398,0.021478023791618166,0.06549914096754732,0.0004726026747252012,-0.0354221681596252,0.14097077936471267,0.09221201951265486,0.005419888648485427,0.11367691599768291,0.014049861282800384,-0.06643605099641792,-0.08947499978336017,-0.01958032850938311,0.20135691687961385,-0.051310583166399824,0.09829996715195806,0.08542700201175853,0.013898447114876146,-0.10771415629553512,-0.04179095897560055,0.18148683154853196,-0.017283774614534574,0.08197348138988435,-0.059108609049342835,0.1446226008183517,-0.038371864549810834,0.005314650034244987,0.10940623825505012,-0.09878381479841362,-0.15200940717588973,-0.01136087998132942,-0.1350988008906248,0.16142346856401787,0.04614285062938125,0.05895118395026244,0.16753324623664248,0.006031019207527223,-0.020025860648680015,0.1291088039712886,0.05306870383650607,-0.1528675073411673,-0.07884045074883052,-0.07327671277511048,0.05047520408337913,-0.07142573566035405,-0.04204838245439853,0.009031313282346538,0.042331170745015925,-0.08087119160806118,0.08190411218555785,0.01826057418123932,0.019189400234370834,-0.05345911326727473
-0.11704972184462155,-0.030377187931617575,-0.14792193589039612,0.06888522386792391,0.09133845752183122,0.13177366558607836,0.08367160792219963,-0.05057695614477622,-0.18680964244791673,0.020278448268238276,-0.10468480612404582,0.1383413122495876,-0.19648424180966773,-0.015290522457268748,0.15093929889645957,-0.08511897600095197,-0.09092042055238296,0.08416600562821827,-0.028744391915284506,-0.03023668638846016,0.16958132924826733,-0.037878173422070914,-0.10298890933319996,-0.05663377275002528,-0.05103882619709852,0.006090765218359416,-0.0652399434120336,0.15605981498855212,0.19349075293674584,-0.11940149145079577,-0.11735091241123123,-0.14084701144664433,0.044899334536076765,-0.05185885308512453,0.040521703536688096,-0.04678373680282724,0.20540355741880942,-0.04427407904672651,-0.03406795292659096,0.04569624667581556,-0.09419959356956989,-0.08654478047581965,0.029993359311945723,-0.0021006554203925063,0.03925529124688864,-0.05011729033002215,0.060866339235673715,0.060896376390051625,0.06112234864337029,-0.016538453021132115,0.013421821728111787,0.14059567997505312,-0.12456875731466371,0.03583662351952858,-0.05616110298447028,0.1694710850447243,-0.013551318303846633,-0.13102610619817293,-0.05580925481135424,0.02033100631723262,-0.035757031475403336,0.037659242122810584,0.017345013256314382,0.09635602077128234,-0.16196481931579523
-0.09195987511761342,-0.06999511517068735,-0.16726454047289493,-0.002551647054801309,0.03551583580865667,0.036824467623958565,0.08494619281397277,-0.18492356771609747,-0.06778730512742448,-0.024435678501114257,-0.05261549424283415,0.039087061140118715,-0.029748041961342786,-0.0409709095668449,0.11404008245937432,0.0259443995511278,0.02704656339361015,0.11010759295529383,0.04822306413320482,-0.05040205253146016,0.1578716835568028,-0.02854854180518845,-0.12909558865036722,-0.14407655079549608,-0.0656193530814309,0.16497435563961974,-0.07982499332146675,0.051944752521531405,-0.0036158458624338096,-0.06894214379193127,-0.12079269418382611,-0.16362275029204154,0.02970766137669304,-0.04964196352408386,0.027879969483871003,-0.14136826859390306,0.09619966780835083,-0.03483952939546448,-0.026713185971839484,0.08181310817893708,-0.06068567035924419,-0.07305811693377305,0.024961981018072395,-0.11815703533970308,0.1784815680942967,0.019112023653711188,0.003606584159549823,0.09680227460638467,0.03824160333356897,-0.0791410261720234,0.13560053839237143,0.08922523889009318,-0.15862911908522537,-0.07915221931497456,-0.025420302140108538,0.007951177132208014,-0.15892736636015514,-0.06489146112582718,-0.023344129280456226,-0.04368339195438962,-0.1732257481322065,0.008243183060673096,0.12574007278274582,0.13143827141051653,-0.1535495810736023
-0.12012005184927466,-0.08418612089443181,-0.09312812009069749,0.19806210301051003,0.023240163948046462,0.11837350451343005,0.08042780915478356,-0.11527258841415294,-0.06303390571526747,-0.033171628669498916,-0.1653959399336449,0.013998651775362022,-0.16851039306813573,-0.0023922261521503872,0.13476494924950805,-0.025931398404107055,-0.04353510666676792,0.006710222488443396,0.05974372391906611,-0.03795968338304204,0.045417921161716474,0.0595156229926539,-0.14151987063997087,-0.12735530348352636,-0.05609565898466214,0.10531696263789575,0.0016951936980161197,0.06148606339731584,0.014113770507261522,-0.009596868827110213,-0.10829536162393842,-0.20212968328200767,0.10108022754497695,-0.08171749850805725,0.11396923704739473,-0.12669404232475562,0.10674757036216456,-0.04355330802809853,0.02088905145577941,0.10856985949618668,-0.12657819072779133,-0.0698381734672707,-0.01685685353359974,-0.03458048849895741,0.07464398039632594,-0.011837716390090576,0.025099258587776858,0.16781568073492506,0.018647227065427843,-0.03397082090051315,0.07715760645308586,0.08967696390274572,-0.07709295728397589,-0.008805203135078814,-0.06566748452652713,0.0777161060363755,-0.21089904465556242,-0.011490478451379323,-0.027248112990669617,0.028991962774291277,-0.1785842841380854,0.1684151093578099,0.09645345860844363,0.18416982579841865,-0.05031945042591377
-0.12393389621362891,-0.07445310319354487,-0.11770648140576688,0.1379021226175658,0.13328008630132618,0.12199829993501202,0.06967379091376309,-0.06848746595709113,-0.17839064756379294,-0.04794553241584271,-0.06482547035813428,0.05487753459419543,-0.1575883256321658,0.0166011465086324,0.04495612205392211,0.012349050897737185,-0.08709994163951129,0.13819916268818266,0.031433416218696913,-0.03445715551304164,0.14627094759319384,0.04617337879645057,-0.11717118967379023,-0.20170345848872895,-0.01812666070378021,0.0772006950094786,-0.03247763698082723,0.19386412520782165,0.07870826583366511,-0.09026058938391773,-0.08133817595564768,-0.0586438710284157,0.12224206365101573,-0.024586586838222055,0.04104541443034532,-0.17437780532774727,0.19591726455848787,-0.06337605103110959,0.00329501514529834,0.055522048628639124,-0.11212433079007006,-0.010921246366339102,-0.019722411453055578,-0.06420150107102794,0.02395233047777641,-0.02545644003719866,0.020106240610620975,0.016675861707050602,-0.014362325994052778,-0.03131889546964461,0.06286755691521467,0.11303065590427026,-0.11690731395699729,-0.04693155259054812,-0.009560176417699648,0.16083806096969896,-0.028517310635784634,-0.1285387280892743,0.020424975743783613,-0.02023677625593181,-0.021494882254993998,0.07642447385709257,0.007803980160474403,0.1458061436927221,-0.1367723485919441
-0.1022810363434904,-0.022430690223961616,-0.024522861025291144,0.13695713338727605,0.1808570133268692,0.1296499526083693,0.025265278315897435,-0.03863822490687227,-0.1492511458119163,-0.045546131230114126,-0.1626934884874689,0.01394570586324109,-0.08223154354849971,0.004319972324661285,0.10597549071226907,-0.003290438783759233,0.004506974838009994,0.11140352419447828,0.05563507733843246,-0.02222225328456473,0.12153322268697467,0.04848616485727386,-0.142585719609791,-0.17934561653275846,-0.08715899607321802,0.05916324499106765,-0.001303369098929687,0.06639446098292759,0.01985396705748857,-0.05758229279593987,-0.16220676625263944,-0.004086798514494718,0.1094842141909348,-0.09118983562534741,0.002036426213520176,-0.0541235440042344,0.14023888249612065,-0.06603316368727016,-0.009225557050339584,0.04491903939651566,-0.03424165929060611,-0.04888648120545113,0.02297712403153407,-0.050409659437753426,0.08517990193187333,0.0017155575844021846,0.181784699433043,0.07144113097676735,0.014469791765690855,-0.09133677964739197,0.006721085486729441,0.12101032363007572,-0.13459217039139107,-0.05355080407730077,-0.053715734235559504,0.04949046256603766,-0.12255422346484338,-0.12601592948365126,0.00572544567428228,-0.002738123189915055,-0.16064637813241195,0.00755345729527904,0.1322978379915795,0.19053944452319513,-0.10463346236326954
-0.1149516094666278,-0.007270668671326272,-0.13194796907014358,0.06155238999885981,0.09377409766504653,0.03714917829783583,0.05976392370824507,-0.030520918001093883,-0.12707328802729984,-0.0489300299329414,-0.11379132045493517,0.06915048642304321,-0.1898002643557823,-0.05135000728136531,0.019392698750473725,-0.011142149043913505,-0.038197507769726594,0.13195109332221222,0.020685072078286394,-0.017247763804712792,0.04546860239789075,0.03345009233551021,-0.06294288718290947,-0.13378378702768565,-0.133708732183815,0.16787317889698444,-0.030902358086303483,0.011669330537622155,0.12224227674336031,-0.07573337350971204,-0.1169056058134201,-0.1069618617279812,0.14921002851931775,-0.12978094746769442,0.0962499363085476,-0.004630740515746805,0.20407982787209636,-0.039537550576771996,0.021635925463496318,0.025431009290032662,-0.035016525836103075,-0.18872799933133777,0.044733283583738986,-0.04546778193577368,0.012337094438655896,-0.06081513189062473,0.007353852561056097,0.19328527621850702,0.0037600533850982074,-0.0771088363724422,0.12398061580285022,0.1506866763162916,-0.06081519575239755,-0.07485731599505356,-0.06326760955741854,0.04338789132097208,-0.08938992573113932,-0.15644927863886537,-0.0023176790731514207,-0.009451478403373306,-0.08825303541293687,0.13753429220672417,0.010775202564342973,0.025933957696452663,-0.09032699194863705
-0.08304343241862706,-0.056124352860783995,-0.1643462851564861,0.12477516597680313,0.03607356034837953,0.0338804316112622,0.06357882263632696,-0.10621860418723192,-0.14548322081891715,0.028871310682646607,-0.09797664725663786,0.122657583014995,-0.05640881853592152,0.007132791252794581,0.12630815904673237,0.005467424824709564,-0.004253210686784727,0.09333097627821495,0.1026021933393365,-0.05874947092528106,0.15325357685426907,-0.0012976573509738518,-0.03469667977793279,-0.1139735562817882,-0.003764371415256196,0.05771769812076206,-0.024553453690721358,0.169483430605466,0.1038862463230674,0.040700817825656606,-0.07535285019944951,-0.16357030218170512,0.10448168804502624,-0.07929725573124387,-0.0001264636358834715,-0.12069381659131834,0.16288769895648514,-0.08167726327141503,-0.04531269216289803,0.0842055260373754,-0.03421022353131113,-0.12793682094344658,-0.0004402825991712398,-0.08596023846391018,0.16166534755390558,-0.011996283081616085,0.07566971375392473,0.1725184246380339,0.024418199817775193,-0.0038048484899341106,0.10545026238918802,0.10997076546670902,-0.08519357454342487,-0.08514286063605922,-0.017363563399311572,0.10733623868947943,0.009085853329772181,-0.1081732068768338,0.040256178241683184,0.004739858563135024,0.021408311611756062,-0.01496547629797034,0.015816984100356375,0.03967270655198603,-0.17431426835829103
-0.0923047147533775,-0.07915902510491375,-0.1484349497193533,0.1377278082134026,0.1591817397069,0.0658461591256856,0.07847260286552764,-0.1514499284968811,-0.14219613012831034,0.02856063289626762,-0.16839990924614415,0.037515338187473726,-0.07250105248122968,0.021936896816009376,0.06085182007043442,-0.019434542237379067,-0.06565328980328536,0.0904833061056856,0.05525106813234697,-0.04779275208774649,0.10537906021962468,-0.0035895409086056456,-0.08650721527866385,-0.13070929711299367,0.011281988252534915,0.04763622034350648,-0.077678474359,-0.0025557352066437897,0.09645658833837892,-0.00449686897344606,-0.11237511921924176,-0.11414878770340939,0.12049716509525986,-0.046333344993557166,-0.0011493222625407363,-0.09616017785173278,-0.0077641689631919395,-0.03722022998134978,0.015582883285854566,0.001862240126917613,-0.05790257326274805,-0.016191036355551098,-0.015349685229267395,-0.06298819468691744,0.0905409952507487,-0.04285234618930951,-0.009389187209971658,0.17053159974521107,0.013218541642439482,-0.060175366840789675,0.1476651250276634,0.13296734474184366,-0.1619283067847602,-0.026923511920894413,-0.042737400929186924,0.06619637495112685,-0.04251019952003479,-0.1568125137532717,-0.0012823533201149575,-0.04111163212251946,-0.15230894740736625,0.033361937525928274,0.01973485665709562,0.18228262738160578,-0.11076225523096621
-0.10606281601645677,-0.1034869110961197,-0.15098028534975447,0.009265739286913516,0.012253889537861945,0.08722077317724178,0.18463923266167007,-0.13636035092805684,-0.17777792028280553,0.03903588834707714,-0.056244839980942395,0.05118030796325574,-0.018935034882670267,-0.020739579375501395,0.11175401991896985,0.0018727136414437955,-0.07365748256265223,0.03666949082092421,0.037798889544967025,0.021921376111136304,-0.0017918331678939531,0.015658068850844416,-0.04365601337361811,-0.14339928746037856,-0.15822159896470622,0.059775925511670686,-0.07853007530010366,0.06457042667524285,0.1899844448248407,4.9462399701968214e-05,-0.11346114256714886,-0.0934323529032502,0.005070788598975609,-0.09454283387589373,0.11924770135571455,-0.08414807346914688,0.18970352821781475,-0.08367396410950709,0.04086030522361073,0.028314512898823647,-0.01954519803091782,-0.1728176538470418,0.011719503925612235,-0.023628838985349426,0.16235781833104507,-0.008535148019565968,0.13508333594860314,0.04099346324691863,0.048592995841823465,-0.04823746584082938,0.17360251459276646,0.1131788697922151,-0.14879479949682958,-0.02461194965093956,-0.09288793574029294,0.11409063388945334,-0.017146543378165673,-0.024952070083091478,0.026472953957599236,-0.049134228918231326,0.009354152039250123,0.08762307819116377,0.13338708709723113,0.17581165560432846,-0.18463439698389436
-0.09318928285222139,-0.019234639400473555,-0.07286601214715306,0.045474227660988596,0.050723914431587025,0.0014918058275649384,0.06811905646190268,-0.18329412370996043,-0.1776429118035542,0.0026995734670082006,-0.16278303347267795,0.14877633304198387,-0.1426922605156206,-0.0010034558891572848,0.16631814948212625,-0.001160792256475704,-0.07340325991999282,0.13074848845895382,0.031444940104921534,-0.01662202946283713,0.1529299926093528,0.0012345035152617947,-0.06172635222405393,-0.11189088409740046,-0.07628698548565782,0.1055488970785757,-0.03691360158411752,0.18488488206545103,0.11275826499622935,-0.04216255602879878,-0.08359977100595142,-0.046468525644484275,0.18892594492970666,-0.06648846665348658,0.10024542296799499,-0.027609267519713772,0.060791112810175525,-0.015309552799618428,-0.003674648552279014,0.04509407253408806,-0.12133460479994963,-0.040947917991904684,0.019848554560898398,-0.003816375569968798,0.1595500472917731,-0.007313678704797714,0.13760190695411598,0.08990870392791216,0.05041509868007179,-0.05698221489166234,0.08988463684112864,-4.7297386780326345e-05,0.004407012587327323,-0.10976219280444478,-0.07074159756660081,0.038283291608968074,-0.03336897491704436,-0.029490884164262498,-0.02880814134837902,-0.06108169010733426,-0.10117186098040538,0.1502809289836507,0.04371557097280234,0.16865873666167894,-0.057144148016667486
-0.10492817473729742,-0.09413907633411212,-0.10403749563216383,0.037727567393599365,0.1184894127947372,0.00683230563030787,0.045243665877440054,-0.05864914577490396,-0.12386158142051536,0.0026306851584230575,-0.010105259672152095,0.06795912372184719,-0.12886425776248012,-0.07553848546379156,0.1706113410824806,0.02624580833883675,0.002754535479281958,0.143717742686601,0.0933457512923743,-0.02381480271855004,0.14843956700308128,0.028709384063394468,-0.18923600141150315,-0.1140616177793286,-0.15324688800227051,0.1429922915287347,-0.004882415579825255,0.09193029967090668,0.13219356035716304,-0.09136670116759293,-0.05281770840412921,-0.11961814075898587,0.03532908132299455,-0.016862503328084595,-0.0064890615129291306,0.006228980053808153,0.15577321308527078,-0.06432835495898874,0.03555928365256508,0.07573763975677499,-0.06624702677751629,-0.13887780496631733,-0.031779170375478324,-0.02913185437145028,0.17622383063819455,0.020865125370923193,0.1927122505532865,0.015144919706716385,0.013119152925605025,-0.05948344334655696,0.04735518700148159,0.009986014897759871,0.00812926795787432,-0.021426258646626912,-0.048806890349410194,0.056930746186797464,-0.1228979403710441,-0.06188690169158041,0.021331266521772214,0.009590117665698937,-0.18582325456378113,0.13371035847526733,0.0794859355617068,0.0742744200126952,-0.017112605312380753
-0.11027072416786113,-0.061002217283865304,-0.16750462087191073,0.11823094910839682,0.03535194165501861,0.0827224731199827,0.006746208563638351,-0.08979526718741551,-0.14580146024988294,-0.058271216421692,-0.04627976222499259,0.09813335560426664,-0.18501805860035941,-0.055443386549987775,0.031302224472829404,0.0450036656802598,-0.07196692863789272,0.018186150916963087,0.0003316683925840413,-0.04499503039175173,0.053043282713873666,-0.01952189425390377,-0.004820799246216928,-0.16363959334337472,-0.14549513886478022,0.09877469961092027,-0.010618057868776802,0.15181920700954307,0.06924063577420203,-0.08952109521315978,-0.11376742084174443,-0.12650058514690848,0.17518677550635905,-0.08536755205287305,0.09671480710943607,-0.025921724848993487,0.14099366987078765,-0.08530610393186114,0.04131812699682084,0.028473109856377396,-0.10181180147201632,-0.06990027018144025,0.05175383259502824,-0.004403060044917908,0.038241571571231814,-0.03516689495870444,0.14393892164804573,0.004668460657205785,0.07904594080218448,-0.09485371360534707,0.06464135124192139,0.1132668194810068,-0.05983378550379492,-0.0634792524148765,-0.04668242458699137,0.1349561445575225,-0.18676009496861495,-0.13597945141874995,-0.01984868023834128,-0.06154620563252289,-0.1339426068283863,0.06946271224071078,0.03843523768633231,0.04015904121517109,-0.13477976771899733
-0.11781487650810976,-0.10043577791023761,-0.0725220614011796,0.0900138737745867,0.03715375254302807,0.041081045805662374,0.10255725685165715,-0.10750008162850419,-0.030160634003485516,0.005091925476771719,-0.026759042644565818,0.0197973796994385,-0.022760902175639044,-0.006956949710114697,0.04196035172701767,0.038880790422207885,-0.05712044593582098,0.02409328451007952,0.0025470760364853175,-0.01821459351155482,0.13371424890025227,0.05465916281244387,-0.02003688271417523,-0.1233022748500486,-0.1347694481055702,0.13125051904203092,-0.0472876594548482,0.19760875035696587,0.01647636682606314,-0.06546224177900613,-0.12297822557097811,-0.023167521469832104,0.21213432191237255,-0.07201066920029231,0.038323791226557775,-0.1919633609372769,0.14016348964402145,-0.03320531502872968,-0.029019658682359287,0.03415293148935246,-0.057632346908467226,-0.059718301298321674,0.01669440116675799,-0.05660283677223935,0.05028141377580504,0.03033241024395012,0.07422612472230443,0.02630130108064723,0.04900905311304537,-0.03687598844382023,0.2033930734497133,0.1470455427233637,-0.12399345772977678,-0.045779238228005045,-0.06742863916180143,0.14916400574329103,-0.11501170569002041,-0.16771826305535614,0.03504154773107066,0.00410333559209204,-0.1656667058807549,0.03989123975077793,0.03234615581451975,0.13736339297446765,-0.08227425502882613
-0.09914606310409418,-0.02250871087435161,0.0064196207406264135,0.1752926992294024,0.07069346155588714,0.09585430567510646,0.15773124677219577,-0.1349807538837494,-0.07239828024946457,-0.010089387369298663,-0.07124723254038806,0.09425448051806165,-0.1264387295319828,-0.034325340036687926,-0.002562478707320463,-0.03407342257928583,-0.014814457784776655,0.01289092250926632,-0.005769243669021403,-0.06222736067393158,0.07220322921501798,0.07187490898121501,-0.04961185012318624,-0.16891745063852687,-0.14038640201956917,0.07980523891013974,0.013606800160411372,0.16339191553029708,0.010629037739441132,-0.005322404116978218,-0.08586940811779772,-0.18634089032186874,0.06829102277854404,-0.09245176655376998,0.05729250742052473,-0.11870327055713215,0.15550230770039516,-0.04563651714030164,0.008963454959795286,0.014406322420595708,-0.03196403162432959,-0.11220379111465083,0.07325794952480483,-0.018037444664642115,0.14101379240589995,-0.04127687111423685,0.12942238299500605,0.014333542643018966,0.07584785576348549,-0.09837028139954017,0.17443147955033134,0.07593354118609712,-0.09893642752120113,-0.03540502598986109,-0.04151113139262627,0.1241935154559166,-0.13099076870310716,-0.04526892836781654,-0.03561950959162175,-0.03761284002837045,-0.03802277778627013,0.11365608361412208,0.049814827213872835,0.040737784560089925,-0.16994951114313103
-0.10874275379170725,-0.05842925415362204,-0.1925794997784571,0.1911973297705913,0.13944818755902952,0.06287349085814802,0.01541081290036877,-0.19797020418218153,-0.03818541921524663,0.02032380243864947,-0.1280863659336806,0.007915112403880957,-0.10567724233929157,-0.007503043946238643,0.07758497404926247,-0.001826854057792309,-0.0940856703059313,0.05870382416833198,0.007814601815428196,0.007034722291549583,0.14335292486460469,0.004083907024617161,-0.0689213815471007,-0.13303299438653943,-0.11507036125143676,0.1341012821368109,-0.06052332556549692,0.13246342895555072,0.07444041756596431,-0.09805075655241013,-0.07700345802799677,-0.057455923821004985,0.1608404399411786,-0.11050608002678089,0.0032175253932625806,-0.11593172007675996,0.02463159396589761,0.004559084085711616,0.017884995848712077,-0.02054446239137314,-0.0848757961624324,-0.05456738956649656,-0.00608155648425753,-0.09614430917986129,0.18448529318202428,0.05396305021256662,0.14932065934460412,0.003931251047041556,0.0846585430729733,-0.009916233229297602,0.041787544327944244,0.012534341392179486,-0.14113224966412627,0.006506015329593576,-0.06850980561676873,0.07613059046611839,-0.021570952593936706,-0.0845207391507869,0.05956055196452271,0.02193840244171331,-0.15279135890846754,0.08018193474493689,0.03450061708189035,0.026890964374371402,-0.17347297500785053
-0.10520310628600124,-0.04546910005920313,-0.07357901360408632,0.03136113688038554,0.12150730181642432,0.09969779875419012,0.1273192774568576,-0.15757267030214558,-0.10851740265811408,-0.05836756516308676,0.004377158494402634,0.09132421847578301,-0.08328868262432097,-0.05954123145967658,0.19853412588068922,-0.05895298543504407,-0.03280423498469124,0.03990599679023092,0.046234960757223484,-0.01582430394968661,0.017474592062867684,0.021486035176412177,-0.009946172665115839,-0.055102341210614775,-0.0464238073072082,0.1529864341443381,-0.0751076105136979,0.07857227840004828,0.16224175955589515,-0.08604052981323125,-0.07792920878179543,-0.11260251915736585,0.0646901807716506,-0.11657529881527158,-0.0038331718936406543,-0.03331763746658459,0.14502466624010396,-0.07632599092038884,0.02757710687848925,-0.0012999463411690658,-0.024040539222741696,-0.144871233126302,0.016686479349162543,-0.04003124053422308,0.10401510740918049,-0.022968389938092425,0.15688684699814823,0.07849834392816492,0.05464172951261673,-0.06961193539336188,0.1654151691359385,0.0639045696867925,-0.1789784450292381,0.010597819220902164,-0.016334902068817252,0.10232681944868524,-0.06821267630980683,-0.11558902333529811,0.023147501765034623,-0.04656923063439123,-0.04644119046722849,0.02600546331126182,0.08340015983434242,0.14983115775061456,-0.0963784295581411
-0.11186638361491853,-0.01657189574653067,-0.04010527128871068,0.04093311227398271,0.07319369363618106,0.03783453049706342,0.20068179626976593,-0.041485840470304035,-0.07233315273012911,0.02035869089926846,-0.047440949296835074,0.07244283885965175,-0.09785129680440567,-0.051907271827257385,0.02911227444835416,-0.04090251361242216,-0.04244219243558517,0.03748413402015557,0.03982250438923591,-0.06871807627626925,0.11447263745692954,0.03764841396775728,-0.11672792641389826,-0.10763222175832265,-0.191441118718544,0.0013082103164698303,-0.07683306739473418,0.14318978117400238,0.11485768038367304,-0.01228301894952584,-0.10003378393851105,-0.029482305389690426,0.15416907153887166,-0.05239287784506714,0.026439367321747342,-0.16919426796292086,0.15513774864232352,-0.014680437715252742,-0.0006019841207135589,0.0483947731534834,-0.03314473154422768,-0.03930042793697216,0.03135083511243968,-0.10416512943633226,0.08843352411768307,0.007217013320742437,0.023670576595791717,0.11983271354923043,0.07708746635778614,-0.02823689751644724,0.14964677651815647,0.17290882006188482,-0.17977090354968545,-0.07088540199500719,-0.11001425850093333,0.05342346978137569,-0.17323044789067002,-0.008888266568405748,-0.004484226306210276,-0.0024105555238188737,-0.1203254487321562,0.09591982574214783,0.11034093583301256,0.01371351463559513,-0.17048939791581674
-0.11663396730686336,-0.07516829007435608,-0.10566366235737407,0.09487162151511631,0.1625400338398322,0.022720230618515684,0.016392601418405373,-0.0896539316605914,-0.03477668684238698,0.012996667011494396,-0.1640643411956047,0.12370505262364262,-0.16820264518141603,-0.03601226916239103,0.0763290126262118,0.006899678250777813,-0.06353469727481795,0.0846153155463865,0.09934863879363821,-0.048670589856815175,0.006274203875630232,0.003179790650963424,-0.024031608957585833,-0.1114884445554882,-0.18427389417044773,0.15016765832585188,-0.024581007767899336,0.07947826431855996,0.1054673276233521,-0.05460552832803404,-0.04254458740244957,-0.12632917721979178,0.07442828819538701,-0.023323586590221292,0.04198681232846419,-0.12255443144212397,0.19321302265719673,-0.03840107915276081,0.03638843249796358,0.08530288761246387,-0.08409589596978427,-0.008781992713442675,-0.04859439471987926,-0.09824142894292524,0.09640454363355003,0.0500419240637989,0.1398588327481867,0.03789471879985936,0.010068532596743621,-0.03373842478151485,0.12093801007490768,0.1091701127372248,-0.11653134941075925,0.017207504308689177,-0.08863691811862545,0.16298183215642015,-0.14124313442654104,-0.045716579815340344,0.04821427710148243,0.00969772421996795,-0.027493249425280423,0.18100012398301682,0.1363337833400254,0.11191750811560829,-0.13662810222951352
-0.12813158165986596,-0.11918728093575907,-0.015217373185020432,0.12169633678215039,0.04647724402413278,0.03671463066756388,0.12923243173699084,-0.041694046656432684,-0.03708555251485166,0.010507936986307911,-0.04924256750755081,0.07157408010689546,-0.07671121531888689,-0.06398895741458789,0.11783112505861487,0.01704711559226697,-0.12484985932516976,0.05457280185295482,-0.022478664988843693,-0.09187222450636158,0.16123377794075106,-0.01991564417499365,-0.17551642799133674,-0.17686767236690176,-0.026003445648698973,0.07472852241830884,-0.06191523936670726,0.04428408970569343,0.11748884892281616,-0.08148927002328252,-0.08087351837177978,-0.08186634222193119,0.1446338878530696,-0.06479043585421408,0.13910257642429188,-0.05771507478915555,0.1469823937194244,-0.057562065624771,0.05754101381212232,-0.02335936273324489,-0.06148242753968893,-0.17695169017335005,0.0834059830930892,-0.08389027650733408,0.10427404723883704,-0.03587089121564198,0.12583788908690505,0.16253202676389172,0.03350245691482325,-0.00842844429902945,0.09589015499002385,0.14871323108120235,-0.05349319961922539,-0.0963884057013517,-0.08292511189697446,0.06477489742603942,-0.0356050758989644,-0.1066976806872917,0.03837447321898463,-0.03721782352299038,-0.1185413412647461,0.12169480536291638,0.03102777567063239,0.09769975799247765,-0.04935871351901162
-0.13034093324731064,-0.014441790349601363,-0.1722571375916502,0.07582068923428542,0.04474370764482097,0.053776631755290114,0.0657389530858517,-0.1253056347749133,-0.1037668051929127,-0.01863718804798117,-0.049051823662798213,0.03983660364636548,-0.2041529320979024,-0.02049038715184375,0.04792280997885677,-0.04530177137015912,-0.027875661118174026,0.12825532006622947,0.042787753093021005,-0.06915500733731333,0.040762551331097886,0.021991028988620594,-0.026710422862223797,-0.049865711235007715,-0.026406593933459184,0.13765898926903358,-0.08099549685027085,0.09540790370463174,0.08630175497851783,-0.08239802390861331,-0.08922061150434846,-0.12024359969934664,0.1278870641289509,-0.0666628015642668,0.06127259109501982,-0.1620135102595991,0.17770409067015938,-0.07947452374737408,0.0436704912482332,0.05894364917848673,-0.08173060887470623,-0.022746515066918063,0.04885620128215973,-0.012704198575534906,0.182425794928745,-0.03986752965393718,0.04925903113968763,0.03193703124052211,0.008460387549189435,-0.06514758620686281,0.17411539447268587,0.0477986122244308,-0.06879856775954465,-0.07635841316714473,-0.11398999827245501,0.13863507496190441,-0.16208213932350085,-0.05391202540842978,0.021758290282987258,-0.05827955850842274,-0.19188521472123743,0.060565179729107,0.15137745887548668,0.03965600544164114,-0.1628454918742243
-0.10509750491648288,-0.05571389852646068,-0.06886493575696635,0.14894311680662523,0.13098651913488552,0.00037906500421979405,0.13086901590379446,-0.06851588268373811,-0.059014233298297414,0.016844115801867815,-0.11283503699418801,0.035260329693610426,-0.029444194264654083,-0.037114529594217634,0.12223224801547079,-0.03387262523388631,-0.04034701521099332,0.14499767510697711,0.058501431313848745,-0.09250788726815135,0.10905645047970522,0.06832400078487505,-0.12123315689794412,-0.16387849774350077,-0.16281066476163666,0.02909836531362753,-0.019918644919666672,0.03399619914897468,0.09926223365557285,-0.06420976717824269,-0.05852080472327415,-0.051942413408956084,0.06742843686217655,-0.057908849504057704,0.11081170007662454,-0.07027914665860638,0.1043953707756176,-0.050006817639282844,0.012144243389869311,-0.018602364570840274,-0.1384767339666466,-0.049387761355381206,0.016146909558095435,-0.014060983711803645,0.011863811136634586,0.03048458218463954,0.1287395592310566,0.17148721782749674,0.06396779706330354,-0.09185962853209416,0.10677467514887551,0.07552953646207351,-0.14218486435506275,-0.08590071843706151,-0.08068620154372128,0.04257411724512851,-0.14275250221920135,-0.09329526370934389,0.0025839221121440976,-0.04412072788620404,-0.17293511023199767,0.059535527551682794,0.04411488924269278,0.11118259213666642,-0.0683988853137953
-0.09539635809101038,-0.10441243669891065,-0.1867326172035634,0.06775072417385593,0.109893594115169,0.01482020065695437,0.11991817450043021,-0.072593099353733,-0.06738505337922146,-0.042807233275085295,-0.06149081240410586,0.03900532690276836,-0.1401979557748113,0.02298911284976628,0.06069814151270113,0.010250274305335974,-0.08326626366876164,0.06613862700970077,-0.0013716990754457671,0.0057497700276814175,0.11335324477216967,0.044974457497367795,-0.07602833545031651,-0.13304727901569371,-0.018470776853260363,0.08785114550046508,0.001725283054757552,0.1655691853617229,0.14521339687680923,-0.09140147415166093,-0.10467438493026969,-0.06859555708988273,0.1542041321321693,-0.001986167767702792,0.03854661045522009,-0.1597019359277811,0.15353276586505427,-0.003041227473589363,0.002361182408711326,0.06932959733837998,-0.11631518886159363,-0.12240400267687226,-0.013103866577916023,-0.06419608453195794,0.08420941668318309,0.07050553180345683,0.1522595334416575,0.06047651621765162,0.013169972166950126,0.031889499059260834,0.06092615923318269,0.08821742106488387,-0.009621041304846341,-0.07374158764291541,-0.05579015398667256,0.055772644107405234,-0.18443134961313815,0.01175382207454251,0.06456795796523196,0.011779430712784422,-0.005631567820980689,0.10106876895679037,0.11352898243111328,0.18011793789381947,-0.16787078703308103
-0.096312758045767,-0.0029972135491610576,-0.06965846598506016,0.18378824680345343,0.16820820961279784,0.11826248415895536,0.16387945632796144,-0.0041826725901623635,-0.04619703419670632,-0.05438295616888716,-0.005753648845681297,0.0020751942472455607,-0.178691971294566,0.005640322339481239,0.09916129673138642,0.020721474783906783,-0.10054124541765624,0.026251538486077322,0.01441682936604606,0.009220144889218239,0.07849263761553549,0.006346395928567917,-0.049423995696625256,-0.17138041115074176,-0.1809701051120381,0.1635213833803664,-0.09608990851477048,0.18323647779904964,0.12702285212734288,-0.04272519218154006,-0.03747960162627516,-0.1702435278635368,0.0016890954416644256,-0.037998422460588495,0.11326196356560457,-0.12377555453914638,0.18944628305248587,0.009478440324769057,0.022212709828256114,-0.01178590795012308,-0.11109909702403577,-0.1488120635176239,-0.029905245884095114,-0.11438980783813643,0.10566754647610639,0.03252361633118843,0.006110511415653316,0.07278664173473162,0.033533485902604014,-0.05213346724418462,0.1576408102494545,0.004918109277705957,-0.16125551139512354,0.012949496029199956,-0.06970244071758352,0.0871100827395264,-0.06180192875161578,-0.09240053675029114,0.06730397073947268,-0.03553200000219243,-0.03479798488914421,0.045800902782199476,0.09214476953646815,0.10381147471330403,-0.12241204433027984
-0.09767892209127345,-0.09940849685937878,-0.03082745800679745,0.17505042222151693,0.16117329935570168,0.1387551387795482,0.08937255494901374,-0.06715269296381339,-0.14616503060056774,0.032779004332083105,-0.12520879441283922,0.09837550861912421,-0.1404739233672022,0.010187832328346812,0.04980974633729006,0.004043373048692348,-0.09716909629415832,0.03806526318823604,0.058533003001261276,0.006550279104533558,0.13720065963539105,0.033276795188702364,-0.06179283747237496,-0.1023891062315416,-0.06672903782368769,0.13263202748830483,-0.0019402557499391022,0.08187494742856966,0.1735150158037716,-0.02938916259359178,-0.04766746825350815,-0.15343827101387048,0.07469794550480537,-0.0965648157005744,0.036608374814076965,0.006334196477604429,0.12051728182139745,-0.05252568774014318,0.00686643109516807,-0.010185978680235077,-0.10181962749797636,-0.11848727451807065,0.016247059835494713,-0.0528166540017236,0.011740057005317453,0.03411094745222082,0.17960114294165788,0.10824481865941721,0.026031188782486576,-0.03439756676701816,0.12964372577447358,0.12281199307579677,-0.13814067814112632,0.03697559790561748,0.007927238425715194,0.14268716216077101,-0.10704219141416545,-0.004179083245576042,0.0581417935464218,-0.052864297266484346,-0.14845842477942953,0.16443471026921005,0.00985525680130507,0.095296065040433,-0.04170383225839877
-0.10583427515088731,-0.056281382852967056,-0.15777439341890453,0.16283925801647595,0.15619850329193294,0.06239079118676007,0.001330379851245282,-0.11113108507870083,-0.026992616116288292,0.0035766343639786614,-0.03212450337904864,0.05268564468520143,-0.1682024163035442,-0.018847086759429834,0.18761969152859514,0.012947931630435918,-0.046756661259808215,0.05362652671817445,0.08678231602101098,-0.016865325852161397,0.0714293733628503,0.062119070591269,-0.15034751014687583,-0.016127157814596893,-0.08820506828945322,0.056130955371152556,-0.03399642031217257,0.11673044827308152,0.18728793120436812,0.0018403477555825754,-0.139673402443536,-0.04384724099675498,0.032938954824620864,-0.0416264094458092,0.058737658916785083,0.007980592717379466,0.17201923172876465,-0.04654228436800653,0.061810972210903356,0.010360870653094652,-0.0043152181739823095,-0.16200359751421026,-0.008197702211025592,-0.062134322187004216,0.10053026509774186,0.031812515659656496,0.11414975165209516,-0.0029856144835763493,-0.014299410340663336,-0.013342098750221526,0.1938885710088536,0.1284780226742667,0.01678599093315625,-0.05233735422443667,-0.03420416956675538,0.04608232451691044,-0.10126159227962653,-0.13265901790795595,0.05701499311050306,-0.0063122712383415994,-0.06201531808844263,0.1669264048386754,0.10163164148326093,0.10664170029535106,-0.19423957904516415
-0.11349947184691925,-0.01991509713901835,-0.15854132161256168,0.1098750104584139,0.09790107301789959,0.11801558384807986,0.13301228259892253,-0.045315454714728094,-0.1783227425376818,0.023439603890814915,-0.05422862341396745,-0.011073904444183694,-0.19976758540553477,-0.01992569941219769,0.1525768437735821,-0.015891990849999836,-0.10463252195732249,0.006909493364247261,-0.005536189474428385,-0.08399560310383943,0.05144648376175379,0.05123827862130375,-0.10984178688643934,-0.045326668210443025,-0.18183182307047424,0.021640734113107376,-0.039268185635753156,0.1169738287283388,0.0908817792515634,-0.05792067050091,-0.1319120966554189,-0.1734634004070447,0.014638782938690779,-0.03504954700793867,0.061501789803415044,-0.17071029650764644,0.07793564402477487,0.011962687036404821,-0.03585720499886783,-0.023864615738869267,-0.07705775431705791,-0.010054625308869023,-0.029623513226040003,-0.058675868728535384,0.010917729125160966,-0.03612999411467504,0.18816599835511486,0.12116883020544486,0.022230511712182238,-0.04405443694388697,0.008387372669311343,0.09753402022343771,-0.03586036777135237,-0.07117714584851824,-0.11384039388735874,0.10147530969617861,-0.18012970823298907,-0.06314861691629865,-0.0019177542521219215,0.015890813317757494,-0.18468901339082788,0.16256796374521892,0.11739591528286758,0.15951932965665724,-0.1183434088419595
-0.11787778562377882,-0.020181546953237626,-0.20295032675278163,0.2108467414363876,0.09131632646544707,0.11119759434675622,0.07933588560109116,-0.1356822308894328,-0.01875543542265737,-0.0006688890054382239,-0.08289305836344739,0.12920329553851528,-0.07925267815987945,0.00471244110122176,0.07433114816507669,-0.07408987158147838,-0.05958417490311377,0.12895382542192294,0.03785708248608077,-0.030136931828714963,0.04895626174650417,0.0712023508725697,-0.06846089112205683,-0.09274851241749965,-0.12449327011993212,0.0225422020388048,-0.005445778973440022,0.11320280135452782,0.005320198663978857,-0.08408528325892208,-0.06951033339513496,-0.05339107070253937,0.2093357408639198,-0.04112743374686293,0.1201812752347392,-0.028073615212555435,0.11404939725198664,0.003989769936597921,0.043168496297415954,0.03570720953431279,-0.054276300569644755,-0.10246203001188182,0.021242646675760073,-0.0415293744306255,0.17987883607305433,0.007429042703757179,0.12286611445880816,0.15345304219254874,0.059598326916526924,-0.043856136279197704,0.12063522090022312,0.06412155515691308,-0.06534476813222985,-0.015136311379546083,-0.08782359838414042,0.10939281040295092,-0.017838938672523834,-0.027417123313492227,-0.018668725367652066,-0.003566259498170379,-0.18723171134106104,0.06075969639468318,0.02947100590275724,0.0885372824087471,-0.16379028069957738
-0.0951101666137044,0.009933956906304428,-0.17425148275616284,0.17302316020208786,0.02257743803065321,0.08660361726606768,0.06859400529355976,-0.0815134390988472,-0.18947392880683064,-0.0644056358442128,-0.059419272682657356,0.06773602498184884,-0.1238510612598347,-0.05951211035813744,0.08597467642331988,0.019899014586941873,-0.0066892557280912,0.10916550247105314,0.05372193428712909,-0.08282974265653799,0.15820757700592158,0.029430546377107313,-0.13103551818878942,-0.11893313965260924,-0.016398859937063973,0.041136773530288204,-0.03355980314922578,0.1399882834367196,0.10667362808840958,-0.0183974989695457,-0.058321344409328575,-0.12038989040549988,0.003443781562859169,-0.07947861809124684,0.03067216981821973,-0.16523974003329378,0.0999667745399458,-0.04210913006871322,-0.0007592427506346541,0.02761543011797121,0.003003130982507862,-0.01712609726031575,0.025267729898670384,-0.12555144468154505,0.05565070941144144,-0.006883695447840264,0.06108489815273379,0.07349932912736237,0.027728933069775284,-0.06655823363861935,0.169847034244352,0.14070649621673353,-0.1471435069489969,-0.05269543577112625,-0.012620887737715043,0.1095197485268323,-0.139337973522666,-0.10411286574679626,0.028820147344699402,-0.03781510971346374,-0.005899306949143919,0.15685811723551493,0.05614733438827192,0.09178934641521393,-0.13912485933239144
-0.10646321648476896,-0.04998746694563725,-0.09850142242725861,0.12445242879160852,0.10460834537623666,0.052520749479301285,0.1158878623890111,-0.019942601714199426,-0.1626597484803842,-0.06543537242384297,-0.1734625314795387,0.03070463670396861,-0.01783399069232947,-0.04511788256056643,0.14882187321627377,-0.033993556201931334,-0.0894598343307197,0.04680177338920096,0.0005916643562014164,-0.0028618521836448864,0.12959351719350398,-0.015318664782820061,-0.05935287911331831,-0.122090192356354,-0.0805544919141672,0.02572256550695526,-0.08530564107024095,0.09771572881400803,0.020748998883187868,-0.0973657821548224,-0.03927483467434391,-0.08883604073013972,0.1813492198205334,-0.08134180521578432,0.08645428871122764,-0.15173817033459358,0.1430796329678499,-0.08997899403323137,0.018567994883383725,0.012820987653245332,-0.07566050902429956,-0.08078955582931724,0.037531498482198944,-0.08865433287761762,0.09752395279307462,-0.017935855918469624,0.07899035566209837,0.15559021111879479,0.11436237419924888,-0.09938823811133246,0.15251211898444045,0.07959885403369867,-0.0176852927208699,0.05590749109407488,-0.05969727257638897,0.14756422297188762,-0.14340122443007514,-0.18256032611588535,-0.004384324227396176,0.003589850471272013,-0.0020379074481490897,0.03274521495850312,0.07236222043260633,0.13702075060225646,-0.01447292984188749
-0.12313034057299846,-0.056845794825445405,-0.13623941757891014,0.20608742981898293,0.05072219064776655,0.06304442695955097,0.09964709627480238,-0.08068735267184989,-0.10976006113612327,-0.024096682048776026,-0.10079392794169259,0.06463782636865006,-0.09478085175100656,-0.018111689084477148,0.04223044598233654,-0.065393581431667,-0.03422499240591899,0.08770781585157802,0.04802060928982358,-0.021144624725946203,0.09000129239345286,0.001922171627463392,-0.009209546467735653,-0.11359272196640546,-0.17018690586501206,0.14185370481475376,-0.044148337303585104,0.0821726529958648,0.026517217964416872,-0.09974436891744129,-0.06406883481338026,-0.0766615427350825,0.03148302496156647,-0.10396997838181514,0.11993366444316005,-0.07666201869421221,0.04422528715534331,-0.016605162549354274,0.0653022505577266,0.030748056670305546,-0.0943349912342103,-0.13514151778460218,0.02724624097514368,-0.08771731080603842,0.13359106565069234,-0.026160155111755946,0.15926161146181134,0.141484547512244,0.05630400756940786,-0.06316386577121264,0.05509047596136628,0.033316857760012024,-0.031016506323779326,-0.050017000502143964,-0.11227643322270046,0.09014768784296645,-0.2116127245492692,-0.2003185931822757,-0.03139074910950796,0.01791414904730891,-0.07162834388323748,0.1030515407774201,0.04957676946428889,0.1097740127700733,-0.049400964255366234
-0.11225682211730366,0.0068570888471349775,-0.18005171691984953,0.08773060778786307,0.07557667792967859,0.02638792320645891,0.012755625312594958,-0.08525847783779049,-0.028981798710897875,-0.03350855443497252,-0.006123340292832725,0.12482438490736893,-0.04716026307203405,-0.011309647216147252,0.032777009758384774,-0.04235788843882021,-0.08055765227567832,0.06516679786520074,0.0802404698632518,-0.02284936632900285,0.16137535964594218,0.043969530787623376,-0.06737137304732484,-0.04814300774911058,-0.12584410208013286,0.10967198633235091,-0.0648308790572696,0.1972356209757808,0.12138889246409212,-0.100817874410239,-0.10849172040328978,-0.024630550145878366,0.19143954869849414,-0.07631095897396434,0.0712089588131186,-0.06431233479830914,0.18109800109829333,-0.007622861622999368,0.10670849952527241,0.0315961766258991,-0.011610564608778259,-0.14830742751555986,0.04265620926602378,-0.13008031880390555,0.04901062960276424,-0.0008977990912340875,0.07746562899875797,0.15524813557105954,0.05307070810687159,-0.09961760651999256,0.11461492088449421,0.025415795835767314,-0.01645746093064037,-0.03607457505671031,-0.08315903167762634,0.012019463716812711,-0.10759339697564504,-0.18023996699848352,0.01857565879922781,0.030487138843063217,-0.14838364760813924,0.051067674951589016,0.033991566720852906,0.1490227499623089,-0.0879814871328306
-0.10864559697885277,-0.0847281071571332,-0.18657128313805682,0.10296215445476051,0.1852042697111968,0.09924554583299855,0.05999542900511354,-0.13473878618674834,-0.1602541507754718,-0.06478541076371633,-0.11767829120891803,0.060494494999062114,-0.05458644245021835,-0.02020441941926587,0.10220596650473303,0.016390708600077804,-0.09053126242344789,0.1066121211939257,0.015609720897436547,-0.0830591473262948,0.06518362423912041,0.029307573289845255,-0.14767407173824781,-0.051878199577843065,-0.1467734655033472,0.07658996626698907,-0.022398054157054103,0.0636424392805183,0.008127644330251827,-0.06780911057850868,-0.0820208028848549,-0.07201334200079566,0.1630140477668822,-0.05831049942386411,0.09034862171906324,0.00425888994659139,0.10389126249458072,-0.036889421410445655,0.07909884324123043,0.02927438026009901,-0.019419937822074778,-0.005694602181047777,0.08701233170882304,-0.06667393183470331,0.008479669737534997,-0.04757071789152056,0.19728023919495008,0.026469211017721022,0.08859518006230378,-0.042175479916654345,0.1532539260206532,0.05923603289766419,-0.1506517292843117,-0.06363037840655665,-0.03515016671229988,0.006217301283454862,-0.09840499247873322,-0.07719722243819561,-0.01649113139758591,-0.033920269462610925,-0.1453654805050182,0.1423483671544484,0.0027601064687106614,0.10982238329354838,-0.09000212463179817
-0.11661222890482051,-0.08055289367389883,-0.01207508834692176,0.06580521750545495,0.008243959301701338,0.048515065618081804,0.08839634315567069,-0.16433919452302267,-0.2099003540401074,-0.019391746143652997,-0.010288010417105408,0.06285103788331717,-0.11530898428033966,0.017139104715181833,0.04553921781610702,0.0058906256627015595,-0.03192068088951745,0.11205710810595967,0.06995144905546224,-0.04242259468818167,0.16812460457930029,0.07720190053075732,-0.13134261401572142,-0.09842446200580111,-0.019749132582562043,0.16988621186662053,-0.05217687312734106,0.13342609020411228,0.14192003684294408,-0.07206622730952189,-0.09770346155122027,-0.05220687860655537,0.01628606019094047,-0.038243136436100944,-0.017429099350375288,-0.0024439954376111626,0.2015816611112587,-0.0188366453087332,-0.020939635885683972,0.012142638128803444,-0.10242788062463042,-0.13660767746267763,0.026191961820527018,-0.050390092950670165,0.067221828637554,-0.01704191174346177,0.17764511436544897,0.09626103695173395,-0.0062280495760445,-0.030256840424280545,0.14428052329884444,0.03367266964904436,-0.09174810238753467,-0.08478081616855696,-0.045219041358004815,0.05727783213836639,-0.16870543325987644,-0.1719572567561748,0.013602591080758277,0.004718620450848195,-0.020859981751296972,0.1672155970859411,0.010748873295196585,0.1370699227264257,-0.042217940517720695
-0.11033492195218207,-0.017485372825885765,-0.08793851800811978,0.19409483475878628,-0.0015814276716130844,0.13064531125962384,0.11472623665022685,-0.16708066282617054,-0.18293716706943605,-0.0077832729313960704,-0.0021850410024909883,0.1235307676921186,-0.07324584303489752,-0.02252192230238155,0.019533245391906172,0.06846137016848944,-0.07265861168264524,0.06885513951212101,0.04971988035026763,-0.09108133065092675,0.022429347744944712,0.07465014824035862,-0.12287604968157234,-0.15863009889236493,-0.09920518326146902,0.0678166619832932,-0.010612416109130282,0.0668197914200252,0.14970318849213277,-0.02733074653505602,-0.023442250535910716,-0.030294923462271188,0.12172300758856623,-0.08061175693226354,0.0437406045516686,-0.11400331035577188,0.11415448799052992,-9.608358935813674e-05,-0.03189818204147308,0.04128113315425732,0.009291834769424679,-0.17253908165718365,0.10906703981121371,-0.04815441251265676,0.0231806999047972,-0.009741573893649923,0.17127728075613136,0.0021649317017380554,0.08999573420269569,-0.08839392142145763,0.08613279279263789,0.029503891090724092,-0.17715132805217002,-0.031970847354114255,0.011254437051273974,0.016293439531128696,-0.1166212807952116,-0.14186715154834448,-0.01052298257090253,-0.02229755053003939,-0.026814918896337355,0.10764639178208746,0.12531305455748296,0.0047898477654738595,-0.16925710263846214
-0.08419225739041622,-0.08230107098593871,-0.05686123466053939,0.04989970394674284,0.010525280724086082,0.0683254783838693,0.18024236151978906,-0.05963452174415655,-0.11630923075321255,0.014272653068274372,-0.16323968873907274,0.10107463956613576,-0.06913696594073948,0.04702170028284012,0.17591168977488975,0.022339348440298074,-0.055191985157560554,0.1291662811334137,0.14153798238617735,-0.07349854007768311,0.13174163297013275,0.002545442945210115,-0.12223328499588602,-0.1338763880062633,-0.16767086201358009,0.004087713182808909,-0.06076478994010585,-0.003682347402726223,0.06413701108200212,-0.09174633337827967,0.026323766076653744,0.011716382664016896,0.15675259470556346,-0.08131206137004404,0.015307544839365847,-0.11103034110973774,0.02421277795078452,-0.0202318507214009,0.014682199656824817,0.04597026084638198,-0.010393587006960863,-0.16371088493123925,0.09415254584647491,-0.010113621482510077,0.1704015459477343,-0.03381661649553811,0.1133346459310186,0.02856890946273323,0.07356832782559353,0.02868730530829868,-0.007956999593694863,0.0074813427052946085,-0.14449364388210512,0.01091924266644922,-0.0145955754780883,0.03658041575172733,-0.15662027043472532,-0.15839011466532024,0.02966352972315599,0.0992413493655984,-0.06945181802364041,0.14140351260525488,0.07255370593694822,0.09107869328172169,-0.037732019096125585
-0.110688244828975,-0.016969257772599812,-0.08866423165885885,0.10380300674471643,0.17398743152008161,0.06571771254465497,0.18845159078847523,-0.17700673899078914,-0.01543969882235923,-0.035607658828660134,-0.1595599308817279,0.10081484872442101,-0.052318195164435394,0.03250534084424849,0.10911293067391022,-0.010463733773573753,0.04235549187014667,0.06706051492996593,0.09073324142991224,-0.1351559166774902,0.02330463011949651,0.11384777136639423,-0.05779536096383755,-0.09616112179899268,-0.12084867973141232,0.11536640385796192,-0.003682817416590598,0.15142335941723487,0.03551961011210507,-0.10694566394223477,0.10134748863137051,-0.022885182044726293,0.10205738787844437,-0.09484320163102457,-0.020456106436024375,-0.05890434397081065,0.01773622764138093,0.04788125412448192,-0.04642320070185925,0.0908195718115484,-0.006633839075655567,-0.03562073586344197,0.16142430623807777,-0.050558439408980804,0.06787336539404505,-0.05069412287592374,0.050970182791272384,0.15055128089726477,0.10721868996003457,-0.059192285001475616,0.09260168196581357,0.028136338195148845,-0.021418705916455144,0.06662904479529087,0.029927173233215087,0.1329252866573848,-0.05060966639801323,-0.18949226709912068,0.0072752187055949566,-0.01496258590985796,-0.16207085695083623,0.019026868575722368,0.14436458855646106,0.09340277908750684,-0.1216623952994874
-0.10335880526550116,-0.03988051192383053,-0.05570962904007102,0.18604224619758353,0.1512538491199205,0.06783425654053311,0.04060767038699677,-0.017573611821306172,-0.046329680782302325,-0.0022598202053509425,-0.050911312853172554,-0.005002410692093514,-0.1163619743768992,0.10478308401890174,0.07167027258399299,0.053674514400182206,0.12164715211293045,0.20940132659379285,0.1966594753520634,-0.025027190771705902,0.057105404596727805,0.015544022164733507,-0.16905399197106205,-0.17659597894059914,-0.13594316608852902,0.10175107369048064,-0.02856393080555142,0.10146867068964838,0.15177328354191974,-0.11300752232458641,0.13645818824028833,-0.06713053182353407,0.001625333145525669,-4.2849104677138765e-05,-0.06587053863531554,-0.1329950982634547,0.15765923003770155,0.030746015008694613,-0.009694732594668035,0.06377691185414139,-0.014860234885961585,-0.022890814344968848,0.1582086250376154,-0.05440319232463987,0.1142830083469445,0.03636013524813572,0.15545128210449272,-0.003445242796641677,0.07770173532311343,0.050652527232449736,0.08653337713912304,0.136842882120201,-0.015096076414660584,0.013430221584737511,0.023780746395440762,0.04340000530083348,-0.1595520988114713,-0.020396070423924197,-0.052014013824081405,0.06732098417148469,-0.16220770997749084,0.17114198916264853,0.023994781191091042,0.12361613986254558,-0.03642861407702501
-0.09629014290398001,-0.05428889413448414,-0.05136526346918345,0.15232134489974866,0.11991303012911589,0.052932428715405384,0.12864896967511208,-0.03218385874139,-0.0937769836429149,0.09854758776813553,-0.16704562989976213,-0.03913846376254967,-0.12286532330698247,0.14094839912877072,0.12428288454189554,0.11058439201385571,0.10277045295748481,0.15892333366176353,0.16924081462120272,-0.041885062584565085,0.050578256764488724,0.08812216516842579,-0.07320747389406085,-0.016342396915300848,-0.09564335042921583,0.06102908417705079,0.0432075138965876,0.11623179204153951,0.021536177888839294,-0.15311968807040371,0.17078859895614817,-0.17473088522957286,0.13800932675058863,0.031040625053655964,-0.0007934218322890845,-0.17253489296836427,0.10582760586904395,0.10084136301978606,-0.05912691003505892,-0.03692025467996563,0.05466096825017495,-0.028742505104502863,0.19669203294808454,0.00448615212360449,0.12487280987534036,0.024936584685682984,0.00522382343613025,0.14727428060841785,0.05366027013200575,0.025469717457964492,0.07695373705288926,0.1360846054440603,-0.0016665371851094807,0.08827758969068812,-0.02613756221658931,0.04202697675902933,-0.12714827041180288,-0.18049170070118292,-0.0586257203121834,0.0164030586949845,-0.14432144662201984,0.08389628349716426,0.12570935332741118,0.1762735744615571,-0.06043319927410276
-0.10436581242203138,0.017880694971891382,-0.025234207128829858,0.038367015431808454,0.004153596111646586,0.025752400627287685,0.1601747098345287,-0.11356161462516362,-0.0893581892326512,0.09360946118952412,-0.012633270475530266,-0.025397416105844214,-0.18422311744384556,0.09926415513146859,0.11026601229825915,0.07075244922967343,0.14148412194958296,0.17814877330706028,0.21185915694120053,0.0739501193962174,0.04459154292822284,0.04940438288844095,-0.1116733179886699,-0.170024293094161,-0.19154457946055906,0.16289043426670394,-0.04327243087904132,0.014760542035593861,0.10761999748815637,-0.1544699985859894,0.2102486552538116,-0.16931205715900743,0.14757177019511802,0.10529431393211755,0.03682752969880396,-0.003942298017816624,0.10590115323415968,0.023468526258105128,-0.04477160925771221,-0.0638510887402392,0.0005987664111453392,-0.1075636724968032,0.2575321933675799,-0.007579431786380176,0.18015708614668857,0.01954674271007147,0.006602814553906203,0.19637429048543098,0.06178586347297269,0.026913388744474395,0.12539591372689682,0.02067833655664648,-0.11222709863150492,0.0823769145975778,-0.0599427371292584,0.0976795395284277,-0.10097671287801635,-0.1505860620296379,-0.17977576040902668,0.018930314347760817,-0.10025078898809998,0.10355562832560011,0.05914268217218896,0.06988336204437189,-0.047970603363805736
-0.09710136046648271,0.034265326680325156,-0.09235602093347767,0.19170966406963358,0.09851986919709874,-0.017663151492020867,0.18454126912659652,-0.144689069049225,-0.1845406938966031,0.13159456252931384,-0.013723934397682278,0.04056297100915963,-0.0703178807230923,0.1089057503523738,0.11533307113676138,0.06001879508152162,0.09179541785771314,0.12385145729690707,0.2526469754186177,0.11231057434900224,0.08571810642367936,0.10362785873579054,-0.15634672944728367,-0.09059127742510545,-0.11500321607904115,0.1303365556810324,-0.13844136782395952,-0.007386327506654791,0.1526248192155686,-0.1869683849807334,0.23194142448190666,-0.14239323331335446,0.04299213849752274,0.057302852381814186,0.06972288697083802,-0.015186138374628929,0.1110890091817868,0.03098909566895332,-0.0420936627293838,-0.10346785187026869,-0.03307579476354299,-0.12270227465085463,0.2440304527141547,0.03060395099011839,-0.0009209044332929001,0.1038977364838062,0.04015395680425665,0.08373392959662991,0.030883501680131674,0.08352286503224646,0.04415070799523395,0.169280186140487,-0.016850434298895885,0.031733578363930655,-0.04567172332588135,0.0036624374946499,-0.054664805025323705,-0.05058134815325835,-0.2033334968006713,-0.0542386881021366,-0.1283880839210723,0.03765363832084103,0.14503562258432484,0.12950244313648515,-0.11562223545678119
-0.09350708955353759,0.08410586416079098,-0.050188777671376715,0.13595302458681785,0.15036072973839473,-0.014864193407892873,-0.004439142117604613,-0.1823914710880061,-0.10345315065019199,0.12650445082594178,0.013239397606079383,0.016459737730939897,-0.020478640845625232,0.08025690715163286,0.17082491239665684,0.0661441230115108,0.09817054433549359,0.05090787685559002,0.21707073108728875,0.13390712829511803,0.15844307068724006,0.1569473136335831,-0.17033732650024644,-0.15703495224285516,-0.020124725139356855,0.03103181197123959,-0.12287232542135812,0.09577504533650696,0.10634364313163289,-0.14604776266847125,0.1766065487514724,-0.003999266277218494,0.13801492067096735,0.0063014455933958135,0.11109222345933134,-0.13512128012330152,0.16957163265087843,0.00543055440140714,-0.09473339271126172,-0.068242897533075,0.009398548495662814,-0.01897107264397898,0.1766942337724963,-0.09185342575149463,0.11753296045089626,0.12295475692185068,0.06409388336252818,0.09847578354989517,-0.06212529344346296,0.09324729978641795,0.1594482472499109,0.10653119785724653,-0.0775337862837684,0.020570341498753794,-0.03498900733348798,0.04484193053952769,-0.14599787508151235,-0.028353248730667954,-0.21481568849994861,-0.04153990262573732,-0.04017091113567353,0.035622243209026516,0.11463526870710193,0.1420556249884366,-0.07688040315654793
