-0.11488252577663531,0.18421714405819653,0.02210454628961889,-0.09461043341281264,0.06851646029744891,0.12047003512610824,-0.01182823260455521,0.009395074039900302,0.06549782271011821,-0.005982849470959592,0.020259127914261304,0.08680944398561256,-0.14493912694213018,0.025905887765063182,0.0666837058122115,-0.07443182131475454,-0.09998231268050076,-0.004610644757310616,0.1804291614514517,0.06428424238298283,-0.1279947230178799,0.06704166919620963,0.0889857019055091,0.156802667590801,-0.04066981640443092,-0.17884423979169053,-0.015516949074366593,0.09202639454668121,-0.09099735542815986,-0.010402582612821093,-0.03891151819201971,-0.10515706418604699,0.03869212306462251,-0.17046683904429039,-0.035469233244048465,-0.09226155818888869,0.0842715345269607,-0.10759595019188248,0.12170820964730535,-0.18503767874163468,-0.05728955127234422,0.12372361129499804,-0.11735728614683019,0.1511426998860436,-0.04781161070975252,-0.17113805740877533,0.006984521644736893,0.11828225443460622,0.15616234283075098,0.055886786705955864,0.1800519807365544,0.18337292123673266,-0.10014237420080153,-0.0506919336971066,-0.09294953233356876,-0.09333927704401111,-0.09517406006881371,-0.07749674872525479,0.14713459748679908,-0.0257206999183526,-0.14374610004106622,0.05464140414996985,-0.07771064310672773,0.08448703069232173,-0.01481877401399275
-0.12104837964234504,0.16069381312743147,0.15030981819022243,-0.010087365429543145,0.0752639620097843,0.09821835310039036,0.03762908479272992,-0.08926992669135048,0.07957893579592856,-0.04608442219450057,-0.023880901136203607,0.17419397597267336,-0.08494783346352423,0.09785462263355478,0.09324011501870415,-0.06981028716561204,-0.014024798119554894,-0.028180298284546875,0.1794995126435609,0.027309087771710434,-0.02317091773424533,0.0031204337907923675,0.08815818308938367,0.20579643123264735,-0.025547123581440914,-0.14372459039835342,-0.08701608480783553,0.1999634327355701,-0.05721729633541944,0.07564988149794664,-0.16889085882410254,-0.06419085494696919,-0.07412055374742976,-0.14891618526970032,-0.10685643629668748,-0.08061749646783223,-0.031365156270441244,-0.09279383797388893,0.13180745794703871,-0.02474767019619758,-0.0688771754299611,0.09283082055758118,-0.20051360456148487,0.0908874714511218,-0.1932753535635188,-0.07717161461596067,-0.015307301455297444,0.0339823391111299,0.054086053401181194,0.07769028035379022,0.009309299853427832,0.17151797270142313,-0.022373036972470776,-0.2036274455531649,-0.06583186051366492,-0.08115089139705618,-0.2009444855809191,-0.03754884598380537,0.0603571355051943,-0.13001537624200787,-0.09796480206798897,0.1916277820386064,-0.10368591476044031,0.022928249643688947,-0.11636278550737564
-0.14337129196128398,0.1542125632893464,0.1936507833904067,0.055469147068953444,0.17712735448550163,0.1552383811875124,-0.05881179575344438,-0.010015064164140886,0.05623732172969732,-0.023183764589311432,0.006644278343108152,0.12466761864092729,-0.10306944252085343,0.05990569256594993,0.07838681577281904,-0.11916797121543413,-0.04003389732193863,0.03539974086626824,0.06417141281375578,0.002812782217806253,-0.07605699155148629,0.006017228022103054,0.16033348261367145,0.20206934815772148,-0.06662782343270451,-0.037007112738971726,-0.11296356911929642,0.1313741544294861,-0.09714012939593589,-0.008998769015082612,-0.12434503425478369,-0.22646826158181582,-0.06027834383129537,-0.1219304858691749,-0.08188086886209732,-0.01294159795884172,0.005742798444257963,-0.017557504723438318,0.052846884671996365,-0.0504633398059655,-0.032976776692322664,0.09052897585446609,-0.07371093908505953,0.21347789754565258,-0.10920860075892122,-0.17438226491935435,0.05879945018967,0.056762193131182026,0.13353608576485393,0.21506732125790448,0.134184091019484,0.022642793655644543,-0.04231591630827365,-0.17867142977344885,-0.015872511188368445,-0.060243266121142135,-0.13849767151889497,-0.0002289133704338457,0.03483863750256106,-0.07210805748448788,-0.16400705046488448,0.07931697404560988,-0.1341082258560934,0.07817744732966958,-0.09709285288330179
-0.1351645184858377,0.2086495050956089,0.1644306381182905,-0.07300779702403869,0.15669346426920097,0.11114774799216075,0.038965724847608615,-0.018847302526237033,0.10802159275459594,0.04325300285815279,0.05118172112065271,0.05522156061191626,-0.1099359562643907,0.04895289193627208,-0.03336394420547916,-0.17379359510154282,-0.013558553141613767,0.06428317323685188,0.06598288474462938,-0.0501574394451872,-0.18191642182824985,0.024414790852257087,0.10075462898665212,0.07580558171847246,-0.017318839356192155,-0.048524324585174326,-0.0125839567225696,0.042515909429853525,-0.007132199572763388,0.07971824234827317,-0.038364672621665104,-0.1580634859090098,-0.08461004905883819,-0.215317482481835,-0.10915661239267858,-0.06043078863061709,0.051084338273480405,-0.017627853802501082,0.1426928199367914,-0.12630306097189561,-0.0790908257703065,0.017270200255724833,-0.11019368978627932,0.0471021506085723,-0.13648706277502512,-0.2195344973119928,0.08943203312464422,0.07622791080060813,0.1586405744535379,0.2177458056892546,0.1173726523581551,0.024840907869214293,-0.025273589551309514,-0.15736459030961475,-0.17023316535047442,-0.05216472667070436,-0.10110926109989488,-0.048706886020097026,0.16589851689090226,-0.14532512917182006,-0.15168604005226313,0.026964063831844052,-0.027064467726094485,0.03589814288789623,-0.053793896995443916
-0.11411951655565607,0.04684916316192756,0.03278721386777434,-0.0006351117644433093,0.06770315173457617,0.1061688940560306,0.02194463563259152,0.029043032177110538,0.1292788541122217,-0.031941299745995765,0.11975875074426785,0.17656242885291923,-0.12210145215031619,0.06611178012811773,0.05400791314392402,-0.16214889253082546,-0.048818622237827354,-0.027738505637251186,0.05306093067193783,-0.05328823022771635,-0.1360177526074215,0.0659639264455519,0.14610816226312834,0.16028038666803313,0.03876884299089137,-0.15062490055853228,-0.04126621905622972,0.09705210297669219,-0.04720135388908416,0.04263519469139112,-0.19614764731601203,-0.2057929897165899,-0.02299118514517372,-0.08816453155125405,-0.04355142205423554,-0.028294549468464922,-0.00012549925409006501,0.018179853946863504,0.11607695486401338,-0.09912426058680975,-0.04488031050707257,0.11573743723696203,-0.18154668618812592,0.07017156425793399,-0.19953121301482418,-0.10330472901791106,0.009634688830031615,0.08567106792374496,0.13544637155860362,0.11302842872994846,0.14154680320817944,0.07370166392710781,-0.0981997961358093,-0.036889213224752644,-0.18617660734517244,-0.08617352279395778,-0.010524875345586451,0.03891418558040832,0.036535068987936584,-0.1956375123614993,-0.18842933311987647,0.1722456323709187,-0.026697479175722696,0.08224538067826355,-0.010684816179379487
-0.11144014476488533,0.16295410113320416,0.15781003808094535,0.012386736309119059,0.1784405989015767,0.09020244110098781,-0.06716989504926932,-0.07036651863823687,0.0612701786637021,0.006539879596069325,-0.012995925149298874,0.07687575738266063,-0.06636847057849268,0.19831183262282617,0.09911696083949927,-0.16564328181526325,-0.12183226416188678,-0.049868911735137175,0.04569568277987866,0.05334408867545477,-0.03132994248278351,-0.015734254788094884,0.051512571469133066,0.014454932532862758,-0.05839153811353106,-0.006155063295459401,-0.049735100509745014,0.11029353951741273,-0.04003465783465029,-0.0029181703503392297,-0.17688532369221663,-0.13862738258104232,-0.038822523010375205,-0.10382229946583833,-0.0008765947887615577,-0.06272109310957114,0.07468351429872522,-0.05080560847940543,0.0843704601790996,-0.14296408307144068,-0.08652474289793557,0.0197064838807818,-0.10599165872260215,0.09994297340825169,-0.1902995839131275,-0.07561358804575424,0.025509039626173687,0.14541289752017938,0.06460050692608592,0.07364966209008854,0.19322795203365523,0.12176400593319184,-0.1309266510030241,-0.09002555731460139,-0.04002918842929399,-0.039585135174286745,-0.1317475033300895,-0.005688314150331301,0.18305525226361768,-0.11306788159504723,-0.16344256026113888,0.05985255265316665,-0.17960447600857166,0.04312947108132577,0.007075424061305786
-0.1279934129714775,0.18235126782720087,0.1716145257121733,0.03985882987702259,0.1410254489060307,0.13173143942680304,0.02617708766547515,-0.044002045115900265,0.07926458305397965,0.013931657757337845,0.05274177276247911,0.20093751528003617,-0.025035745938983396,0.16228679277532296,0.12723460998122443,-0.15245193957202308,-0.08001197939503557,-0.05858661329654667,0.13928506517808445,-0.002499630367860644,-0.10985190642233432,0.07427404498296095,0.14736034223531957,0.11814577273154496,-0.007251414099295306,-0.026024084037450188,-0.07398689485876168,0.05006810823571825,-0.053070922278768924,0.019842824698857568,-0.06953819101696129,-0.15322026559102653,-0.013770251857975885,-0.10872625118774511,-0.10916927438643267,-0.001858132193435919,0.004012826474448734,-0.06347326173652072,0.06030281154337388,-0.21258139058154682,0.01242667456106756,0.14590437503547748,-0.13631842842664266,0.193813930035752,-0.15329458758278397,-0.06003721682572019,-0.02020951259026139,0.058594557298968765,0.11041804106839141,0.07356434888156231,0.09725949790421543,0.16436157236768406,-0.12946015442866443,-0.017040861309390396,-0.08828276377191979,-0.06862482905582974,-0.039073412700411224,0.02072545538619818,0.2100967624097502,-0.20928534770482293,-0.16599856524356793,0.10561272930748833,-0.055261507677420406,-0.015200207417471787,-0.044875339254965806
-0.13372689070325547,0.12961150720344136,0.13187704021415098,-0.0555429817398198,0.2154050294121865,0.1507421468363318,0.010298906999263235,-0.046923195829424426,-0.021384416762319503,0.0403938274241323,0.10960924892641068,0.06676007831555589,-0.050955661435599965,0.10635390094190883,0.02013590167640773,-0.21821738296713364,-0.15194669926188,-0.004321669231251239,0.1861181207559069,0.03421926324288167,-0.0462715332195074,0.003504345566834981,0.0884966393252409,0.08508972495573716,-0.05425654958886846,-0.08368432128437879,-0.1330986239855989,0.21159688852012062,-0.002074418307212597,0.07510158335628397,-0.17254508195953697,-0.0706051214492726,-0.09476950242004185,-0.03189057157228797,-0.14942424898761253,-0.038386295847317536,0.03756428536825275,-0.11665519853813017,0.05290086914581856,-0.08101665991094868,-0.11985736352854852,0.11069309171047774,-0.10357191287864341,0.12129272870135734,-0.04707659183287221,-0.08564226468449163,0.04925075604040486,0.21410888349456403,0.10279549763844077,0.19174705475851428,0.08067309683373758,0.14999781721004216,-0.19793517612877765,-0.13069581976582004,-0.074629990788665,-0.04563244687279772,-0.17302719824689916,-0.07334410481224748,0.05052374466020716,-0.021940520571003035,-0.07344436043009095,0.024851807774737625,-0.14547499266503064,-0.029386339969695578,-0.042742298830648486
-0.1191389803640852,0.031545059063559804,0.014168671126882481,-0.02520256407269122,0.07139101774633919,0.1930353938418691,0.0416789326687906,-0.06583034144295177,0.025356705826975943,-0.04649958505536108,-0.01021171030821368,0.03382915943515864,-0.14130422307202828,0.13212718423305508,0.016160434846598598,-0.18268366725478416,-0.04075273722748362,-0.030648428840320194,0.11768597516584588,0.07394161682906485,-0.04658895590459863,0.0358694912310556,0.18497740003662952,0.013482177020128343,-0.03877913198166735,-0.02075991133469484,-0.0794483171230822,0.16570803585441105,-0.01621353519036476,0.015183288836226966,-0.074951811758199,-0.19309333968551182,0.034915380349800226,-0.11219404507006403,-0.07444978302439305,-0.06876538597835226,0.01987504501444239,-0.11187064842936412,0.017543869053814946,-0.12617421932598047,-0.012127588066695769,-0.003918996209559048,-0.19802963574776844,0.06358519976106158,-0.1677564858241762,-0.15752431572301404,0.10447872383176766,0.14224566594014532,0.012746462320496973,0.18756394203137486,0.08409756145660414,0.02012297789349671,-0.17751715569124618,-0.19088093069071116,-0.1383288716084484,-0.04558391201116122,-0.08187245348162839,-0.04432306155471267,0.07591994773795158,-0.07900679671636879,-0.11517436096454618,0.07103835744226801,-0.17545902305735256,0.04502502926235169,-0.07662180356619594
-0.13587961650246744,0.04770845030035072,0.18568121257665057,0.008576097298386237,0.06972936885994252,0.13166655609092603,-0.0131733433724603,-0.09980975272335935,0.04109507758111374,-0.03348012274163895,0.023422543639992226,0.1143478979055315,-0.1702094692842963,0.19216125583821173,-0.027702695412872926,-0.037285142710750806,-0.10489973579422023,0.031262720141935575,0.13257923309817884,0.01828512095031473,-0.06922279886288972,-0.021799089000697627,0.021846523940145465,0.09749641438851692,-0.0313516802385573,-0.15038826499934219,-0.04301139869377243,0.07674896622260242,0.006610288645998081,0.10699505702631691,-0.03793819145077892,-0.05106090364926896,-0.07671658796405487,-0.10435877644711312,-0.041421770474856755,-0.056441924229578916,0.0639829197820615,-0.085989617015148,0.08509111453524186,-0.042504572466565194,-0.06437466093761482,0.12470423377387453,-0.052361532168257716,0.09645435244675277,-0.043052657656177384,-0.17438656819141968,0.0764841307584579,0.1321021182757797,0.1445730673665078,0.20788554333754553,0.018355795706452453,0.1804619286886945,-0.1522338146045715,-0.10586743386321014,-0.20578069362194262,-0.06074623531870023,-0.14295298604683077,-0.06475308771682195,0.2045927355971708,-0.19842906113052247,-0.029748090864301253,0.20233783776159564,-0.1733985958720811,0.00671868014158663,-0.13428907344596924
-0.12480317256518796,0.16437128205823065,0.06119314035426618,-0.03855642188612291,0.10878104378873113,0.15918453481362468,-0.025629306197968278,-0.07161617264883695,0.02064652891699112,0.03181651712726891,0.05784138640245787,0.16019901508158096,-0.08166755043323616,0.04685048930961645,-0.013827728710592334,-0.08657345832430098,-0.010905691509482118,-0.0011411268367185125,0.11131293651765505,-0.011604915462879941,-0.048948580819026824,0.03829421373916034,0.07163248978245747,0.18225685778270956,-0.0038877891517284063,-0.16756563212086759,-0.13264529691855778,0.12948161554897294,0.015468244746043035,0.04587487540258836,-0.16671324911849666,-0.06616087135096729,-0.025711795820822853,-0.08475415315861139,-0.017318942160267716,-0.0750793076369145,0.09012899015858201,-0.07798213959807,0.12004956574331734,-0.11109806562949133,0.014193910609180547,0.07155921365428668,-0.17479594573391766,0.16605370219591375,-0.19916171558616788,-0.07286177289434544,0.06913973842867811,0.12506212820290882,0.13604436770447156,0.1810722740969906,0.19426782716005564,0.18303781333531405,-0.0742368649657223,-0.0965231492059923,-0.026101810160202375,-0.08307904296408215,-0.0210426157085553,-0.001781626993240472,0.03676363287868482,-0.07682067810498085,-0.07760924363714347,0.15495795808485466,-0.06720039457585779,0.05187197202753709,-0.041420968490529106
-0.12845376946560458,0.023518399791217424,0.08406800390996315,0.036004578972466186,0.09270516703419797,0.05165618645305263,0.04884973326083065,0.006371867291002746,-0.02160654961496179,-0.01705375242513647,0.09804094631169936,0.1729655926183252,-0.2108546701509053,0.16643949900970648,0.04748461340875375,-0.20466491350312446,-0.12675371155433302,0.07838971889712021,0.193558720470134,0.009894108604883904,-0.08401531783751336,0.07932086828990371,0.04865811028324764,0.06626406641822659,-0.07787286395676997,-0.13114499871003366,-0.04829514998511589,0.09085289082859771,-0.0177187203198285,0.004157902282553768,-0.08785818940350411,-0.14416200181924832,-0.0246052799047828,-0.06850132087239444,-0.10481095278057664,-0.013436279141927332,0.02267292069429988,-0.061280815157045324,0.050574279719199366,-0.11051062240881308,-0.12334272319645657,0.16318083179918047,-0.08420159675941445,0.0974700941702722,-0.16512477561178682,-0.06029858258489852,-0.025629466512616113,0.2015429350673519,0.12301033360205688,0.10804988173975758,0.17645954011429643,0.0769997269765161,-0.1359478339894065,-0.0747677574021838,-0.1371394062962458,-0.07522573388093833,-0.18271928490919098,-0.05425331461824567,0.10301323049836716,-0.1592874412302986,-0.06884204981931366,0.15082303662647673,-0.08470471621224555,0.09778627021937397,-0.11540923774322703
-0.1448261387046178,0.060402569316484044,0.18191443239241117,0.017383207575373226,0.0331853721787429,0.18723315087712517,-0.045705469965299526,0.047032419062132014,0.008436640746321613,-0.04119315175446897,0.003521457312937164,0.1977525551927594,-0.08304110241556038,0.1673722673717754,0.08438543437424885,-0.044089478043762155,-0.14929869318974204,0.022424284469589516,0.026847285503020953,-0.049169934993913436,-0.09313666986689856,-0.025096848722269086,0.07949056775133907,0.22524738674684994,-0.00935857950109827,-0.2032293519536871,-0.09109847446017663,0.13782956954770048,-0.09195878889750445,0.012522829471248692,-0.09357543676341037,-0.058102352019918556,0.02165502695330729,-0.1605296984336976,-0.12279527011548572,-0.0021481728587127483,0.0491829110979021,-0.025634908488822505,0.0374185273067867,-0.12050115020182404,-0.025059985886485874,0.016745091641650202,-0.07964284733537022,0.22557156239426138,-0.21028752430850567,-0.2266693873573685,0.031173713604875256,0.153896685990226,0.0841577315979792,0.2088847726139934,0.08034633968241944,0.21874338938382387,-0.022589507152567183,-0.06376314539410258,-0.05134631809380712,0.0011858853658422562,-0.0930214222839637,-0.09664160385060369,0.10762715853988862,-0.10284565749436426,-0.042601774091258496,0.20681675291263318,-0.04315128670143465,0.08646032825459976,-0.07642783023485242
-0.11667223418681769,0.08849307218461305,0.045215950933552365,0.0016309036974239913,0.12872096642547431,0.16270214982866163,-0.007525777433591449,-0.08829237822988313,0.037776658472694596,-0.03199029873012084,-0.015327173508839005,0.08956299126247537,-0.014385711772546932,0.04548058557906129,0.05174996028392136,-0.1734200789120051,-0.01042756720527287,-0.03432342539476081,0.08249582713281255,0.017502101815124484,-0.18242296436589983,0.0036865563600899003,0.12329801451073252,0.04535150851307796,0.005065859364315807,-0.2066057075464827,-0.03194445721037811,0.10934939498268723,0.027411620952787676,0.043024567119959445,-0.07720023238455137,-0.0751181518064513,-0.053794593912733446,-0.20001577223439518,-0.0789339016298962,-0.08836944144524923,0.0009018205083781294,-0.008875045514624027,0.06497629437056432,-0.1744553930487921,0.008633011172556512,0.06588271220844134,-0.13466920851546893,0.06174192413909321,-0.03616440767571914,-0.19927418012622478,0.08734784268051567,0.13849271085852358,0.06531420843920875,0.12560999001720438,0.03500602731919928,0.1929642663990339,-0.15181534815140427,-0.13169395104393974,-0.11784418952818344,-0.046551207134013346,-0.13032009635465952,-0.02270708055950287,0.15921605395383293,-0.10145503933673543,-0.10803508196617731,0.17742127412521708,-0.07919599135959307,0.03287840429415127,-0.06715061883292321
-0.13574471260224633,0.13182054116395503,0.146580124942724,0.06599401956569913,0.17583039034076262,0.1359179763888823,0.03538922054716962,-0.03929425463233719,0.029928595326477132,-0.037195903498962644,0.06801159665318823,0.09408660274923575,-0.1571708677501337,0.19400900264372226,0.06040727749552614,-0.12649746477562104,-0.0821377965357913,-0.05502179268585229,0.13142500481801536,-0.05197122781073913,-0.08410147628065492,0.014759842010635568,0.034932555115642,0.14528963773378076,0.051369063493665185,-0.04691441617431533,-0.0678040282484904,0.17809234928652642,-0.053672516433017146,0.03228858078424392,-0.13077419989637792,-0.09471521893267947,-0.0667476185618353,-0.18131667087756637,-0.01437419722655179,-0.06725330611805447,-0.04021610057554385,-0.054996178381294294,0.09771300024433437,-0.11123037831289109,-0.01674280418502305,0.05988339728509532,-0.0469594620179995,0.16548924626665043,-0.06489881230973055,-0.06567846801946223,0.12807932168774935,0.043438136679041596,0.214621793700762,0.2280279921943359,0.043029842698473354,0.09562047358728448,-0.11573597294718797,-0.06328787278949342,-0.18132461544589926,-0.05804905358753294,-0.01867305580574912,-0.011806348915179154,0.11085883581905409,-0.16870716170200734,-0.07154083842108334,0.06260491159485927,-0.10462693188678507,0.09789625831492757,-0.1125308779269355
-0.13319410274296942,0.07031895082550252,0.1755616071433045,0.03357607348490355,0.0815953145527057,0.1344664166127808,-0.03504297242253332,0.0040440641860392266,0.017887516555688054,0.011942919779300053,0.12407996106919786,0.1671441251196042,-0.04701877947383841,0.06049200336343688,0.016703185523582145,-0.1799395481237023,-0.014446331891591856,-0.056590553852928674,0.11761150566649216,-0.03955661025167056,-0.09854900235184529,-0.018389949522074834,0.14013188156316636,0.15512241626525708,-0.010700257153751154,-0.09981321977717157,-0.10500234174082704,0.10230707603930325,-0.01653262923944277,0.017726726782213473,-0.15887393814990755,-0.0326961849905305,-0.07609170906435303,-0.1318554388339081,-0.07562954555158183,-0.04862807104539247,-0.01658964563404628,-0.1159046836164648,0.19924152531773476,-0.07131587343277174,-0.00433791269443105,0.06561215975288615,-0.17289500300920274,0.19261938012135732,-0.029942214203725268,-0.13884638374504527,0.09314765910981056,0.19298906169468658,0.12244830819608417,0.11089673487320421,0.10787248789368965,0.14700472025510836,-0.09822931795958846,-0.14161972113131346,-0.11297455371234885,-0.05809375201299548,-0.13359244385219407,-0.07244448634625955,0.1368249842410866,-0.12344019425487356,-0.01360395693675682,0.1268200006843094,-0.04298447499743468,0.011164371473021698,-0.030054963555055225
-0.1365369919146235,0.045437462410643746,0.1808347095480346,0.010692820328857938,0.20902735072468695,0.08434032643092708,-0.034307416107274176,0.04453655372955486,0.09138693744389713,0.01567814321241048,0.1042569687336996,0.1985693546126804,-0.11282956115491101,0.14248694036874626,0.1010981238723773,-0.12268772743104082,-0.10079043516838514,0.007683892781706638,0.058756858978864464,-0.05367183908076922,-0.10647013889545741,0.013962347282710823,0.08480700651874126,0.21269376716350935,-0.059840393809672064,-0.048605176379642165,-0.12495197216427971,0.12608802052065607,-0.09530023473863777,-0.0068459581544541735,-0.049442230954780925,-0.20088232008208867,-0.02991622796618015,-0.10803335412703993,-0.15479275771491716,-0.007859415931073928,0.08930031443080981,-0.09117559614664195,0.1423776149648127,-0.09868730030092122,-0.11097189393380674,0.14420656273002783,-0.05101795315352426,0.0826895359382976,-0.17455997269590315,-0.08586826008743823,0.061460584168797204,0.21543393063732588,0.18389587014982503,0.10042258639304204,0.028597131225526463,0.12032918425748444,-0.06847271871174637,-0.059091413320363995,-0.18749201198378215,-0.01295203391859275,-0.04492721014084617,-0.05703109706189698,0.22222321012490576,-0.08423233330244086,-0.09664046656938137,0.18123065729097598,-0.10735852248238724,0.05527327525231883,-0.02265174179692043
-0.13020327137284735,0.045940894440933557,0.050716692805332766,-0.020427783714941583,0.19769552210249144,0.17844053703619847,-0.09846502074019153,-0.06464132757350849,0.007150414364892925,-0.03757495139240274,0.09124867683572074,0.19980483618515749,-0.19424802741829078,0.10824025738012033,0.008361347236153433,-0.025062122526024706,-0.11630133344800792,-0.00049427547724524,0.017631197467588792,-0.007310715135480993,-0.16436769863251052,-0.03127516914952099,0.025127469165340643,0.19362342951365835,-0.07063837579747985,-0.164873014923604,-0.04302464379450103,0.14663888357665544,-0.0705961849890349,0.07636334867009285,-0.15638852764153177,-0.14799817161918102,-0.0024261833123865985,-0.18225856466388538,-0.14912213941547872,-0.030091931636155173,0.0993443165986634,-0.008748277634524642,0.09775048907632848,-0.17134800223973304,0.005307842762607842,0.14294005816789385,-0.11090028104354342,0.06839017154428653,-0.1109984690866798,-0.08115493213037753,0.10648130097601463,0.1720331548487655,0.07959233993999384,0.2054178571918252,0.04819116948572243,0.054982174431598516,-0.07521085205860686,-0.09564501352841426,-0.15319640583551908,-0.1028295630976867,-0.0932481404878999,0.01421213065569612,0.025558488102280494,-0.09643655772446075,-0.014389158015748253,0.18867388620064945,-0.21779399640286443,0.09496061742276764,-0.03706349362418623
-0.13848009043401202,0.06563683654193837,0.19527936171547391,-0.06355717372858606,0.09292308233171336,0.09537085211815598,-0.011445490742755072,-0.009131125890870737,0.13008883271072627,-0.09498539291721163,0.07048291654430247,0.12787510117160472,-0.18693811630342824,0.18807024731078395,0.014086991465637836,-0.03349089533368007,-0.04982019312094128,0.00954328432549712,0.09677734678707743,-0.02500295763421345,-0.14694024109341008,0.06361980055557846,0.07774970881435457,0.1582788093864456,0.0263252097158799,-0.11002687368401204,-0.004784032179611866,0.19078099828031575,-0.06906522343032538,0.06194967959477854,-0.06401674882647435,-0.19048527362352471,0.027754115898989223,-0.07864963354668132,-0.11869152963727765,0.004420254318452289,-0.0330135453110155,-0.07374387672837457,0.19265210573817645,-0.0637287844545071,-0.010716679985563332,0.00833940746583006,-0.06327819034004589,0.2076988963412325,-0.03452492974440034,-0.1065547744071541,0.07309033620936009,0.12668777338142326,0.10541348701771538,0.10509461628093181,0.06274737185081268,0.1704629451818162,-0.025978758498587662,-0.030589478222698023,-0.2036880364927078,-0.08800130708733007,-0.1359014784032361,-0.08590510679608292,0.13179176023198294,-0.16639024602059055,-0.12978814531498187,0.0746082326790548,-0.12353570112683541,0.004249005576638765,0.023156761260742773
-0.12836212054573284,0.044673453843780846,0.17762713144518708,0.04816210535603772,0.03615257261695482,0.05351907748962335,0.004396172087277886,0.015113678030159413,0.020727782771965523,-0.08126075295097358,0.012445345216218328,0.14698797966110852,-0.0593481680869721,0.04023388800739668,0.07066675246889104,-0.19067372275211358,-0.10574759552172083,0.04427430151753677,0.16336002303959182,-0.004209318964789423,-0.17013054230527758,0.033031670062802485,0.10872139332185675,0.05153228900701545,-0.0825743475223261,-0.1810390802189988,-0.1320676286986439,0.21910828262689608,-0.030469628266519087,0.004658727019789483,-0.15806249929236207,-0.12147980549564291,-0.06882637749931012,-0.05665625047822446,-0.11089713619836569,-0.10769247032655516,-0.03980822850793738,-0.09398360250080542,0.07806540721755294,-0.14611522682826658,-0.05700635548596617,0.05469514245287499,-0.03348677811507534,0.19887305838159372,-0.20731046125132008,-0.05166710960104989,0.01566001954990815,0.08066818343743813,0.1991070616588486,0.04148230870654093,0.05629926395859412,0.1792015535148703,-0.07904655029534857,-0.1677516282572209,-0.1646163185807467,-0.033724201386769986,-0.19573262578597214,-0.06529802999930905,0.1614748057019903,-0.13459428246702165,-0.07173532987375011,0.09869274238726047,-0.08909987912140643,0.08645159866404015,-0.08406808669910627
-0.11771467785686143,0.09150406095545272,0.15726940881518592,-0.07735167621924478,0.13982137479110857,0.16518575146792774,0.007173647401547971,0.008754852316127246,-0.0059639480269105165,-0.0744610470375104,0.07671144630466381,0.19120544387778476,-0.17892385524695356,0.09474927094175903,0.06289843324772866,-0.1816598112078573,-0.022126180497834366,0.027988933105726276,0.0936496691389124,0.08249110249117,-0.09475578468752048,0.09112132756734213,0.11172621787613402,0.019367036649493793,0.008543613304927901,-0.011599763863265387,-0.08857832498422052,0.1772733746926379,-0.09300297590635183,0.04714991106758257,-0.07890827809135494,-0.1019799291555541,0.05918737893119601,-0.08835161039231713,-0.026130330255854466,0.017756098131069094,-0.013222840010194076,-0.0886678786283872,0.050315673596566246,-0.18114259867851107,0.007094767651766586,0.13785180869692218,-0.19164485382809396,0.14292309852031992,-0.16847878013021458,-0.09751370032320528,0.12072850021765716,0.12131775891348515,0.09614786715710572,0.03262474661011059,0.13420243133903043,0.06659370447225488,-0.029809442870512126,-0.16873927355082025,-0.17205393706619485,-0.021369455437656615,-0.17656133610682379,0.0009938551439403415,0.06938953514150681,-0.19852563458135516,-0.06822220544698636,0.09719270878835963,-0.15458788388762149,-0.02218134221780183,-0.029462296492688552
-0.14415370682782216,0.1606410408808397,0.09484828359092655,-0.014413789032778658,0.05660142993514118,0.14443300433403777,-0.09701815544631712,-0.05328287037401904,0.04568613354479708,-0.07309371969549619,-0.015882040324442286,0.07901943195754103,-0.14000613504829995,0.1642899647245317,0.05352704148044765,-0.07167076099008357,-0.11156099510021862,0.0331566621328962,0.07006615501553534,0.05279855727888306,-0.041438975374651944,-0.025677958283228282,0.16400691233660275,0.21526416815828078,-0.032985063879042396,-0.06787926473370293,-0.05950986399862488,0.08278236618556495,-0.09600720073938668,-0.01971688238383654,-0.16863070585337914,-0.1361203198549156,0.06842541726902338,-0.17607187257345477,-0.10523608399253744,-0.008341228590506084,0.06944252876651621,-0.1091275456635985,0.044303417406707256,-0.05386582488153661,-0.13954812818523404,0.13430194026499334,-0.21994622484958287,0.0814794018858267,-0.167125183154836,-0.15153397524189263,0.047484947701549256,0.0781277124739392,0.11474429567144569,0.04090951196384076,0.20622368849632008,0.15330510168745085,-0.17929459387228946,-0.04610621930604536,-0.1637339815644252,-0.008949329717593591,-0.03527137302103834,-0.08052669689564539,0.09703661960284814,-0.04833799249240817,-0.06853676781253079,0.01918997939654655,-0.1223791919554582,0.10573611945723706,-0.12057543126894676
-0.15035181855082302,0.11674361030830736,0.08241080422393234,0.04020522472839881,0.061296808550053594,0.05074438059552903,-0.013989763331315512,0.0408649377117576,0.12255699437233157,-0.06296504644538416,0.04367090036231926,0.0818725244327982,-0.042886810839646836,0.20020007668427148,0.07788774970988402,-0.03509960331855763,-0.10406391154272616,-0.00794280734035853,0.13072214490018866,-0.019800840616069303,-0.12384600973800056,-0.032435690332191056,0.06075105587183173,0.05312029364692996,-0.06285673885806085,-0.1668503959811502,-0.05043421341593032,0.15676041597388193,0.013519479729887943,0.0574428992356723,-0.06619205443007915,-0.07383243656059776,0.053155974287657205,-0.11859987024607796,-0.0611146767458233,0.0267766274580323,0.0699088412927253,-0.04248956473011752,0.2104853763361879,-0.13814922181972913,-0.023841742597878628,0.13662693230820927,-0.2129567338097711,0.1645874368154037,-0.14088356091520046,-0.11883223633892634,0.0972439841909975,0.17730868711529105,0.19196299850729837,0.12760611030219118,0.18964193929666226,0.054012015610021454,-0.07699254990875638,-0.11854539773981133,-0.026510646578118895,-0.05742152758863612,-0.04699771779490828,-0.057309828097609705,0.18139730389635747,-0.07159935700347336,-0.09951185485354155,0.06635477167190762,-0.15376675462274,-0.005148963516544996,-0.108213379008309
-0.12938239867706788,0.04240584431874454,0.09336344271982797,0.037898327890579744,0.11443717175401937,0.15650235395838402,-0.07521537978493388,0.007141085176125276,0.03034923461156445,-0.0072259811978683764,0.12590432565049386,0.08527236417348065,-0.045999631120343935,0.20713837303712598,0.011114278513872106,-0.015136457699466966,-0.003768209188052171,0.049893767987494474,0.13924253818704269,0.02770259817001898,-0.06869092240027842,0.026548958229588946,0.06560755848354995,0.1964880598958738,0.008445598393757638,-0.1887498737573829,-0.04434540399064574,0.04151369625960757,-0.026195648390763406,-0.00958207719092275,-0.1416817131559377,-0.10614819966594531,0.001118939072165829,-0.01976358419661871,-0.16668581993760762,-0.09359428246351978,0.10028404885294268,-0.03349331817216102,0.027552209795233717,-0.14518622748460167,-0.05384775694135285,0.08923952575904785,-0.09710083243755961,0.0858177058418043,-0.11091309670115802,-0.14034858917229945,0.068454751122893,0.20420596664547536,0.0724082778934861,0.18585411564342716,0.04195848637280781,0.06841918167201597,-0.17993647999171183,-0.16681493456854798,-0.14972968015812574,0.0003371172889337431,-0.14059388124459563,-0.06260549449642193,0.17768402362068447,-0.20385414663308404,-0.01186680075902466,0.07226936225056765,-0.1372049136530582,0.02598399779285781,0.008893865959825845
-0.1455020265365835,0.20380323087623456,0.13074340041668203,-0.01374973458317605,0.1619074636030045,0.19147599463040038,-0.041045615270940694,0.030091424289233427,0.08106477317239184,-0.07146467806289125,0.09902705982865699,0.19281462535848656,-0.07993348473635493,0.041679423111216744,0.01314597161619116,-0.0751481431122809,-0.15521146328505872,-0.009296484308940926,0.1250381251627574,0.05860024986565595,-0.05762600821617278,0.063205846030468,0.14327166676422098,0.2027130164627067,-0.011825994987018014,-0.08051694135163469,-0.13101093682346399,0.049845509944268236,-0.07339657911666275,0.042214054176049905,-0.090767525924531,-0.14518796202185663,0.027057950550277304,-0.2227602287706333,-0.1910400151921495,0.016043269553590582,0.10527922966110151,-0.06637736799970727,0.03617545403962278,-0.12770586960114566,-0.10339046233932651,0.04044255069275965,-0.21388268191669074,0.07566911077422761,-0.04709386665707109,-0.18118000415401633,0.030139723778388507,0.1786976269120017,0.11265026514118726,0.11180928652461271,0.06016913214927272,0.18436745544658248,-0.04903777018360414,-0.20322136682980535,-0.09714217141546566,-0.12389474515841843,-0.03644752828532298,-0.019137024774194825,0.1630425520126825,-0.05413149447782647,-0.11725182828993934,0.07699120688843693,-0.03655716263321594,0.02582491308026414,-0.051388225925877114
-0.13276428106630797,0.027452407393468718,0.040574590884952036,-0.05334601920354251,0.06881566732039385,0.06236719924965211,-0.05440963002743241,0.014160699434535188,0.013630597017552178,0.016099813637493188,0.06329658772590674,0.19419069974861217,-0.03914713648102409,0.03879605196615723,0.07543043937863134,-0.20300405712277728,-0.10293931932043039,0.04433977753531196,0.1895272293590019,-0.05788819620497485,-0.06181761980135718,0.02084036245902546,0.14617592847208472,0.1779246662239602,-0.06172579294186629,-0.05557740596250632,0.0017774135682101005,0.15890404244238598,0.008873492125383275,0.05298840490808003,-0.08110719220725371,-0.17758512359745393,0.03758560790292169,-0.12276603534153564,-0.06027264364299356,-0.05908232204988696,0.037659481413598934,-0.017820031415958767,0.14454037226580876,-0.07181648756469738,-0.03402120079370611,0.16161618170106548,-0.09106860001567849,0.16549807691146595,-0.02867752499696824,-0.14617727633615346,0.08870979151834396,0.20546683418993758,0.20519485855374606,0.22212427364160744,0.14392601620575965,0.1444538980555057,-0.018227268575067342,-0.13605969087553907,-0.054126228936307405,0.006297832166202774,-0.09562274858865508,-0.009125127202281343,0.09157904891006277,-0.014877200178452312,-0.16736627855268307,0.04444530592438908,-0.14252110227707648,-0.012294781929644642,0.016076381278817282
-0.12478466403482098,0.19074634079763858,0.13621664614648576,-0.03677495151919533,0.185579927784326,0.14902179522616912,-0.036126255261390475,-0.06312988130180835,0.02096794366482025,-0.03251229811482664,0.0811399677685982,0.09857809170484791,-0.15654503588430016,0.10343973826462545,-0.031316547706937155,-0.034101588074288626,-0.06129268216242236,0.04113753663208963,0.04981054318889073,0.001247504255433005,-0.17968985838538495,0.026831531755999966,0.20733352235733446,0.017828089159801958,-0.0053943570986697675,-0.10263921228674053,-0.0111248985418273,0.1074252642143824,0.040668721972946104,0.04512246606154518,-0.15889083194595743,-0.16101301517808908,-0.003536683221791216,-0.09284179977506794,-0.048329506688589714,-0.10221520167690157,-0.0005855284010826176,-0.11534223829339398,0.11741286621646839,-0.01625888930460083,-0.08926593603556068,0.08270787033435667,-0.0512448520206584,0.12661373395293327,-0.18425406467753977,-0.13818883152689074,0.05896826886775697,0.039951615706856014,0.02439982064105512,0.2037068673344841,0.012346045550424178,0.14901439587283186,-0.07845727563462773,-0.1406556033446207,-0.07766467221881793,-0.005604556203363527,-0.1921925054271025,-0.07156633884947519,0.06064250754311702,-0.07254014604301688,-0.14126777134805818,0.17027272894974688,-0.18606205098744022,0.023809307323472462,-0.06198102629562216
-0.14338071122155804,0.051383760634764825,0.11197782834993736,0.02111929872709176,0.049802669256868194,0.1095859148653105,0.032901535048419764,0.05666338868457957,0.091762002586727,0.009760308474564874,0.1364167922494872,0.12153903821494703,-0.10631600620490657,0.16233628213470758,0.0406532638529962,-0.22479023664543785,-0.16726092635269443,0.06399146554577786,0.03603383531827965,-0.055819921075844985,-0.13016294861346855,0.08973664925646518,0.06748749245739406,0.20692993806694018,-0.08629621267146602,-0.18960013437149306,-0.02688730830424776,0.12227803953136432,0.036620276462057774,0.05175030642214378,-0.1325376307301964,-0.19259502235047146,-0.09460725001526775,-0.11977450160931664,-0.13952712208893675,-0.022659568612186005,0.01311018242263006,-0.0917748177163051,0.09244396301199326,-0.0391865776931814,-0.01965688728123729,0.02912099235770127,-0.11464731882356538,0.1283718456049808,-0.08424350061665128,-0.21198907848477785,0.07331407540285316,0.11008012630608012,0.16527709711159388,0.06284353334471854,0.17880554928160705,0.028528892548438024,-0.05839933276396349,-0.07981609840579529,-0.09306134901265763,-0.037357537750914875,-0.026398526261584305,-0.06906890139966107,0.04176291987533037,-0.18389401556046792,-0.17316937014662795,0.15965885627231385,-0.13992968361370783,0.11171546072830534,0.0042872630259637255
-0.1474707229056685,0.13517250924844068,0.1882637320670427,0.06174512011724016,0.03270230726679379,0.1895597900202937,-0.012143021905146146,0.024693196380866027,0.052521847916582716,-0.09654759004656767,0.039388433242794035,0.16967416902172525,-0.047305679245528705,0.1760901012914834,0.1047837226747362,-0.11965625210913787,-0.133310329514422,-0.07902509095584719,0.08362189744590777,-0.03212359668388878,-0.0709391359856538,0.1027032343970975,0.15652651740625287,0.09840684759273062,-0.08841081247052661,-0.0715716788729563,-0.06355837206441226,0.13878933941940388,-0.05878621134992671,0.05784932287167711,-0.09702542234605092,-0.1519432824142607,0.02216353338369225,-0.15538616446706388,-0.14021848257819713,-0.05869290187363899,0.06837462088775584,-0.10663295076019771,0.18327685470938473,-0.1934268294105973,-0.03135801645895067,0.04267282861388834,-0.13141599373622515,0.048660386507509736,-0.03662458237153322,-0.13817809935061337,0.03847011928353279,0.18753788281187428,0.2064255325560204,0.054979237575311736,0.1040039596703467,0.028876260897921495,-0.05966294413326258,-0.0642985348155867,-0.10810548218545585,-0.012919164782121958,-0.11848645187080485,0.01129349615922116,0.10138964827156283,-0.2126284927446788,-0.043233765400003246,0.18292877741801383,-0.10958389265804527,-0.001406833936983795,-0.09425866681042701
-0.13363540833191223,0.08492258319950187,0.1276327414279613,-0.0408761803053431,0.13195006819142618,0.13706449491353645,0.01140703915924027,0.01009003502784687,0.08294798293659282,-0.028126103662332844,0.06055625111867295,0.2026645823340932,-0.08891640573049008,0.18215581626875127,0.02198533040082014,-0.04071891400537195,-0.0401400418789879,0.022007837684030283,0.024439044071688114,-0.012023708002374532,-0.07975307165037161,-0.03471785709401246,0.10907122287424192,0.11424456743351782,-0.011638606415954954,-0.12456950933347052,-0.1347388964199124,0.22239223442114547,-0.0914093520588326,0.01145179366735053,-0.17987406480722729,-0.12193505412740499,-0.08201044822730288,-0.03616747464772747,-0.11517929485177951,-0.007126513643853951,0.10419890067430532,-0.054927413706397005,0.11430317969507588,-0.05121100743551895,-0.007999069822030998,0.037583211147861895,-0.19896003955641497,0.18337978766467575,-0.13841881873338696,-0.04529842879659218,0.008095118108821034,0.1515826885948128,0.02954559392613893,0.15312858344568278,0.19190556200678496,0.09262712934247826,-0.06601254743928626,-0.1875472337349393,-0.07545776921478983,0.004016604913227382,-0.13299687225823822,-0.11989912705176221,0.10306000746606007,-0.08619689216176203,-0.05910494032580419,0.14325048593093825,-0.1026701360840239,0.015823737686264865,-0.015359966542748025
-0.10090942605951585,0.14227352677225213,0.11873177805861847,-0.05279604683597351,0.17208233174956478,0.15682380632770307,0.051640055165544256,-0.006114636371845589,0.08567002269708968,-0.03226843150228667,0.13458500230776416,0.004364685791200568,-0.1842839354779762,0.1898034802188657,0.02330535157219441,-0.12444598365830568,-0.07045826952458133,-0.01539532108696676,0.09456641003287902,0.04015235201977041,-0.006496546274275203,0.046580352882897705,0.1782403908204082,0.01677400015074277,0.02102574267242043,-0.07147825048478888,0.018457839047286196,0.18947381069679148,0.033702488710334454,0.04903911756991565,-0.19703055856810586,-0.12281750798305935,0.0058331221029379685,-0.1607866532624607,-0.05292879220510555,0.009320208646506319,0.05955311327113976,-0.031711060057529154,0.010570241841152761,-0.03240784441896575,-0.0929584348745261,0.12673285616618854,-0.12169340467597227,0.16052918340915728,-0.1244350256601296,-0.1587582318024247,0.032836222773135415,0.10649869274050962,0.12807519789594157,0.19721685319043372,0.05626079597165549,0.10943237447017783,-0.11814929591713542,-0.10380943289468038,-0.11718670363937571,-0.03182891553365462,-0.15358493735724152,-0.0025565645485286005,0.13257373353506516,-0.01195318329413716,0.0031479146352163777,0.05144906787126845,-0.09721078428893533,-0.026604339184793196,-0.10360238361143995
-0.12980643486290272,0.0379067818797971,0.02866586106597177,-0.0749340783455908,0.08954034957314176,0.19125163045881627,-0.009459625765636172,-0.04162858877296891,-0.02174308290338513,-0.004148305196821256,0.0075511971883600575,0.12619320796263161,-0.02823458323603052,0.14785892745188867,0.08913749835701469,-0.12519677350613026,-0.06858775543050062,0.025301637497447793,0.1393316008063893,0.021495636770928445,-0.1743350716703596,0.039165935892166444,0.016884424590024077,0.16117065827481059,-0.031194261741683563,-0.09545146652324976,-0.05968260887030055,0.11389444837880007,-0.04822448476209573,0.12405215396758626,-0.1929938539999921,-0.13878505527948198,-0.04587676395398776,-0.08616593582493852,-0.11266668370766557,0.027651424958640987,0.019880668514467285,-0.11279487917112112,0.09935859477224335,-0.1637777039741939,-0.11502869038022641,0.06584507459383059,-0.1508400450943467,0.1767205029427709,-0.09860699137721361,-0.17034448710158442,0.09065200090450416,0.06968322818897457,0.07709577850226307,0.11269003902247601,0.026963559393194676,0.14929863915999317,-0.08930984338065553,-0.15547894188482364,-0.11155689506235637,-0.03714078709987208,-0.06307144285413244,-0.12266922505406894,0.13596175936850183,-0.053918323887815665,-0.14953786477599051,0.10784824770887103,-0.20574816348884822,0.08400298382250332,-0.034248816091738604
-0.14329318027061463,0.03164491704873526,0.09837579689698689,-0.034067552836761675,0.08092854212100017,0.10441073133294884,-0.02775395891695061,0.040606358066536216,0.023524637182321412,0.03263230093403242,0.07215119252955901,0.04447336926648918,-0.16136894963281542,0.16559061452426982,-0.004346561209849064,-0.08469458234904177,-0.133591676683816,-0.009304373745667527,0.046881522197769476,-0.03194671606695691,-0.18445721455397426,-0.049133731433834205,0.14550235005883538,0.0919190207991675,-0.08908565147261384,-0.11839898071417783,-0.14576064159373994,0.10051156384988762,0.030230436764663887,0.026189798807595255,-0.05459190703922788,-0.07325379618105035,-0.03340397331090027,-0.18043609590193693,-0.07754624999807332,-0.017688276613743125,-0.0024166965506258707,-0.01508658092290284,0.1423262901143518,-0.1757209887329869,-0.09734966085977913,0.11516623889859713,-0.03100216472108192,0.1934914672846749,-0.13466886791179136,-0.06941006096593921,0.04661165605561659,0.13733815476217542,0.21871312698837375,0.11660579913645339,0.18236055836079132,0.076164718923753,-0.023120927283639008,-0.18200247199173697,-0.16121803557287726,-0.0872818458287763,-0.0267518430877484,-0.05704636655332586,0.16856213164344522,-0.036360108202594894,-0.06519780810506587,0.1863776971886014,-0.15091744399715143,0.10794261459933176,-0.06614542708302189
-0.12958028546561737,0.1620217794079312,0.12981085292872324,-0.0739424136688174,0.0887525858566354,0.14193600232932763,0.0614566605913341,0.01661507922091403,0.1172105501738156,-0.023525944173308028,0.06972365614787894,0.13697583607020403,-0.1474319549795084,0.07336994260410151,0.041750381579739634,-0.08143356138409812,-0.09132559354574657,0.07200387202616845,0.08934275254700642,-0.03338824693084949,-0.13920536843233955,0.06927005115630708,0.14577156831703977,0.2172630935094879,0.017354833535958323,-0.11305940548290823,-0.015464072362461412,0.16121357632652156,-0.08948358714985516,0.012824373033698395,-0.1936649441198523,-0.16045571071855558,-0.04355850646823719,-0.1511577789945404,-0.09529080108486801,-0.043912427458856554,-0.02190256188118493,-0.07881157968976418,0.18441238267355275,-0.14001697083817663,-0.09693985852410031,0.06118352075100166,-0.02213443012640891,0.1782892524200804,-0.12266144827686055,-0.15377874981548978,0.042042013953254104,0.02460158745423004,0.08796546959767801,0.033730052648803396,0.13984951423631675,0.1408200510363444,-0.08953577288311604,-0.17466185899911435,-0.04194376828182436,-0.08454979330505914,-0.09982387629217838,-0.09184869405985804,0.053241201812267686,-0.03154267710814481,-0.168155088380311,0.018147055245592753,-0.11709929632495947,-0.02271662109140295,-0.04546551505704628
-0.13969243327993933,0.09654174018114195,0.19454242442465586,0.06833827592769207,0.12529619933530325,0.09550701048023616,-0.0521800909146994,0.017895566556811446,0.08027955862636127,-0.054831618726149486,0.07210291293306736,0.09931009361862103,-0.038937057273831926,0.032549133478582355,-0.010413926221557374,-0.1297812461057544,-0.12682754611859107,0.06559428664982456,0.01899358765345679,0.020199985042261635,-0.20335540016334047,0.015922690386793892,0.20095437448298528,0.0340356320397427,-0.004428697055038323,-0.09016430480192193,-0.11036527358048331,0.0674619312438585,-0.003593409586665161,-0.008374476609106138,-0.07466032158398306,-0.22108779732083422,-0.02243831399170258,-0.21339512680459818,-0.022141650324695936,-0.036621724425095994,0.10399336600721999,-0.027130036405558736,0.036402708238497145,-0.13202155900447218,-0.09455076967935214,0.04302121720757936,-0.18637492824643354,0.03597403036820931,-0.04378163949168826,-0.17384293584684882,0.07635052077967945,0.11920225239234024,0.18645843015602975,0.09129936437142344,0.1322091875882414,0.09884151551829287,-0.0746091165006546,-0.20388629824592455,-0.1450599633648985,-0.033170440096902835,-0.10789426402278635,0.030411478859955196,0.04132577683618669,-0.128994671176723,-0.19915022857013173,0.1549792532431865,-0.19529284117832715,0.09475345794894499,-0.06586939894223091
-0.1270506116412325,0.18071041331041218,0.1014071579453663,0.021717392561453018,0.1443342148392258,0.1692403038069148,-0.05370832411356383,0.043772107123468,-0.008776331412728357,-0.02035970816868146,0.09116677755584039,0.07035939407545858,-0.11207638417004465,0.10214822221056213,0.09052617140831089,-0.12111046401114896,-0.04038174614406667,-0.0043846440505930845,0.04130065929311794,-0.04423747875765256,-0.04498196327789309,0.013330250779738893,0.132454661226901,0.07025873953946513,-0.06148951733429942,-0.12224016369473317,-0.062706353725858,0.03638576596685932,-0.009950007529876678,0.10667865592269421,-0.07996751282299132,-0.18569084170786798,-0.024889834510199372,-0.15760546633853262,-0.13236673305421126,-0.014637598340069412,0.035532978332619,-0.07844084741412913,0.1890871190322076,-0.10719724949825564,-0.030467680364550203,0.03851345124268276,-0.13649138153900625,0.1337624358136262,-0.07363369557132374,-0.13889623554139882,0.10446969694087707,0.04682116092340225,0.1859405896162263,0.14101099638979386,0.11860946080672116,0.10190759517720814,-0.07014845646056991,-0.19608547553531747,-0.11104640571640251,-0.08107884426514583,-0.10973619042498602,-0.061835618402158975,0.022405078685948387,-0.16089442082260183,-0.0279036867195056,0.14925538800872024,-0.09865563407034157,0.007048266225166459,-0.09752980046946405
-0.11907762809842867,0.13823566590652966,0.011926358702972237,0.008037089549005502,0.03315858166330491,0.15384483324730788,-0.05535725364530094,-0.06886419414512925,0.04411485549378119,0.02838821605023095,0.05194607153548811,0.07023887713398784,-0.20317246716611018,0.03832716645328305,-0.014064709211738042,-0.07332446584126302,-0.10036199633464822,-0.04791778484279567,0.10104582554337281,-0.04512976026356047,-0.09339066913582005,0.036704901106828,0.03951193949917501,0.08507848156553106,-0.01884662164035395,-0.16619471466499236,-0.09012341449270003,0.08866322053816496,0.013715963229228492,0.07578458222111105,-0.015837441775589177,-0.16135459138763208,-0.00780249745502374,-0.10051472839448988,-0.07538699608275999,-0.05458367954547963,0.022250999492505065,-0.12425360353978558,0.1669188167004101,-0.09079845750422592,-0.022430912234616466,0.047902407301873035,-0.197955708276994,0.06195331966353787,-0.01777355155075647,-0.1736828517929958,0.11547927484132625,0.1583916305041307,0.17619567948484283,0.0716614760089934,0.16485347181750235,0.19750087033492852,-0.0918922504772432,-0.17877661847519535,-0.07566076690001042,0.0012976199972469097,-0.044568727971592385,-0.06521752766541769,0.17138658536516407,-0.03908567060001669,-0.14061081231649775,0.09239751471473256,-0.18340882416819626,0.09289509732045245,-0.044194447535326205
-0.13378124945729247,0.17386554125937426,0.13870005676604244,0.025442364374781222,0.11282715872111053,0.04574978102240215,-0.016769642299482225,-0.06809972448932676,0.1203368177382843,-0.03844455035316235,0.08694795409041557,0.17517694557354577,-0.04202486955120829,0.10661841060534746,0.043037192761774604,-0.21071238061526443,-0.15261623132121835,0.027927318452131304,0.11906081230938662,0.03992930571784207,-0.08358167419195786,0.08819968972279364,0.04489631965198166,0.0635771911296041,-0.0034038093021379607,-0.09930799127911734,-0.03466009654959106,0.20198126933845623,0.014840166770562817,0.014250835972994256,-0.22455746178768976,-0.06502860249743071,0.0037572007295836375,-0.18966846363363118,-0.053672141938662495,-0.02701685223558098,0.09970362050260743,-0.012749357520094458,0.18451397488275414,-0.10469197027498506,-0.015509629738701505,0.07103200790789341,-0.22110295252607604,0.07244489564035307,-0.02788197415760066,-0.13075957066452956,-0.023367837070049934,0.131727674630339,0.1642152787450584,0.17013098665556528,0.1167087062026187,0.12914517311182777,-0.09805002374983467,-0.09455503092998387,-0.06045380230800258,-0.10874065341119439,-0.0801210547278666,-0.04492504223226966,0.1776879620273011,-0.02962032830448577,-0.03470750884529114,0.05194042965543526,-0.0888245153974728,0.023383060971766748,-0.048111097540203186
-0.1260664162386274,0.17434858220895513,0.16219830593418985,-0.05561865062297504,0.18515774188861092,0.05911212691426341,0.047252094902194855,0.03685823535404509,0.03865643301540971,-0.08524358731767394,0.0884698309167029,0.02608729998244345,-0.1803138415450115,0.02531165077362155,-0.002375850680002398,-0.026477118386323696,-0.05957707474517541,0.07128371046566825,0.008570637655723272,0.03863610457468986,-0.14620135160899506,0.07214930196150478,0.15127812173538943,0.14427653462666915,-0.09945769286114838,-0.041334809856384325,-0.053911875990037245,0.11406542512205149,-0.058073618522425395,0.05397031080592051,-0.032770635536384526,-0.06959561675429264,-0.06380562957494842,-0.17301980209714282,-0.08364865698730165,-0.02099455526903438,-0.03316755343159373,-0.07681990498524113,0.04536694857336908,-0.19495989803539396,-0.10607803838071347,0.08042777365985015,-0.151416609923168,0.13319633518357482,-0.08300407402120738,-0.08100892939208815,-0.005351249196875441,0.1811391160278649,0.2120278801138954,0.1456377164036214,0.15630883873244944,0.0884275164737297,-0.1940307660760977,-0.12385204965165275,-0.03786164995938078,-0.012399922952650376,-0.06476813812203477,-0.08799979025969706,0.2083998870899643,-0.0946111904374089,-0.1338404462690263,0.09488627664194549,-0.05655988364345512,0.09610077908091283,-0.09191941775156287
-0.12689060310612552,0.020262361402672204,0.026014003215259037,-0.029471950176307576,0.028390757098071415,0.08322268237560362,0.037519641559164464,-0.04034284143355118,0.02629488648337857,0.04535720035398805,0.12962080020368194,0.164078387475106,-0.12706917301237727,0.1358422654988459,0.006774026976659663,-0.16205104849206325,-0.004905778372209004,0.03685547486057025,0.012751718955914431,0.06144177321351565,-0.08222304444420396,0.08071460023625954,0.08947134640527792,0.04873770873617946,-0.02746647359856431,-0.17913725036746042,-0.11158116898103515,0.038619985006745836,0.04546985787324002,0.020095975381007453,-0.104938948058606,-0.09177219328984425,0.02579112425196875,-0.19948402519316566,-0.08004466040195729,-0.033370176221619106,0.05845387399488092,-0.055837001669759766,0.19601207645466057,-0.17293082539231763,-0.015497559352111086,0.14504626689437575,-0.1456893976705332,0.18526178278777067,-0.12030462441766056,-0.06467359430971673,0.006314531629395284,0.18282784123819967,0.10530903441660096,0.15633462780018964,0.15346588028773653,0.16705813093921018,-0.12833018418048225,-0.1788397695489804,-0.06580701932397409,-0.013392354294372659,-0.02534733317860515,-0.036358793939193605,0.17650172093320887,-0.05038623947467755,-0.07701862362972366,0.12930221705344597,-0.054405992904050016,0.058959159020082544,-0.0676692255978806
-0.13522127901637201,0.18186939508603345,0.05699703607137687,-0.06752010110220742,0.08390784272853336,0.03232121836880763,-0.038493917180624955,-0.02599297666431956,0.04598433495050253,-0.07232224764577158,0.07194437566569657,0.1141978527399792,-0.15405354489462922,0.07642125750990712,0.049458850912730896,-0.10934155912834961,-0.10324298639585877,0.08208762384853331,0.19705964638909718,-0.08176689945647961,-0.1783968542196213,0.0413323901099664,0.1440571335808415,0.09539921665630102,-0.06215665461138704,-0.02895931900919843,-0.09639716352938792,0.03973499482897635,0.008811015208601492,0.07264677767948666,-0.09424624126224786,-0.15456961771890362,0.04877388233288216,-0.19022399928953773,-0.05434439662575572,0.0257481452283387,0.08792535314314977,0.0032253918249089365,0.07653109908989349,-0.06371426929421978,-0.07304057064638715,0.14918428480450993,-0.10576807215133557,0.1873143670890595,-0.18889086481827308,-0.09714079089429026,0.03834543216483928,0.21097832491118246,0.05007170955360213,0.034413175554633635,0.12419859250107755,0.08086735674005949,-0.12167070995993544,-0.21345566734847185,-0.1764278846082482,-0.019057638907511658,-0.10673158322407097,-0.09550899474677736,0.036171305054919535,-0.01626050058361769,-0.07270343158657008,0.09992678676238956,-0.20011966220637195,0.033061993304857054,0.0066598418217844475
-0.1309296919325013,0.12860759712996808,0.04203482250857164,-0.006794867038412061,0.18255091274460267,0.031990285517689475,0.01882927467728537,-0.0010558880845314476,0.11904519478297178,0.014835203462316352,0.10075257035223466,0.1780898684748589,-0.13370573248884243,0.17412358544285905,0.045472707260644694,-0.09693915456249697,-0.1485999332740513,-0.019131463693609577,0.1338444402204558,-0.05882926034524346,-0.10154103558167539,0.014394448083991975,0.16190188289905869,0.14100109088988852,-0.022777875893334392,-0.06724134885747216,-0.032474791958051204,0.07762501141663124,-0.06257185237649539,0.006483843968301706,-0.14163530326127538,-0.06035318981938847,-0.07130452366909042,-0.12068114691743688,-0.0057227235833522145,-0.08165268219273007,-0.024097439082446267,-0.034628798791392724,0.03324745273949088,-0.17906126895553992,-0.022463741021693028,0.11990111083388075,-0.17111354279334573,0.029780703815982093,-0.0441680464291923,-0.041618784205821976,0.036111655750565165,0.07953737379249173,0.1386467831312557,0.18124299663990154,0.1666231284247387,0.17379462458063227,-0.011598648059959773,-0.05915980799132998,-0.1841966086133162,-0.05581256849723906,-0.10071949933217678,-0.06611959289341521,0.14209255838272197,-0.04953220472561231,-0.1897414095630137,0.16099037355973092,-0.04702733263819732,0.05179104868482724,-0.008642192575935358
-0.12286152289797746,0.17286382677524306,0.03819598576149776,0.0012166497531827772,0.010800917624951825,0.20492631687767002,0.065234576758106,0.05649905341848899,0.02749891770947961,0.01457146202740063,0.13506861585858002,0.10747885540346645,-0.1561859762515352,0.025395378472001264,0.04377205715713892,-0.12380390134511884,-0.03535884873271367,0.05422817689916493,0.1882106097686773,0.04708135070859475,-0.10710353396306904,0.05954095730027012,0.16251751892432878,0.05665186974277797,-0.07957570933178579,-0.1423803605117184,-0.06295980376617646,0.10686705135607828,0.02859029660514578,0.05152001387444771,-0.07086508193632256,-0.14865344496164634,-0.004136504255483259,-0.18210315647149408,-0.15840973583212672,0.029382300328319226,-0.03693803487256108,-0.012305787750480612,0.030721983384742677,-0.09638314428858029,-0.10072276643973281,0.05478472413974267,-0.1939248259941488,0.03565962385212741,-0.1331287517522204,-0.08217461057178302,0.02968801133682557,0.08117798420470021,0.07251203035003563,0.034237734259408244,0.1651799170857099,0.16901995568375747,-0.1850241323734807,-0.1987242943929539,-0.05318705024252869,-0.09467337447459943,-0.08873564404190219,0.04147948981491777,0.18929891956885658,-0.11598411040103321,-0.17370198349427166,0.02766252431673965,-0.07535291326495987,0.06270389672944227,-0.07316772541068611
-0.10982265936726143,0.10306492932242271,0.14732392079364914,0.020572232533019343,0.12031088468575271,0.17610732425188583,-0.03739387620993139,-0.09676747311628144,0.08318691071850691,0.018312502063640178,0.07188880040323285,0.14556600346622892,-0.04079192237870433,0.14583265452134767,0.03997161928189855,-0.06350281952493152,-0.10870344462675116,0.0439321724099878,0.05366026662583035,-0.06989482144337913,-0.08053643462836607,0.010758846281443987,0.14238784015414765,0.16741955272497866,0.0234855761468689,-0.1808209960336904,-0.006150211571931114,0.05669462640356286,0.04452896583265979,0.02223798510763131,-0.11861790859817888,-0.1286935897031904,-0.05005293609422309,-0.008832049136195355,-0.1463625852721559,-0.08725115074646181,-0.004725887383896047,-0.01092117531459006,0.08599258720668529,-0.056436971606364184,-0.008963618830245747,-0.009914665653676364,-0.1789764033336734,0.022391907815969853,-0.1781648268046875,-0.055338190335816655,-0.029525094182845716,0.06922960119309587,0.038197775255004944,0.18558561317642416,0.13457078871651015,0.06674673288109947,-0.15455052124765156,-0.13797537922997763,-0.17408822333150759,-0.023765432718102875,-0.1540792618047495,-0.06794310524290709,0.1406982678682583,-0.16670809041465287,-0.13110699974401566,0.10873302732756152,-0.16794751818730672,0.03116166930131318,0.029115888412271935
-0.139705261708927,0.1129273326667167,0.13402952726135753,-0.010525892479221042,0.13830222274780515,0.19918735411025554,-0.05873297220060988,-0.08809483198417294,0.0210459121482014,-0.0013300958893132694,-0.01084083228498674,0.043340371208899116,-0.11134773893514979,0.04089152639739284,-0.0015114989803782619,-0.04836545573961116,-0.018958847254148148,0.057931518643185076,0.058359207940192,-0.06454470753566317,-0.13814594728936705,-0.025545523949373684,0.17707367329382034,0.1357896823872526,-0.0003913294803237186,-0.18160970167566665,-0.016079275207887996,0.1579669155844548,0.02603974875544676,0.0744242226041846,-0.03399551856906514,-0.13204736690579003,0.016682116117251053,-0.1508885172990092,-0.04642169232007397,-0.053843183969745995,0.07484654057104641,-0.0016224835812429425,0.03165050122738292,-0.19787557368905873,-0.12725485043159077,0.028572793887347098,-0.05974174404348578,0.20292360670377732,-0.03394082953155033,-0.02732304317884415,0.07112420832287225,0.043114264104488924,0.05850497345742364,0.1605129549726559,0.1338152497632884,0.048800576240257666,-0.14129202105397826,-0.1704362851686366,-0.13232402966747786,-0.025299101150373447,-0.05997852028112395,-0.06954644117061376,0.14054170131253882,-0.16017001711711917,-0.12931728619004199,0.10759679011530446,-0.19626740888581481,0.046375027956782756,-0.13112656190011063
-0.12909040023829735,0.01926507608206472,0.10857817530694554,-0.04605111442147232,0.1396755664401915,0.10129709190276164,0.001969715800914926,-0.014907352562613685,0.10871990141352933,-0.03581140443391514,0.13996554735174213,0.16334892395729395,-0.042348920337484074,0.19074600149863144,-0.034026714086058424,-0.1592716158863435,-0.08329334972266769,0.012910049642492443,0.17077325751682676,-0.08385498261119999,-0.0735176192544859,-0.003237975329966073,0.036880961413722414,0.21637844130765138,-0.08735612689710379,-0.0322453041180216,-0.060058827914902774,0.06338237856999418,0.03895842910924751,0.08189530398665539,-0.2033770666930694,-0.16528087644449505,-0.07775927667904496,-0.07293105183230351,-0.008586725466898232,-0.10212763987416942,0.004215517157931155,-0.021253218986752132,0.03635634960853057,-0.15992990794943845,-0.006974903322674606,0.043777716792875364,-0.14026912815770406,0.06951453848672165,-0.04350877588778516,-0.03548150181788428,0.004509047173863633,0.17366600428626464,0.18367572795134823,0.22175528097120029,0.11220179050793928,0.19531653870634466,-0.020599939582400046,-0.08421203375588363,-0.12048001979351956,-0.03183871751872962,-0.10383778439286374,-0.04629728381944741,0.046325929584919774,-0.015073836870675365,-0.18730828729698534,0.20560252782857283,-0.10670999052971449,0.08861470565936358,-0.07879409344006899
-0.12371137549611914,0.06933107345314499,0.15046590063753343,-0.036424669879568515,0.04110494689546778,0.10201892217647436,-0.04834213115718181,0.039134585268239326,0.03895251681589494,-0.00045933954723420767,0.015793630457229025,0.161024711685793,-0.1973956832199827,0.07246616337543893,0.00583236820780791,-0.011094837193866794,-0.10335181809766451,-0.012838043059899794,0.14880004614076967,-0.036924273975483694,-0.08126987586078412,0.04533863290037778,0.12270310320324002,0.12693453782688818,-0.015242377821010863,-0.21384868758546774,-0.03635669726762389,0.12546752015508736,-0.07378504120355872,0.06661988224451136,-0.197862431969387,-0.043597541649969034,-0.049642306603994164,-0.09801297145078781,-0.13997429807562953,0.023217669276179295,0.010584446145709346,-0.02984084069758174,0.14959663406592802,-0.12740631074841,0.01776369030728321,0.06374092408401137,-0.034128964591137366,0.15957966789656886,-0.05159130726899509,-0.07447414303635516,0.046137863959991386,0.13398218645800192,0.10556557735122148,0.12321516806782341,0.0746550234289657,0.05216050040212751,-0.18273553808963702,-0.1156972515355586,-0.15869938409980303,0.018790630124409232,-0.12397150367847429,0.0011512382309568955,0.1971461930353193,-0.16092586827105726,-0.07795724068850503,0.09953688799939202,-0.10257369562274782,0.1033370377623642,-0.11201246187541838
-0.1412191127069217,0.11258190046534455,0.1109632187379429,0.014487039497940134,0.09234685099052291,0.2090796647401559,-0.004039389754738233,0.025781221301878716,-0.005127001140616413,-0.040745814612441006,-0.010211368102909369,0.06396001074703463,-0.040089329958198285,0.05967636077853374,-0.01905930843828356,-0.2198715273095541,-0.09358301259272708,0.04605762215691745,0.04820640655488672,0.04032179411888805,-0.19948765240431401,-0.028843178757483913,0.10096701720981603,0.10041503923699528,-0.05538451661442593,-0.2073939597223979,-0.011313939968982636,0.13155709272610447,-0.04006951840151359,0.01981859547339952,-0.10653792270616388,-0.04345042454971776,-0.04956137929671619,-0.20074091729091773,-0.1841752420138346,-0.09307818353975646,0.05785508086369241,-0.012451731841868091,0.07802243392793208,-0.10538066344405782,-0.1139715317175274,0.0470454271810839,-0.20064698359418467,0.05712976072127793,-0.18416062376019374,-0.0487704450279539,0.040908783868142194,0.04710396680426123,0.1609067308200898,0.11331264526326623,0.02220427953068812,0.19299695245458634,-0.19205544562037966,-0.03173816186048501,-0.026877715225660112,0.005631640581105993,-0.19569304923278266,0.012749369144661037,0.05780429656628428,-0.07612767425103768,-0.1577159685911047,0.1558927582499651,-0.1343001041057706,0.10011531966603725,-0.08563592219227513
-0.1328495764795387,0.02462398265560403,0.09934838600866241,0.025104267620355527,0.07440100186675952,0.04073773869418276,-0.03355417577508546,0.021280468196469463,0.1214003095539432,-0.0201649972364244,0.06134391012034978,0.20407497063356392,-0.19573166266407405,0.18968568063939714,-0.005852108251438016,-0.14840417463319971,-0.03311069437001694,-0.01353148677136314,0.11025179223039043,-0.005721465740738228,-0.17837137937658062,0.05070899464560258,0.030358393064318312,0.11584117369585623,-0.07115001700629987,-0.19868888172724442,-0.017219391503619993,0.21975901587643581,0.03637750441575583,0.08654040187733275,-0.15608049742362534,-0.03832526495920611,0.027388861351566932,-0.1551566488322771,-0.06724507717096148,-0.010287203334467431,-0.03215532924964461,-0.1206761772077506,0.14691318348621646,-0.024520578454085118,-0.0493482831307957,0.13804791165384322,-0.2032620851429876,0.053450116780766735,-0.02294229916086974,-0.03160507423140105,0.03671202417199169,0.1431080831663786,0.12308750228431448,0.056892920396657935,0.09577329249541461,0.13876433627337553,-0.10476536044466225,-0.07763113413885107,-0.0896588072143909,-0.037597870317532665,-0.1235983549654305,-0.0289773091385079,0.21849282215256682,-0.13012530510800863,-0.15749449511033034,0.19959589297894603,-0.03147541215847338,0.0942629326798547,-0.11711197867399231
-0.11285595462998743,0.1590618046914138,0.08318795953151512,0.040607742035529255,0.07862633228083488,0.06637882162684537,-0.09145657683159933,-0.06312988469922814,0.10231364569978789,-0.04700465692184318,0.011032499051627273,0.12693945021089234,-0.17572485561466103,0.11255536011618957,0.07993228717060176,-0.08989642085609911,-0.08834966187728002,-0.04163351010006929,0.142223489667052,0.05307606654005394,-0.17266018078638048,-0.018482386655419614,0.12393126461983682,0.18029043343919893,-0.0702185483730031,-0.01221235593319425,-0.02113474897283508,0.15227817644084587,-0.017639287720220807,0.051451514647237157,-0.13986483371457795,-0.00681749971250148,0.03703503474903712,-0.15948307774449536,-0.016016588872563138,-0.08041810920639703,0.04493574992413693,-0.06663132614687792,0.18394207825820316,-0.02492744122577049,-0.05394951486818686,0.06271856281463035,-0.08729196823135744,0.06468606528700606,-0.017025216606618467,-0.11070152678041864,-0.015502862172316471,0.05075850893799823,0.08622392781375011,0.1725778806158025,0.1935275163350965,0.12947935880917386,-0.16245280523488237,-0.1475543856791943,-0.11318506700081973,-0.10011049342314039,-0.08528119178837472,0.010990742377209126,0.1539830187064059,-0.13540718066089144,-0.1722671045668375,0.08068630854410008,-0.11251608737064762,0.03333486900953229,-0.04266376570894605
-0.1324922631304208,0.08866321345707022,0.03161576759563902,-0.013191226122381869,0.12944595512492846,0.058634161525073725,-0.06445211942937466,-0.08376448168232009,0.10625363279038073,-0.06109884625474,0.018063758311782082,0.18799880189928053,-0.04845770790758933,0.05095930023734445,0.09298811654256808,-0.1304725568490755,-0.04031887327193093,-0.02399954518613179,0.11306560946055394,0.04730458464558638,-0.14130272668221602,-0.03287383930368963,0.16728367240513028,0.10910798989310827,-0.08522957963961626,-0.15753542442149318,-0.13063794916708246,0.10648527217438258,-0.0022284867098284196,0.03161410839181386,-0.05908340138268385,-0.17485423144781406,0.041768650705255955,-0.13505222200174452,-0.12257331077538013,0.024517124341320844,0.05780527226778223,-0.05892885831870572,0.14356261277110904,-0.09983068576208659,0.017404751254303956,0.09844595332473398,-0.10581768674326246,0.09022304524673884,-0.1636807973974046,-0.11916194299990106,0.017928305248694855,0.18605729030489454,0.06423550235994181,0.15736461123467207,0.18268490282804156,0.014949977473706307,-0.11794505175112308,-0.060517164615622246,-0.026037006866006438,-0.12026240726385425,-0.13493159371926614,-0.027513362203337024,0.16183556971047755,-0.15472084504872793,-0.18480540293516962,0.07786090457650097,-0.10745338744914885,0.0791010441302845,-0.008763200592423815
-0.12248645502653828,0.10567043337533297,0.03579052677498285,0.0014390817858269869,0.197765491882284,0.036564601504470065,-0.03241650976981351,-0.06306875342134095,0.11905716971370808,-0.088350590178913,0.004480261568018488,0.1752317378671718,-0.0803695502363724,0.2048680551677824,-0.0007464659289014105,-0.18219520213979049,-0.1336521302670485,0.019952063988490067,0.16592588533060634,-0.06873862264597062,-0.04507266606844893,0.006981569939812817,0.013980702103362152,0.12760859507106312,0.05977417909623931,-0.19038749542883332,-0.09051427466377424,0.13697575289530814,-0.08210309666463322,0.11903302560253416,-0.0733905035466697,-0.19701091843953575,-0.07973914438400578,-0.1354361977409236,-0.1597817609862437,0.020812781812693127,-0.01859332768614456,-0.053727855598138995,0.03510031177772604,-0.08868075815882592,-0.07550661248712583,0.039107173220406764,-0.07349383882731862,0.15443880265006885,-0.07747444010746937,-0.022935806419751164,0.08011361370611235,0.09818064954450066,0.0837963473558227,0.10393013506622618,0.1533916697043357,0.18842562378416705,-0.10700155007452512,-0.19487722668064578,-0.051839374599131904,-0.009111743638709459,-0.08863353698416117,-0.04781271526047066,0.1430886486276961,-0.13486404499511037,-0.004717307410615727,0.12962635133086095,-0.11605922947243434,0.1021278918229929,0.019322773858322775
-0.1415524049319444,0.15747502473836417,0.14932410015942885,-0.06008557452133045,0.04050622959653882,0.03315628020095784,0.008245989675370647,0.017135869676926974,0.012897390187922847,-0.0575509003165302,0.06060453558948243,0.1810680082388512,-0.15399175030766557,0.16775635619398735,-0.0322287699426728,-0.030983216598212553,-0.053897950122358644,0.0852341686916051,0.02671594604883065,0.03041780368967744,-0.07310589542922916,0.05386489537344749,0.181581856272473,0.13665293724736713,-0.034485590958204755,-0.03305762554917563,-0.14469854388785483,0.05161514798211989,-0.003347898498434228,0.1021084466489435,-0.18740148999536366,-0.038809913716209864,-0.031254915186799445,-0.10494944534526424,-0.02947209281868322,-0.021606061985211845,0.08094888039391476,-0.007071213679694815,0.19405859330497474,-0.039634570622768275,-0.07253668855727302,0.14351319271217575,-0.21947287799647852,0.13065764928573756,-0.17429512877620038,-0.21382906696433907,0.058649433011170926,0.0923979004347315,0.09306363115100989,0.08726686035707452,0.14704506314333984,0.03834637703099124,-0.08265222387927329,-0.2144546350805234,-0.11968716504157013,-0.07154465027196334,-0.13630172537266314,-0.03701278367102031,0.03502270117677227,-0.10089392658743243,-0.1856830982301074,0.07400834001406463,-0.14941826096713384,0.07392366837022796,-0.03230791637374212
-0.14094017727824434,0.2069263697804739,0.06707510544160365,-0.06673202282809539,0.04848918491994838,0.14460203973164046,-0.048596370711175,0.0007087444122140964,0.11437870009714377,0.030929413024769956,0.026380876019408053,0.18625007765652804,-0.0881571311061578,0.1371268294775066,-0.017666441797560092,-0.11622303306559181,-0.1472284462083466,0.0581642210709239,0.07537938448735648,-0.029054531862854987,-0.06656888536822515,0.06451937532972994,0.15476737267795246,0.054147812599830335,0.03623097363461681,-0.1061650592812525,-0.05526945509664881,0.06046926039263538,-0.0805311457121226,-0.004633969689165435,-0.16072817847469284,-0.09514780475160288,0.02622588327970539,-0.1769872969893619,-0.14172921694297905,-0.019252422789175695,0.04243700032929792,-0.10277056125117097,0.10215618198633826,-0.05950666369168757,-0.01270518722058203,0.14783537065181573,-0.09984747352865868,0.15477046090742216,-0.06129701579218401,-0.030342596266451097,0.11256600990049195,0.15340421198910814,0.16702010743223225,0.18689107307973762,0.06687479787713234,0.12803564446748866,-0.18907326579282618,-0.022439626860761324,-0.029491179970571216,-0.0668826599127253,-0.16809556063909145,-0.0027294790814490775,0.157112264017762,-0.1670596802168104,-0.20011680789738565,0.07339612730252243,-0.08858183974896362,0.06391887483455304,0.02169489834140773
-0.11704202613194899,0.015730263556248424,0.1688474962004111,-0.023588172745291163,0.13340431278812445,0.023354901998120334,0.026383196009585632,0.011800254499552148,0.06843850377323583,0.02126194141135914,0.13383118613574552,0.10904166131435263,-0.2036143774534884,0.10973027758236144,0.04837934225995297,-0.0831395366938594,-0.08308404816148646,0.019182406818527606,0.18719682966243337,-0.013883326641819236,-0.1744688456084356,-0.008729531904163722,0.06362998612379571,0.15221304017056966,0.03676183130793744,-0.05627656040627705,-0.08922816085544363,0.19859910258746738,0.040869462746456864,0.041524193536853125,-0.1141580537074754,-0.12973153089638512,0.00898430289660699,-0.113086302983802,-0.11877310648814493,-0.02015188209360631,-0.004515966764967432,-0.05188621337514404,0.17412860234512695,-0.14497427168192734,0.021506389659641915,0.10886407988292918,-0.15570604956657189,0.1041475768454792,-0.17964644273341854,-0.08342633781557651,0.08430714419039352,0.10330375414556181,0.20536819502212045,0.1161789958552846,0.01791543274530863,0.009376600261666158,-0.13513622116378834,-0.01048061300154074,-0.11421316595353317,0.004671213607868698,-0.17837533443889195,-0.07580543322821476,0.13051599448328507,-0.14453230378021328,-0.062203887254110274,0.20291477887437842,-0.049912522313840045,0.11346871907172479,-0.08169825098587007
-0.14065156933584,0.13888583594751255,0.09426668566098795,-0.08024443029916149,0.09422833984149101,0.15757534894094063,-0.09217349607379662,-0.06018691176973229,0.088026323740354,-0.042402641215327566,0.027321288451872802,0.14073933324618498,-0.19329480896844983,0.15091887720865016,0.07046223935813589,-0.18414908513532172,-0.10003376810927513,0.060351308510134954,0.1567052279237887,0.05275047268705735,-0.1829609308206622,0.06351870305936372,0.047965202829683064,0.10612567440131057,-0.05476939262331818,-0.16596249726421972,-0.1476248936654578,0.033320288994455015,-0.07978886471586136,0.03919927380305655,-0.117309860593171,-0.03222427756849481,0.034703712457876776,-0.06866697094287305,-0.04020163061785865,-0.06383719177609067,0.07387131742603725,-0.08584961790211737,0.19172715042878488,-0.06679206410300882,-0.017132031148205714,0.02474292389003994,-0.09100534957689677,0.18200236381238177,-0.041651637895322044,-0.09960243218492243,0.01319462454507675,0.043898742527992744,0.09174755553119815,0.10469735307566065,0.18746527870590193,0.19934781197701198,-0.20958503495530223,-0.10340301879108836,-0.1289391937237798,-0.04937100912245573,-0.09571193969587635,0.022378634533626946,0.029436688239844928,-0.12148398879385335,-0.051779796780269005,0.11694112495483314,-0.09979009635435562,0.021595200527559005,0.0030638746887713926
-0.12599268438609484,0.08711854420960029,0.14699140969590357,0.036815661233346925,0.06500727400344847,0.06421627051063088,0.01532725523987655,0.007237864636029844,0.06179919327496069,0.0569727945002192,0.07047813134146574,0.1250100622109935,-0.19626169398971505,0.10257995920923664,0.01696572474060909,-0.12389432493130068,-0.045482858722401126,-0.04869777937458293,0.08693196019518386,0.014225948041896988,-0.03809097447261383,0.040359438485276934,0.1609475109683604,0.1599982770443995,0.0065083372036237154,-0.16899188970521523,-0.1448859025578162,0.14989553518976326,0.0011523019298258455,0.11619519755668888,-0.10881327202745426,-0.07735941011694716,-0.07816386277919414,-0.11169960906905142,-0.038548962291534775,-0.0002156698793862975,0.09587535569708552,-0.058300806670882895,0.1214713775869965,-0.19830549729420982,-0.07753234086674528,0.05331684641959668,-0.05855869687571955,0.0531715087462794,-0.17317770021903717,-0.06223719535435452,-0.0024716015351380115,0.2046617832371964,0.16860691660622887,0.07827778719229606,0.13988618514598117,0.06261421888004132,-0.05687510875021922,-0.17222348238968835,-0.192251246608141,-0.06852023858555407,-0.1460160249919981,0.013658241337936845,0.019363309295034017,-0.16785092784076625,-0.0180053869811706,0.04969330783048378,-0.0998606036527226,0.03133601980345348,-0.07102311852592735
-0.13498808426048114,0.16497076886931525,0.12546818283560973,-0.0605488014108493,0.05103425844461814,0.09736628977001911,0.041921587652002414,0.02004314000841419,0.004722651084513941,-0.03661283275995725,0.04846935184463408,0.11654716074672179,-0.11759112133501343,0.034554825225842335,0.07589880779783582,-0.16193598947875842,-0.06432032793475563,-0.04602603231979098,0.08048859179367107,0.007772118827614311,-0.12416619243705708,0.10941738299442091,0.017001037670430177,0.06108588201390557,-0.06624907832918649,-0.09704119490377043,-0.08663123116377508,0.11239838531301205,-0.10071858224660701,0.09870880612005123,-0.1175442557823706,-0.028793321891850077,-0.049309621233401865,-0.09049938069860573,-0.13813522666048283,-0.0719668289002691,0.0866054851140699,0.0019934164560599394,0.08161990615868024,-0.2168886560268178,-0.037679424580552595,0.10433145633297268,-0.17212011476426903,0.1062784230674981,-0.21629485188722258,-0.09768157145386033,0.01486342855707737,0.03471286614156006,0.02909330538272572,0.18444103231526915,0.1148579672922661,0.10145562971962109,-0.03846091281776414,-0.19155857820709266,-0.11784674638164025,0.004191894634430791,-0.14642410710968604,-0.04712964000196042,0.20462651310184973,-0.15207904197612374,-0.15687097119409812,0.12171916563606867,-0.16065490358638,-0.028250599219211876,-0.06162434327767499
-0.11088573489393741,0.1758063905078507,0.1715163605080818,-0.02897243578543525,0.18399102429827696,0.1505068623353072,0.011274375795378405,0.029344435567030567,0.03719423263968542,-0.07607036467125539,0.12174744347095351,0.016737201261049436,-0.04260734042121155,0.12373557744756226,0.10234155508158484,-0.16581424814557125,-0.029350146401767224,-0.034651176978812655,0.051368352968210976,-0.001326961871136935,-0.07990669720387425,-0.002046918642124361,0.05045629857599897,0.18122663823182017,-0.002179826455321311,-0.05887326252733765,-0.1090507758144173,0.17372840743017817,-0.10060518445657841,0.0033149658659488565,-0.13498228135142162,-0.13106071632206268,0.028804121647420796,-0.1711784850588732,-0.10269560342176315,-0.03654399289959719,0.08571342112710874,0.03634798736878848,0.06215315106164422,-0.03385684268691472,-0.029604221667816892,-0.004714929795719249,-0.15676852657415546,0.030617837047988466,-0.1362260651513306,-0.15591098457786745,-0.016455093158823177,0.02360302405170132,0.13211066705486704,0.1972562732254751,0.16549187534514598,0.07606349002407642,-0.1286064722916684,-0.17155072174012725,-0.09712953987701439,-0.0756999261948274,-0.11897318822754813,-0.06439137029649594,0.015352707391164726,-0.03081064698052892,-0.12810524481454327,0.1482439122050221,-0.1606049221208469,0.026875783156796264,-0.08612046470422957
-0.13962228952980607,0.09987599455298328,0.14130295885741806,-0.0556952260794008,0.16336898373209816,0.11749686549140087,0.007748008265200691,-0.053029748255994415,0.0485703418162914,0.006519340855839435,0.027459915356685072,0.17534953690187802,-0.045927068248978166,0.0772666663176157,0.006753203739266445,-0.05314625524445083,-0.11489258671661384,0.031368017639903545,0.1465621996306681,-0.05511710671474095,-0.022715773901149112,0.02264229071743653,0.021371412639627115,0.05377731652061966,-0.05407762548206929,-0.21297470894929757,-0.09887778145338882,0.13295419516474735,0.008274088330437619,0.10981407421713772,-0.06526559493102453,-0.13795258198184326,0.020042425586032614,-0.1637841288006573,-0.038699417578573266,-0.06429341407466942,0.09360059836883432,-0.03248625903710691,0.1435961425326296,-0.1305307593265603,-0.031255953702858094,0.11981640237697012,-0.140091210213937,0.15240545963541371,-0.025662284789398134,-0.16997097638550968,0.015885421429198493,0.15929404495254615,0.16599649035710246,0.04149333715585325,0.20912927849313637,0.04801218403131344,-0.030811840142356026,-0.2061320133963012,-0.20612227781326325,-0.04188984086620697,-0.12216214676956513,-0.04247256849216163,0.03926740226484937,-0.08059753767476088,-0.11203130130493824,0.0929835798564264,-0.1186560093573264,0.02810966413325399,-0.05342668454437669
-0.12908664888011934,0.11097930150155967,0.14647256841277437,0.013925905295442468,0.06993936733665043,0.08984416837465908,-0.05470648490887296,0.04220283216741975,0.05767687790941228,-0.05345323670917864,0.06306807521083528,0.07590476196069738,-0.1845439784803704,0.05511044725502881,0.05087624788563855,-0.17096594394800577,-0.1057894228424332,-0.013371623199784539,0.07176612948491509,-0.05893023136375088,-0.09880618957960409,-0.021461256775550993,0.16761681818101262,0.1892982458214695,-0.04998828550474677,-0.08580362744935065,-0.06666259584361736,0.04914531517997981,-0.06544904205032766,0.05027750875359497,-0.08113803005650064,-0.18795512432602376,0.006817726237901113,-0.14984637302297263,-0.046170501591721466,-0.10330356817871637,0.01677156714202944,-0.03628824467871441,0.07828924998708305,-0.21308843172599023,-0.059397453251821726,0.026385483308255006,-0.059970935964351324,0.037094754502147685,-0.172631716604328,-0.1791852937855122,0.10864860696644739,0.1499538423117772,0.17471377643321911,0.09998635182542011,0.04476742350263122,0.01507322292581556,-0.13247400776631382,-0.04802331909727652,-0.18764580274583462,-0.04933358027097211,-0.14661179565124563,-0.05589086480447827,0.09658583934606788,-0.038785524875890126,-0.13509631829026816,0.1966848442060483,-0.01917114465011634,0.10310539317381888,-0.021506876764068948
-0.13453266107399117,0.08145225441086369,0.055242827946513404,-0.07236706152446197,0.07075309969413732,0.11443392376869975,-0.02855713578186727,-0.06606907821881258,0.10658235456643261,0.04136957153644902,0.07660837753306746,0.15425351380951696,-0.0947055387289185,0.1209742701139056,0.011923013061970593,-0.16191440900855558,-0.0103853678517882,-0.07421677152202018,0.1755959273550962,-0.053517332038673926,-0.09724904143686106,-0.053908329949376534,0.02412754223944362,0.13089524204908645,-0.00015646213109308992,-0.051811926486562035,-0.08869618356020274,0.1924451223344511,0.011523084858947754,0.0588250491229039,-0.07358139054702995,-0.08516597917752523,0.007859157545565678,-0.16563873067819984,-0.11483712006985418,-0.06821908604926294,0.006982543409092918,-0.09115313805741118,0.1800492280509981,-0.22084793902851146,0.016006629478811457,0.1308867667795323,-0.10152317731246441,0.0731733120364998,-0.1822199989670769,-0.18656206441881915,0.07813284337923948,0.06473000566481472,0.15399110325095444,0.1647138223661664,0.12527904933887432,0.09711439958495467,-0.05748770678260778,-0.1711430759822298,-0.08366321845559102,-0.056426403925656,-0.05357378719878218,-0.05314317916886269,0.1061803494130449,-0.16396368845656506,-0.03514977100412933,0.03735231326887323,-0.09932919764693365,0.07498418221671412,-0.11691156449741011
-0.11460308025583436,0.08635335610862553,0.1307083014362795,-0.0044080822765917545,0.1669291268644675,0.1043763267080367,0.025252758794581973,-0.0510215386929939,-0.03745793972416812,-0.01901195516362272,0.07727578817252269,0.10867845607780885,-0.12644123691157572,0.11548918213052965,0.09223225293122024,-0.16993864192497443,-0.1409367889345734,0.00892950802541965,0.159293665314464,-0.00047005137034765096,-0.07710535308672854,0.027876679930868273,0.08568088120513971,0.08875492206518724,0.032874061033857115,-0.0367879204734187,-0.08567705820089752,0.17220879859335733,-0.07805862891965114,0.05598856463044875,-0.07102731052937294,-0.07157552291355582,0.031894530220599605,-0.014236531669309892,-0.1643418576325974,0.004524665633289886,0.06740034132429909,-0.10304780970500246,0.19621004271384226,-0.12629461854092225,-0.09348607117313261,0.06518324567974328,-0.16032210483366582,0.04955414804867014,-0.19363643712279352,-0.013723697015847268,0.07984141927959203,0.15557184902260413,0.14792375411319408,0.1863608603142044,0.09926403681746024,0.06236795370940185,-0.02765473474987379,-0.1690683688117911,-0.10603014804812542,0.03294587233292162,-0.1619599992107297,-0.07244085143084467,0.18304682655050342,-0.052234309288553965,-0.1414411321722602,0.14905507408953844,-0.05474275264126774,0.07102696030959098,-0.092759059525037
-0.12439629002861378,0.17753806622312104,0.05406584577193854,0.028113510153400204,0.012209064156664702,0.08415954889463183,0.032068791763256686,-0.0845448285362052,-0.025138178991256723,0.000919530420869755,0.09085577784238832,0.12492024644426217,-0.14171797501239866,0.060110811786733276,0.06549177131416355,-0.09112889517642768,-0.10650696969859753,0.05875262216161846,0.1187314232713036,0.04648337277836539,-0.17742595060494026,0.07602907988697512,0.184299714147298,0.20073625084235733,-0.0610380057121864,-0.11770847314283156,-0.10160397029087709,0.08848299250838165,0.013176060955743456,0.08519629523957149,-0.06273869482243213,-0.10348701594267515,0.011158622811343825,-0.18780109464086867,-0.08876830262941647,-0.022667794434540117,0.06594236998174531,-0.02377828599490146,0.10225102443656126,-0.12148902320011314,-0.019675558795168833,0.0067893464158863635,-0.07294164871807353,0.07511332450801414,-0.09918366401220705,-0.184435851810714,0.05636033903633772,0.05889971654807507,0.14622640561249894,0.09650030319379581,0.18436699214372204,0.08372671004710744,-0.19317397190369937,-0.1648040906470881,-0.05405613227729653,0.01643816187236864,-0.18520727770883688,-0.08300059689598446,0.16978254703435552,-0.04709962280314394,-0.06619780337365172,0.007707817362223636,-0.11214636359417715,0.04975334524455942,-0.08912893796124263
-0.13263470480238662,0.17942099432916417,0.02520521922804326,0.01546120254808181,0.1558200301660477,0.020245629496734287,0.04545091688099417,-0.039325808852919815,0.11285229791756281,-0.05058152040395898,0.05532299692080009,0.14381415328022396,-0.01565847262747081,0.12337355813301026,0.07429240316183822,-0.19590913042689104,-0.01744855912978816,0.011856316204824972,0.16787183973974656,-0.04624021927044735,-0.025922437998547182,0.03837663025769206,0.07288180421221162,0.026731140680464477,0.05299695747420878,-0.07276312376640792,-0.05999099939357444,0.2001825974407742,-0.07275749059391462,0.04353063043896451,-0.13318222840784438,-0.08203686874510904,-0.054252988798310926,-0.07509107638093852,-0.025766111329244563,-0.10873391210279029,0.03092660141334602,0.035410314163281296,0.16529071357607336,-0.20990894942369262,-0.11270947100353765,0.07823845564216218,-0.10508580403146484,0.056653701063707484,-0.13910242773073958,-0.04955917947013089,0.11887462317067168,0.13630788985488687,0.10766292318198582,0.038015947305857084,0.18872680200749428,0.04244619243243217,-0.08958099153718561,-0.15564436029146822,-0.02059506462410867,-0.007674164181182672,-0.15611279997174365,-0.01900709527315593,0.20150802733791046,-0.11035768453128356,-0.11423111746373785,0.15539603298434265,-0.04815208141224915,0.07721290898723715,-0.023553258310016336
-0.12466844063949839,0.06558728739395335,0.16795785102907856,-0.037334999086838704,0.03456005915330109,0.02490147382256396,0.046704192343176625,-0.0015108194833177275,-0.0018658592247193244,0.07049242864890984,0.03597234576130805,0.08338359155363882,-0.09405930266817417,0.12427418820428819,0.02053380352850974,-0.19449657897911998,-0.1456699083300805,0.07382323427956704,0.16729831834268813,0.003964727027537966,-0.1038267227540418,0.07873036079829529,0.1834142121771881,0.1742856340363196,0.005219592805177516,-0.05028880008247401,-0.08743497258369635,0.0549194448150903,-0.047686433766613676,0.017797597727119807,-0.193227209968557,-0.1256481351261906,-0.0696194694605652,-0.1860330504130816,-0.15339896943997616,0.01250306481759987,-0.05397162883201515,-0.04755003987708265,0.05539675702373915,-0.05141842903312188,-0.14553953430208982,0.04048838964487261,-0.14051833224538382,0.14122988003106884,-0.02785325711526033,-0.10579951272460722,0.11830575122381282,0.1775001157882836,0.20215084888760115,0.12162078915601891,0.08365773346646162,0.01931181570323562,-0.17455289772546054,-0.02379012023744994,-0.059598970614014195,-0.045554763328616146,-0.18382016526311803,0.010966843486823228,0.1705843840975133,-0.014714794514264553,-0.05007114460192652,0.15130749118662032,-0.17916776307442128,0.12099088461915018,-0.07005602067470773
-0.11864717550477741,0.03947362128061887,0.0043016486244521574,0.019058763058608135,0.05902276939365158,0.10561697684994392,0.054103621770440154,-0.06534254242861334,0.17822287005876059,-0.053745562634366875,0.0633649983306268,0.014239214224596581,-0.14631968606204857,0.162790382232529,0.02964167375227898,-0.005915557846395597,-0.013605260765522483,-0.058454124174883576,0.02970163388900241,-0.11833379864919935,-0.17707414062517512,0.054447245170688566,0.07676350217215468,0.0925509388245661,-0.011847100471588826,-0.09805365089026473,-0.09821611838566989,0.06272917928159552,-0.04867409451648169,0.0672759809672203,-0.1510347536056913,-0.03661518288259932,-0.03531511044008208,-0.1860084737040664,-0.13259751325026883,-0.12108165805667052,-0.02456031067487526,0.005667059503611259,0.06122487438925706,-0.20255484833960796,-0.07518547970536281,0.10272712434476265,-0.17304893081456402,0.0612462053812167,-0.18824612162203946,-0.20322798602052788,-0.0010023606560476093,0.20361692765057107,0.07908195886392058,0.07873751073653103,0.19906391444996133,0.01054217999379255,-0.15188403139403406,-0.19886123670127925,-0.0485442610053444,-0.005509889454842999,-0.14028902093775505,-0.01311402642537106,0.022423007179232124,-0.029601288366311228,-0.17748378563735684,0.15555885470532793,-0.04984395687205625,0.11979870099713961,0.013502832955526302
-0.11587457282341335,0.10897954792867809,-0.014357947187101093,0.04695287132595912,0.08840576744589412,0.12325470456386851,0.1013319048393066,-0.044502263044980055,0.1515437362618692,-0.007063457292986912,0.10875581755817562,0.1194311674467019,-0.11711362379944495,0.04486993354825102,0.052628607953575,-0.13061401071632758,-0.02339184880258464,-0.005897749951766278,0.10758665251331248,-0.07234053013958469,-0.08062918751847198,0.1343944762615545,0.019675050337509083,0.057684523883643535,-0.10314283961268679,-0.2042084884660819,-0.16922333701784886,0.0464208148718963,-0.026819462523372868,0.01140648860863067,-0.139454722720853,-0.012685807349307056,0.009129817024307083,-0.15457620149856957,-0.03447274039127055,-0.009101155165751114,-0.049904951467253995,0.04245477428450338,0.18123443879167128,-0.07684353917058892,-0.20096744154425386,0.017166817057407278,-0.0025499172790729805,0.10972541817284347,-0.192922748588672,-0.05620043512088173,0.0507801764716769,0.06782482300955672,0.053580362071156115,0.1632857542673722,0.13306378669858865,0.12338458040452471,-0.1833990835604796,-0.04569982786801339,-0.10065488543148603,0.03434554642644829,-0.08759244780066076,0.021076644536209624,0.0268290801413195,-0.163630821326339,-0.1598359141020767,0.17045086154000272,-0.16396410302484496,0.03721447750619553,0.07957525984734302
-0.09910610575290114,0.14240393872329352,0.02648521545018134,0.09277931667381531,0.038479355856889316,0.17361311046731087,0.09454189585302063,-0.11026650772520526,0.0780523099519466,0.0029102227797112015,0.20509765243174968,0.09342692262721419,-0.06505372421377086,-0.004835447976926978,0.10822062531323196,-0.1507501621451937,-0.08891143789758278,-0.006049145442715787,0.05487644468783218,-0.14489717469793206,-0.08285079257613465,0.15542162284769293,0.08785386891735128,0.12349464045764497,-0.14801120692944286,-0.14665251838685775,-0.17698465599686145,0.018481952488921923,-0.06146655668950954,-0.039771457505478135,-0.015816994874862135,-0.15724661155749275,-0.023371953224482312,-0.11773968790249616,0.009179599434845477,-0.09785411912984611,-0.0711941241950353,0.09226512408317719,0.17337220073066495,-0.09665030306537403,-0.11993874930676562,0.023518134267778348,-0.04232094747674904,0.17859482244716374,-0.16937539358331383,-0.11001060964180219,-0.0017248576555731986,0.00836366995795848,0.07674287298180058,0.09149667969243981,0.09853666310880481,0.12955141528531344,-0.07206490557883444,-0.10426241060158287,-0.11849790834104099,0.09573805101380539,-0.1523232883316035,0.06792239457222225,0.1781909306536762,-0.10968865467691181,-0.027836464476973858,0.1193380022556473,-0.18466449246762962,0.0861652814578528,0.09555495584784547
-0.08992184865290366,0.04571422702058245,0.01914050700730927,0.14315471704672264,0.14095995522225754,0.14503529855353445,0.08255928308375593,-0.186057336597121,0.07795652984678705,-0.045182559869155044,0.1767674944528621,0.13804342838459868,-0.1267549189073464,0.04783763311262279,-0.005836483012045241,-0.1324823356113425,-0.013050455284293723,0.13312556506276454,-0.004999444344983215,-0.08836494719066466,-0.21319137331768012,0.08737554360212366,0.14772646848123475,0.14586987178221147,-0.19411951218272916,-0.1743092815474193,-0.1485377404960813,0.16699716066340817,0.03709183725886256,-0.14472316779985883,-0.04826854897193209,-0.18348916072648905,0.06471580682114736,-0.047935518317181625,-0.08922239795160142,-0.01753125143560326,-0.12644116767551927,0.11187910965677311,0.06664177869886918,-0.11768895525431013,-0.14564263676447473,0.003232605350989605,-0.11702356287207472,0.08616313686612259,-0.12459966939485051,-0.048088986143889206,-0.05562012214712505,0.0905542627971,0.09743428585982775,0.10483588439659373,0.05648741043977321,0.09247875700897035,-0.10737413689164368,-0.1422556735022896,-0.025044454141893924,0.04543024434807656,-0.14864082710266333,0.07996198615356252,0.15372998103354762,0.004683521783455547,-0.1168052914214472,0.041201545384977424,-0.16483887216404508,0.010525495050196955,0.08793700090188734
-0.14106843901683974,0.07690297513657142,0.04813460091738965,0.19344178391344377,0.08801830359877798,0.05290124303922811,0.17415072659070727,-0.2785996264641796,-0.030391761515784845,-0.05276728055707304,0.12778454691274496,0.12720409014861242,-0.12456771012454075,0.08386586809298877,-0.07108149247091827,-0.19440485866291213,0.00752728156460649,0.1410802323755381,0.07425736097329853,-0.15910362266756106,-0.15716788954596864,0.0842452360482238,0.19392689917932213,0.08660922039057967,-0.22928325727947543,-0.21145094860124172,-0.3408197303085844,0.16781340122466643,0.04931446319720631,-0.1731516718373078,-0.12679995935666905,-0.06396680571945107,-0.0009569077254396846,-0.03744490511619751,0.01533803323237058,0.150539233867935,-0.232607808242547,0.26209430434698305,0.22362896955627107,-0.12495571191187205,-0.18623048771612857,0.0854331903691963,-0.19203268357379358,0.16406648817212807,-0.1038298502524556,-0.04725723331880418,-0.07007660086757697,0.10066015048234975,0.10072898445698768,0.03516813099300785,0.085705753699613,0.04393266885243532,-0.03777737976492804,-0.04024953762128711,-0.15808801342077478,0.11434049879463722,-0.12252177130318767,0.21857712059166653,0.0953313468304773,-0.054323885323175114,-0.02435783067810024,0.15082949212649396,-0.057923254000094584,-0.03448242094453608,0.05631527493018832
-0.11451520400957396,0.05807342613057709,0.05848867531613041,0.17980039697040864,0.16847841628264834,0.16180492722564466,0.2311739319459669,-0.3119827234253407,-0.09253652807486402,-0.07190573748963212,0.09760199735353742,0.20862199847226015,-0.005460018833168885,0.1141547064552531,-0.04161456866856229,-0.05490352220167786,-0.0682631782631587,0.0752268704909589,0.16027650969033136,-0.10822064593772474,-0.1079306439375477,0.11603685146549651,0.0995103226873321,0.08654819955744761,-0.1499522914643856,-0.18453265812832106,-0.25630537976116247,0.0990889179776674,-0.033784796842373246,-0.20769119078616838,-0.06124686200974141,-0.0582427697502947,-0.05618832814329088,-0.04619711080333971,-0.05742028514819375,0.19247801870459294,-0.25629451953679055,0.188751174276216,0.07330477936531501,-0.1049514013320905,-0.09993705562973793,0.12025431977052986,-0.14272062937681704,0.061747496080611974,-0.034680183296244754,-0.11337613678837163,-0.12819539435994043,0.13280606081108692,0.07254924530023747,0.13198351477127238,0.09057908694693594,0.10277375068412022,-0.18782222404432847,-0.1432524010319761,-0.16064387768176835,0.06419956113217577,-0.09856881816756315,0.2022802657627673,0.19794900039099717,-0.1339239332526059,-0.15391078479163336,0.06683071636351912,-0.09300541512924893,-0.14755171474193146,0.10855788927638883
-0.10146827009769428,0.15353383097934803,0.0539319149879115,0.13140778596808322,0.05916990851206676,0.16059734712212362,0.12297992067047249,-0.2804784830980327,-0.15301576346608875,-0.05621030929143267,-0.011241137833639135,0.06898375126832522,-0.031077564393096398,0.02624323799555196,-0.027456121205840674,-0.13757780003641848,0.02697401428898261,-0.03769727848297143,0.0561902023523574,-0.19820746506111644,-0.048095705215035395,0.06524516351876343,0.08323583144243427,0.04782609858304936,-0.18510829709077914,-0.07104471480933851,-0.23035314291510756,0.0826356240022943,-0.14930524809744217,-0.1428486441592916,-0.1360055279447164,-0.058666157857295786,-0.057350984541473374,-0.003862016292594067,-0.22975016883703192,0.1807721574813188,-0.24404469837175286,0.22286584340715856,0.0297198009315547,-0.07947253110248848,-0.0009378826355462474,0.06350609489073152,-0.12111375234678674,0.18910949064464444,0.008587609978373247,-0.1711321045508652,-0.12452754460736772,0.1761696081271419,0.12180693693635479,0.029728910721563345,0.16466141189536518,0.18850077798578266,-0.17654721876371918,-0.028448491729174265,-0.17708427262488063,-0.10324963548302502,-0.14432902460989777,0.16340930789095234,0.16177411539982597,-0.042272876007656,-0.07428829835687155,0.15030026380131603,-0.14850570318068798,-0.20326846397437837,0.07326785224944317
-0.12135323151940114,0.07694250581806854,0.0012835781219371516,0.11390572831603295,0.18206941142540362,0.11224433964364586,0.08517375890708302,-0.33193281427425425,-0.13599160666995116,-0.08704017438169463,0.07570908696357884,0.013410791365512353,-0.04751078459112333,0.04032119498013981,-0.05474333402932641,-0.12613479835551739,-0.03757015490701769,-0.1728178863047318,0.06843111166607534,-0.14466409696471164,-0.06252296401201908,0.10625216716204947,0.025804465808058633,0.15866910241689614,-0.2207882213921712,-0.12841538881599215,-0.18157846876140102,0.08575262095321595,-0.2192523339294068,-0.1695361378373222,-0.16054027380647054,-0.13298220445991357,-0.06308198921315847,-0.1333994347563765,-0.2572161647450004,0.13459854645098307,-0.1470250980427469,0.10758903896565132,0.11910114044752723,-0.07711508807513963,0.123432265608289,0.04025424180218627,-0.19608604367514565,0.14106275581392716,-0.09041829158834862,-0.03809582838895526,-0.09010296549479486,0.07755806254618207,0.17990562744293762,0.11693028474176743,0.020128951697384642,0.044605587487626615,-0.01816889165915805,-0.10099561852851996,-0.10406833565304312,-0.11847494122620612,-0.14309478576542609,0.2037279807099213,0.09978258477033455,-0.012494223827052332,-0.12324535138432476,0.04583568424887623,-0.16224603687114983,-0.24620412332893762,0.15067371240767413
