-0.13822983719745852,-0.054923412361455065,-0.18129501663091604,0.03400829385459724,-0.19475446170669777,-0.022422799886581052,0.031458095394196826,0.03691829680301823,0.21231403576255747,-0.08031006665041883,0.18928307911095468,-0.12785336655523236,-0.21026505779247,-0.20941175551624816,-0.14062823692103343,0.18778953358417744,-0.11570581276287503,-0.09466525454964084,-0.13752792108017087,-0.044854303247863596,-0.055423752383993406,-0.2246692619175167,-0.22633330105113936,-0.21342291705731628,-0.134148872284452,0.12336033726797964,-0.10993963339369489,0.1498041427150887,0.026958065729442704,0.134058110528146,-0.11693942771218808,-0.03569304880077518,0.20214036303287175,-0.10914468723761438,0.16492771193943814,0.10330321561094419,-0.08256000086004082,-0.06549719049703286,-0.09382008185184876,0.12536081470922042,0.07885907477687377,0.002464592646956942,0.13826713203099053,0.039167238868332704,0.2075913686287085,0.1046564290762731,0.12160665159060079,-0.1755905911333864,0.051563170943672854,-0.14322980828728807,-0.01762403458202406,-0.19552178711803025,0.13907008399193213,0.17042404398113128,-0.18548701476423074,0.06034521187592713,-0.13851865177850012,0.05732910083924939,0.11419618943470349,0.05733053591071639,0.21807024397811203,-0.060004795819120674,0.04295040019859451,0.036631168309724654,-0.12744027179468387
-0.1377478478913906,-0.06269299920345,-0.18750673811313875,0.05604700953385591,-0.04782310361642372,-0.0607045528961635,0.1308922905577934,0.1020601806319429,0.06411068841712657,-0.1405077447219309,0.13878317479459204,-0.1878174080662764,-0.03616615216603941,-0.14876288987843947,-0.22661337746856422,0.12160385806128295,-0.11567809036970411,-0.18980674854645155,-0.04280396783474457,-0.2073625584083876,-0.04621043340301993,-0.22104037568926682,-0.16652138252810214,-0.16311018029661223,-0.13725910968256366,0.21552232158535303,-0.04004173435548942,0.11403691313057779,0.09521198768343656,0.1610722203990457,-0.1339466130722882,-0.021623241593323947,0.17022739303981171,-0.10321917070331163,0.07011056141018714,-0.05459851867142998,0.029146308823832227,-0.16604932089452837,-0.13377570295648464,0.2105337141100336,0.06431337975798,-0.05210012283698758,0.09985852537065305,0.16646235358364683,0.11713738224355709,0.04245443872988915,0.04864374218506058,-0.10835767859251692,0.0660958729116064,-0.1313413134923736,-0.12811077884678645,-0.160404736138812,0.17118183166102424,0.1923027481659467,-0.1394237764087787,0.0634914476995885,-0.14235020996097678,0.18761480844638925,0.0347992860017728,0.061238669097968275,0.11622684788981982,-0.05895034831536047,0.1675109260160528,0.025770569981988248,-0.09837678536822742
-0.14201071925869801,-0.12843047048000303,-0.08838660936829713,0.11786783109139826,-0.110393056188363,0.08734691560264705,0.12336604964752981,0.08657460165702463,0.21502687793705397,-0.10037063688686802,0.18160340462499616,-0.15096717832187442,-0.14003563215985482,-0.1338339140302181,-0.1394887717402562,0.12297961766439103,-0.0838217863635658,-0.2048111594856421,-0.1177768243893171,-0.030884931548154172,-0.03545920349265683,-0.17605724684696136,-0.15902171506854273,-0.058515758562714446,-0.07259275383580845,0.12124899096364171,0.006241181378335469,0.15053946912572563,0.12013495623157051,0.002027576439785109,-0.18621077103343386,-0.022304119223070237,0.03661208802315479,-0.20712362268147527,0.066096201345774,0.07594779355798423,-0.017141178377997772,-0.13421866915659775,-0.14143305672421208,0.20432995679587113,0.0806579313025302,0.03358024301389847,0.10297162228258205,0.07252593528606331,0.06704820998957993,0.017937661024045003,0.123673775074815,-0.0826677136325021,0.0372776000145755,-0.172850833103484,-0.08064401887757909,-0.13446410441411014,0.08119857768563626,0.037826033919770394,-0.08301473187040456,0.17108545603923214,-0.13859012150945046,0.09005979646311302,0.19442167822075723,0.17246220958094957,0.16426207455593655,-0.02929591926775222,0.12210635144678257,0.13675203132401867,-0.21318229734537267
-0.1349800109075219,-0.08886953585625901,-0.08334506891615921,0.11449862584807173,-0.1562091092588102,0.036590963447576105,0.10690619464004103,0.20584367596980832,0.12693820344054693,-0.05581339790237978,0.21948508922889745,-0.1750608448550305,-0.1521964822703845,-0.027833422328435345,-0.13114199313368863,0.2216279161482198,-0.1519413142828237,-0.1839229162657284,-0.09375231228583392,-0.043217287046578526,-0.12789499208510532,-0.15266503761754857,-0.10886255068782465,-0.08044471228629518,-0.10564657642975336,0.0598688836223619,-0.11729626346145451,0.14580931995709379,0.030956280539679748,0.1235909736157868,-0.17889116340998548,-0.09020484499219403,0.06900788954673256,-0.03904643914877446,0.13854089224616242,0.06889911884718482,-0.04269055556142214,-0.17905704517065094,-0.07435244058773487,0.20167778192284783,0.22283552313138094,0.040883183695105664,0.2027086796211284,0.13184623957915334,0.05130714699292829,0.010509985617792482,0.08181767903502846,-0.06772168955712621,0.18360532633652393,-0.07126165176583665,-0.02802164226422605,-0.09298624146037764,0.20429391310664843,0.08233236757456223,-0.18776164241134738,0.11833169739117629,-0.07940174918179915,0.22828980936115106,0.10696811019397581,0.1483729470884115,0.0592319410152538,-0.08102230276254502,0.04467634133213606,0.082449058217741,-0.1088229553978193
-0.1141552228009646,-0.15395722814120966,-0.05696968255112868,0.1894542389804663,-0.07046298767063351,-0.08286070155139086,0.16777252180493774,0.1989196549122661,0.18434061556265885,-0.03878411993433519,0.12601051584133285,-0.06142867702993554,-0.14865370741626258,-0.07651872232059355,-0.16308191836655947,0.17400845152678432,-0.06012230967739881,-0.07314194529937312,-0.027158420906801838,-0.1870604145988909,-0.052581376893265676,-0.11423477688396375,-0.055139174192363395,-0.015407781343302073,-0.11671010285554356,0.1740053609130454,-0.13939888374060352,0.1853595839710741,0.17724358317981698,0.01828074572794104,-0.18520083037472793,-0.03715131131799832,0.13655423966599836,-0.06862917326355891,0.06366785128631207,-0.07454383560910306,-0.039454176619705204,-0.080131825172127,-0.05085208630719791,0.20315265551072806,0.16435558159738853,-0.006240314480959078,0.11094884388348214,0.19439141893778472,0.19823465489468395,-0.05802684194148367,0.13424446414381833,-0.05133227356456197,0.1456317926361577,-0.11189005246863437,-0.14400378966699326,0.004500047446051222,0.16276941393666997,0.17272687406926643,-0.1893682978243632,0.10449112004851734,-0.08054795560045333,0.20096558629246497,0.15048963955636357,0.13072947951474845,0.10313528164578636,-0.1263422236524057,0.028258107167159145,0.03639542032664543,-0.03574805225925283
-0.13152563192861344,-0.06920200318452806,-0.07782635551996318,0.14928363177185744,-0.1406170568585834,0.059375062649145965,0.1557906666713988,0.10193476291025637,0.17967015561875446,-0.19507412763501,0.07517029688569847,-0.12766853583666926,-0.07081448958115351,-0.13842596552838418,-0.04762568989165325,0.1296646062699583,-0.06736778609764703,-0.11357170510189474,-0.026586026496777514,-0.16444571603204092,-0.08298668500320698,-0.07258977064320364,-0.1721304791845653,-0.11431809209189937,0.011848806014421766,0.1555099401431382,-0.09448872974544295,0.09661637955310347,0.10473598623063844,0.16699839137364259,-0.18478678366801163,0.006404152478310539,0.0687193046771425,-0.12808319363560064,0.18341655973162618,0.03399498289310107,0.0024622433054207076,-0.09887465949442063,-0.14401649207127837,0.17783583342152226,0.03253624158627153,0.1113410582872495,0.03295268481358507,0.07940573091294935,0.05912472849300492,-0.01234592107451941,0.16752559644869963,-0.1363320450710218,0.09623038196303113,-0.20544910039835768,-0.1588483191377434,-0.17836762959950148,0.18701033513933712,0.18328076493075612,-0.12021131644139821,0.19173645870332992,-0.010215976839792165,0.10705725647012462,0.1179876209841649,0.1817656619401651,0.17589625481709137,-0.11488814078221277,0.13676372380202415,0.055830375405701016,-0.17209471770957036
-0.12946932312919643,-0.029830358286021607,-0.025100893344826274,0.1642934164086179,-0.17553499745366177,-0.003978883085406897,0.2004430428675301,0.15133726358314148,0.18717319260076565,-0.2196428074844542,0.05920154792912559,-0.21729823536050114,-0.18084151818884617,-0.20243406390005217,-0.08043773148170813,0.19193574867974572,-0.10183630878026323,-0.04221088970949103,-0.11331497332195647,-0.12575074553423043,0.02973784607685816,-0.13186582865360214,-0.06764151059074235,-0.03161715874572996,-0.020830964316578084,0.04021941758272242,0.025179019538676357,0.03195252147461217,0.040265119092195364,-0.01734869155248932,-0.06780431155708654,-0.155005524506939,0.07738836065394142,-0.13061714879691824,0.1443573948495994,0.08365426828412359,-0.08721362996517491,-0.19815014011294874,-0.0454612899895058,0.2161316109245208,0.0915394543298952,0.029080103441787613,0.10740683773281577,0.03237212378795971,0.08244218510931385,0.08840595517452414,0.14115475469789932,-0.04789662622936787,0.1341980239754314,-0.06097872273315097,-0.07345702692551744,-0.029757011812588986,0.16015486757654443,0.135303856507332,-0.16671731365362985,0.16797159581035406,-0.11654319797686237,0.22015085828953493,0.1951846076040063,0.12152012869837812,0.16302064217579065,-0.21289136142895104,0.11876919356689913,0.11486400918390428,-0.16396188371706819
-0.1285702187628024,-0.18295121461768651,-0.2165347295041715,0.17195848318202983,-0.17963206147372146,0.00950703297935176,0.11890201240431249,0.04904939055122057,0.17121948548245305,-0.08899412139805765,0.09020918670606189,-0.042844893485895735,-0.14691485725547862,-0.18505389916911685,-0.21053390283738682,0.15879353860641893,-0.10639867277691499,-0.1850350761810193,-0.0001853634513635044,-0.17247275194253298,0.005253690384659396,-0.21048623239365766,-0.029441151317686716,-0.08223708486970395,-0.10583559576073905,0.14356714957834124,0.012225123424898567,0.21451198306650548,0.16567653934976653,0.14473202947020156,-0.07167996207696664,-0.025483273555936325,0.07238575100240352,-0.19203722747605706,0.09597334785991538,0.029172167505915374,-0.10893492501636413,-0.2167314517996458,-0.12985921658446253,0.1426153647735648,0.03108548931100515,0.0797413842017978,0.18933332664037333,0.040268429341389196,0.05644070698645791,0.11358004228683843,0.07672941386346065,-0.18579275496118602,0.08966085921263567,-0.06940322281319058,-0.015186783109727459,-0.0027629978743521715,0.0646465769947007,0.05712913012977274,-0.11888103486877435,0.10950204900346104,-0.11101735933419703,0.15027260250940352,0.20258703266406486,0.08168318780461445,0.2038922485610047,-0.057828751539821935,0.13609573470136668,0.07769385390019297,-0.02908936190424467
-0.1266348982386746,-0.05536991566640062,-0.17966134917789126,0.19273706981946134,-0.11157137718717867,-0.05717266228359217,0.08460171926681942,0.10774538234467894,0.12212204108596676,-0.11463297751587398,0.029166897074439452,-0.09983438467883024,-0.09329094143931757,-0.11462474736726574,-0.18714078354224845,0.10770232925272993,-0.20527174908968007,-0.07728185363178083,-0.09941567892163981,-0.04638830613535405,-0.07201616852186757,-0.20468108450838524,-0.03799388250697362,-0.16293035967723712,-0.10725877319366652,0.15182986034504975,0.006190761425665659,0.12686479483302165,0.11331558023176963,0.08213626886935592,-0.07942993649153265,-0.06213817303929575,0.09526696256745855,-0.020592363216442193,0.20483987004734408,-0.03142555065780838,-0.0354843704815292,-0.08726660360485841,-0.11101719362301611,0.19495521549631448,0.20862836390325323,-0.014690984254655717,0.0980774908493132,0.13047951440992142,0.13637365748737712,0.0702478927477911,0.1121821879435705,-0.1788779804053069,0.1188669301142471,-0.1996668678220856,-0.16268133346200733,-0.03281523814164757,0.15597698829277667,0.21138670591557707,-0.021510977806038178,0.041214137431273515,-0.11573214736245177,0.2086022645731203,0.042891194385121664,0.13361239247193848,0.06970227734174997,-0.09024340583955325,0.21822033818616138,0.20977253595433962,-0.10614681319678394
-0.11989670148828432,-0.10231495697761944,-0.20552825832953633,0.1745618142118259,-0.04037496304969906,0.07560127792621604,0.12525821872599602,0.08952588994579046,0.18182142997331416,-0.17691963446252337,0.14172669979889585,-0.1272583668537485,-0.20204404769694026,-0.025009504820980754,-0.021208856350170453,0.1553252609228353,-0.056393992410471494,-0.13359849478408306,-0.06877352283133224,-0.04139191239091269,0.03710975192802237,-0.05606453084251712,-0.183602099582334,-0.13188426686829025,-0.10190050561347173,0.0957334285395333,-0.08372428213384243,0.06071813970708053,0.031885028709895166,0.0896593381689143,-0.08417211727230532,-0.1576067161125405,0.17452524539355438,-0.18080164699009466,0.09457536879626863,0.03024871128131531,-0.056680291886705654,-0.15400482612304225,-0.18285122476808927,0.12446873143107269,0.13258297139644992,0.026335610705850908,0.17335012700514021,0.1587854699726443,0.18574128134947857,0.0088819798738138,0.07326163119361274,-0.2103261619390495,0.2029691286632436,-0.17628057798366653,-0.0823980824116794,-0.057571679501359434,0.2105800041628551,0.12950621538576196,-0.04479520625464655,0.014015746084453776,-0.008093420161211897,0.19969708807295564,0.06859021468988555,0.13544779831828502,0.13428682196985856,-0.06252586940309587,0.08900368748604712,0.13229407228517961,-0.0897798196331672
-0.11788735181403562,-0.056057482557997335,-0.12413250268488069,0.18514892135681396,-0.1267114768866082,0.07576232917320587,0.13172185246386897,0.0840102110627778,0.14624916820565087,-0.09452964615237741,0.2110589151342853,-0.13772946496814423,-0.1737390842479776,-0.039478343024758444,-0.2001009485975967,0.013466945546377713,-0.12564509998337794,-0.16780341507211805,-0.14165952385288472,-0.02037306517856239,0.03006334825784854,-0.09399690376722412,-0.2081729239107451,-0.18087926018137201,-0.015176623810751485,0.09243623384723333,0.01893622673625423,0.042447223548156304,0.11483047669017006,0.044321820977904124,-0.019909292045579154,-0.038189611906754156,0.21015002023487464,-0.0802958435347513,0.1901775531153013,0.012365687295864474,-0.03877069209021665,-0.20688500409575927,-0.05831493873993018,0.11268898129984789,0.09121483124705576,0.07575675931907822,0.05250427451758831,0.18651556230707855,0.09918930168797048,0.08596161910786655,0.20197452758709744,-0.14102995100061386,0.058451695218020454,-0.02501403762919912,-0.020025532153697095,-0.15561901943756323,0.1975027359097425,0.15172945394061954,-0.1561971676458194,0.07142192431850533,-0.11740582965877717,0.20824652413276928,0.20408022779510843,0.05790500842382674,0.18653132130032662,-0.07052880276688672,0.13647792657463242,0.20348091320154066,-0.07022073769904913
-0.12405719306893363,-0.0490493341857717,-0.19104432439222188,0.07951283842790134,-0.11883515411689954,0.03686121926522376,0.06249607267951425,0.04478568278928748,0.16643655104213145,-0.21059222784169737,0.11220152317859605,-0.07616652879849192,-0.02692550999145659,-0.17680920108212306,-0.05637646434244187,0.11413475948148448,-0.17255327060929787,-0.05201581083336248,0.023326669292384892,-0.1751391741829782,-0.03277035807398031,-0.1309148732100348,-0.023044520339332707,-0.14429750886149006,-0.059645330154228474,0.2091122823017394,-0.08912196669212198,0.0358027743280775,0.13533284377517535,0.0008423228433275326,-0.1498259931099529,-0.02453133786323885,0.19904764306317596,-0.12571380887240102,0.11443274321914357,-0.05601476979100915,-0.03439775518435076,-0.096134746560167,-0.117971376089221,0.13698838184273224,0.12525458428077202,-0.0340541105939247,0.1963381400677537,0.1781780728546864,0.1390492473982518,0.07390216073173822,0.03298689644490982,-0.1756839311157504,0.1546040638959245,-0.16987003631688818,-0.11149942732384864,-0.04590719563259498,0.21287609647839983,0.11100704919840254,-0.16139938628011996,0.07956714733296623,0.03619691289644091,0.03619585646454739,0.1813188067284801,0.14340075486782752,0.10306043464446446,-0.1564026809251968,0.15339832062346132,0.15464272181549707,-0.03544915489527698
-0.13303394491524861,-0.08618969203122771,-0.11520960457782758,0.20639024534981942,-0.10101556993513011,0.007867418793058686,0.1740496941864145,0.04359755004829453,0.04849385864852401,-0.1780927731315029,0.16489427685371685,-0.13828795874896155,-0.12930997081079126,-0.18722688679947658,-0.1054088632992615,0.0836643285150763,-0.11597811004162804,-0.09687207447186827,-0.04706772940868064,-0.0858052153552656,0.0163404296072199,-0.1711222953789403,-0.15394757431587847,-0.08200794293402767,0.011925321237879028,0.06455632368098375,-0.0211378092902239,0.20211441219022855,0.07704359378662376,0.11582242582461469,-0.1374248382378077,-0.17525812803740515,0.04993112641135359,-0.15483075252190964,0.15779494092857707,-0.06316146501945477,-0.020434968940433874,-0.17893082662410162,-0.09034795216645161,0.1677319028701104,0.13112667345552403,0.06651552401415023,0.0806639022907035,0.13418029315722807,0.03300877538461287,-0.019724424707890893,0.08777597532562176,-0.12613057998766922,0.17227210100903043,-0.1504585416312709,-0.11937877559833367,-0.07246793162346697,0.20894228728422387,0.17349755326624158,-0.16767655910233015,0.07431578368509059,-0.06571556132332947,0.17919988146526966,0.03209922733090525,0.06802361966611618,0.1791908617147582,-0.14213365819690443,0.07211654081342232,0.12886605331639864,-0.11111667142298534
-0.12505132582135123,-0.09769891722995823,-0.14859618762539345,0.05295016470178164,-0.024266304714772022,0.06182461577486972,0.13413542840069115,0.14945279271862083,0.12416067723428655,-0.10985389818467746,0.11178176670617776,-0.14483777230835204,-0.17197397442700632,-0.05276867271979513,-0.08823844228004885,0.18806523443000508,-0.15560379178280712,-0.17004767609246282,0.006848006911149525,-0.1552667158332889,-0.07854623331648856,-0.2051550842623456,-0.157040176859878,-0.14935718256145825,-0.09885534790015424,0.029027639367260872,-0.1204816424782781,0.10759534132964609,0.020312601937917455,0.09492421782959772,-0.014110630996514661,-0.07643402479154714,0.12047584303198879,-0.21418535724566976,0.12538444772092372,-0.007863511651827831,-0.1268083889905114,-0.1742334505356588,-0.06052345555859116,0.15773153075200794,0.19833421426944253,0.040645669860101055,0.10649978981617235,0.03879122394763364,0.10569261771412249,-0.062155043310887066,0.12883092021178896,-0.2083435056362363,0.12711408018958334,-0.16566531293218553,-0.12076344184315996,-0.17130336390240272,0.14119083984055886,0.13270374501914367,-0.08901097334133916,0.14638651474070455,-0.12160031481754222,0.033561148700526684,0.15165039009006928,0.0755515535947352,0.08262439970515258,-0.18403871504201097,0.20177069144245527,0.14407935057075882,-0.14450889352974616
-0.12796354898893086,-0.20754127680989912,-0.1297250334705703,0.13141318601543997,-0.17364973896805472,-0.07188456365733595,0.1381894339486725,0.06606800616714098,0.0467411160098338,-0.1573433017256981,0.2179837721532944,-0.19012259196604867,-0.18972595682407406,-0.0879591726823062,-0.09019121008182622,0.21752282439337162,-0.18009382599132803,-0.1694637489746321,-0.08139033618104333,-0.1610713316459124,-0.09045965235308799,-0.18334786559227975,-0.16270695236773797,-0.11845444247430224,-0.03787383340873884,0.14735077083345618,-0.038082382019460154,0.14615577542735886,0.19770455359180833,0.11284035340284425,-0.1189266518075244,-0.11969816553906515,0.11384878976757444,-0.0718123126580861,0.10685833767974648,-0.013241752283148136,-0.111789707602331,-0.06916801131649697,-0.0984442970017347,0.062333975941099046,0.18385994011214235,-0.0022484422683750585,0.03104957391806867,0.13915053112516437,0.1257860928882275,0.06683375728135509,0.08959640012015407,-0.0926835561325487,0.0722511050245243,-0.15262646115834277,-0.056393795412680095,-0.04855057233275826,0.13280327750075205,0.16525993168044478,-0.18593922328176857,0.1921127206510545,-0.006844199069144593,0.05310079276017293,0.1341831255500887,0.05305414727404392,0.026917798041865525,-0.059987993783295376,0.03378527983874633,0.03240756939092323,-0.11295320789176766
-0.1260587174413989,-0.17782376967034577,-0.19485704864884557,0.04958126003456727,-0.054762962813532434,-0.06725053760408686,0.08070233287777574,0.09774480112066271,0.20321094321553299,-0.09693957474201359,0.07056279979628272,-0.18284474710853338,-0.12372460596915681,-0.10674184876536162,-0.0385205153198986,0.0327153908807292,-0.2022759588782232,-0.1637843964097178,-0.14077220700594756,-0.10158524156782048,-0.08065939199550129,-0.1340705191018208,-0.21341156829721739,-0.06796576783184859,-0.003027425642060041,0.13220084288391182,-0.060067078396675404,0.1892429223599717,0.1019265586493834,0.07536440728203771,-0.05493287207909195,-0.11193339887637985,0.13900420539282624,-0.1412590930899821,0.21243047562585782,0.0707460822820916,-0.008974076305674455,-0.026605552837816383,-0.07805635639084096,0.15800607117380408,0.0604813622714753,-0.05026574779192298,0.16842433884496225,0.11982056728696287,0.0960682912225445,-0.0336137236421656,0.0645927563319701,-0.16954153720998713,0.1852916246670503,-0.059474408194275324,-0.01869997300678366,-0.12450593924708081,0.16448849546140884,0.1547007500145238,-0.15578203780279393,0.026409721186706505,-0.023710679497389784,0.17525128514628374,0.19114088178852265,0.08522953211188687,0.10353767757111113,-0.16550279216856145,0.1591093514827937,0.10598862209272854,-0.15261297762581058
-0.13753876711617397,-0.05423259419328843,-0.2217425037071545,0.16610926199886583,-0.11747714016320768,0.06349602515279698,0.06739759737425427,0.06996903804782509,0.06050981294983187,-0.22198642956301717,0.05730767852198754,-0.1205120302770365,-0.14787358309964804,-0.08722196427452453,-0.192709751773228,0.09641071061864193,-0.20113989739851607,-0.03200073719532502,0.00730976835062617,-0.1801968733216683,-0.06880803298614258,-0.12209808521807397,-0.058408701801213936,-0.1668207321197505,-0.1373501141381314,0.03963205565070346,0.002914181507132617,0.18708026737855868,0.06632314414389985,0.14000637489468926,-0.12293635327904534,-0.08796315231033064,0.2212958533111732,-0.14931194550605484,0.20701388901517156,0.07667652108272893,-0.05790235775923267,-0.087648512203884,-0.20224070541502057,0.16884884346733942,0.041991127205995314,0.006087391368119954,0.22378548540959056,0.12319836056792649,0.14288885032076595,0.0586790971907611,0.03468394542532713,-0.18179974344112193,0.19505896789544375,-0.08620735844396098,-0.096637160105363,-0.06632105191657793,0.10322593601005578,0.08597066716543182,-0.07338585404074877,0.09305316958911528,-0.029402048778798824,0.06408996808715846,0.14490112297278787,0.09910035892837751,0.15555055667154033,-0.08187789074245336,0.17823892710335584,0.06217684514698428,-0.18115978801406452
-0.1365468057004666,-0.05195565070154332,-0.04256973229777594,0.10291999120477281,-0.026989647006326188,-0.03322018386223128,0.10010294069208024,0.19911350702225716,0.21778781128457642,-0.2129570519334336,0.07694502806935431,-0.20354088270498272,-0.08936475573464785,-0.04621197498367606,-0.030556821088293697,0.13630075329381125,-0.2050792955999912,-0.13227698414553143,-0.14483011955090974,-0.06862004019303329,0.047134382303960325,-0.2178375612400969,-0.1586299508887477,-0.13884080222044148,-0.08034525899721352,0.09237533877655947,-0.13870773245581086,0.1939839340917323,0.06636394906442966,0.10457150895558485,-0.2033657331907871,-0.16883066168967448,0.09270381359610258,-0.04585696521825213,0.18724635165494172,0.002072411525394682,-0.0008853242326750729,-0.03516929558847388,-0.14314808125612988,0.13450955308903975,0.09712630717485958,0.03527270498791958,0.1960516433069277,0.1779105228298425,0.17026222880608857,0.06551425700030257,0.08195948447627624,-0.09901313006130569,0.19536877649181875,-0.04017829039833601,-0.09370035919246526,-0.16310959101243386,0.12760158778452677,0.12774708465686874,-0.1700560748122019,0.07412962289993412,-0.05565005437747522,0.11208542591861557,0.1604751743383427,0.22180677976648858,0.07218295457100185,-0.16110862689856734,0.12661870435158804,0.044174124009716265,-0.07708380979725854
-0.1363945752102455,-0.205745739142149,-0.15189741223871386,0.06388243969935016,-0.026069443286984306,-0.03415529073387497,0.21008216530489734,0.1215356147725208,0.184126094858337,-0.08529969872152668,0.0862536041746524,-0.14118090659386465,-0.15799226899280075,-0.04217107214798134,-0.13286602364391745,0.21210190835518467,-0.17768495238052856,-0.1859339784691416,-0.12422599800005714,-0.1279519471649797,-0.06813423379189508,-0.0723564328964635,-0.06772144764369775,-0.17509937793919145,0.01894128744965811,0.03696033849135287,-0.1408711609290897,0.11687275991563192,0.048760718934403056,0.00988006425364839,-0.09161531723806754,-0.05941593854762748,0.1525615706784498,-0.21118903067432876,0.03466844080079566,0.046035941202124425,0.0011155505104733367,-0.06518131019003338,-0.05109958619089345,0.14093740332718774,0.13932936040888141,0.09178449277378181,0.08463236288234448,0.11072935797686864,0.13972395672772567,-0.042883235985210884,0.1654727085857516,-0.17946561838138714,0.14896809551778895,-0.06045881116658674,-0.18025141036386944,-0.0703104182563724,0.20406996621879525,0.15574788023958672,-0.13496988248741576,0.14341891948863503,-0.03325642979081523,0.11424899012407531,0.16137423435753592,0.22069882009627842,0.11577891368280771,-0.0351017320280695,0.08736789160572994,0.1349699754233038,-0.10731921431744419
-0.14280117755762736,-0.12855472533089482,-0.046082651281645744,0.05192765206613646,-0.18253657539127316,-0.0671105022954873,0.05251286630845492,0.18149267534450425,0.08046609727379114,-0.16884522833058926,0.14436030720266024,-0.18981428984907722,-0.18959326888570333,-0.05711044941715633,-0.11313715337924331,0.12339139043894488,-0.2183404572444849,-0.13374953086701014,-0.07357131016385265,-0.0977047211196828,-0.045313008948264,-0.14840703691930235,-0.18369090980817043,-0.15227470874292634,-0.06551384865567564,0.155698798621016,-0.15085321481016437,0.22135000244927716,0.15743359528554687,0.09239236246224655,-0.1201601274935677,-0.11526104042325085,0.046957252904917396,-0.06438083057758338,0.09756992210380311,-0.038308614953769436,-0.11741349818570794,-0.22422452175697216,-0.11834177686286612,0.0650638168672368,0.10889095701522497,0.024474954823513934,0.12350583936196852,0.13378163601041418,0.0766912869181244,-0.044941523418471026,0.18350632980144993,-0.14671507221763655,0.17492781473904587,-0.1791685293274929,-0.03266755304071837,-0.04820488488084787,0.07650830905738212,0.13430863141624544,-0.08832762193492984,0.04389149170260224,0.021853039476482074,0.04831287980988109,0.07655888588638568,0.1505064548211055,0.09333641226617569,-0.14633981885821543,0.12746894384608276,0.09486588452038106,-0.06076144095446029
-0.12605800776068515,-0.12593980347626502,-0.16453527717023647,0.15702198222832017,-0.18314560409778016,-0.04035850230551079,0.02706177786974546,0.124828240584936,0.11682695927326135,-0.03546533569349842,0.16941286989870843,-0.04041507739036382,-0.16408731325586695,-0.18980917344741768,-0.10773324694624258,0.19915597722031114,-0.1639204608600424,-0.017495513040358884,-0.14531585410738376,-0.10566210003354178,-0.06988733637539493,-0.11885961166732704,-0.19850222233823073,-0.17591277043766904,-0.031615249998548096,0.12458814518174238,-0.05998042304634751,0.029106626167155612,0.20123612740781674,0.10828395811426307,-0.13492168765618187,0.007098834297542007,0.16109578471807234,-0.21740715831872182,0.06405490422765817,0.0029888858961925643,-0.0908504407610493,-0.07148049670048713,-0.21256578993991224,0.16342949102363938,0.1751257289590507,-0.022332406188264355,0.028260696234908178,0.039583735843377585,0.04663219676733791,-0.003765786350126634,0.08204017105626885,-0.08813265835413163,0.17973318276368772,-0.18106484604339848,-0.03985034244715778,-0.07017381305426063,0.11296315743805585,0.0820819718001659,-0.15493709349260626,0.12604372917471976,-0.13804854261147712,0.1274914967805846,0.13735437917963644,0.15081833774349163,0.02561942879422891,-0.20429955505415823,0.07228424374606503,0.11862481450412196,-0.12245049301357569
-0.1414730547488724,-0.10028388409027161,-0.059752223785234995,0.1424533622695154,-0.19989225433128013,-0.045569321197659184,0.03540880354531212,0.22893520742508874,0.0966115536004765,-0.21156874727573904,0.04689662488945638,-0.035046802942365875,-0.1024444951966004,-0.1411867588555203,-0.08883992673701545,0.2148582647140414,-0.21588278680280676,-0.13288632409279075,-0.12868097143179671,-0.046991549128363196,-0.11975148437671163,-0.04991977167527165,-0.08485619198153338,-0.20430741742660188,-0.06585154911067487,0.1250310317546638,-0.061118311561639646,0.16368799029074949,0.09787210050619151,0.10707963555892021,-0.2027719872018259,-0.09783242867153844,0.18152842694467924,-0.04570348552409338,0.17374145594388388,0.014980033460981505,-0.019750778256765085,-0.05681596266191318,-0.11965638546593887,0.23225708382805826,0.09912888832887094,0.11330193487420412,0.07022213906771876,0.09492170121804228,0.0461426966239875,-0.04896230381889364,0.21528714991567496,-0.22633866218912213,0.09886056187186788,-0.1523687318428784,-0.16840381001945642,-0.04068576238556438,0.1612076156013927,0.08433001709537115,-0.19766010160610958,0.18480442039431752,-0.1380356413998576,0.086726385446314,0.05377638037380517,0.10013462966368532,0.1793128037576261,-0.12957089083098064,0.11322473672328617,0.0533047879614651,-0.0500746475910861
-0.13025551129184484,-0.16976446606001086,-0.20349971893424432,0.15904775799176568,-0.17522194860958273,-0.07268340249400591,0.17253787100963983,0.06660495076183977,0.16814974336841915,-0.07027798596589935,0.17445161142878973,-0.17993989701122168,-0.11768082719513055,-0.2158524998970636,-0.10723973117165014,0.06049352504223934,-0.06592424122888373,-0.07678080487893442,-0.003200625362354792,-0.027044005728457565,-0.020801433767640674,-0.14645511089208116,-0.06994210995829371,-0.14467785401108968,-0.042497816608612356,0.10328722776076672,-0.05570456634050217,0.07430968886456056,0.12980518876477756,0.14935803898353742,-0.10737289977073329,-0.07144360021644225,0.12934188138169778,-0.037880730395714685,0.14459637562362587,0.01822912702260095,-0.05689605191484375,-0.1491139422428826,-0.21552528388194536,0.1436905574542896,0.1480503347993824,0.014997395914988684,0.03402704806492009,0.1278462263945556,0.06800823581635843,0.0020119586789319943,0.06023078414765571,-0.20468189234846074,0.16750296314428392,-0.13823124512901086,-0.1709029112104704,-0.008295093418759815,0.13960803279554998,0.18632480780712538,-0.14534021121941842,0.06013396095677069,-0.026812238473508405,0.14957967054520643,0.046103388137786645,0.08211584849523462,0.17332369457232807,-0.12991138515238224,0.14253488680820353,0.11830799355318711,-0.0870945882168814
-0.1416549395343826,-0.04435959702173276,-0.18574637527532897,0.0350892774043193,-0.059139330150081985,-0.061502487340965,0.10755200817597872,0.22130943706430647,0.057614113053272804,-0.16475860056706562,0.15140446707000674,-0.08934227226451577,-0.11530098057712376,-0.1142764891950736,-0.1523678497888843,0.18932224842244905,-0.22851402858315356,-0.20205156933541185,-0.08027964496336551,-0.10218909211554911,0.0090128428590369,-0.04222371797468418,-0.1974669921786807,-0.10039951358418014,-0.12287223879542324,0.10785001493824449,0.019565571018945026,0.07318143477898029,0.08118304272869588,-0.00923226266445078,-0.13461266750095846,-0.09314306448575453,0.10116241325093331,-0.11206814841098718,0.051935188074836935,-0.01524426691858026,-0.03308071926665269,-0.20187525925041871,-0.07513544661436418,0.2337096218508648,0.07545791290376304,-0.014684455827416955,0.18686311090672708,0.14602780456929676,0.1376498845180186,0.09451433960071716,0.07575657270150292,-0.03893688362811327,0.04483173175839536,-0.16675891413601063,-0.12306130774841287,-0.12735150508036885,0.07033811796764144,0.19693821761561864,-0.1233902111628247,0.15532898805276002,0.02098080039139629,0.10906795964230691,0.20964461456605896,0.11303543465420209,0.03414113084499859,-0.09989033533646847,0.11966953292708957,0.19080213297395376,-0.140392011114079
-0.15294924543147126,-0.04305851901942904,-0.10688310842401613,0.18155301704445437,-0.15953654278013282,-0.008384962047510885,0.12783760299956043,0.06524373439128421,0.04997531598021606,-0.14510138382240065,0.17855183954083392,-0.15853856033666353,-0.057772815501737754,-0.07116144430279035,-0.057227730390964626,0.11059536337986987,-0.16216854489990087,-0.11864386798822164,-0.01745244702427444,-0.16821821708002882,0.03724176198473214,-0.2070062607154058,-0.21901635470025801,-0.09229471085594174,-0.05041025286412714,0.06433651870942231,-0.02898175032525098,0.10645044058947543,0.06652253287315862,0.06289110266766847,-0.045135478600274476,-0.09899175941321582,0.21240121966533,-0.07034343886875057,0.07522423117187861,0.07291037371330732,-0.12212388822079745,-0.12518239045802912,-0.2238802221552003,0.11847514959589539,0.10045805348182983,-0.023999266230363726,0.08040512161368979,0.21449104627094143,0.06546607789471748,0.11552425212431276,0.19884732947364644,-0.06745544594249346,0.16911189108588948,-0.16395757462268815,-0.07522729640687857,-0.09240689556443131,0.05890641491037644,0.23043480165491562,-0.06824303209616889,0.05934362559844684,-0.09528063188427253,0.1859226285719302,0.09830397817247179,0.17498642400945044,0.12550859717397791,-0.0868173294575178,0.09128992428551251,0.1633823975795386,-0.19933977592398294
-0.1284859102168627,-0.21163983582854481,-0.08806163064489977,0.030197878330054946,-0.14807819390624138,-0.08339094864442587,0.19774226459804303,0.11084123049376678,0.0517186121382465,-0.03403656750504301,0.14600928989445086,-0.0902889522119402,-0.09066535492635004,-0.10857382088410947,-0.22104929832930173,0.127852291359149,-0.19834205954041845,-0.0486540920120559,-0.11156579866239569,-0.05064375732415346,-0.0024029885643311317,-0.041603773439581215,-0.18141911317974563,-0.15065919133853467,-0.007545827879594991,0.18739527589204147,-0.010282258757006864,0.21766992400738877,0.055483632387014856,0.11164061869503185,-0.20792000396491736,-0.010322343720876351,0.03181562023258259,-0.14715595874183052,0.11556762224735305,0.05694696875227499,0.003833079285186041,-0.0827157049007586,-0.0968342550595197,0.1047528578394919,0.06791893268518334,-0.004984912000252686,0.20513837241706842,0.056080236692726174,0.14829286689611915,0.10448175708813683,0.17274423060359723,-0.02052234650376175,0.2019306342348097,-0.1781712322351935,-0.09118558066089422,-0.10239691309866636,0.19811402111506168,0.17126753960372712,-0.03898486953906223,0.15679754794628128,0.02121016946063076,0.13876526449163865,0.04724484959654493,0.10704408284015574,0.137785211718558,-0.16578702193242725,0.2074008923066136,0.05709385789960777,-0.17391772008263207
-0.12805055068567614,-0.04259976616566402,-0.1110819282884963,0.1705680462012284,-0.025631827255588033,0.0502152550725591,0.12982987761050113,0.1668705359248867,0.12915724172986837,-0.16144307131187435,0.02277273204111661,-0.16547483105958657,-0.2112151572986304,-0.19657210920567153,-0.11431553553517174,0.06792847466167216,-0.08366625920724781,-0.18804908564411982,-0.0954378840156127,-0.142598041937303,-0.04205750382106612,-0.21455479896645194,-0.14490216606955666,-0.17086561974939848,-0.03348137164512047,0.18249785093640852,0.022383587228848652,0.03859556763156022,0.11980085283416392,0.0423504343765659,-0.04660596478157421,-0.14072975096311777,0.054451968941902074,-0.1743250319955574,0.05236097851563104,0.030081024938360124,0.03866886732512535,-0.1101781061902084,-0.10032402610180667,0.10675319762116399,0.19482168675670833,0.018933369554273913,0.13659803830601555,0.1753923016101558,0.0199933944482269,-0.014310572450776726,0.1979070353283989,-0.019571404660761762,0.018471689557701516,-0.20992899938432472,-0.10724516907154708,-0.11834924532440337,0.11068583940429173,0.07508526132646483,-0.18668620485728343,0.06738665743166969,-0.10450401013335026,0.07838223835602479,0.08549009032029153,0.2215370325521296,0.0896866839342027,-0.21418223222128346,0.15028616972295986,0.19138560078744404,-0.13104608880157842
-0.110146649454564,-0.17402995932303963,-0.12845730239318204,0.09604350265175313,-0.027163377240552063,-0.012898146307932094,0.02247795851721544,0.10176396696766175,0.1451187097653755,-0.20189262892086213,0.1505096243792662,-0.17983468273737896,-0.10846200905815377,-0.03228340359900542,-0.19766707520157187,0.03708691914967742,-0.08045088859209278,-0.1987090425175759,0.00806540294544655,-0.15133240097491496,-0.10849601249625307,-0.11152167260111241,-0.16410710993607944,-0.08598618552940798,-0.09338313475379192,0.13894531477985272,-0.1179584937168458,0.03941895530217644,0.16509684005114086,0.0659719532191115,-0.11661591944727617,-0.06060750534763186,0.00741582770058117,-0.0778975280227833,0.19825929290295868,-0.0574813292189042,-0.10427391377211136,-0.10815130170943309,-0.1977949132492908,0.011715234846634542,0.10743757789991845,0.0019622739189773166,0.15972639410370118,0.139906114046943,0.1682129290140416,0.06878407459261801,0.1854020563764944,-0.16730607734695044,0.19567920442559344,-0.19578526081958997,-0.08301648784521459,-0.042425721123366796,0.20601147302630848,0.11361499556455287,-0.1476855981041282,0.1524602360796651,-0.08569557749021368,0.07077238239101272,0.040986948305690885,0.025650776866603543,0.16423962182578702,-0.16759349652077962,0.20368130594742537,0.051195080340157496,-0.0911897811217419
-0.12799821428559743,-0.20905390974716362,-0.04103900579292445,0.105811759505205,-0.18214027480977338,0.08494891674884994,0.13208938364586387,0.037215575255035334,0.04188296525388386,-0.1631594456636998,0.10907526743146297,-0.09183170596804985,-0.12176111478375674,-0.16804806286108329,-0.02316989964957803,0.19111523285443546,-0.12241066975958674,-0.11223202064427927,-0.09033868499178736,-0.021636414683252787,0.049500286992824244,-0.11110326499939584,-0.18556705738022958,-0.19571419417081898,0.0027923734238791756,0.07917276779894883,-0.14544661479800944,0.20645360665432738,0.20471370068606906,0.05899991890520721,-0.15034518837038197,-0.04332301908155893,0.18273491628057453,-0.09616705522826122,0.16017025116448502,0.031356339242917614,-0.04867480752421526,-0.06722932872954114,-0.0499417517013727,0.026155593429325913,0.051073347056745835,0.06631041820043007,0.06736753397091179,0.20667298932330225,0.1299665765495985,-0.03446822877322966,0.11636120625665439,-0.10247668830172535,0.21535586366898365,-0.1694385723652568,-0.07894346597380299,-0.13556813238719043,0.1774817289047644,0.22111293384153025,-0.06195675029129174,0.01538050809050114,-0.08834573663685376,0.16421525280781513,0.19490387184313088,0.06628380996538222,0.04274206253205863,-0.21742844141929818,0.11953969448192199,0.05954931784860098,-0.19050085803666186
-0.15830676890568582,-0.21969603593864206,-0.06541910599955371,0.07937458296505982,-0.06150496716249041,0.02703254279329759,0.1512038751516507,0.12654005237171104,0.19986779372531843,-0.07818238570172312,0.11468573510417497,-0.11993280800291008,-0.1958063387346679,-0.07408695667476972,-0.16673506798331142,0.12910339507958726,-0.12609525061263013,-0.07493864256774363,-0.04218398823137863,-0.08022921946349096,0.0027324886313944557,-0.13254201087969558,-0.06406487482819305,-0.07344297483041147,-0.0794133760773314,0.10136216867494306,-0.041463390212185695,0.06858920041969942,0.09705194691204624,0.07112922809767604,-0.09924170819084041,-0.09997424349359207,0.0707407051443718,-0.08035331430437279,0.17255110457125175,0.04347468177736641,-0.001531987627960381,-0.17292185755960582,-0.05954400373801411,0.11674708753065217,0.16504694103762893,0.09902215304953192,0.07906813665799511,0.04777838824725255,0.21448896570232354,0.10581757999921003,0.17473162943336548,-0.1330091088769486,0.06125463814008755,-0.05681324233713532,-0.022974197283940248,-0.15581914968596924,0.17127253662401937,0.07602985689806475,-0.12093593195112003,0.06768471279884711,8.191744313845263e-05,0.24903499803273474,0.21756970934114891,0.06713772685815192,0.22836771049850232,-0.18461757237957893,0.14119196903092426,0.14341711877972424,-0.19702878220103368
-0.13605214621959624,-0.07377952442699201,-0.20588244127286165,0.16533010797698974,-0.200536742913758,0.06280216604498658,0.15557157312112957,0.16843387905997784,0.19179511517815104,-0.038279716474514884,0.22046073300261151,-0.22447646894576598,-0.18314560504538113,-0.17021763870054796,-0.10533671638727204,0.12553034019638534,-0.04462812065143925,-0.1300803027868801,-0.11124552187566407,-0.11870642779655573,-0.06350058844221627,-0.1474142263579837,-0.11183899538952045,-0.13335333314897146,-0.04890746202039793,0.04551463750190609,0.00664649376293201,0.046012787550605325,0.1911239330121354,0.015555337403390926,-0.1762340808946109,0.0011410524020605117,0.11134430712920983,-0.126543609205825,0.057407688185812045,0.00342145359813525,-0.010454605374825959,-0.09075815554827822,-0.06986690710059856,0.037611896516097185,0.1327624017418841,0.0629857125725976,0.07093776795600143,0.07320718044266017,0.0620689323110709,0.08512454211327174,0.11549269902027134,-0.03549359983228179,0.05212964644925623,-0.22755342688480412,-0.07784550436536183,-0.01694688611255864,0.08081947712467187,0.12114249469740976,-0.15472738976100037,0.18082785686062194,-0.11240602066294117,0.1664533104530817,0.2227410373514779,0.16476593451796318,0.020601709842339895,-0.11652526328941738,0.15425173639013948,0.04300528422573717,-0.14957599082348758
-0.13643908104235697,-0.07948907534817046,-0.09095454186834265,0.06300575510888652,-0.08832351974894298,0.08699233618525293,0.17363060336629849,0.2074150218058352,0.1391356724089589,-0.04148851953817106,0.04935045467321042,-0.1606165946830036,-0.16060992225485118,-0.11298945580602057,-0.13826697976962016,0.08282965516208507,-0.18841264675863534,-0.08127071826644934,-0.019122750767358327,-0.1739391184980931,0.013161864743007033,-0.11567806681358776,-0.20214289427895052,-0.03540212051029685,-0.018789829432243155,0.07170507836289701,-0.06617735939942808,0.1012268884829853,0.20443316849208462,0.08771719693335407,-0.03797293356881214,-0.06459653764417864,0.10357755035715918,-0.041338246831084786,0.21902611240232858,0.026632282549704067,-0.09798322875810955,-0.06761232264524289,-0.05772717556006974,0.08668280429389814,0.1196098087573889,0.08894982750501408,0.21298335591447212,0.20144160582951234,0.21500430800691347,0.10509179860822476,0.13320535619168078,-0.07551887791278672,0.1809617853410279,-0.10571204362700518,-0.17537073834977507,-0.1808056570330906,0.09685409115762675,0.21744425237695542,-0.20108608806860315,0.03702682725181635,-0.0962925086940627,0.19361004735114315,0.08507548176692313,0.06650024120207713,0.17111565532798187,-0.03177909974861392,0.1289944208317341,0.21230035722081392,-0.1529218562165696
-0.1415233880733925,-0.13094288018690675,-0.20783074928593584,0.05556962646603285,-0.13235158888004273,0.0512964281595203,0.06715097314585465,0.089641386977868,0.06084473560976565,-0.15461365063670354,0.04696310222938527,-0.06500789639698686,-0.07194209515123827,-0.12054347610949318,-0.11703884039689745,0.1631016594581912,-0.19204893949211402,-0.052067578344862094,-0.12525186855729648,-0.11142081643014082,-0.07889601250718543,-0.22662479754176962,-0.1792012912606082,-0.13862324058260395,-0.03608184209505925,0.10757395063493007,-0.119152824949051,0.21388213279698923,0.14445950166294844,0.05231991535975443,-0.05980263894790475,-0.09210404740738289,0.11383586543297905,-0.180229175988546,0.22989672164121838,0.10729596876633742,-0.03572725856504143,-0.1688341428542304,-0.08818835628273708,0.05498694131570203,0.1783124854749149,-0.014822685708312572,0.19756390112081101,0.08337001871507553,0.045552193810082346,-0.03879750876227072,0.14381221739799202,-0.08587072112307088,0.02910475216836917,-0.221612354358966,-0.07336175062280069,-0.1003200881722225,0.14213164223802083,0.1299465794487742,-0.2035436499906621,0.04777995238826212,-0.1109067574036719,0.07349039991248671,0.2034853552412798,0.1842860363368027,0.026330036129288432,-0.11624006919842454,0.08601003570713484,0.11032387304081663,-0.11685747931256935
-0.13144586764835375,-0.19223564958921271,-0.11187966977429202,0.09209587443246584,-0.13876761690247952,0.010579339277915776,0.08258218848055777,0.029044318967719952,0.10608574929356936,-0.17436654511565503,0.21740780619135253,-0.07389936877872501,-0.045275665532141574,-0.03865218684733792,-0.1446411784406208,0.1998717037646912,-0.12156398575074044,-0.1288737515112362,-0.034135201203701365,-0.04430545783048441,0.05373492378900328,-0.05446703489957255,-0.03663934888687716,-0.1748452741918397,-0.007543138353717276,0.11571165205001685,-0.08055613591927226,0.20771933963828715,0.09460965024664814,0.1432439417111189,-0.1135149276364084,-0.07608595921404872,0.14943561920717507,-0.09864884092142265,0.18630237818138476,0.09255664233563239,-0.015490320971651674,-0.07850865593388091,-0.14893422545418944,0.15972450412838224,0.0800497012837475,-0.01863359071540324,0.10057973612689472,0.1913660889387288,0.21681374557358446,0.02735188915895348,0.186622861681079,-0.10004590480332949,0.1360817189705747,-0.16680754680119003,-0.11830279869210107,-0.17700276930246214,0.10931926663793048,0.03908888280104431,-0.08762839914447763,0.20815562304150953,-0.08679040230660043,0.11200490566266436,0.1250039118972702,0.04789430367285205,0.20540068291648603,-0.18965457600767355,0.18905224516717978,0.040345639028929035,-0.11017105517065022
-0.12365679198915841,-0.12544816720052893,-0.11599136479764506,0.1886843381983289,-0.06006417143177497,-0.0010498177969659524,0.144996408226257,0.18153894575218846,0.16288812590872784,-0.1904455657600353,0.19053110053705802,-0.11213273288911596,-0.1309675631959537,-0.20143833728747756,-0.11455031197124384,0.12801469156279158,-0.061122038000265444,-0.07398795629860169,-0.056517592809220696,-0.07437288703108351,-0.11802402265193862,-0.17138772150459664,-0.09819310529083713,-0.10651188365247558,-0.007492466473634599,0.07322226184911335,-0.08157906586957393,0.11514940171458023,0.07106658804820973,0.1484406439264373,-0.02442485343581842,-0.09598457005212813,0.03597595287836873,-0.13523683931991007,0.03954914821451837,-0.0555343157959978,0.034950732009774214,-0.17389020829936155,-0.08671865947336725,0.17591585044482128,0.1693987172790972,0.07526511042978301,0.10823060320289311,0.06865707369197423,0.15902947694146638,0.06625569832873729,0.11513392878278939,-0.08929587934884889,0.05341523622702615,-0.07714720936473064,-0.1226520276572459,-0.02004983434033401,0.17219675462657494,0.1794426697462706,-0.14156443139197367,0.1465922295353074,-0.10684421524259474,0.1845794546132778,0.09993910846374407,0.13805026570987572,0.1285051610017294,-0.2080618007223916,0.18865186860449684,0.14506199623545535,-0.09780505721593388
-0.13796759563366456,-0.18561914788297948,-0.22618678393052793,0.06425090251485091,-0.1580269333276522,0.05701932875024305,0.0632964523823962,0.04674401342176977,0.1352939783055366,-0.1240346007005092,0.2042745565793846,-0.06885805965297526,-0.09801630690910053,-0.12721275751493302,-0.1686272063112987,0.13660731479062702,-0.06248639657450858,-0.12117645568298582,-0.06507677903946599,-0.15172767225562733,-0.12422164179414581,-0.05977949625541455,-0.03418782846341307,-0.1996117615414474,-0.09017993407464474,0.07140465618680299,0.0022490376684366075,0.09348767315460756,0.14573442500909126,0.03086438985585211,-0.099724659796895,-0.024731989554861906,0.19388886248878787,-0.10791183318551908,0.17730494035816335,-0.019629393938569634,-0.02268174340294436,-0.14138148612797333,-0.1592678549443643,0.06055138026011273,0.14443877465357577,0.10472358255493519,0.05563451769798841,0.08768055083275157,0.14229131618023383,0.03125434196920692,0.10673620694554856,-0.06123594013351233,0.20716024537748715,-0.05179401723779513,-0.16758913858268107,-0.02061763281981292,0.03771714040021631,0.17378010497987206,-0.20084350176190344,0.09431515041829934,0.01630707329779311,0.131961013896539,0.16652438255136884,0.16620678740708494,0.2069293545055749,-0.12574324373132462,0.06483674054154119,0.10409190272475599,-0.21228371981229677
-0.11995538455620282,-0.0854858993941269,-0.1658010867573969,0.08888201539589312,-0.07292424968937046,0.04779678159319214,0.10799047596408465,0.14194978654463503,0.20260463319218014,-0.20965553364383946,0.1429780546834822,-0.17652576064556855,-0.1499721024611321,-0.14270672747407617,-0.2024404417760775,0.18485100169936527,-0.08985787007946865,-0.05309488460639925,-0.09907601659961694,-0.05792137802844815,-0.10142061479453822,-0.18214851180595673,-0.09870598266895075,-0.02146840663302436,0.04006159044718946,0.20627311296428705,-0.06824851502436732,0.17940286545528197,0.12726402667066508,0.1410407098590258,-0.14901700382754127,-0.026949228469958966,0.03478538378425861,-0.09454761874732627,0.09638831781591012,0.025361104757213274,-0.028524393467175127,-0.17633972177322843,-0.11270918685496126,0.16212233611627744,0.07459154728741753,0.000583156101342882,0.07810390148767032,0.015443443839449223,0.08972463665392043,0.04925602907175813,0.16901185375115252,-0.14055640508817172,0.10738861695255282,-0.19583447820090016,-0.12389907683333372,-0.04399633453659485,0.13468248147345202,0.19867383190097876,-0.11001750263675043,0.10479851835533001,-0.12177163371424235,0.18018082091434315,0.06543058717028702,0.10124041537452454,0.0411548051252955,-0.06083036497064128,0.10377426670346346,0.1547562257396662,-0.1291888755200951
-0.13791360985934675,-0.1083743747980374,-0.07201297246049146,0.06852375776962943,-0.20199385594831906,-0.027454384157593645,0.17424501800246467,0.09738857385152348,0.15840444592790928,-0.16128674428582057,0.0787281293874966,-0.05139815527901551,-0.21088044420391985,-0.17087913944908345,-0.06864246788988819,0.17628931799568062,-0.1735448011837706,-0.20709999278199462,-0.07994447087689686,-0.2110735592147244,-0.05424788530257784,-0.19716761152085913,-0.14573296059095578,-0.028743246963418304,0.01601315486901112,0.043008424936425614,-0.058428466015311674,0.13835232828967522,0.03694264964894997,0.06829732346557109,-0.19509013561821642,-0.06046354900556262,0.05887902742520649,-0.2056953721086385,0.18971382501524406,0.049583518018339934,-0.024461875450855226,-0.12452123549974468,-0.18418736481812575,0.1802403195976957,0.16076995441862835,-0.04916715960580157,0.04239681913878951,0.03598964526619659,0.03834398455282349,-0.0014655128611543858,0.15939948739319895,-0.10610923174670621,0.04836896837792282,-0.14603607178520323,-0.027193858668908232,-0.13178108272771474,0.2212654583892414,0.03619229676277305,-0.06927301687749476,0.0776571194665567,-0.09552778505875412,0.08540894566213304,0.08277236016032359,0.1139236946056692,0.13509345011079962,-0.11641784841402048,0.16014950891922333,0.09583218488221848,-0.07985675721022795
-0.119767847574707,-0.16591613309372133,-0.14345616755772378,0.028256000719668762,-0.07218399542657504,0.03563069736906727,0.08711634366051711,0.08409694548451362,0.059623467550440984,-0.15759158580954497,0.21380707219881767,-0.04871634775497216,-0.16419735446882974,-0.1269223195163216,-0.013747547519922042,0.08967496606223772,-0.17330049857460267,-0.1743192867984949,-0.039646757785266475,-0.15241184348892076,0.04384821368618015,-0.07967980238595908,-0.21326346011193176,-0.03824846083443012,0.020279093220196494,0.18164236766988592,-0.124753004238,0.07031821147806286,0.19277170123862522,0.015313285431535163,-0.036885172425834924,-0.030341271506033777,0.07454799368276994,-0.046544269198441394,0.07559518597525888,0.06369112771850362,-0.06596295311583197,-0.04046128999282726,-0.1585053133808569,0.21004197089805662,0.1613542151269234,-0.035364933802071424,0.20136893128539704,0.028344202914755603,0.07904342069769098,-0.027317022979527525,0.18518510952705755,-0.17186082795963065,0.05148724929939703,-0.1480036584552769,-0.03825183670910444,-0.09194119582236435,0.1414405089810988,0.21345809661400067,-0.16416860545737055,0.19846557756502056,0.015266517239042737,0.11376616671699133,0.016436091169384198,0.178763917555273,0.06580628136969063,-0.1436937831068458,0.13017293072262415,0.135468596501853,-0.20028197768363842
-0.13423050705194,-0.057405627593571366,-0.21502973535725156,0.13095294059707452,-0.11615033936846048,-0.006706529766883954,0.13690485334465216,0.15411320288385985,0.09763622557096403,-0.1558794611319341,0.11669123228676098,-0.19213784045078852,-0.11875496218027289,-0.1582991291236864,-0.0751746980827144,0.07845305193782619,-0.18316679778714406,-0.09322438212100011,-0.06596980257470085,-0.12610625862159913,-0.05506822692464731,-0.11182888927781674,-0.06331004042186207,-0.09663820659393368,-0.1056453971428685,0.1508754733838249,-0.11003394834304728,0.1876845075694093,0.10499358215762139,0.16405042823418975,-0.14607500802412182,-0.05345990537028536,0.19902071871649357,-0.08293718786587341,0.1863712516679943,0.06666043438919116,-0.07188922964604179,-0.216874119747971,-0.05602662067496441,0.08068035099547276,0.1814696641537829,-0.056762428483695906,0.06691264024726877,0.10827612197157524,0.12738945710400074,-0.01328905752417084,0.08851672250655011,-0.050958703462898804,0.02443463188692234,-0.11943030628520634,-0.12143877954240685,-0.022579984170408525,0.05748568814312878,0.10981482273632656,-0.1876082353159821,0.16259984475065498,-0.06833674061859144,0.16888468737891218,0.024626467367470716,0.04179047853438255,0.15715606991344067,-0.046238948767125955,0.1432183139892485,0.18314096036780061,-0.09622516249630925
-0.1293422958354209,-0.1769002211952949,-0.09819685891553058,0.1307411250514808,-0.04271046536996227,0.030731237324691095,0.16732070742378993,0.16719910449838962,0.14167557904113587,-0.1798435776850307,0.0288906593349911,-0.04751654312926626,-0.09850358301770305,-0.08635736597828939,-0.18499569536076924,0.19657684375001827,-0.19187792026277592,-0.06446792808254459,0.0177776243545289,-0.09819145916887924,-0.05620542983936495,-0.06840161431391566,-0.21500356050472064,-0.1899363713473159,-0.06562787422603993,0.19972240963129773,0.014366839214731092,0.032554112255103095,0.04863172800905433,0.16244804250596917,-0.19080866751741854,-0.16493987701566146,0.05734032357294094,-0.058146621645052556,0.033321159548506146,-0.045350857942392395,0.03647885838670516,-0.10225897457791022,-0.20072829722059285,0.2034055074172118,0.16900400869738771,0.04273597474036877,0.1644544914196909,0.18835407513989966,0.041422792098387354,0.04063126941004564,0.10294221636516185,-0.08159479195142519,0.21012414725318404,-0.16904647521582702,-0.03051222943391756,-0.1127886544195744,0.14519713539455445,0.07321395399047893,-0.0664927367691509,0.09369585491287971,0.027876726496278533,0.12873006919487906,0.16849418182860215,0.15153309135823143,0.02640381577782735,-0.18124552862247031,0.04367085575138345,0.11289680869222873,-0.11174137255761687
-0.12882257430987176,-0.13707996496564026,-0.21401246526857023,0.03375333841024589,-0.04310494610915646,-0.015336374033113094,0.13997509977191622,0.06358755329156775,0.1174636832254622,-0.1338656979331517,0.11687904516112038,-0.21895407600608913,-0.09910523907315397,-0.21018060194592839,-0.15497222302719588,0.14932899085260348,-0.02727606760755036,-0.15520827848236013,-0.11552449380026855,-0.2074936996544276,-0.027780590590757288,-0.04712819376068786,-0.07799370331922818,-0.08232431545220692,-0.09648189141100169,0.18262240577131525,-0.02458554176709251,0.157660224318812,0.0890318172299966,0.032103965727199306,-0.15089029426882009,-0.14990786658005847,0.036798264223949544,-0.08026865640948527,0.0304432131189269,0.08193734302962528,-0.11347730091197421,-0.1741998096035823,-0.15869041337879175,0.16251571438711573,0.10402371749080346,0.07769424342905623,0.03366654395045373,0.1770705210978378,0.16650126189838602,0.04168080670273891,0.14577995669522764,-0.156658883988257,0.15752166885981234,-0.03214041289158008,-0.10581747488684881,-0.1284190651002704,0.1318797212822179,0.11891882429927508,-0.04534833137721125,0.11869576311465294,0.030988651118921042,0.04972897075471652,0.13302796127923233,0.13606682402830833,0.19018822438887825,-0.18884456121487267,0.1088448280319113,0.05250137567057355,-0.20832508086026327
-0.1305765727546677,-0.019367600100743933,-0.2057538671007597,0.18767108545926298,-0.2034284480363178,-0.08569458985460508,0.018702477530001253,0.17647638485231232,0.14684118923216816,-0.1746352289579762,0.10369409599700888,-0.08934855295637102,-0.04920094268972175,-0.0234511886936636,-0.04102099573114227,0.19800438341963017,-0.05538260576176157,-0.12553470899417454,-0.14163162225853415,-0.10377779751591894,-0.006806647082916367,-0.06076325444421282,-0.13332653025604047,-0.2000174903980315,-0.02284194469960957,0.042125432907630954,-0.12131876144913979,0.21357464393592981,0.16221387580784657,-0.009397858760178596,-0.14093605230657694,-0.07433144007423308,0.21695191926843677,-0.08240643887668578,0.02866274600903397,0.07378440506435169,-0.06853266480631012,-0.20867434939160218,-0.1895691528974345,0.1911304914410314,0.19655171558136952,0.07558777071804666,0.20311655169198123,0.06044917872455132,0.14684917616976062,0.07153009765033218,0.02714154654206968,-0.08325569311470817,0.15237020663523299,-0.20317686584849154,-0.06568335767558735,-0.18347081866700746,0.1948649288184803,0.10783542667002013,-0.1880576777138134,0.07717913510607798,-0.021875364176823734,0.03455483442328397,0.1743467215596094,0.03462418465589819,0.17596859768771125,-0.04743055095339011,0.08560824332973202,0.10207028651765043,-0.021495908053793634
-0.1553186031659456,-0.17341035450608627,-0.1856985943386471,0.05779011691362067,-0.1931411024111653,-0.006812749447940496,0.12634651721581952,0.09649197976866995,0.08381611289718514,-0.11920895356363038,0.059673780462107036,-0.07322047529476688,-0.2119913812140728,-0.2184481524060696,-0.056096663268649934,0.05512782049697756,-0.22894098431997092,-0.12306008291009303,-0.011685105403405473,-0.13879140433320183,-0.06290201089910691,-0.06380650688861617,-0.23944790924925355,-0.06685539004836315,-0.01725190728749052,0.20225886856933153,-0.021572986679375388,0.09461652136559297,0.1577488161745447,0.13349057957152294,-0.0948543011440418,-0.10148270736888053,0.10609975195667683,-0.05015998886195963,0.059938249656356225,0.0697972507576421,-0.016545096163772737,-0.14567202150772085,-0.09584560700501105,0.10236218844843284,0.05617939329665482,-0.04136544330158552,0.19667113880716472,0.121372953888173,0.08018826585090573,0.05079875309846535,0.08689957264914827,-0.05614353593346633,0.08326141109614435,-0.10638408568895863,-0.20377259679871143,-0.0479820976188649,0.0885376391512524,0.1662864150036092,-0.19361655530685154,0.0369353027358906,-0.11312057775219081,0.09562108306402121,0.10647768714459874,0.15955919037154673,0.14650663657045146,-0.07391759667270839,0.2213903175105406,0.05775112890145872,-0.23918087089548812
-0.12851728134578014,-0.19853737089430076,-0.06998876642443339,0.0809456958168302,-0.15137815165613408,0.05110644572850485,0.16672621538584972,0.07537863345340926,0.17244291675051568,-0.16887983569607515,0.13864010938601504,-0.08491127111019757,-0.19351045677062534,-0.18881349417268448,-0.11460670013500512,0.16884635325157515,-0.17138089703689557,-0.10024276965922656,-0.11663155395940607,-0.09933024796792059,-0.031066366097341435,-0.07338333236770872,-0.13247868016581804,-0.08284196514833,0.019032048655324738,0.0555186239113588,-0.13272803666671615,0.03510012932919809,0.19777818421603294,0.16357594922460547,-0.09658654718501021,-0.1702209880875829,0.05367149909144148,-0.1982851163047365,0.21266922394161716,-0.0028368391454136567,-0.04268979357748577,-0.1451021269618901,-0.12076435227580473,0.18842088842706087,0.1820557698732144,0.07746936651030671,0.1845576321747155,0.08038656238332989,0.11989601286864242,0.04263936046471549,0.026706062176810562,-0.01854450788718222,0.16575328954771773,-0.11286844098694204,-0.11789636277141352,-0.10991579086689192,0.08314805734600358,0.10552689888295219,-0.152301167585345,0.07723959273958483,-0.04040176361918573,0.1894349333526751,0.03631658906356438,0.06867277253992601,0.13964981341232569,-0.06656674372332756,0.21421638208147992,0.052339549436307385,-0.08182591852899768
-0.1309625407761387,-0.18915837363414337,-0.1473641350863108,0.16533650662749014,-0.06872060454639055,-0.061703151913922664,0.19224008671182988,0.11822555007513881,0.041967730798742386,-0.07422616421168433,0.179882677731528,-0.08506651264787757,-0.1072031789582782,-0.07507410898542552,-0.08067013733695715,0.044313569662752156,-0.08756182232881801,-0.19632239833431248,-0.10359041117814341,-0.20967776355992573,-0.016684364259277433,-0.16163030014352192,-0.1290059138820407,-0.0328222098864452,0.030578101067035426,0.1698528685160726,-0.0183111424736296,0.19373809934346745,0.05701043700559524,0.16217140462871685,-0.10919713872632938,-0.1678057824920722,0.1531841065143075,-0.14313068526823425,0.21524134075222945,-0.03591028587359416,-0.0013727439414666553,-0.11344434633763006,-0.06583602082840281,0.04398676276535983,0.12612529978815992,-0.037869105194859545,0.19848445699717063,0.20148654932832546,0.10737932472465513,0.05335707277011646,0.09339568184108514,-0.15009966205435468,0.08205726937093769,-0.04133044452206955,-0.11251270169188164,-0.05749509251555397,0.05695377866293025,0.15812667401148686,-0.14050815099886227,0.02270578754752224,-0.040367001948981136,0.08063736277240928,0.05784639538157393,0.09816307148500594,0.10177712728127797,-0.21110434643102619,0.22270808060082883,0.1467134157786178,-0.16888343794152386
-0.12311371487024472,-0.20646488317404066,-0.08243373513340341,0.2085718496264419,-0.04339412966713152,0.03853993936548299,0.04164025748948781,0.13896450761106907,0.11950760626847992,-0.16692844799563814,0.18161207448067934,-0.1801216253599053,-0.09419690179332935,-0.1945490810052484,-0.09976010106895211,0.08296812877865822,-0.1161236956905811,-0.05604181228377903,0.015309742600874416,-0.17750512254224096,-0.11012845913586257,-0.019814010823016016,-0.14425410746136297,-0.13192544916858448,-0.027850012218878322,0.04600469527390528,-0.09421514279977143,0.16263092629096032,0.09509953259511185,0.13807670186919516,-0.05084334627155496,0.015139362678646214,0.20864613687510555,-0.05037125199849919,0.154787817019158,0.08193171082702608,-0.009743140434028446,-0.20648855961240106,-0.021271731209019127,0.09570144450087828,0.21381338807127911,-0.036562086074371065,0.11403242946817932,0.1858917678475332,0.15526770827503558,0.015597749025808216,0.11498036567401336,-0.17919167680735304,0.13492827177602057,-0.15936163627827146,-0.10063422419372547,-0.10861431454242625,0.050283991208225805,0.19180673856427655,-0.16066763793827685,0.13731284621651316,0.011672742707193576,0.08608642322849216,0.1910587220776809,0.09411797989192199,0.06091440964134602,-0.04106021943211645,0.04841198335063956,0.19489913509199397,-0.05479115819675928
-0.13277918640851863,-0.06433663659889247,-0.0337833963809102,0.1457388037966624,-0.14313782123128826,0.047273719244043874,0.1940960947290001,0.1874113267357526,0.05300494131169892,-0.09765063208263142,0.06291194733684875,-0.13788218460546142,-0.09405381425831322,-0.152577173699192,-0.05860165943316958,0.17140282399392565,-0.02636110762683637,-0.10784256036883592,-0.009230646507351085,-0.17340478199809656,-0.054469641364067414,-0.0309099283378315,-0.09125247907893916,-0.06058960333774529,-0.1023132279503886,0.15979809910611043,-0.11570918151311453,0.057734093496745034,0.07229258461718738,0.15508376257169526,-0.04909736115613908,-0.14463793675723424,0.09733924266222012,-0.09905606785407552,0.06935314121654267,0.05284959524798423,0.021815905488194762,-0.11654606096072678,-0.10720483740362265,0.10095693061469958,0.0685529453789345,0.020384106886412855,0.2132227113905967,0.20260988197464622,0.15316038683372504,0.09183960131794425,0.22593610636558878,-0.2080214779342592,0.1635372957245696,-0.15575247523022165,-0.07849564021549725,-0.16314197610165238,0.13833548878126728,0.17612023824205636,-0.09807360439933965,0.11201131854685856,-0.1265744676212844,0.19936316622517863,0.09202558637544203,0.11755575875038561,0.18922647799556372,-0.15094732877124423,0.14051246468895648,0.1717634269595175,-0.16342179304924226
-0.12449688382586169,-0.08411085585855635,-0.12120773345457454,0.16178609428242552,-0.07587658034978312,-0.08305101425740784,0.058124647515141084,0.20567651141694135,0.10844268289823845,-0.06505605411386192,0.16438532542225806,-0.1837802179494046,-0.2038656754012419,-0.05348291769231269,-0.09274979453971596,0.13872451839778896,-0.19355090216562848,-0.1512524176661327,-0.055419276150379435,-0.08148561928134722,0.048820136495688636,-0.11155217285990147,-0.055103440748059236,-0.149295124403025,-0.04315198506839054,0.026394509162443347,-0.08080923047425262,0.17923785932830535,0.014172944018519044,0.02752995999938493,-0.1225269749405448,-0.0025849377410501104,0.06811599420882655,-0.16571833710675712,0.16119816244307691,0.01573571625394283,-0.047586860276815995,-0.13502648565095388,-0.13760722561220254,0.13506445768563516,0.07273443857941136,0.08780819616808984,0.21928833114860236,0.17890144803576175,0.09789136190626382,0.07736020142044296,0.03934029700245428,-0.10546905433613522,0.06526233217984498,-0.09380570406810232,-0.12407657739098123,-0.17275430281286294,0.18521169417907019,0.19947502667603695,-0.11842909364836522,0.2066379489777107,-0.09814701206468526,0.15060243336960316,0.0889344961690468,0.11500394976472553,0.15510531436275982,-0.20134096846370753,0.08636915457060643,0.17391188886484638,-0.02635359515724669
-0.1297885679017182,-0.15745872259213298,-0.1278068794261272,0.17471877383505804,-0.19601669771043226,0.01059973338335152,0.056345469625534245,0.21354538850700513,0.06651519308373652,-0.21266366821186564,0.09476766085152245,-0.06538107425843093,-0.19266862627389789,-0.12055567995529642,-0.17334769717687393,0.07828816120368684,-0.1965986758241097,-0.020376888136280743,-0.03384166338951233,-0.20318730799677376,-0.033279616035418666,-0.10663157179596795,-0.18823541246867118,-0.034730953311875416,-0.06991153651934111,0.21000982484391625,-0.022402993082475207,0.12823290291172956,0.016449505881202437,0.0834433765365443,-0.08439052667924025,-0.12346095936520028,0.21551405538375554,-0.08050310139269738,0.056883576399171305,0.03715847542450417,-0.03342474929938666,-0.18247941419699412,-0.18476092572622888,0.0830774478595801,0.09378789750726074,-0.050831786869568324,0.1598561271608691,0.19778769722001743,0.02994623316311973,-0.008097054217498628,0.04044391262827235,-0.1294822648472672,0.10041736465795954,-0.05419801088817441,-0.0835562620101602,-0.022588407823230783,0.08756249740488864,0.16928025509690695,-0.19327483027341044,0.1232517276664399,-0.012792907765666562,0.07901256374046105,0.19982532934330113,0.05239690667762309,0.14116268522980166,-0.05278877683049691,0.20508835902293585,0.05648082557046738,-0.08106685677808576
-0.13366979545768443,-0.11168293110564781,-0.06218252794914027,0.19329913625384335,-0.06610067214712131,-0.05645129177609217,0.16570011662558104,0.058926851588338026,0.1435717950699419,-0.11520246815994765,0.08463067059418185,-0.059580524807355956,-0.12646952238401885,-0.09830650790190963,-0.17126986346781475,0.2244787027050841,-0.06214275132645887,-0.03908033135628402,-0.0002984541817235104,-0.20928720569673093,-0.012155960768219686,-0.07450496837991058,-0.08978140650248824,-0.06659009966631652,-0.007627032548622758,0.12196141237021312,-0.08161882616381888,0.19032991252812562,0.04715183881821948,0.11953388484400032,-0.1931401043533108,-0.10083366192309519,0.22135606727359963,-0.19850397522121524,0.030515823113858028,0.08568121856977128,0.013621641797721873,-0.056435637473402064,-0.1701425714587821,0.20118033429218724,0.11413247326248112,-0.025961521594892265,0.051007823989214995,0.04207111533179313,0.0990938651106341,0.08882042568082148,0.1445404588082905,-0.09976721690113367,0.17436276034982554,-0.11089102109987385,-0.14846874285902895,-0.09866403893019739,0.22252009149713173,0.1013371022916014,-0.12912852019370602,0.19122457836313128,-0.05614403815925106,0.036379621018905635,0.14899053384109695,0.10596903357935514,0.10978393499135701,-0.10462554222398306,0.19566485665157737,0.21022577774266044,-0.17440248253343116
-0.1233944666573501,-0.19511193073112137,-0.2079778073397368,0.1435109725764995,-0.0780594798383276,-0.02019345578047313,0.04534039205825843,0.1761683028821702,0.156213304502216,-0.1548478120230566,0.10295290954285907,-0.09587358150519186,-0.13685040039192517,-0.16193001346130106,-0.018756541444534865,0.15163399426693935,-0.17933215300124816,-0.19220293238643743,-0.028027057034070393,-0.16525727415099684,-0.01844659349241009,-0.18863423822199563,-0.10186930676738251,-0.0649463548642651,-0.06522990161852985,0.07881369929534056,-0.112023268672863,0.1368818838444321,0.11991210304770632,0.049691382147496285,-0.15037554764685304,-0.12692302676189923,0.07831617101962288,-0.18153946386260075,0.20304641588327835,-0.0429302048548207,-0.13392443382523536,-0.03070250741854282,-0.15626640123742908,0.1035929590070694,0.019040884053129616,0.09652904841102915,0.15290126262183143,0.03589713838874183,0.12020713358613383,0.055567511971993534,0.21333444239780144,-0.11824315076372759,0.04297156066529032,-0.023192634363409265,-0.1139655564722178,-0.10766126076058141,0.15601189731161486,0.17398429147217073,-0.07884842284053105,0.03277973074480319,-0.035577754035073995,0.04320002997919216,0.13285641387445887,0.1883962145369521,0.20732734616912724,-0.15754038968708392,0.11430974857116283,0.17948725039177665,-0.051369724408660083
-0.1351413248457883,-0.18877161797034048,-0.035554579834058096,0.13106651997938362,-0.03370261267826989,-0.001622598440423864,0.18286270844042943,0.22137873486297618,0.0724798339672419,-0.0827732617413082,0.12179171533280772,-0.06832277596893092,-0.13662911139162348,-0.07490687072236168,-0.16160786871913108,0.12303533292882907,-0.08913246736389888,-0.04357925984055175,-0.02770603936225962,-0.09568786587518716,-0.11892848003708457,-0.08834925760226141,-0.16482967059934753,-0.10389997814422737,-0.11575161982533788,0.09442014958153619,-0.12002351204166982,0.13548426950276252,0.20711993265236825,0.09252205803024312,-0.19804383364229874,-0.11454383498788516,0.07687661317530398,-0.036468047821963626,0.03381554974690642,-0.06870858375334996,-0.08280074342177023,-0.0541170363012427,-0.181784274492215,0.08299744906676798,0.18385288868143027,0.09303628071952652,0.05897480506340346,0.06258772201645105,0.14197173882208722,0.07558513776907066,0.22154071776695453,-0.11505756754077018,0.1857448349824102,-0.17283180685306046,-0.06518767685755325,-0.10297967627485462,0.08694629079700159,0.12658103940966495,-0.2171563098195924,0.1039226652032398,-0.11868516303683822,0.1886180205279959,0.18396682867181074,0.10306894082860228,0.1650172363961425,-0.10167901160974331,0.19856886676996877,0.10155583814144734,-0.15597190853609216
-0.15236549218557902,-0.0805279072505357,-0.12011782979574119,0.07125099607854601,-0.1158534450707458,-0.03997730770476927,0.0762726948846665,0.0489671076573842,0.13771123236030802,-0.05062273616647329,0.04511544639383528,-0.22254598175107343,-0.0543786555768017,-0.1506666803789649,-0.11740429546837464,0.16998345451391855,-0.12626818387693547,-0.07136463371496715,-0.03227685237563488,-0.16569460041865025,-0.0011044813760171842,-0.11118580524765355,-0.1328723479283285,-0.1943125603568989,0.01561354741199826,0.21144286807075513,-0.04990677068351176,0.15980833526031013,0.13586847765744625,0.008452368566405454,-0.1663138415436725,-0.17698491501677072,0.18254794560972804,-0.09392678570784668,0.15114228155707551,-0.008536446590048489,-0.12567602507305786,-0.04884755804140535,-0.1577266353855596,0.166475843915793,0.1456728525724533,0.02500052492458635,0.22216402034451288,0.07959622837268747,0.0732384330139771,0.040466996168382306,0.14114532903796756,-0.045019245710011736,0.04792952351702018,-0.2020027667508091,-0.11752398967003601,-0.17678495423908375,0.2379551650209358,0.2105113571905823,-0.22514766892355836,0.14553403815821134,-0.13407211711460235,0.07914564956590096,0.07859765238233522,0.14546278562439954,0.04262521193619057,-0.12067590949011857,0.16228073291548326,0.03852544371728373,-0.04306402990744254
-0.14801294307652904,-0.12057250442794427,-0.1129619509838887,0.03860642151255242,-0.15659649454955243,0.0012999550388559198,0.08779759010948314,0.08822024435267184,0.041908427130920814,-0.06428074369007698,0.15150552846933496,-0.16331996758171624,-0.09485893506080438,-0.21345927857556174,-0.11461261530395424,0.13142216632518983,-0.0482347717344996,-0.20425937020406515,-0.025209071557626937,-0.1790577154615002,-0.02856601411865362,-0.19169773848382454,-0.10323836965345608,-0.13321360861198833,-0.024996987757886547,0.21726718230333475,-0.14020014582743287,0.06899449072197729,0.1252905083275028,0.14469546587336984,-0.14275746065127976,-0.15870583752681972,0.09999050605023233,-0.050183839665881386,0.05354115579748164,0.06410527601066093,-0.12636651838012491,-0.22457569828957105,-0.18921406226841136,0.048329421960005524,0.09673459859532188,-0.024221673174919533,0.09701563594479788,0.17048739718719988,0.20115855890856227,0.060471156739805514,0.0692192470212999,-0.19952300167130863,0.14614842505208342,-0.14365282836217627,-0.0240656033450461,-0.16967461008584933,0.12880103803295137,0.13845722196434607,-0.1219545202270082,0.19949642079860597,-0.08096557332316848,0.06914479936471236,0.15013683262571503,0.10023176500877816,0.16700072015631814,-0.14037889484836655,0.10656428193221773,0.04667114083583533,-0.05179149018186396
-0.1460944844957963,-0.17221014355218411,-0.14031532448605447,0.1801236943386772,-0.034418339665576225,0.00824022345674511,0.06371323779435892,0.1439538473373862,0.06507274317328102,-0.11495952803092836,0.08557291883938936,-0.11628166780205157,-0.20052131052946162,-0.1078889439151565,-0.07489739495347975,0.10056626124478074,-0.05535769664791268,-0.037389302112749184,-0.016684354121109354,-0.21140243689934118,-0.08385695133913572,-0.10139110969883183,-0.10517083026205322,-0.1964014633303829,-0.06474264976577096,0.19544049210200543,-0.13306301291769085,0.12032814832203372,0.1338911392116371,0.12924495669972993,-0.046497759044595965,-0.03822550321554351,0.1939641068457616,-0.06877538953474646,0.2193052109042611,-0.027502712749838787,-0.10121421723216406,-0.1185208974624165,-0.19453110940301063,0.059207996261166254,0.17125926231516372,-0.0478960480811176,0.19269328036983363,0.07429075673953624,0.18001115973716506,0.017571758345349558,0.13161858882748884,-0.0954143999704585,0.19332916491061589,-0.1185402513543383,-0.1900665518682031,-0.17069674552463598,0.21299322515294716,0.08395069198843123,-0.14581754806390282,0.07552063304299435,-0.014681394554145343,0.06760931951462494,0.23280061075696712,0.10748500332998945,0.029206843998096716,-0.04331989449882231,0.049079987699123244,0.20621701790885127,-0.1615317947966921
-0.14173995041981396,-0.0750245944947468,-0.18512691106059662,0.20764898860793599,-0.1760993079812808,0.026554209097303532,0.13446155288927353,0.09171685945395196,0.13508428772283315,-0.09996788239842462,0.13653395118260794,-0.07627371618877819,-0.09309317419160347,-0.07660805697774635,-0.11099900032429459,0.1689126463812794,-0.15151407906479103,-0.10749288848076329,-0.15566391848211483,-0.09590095972320674,0.03428723124497435,-0.09240212929188561,-0.07931756041774661,-0.22320679881163463,0.011563871208639375,0.21041270487107525,-0.04593893174131518,0.11607628406886746,0.13213465938201566,0.04004816399399651,-0.0921403426781914,-0.07608386647239856,0.08432997863607848,-0.1368391047787328,0.03281721705487951,0.08222776798538259,-0.09378832267917225,-0.14340149866045285,-0.12944185476209036,0.05463791731615747,0.04282264424310504,0.051400281167796165,0.22972811006333282,0.16295979619021703,0.170801194125389,0.0920907198267539,0.08051711626936649,-0.1411479337062282,0.045225796506646314,-0.13837342701175145,-0.02252645723392226,-0.07333800578026481,0.10399580213080077,0.1752901593985645,-0.07014548679450312,0.1353596895331127,0.008041997112211976,0.22367437781414137,0.08150250976083089,0.13783134954006457,0.12370249476990505,-0.10870397957519091,0.21931401801106626,0.050056263017631365,-0.12587657696838558
-0.1273378067656154,-0.09588567557901509,-0.16729742864536584,0.19789372060813784,-0.16269934539868044,0.06574122604629808,0.1926208740145459,0.05530448614922878,0.1609488161414371,-0.17010708304845581,0.10900120586825483,-0.10729995016403197,-0.16412644978934654,-0.18766730216954386,-0.19007732252850162,0.1211517388820161,-0.10641677689715814,-0.09584207022987885,-0.07433583445098028,-0.1546195668130746,-0.04583525934559382,-0.02682057586015602,-0.16206034843006115,-0.04695025113627652,-0.04126143331824664,0.18449286261078118,-0.028471236134103503,0.05772021981234448,0.09780522599947623,-0.005920870517858436,-0.17244417131320297,-0.10578722666816337,0.16876467049464217,-0.07182936989718917,0.2159149444553217,0.06902326487533877,0.010749365110796773,-0.18715028802969283,-0.11401906818453711,0.1153128213421148,0.045184421052576515,0.10689679683738285,0.044589343244505794,0.0379104176606083,0.12381185051019246,-0.015239982234057111,0.19632938906962585,-0.06917725114669199,0.0972778524595064,-0.0788659987435595,-0.04831581871960839,-0.06281044398875192,0.11391825980393236,0.17954748536120013,-0.09956246577476653,0.055620497078199695,-0.117693490811683,0.16334613718858265,0.12761340271376065,0.08681153139781699,0.09425488768148198,-0.10574404475566644,0.13232254702570356,0.1016659100440285,-0.19826286663261256
-0.13452954338384732,-0.14633503865055675,-0.16820726731199517,0.1367897172714846,-0.11732916830008884,0.007285987618353164,0.12849179981513828,0.08862697153592654,0.0826951000705988,-0.12468667942803276,0.1041246810642064,-0.0671807519338074,-0.06389725012686254,-0.18162796388401647,-0.08608050654407608,0.21042319298010637,-0.1697827205111323,-0.056815273323241565,0.020652983964230997,-0.04937080953763374,-0.11705150672686264,-0.22317838832106465,-0.19879001968041748,-0.18182516361091045,-0.05837677472427217,0.07154820585286095,-0.1441002848362337,0.07119406527750441,0.03902663008866011,0.06969908829155068,-0.03722256867347227,-0.08779386805842897,0.17253120847620615,-0.18094102735265896,0.029693131677066716,0.03762449819528147,-0.0270376524151076,-0.18322359077540418,-0.038170568426589585,0.19421742726015473,0.16399515278613322,0.05632035982733624,0.11480269403594284,0.21924313120868702,0.09875034176376932,0.051493453045848375,0.18272597048393707,-0.08977051334364124,0.17095671399473325,-0.03309368787093878,-0.17947851124057465,-0.022386866340698242,0.04666218122544554,0.1421833986161403,-0.04965176051647087,0.19507409439345053,0.028320315400779665,0.11042459564624178,0.20030541817137418,0.11362646282444519,0.18262412207418205,-0.07136016646554755,0.21462232050534072,0.08981201190437528,-0.1353752796155174
-0.13180443063534622,-0.04743906068306497,-0.20750145511428383,0.02486945805274082,-0.13570192446460175,-0.03364152921601037,0.03964762206556728,0.07561255268264835,0.20600197844041862,-0.09721218567084756,0.17600272454920285,-0.14524638738177825,-0.18753144199552757,-0.0579954996770372,-0.15475477904909593,0.14104253147954018,-0.05477191732246405,-0.15320918827741692,-0.019868696421583027,-0.18602195001078264,-0.1123505350638054,-0.1540268987115356,-0.033933754854165964,-0.16045934299558598,0.03464643402119678,0.11158685587963289,-0.06801265885973218,0.033791748800280755,0.1771936571392167,0.150426313937653,-0.1445222655715286,-0.0696447413192206,0.05899386115271784,-0.1869551972853745,0.1413338859045888,-0.004360231521223136,-0.12296403452954598,-0.027740639864024908,-0.0899411525532073,0.17519130701342361,0.03605129599038093,0.053316040177749845,0.11926430602692352,0.1367014277228598,0.15136571605411595,0.02580440219400241,0.1601879276607538,-0.1269272427853414,0.12391163052605128,-0.18899567721838031,-0.12116084975187179,-0.12261431157159365,0.18901031173609537,0.1531314339712336,-0.06869467306610239,0.1607109386236341,0.015311749116692277,0.19268282521399357,0.05516085190187015,0.10882071954789596,0.156568617860995,-0.20883120960405444,0.12712321499741455,0.176073402933635,-0.04040777303989473
-0.1341589820664264,-0.09867023504683388,-0.03954321992017616,0.07839797783051851,-0.02245128812826849,0.02501138703699687,0.10393230674248172,0.12305515096763674,0.09644312619190935,-0.036685057615660904,0.05081702138115852,-0.17734798354566092,-0.14644017623903058,-0.09758128641376031,-0.16590448417895629,0.15475538485261767,-0.15701869939400911,-0.106294802373387,0.010434188843692726,-0.11043098223950083,0.02621158592061261,-0.1873134485395606,-0.09550427814958926,-0.05530398970375288,-0.10761629800864553,0.2111836741924645,-0.08195506198115309,0.18426656415911008,0.020028642590254022,0.1663577955084978,-0.07461278834778529,-0.09626341496534166,0.11049496798689742,-0.19767823228789738,0.05324384419999577,-0.01954617730623993,-0.06709116589119601,-0.04457334769387073,-0.11426957801106355,0.20386277651736634,0.044832027860776814,0.08069350861465546,0.17112261415101107,0.21581693449910766,0.12403167076349997,0.11537619050935306,0.049716299244121256,-0.1565522510609384,0.16911414261838126,-0.19953964085709874,-0.09588272894781379,-0.1504780237405288,0.16778045586715626,0.19933417265497147,-0.07519228117997243,0.1755884722910589,0.02703473854018436,0.1362182375715608,0.177660642856393,0.15887926503175087,0.16745868708932213,-0.033068080587065556,0.07726631962666294,0.16509517739817464,-0.21900188973886092
-0.12907894745163795,-0.1214495851297076,-0.15338843900404384,0.082369529404525,-0.17234663708853853,0.05557042293578746,0.031143973096279004,0.15507243007609148,0.025050493612487453,-0.18280710332489392,0.025892261412872545,-0.17958375955485673,-0.16928303979370066,-0.13268009510945825,-0.16808469426117276,0.057958056727872895,-0.087660410953061,-0.18125369176473685,-0.12816661014681827,-0.15918209689200624,-0.04738436962282335,-0.13976969205708248,-0.08577162743147819,-0.0992584198173441,0.029815348503838476,0.1386428410385026,-0.14032761356184875,0.1893484375680008,0.20105825680568834,0.11913558506929073,-0.0943029729542668,-0.1412713229654366,0.08465733722001532,-0.056449514567519246,0.22004883217090668,-0.03039111813129875,-0.1105654398814625,-0.09869749619222602,-0.10254669694281016,0.0782056826869426,0.1801595299075995,-0.04001142588459651,0.08399414200608395,0.1907486736869563,0.11879631817923382,0.10573559065194726,0.21663956650037824,-0.20865261801619206,0.18058157300251793,-0.12178245661458882,-0.00045234791498877455,-0.0165837349632595,0.05552242432265602,0.031229327466030018,-0.20088972567437083,0.0781098868695743,-0.10620863584486702,0.12071135463020209,0.1023983096995964,0.05488066023735437,0.13888223962972943,-0.21529839371758652,0.05878243384382728,0.05519904465589611,-0.1287574270498525
-0.13812754526968524,-0.20476466941406454,-0.152310236227797,0.13147967989777257,-0.06900784668291741,-0.04645657879200748,0.098137886672025,0.055737702948956934,0.1966371910888328,-0.054460049060308914,0.11708772933540172,-0.04054049555113281,-0.030108667057301836,-0.16981967104475437,-0.11689650210676031,0.10231283849258994,-0.14720323695178994,-0.18315246718219938,-0.002747130945760978,-0.10712795438657864,-0.08556667269095404,-0.1753620406294635,-0.07049832358579704,-0.2094202359939519,-0.004994578400573862,0.15777248634214433,-0.10307728847013443,0.07069399872712973,0.1332760908479309,0.005368548705007922,-0.12836668095930412,-0.14665838706863987,0.11068094294728612,-0.08821514196275536,0.16133554745853057,0.046488295753310635,-0.073459426098499,-0.1611079076632681,-0.08874541014826903,0.0890539560672484,0.1618271074187169,-0.023585663469449365,0.13324827569436076,0.2224873617389763,0.2086002103410136,0.06061525920439389,0.19227647907714707,-0.03585614671052296,0.1268832975556713,-0.11196998581235322,-0.019880788225753322,-0.1734918334044303,0.21246992307831405,0.0317600508575866,-0.13431121081713218,0.10129192708070296,-0.06395771449561041,0.11036547029639299,0.08966039690196703,0.0853907864698193,0.1422835328063269,-0.19615823998205026,0.053729025067422005,0.16497228507237743,-0.03635100053404065
-0.12424364060960243,-0.0320345319213592,-0.21017978290248182,0.16273085002015486,-0.1533520730522064,-0.015781423167663913,0.1667508999082183,0.20737402554405182,0.10519419162377826,-0.042148288839034695,0.1572226847116091,-0.10200162723599343,-0.11628112390060041,-0.06953841514754493,-0.10340772166889055,0.18770013070640149,-0.16503506275052215,-0.17330134537666822,-0.021064623639600787,-0.12726155847938736,-0.11386076924244126,-0.025292663938235496,-0.19034397800898104,-0.04758105982457703,-0.02994931324103463,0.09484380242573498,-0.08842799558248528,0.125436133534076,0.1307152799114399,-0.0017827170204340115,-0.17463659776106735,-0.0751164110391561,0.029024782290618376,-0.18547296104790792,0.18769003688291858,0.08612405585526466,-0.05738876427293316,-0.08832283599756081,-0.1688013259234119,0.1636437362767534,0.2002010268582455,-0.009832923197814859,0.1700855841471389,0.04846849794226701,0.1461890865689095,0.11595348500273478,0.04217511130570938,-0.10683953346104762,0.18508142783705234,-0.16114948545872476,-0.10742276936960428,-0.1506317138817758,0.0772620493159625,0.1966676749079641,-0.10403462554322813,0.07306449316036191,-0.09506097404396614,0.07707147944307545,0.0985099543490305,0.1712548764290358,0.04592878349774893,-0.0822475398347418,0.05256882220760226,0.09933285633914787,-0.05682525793200315
-0.13184704574566758,-0.19068255528501105,-0.12810808540527574,0.1423140520356866,-0.20933962935383404,-0.07936724942270028,0.12036739182042645,0.16077453791905819,0.0814930963481123,-0.12230519116622682,0.026214379775548583,-0.034119184279522215,-0.1418288133359743,-0.17624043084807914,-0.06663088496607314,0.07683032267325247,-0.03866375093395217,-0.11707479210740725,0.025949848488106064,-0.16993125625100755,-0.11226311242508877,-0.03005431926273683,-0.10601318800476735,-0.21158160609211132,-0.019221276114467264,0.0863230974336345,-0.09686923875079524,0.050767820899629904,0.06692540781533039,0.006719113852717961,-0.19242382495909652,-0.10067110851168616,0.17815085272337539,-0.06973014470865507,0.04293552358256931,-0.017312756032614326,-0.03252648233131921,-0.1355458402888106,-0.12603066391637438,0.17603258772331273,0.22243686262657325,0.05800821185910065,0.18691509094842987,0.1223472279482266,0.1487302795132336,0.06364559940339848,0.17641788830643743,-0.1283768920811585,0.08147723129897501,-0.04960724596796914,-0.13539794288578644,-0.04173061239029417,0.20209759157373602,0.18971432897774662,-0.09229175863318949,0.015724048862889292,-0.1250804331447702,0.21114279218682955,0.10607048235396627,0.1167628714207863,0.13514777568212716,-0.10129404129551965,0.04009439747208504,0.14110234678682543,-0.12088399170408441
-0.12260508701833948,-0.03704968762193269,-0.01822314705910319,0.1973709364685814,-0.051249120352180315,-0.06449519461702752,0.12850184758430222,0.15739415788721076,0.1587182428311727,-0.16998050449304666,0.15007740913123938,-0.1007339298735512,-0.18076159475184425,-0.0422055631625442,-0.051641143639406986,0.12156650946810821,-0.18654188992783227,-0.14169840161086003,-0.07511729193426622,-0.03441171550757982,-0.14684419848998795,-0.039656315935560536,-0.14357070159359023,-0.10727178440963543,-0.1628634583969115,0.11055143419401048,-0.05602395913416104,0.041373406263957226,0.14480683424429375,0.15307810630844498,-0.033535765900571064,-0.04529241905434123,0.1617806996441614,-0.20602940300558184,0.18113440735996933,0.0004884532722069457,-0.10121509797634709,-0.0445039508463556,-0.15140248828897648,0.07185932401526504,0.020004301848393868,-0.0634650070611893,0.13695713503583354,0.19728354049321573,0.20666803413454465,0.095317037396431,0.09188574295463679,-0.11977934118534973,0.1038672667663274,-0.06536966645700341,-0.05749893483661604,0.005529050374845539,0.15788932719429832,0.01880391809909982,-0.09340154642579768,0.14278950393018158,-0.003825825652499649,0.05028365853985925,0.08868418023167202,0.20547778864843042,0.1888734520844875,-0.052105739367542606,0.10661559499672418,0.11115709917457145,-0.12081647009400279
-0.12355667363753771,-0.037792532755241755,-0.16932318240778374,0.17617268717397214,-0.01324619180818127,-0.04572686918451117,0.12745835205280057,0.16385547938420478,0.010114522003557154,-0.10825067729156171,0.21537326358328907,-0.11521639942172311,-0.050012047675964955,-0.015905478620095195,-0.09956756694777043,0.09860860369294402,-0.15973200957235648,-0.05533679297138151,-0.058864346067338855,-0.0957630448338363,-0.04051266447508658,-0.20123720033841933,-0.15436787644358219,-0.034966381950440946,-0.09494307289062878,0.14395921400218947,-0.0981871269836249,0.016247872522884805,0.05408562265468141,0.10026411197237153,-0.19194613661839166,-0.17227203646920614,0.21518331308865302,-0.09715131733185696,0.08345991496556746,0.11980287012870054,-0.02206118495078709,-0.0977977565513707,-0.09872619810138185,0.09449781158243051,0.061419482278002195,0.012796462106062409,0.16656357516792972,0.13662753269394318,0.026495385678183284,-0.006817391340236139,0.19511287381392967,-0.19428212114235105,0.042349591412680146,-0.047984654614984495,-0.004109978265500467,-0.03444087658443194,0.1718328479144029,0.02420806065812485,-0.12612044033728567,0.12607532530979992,-0.18201560088713017,0.04270174852634567,0.014592253583250659,0.03254373335167115,0.18656922923874072,-0.06716004419307892,0.20199333790260285,0.15485393326892424,-0.16010018023649084
-0.10008120498346666,-0.02969284918492141,-0.14192725463231545,0.104036523224761,-0.11442709699043738,0.02889561151264422,0.1785235106199868,0.1519988119945765,0.16664362193750862,-0.08871279628600695,0.10404539020200224,-0.1645070682773875,-0.12708056701674944,-0.002934585193251521,-0.025077254689479325,0.12469730718118165,-0.06356581064120483,-0.12639326020115513,-0.08486389644016243,-0.12294457490401862,-0.08655456464218016,-0.15713345236895662,-0.08849205807159201,-0.11603179693114749,-0.05634233264695073,0.14085429040748607,-0.06846159291823829,0.017382488927010626,0.14503317425932094,0.1027370354950712,0.010337975329534971,-0.11254536885529805,0.15697658997363587,-0.18654449935582815,0.17013687616397224,0.06473854706700384,0.0011574135032595826,-0.1815769769800557,-0.14342776453330403,0.15054294011468466,0.09884187335298725,-0.013078484270139924,0.1493507488125167,0.03139890161944696,0.18653102811862216,0.09444037627133119,0.10165771335119905,-0.030703009369228866,-0.004721639875707593,-0.17942327793297733,-0.15354907111039856,0.025208979737579486,0.062216900077457886,0.08148572170891738,-0.16614745779649814,0.1471223260358059,-0.07825793248696424,0.05654698635169451,0.1288352197467252,0.03091469406894158,-0.00201010091214298,-0.1262754677213659,0.028706043131331425,0.027912343430302505,-0.1291399664780186
-0.11426988394979307,-0.09813732961967433,-0.113038714540053,0.04586916638034996,-0.062016957356137006,-0.22744178221679534,0.014133226409626278,0.09159337045028543,0.18839885943720677,-0.14093714079677938,0.05638963558434412,-0.14014817990881168,-0.04412566735894021,-0.1533583935673381,-0.03751793853099571,0.08697694615285545,-0.1752573586931092,-0.03999361949109459,0.214853493225953,-0.08298021242343624,-0.3250588692731353,-0.10385270152857853,-0.07065739174199198,-0.049468994576130694,-0.3881951975329796,0.03169433913013936,0.20396014529244144,0.15806218928421262,0.015291819786029939,0.3238950219209419,-0.08862373134590902,-0.06378028493231988,0.1012213757400385,-0.00862142482737342,0.1440622330106268,0.2772776664475918,-0.03689937508795795,-0.18390254249055155,-0.1324947607646264,0.008108385588376165,0.11856652995279929,-0.3927483790781317,0.14043646707723628,0.17187326365034797,0.13508469638721954,0.001717150372729884,0.14618257946449345,-0.10158861220104058,0.045696925530397975,-0.20289598865831557,-0.10406969424735169,0.10883059743503264,0.14238089140655066,0.0956580459568783,-0.11754970087254625,0.049917302596076005,-0.2047929315072985,0.0213256201449836,0.004706470322290345,0.03980310874111159,0.09944781414554914,-0.13867003950137885,0.07429337460487723,0.03266059042388717,-0.10018184778599558
-0.10645744623131027,0.0028723975474606754,-0.19106127209753535,0.057179493449250766,-0.03329397152486986,-0.3539753493405711,0.021461607964840406,0.1302429376710197,0.0804486614104202,-0.03116948194413715,0.0414952288525937,-0.11516641324616944,-0.1241382464350931,-0.06866823159026358,-0.16360296857028322,0.18670155512354333,-0.0190041991803416,-0.131064328650645,0.3358285936834287,0.0288661385381091,-0.4477472340240447,-0.1575399142537966,-0.10732364278443807,-0.027459433152706575,-0.534767892583291,0.1215266240198075,0.3827248483911123,0.1150218174844382,0.024700558306950848,0.4289572990972541,-0.07045398471521525,-0.007260440751614293,0.10463516515424379,-0.057891599703714776,0.18768143514320332,0.26575266754845944,0.08867356179827068,-0.1442717589537068,-0.1465889931956413,0.019241513700991954,0.09603349844810743,-0.5424439594841866,0.07431940192403144,0.06041827084156358,0.14964972822828132,-0.16703382345231715,0.08776647281659916,-0.16127992991952134,0.09615691224372823,-0.008684598330415554,-0.15230926559016675,0.08740999784650264,0.1692542126171705,0.1337371654753743,-0.05297591194203225,0.1661350647528509,-0.11785436793461404,0.09318993789056823,0.13538139943246388,0.161707444319129,0.1801458031076848,-0.146305352713903,0.054878938090023324,0.020134066033172797,-0.1393952977987401
-0.11968751121082111,-0.15924408126000125,-0.026463016981828985,0.08169918910707084,-0.16021464731329157,-0.23156942923208934,0.16295886234716478,0.1707922549299561,0.08309943965865724,-0.13491869348940763,0.026543496932090647,-0.038419693429217056,-0.04077738851333692,-0.10111872396750597,-0.03623360954997436,0.20944943133663663,-0.00978959750071604,-0.11593661004648385,0.4375738043965284,-0.07302887283502166,-0.5870232915261223,-0.05994397682997183,-0.08529815853955311,-0.048332580638617055,-0.6366356254373243,0.1644147516746919,0.5293339866486463,0.08122076885165731,0.1666880812390954,0.5000200654125034,-0.11427026253778566,0.061742592439671076,0.15702783458478797,-0.04527784510136888,0.16198679905153401,0.32276500895797466,0.14992562047498906,-0.10292009268626809,-0.029016154210848123,0.1035728466562365,0.1750452408498246,-0.6549072965121802,0.19489778964733398,0.053161101737065425,0.06230354750227155,-0.2891975621915798,0.17913135905954042,-0.153509606260621,0.17178741056485833,-0.09782686001893069,-0.1453625315258455,-0.11319620190857477,0.13238485674395595,0.13188063029518812,-0.07650290350175626,0.01414217033895663,0.03710157836161848,0.04350686043167729,0.19756904914274856,0.1582332990519555,0.03312968110568923,-0.16204850374866567,0.027648807737210984,0.06850228769102955,-0.10732752931967231
-0.11361117995273826,-0.0898667808286168,-0.09450563190323401,0.10503279975027636,-0.09767552610604727,-0.11740422334584585,0.15903872450891876,0.0996399341872584,0.13547165073222694,-0.1030455816302598,0.009956319298808728,-0.13555312075020892,-0.12092723852029193,-0.023109953162296266,-0.12229455365058728,0.11994823199338338,-0.18053210413272475,-0.024843222552174284,0.3644150894159468,-0.02936165184715461,-0.6275914275387352,-0.04012827009440782,-0.1980359599161189,0.016537892160755744,-0.6579855894270313,0.04232545975932685,0.31666604768596684,0.19549144454863793,0.0010194039970771419,0.4751767243957586,-0.023402502780782028,0.052035211987429116,0.1682916988360948,-0.02122353497747945,0.1873657629033396,0.3232804356477239,0.2916437974640741,-0.20592275571470842,-0.012940870427637825,0.14442429412477203,0.167850376962561,-0.6739953863110326,0.05870368716633959,0.15189105315479925,0.10594253044170408,-0.37301753310594543,0.08700225516130108,-0.18976782810053353,0.19882825103545365,-0.05234157993369947,-0.1356987457749649,-0.3034504521847967,0.09548911730803049,0.09623306674735997,-0.0175605104359968,0.1618234592081598,0.12340415189122794,0.11819933277990742,0.05592691089812869,0.0077328157753637685,0.041236878437932105,-0.15422418622482842,0.16537332005683453,0.19345047505665772,-0.10840566822711846
-0.12642502459610233,-0.0437013514204261,-0.11570611804353996,0.1075402059435125,-0.14317148037765276,-0.06760165315339202,0.19734406646441138,0.21046043500745976,0.17568774721587715,-0.1637223296426149,0.04708778444954862,-0.09723487769745705,-0.20036492144990434,-0.18886576232029012,-0.12391507613138998,0.03285329214963109,-0.01976719608632491,-0.017740224734418955,0.28589739757759886,-0.054872670172928684,-0.5875380447743045,-0.14573698645235086,-0.19282650565412715,-0.04728240517676882,-0.6359290748503028,0.0820428655032353,-0.1507126156350217,0.16730145832470608,0.06005882350454105,0.4713288109655657,-0.03263140977877717,0.02787090498005403,0.03604631956864555,-0.08057431572066621,0.06133944213598433,0.399497849894682,0.34264388206619756,-0.17919601406459804,-0.08472650857096402,0.141540346900237,0.09104027592382212,-0.6834640174835803,0.023212354498248457,0.030519409229921392,0.07369904302768966,-0.4556411733879669,0.18303974004513773,-0.11225174424213562,0.16128014182448955,-0.047495119409312225,-0.1213872513833603,-0.40165699832709895,0.19544586519548787,0.04464634597250412,-0.061982597670419,0.13407213381541958,0.15016382587763885,0.20064358176253638,0.16365419882665985,0.16147122030929373,0.041348785166583045,-0.03371569653540767,0.08308904110903247,0.0913351087983109,-0.01762668953999927
-0.12859552901291194,-0.03599869572834452,-0.1491485039048114,0.05663389966780014,-0.1256134487473375,-0.06779861339504152,0.09320508710552909,0.050560085372082224,0.04446782241145298,-0.0450828727393951,0.19071916938187458,-0.021710772211943088,-0.09288347270212895,-0.05664956598145181,-0.1292979647215681,0.07617069089530071,-0.12447147120611114,-0.02808886211369274,0.13285093169771783,-0.11472467310007842,-0.6236095676011507,-0.20820442427548527,-0.029091015504993312,0.05776856056457803,-0.655351541521183,0.21477821080434334,-0.5123749256551773,0.15574470823563566,0.16624664030997133,0.32116481071010206,-0.01816738484058344,-0.0854315045740805,0.10782569853290581,-0.12117650841756565,0.1632882554470514,0.4802317441313648,0.3148431483014464,-0.15141434206079293,-0.051551562361220625,0.08216253800182134,0.10026095605429068,-0.6643826949405601,0.17408770858676811,0.134624387976636,0.1522109292666058,-0.41333571595089247,0.06758560678093903,-0.17878818742771893,0.12261689347919211,-0.10949989167049444,-0.19570494193323126,-0.2820633770713617,0.04217249061960679,0.08098226607091832,-0.19613179138418615,0.0327513575585852,0.18726485959550312,0.16383099631337103,0.14589321989991436,0.06285845994255075,0.12381108527872957,-0.05358237010161857,0.0997680039135746,0.17350076189097646,-0.04543469999873314
-0.09661932125534578,-0.17074344980950654,-0.0687320674706593,0.16955267368515425,-0.17671567762650636,-0.047521872707422384,0.05860981990220882,0.15866657549601826,0.07375158797877551,-0.11496683005671515,0.11188941679881136,-0.07086725293844309,-0.06197127091937307,-0.09321746524784254,-0.05794675825678928,0.1159828924619524,-0.12258100223012107,-0.08520788457769424,-0.06959913922235551,-0.09107617959710884,-0.5107354984185801,-0.16441463578449764,-0.18365414176982495,-0.01767182513824139,-0.5543180403144473,0.018639525501127505,-0.6691241417088475,0.0036008707502096673,0.05784704017992586,0.12163075542652145,-0.16696382374294727,-0.20730094043810532,0.0988501420268186,-0.1620830971750991,0.13327992938735309,0.48371024583243544,0.3218829490695086,-0.149434741610155,-0.11062007552199954,0.08856518014571203,0.15885076684077015,-0.601683097146995,0.07806684086768174,0.11229509070750911,0.1716737482633229,-0.3546206421013407,0.06753194032992767,-0.031223174552953977,0.12214513199173774,-0.1041679236348973,-0.29860677765702853,-0.08375681961825687,0.14654033642811223,0.1550746266432804,-0.12044071399873214,-0.003970255063420455,0.20172467784257916,0.15146908557456945,0.12405958263283264,-0.005741971386592965,0.036790820348853746,-0.09422665213258612,0.17867357965178035,-0.0048738667688347625,-0.12782466663007902
