-0.11703222556386224,0.057600913741762315,-0.09430200208181153,-0.13438049925106776,-0.14998459063050498,0.06866487806823805,-0.12851126046032568,0.16560643420620821,0.1797373780499046,0.01713496592955989,0.01637036639053736,-0.06183836364754742,0.05410694349314122,0.20011085077655716,-0.027293199326885117,-0.11600455282014092,0.02031991617885551,-0.015852349197666083,-0.049440558322578744,-0.16041329715045632,0.08258965474646988,0.08962832569149978,-0.02200232028137591,-0.06710051465520267,0.18192183964914113,-0.16484401386066388,-0.03387318995008831,-0.1911309496185053,0.19871507242044176,-0.14943726546777714,0.06231290442103815,-0.14243897720662066,0.0803601863565725,0.12462042073780887,0.040258743952463795,-0.12072063246111119,0.2014701468820764,0.09986893040798263,0.13683845237996523,0.16090449097567686,0.1847774763082745,0.19522928135397508,0.021011474195471884,-0.04806359211575632,-0.005156717361062954,-0.03597134538342365,-0.06495651619053733,-0.07205098861074961,-0.04741738666101323,0.17725792965500473,-0.14965051570605664,0.12640043513824126,0.12592558611824337,0.10596687393982417,-0.1634719475558092,-0.08748158463484727,0.022392663681397345,-0.11781692277023734,-0.11191996447553128,0.15694606393596006,-0.01597114729580406,-0.12604264241550792,0.11422768793824478,-0.1286047899031269,-0.023320621614516406
-0.11711889455929031,0.12323179642505554,-0.08229283461630105,-0.0444113171342787,-0.06141313072314593,0.039362032945427235,-0.07944291586984281,0.20167746813842216,0.1849128417422045,0.04849979704917328,0.02642636639893754,0.02313508231775393,0.01534441816711827,0.10845277727600146,-0.10096308828977517,-0.15225039434917534,0.19598181370195378,-0.051210355739434776,-0.14513737952247713,-0.16592370815125493,0.1305836956212834,0.04808096694631859,-0.10071164882812554,-0.19685943224744193,0.17938154257603198,-0.05740148349250259,-0.01793717927484184,-0.1491012474786505,0.18078202579512728,-0.10133679486661892,0.0644415711933054,-0.037878432111111186,0.03136131523429643,0.004828217420037933,0.19568663858749144,-0.06283825436583357,0.03207375379018316,0.17821693730746824,0.032002084058484905,0.06954780620957239,0.10484583430680994,0.07562393762033096,0.014671098119299293,-0.13884111352449915,-0.10073030827951077,-0.014242049582941924,-0.18079067126243145,-0.15384625606094612,-0.15228221850244728,0.046133415052223306,-0.013841454107818837,0.053294124307700995,0.05972392786224545,0.009758590913556684,-0.11438983971732737,-0.20448410745003429,0.14249689577161784,-0.05010151668352304,-0.0791324639420525,0.029690905635220206,-0.010974990934885133,-0.16315183233923206,0.05163405466225563,-0.1544090866559941,-0.19456243363381
-0.10864851456101829,0.1559930590383449,-0.054561755592261556,-0.05175279414574889,-0.02013207711953101,-0.034922862366065614,-0.1920374720349437,0.12234391010241713,0.03608824136595342,0.19137139555429142,0.1853496884299716,-0.061961683994201364,0.1437571293884771,0.16077541991704164,-0.15121640562845168,-0.20007075146728773,0.1258234975815305,-0.03098623424622134,-0.06098691016234121,-0.13840958589258426,0.15982737112185189,0.0022277685719235777,-0.05004032832241249,-0.08803622840997662,0.14995080101157454,-0.1099225480709939,-0.1682157601022847,-0.08557289846468114,0.08218832548661519,-0.13313154313261386,-0.04400751660554922,-0.08658153113283726,0.11342500472390901,0.034159460379828616,0.0821009993989659,-0.07444444277435498,0.021787025432877517,0.1401673767515911,0.19989085614116664,0.08971182521664976,0.012255950192307564,0.11921122720615558,0.13820993216799576,-0.19422190504600545,0.002383491251533708,-0.05962232177306502,-0.18487187490083526,-0.0801208080006787,-0.04174616221111487,0.19095222745085305,-0.022811693456539325,0.14399927235321502,0.17995664729591596,0.126205874791447,-0.017699788423641987,-0.11710868350046412,0.027913317254091158,0.010531057833295126,-0.10894999164319885,0.022955076291492862,-0.04461707718254112,-0.008320260048570045,0.059815720811946936,-0.14113285746498128,-0.05891128487840731
-0.10778897802904093,0.0899543731622597,-0.09839401986685835,-0.09006043763295718,-0.05260294350814778,-0.03844113282330511,-0.17950587485100994,0.17556167160442096,0.16813424370830732,0.14830274569526058,0.18639624116791895,-0.0074596947061994715,0.11503758251625361,0.01637898767417945,-0.16357913671039495,-0.06535222906434249,0.12488578583411802,-0.14921665571554824,-0.0905148347354268,-0.11414325206657469,0.09353200418028472,0.052567156992760086,-0.10384632994054795,-0.024394534224793693,0.18666824157995782,-0.14562190943788647,-0.06307657683396706,-0.008889107564718345,0.10427228741264816,-0.15522909470896704,-0.013108170103432723,-0.14667354172789043,0.12698546690800813,0.13504578016536128,0.16431408676923637,-0.026640480871461886,0.033583093026421214,0.09269932466783713,0.13938366661758608,0.05150016775102279,0.17437444651113684,0.10407707413308435,0.09481809085642116,-0.1948591450304994,-0.044075045641223706,-0.00742742426695238,-0.149262235175866,-0.08093836824105327,-0.052529506211467535,0.10213626338426929,-0.004928708128807734,0.14314617325991555,0.04796378322745735,0.16047216611877343,-0.009208614122044316,-0.13088214180174731,0.10644750722628583,-0.14910478225058704,-0.03440408910073575,0.11096856790466347,-0.07226812599785669,0.009269495747602323,0.18666168774528075,-0.0005375802954831212,-0.18288160006221127
-0.12920807137562976,0.1339755713159904,-0.092444326622641,-0.057614323339960576,-0.062427259997733416,-0.012989322790547205,-0.14691700639819774,0.044665236735285344,0.20287802444228697,0.06641432785508047,0.19030656081560815,-0.07950785183256041,0.03196003960197929,0.07662654211525298,-0.05872501040556261,-0.12109158307198924,0.10608817112333654,-0.09438848139428041,-0.1295700979588226,-0.12343800188593405,0.07913414510378533,0.1028992378210788,-0.10585408108963959,-0.2124373010691074,0.09469859701141226,-0.07102027485626075,-0.0848391742735432,-0.02586438063377971,0.11969596207987392,-0.08447632138307432,-0.01584906911256964,-0.02178030346529708,0.16609005701386997,0.07338877729925379,0.1979189482809674,-0.19553463680402558,0.1569774186407982,0.17498162545319418,0.03932653244141628,0.15103444089192203,0.0711209679705289,0.18963673146743917,0.14176889546734292,-0.1653713670867295,-0.01913538230181678,-0.13109222699802922,-0.059413656513659,-0.09951388584778631,-0.17237953223027688,0.06035432182555828,-0.009059391342925027,0.030851006630982315,0.03184577792630909,0.13663739646792347,-0.10041940519652233,-0.021650217610883055,0.20469488242275857,-0.14933847373887887,-0.09045070669996236,0.01455963344485703,-0.10982271035052582,-0.09621890214906866,0.14132675609615195,-0.12962364534654075,-0.09111160334800396
-0.09944560390481455,0.09033619031059914,-0.02781620788922749,-0.15132088545724454,-0.16646724201253205,0.11029533277298738,-0.09529365475424195,0.06517776066647663,0.1718866136393716,0.036104417900841644,0.13150364088523175,-0.0799095095855651,0.16967090796017492,0.04663630414279253,-0.1884769822018989,-0.03923006566827062,0.05009796194962083,-0.009659643153722626,-0.06591153455035316,-0.1650164794360017,0.032886892878467064,0.14075784860653617,-0.1526037880521393,-0.004741111419691403,0.05585898276382376,-0.13483300011867258,-0.1840041041150387,-0.04192834749705221,0.06659065906294537,-0.1485309896384582,0.05860808351929741,-0.14073221415592488,0.18154855006177156,0.09627660545275804,0.0026987482800845497,-0.15824616724637222,0.171151328841302,0.06872351053176173,0.16260618594947673,0.0662285944422225,0.08597276639538297,0.11517949290638385,0.1545066959608002,-0.03222201374395442,-0.07688900945298989,-0.08611426065336332,-0.17880313359035052,-0.0061790282910313575,-0.057086996591761446,0.18645185698274236,-0.057498667420507056,0.10941546337371517,0.07758342779815944,0.11507950734519841,-0.17832749590988764,-0.1456139375624823,0.18058498247744756,-0.08239899433533818,-0.1614668049755899,0.09829988050419088,-0.0396032605097901,-0.035857679497173695,0.13918325577401294,-0.09945867047458089,-0.08808834235355903
-0.10774755467287281,0.17800983925065397,0.014868153978948612,-0.04158173876163207,-0.0550780580856222,0.0733093182327791,-0.03966475646785009,0.05714079406366486,0.04104508875140797,0.18169568572564723,0.04120454930588316,0.08978167675556564,0.052373617569706564,0.03267037024194833,-0.1759277451329007,-0.11797218973309653,0.05289384686038954,-0.13158906926990493,-0.06295207418692,-0.0968844439584659,0.09888178512093021,0.0473772899271359,-0.19754425912309415,-0.1625219793338696,0.08298914471090667,-0.02380876175452354,-0.07093335217733136,-0.05952223047886037,0.1148216780811724,-0.017671051873181434,-0.06470582518742772,-0.07321076547509815,0.13592769123038626,0.12454469601136417,0.0864176841674793,-0.1329883290060781,0.171120101879261,0.12248218378373825,0.19266852780642432,0.10748885628062463,0.11364055751116466,0.0822166840936612,0.016396632445064754,-0.19044227696105986,-0.1842522998639234,0.02306444139183441,-0.18104849007383744,-0.11064967261492055,-0.11885892136482515,0.13061633496480685,-0.14360413764254562,0.19173743456646672,0.1917328557269327,0.04528909235055744,-0.15238394236700176,-0.11758150311032327,0.12413028405714525,-0.06136652562138536,-0.01906542075739139,0.09654077920795812,-0.17975103793159178,-0.12367496094613488,0.006968926179522084,-0.03880627089796466,-0.045901392237019494
-0.12190151922961066,0.02871934438035724,-0.13967210845693587,-0.06779546743747966,-0.19660751475283225,0.11632446250254146,-0.2117393552028797,0.04164999329184352,0.04619972589556175,0.17146576131401703,0.20602519698232968,0.09399019988634327,0.023320158341228688,0.1344829789896424,-0.16750714075337256,-0.18951900927425935,0.10781055131221091,-0.09029948261499651,-0.0182953626382256,-0.16454981846006375,0.030386904812447123,0.15083403938783932,-0.1526424502472191,-0.045337156106312004,0.12906058784137592,-0.03159290343056544,-0.1433043333597334,-0.13200239743873113,0.055647737278420824,-0.18339853246537174,0.026550524332528934,-0.14233458212072855,0.06729773900829865,0.028742975173446907,0.16026801430309548,-0.09441403457236201,0.16648180032799104,0.015032482864377847,0.18703575045303014,0.04815358825494268,0.027505443741418244,0.043091520358584226,0.11910214705390992,-0.03258479381587483,-0.09832377867728634,-0.10195097645772512,-0.17947743419516402,-0.09655636092620425,-0.19404630258408642,0.08536374952262386,-0.1438345050972742,0.1152622871294061,0.05609328924257075,0.07395684685341163,-0.05982921711214089,-0.101965619162528,0.09928452861874774,-0.08179893804429524,-0.09344365507172706,0.13592744569690818,-0.06996138094687214,0.002834916910885368,0.028561784555112612,-0.049777369637361686,-0.19891781478248868
-0.13264342358913797,0.07811849044173877,-0.14153079958797227,-0.05229465822568187,-0.029136200542396743,0.05232368381947635,-0.023787395496085554,0.11222625065864676,0.08715584457284067,0.048925423013239606,0.06874231027743832,-0.0800990496901888,0.08888237965663173,0.14455340645848883,-0.10392577359892,-0.050421488134403565,0.014174942790456937,-0.06382097230403891,-0.18148811117462824,-0.07814782186299905,0.1814741924479359,0.1951130184855897,-0.03532070191158419,-0.040511416648307666,0.03856393276308756,-0.10069144049801391,-0.21781266803713395,-0.1704674598009134,0.14197570907178428,-0.11458753922792474,0.04559310033080591,-0.1931332542034634,0.056838458905471595,0.05113722631986127,0.07363288966525444,-0.06479213616843144,0.11486498979752904,0.1699986773938442,0.21650684512859333,0.07901456154986972,0.13395082581189327,0.1670835101794353,0.07584947482979527,-0.0670669620197955,-0.15148665496767866,-0.019008943999526375,-0.030864733914621828,-0.1738671428074538,-0.19522467634104845,0.13985241649151373,0.020737559214186654,0.09805114873052674,0.18366208127062966,0.09247119073648852,-0.08190547781856045,-0.09285537087975491,0.06753489048315785,-0.025297771268371533,-0.2041833486458952,0.08227886415270773,-0.08060879859465232,-0.1435263099107608,0.11176055978901592,-0.14256336660749064,-0.038455203562804394
-0.12832840389715136,0.13397171554299905,-0.014761641112217403,-0.042066523350692206,-0.13929374111757592,0.09518955767324166,-0.19237046560718118,0.031549428246177014,0.055431604812580686,0.11482127786478644,0.029444590991617062,0.04887014885736796,0.07508623200552755,0.08286172502480077,-0.12518648413475036,-0.20622878064484557,0.1405485576890573,-0.12368052061535176,-0.1344079452620944,-0.02391460453030479,0.02880660094257329,0.028634012296116652,-0.024391784676649198,-0.15844797354918252,0.020011085988359743,-0.022311848409837205,-0.13679418952733008,-0.15148456354377618,0.1137230780075689,-0.1609845450899895,0.03479063018700471,-0.1803404317400535,0.12557401317462957,0.011733977534125542,0.09847317453650299,-0.11584166786022702,0.15737915998209875,0.16551688286345947,0.12471846486781323,0.110444422352787,0.15271370670751813,0.22227271055531012,0.1336641567607792,-0.18090147544836735,-0.1788867559964868,-0.1140218653049753,-0.0816458491612445,-0.17993369951686775,-0.050969957090764025,0.08178586228646278,-0.02530609471759094,0.09737763336021185,0.02688960843749363,0.08476724829036868,-0.1113046142313939,-0.16992652594207214,0.11792866740009872,-0.012324757953880088,-0.11775175414148929,0.07633718750963782,-0.19351080915142235,0.010628933074285548,0.055159273032789634,-0.14826677462716198,-0.02978899312109475
-0.12666728866833057,0.05374414499463811,-0.13262695866970622,-0.20825370329134835,-0.07862299995186688,-0.01731281836297921,-0.03719079361440511,0.04337779218053464,0.027953716994394143,0.032472766876889186,0.09521870687316455,0.04572193337648705,0.201739590497981,0.11465531669111392,-0.15007784959538814,-0.10070430743018413,0.09915373623673768,-0.05146630732939326,0.004401047796552661,-0.0982646998444221,0.18324932525373896,0.08795084220561318,-0.1612001479306476,-0.05887352460655097,0.10609502172154643,-0.15485228904000697,-0.18554631470009944,-0.036025731382524816,0.1347126279403576,-0.18696587150902905,-0.014093703743696154,-0.08862235153533597,0.09120857376277161,0.03460751970210225,0.14018868356347575,-0.012578484498546764,0.12521772012674132,0.04575988103763666,0.1626337614564029,0.20505931741427025,0.176870228668008,0.03168759409740913,0.14631749036489122,-0.20452288788023368,-0.04346239378413353,-0.04734599856696698,-0.15688010897688148,-0.17540917367647943,-0.02080725539397544,0.0217174746991449,-0.15337869907028448,0.09248494945598289,0.1789908760476304,0.040844301973590624,-0.046080762158533246,-0.13000369389300165,0.10359534865894665,-0.01170889837689899,-0.08136714283385932,0.16231687897241417,-0.01556430664337305,-0.0055750006807373026,0.1308188132489687,-0.052859877377216015,-0.13988966876924952
-0.11015492424636174,0.003773985734767087,-0.13320621765067536,-0.17730033202816248,-0.20074858048824193,-0.0025501744307665545,-0.047029235172220164,0.1907814872933302,0.14811583674565207,0.03456292253602715,0.009874515637851517,0.021880693648663883,0.160965260544189,0.012767120792612665,-0.02119540577024733,-0.11754526731052531,0.1384227712601798,0.021736125116443225,-0.004933745446998994,-0.0742984513718475,0.036190934438433374,0.04763338580960963,-0.17891295989102202,-0.13896560745004816,0.16391643557381166,-0.0390697083863755,-0.16645356096358474,-0.030247508252851572,0.010427211647449527,-0.10009346173049999,0.00952322955343527,-0.16353156053083884,0.18618079426110673,0.16961626944533173,0.19232921332333067,-0.035430690084390454,0.1082351646936618,0.025877411448994785,0.08658586425056776,0.10803358410961496,0.186201004633596,0.09078549794212501,0.10954994081888315,-0.1511330261454589,-0.025047829624359738,-0.06583320829670906,-0.1554629598904497,-0.0992026041506809,-0.1692413031339039,0.1488335520505455,0.0206115292066219,0.11435667887701384,0.08469690620279083,0.14605594886935283,-0.055530354901899316,-0.19112214640265465,0.005818263351632312,-0.1367238107970639,-0.12939005049538024,0.12588409499193673,-0.11202532390272185,-0.08807372541119529,0.1308643938435096,0.009009587626466538,-0.13787201097289983
-0.12245589979569729,0.16557975629743432,-0.15375628671426342,-0.14754106023944225,-0.08191091605175893,-0.027686029578679675,-0.16975253322499909,0.08911416903436274,0.11032857839373554,0.1945191403190044,0.2014710185609834,0.014303114332891696,0.13132469221874188,0.1355640647046156,-0.13789324623273055,-0.042658708132633436,0.11399007058963509,-0.018647571647362374,-0.1585642838220897,-0.11673602769007106,0.07991373548990308,0.06420664982256777,-0.07967329232420477,-0.04868219146942938,0.030449404568675495,-0.1594813685296737,-0.12778352351381023,-0.20422485546332883,0.16907670036777353,-0.109857251380467,0.09889410777409365,-0.028223608234633532,0.044991053907345806,0.051155768840507966,0.11846941056527308,-0.06113958273602603,0.014849737145754507,0.015325144735948813,0.18748825022908108,0.03805676759366221,0.18252209740173586,0.18347991944274258,0.11187109769994788,-0.09261270384056491,-0.008387649675922756,0.0004196935343160169,-0.12067129589632081,-0.17827616973657903,-0.07312088205184886,0.027562238060417507,-0.033394149819267055,0.10229680398310845,0.09714456737855273,0.1603434741151154,-0.06324785332547328,-0.1385614725256088,0.18812463849199434,0.009970449860350821,-0.016318780126537476,-0.010744057956838292,-0.08747791455775006,-0.150545352525563,0.087994511314199,-0.08766865886524229,-0.037514943127864055
-0.11834109280517315,0.18092503101873897,-0.11895087141266958,-0.15435445711984322,-0.07079163044809893,-0.032495156492949255,-0.15919740636591795,0.1828373681414446,0.13860422232414787,0.150021349034713,0.1286792099617867,0.08297367302665441,0.016777066157132533,0.14047013459672056,-0.09835734200933112,-0.10992080737757182,0.06468073632155807,-0.1465878817303355,-0.07620273022899525,-0.07215134790292095,0.11361430944964658,0.07284610089280348,-0.03337136042431526,-0.035477488891829695,0.029996863867819575,-0.1506671872654291,-0.04773763996167516,-0.13426167648261156,0.1674077810514524,-0.14350063694900644,0.11387110556894706,-0.14501341051152067,0.17660958038515298,0.10297016020645959,0.1676395500009621,-0.06706485605104624,0.11378249573088475,0.20562896239517675,0.16059129841572842,0.1750880082540139,0.10862254341024437,0.045342807070585,-0.013519981573109675,-0.10458765875443753,-0.08188412921189206,-0.10410299131092982,-0.07692975264409779,-0.07587494610746477,-0.014242630197906567,0.05548832526451895,-0.08946180416510535,0.0876461532534914,0.1776480011771263,0.1023566160573697,-0.025932650268764967,-0.045037366615187556,0.15913920935642945,-0.047803092011335514,-0.08230324998427287,0.08712538050599024,-0.1456540893574575,-0.0015796155237723856,0.13172725525936957,-0.12202020164219521,-0.026264965768998085
-0.1043468221338181,0.038348477665503033,-0.017008756149011258,-0.14416715105941558,-0.13572244912874593,-0.042050664894784866,-0.1836997216705153,0.07693328821293426,0.012923633740742357,0.09781615415638072,0.08268147613879341,0.021788670397355197,0.17561558241525788,0.1849013972208315,-0.18327387514295604,-0.12270725448667302,0.0988972223785788,-0.06691983421325223,-0.09754534247010324,-0.03451325342377115,0.03852609034681274,0.12145154270679055,-0.13212846585785815,-0.03509221167280282,0.050214344491382415,-0.08621816628772036,-0.15604343077577326,-0.12419258803577428,0.176906112777337,-0.147742600238829,0.023611250294912064,-0.16690455825824443,0.05920983504605824,0.13013790738728234,0.11706046261241536,0.009505990649010372,0.1577078257572437,0.08426443229839378,0.04940639892552253,0.06687467719072908,0.1303095653454128,0.17610145944500483,0.008321367345825987,-0.06855718451940615,-0.11564320046994205,-0.03022593042769353,-0.075568731447069,-0.19003088412505745,-0.06464186667043142,0.0055727556789539395,-0.14122480743069324,0.1928499329356217,0.12342061768749658,0.13234815985066437,-0.09577607491906633,-0.12432144605189774,0.18313688059228062,-0.08565335263838511,-0.036969877564141294,0.009478901087105274,-0.1472855718487117,-0.0592633639294227,0.10892783369293371,-0.04775166541941768,-0.058822227140935844
-0.1321166967656595,0.07304690677387803,4.6469329381279354e-08,-0.0730696493094249,-0.14565304620178882,0.04368784628719781,-0.09029504766091191,0.18101327520774452,0.030894400383897052,0.08413959475147033,0.19893699857426342,-0.00910200966011169,0.17087289121252636,0.05546808148409236,-0.16521120045856064,-0.16170420683662054,0.17686322798778223,-0.0026184669218855257,-0.09941752736916974,-0.04914439192946821,0.137227329184275,0.031530009951580854,-0.20239926125889007,-0.20959998129299098,0.023173957757967083,-0.19930023941576513,-0.1586972565818861,-0.07634388898107698,0.03900771531061128,-0.12751609854698007,-0.022023811568601562,-0.10126645371535298,0.07732145903213948,0.16469343567797926,0.06570523388266965,-0.15480849607822814,0.14721433536302944,0.030118133902591254,0.058447527295681506,0.10799266812653341,0.08140816178647463,0.0904779357502989,0.15034929427262875,-0.09462025931484185,-0.08520132618084282,-0.013739345546540972,-0.16633790002697318,-0.2066243926467369,-0.14904515311271957,0.043317514725588334,-0.1260187901539706,0.15462745831062272,0.11160346707633371,0.14529327577972614,-0.06234549892131034,-0.04634560931774806,0.13440954135223376,0.0063685215932547294,-0.022187269296793984,0.01669160550891082,-0.08827734219376542,-0.06480889252019123,0.029601644549291057,-0.13941724896282381,-0.057561843463811
-0.11713233915410455,0.18655478976326936,-0.053504599778559106,-0.14734466017616454,-0.10896685752206949,0.07095453680957106,-0.05458429585996924,0.12831175922827429,0.01730057272885732,0.10347881740478788,0.0605928909932801,-0.018117639696451134,0.16322066169671082,0.18422029137388599,-0.023229578122569185,-0.0696109736915547,0.1341425019025147,0.0030613455984625465,-0.1265135590739778,-0.14066071555785165,0.11538648832023789,0.12805471597421017,-0.17297719773727355,-0.18640028168798822,0.07027734326536414,-0.03281291948026107,-0.1939829456236129,-0.10504385878923293,0.035582961961553534,-0.15012690397655007,-0.022029579760130903,-0.03605596676462996,0.11821473410745958,0.014653249586444969,0.19950729003861722,-0.14206754904248786,0.14198655109219163,0.09320512729883151,0.06502473148837398,0.1580384673694716,0.02265755501314979,0.07206944993843883,0.09002993627332469,-0.20380312938368825,-0.13084192686069573,-0.012910529369653173,-0.16860781114544346,-0.12291950544326156,-0.13666547788663533,0.12880563498764488,-0.06167435097872792,0.025311400068978265,0.18769459986349177,0.015277576981613701,-0.07627402480612286,-0.03584622803782305,0.11354637118306854,-0.14286147914507963,-0.1534752581020552,0.15750934806900882,-0.019794778030153927,-0.03178318411393198,0.022589224583037287,-0.039957169003564316,-0.01116557483047559
-0.10735141039695308,0.09311119775907527,-0.055769433325134656,-0.10251694397781581,-0.1397924806515173,0.09548498061047879,-0.08875708546914664,0.1940901418259573,0.08361366559179559,0.052019715803406114,0.12290762895921246,-0.02182189323766513,0.07166321689611314,0.012358857349579477,-0.11400668365336829,-0.02310452735806252,0.13559822144050052,-0.09093659047190228,-0.1524062477412832,-0.19500666257619914,0.18766454670786908,0.06906962514891576,-0.01885234475255403,-0.18193718605326625,0.07722409692499395,-0.18861707765837915,-0.08230099681285191,-0.13305945075476552,0.09472134911086598,-0.006455181588107818,0.07360752333637283,-0.17874814841716855,0.12825400203765777,0.05844863736636806,0.013144808136944573,-0.18504458200478036,0.01340681142002522,0.14457157758993103,0.0035190461576539594,0.17166170996724936,0.08095635262790417,0.10574834258047187,-0.019948303745471116,-0.09816073857864024,-0.1746822015390583,-0.10797931507250537,-0.14012599408163337,-0.12840918342138172,-0.13749847783043787,0.11903124986899746,-0.009636182125001379,0.18088459719801186,0.08537794294327858,-0.014055329104756122,-0.04793901794727471,-0.16736500772208793,0.07393742793213426,-0.12093100347668101,-0.1418696482361821,0.1238966433848395,-0.1738910890231556,-0.05432056156664313,0.06052602431742325,-0.000699738707690303,-0.11320343322580895
-0.13138603573114996,0.16797668669606364,-0.02412074590150997,-0.17153368021707793,-0.18097925513634996,-0.006846825444492391,-0.12395328688278703,0.031223286024977752,0.09260189707454522,0.06411690163605936,0.042851631507645566,0.060126718174090786,0.2067851773889617,0.03688081878250572,-0.07152803052926,-0.13586144797566327,0.04349965262211053,-0.021503485326971876,-0.1014718521522401,-0.21473245987830014,0.07620035453805651,0.01997281239955418,-0.19109837280954362,-0.13040906603733288,0.03407480945559376,-0.03780305788942301,-0.2165134271067265,-0.13171700869678857,0.1736156400596264,-0.13715798204291665,0.012617683616225681,-0.20101091490568215,0.03679934709980415,0.06847279223258776,0.025387067421904073,-0.07330585436823361,0.03986177957059384,0.11741298009275927,0.11474099882599634,0.03546783292743359,0.03509664703982173,0.20280067552314163,0.18868022685674074,-0.10144217312536787,-0.1306357829983896,-0.024002321232813036,-0.15113177060082675,-0.05020782205926796,-0.05318155921178333,0.155040821060856,-0.018974244314423665,0.028612375287044533,0.2053481034377671,0.12972819944189035,-0.14320945596809143,-0.06530079195306036,0.09012324537159341,-0.10371101424229003,-0.07125191637814557,0.06874577825995422,-0.12012485486853985,-0.011614304713540387,0.10118434010540533,-0.028914796656372855,-0.16196056582858154
-0.12793870095355586,0.08634971429272809,-0.12799161887060753,-0.06954664870296742,-0.13444651011495518,0.02642149059145122,-0.11281584130185854,0.0792703295890078,0.08407176812760712,0.017955390675042992,0.10033912413972947,-0.020976170554099182,0.11517903595555652,0.16933463339884944,-0.1165208612211277,-0.10124206639153012,0.13450620358053786,-0.15327191637125007,-0.0023378881597180827,-0.04619625559422625,0.1806076033919965,0.016027142413242296,-0.04203728910823442,-0.15497815451435534,0.020490298922285256,-0.0699757888179277,-0.20860270833309705,-0.05911675205223823,0.17617281895670395,-0.1938220233186484,-0.05069538961425478,-0.09599783693361547,0.08569880300160095,0.12366000846885665,0.0908949958289324,-0.19652755516898018,0.15197733972524374,0.0675304977600842,0.2188499459206442,0.21071819562558983,0.08223608752427994,0.15553143592592633,0.02445739319857662,-0.10508462229429377,-0.05660431614840407,-0.12308078282868527,-0.20475819681481697,-0.05207015821112351,-0.04662723446490677,0.0993389879703752,-0.0055890587385999295,0.13698582664027747,0.12159859811899645,0.10722181118694077,-0.05319154585098,-0.10238821618021733,0.1551739900679363,-0.11987298943962159,-0.05981471686601538,0.00044889140720953533,-0.02333872178602727,0.009129271666872047,0.12456193668768785,-0.0634949488078533,-0.06310297860794013
-0.12818651347462462,0.07521585361587325,-0.07605347337755373,-0.11545336924898855,-0.08295989716520336,0.09123952527298967,-0.05476414992909632,0.17758965874795649,0.10112804127160545,0.01641497656465261,0.13714707521217767,-0.05231689562848665,0.10083492806879575,0.1665651484315342,-0.047954440652850025,-0.14335869679013682,0.11037340692907506,-0.1031054390384961,-0.06656428837490834,-0.16461679496272408,0.11339858155286733,0.09497406384562239,-0.1382162234604622,-0.1951010382142431,0.1138585011213036,-0.06363230235445062,-0.08137067344020386,-0.17192590106172562,0.08191751174952586,-0.11280367617994254,0.0007888767507012041,-0.015948433871734946,0.05710957001385799,0.05608110425842608,0.06472774699772717,-0.05068604600110901,0.07402992229218817,0.021886348157278798,0.11210026092336214,0.1825831219286337,0.04209429883358835,0.13989591706231122,0.12606076292712812,-0.09278672150749753,-0.145542735200437,-0.08946181936059648,-0.21976662578974765,-0.02564590862833733,-0.17472539976902227,0.08138865645172016,-0.10962198078842891,0.2212058371751383,0.07132216122698738,0.10682541566596586,-0.22220686536332782,-0.02271396556820071,0.15300505457412164,-0.14366527913591304,-0.03605003767514718,0.13518981975647681,-0.09693441900223351,-0.09901790431413512,0.052605708266976164,-0.15578267845124008,-0.193940174041204
-0.11978509623577922,0.12790827639746347,-0.007312538995142659,-0.1715334497196764,-0.20591787794193328,0.10551647099552021,-0.0847946270353635,0.16485195650715437,0.03237895887281924,0.04651162305859615,0.06251367554847671,0.017824484638025016,0.16025987506772582,0.17603456865633219,-0.04948124992480076,-0.1023251170057952,0.014442058235251425,-0.009569072945826053,-0.12661367490213457,-0.02499278431746342,0.13435503634828308,0.13359451983197163,-0.04624022124016448,-0.09426118712705092,0.1723010761221911,-0.08590989164900789,-0.1993556382199711,-0.1687887634869903,0.1442913914855378,-0.05495626010952239,0.009462035782961715,-0.11572981164980453,0.1457654323332715,0.06944652378362469,0.05969419149639233,-0.040399154332076324,0.20551284440365375,0.1711977993127488,0.19962438890176756,0.03447546629191522,0.18253288092597847,0.07769132829637569,0.141583255190793,-0.16043996843704644,-0.027395373084771926,-0.1465104318819678,-0.030969103013731115,-0.03806403201577335,-0.1741740600947233,0.15822257879260854,0.022160556370783978,0.027756644920435742,0.1293672992581932,0.043969653327685404,-0.06596220464988292,-0.054928583612119435,0.07634897439936082,-0.002505914747892907,-0.13032088604664216,0.16992811068642674,-0.19137805331349586,-0.09329194946723761,0.06288197619303025,-0.08402738235304588,-0.011233904812466765
-0.10949749004004829,0.19241316675670367,-0.08561829055833993,-0.04325740654551106,-0.12096612800557059,-0.0189826810947649,-0.15066192878536297,0.1725019672233083,0.11558891210316367,0.10217572315792803,0.054495116510345845,-0.0810766299777256,0.0343119245007947,0.18953178485684877,-0.13225132163297718,-0.0626370158257589,0.18942020484069902,-0.1516251207512825,-0.05006971886777225,-0.06253060884022969,0.1258636461246575,0.12839439818874818,-0.1672302526327052,-0.004563078309610869,0.03158281415909255,-0.1832982677669195,-0.15127577370267276,-0.19704043165982088,0.1388700850956843,-0.14719248680631383,-0.05647876272705268,-0.17571178122346565,0.14291918210139573,0.15661648568890008,0.16509140923822965,0.0004534812698192715,0.05251612507064932,0.1737539096758707,0.023755127906601673,0.062450000959007136,0.02903536741735422,0.01230550676549073,0.06553722728078677,-0.00018278333793292898,-0.1630737304987878,-0.0028372769237310466,-0.05641217462326822,-0.07242531376494557,-0.17096023435902988,0.11736016565911901,-0.022735584013915008,0.07955406019642519,0.16005097419648565,0.09426047617342563,-0.07563533944643745,-0.18629670197829387,0.058129242579596146,-0.09168918028941303,-0.09724239278353965,0.013470367779154698,-0.09731318362559319,-0.05903630597540692,0.08935288319808765,-0.018894458556782918,-0.09362443656920483
-0.10960107724890665,0.1156980577756148,-0.03028834456529273,-0.19201478096631872,-0.18856931738946145,-0.03250951945883834,-0.20220077311841803,0.02721258852436628,0.1372301932980352,0.07070255924329201,0.07074120399438118,0.01297089193570856,0.14135878801375207,0.11291780151191536,-0.018233172355326777,-0.0766008715489034,0.027194859369703048,-0.03174699490243327,0.009104108833997341,-0.15646766323703887,0.09239573497250143,0.09643730928060759,-0.09371461389166605,-0.13566858019242814,0.19022455254133352,-0.11980259346345268,-0.08977882225421692,-0.1859565284994431,0.13082995053451543,-0.14733740402584247,0.0382364899229128,-0.02887619259361327,0.020235166792976496,0.13503512048820393,0.18000859276339798,-0.12296998385582136,0.01664774150252348,0.1920988204705436,0.18378945400519897,0.023692468951374192,0.10018956036258791,0.08126485683084593,0.08608290189500206,-0.10251106298061186,-0.02887354347501091,-0.11305575074469504,-0.11523488760076901,-0.0527798989536164,-0.2024383145153284,0.0730281650741585,-0.09044334527861134,0.04675268499083525,0.1508852836049614,0.09191374913399629,-0.09213533417547472,-0.14538697697299494,0.06064828577334915,-0.07583434713898277,-0.04852646354474125,0.14461895375830253,-0.10355004869789443,-0.07161036807671259,0.06354556131657543,-0.05071290832268941,-0.15389832306531953
-0.11596112317475836,0.09696168475478448,-0.14190215892014346,-0.05091730387072566,-0.07347340527270778,-0.024974031403492112,-0.0740588283632131,0.06770216849101326,0.16023022887500446,0.17090129612308688,0.03192126211386212,0.031905315791455655,0.1574735488098442,0.02338775442661639,-0.02656473132860593,-0.1619330614343942,0.080419134117843,-0.10107181348551439,0.013843204133994967,-0.05941795422059694,0.18919467083040786,0.024652292582847114,-0.05632250498906321,-0.15970427489117253,0.0686077191732803,-0.15444762885256302,-0.1597405454535529,-0.08857098803797402,0.17380570178965532,-0.11185993803941972,0.03524109233627488,-0.13797604093994384,0.07430825283181393,0.13844383929938672,0.041917740688047135,0.0027191196740022627,0.17348758993049482,0.046668207410047846,0.028710773449057387,0.180088732132511,0.17856081676589025,0.09182797090190196,0.014953294895944444,-0.19661704760983661,-0.07526995964061385,-0.09829097432816876,-0.13312681158655046,-0.11922168228510507,-0.18698008330856625,0.15577672785281274,0.0007797578467325758,0.05972039659703316,0.027406334609597172,0.1662539866146741,-0.18096331172853386,-0.06923576859365943,0.07065603801979536,-0.13563104272315069,-0.17355513023815985,0.1171040985606045,-0.13632663763478295,-0.09619935269171352,0.03452371674845856,-0.005529955544182992,-0.13884021007477831
-0.12378675994267331,0.10790603864893314,-0.070727634062757,-0.09330255901784262,-0.04640308254882001,0.04932438048381719,-0.038634833912526555,0.11435286125789831,0.20145526572163522,0.14573210746633805,0.18429787827235886,-0.05362624364509863,0.07723553475054862,0.20954798298695135,-0.1599935826066909,-0.11869778665244209,0.0379528303578015,-0.031996929628599596,-0.013730441953971294,-0.11870250123230047,0.07931042750100967,0.09430848341187235,-0.08635358047151205,-0.03659336145323242,0.15345695348421326,-0.04079087079712219,-0.10017131646602155,-0.1794200109127911,0.03600403259094048,-0.1854392482408918,0.06883376294561483,-0.09232812242720558,0.16590629517211797,0.11462367530359727,0.19152981105379138,-0.04501922460791166,0.19548483461475752,0.17052593616167439,0.07547002318467233,0.029175961329466014,0.01775078615486006,0.14271619373572636,0.14102741211856457,-0.14993572894581567,-0.16402985996538402,-0.12335790594140218,-0.03834700159091355,-0.01917001784271292,-0.0633031103213374,0.1196718013711245,-0.10844414203149064,0.07728550445416617,0.11986099873278099,0.06207684413404406,-0.1311357466985482,-0.14015619750195316,0.1318285590043225,0.004512340298070049,-0.04627732271613652,0.04206724660313306,-0.08541920052337591,-0.06928383539965771,0.1797508675326215,-0.015730499204182402,-0.0617792186868848
-0.11360938359311776,0.07320479420558329,-0.1754036925563637,-0.11103628827408972,-0.20075868910605604,-0.04809595214376826,-0.09654163600044155,0.001222893580287272,0.09881114698210462,0.15321690599151488,0.06365805437596588,0.029713150965314176,0.09866355084071374,0.009848918592757586,-0.201376805429966,-0.09712440328927663,0.07750851063679942,-0.1517336217124542,-0.12556013942274746,-0.05296491053158867,0.07353771983865473,0.03298904710044014,-0.1486608607796005,-0.09086562320136339,0.03387384979985317,-0.1924961975802088,-0.14801835457717788,-0.05540139808681873,0.18918213384221552,-0.019986219674179205,0.07841138812029774,-0.0037793212657076833,0.15420526588094,0.06930013040833899,0.1597193675806977,-0.18951109746185257,0.19306989687090156,0.13364899744074005,0.09130221782216943,0.12950370587435672,0.014192857513255799,0.1897479000387757,0.08831095428463234,-0.08447588616296645,-0.08556731700961646,-0.1558003998276965,-0.14424957654071172,-0.1776123619148308,-0.06375996662003557,0.05614148626633417,0.03386125085283331,0.0976010089848855,0.14939679818218804,0.11994076378065785,-0.13638646007478794,-0.12690388657689042,0.06314925016597536,-0.13993930425503256,-0.11508470513856664,0.08800718933251105,-0.13771501576827544,-0.14010171111864816,0.08199672753421165,-0.05465033405070149,-0.00851757146099576
-0.11681386426165795,0.09657611936545367,-0.008753977973314453,-0.15550945949162454,-0.024265966966551495,0.0460505664606447,-0.10972918676006727,0.17093318253794937,0.14475737888729587,0.18456063454013574,0.09957276371024304,-0.03380365673696315,0.07403104039594212,0.06368447460024546,-0.19840891449883966,-0.13006204662429635,0.1279424296712468,-0.12931710441265282,-0.11967538170568788,-0.06754053648919454,0.10877254137071884,0.0473005902820665,-0.03828501232988071,-0.05968106056627994,0.12660564747225067,-0.1158510362907744,-0.12509336533430745,-0.06639315268704557,0.10961072439564964,-0.17618116911947185,0.01295356400432327,-0.13636096036732182,0.16429594232503847,0.07453543211934917,0.1571412383917902,-0.04698020324465095,0.01081869068963616,0.05494907380495482,0.09817269031332718,0.05947384561928713,0.16729421293848015,0.11083541462993744,0.017512647893740064,-0.10000491427738219,-0.1727611689537516,-0.05036354588703939,-0.14947233156759213,-0.19936420344330003,-0.1857700028430264,0.043558716474384473,-0.10715910789109488,0.06991040350759925,0.13061438927739688,0.02267490808925776,-0.08556053291124703,-0.20090537019956065,0.06901173944654512,-0.07533116487361848,-0.14266579668273818,0.017525783798252512,-0.02733162051188832,0.009025070836609252,0.1276042257927821,-0.035015139776605114,-0.03412738857714605
-0.12165248311499192,0.19230478712024696,-0.0012407743035674095,-0.13876367534743392,-0.2085724165637517,-0.013773430928476597,-0.06877256691751794,0.11696324900334114,0.07433438865580241,0.0970842554567116,0.1620267642190991,0.041800528378020986,0.02949947613854891,0.023655158740168665,-0.07413193154075577,-0.09619493363248549,0.027409487347916105,-0.07142391570452748,-0.1340083694824422,-0.17282958621426178,0.0863351182824277,0.16807381365063653,-0.12113329487203195,-0.13384675383251282,0.07302473535350129,-0.07836302656581175,-0.02481048053188811,-0.05658283150552236,0.14400935867859008,-0.1518543564704593,-0.04337149815785661,-0.044262365590092737,0.07572425368657079,0.1837818062808358,0.11147517997823578,-0.11630559546101168,0.10038336116483641,0.20698140642537452,0.1786495725330642,0.10616229380348119,0.06649429446468423,0.0619877774302839,0.15231575954402976,-0.07812427271350236,-0.13868775484582718,-0.1507723054211229,-0.16256407072046217,-0.15297499345378546,-0.21309730685348371,0.022530954733983203,-0.030498860151055816,0.03106782805472369,0.17733058879339167,0.06644503289791166,-0.09403855306827501,-0.1674886158507291,0.08885129169341674,-0.07115017204281392,-0.10287016741350051,0.15015601048047061,-0.045673459202728736,-0.023542728769130043,0.03214980249319634,-0.1377964795183428,-0.18163267964549923
-0.11343519905886314,0.13735847198472972,-0.09138330514203909,-0.11845357420531294,-0.11042264814361598,0.1305545289885289,-0.07159160118642237,0.005032630311985222,0.19010470337371424,0.19402552353255859,0.032819772256195257,0.08079571756491473,0.08126386433783447,0.15479594270417749,-0.01407665315714243,-0.14900405475984882,0.08880950572455419,-0.06920320246536865,-0.08801280380070671,-0.03374802666437875,0.055636331950718,0.06532234401200268,-0.056685404526364114,-0.13966196822464869,0.029960795438686325,-0.125849762203806,-0.11191851877548643,-0.07358613894603404,0.17953279663362795,-0.1368977753768507,-0.0163227926578922,-0.06863133866594948,0.17690456738905888,0.09288919649709033,0.17180973454368717,-0.14345748215993814,0.18849711381029916,0.09110141439787915,0.056308917155429225,0.0939192056226234,0.15203550834629379,0.12382430466129189,0.05742392729748394,-0.15370612645398468,-0.14044177083869241,-0.09226668815811004,-0.09026834724132084,-0.08721340057527993,-0.0784221764465405,0.12152381613432704,-0.08290967175532514,0.1413950502798175,0.08938553015200111,0.1403602552329516,-0.032033059479215656,-0.1787865627904941,0.07684982387199099,-0.13931474982938574,-0.09087026754051623,0.08659799027754152,-0.14320138226079598,0.0053701836824658145,0.08366028584973328,-0.04929076629529657,-0.14371854218808622
-0.11472655039813369,0.03103310294138319,-0.0014140390218226032,-0.09215605631632001,-0.13780519892988208,0.0382517390574461,-0.1226114435260297,0.16059893204202208,0.19835857200705478,0.10977835206438588,0.15862880582780362,-0.08209489795281662,0.09451691742532516,0.0981046319278556,-0.06909525086185501,-0.17997986933240526,0.1898791707256184,0.0038960945431491226,-0.11061323238017598,-0.07385608954339815,0.1822204244838658,0.14867877773516558,-0.07244442871217421,-0.07402356783909768,0.1700310726653891,-0.09803940310265011,-0.050907790540222146,-0.10074697143380412,0.11609531472269456,-0.026046770683082487,0.05831646028834419,-0.0786034093048167,0.019705566688100615,-0.0011127706027473992,0.037312387676620734,-0.17983481166083956,0.01184391904216454,0.04201430466092254,0.19817048594317144,0.07498165880556143,0.10911238567076421,0.07075186415647633,0.1674758302195275,-0.19523454329516715,-0.15758424842094837,-0.09549501741665807,-0.2050443658869967,-0.10624256681029189,-0.1054035953216449,0.07188099378735457,0.021806623340619665,0.048806010755651365,0.14936891377919517,0.052300253602213805,-0.0294409836812062,-0.005544097948115487,0.0785047636467156,-0.033188186036130704,-0.10133491309608125,-0.015061504460112863,-0.17454505968989864,-0.030494355462398995,0.20911065496623565,0.0008256375245036941,-0.18063983129319755
-0.0948121806108758,0.16508462532860266,-0.029703308328978162,-0.17564282256801028,-0.1475629231816176,0.0032817378794359905,-0.05279967200577333,0.1380156965638488,0.1518116537877981,0.11768964778685632,0.06390064670951609,-0.005673243313543457,0.18729190747910207,0.08393543091471617,-0.09987149677230421,-0.12614893321938256,0.15039027455262916,-0.05061300349319873,-0.023099259443951796,-0.11791504828386425,0.1589650346609101,0.07689484695327539,-0.07944748174097116,0.005613049897667284,0.04818897388899195,-0.10520339866841372,-0.16464536187089873,-0.18088270916860844,0.12440311928406787,-0.048910759039648116,0.055230483520014646,-0.060456427064773076,0.0984378788731426,0.07625951537892438,0.1751793481470692,0.018684399835312598,0.12261050379244912,0.03867995245479752,0.16098519879390402,0.17044917097614912,0.1128720603571102,0.05457832865494058,0.1544580120674079,-0.09071881258704938,0.012423640100574628,-0.042303592364996714,-0.0377776698965925,-0.11884905435422613,-0.1356711809139068,0.134772239000561,-0.11625858860731222,0.10025217545180234,0.17108523650608978,0.08323572859157903,-0.17006006872198445,-0.13600689531219234,-0.0034639496062465044,0.04026142428596015,-0.1772631444252048,0.08166238667681121,-0.012882834746702683,-0.13895076430542747,0.11739185665038489,-0.14128920868358974,-0.062265859480897336
-0.11456913156339583,0.12022769792950337,-0.00020301134379048885,-0.03486774530551955,-0.15645711929140563,0.11434604878099286,-0.06620702961326293,0.17258507858707461,0.0779188866222349,0.058169910081254834,0.14887182617647776,-0.021436549715840744,0.11361864294504752,0.08099590098054249,-0.011925093912329987,-0.18157816162520135,0.14288483480386271,-0.006836408438975314,-0.12938123471723234,-0.18223850848501263,0.02046958330815728,0.1587456236701675,-0.13185325657042257,-0.028503602633405983,0.10666748355326985,-0.11940781494455822,-0.061791069349716565,-0.03777339750626077,0.16295273014291145,-0.151435134636199,-0.03102284357799776,-0.1146524688251836,0.14434027560154986,0.11660565822444302,0.1539508889770799,-0.07922090226974512,0.16077911763380037,0.16125465330755412,0.1251457557155057,0.16244619780905784,0.02944918393959749,0.17863220695393914,0.09126362693324921,-0.1477387220312693,-0.06387140959629513,-0.07368763030510923,-0.05356262445145961,-0.054357400951159325,-0.13534353669381977,0.07260965289129424,-0.12321619128669277,0.062300675086105796,0.013205939617100237,0.1265134704653696,-0.12152408054803207,-0.03656452185661356,0.19014327770493628,-0.017362315442145403,-0.049922345527508336,0.1290247285483564,-0.11160413212655929,-0.10063257844602295,0.14571200373280116,-0.009295327501489533,-0.10781387848470858
-0.10313421641670265,0.10757131894144328,-0.15447217997948584,-0.07678295040456452,-0.11341970068569915,0.00037092166951824696,-0.07202339118766246,0.08502037875294176,0.16372427441516235,0.05872353497795488,0.033886141431706956,0.036528350049553716,0.1419639696588609,0.17253853288487522,-0.1875888061472167,-0.15073858016323582,0.006734971867763232,-0.054997834142771096,0.008024670317055942,-0.14943228873055467,0.13654964240149564,0.13224758957275484,-0.101354566589559,-0.02224438855433012,0.1429315935428962,-0.14845538592043997,-0.015612995283215367,-0.10104067798210792,0.18954798264477446,-0.08525980400459375,0.0566744977095668,-0.06654479377333483,0.12692767585534054,0.15865902369931992,0.1352768394250037,-0.09375266402423038,0.0588753394631531,0.15585859484500492,0.023946541619687834,0.07944713434504251,0.16926957262602368,0.19600701004766888,0.025922003347323194,-0.06759447258910044,-0.12729201703509488,-0.017134999708471068,-0.06480968607580924,-0.1698204654030981,-0.12953058907418022,0.10086796654550544,-0.027694582505844695,0.19078818702123135,0.0957131276824165,0.1607021234447049,-0.17347764270518876,-0.04243496652068537,0.06316620476729856,-0.06920070279469955,-0.17773862446349645,0.15347980641869036,-0.09391038721128234,-0.015183079750742255,0.05340035176972442,0.009333584809498075,-0.009823674157486742
-0.11385549867980364,0.13607619904188586,-0.1430473281790926,-0.16876471820865996,-0.16024255072989915,-0.0050424836359351894,-0.06892276830793916,0.08420791558282412,0.07822239378784845,0.0182803917524622,0.022030579461562776,0.036705209037813886,0.05669634835364309,0.11128430143719899,-0.018858320459703763,-0.19492348193589665,0.035393921804553585,-0.13275073753055056,-0.036874455315904456,-0.16798561817831165,0.07080823306390689,0.20167246282500398,-0.08294632577851556,-0.030884084440145884,0.17658313201074216,-0.18673130618088993,-0.08730926468299086,-0.19916126854084903,0.11638388616853775,-0.16700791101619394,0.006837404090663292,-0.1952790448927903,0.08290132106537963,0.06121967379542032,0.0246039484773437,-0.1736505206960606,0.09353318598270194,0.037229973718440036,0.09929294026812362,0.05950860031390122,0.16829845150419898,0.08840200641040061,0.05521862231622783,-0.036590357259589465,-0.05616057704397101,-0.0612294158288758,-0.059587258667975956,-0.06085575407616937,-0.0549790671634436,0.194526581701465,0.021611481812385046,0.14648242897695216,0.15295788612268077,-0.0038698624618905613,-0.19133732979783266,-0.1518155828635056,0.08792990128237392,0.001999729904709513,-0.013017608112384619,0.08674186221301437,-0.12877788091787176,0.01385339284784628,0.1741502566041925,-0.0505733002593984,-0.11901223325551821
-0.10798729685562142,0.09278556220201747,-0.14248399630241848,-0.10659489833956556,-0.1826096435200562,-0.016538799953640656,-0.11731126054547197,0.027015127816705446,0.06065581093724327,0.11280199908186314,0.1467970314889427,-0.021461310625237696,0.20010564799942435,0.1621429411893138,-0.1576202121907161,-0.13180740915491876,0.005543409341330672,-0.04433172089292377,-0.04005495282649084,-0.06426923781933969,0.08520758505613514,0.12720116410485877,-0.06484752500585911,-0.1405207666443664,0.04201319857088156,-0.17518282264961701,-0.018453662983428126,-0.04974529338924724,0.18784311932965597,-0.10961969339175875,0.019231564433825142,-0.08632650853608767,0.013898325238273536,0.145705385464839,0.148588561497706,-0.06608165203054432,0.01749529033795771,0.13054887190845132,0.17977067602031147,0.1695391991345494,0.11477772599548287,0.18795983234015767,0.1367430157236131,-0.07319072149298009,-0.15311893109909014,-0.13483067623505363,-0.09917511839311363,-0.110207827061297,-0.13874665731459473,0.06746180691340128,0.0040876699825747945,0.18501092437817984,0.12134531542831736,0.09732929586312092,-0.03713446103636044,-0.08498220837167862,0.08571030243492155,0.01228322125258472,-0.029578762826745524,0.02072156201299908,-0.13530444390348093,-0.09538465130125755,0.16076394819945888,-0.10542170424136568,-0.0582126893094802
-0.10275921572292789,0.02304899519528736,-0.07732457960360709,-0.19788361696701,-0.16340055760747688,0.014693214864664338,-0.1466304134518143,0.06931495147136732,0.06607519482667466,0.08681333076775623,0.18726949010502686,0.0314217649004277,0.07171197347975769,0.12337266526226841,-0.16680532215287427,-0.006444320914194939,0.1115178193737854,0.018028876071157704,-0.04672402511226967,-0.07094750432254247,0.11903346457868502,0.17885243701435827,-0.013191629590102335,-0.14715027174663045,0.11639203519193529,-0.10864875586214436,-0.10575881665986529,-0.017194131608599797,0.18116667982992152,-0.07829068611908628,0.029186493132049147,-0.0042406559391082,0.10207861249390113,0.04113465355395191,-0.0007059589927631909,-0.1801887365535928,0.19420287884650428,0.06382768176586731,0.05666121010742561,0.1365099656863606,0.016077421560227977,0.1570114795033924,0.0683618265339431,-0.14250175380508887,-0.12494162760649197,-0.0737030464815367,-0.0843288161906889,-0.12030568138860677,-0.059998034603859315,0.16762106088842088,-0.024527116482219606,0.19347888009813383,0.03523764459280481,0.08422661774746172,-0.16024872250059444,-0.09924433001809183,0.15034496753942422,-0.10846051180515849,-0.09207119695192051,-0.01889936893081236,-0.07296220929249797,-0.17190548326531133,0.09189195108314573,-0.07822527830459002,-0.06704023304475333
-0.11653970534976348,0.07260661767547255,-0.0799290508804218,-0.020827625569833433,-0.1563525062810892,-0.040376096892029555,-0.035641724982503974,0.19908551116649512,0.2008375751364219,0.0017410927026424226,0.06943024050783302,-0.03663681243296968,0.04933354792624047,0.11123256385258745,-0.1514707441218801,-0.09225350060118134,0.05498888371432268,-0.007534375044407864,-0.12014754058845571,-0.17616382089942104,0.15671747416940657,0.11321712068115646,-0.04601119796911347,-0.10319528868461089,0.013758931893630805,-0.1951727500319328,-0.20227759111898014,-0.1051611832881564,0.1964639191235103,-0.08839888336825237,0.11140577994425964,-0.16406742037281627,0.11983994641342449,0.0968661629461162,0.03888771530733494,-0.18721819466546255,0.13421772100671875,0.09300559847032595,0.12495786936434647,0.097696103462872,0.14671826056709228,0.1212684527637061,0.09863794559168634,-0.130696128186322,-0.1611118201541924,-0.16090990634057917,-0.07376021538116369,-0.06713954602580059,-0.1100876661994691,0.08922475966869771,-0.04314530560660147,0.11213381199261972,0.11129814448453763,-0.017245047172745324,-0.14239511255451842,-0.14379788887346406,0.00393745077439717,-0.04332182594997555,-0.12638346999103292,0.05562241081119011,-0.01399978205459405,-0.03340805441482655,0.055473570526280366,-0.13831495613403805,-0.13513753318890212
-0.0928421154938494,-0.013277783160901762,-0.13602165338009786,-0.097281015458291,-0.10097171433436827,0.0033627198742161787,-0.18544797876115754,0.14764509469841777,0.10876680228484557,0.15750722792436028,-0.006581387535025705,0.05318464119556744,0.1036338970538979,0.07116416655065837,-0.10675478016915979,-0.11651673825684852,0.016810240050425956,0.021475997123128192,0.002776378800293876,-0.1593504270782712,0.18351265776776707,0.06510914935625725,-0.14323837477845835,-0.15371859829383022,0.1061497830852049,-0.1398261739926061,-0.14602700981194094,-0.09345932998366267,0.15082157419902376,-0.11059741162670611,-0.052023646150867776,-0.1625127842827337,0.010717380650107286,0.15172940417665193,0.15898551529142085,-0.13444241572055826,0.04930752311949132,0.16477451993559084,0.0014492099071080542,0.07091850698980082,0.16472114116962394,-0.009837834730334762,0.09804732021651759,-0.13034186574044887,-0.09558723746520613,-0.049708647430864984,-0.11884865914960926,-0.14901286855698673,-0.07670586459811675,0.02809796861801174,-0.13433138787739318,0.11099680048176182,0.057031294329835634,0.08010386907753411,-0.14661444629662204,-0.16894499679581929,0.14143582073761443,-0.08736204554214382,-0.039981212466840665,0.08071151559573504,-0.1744618228972393,0.010892843982384385,0.08271690037065432,0.0074481210646444515,-0.15404304345364106
-0.11243693920608192,0.013297532710138359,-0.06303314318383255,-0.1722819933881211,-0.05704978647123785,0.08054554506797452,-0.1135077744157944,0.033456717399764094,0.037284292392228156,0.03325907701404838,0.10335347496557065,0.07757540118109152,0.16551675033388652,0.12094429752739101,-0.16982242770738648,-0.104249891943569,0.06307045930889546,0.006963310669584886,-0.09552313529089611,-0.1463062389307592,0.19637295805560104,0.08567677152030344,-0.04037021285384638,-0.040573759399495236,0.16649779360908712,-0.19166313920766312,-0.0786817524895516,-0.12049343904570144,0.07340149478311825,-0.1749959351115002,-0.06537506184568725,-0.052737949479888725,0.12078314719903435,0.09205397319174348,0.05811778166224478,-0.008930557196382928,0.08704578959377451,0.05763052356853143,0.1496617860251637,0.10989395398958292,0.09426869230633642,0.11967923009216974,0.017921165387437637,-0.1637612602934673,-0.17878280761087212,0.007140660193395176,-0.10594094398119198,-0.08132202571552025,-0.07341194285120511,0.1512483376058664,0.002191773137456729,0.11272174166730153,0.10990288702655189,0.09140837733927512,-0.13899634128733712,-0.14418057293049713,0.16788101462709973,-0.11217986664482167,-0.04143961677479923,0.09591047580596167,-0.18374112337519685,-0.006106305600900134,0.10304366425045318,-0.15846374297035057,-0.12366738872444627
-0.11471973804400286,0.18459833137938253,-0.08440266252459344,-0.11967497071439923,-0.10538887920247067,-0.02204827675623115,-0.12211474624072494,0.11714790292145554,0.044660701243258744,0.1298218445861238,0.14410292019833404,-0.03379128195138943,0.011728046784249383,0.1327063120547198,-0.10991132525748137,-0.19329018744219292,0.10522009169017892,-0.063339796012517,-0.056993979648778066,-0.20144865566348027,0.14948852382479524,0.14945801645411222,-0.006497667376166788,-0.10219745021057522,0.1913282682426779,-0.13544993240008213,-0.056897442450327074,-0.008869665473825944,0.19668970498288468,-0.026502052635211305,0.004288985657639702,-0.02350919757966491,0.1373801183154649,0.12844398717616115,0.16423836341649323,-0.04699578721452527,0.027749158869271894,0.14608256171195932,0.1358993949911535,0.003085626343613304,0.10350367691406641,0.1171511559690802,0.023663909633000146,-0.07804950081023279,-0.10144025688447708,-0.09177877281977635,-0.07270890654783839,-0.015072907067250991,-0.12081342489709386,0.14223826762741987,-0.041820394316921986,0.031359006043373404,0.025934446292463196,0.11207434875104147,-0.19885610206831417,-0.030403074465539588,0.029585232517308498,0.0019515340068211042,-0.16157737935622277,0.015460432968162718,-0.17438988947071482,-0.12956174132071568,0.18213240999903083,-0.04036171885847155,-0.09721233977451503
-0.11853623323847204,0.1671683575385057,-0.10917146141543724,-0.16236284539055013,-0.07043500707782793,-0.00012078843365007324,-0.20117425009313605,0.1081444990217058,0.061927565920269594,0.16764838833714035,0.18995728472734197,-0.07354576752306784,0.12739563740821228,0.1127737491683935,-0.11460153443258758,-0.14133369262083254,0.15639361890858275,-0.04587539630145596,-0.1732362816148125,-0.08797419181521571,0.09418964610420227,0.08525453881278708,-0.05710326827944098,-0.05317479453973339,0.08892353512909357,-0.09226586836433394,-0.08824130919685085,-0.11044255731727205,0.12945737775562555,-0.17345887251425,-0.064416479097644,-0.0196551352708066,0.07787953402428181,0.08907997636900414,0.17096344735713606,-0.007888280183690543,0.05460863789507081,0.13034303175248846,0.09003866792257967,0.03734349830876666,0.15070764376068777,0.09592884843732374,0.012987951251760993,-0.16893998603888263,-0.11052722795838053,-0.12832643783683564,-0.18411894886156424,-0.18993043631190917,-0.10393828159069446,0.13972160839503242,-0.04348111780632356,0.11915828411504736,0.039292644501926086,0.10084393812183737,-0.09970059268747691,-0.018286728242635414,0.015056642916408453,-0.0023376563820007687,-0.07206753710438665,0.11113211068404961,-0.13383306593069141,-0.07489013975078766,0.05445855063517932,-0.12689888070896785,-0.061049180074492046
-0.12092289477029235,0.09340628398335454,-0.15168887677123516,-0.052714498479467874,-0.17055554590263824,-0.028083721478139766,-0.1367533942352219,0.1431323091877495,0.012818423124984069,0.014938062508810059,0.019095581480026772,-0.06151822483109592,0.07108720812779383,0.2156975972001038,-0.13284537381440487,-0.10995300157470062,0.01871524869999241,-0.040211801913402664,-0.060241603862472466,-0.06652762743951894,0.12488030660939235,0.14379943104582846,-0.08055167500879985,-0.18745130802323334,0.02463959223845844,-0.008828706226864554,-0.10322984370648251,-0.1893779113473948,0.20977243776023458,-0.03666150958891046,0.0315517593665915,-0.07961614403695738,0.05169897452760984,0.07088045447113286,0.18306266658228265,-0.14164049877724694,0.013113807576182546,0.1774829832338682,0.14822374139133318,0.08864559212125762,0.009176451274130472,0.09224010021743967,0.009047363256478896,-0.01203984394633649,-0.03668836361779495,-0.0674017692906161,-0.07231927014261814,-0.12807477008242812,-0.16271848837365438,0.19135955342766042,-0.028529518970877445,0.21499726755614526,0.10602893087983503,0.14523639946412528,-0.19086512872299022,-0.16573966815163432,0.03657206873411772,-0.04583110484398766,-0.04059321367245998,0.0671537040804876,-0.16645164160185164,0.017881952438245412,0.15529931060869964,-0.01545320261639132,-0.19833705219241335
-0.11952317841018917,0.03997985434943996,-0.041722343020627176,-0.1885021733448804,-0.0547991057825826,0.0557804576053285,-0.19442034835678054,0.19145693639986924,0.04309467512662869,0.11408073090833004,0.04857537325706772,-0.08566152834465071,0.10377413342667875,0.14061351693359378,-0.1443219674008127,-0.06197546315173529,0.009573141929564067,0.013586609377479407,-0.033500273971930915,-0.10557844289540587,0.09086056088909321,0.18653232000668613,-0.07922638006545574,-0.016283092107387837,0.09307258459219843,-0.09902062918306014,-0.13951587210688882,-0.161339294492524,0.04011548296195553,-0.1538750131842971,0.10899575737875782,-0.08270266090775563,0.07318734860004712,0.0861006882803654,0.03807525302963638,-0.0847414142717017,0.09948499779295086,0.04142306204448276,0.021832030452848764,0.1589640223215643,0.1055120335589103,0.1499600822727654,-0.0011307571799742033,-0.1935659578464928,-0.12163999412048027,-0.1274759042479831,-0.16758466665089397,-0.1346074384872351,-0.15196093166349176,0.11360154672178827,0.009335414748882507,0.16702284022528416,0.09466297675825784,0.1580998229792977,-0.08927289068030776,-0.10483243492831437,0.10794301234412508,-0.10980859894937946,-0.15775709995955017,0.038710145134508364,-0.13943191232002414,0.003029344819215575,0.11418099225379903,-0.06637800047780049,-0.12175737578303344
-0.10657066641528268,0.03067892677959592,0.007550989582061193,-0.18150390748556036,-0.17724635875575678,0.02467970538316159,-0.1671554516804432,0.1735095579274745,0.08939679198549254,0.03185617408537234,0.008095270560252908,-0.04547293382861477,0.04807071440831236,0.03037941711469484,-0.15942224165375862,-0.07735536723748453,0.1508176724801921,0.021529234464869085,0.0056015542070444735,-0.06779166998253472,0.1141697040528396,0.07900259540791628,-0.08587039290161731,-0.15147269983350295,0.11220913532679591,-0.12638836489152808,-0.1792382961503222,-0.08111499763800538,0.04048489325050585,-0.08213595630157644,-0.024879262431051746,-0.10448354959876667,0.10926095644173725,0.017031544773742507,0.13081471764538127,-0.07769889409830452,0.013375633383179104,0.1622748429601641,0.19457701235534933,0.19337019672255576,-0.00784639698196874,0.06138075083078112,0.09867427017033549,-0.055875626052683765,-0.07417775720977067,-0.15193978151368134,-0.15718511405326024,-0.18009947518133973,-0.04070162061233271,0.167622253662333,-0.09304361544627127,0.11236741062568388,0.13263494168297604,0.0024135906496266985,-0.0819074008947042,-0.12223394231809435,0.13461570030874456,-0.034911117643330145,-0.08561377076655594,0.09870844376956231,-0.1871338964884511,-0.11240706450484794,0.0792263667747323,-0.155729865230964,-0.13805013554420933
-0.10363969312354553,0.1279715529931718,-0.09766658501629881,-0.10584247930529303,-0.14104607221809842,-0.03881244219348737,-0.09901737288028241,0.007451871636938904,0.16472844003141804,0.048034406847804065,0.0026107666274101547,-0.004711695780722506,0.11641146564138817,0.08745508474869636,-0.19232750543675076,-0.13031181318741228,0.16690350090526682,-0.1364031127330429,-0.04920835368782644,-0.022339651128880384,0.012426892325084742,0.1820692859550586,-0.10138434410890367,-0.04487092636951859,0.14643593543492878,-0.07000733666709928,-0.030330233407263082,-0.18571806567660012,0.06691601357337232,0.003353922887257115,0.06251277192583021,-0.17066748300379067,0.008728983856339917,0.03845027428813149,0.16154245462967262,-0.018322170060024363,0.14325595700698382,0.12278346224737893,0.03221750823919418,0.15173797297759728,0.18523400607886317,0.1924334005553513,0.12476455218924801,-0.03947760573167509,-0.0686986903176352,-0.0980989569994079,-0.04983246405089847,-0.09362706938683989,-0.15580300181801154,0.15916438364300567,0.04053414635223815,0.08880000312327482,0.09717097764310112,0.08787987994051764,-0.17765172213139613,-0.11593294572677096,0.11178122312282096,-0.12074306919109866,-0.17099215639447962,0.059074612033910005,-0.04873488987376054,-0.1721740735894465,0.1684265012837044,-0.1281590257563917,-0.09584322760361538
-0.12264473994254,0.02643790474937643,-0.13501198452335886,-0.12184592990997117,-0.08751988292336907,-0.02332573253249912,-0.08884139913972187,0.17065411259330904,0.19457886453683024,0.16287126547003736,0.045364779959256495,-0.07051405031555795,0.12999173893875013,0.08769089683166414,-0.19164704433085317,-0.12627126319186516,0.014006671523173236,-0.045703482110259236,-0.1433345321739169,-0.11817281974190101,0.025878247768259283,0.18914175590717539,-0.19197981041067166,-0.018153404867245315,0.11116600779703827,-0.13233822904565512,-0.07333347456867968,-0.0519923756355148,0.10180915676969185,-0.05676027117301799,0.029924253390114744,-0.10455112236243105,0.10747645574619204,0.008583137126313938,0.14240369705271835,-0.10126164042062392,0.18909823254368294,0.18089592517217093,0.061216389950712075,0.01565358427107405,0.1540496759766661,0.07693573981720125,0.055268847128089965,-0.12280296982477235,-0.060193404884780005,-0.1484745371119697,-0.12353871958780759,-0.19063334873301133,-0.0660696362058163,0.14999850395029918,0.029451271524570437,0.16398552641289832,0.07722592282717455,0.015713156086060626,-0.13258793765490787,-0.04721091894114465,0.012745116644069,-0.027253312918748263,-0.10570366731148803,0.1599251066947901,-0.06845732693677464,-0.009714622103217274,0.15790591206384483,0.00744693838137902,-0.15942120811810206
-0.11425449578181794,0.015189239671992014,-0.04941807854796969,-0.12062373910273624,-0.14706044411178204,0.07105721733872213,-0.15208931514822138,0.08426289465567047,0.028592957094039757,0.08788788163882133,0.07424730224449556,0.0035785501880126174,0.17373325835053274,0.1679379506714478,-0.08922522106226283,-0.15876184983989916,0.1755706783922841,-0.10018230334608767,-0.1281840762472561,-0.0731165561700607,0.1383768833512167,0.12440870137988246,-0.06414336640253761,-0.06559640578798784,0.1274123130897346,-0.19082715907270573,-0.14468369322675215,-0.1038830982762347,0.18500080359174773,-0.18528111553746543,0.025937156011816426,-0.1786778665849121,0.13625039510044562,0.08097103536162113,0.03569499872012465,-0.12397132984029732,0.07970783406285971,0.09019532158137289,0.04364657471603159,0.05576258077782436,0.13192134263088023,0.12039500446358983,0.1291838743340726,-0.183351157456806,-0.05852344546554181,-0.07777077690989433,-0.0377243837672527,-0.08765326506978244,-0.16319891363566988,0.02678066813784047,-0.03888016763503075,0.1701892396725301,0.003149399003249891,0.16594054909139336,-0.1635401540196171,-0.06481253696624098,0.17650206546485248,-0.07776644365081274,-0.0572013286196043,-0.020924851858799755,-0.028664622817344915,-0.0898587404444821,0.061875540172497176,-0.07875825680227165,-0.01889629228607213
-0.10795340590632531,0.06043468328264978,-0.00514353255512283,-0.08547280369130358,-0.029477164638194296,0.07753928697649172,-0.19434237846208824,0.03787559343670316,0.049344223767832,0.06455486662657482,0.1899530395253832,-0.006912543339571916,0.1200135121643737,0.12800309888726666,-0.12313190540085395,-0.14170532977726716,0.11985035045687276,-0.155451143626576,-0.010554336196212492,-0.11681443095790638,0.07397403422220927,0.15979708902209364,-0.12397425170082753,-0.002373941497275349,0.07488433948347702,-0.18216373872155678,-0.09042366327879228,-0.1345784259658294,0.16209966466195114,-0.06867478623623574,0.07659198703740368,-0.1894678860836081,0.14941293030421848,0.07171732542684252,0.17312051975147807,-0.17998015183016147,0.1668565547753285,0.01978952745793164,0.11171753391569583,0.11799622328958197,0.1851119060899651,0.017348891732055585,0.15856534345666967,-0.1177709241969451,-0.05291162486532531,-0.04344361164993883,-0.019965181964974547,-0.093543525513057,-0.07317509341901544,0.11379374169126051,-0.04912418957597305,0.1794350261681944,0.0577351389666627,0.05307494281540819,-0.19760413633399213,-0.17547177789337848,0.06589828946497475,-0.06517447052099264,-0.09006968587346854,0.11261400529419759,-0.0526542362756114,-0.10768812977840078,0.04617586950134941,-0.10277866155872116,-0.04140945018986022
-0.10141570282428645,0.05710867766093574,-0.15260707093778264,-0.013657846685541066,-0.04616279360280942,-0.02887212124652608,-0.1794562226106679,0.14741538899829107,0.10478284423258387,0.13912086201437113,0.15205225528279748,0.029358577958763895,0.09869811687013633,0.12229454996774004,-0.13458419711220665,-0.09348083337514204,0.16122575793829264,-0.022265577620860986,-0.020715732178033776,-0.12890504898666022,0.004562728088081179,0.004893210627402837,-0.18005502568592674,-0.01274348132598545,0.018773152895315885,-0.09809686443956438,-0.15878169236737313,-0.05923257533114519,0.1847107916562882,-0.11621599099772541,-0.07037839570950923,-0.10556388809049767,0.14790604802628338,-0.006067515997588644,0.13968761920589434,-0.05628411962373094,0.15443113932147065,0.1317353595435342,0.15250170434713062,0.09391820203055729,0.11962418910891313,0.07910695504736899,-0.0022293188007853756,-0.022575287930446785,-0.16646627521915966,-0.14021026365469316,-0.12485442890314508,-0.044598066974655216,-0.16956592536043913,0.1788524283788839,-0.06731227679942518,0.029615961676219507,0.09406792746832965,0.14808613760339884,-0.13511180300410522,-0.1593988051415487,0.05372411734059103,-0.11778008736226775,-0.12602959060778537,0.07861583395145391,-0.06678492705906486,-0.07918665314658406,0.13765884298113432,-0.037573558690214205,-0.08521450219095354
-0.11174057337597466,0.09802244830797442,-0.07429428995580585,-0.016195524882239503,-0.10996865100430665,0.03157858937027565,-0.11049003356285847,0.19191558787427937,0.17685506781690574,0.12406680490918151,0.16871445315190287,0.02599896718224182,0.08641989241514096,0.13675369124564543,-0.04577316423898436,-0.12395223806288404,0.1840974504940719,-0.00018427854522112325,-0.029686337769123296,-0.028042018506901255,0.17538597162057257,0.006733884423366875,-0.18987113607929246,-0.12172366635561412,0.09981750489116487,-0.16573774918337042,-0.029378087999755716,-0.18044534639513599,0.17023314096261846,-0.12324298341558369,-0.058093993948613275,-0.05583615526902163,0.09864845886369823,0.02135080429506125,0.04359544517015854,-0.09333020266725607,0.04502380814455025,0.12170659568534441,0.0179669416219669,0.09366294039489452,0.001967246624741457,0.06625288639145818,0.04245802436173551,-0.14058093063691685,-0.1325746180442106,-0.09002652056061995,-0.08751426681377557,-0.19886858239240982,-0.1391522063821163,0.11081578847112784,0.006000343467497447,0.07134926461666963,0.10032726077730647,0.0044065777803757545,-0.14230504837335878,-0.11196700625476434,0.12465581941037603,-0.03744572235774311,-0.07809810907378463,0.015851913817861107,-0.10539350905594057,-0.12356878283660554,0.043809557186805966,-0.05369174673755036,-0.12861079959865604
-0.10107952783706634,0.1082444036055372,-0.12476339962917941,-0.10944236947823215,-0.1924991554899803,0.004119964055073351,-0.09568084435801369,0.17983798950356475,0.04655810569495604,0.15333852842239176,0.06660952190614317,0.03857120095769649,0.06668658974129893,0.17591279858984676,-0.13366807585598536,-0.09904687773897458,0.05133366106127868,-0.1319811736855003,-0.03358304367125101,-0.013558152484985935,0.18985740611583035,0.16335369100275365,-0.12974068271513692,-0.1926766104816748,0.10194418135764105,-0.058752351402357614,-0.14632262671938975,-0.07510489518718338,0.1545216970431617,-0.14078880923511003,0.06621911688373962,-0.0824920462754062,0.09252690931636896,0.010141611679372513,0.15113177295762145,-0.03528946958577037,0.134535029592654,0.061568840819423196,0.1529261438457863,0.1279719873095128,0.09899465968379907,0.09336277256913592,0.07579971604445566,-0.04349300554515039,-0.07563169511288192,-0.11092867155889245,-0.13315328978482535,-0.08694765659600572,-0.0444592854472366,0.020837236269405705,-0.08676284434064231,0.05899668168509101,0.16154093015533433,-0.00797131623532128,-0.11182924371690571,-0.01140231081530102,0.10124852967866814,-0.12227390454536614,-0.16207781447131459,0.0141090210539573,-0.055878012806001645,-0.07869194971932059,0.19603368267864704,-0.08361472176104015,-0.08831673686972771
-0.09818017673562524,0.08138125544354281,-0.10933371206941878,-0.04971679769252103,-0.08929861139978924,0.06024012844179416,-0.17568310104527832,0.04537964125734401,0.09132920716467596,0.14238347809018853,0.16474296099053515,0.08000195979726149,0.1600873930807562,0.14242785872309582,-0.19307224137219456,-0.17175345989331842,0.13608264150357285,-0.0733194434207057,0.023859802384983843,-0.04154584401661899,0.16539774789985487,0.03505407632054608,-0.033736849480347206,-0.16611706700853923,0.02315492921642339,-0.1697425664943018,-0.1497425191174395,-0.114992431481257,0.14764953083083035,0.0034719754362115855,0.0754234955947886,-0.11163183988096124,0.19040870099324939,0.027722372207544546,0.0008192719522880399,-0.042477313914329726,0.16345006067289405,0.1191074924269714,0.16739095432803291,0.18247805377650306,0.15303634570217783,0.10566758680477215,0.06672240543202405,-0.14175426772539257,-0.1057914754769509,0.00788821857490609,-0.08341710973196884,-0.1683544198297351,-0.0021236342233171826,0.05033752202844089,-0.09647620483746358,0.16034198602071167,0.11111304261651461,-0.019384813416679234,-0.1693764998205322,-0.0014778899992883903,0.09367072995315374,-0.036020317604247336,-0.18429848061004667,0.11116867261073742,-0.013947200389961641,-0.1110183605120901,0.019880430339503104,-0.15515050616391465,-0.014969317853856294
-0.12227513527243233,0.030893891942080254,-0.1439256861731159,-0.19567179198288318,-0.17208365180236432,0.007442934133245468,-0.17586049880873977,0.047135887691501455,0.07325974070304454,0.003282372181669232,0.08138136719670203,0.07018144156118351,0.19438302633368823,0.10108511824884876,-0.10062567740203236,-0.12039919853054604,0.11215278088553658,-0.05576381311707019,-0.019099987557223527,-0.0919341721856662,0.1476538169252557,0.11765901278648011,-0.1352796700833078,-0.018679211496170488,0.11994081576983093,-0.09242037399300362,-0.05566996692678858,-0.03622489332561017,0.14281123599365325,-0.16647237629256284,-0.05364694265561301,-0.01869808265455483,0.11132679648673875,0.045335177379277815,0.09982592181826416,-0.08756368726668438,0.11436684686346886,0.10891406783297952,0.04569146375800334,0.11743482056902733,0.12461286275587033,0.14615861529928356,0.1781245422555884,-0.05982172104655228,-0.03324143425882815,0.005198029865477295,-0.11367593938778811,-0.05738670439895305,-0.1780496975956997,0.05893405001514889,-0.011157205740688033,0.021773601221846028,0.07154854507878966,0.011905719742970914,-0.1908383478575549,-0.07087603875674808,0.16422305829188913,0.007725580365401849,-0.15574342668280886,0.09192991976707329,-0.19486010178097146,-0.09229629917894325,0.16754963599171235,-0.15400948337690334,-0.12761901928579578
-0.10996138200823542,0.16073727686480543,-0.08491532020293308,-0.04296502035358936,-0.05429311968163076,0.05745197213560538,-0.05528053606244138,0.170726832494638,0.018304433413726236,0.06862439353393827,0.0558992670536017,-0.024118562682442148,0.1449781313397152,0.12184071590443754,-0.15128360316740583,-0.19580890488843142,0.04768621132784466,-0.13003690053834321,-0.017316040377193042,-0.013557971623532566,0.09138351509108089,0.19151847691389867,-0.13822335138883432,-0.15870133912665843,0.14965082536013882,-0.08506577561191048,-0.045954046395003216,-0.20057863246818464,0.015412868822662695,-0.015441529184739821,0.003695177449604798,-0.09527275661553175,0.0934150418852794,0.08674880523462605,0.06385693980135033,-0.11799779913730032,0.19424673693307903,0.19908423501869832,0.1431083080465123,0.1779691025359584,0.17507076704952929,0.14857007168199513,0.06273671207828903,-0.018463513473003405,-0.08394150682446883,-0.14022489982485156,-0.0769961062061206,-0.17633376465411424,-0.18064899561833808,0.02263106447041413,-0.1324749629858162,0.05468248808944228,0.05894287694013471,0.035832432223146436,-0.09701584939109832,-0.05681759647074605,0.048064593924038466,-0.1162286552514227,-0.1279782412545575,0.013646245564224963,-0.10126445942425245,-0.16677998180643122,0.1213113438540443,-0.06711862015106511,-0.1191169000955035
-0.1282838864566124,0.1304650019601324,-0.15041512943439425,-0.030607742922711182,-0.06914408850949566,0.12239625240856448,-0.18272191325888,0.0888601513923292,0.0900019896921104,0.01977270640186087,0.15896311150774878,0.006556168336498985,0.09243692421607552,0.09809032529345468,-0.15034140179663374,-0.041958515123387836,0.10863970095156375,-0.07206539418356595,-0.047615558745610215,-0.1874095852516379,0.11756769494845645,0.019470086478057518,-0.13133693536098262,-0.07080818290837057,0.01630157004199501,-0.16823284761166155,-0.047617955876292334,-0.09146464671763446,0.1930885626423665,-0.05207139877530653,-0.06847289482091022,-0.020527344192295693,0.21269861969128534,0.11270734011805837,0.05375908850747589,-0.06279935426075473,0.18488833384117542,0.10620684783855741,0.10064303087909868,0.09455784199152222,0.16801760688059114,0.13332625339186505,0.04928518437421867,-0.1682711781399772,-0.04911850212442815,-0.013823583003980388,-0.10546922450525138,-0.19235626609526352,-0.2096324141575874,0.04663603126403564,-0.10089274784993055,0.0908888115245288,0.09175564031303178,0.10609541713807459,-0.17651863194589273,-0.053508537160874156,0.08023656710298877,-0.11661361178896164,-0.15453018557021353,0.07765913166550353,-0.08068715991235453,-0.04126556168490936,0.08990718701175736,-0.08414109394151933,-0.09362518857860376
-0.1061589694086898,0.05013333775139876,-0.16597781635575867,-0.16220365900206093,-0.18811595338765774,0.10287647276624759,-0.03767753420191294,0.13459284704609567,0.10587324610986049,0.17047986513170219,0.12163034026842215,0.048421154359491826,0.04861654005421665,0.14405943273290306,-0.07185132247813397,-0.12689530331332094,0.18769344670191343,-0.02957085674028287,-0.13723197798167056,-0.008278573084154061,0.15161380581926884,0.12727269416307738,-0.12575382755400533,-0.01170451681475467,0.15912494791790383,-0.11599757232672778,-0.12131586581310617,-0.19829184868937647,0.008743118684263468,-0.02345549110084715,0.013052328627231515,-0.18437682401178493,0.1896619590501102,0.008142180081965721,0.14877445077078735,-0.09906695446348009,0.14937470092413224,0.06529437150499962,0.1854961341967297,0.15855412589962553,0.024150037176490953,0.11173458656123407,0.10297654713559347,-0.05078444092550496,-0.13146832726734192,0.009048427132269887,-0.17294348944509985,-0.18048725771144003,-0.15687576502566622,0.12129738307692083,-0.12288945961001495,0.058254977992891026,0.12420599280487829,-0.008863706020902482,-0.11187823307765676,-0.044938454386163465,0.0738258044613056,-0.12244023735128527,-0.0142975338009211,0.03842909418514445,-0.03868021618981156,0.010019953273800198,0.10592327304511219,-0.0779943482150115,-0.020922935816322836
-0.11772191636070012,0.17983263189199952,-0.18143517468662737,-0.11774834585303712,-0.07976043410994943,0.06345688015081442,-0.12445640219968432,0.17355410228313806,0.031058061628574246,0.15581374444162588,0.10646443990247198,0.06357299723951691,0.1238434843670696,0.07520783744746644,-0.01827112556288021,-0.1114910764232423,0.009660370194723671,-0.08343723273368622,-0.16276292068105022,-0.12448336257447729,0.07275696713002978,0.20475699732529173,-0.060073960472571894,-0.08162843368394584,0.04657929668110357,-0.18128447804100656,-0.18651917149370828,-0.15529899192245789,0.09339456534344504,-0.0024993254751478613,-0.011978158163223339,-0.03909619938281472,0.15010417578440213,0.08133207873095759,0.12837705143851244,-0.06420410963336848,0.09705006128380722,0.078002458138653,0.10493192466211441,0.043235730701500864,-0.0007817996288386769,0.02748733880292134,0.13059437378288807,-0.04190629621358022,-0.1299765737308948,-0.1428666909723645,-0.02472536761961109,-0.03011979858117306,-0.19714534826396524,0.19950247097801502,0.02840816598405297,0.19556909317059004,0.1994010574065881,0.0935220925457984,-0.10814081603919784,-0.16816781077724163,0.06496641811469309,-0.1537455011021718,-0.192343411037229,-0.005307741235374065,-0.09365441641914188,-0.1287020455473005,0.03344383479634384,-0.028099223726296023,-0.19991942984549466
-0.12388966820161676,0.06625344276733351,-0.09305244010151849,-0.14144358958544234,-0.13797220704246507,0.0588257113606009,-0.019203005006547685,0.0636619486075357,0.025453024626640543,0.08362449807854817,0.11890676225614523,-0.03815446694023352,0.12166414747892255,0.019608611169660662,-0.21529361732385197,-0.13484892733997494,0.1943676749824102,-0.07687146943032465,-0.1476438536766787,-0.04659349974521758,0.025768842572373222,0.09661187016207937,-0.09971664465646965,-0.0917753719350272,0.014597183583733195,-0.010630122798767598,-0.19957750944497407,-0.16479223675226096,0.03584468332268093,-0.17731175825975398,-0.0518875220602293,-0.10909814696404734,0.026730489494787246,0.03712256563946295,0.21091223242492482,-0.10250332539140711,0.04159870754370636,0.027989378348937506,0.1986116725363864,0.13131768578021208,0.040186788467211354,0.18285637773952815,0.13786601577187793,-0.11238742480224684,-0.17193698447047215,-0.14579267831505913,-0.08575729240465337,-0.025859161821959548,-0.0975624563606383,0.19691315816678492,-0.06115725765837255,0.141738132112659,0.13481101845292773,0.010358155154706391,-0.14539936610125057,-0.15926140294705868,0.07540652256693868,0.004535968510525057,-0.049296750165756804,0.151540441204645,-0.18675376355699475,-0.1269570955871609,0.0924337973766213,-0.05868958457064103,-0.174132282872055
-0.10837641722436302,0.09591300340726369,-0.13023910628437949,-0.1445367880597737,-0.1295078744321775,0.11238617271649963,-0.1738953600327707,0.12898258670006396,0.17923210300999193,0.09050386500813032,0.022415963049878928,-0.04298039262890041,0.052302247075189864,0.10753014295436092,-0.16298350870430225,-0.047938206247550734,0.19220390134760965,-0.12993571297409187,-0.1126925146605249,-0.11273101318194267,0.1815929480421748,0.18243565898998615,-0.1316181057192701,-0.07697874170040052,0.0708918937990011,-0.014376560230341763,-0.16913059959385862,-0.04850588735377509,0.1564441809673935,-0.18869059580011835,0.09854798787425569,-0.17028127522157666,0.1031426813468254,0.1026560512584201,0.0784339433915341,-0.10017748424997387,0.09883820379372707,0.0004430117031248271,0.07534166581642927,0.03436131993928119,0.1867935904119252,0.11135719162862909,0.09159065709565825,-0.08934098132021077,-0.031346731475061757,-0.14244666738628242,-0.14381168528405477,-0.01866843113881227,-0.18656040642585534,0.1470514920936192,-0.09083396112102436,0.08710892914776346,0.1567330033428995,-0.009863094101908323,-0.14808608365601533,-0.14179008387568243,0.16328289811457525,0.03242945527397909,-0.055079274649688446,-0.018216182384712877,-0.10989021609170456,-0.021947774347701416,0.05565717858712739,-0.003672393171817937,-0.0033402893668644175
-0.11939468222748667,0.19853166582857915,-0.16558561434779065,-0.12817372287914855,-0.18123414849170874,0.08278986675791114,-0.0395830185386936,0.008908052765792512,0.1938412687512729,0.04557731612439212,0.024923711010055527,0.04511615353546166,0.11832101675569015,0.07331465360044218,-0.15277372406137585,-0.1733896009187251,0.14207847015064395,-0.037565005879045675,-0.09406796529424634,-0.14813451832790273,0.12811332630411726,0.16895508232331052,-0.03355252788762936,-0.10770327140283609,0.1958728475789814,-0.03667868403095272,-0.032334366818742355,-0.01250767598773213,0.148962806657463,-0.10088954000195068,-0.03577723886788357,-0.06502176896567043,0.03292360135179214,-0.00265362927944716,0.16851942121067398,-0.08441922648054696,0.014621088755152062,0.04696365375288894,0.033600942938301716,0.10607041059028562,0.003941486940746605,0.2107990164229526,0.013775705763061164,-0.12630589378430895,-0.13457518811574107,0.015255839671747835,-0.16713632343275125,-0.13197923341052867,-0.12623528186127017,0.1940541632406351,0.007101819657343773,0.16298513656153904,0.1619116487996433,0.12168739856481611,-0.12332919458931059,-0.1440870527554197,0.0049750311641330956,-0.04978957558644903,-0.06116521098054794,0.022839635899215255,-0.10887441811351538,-0.0812661813238698,0.09874894470296247,-0.05234603047692103,-0.08585440076853823
-0.11069736506836453,0.16524602257843793,0.006927198481108471,-0.1433856659856924,-0.04334896939283015,-0.022650313573190365,-0.006499792121183105,0.16322692668176286,0.15210168851922753,0.15795277778550604,0.13873736565064712,-0.030529147185410114,0.013949109263929471,0.18926062962977383,-0.16738984904226736,-0.10075681750233469,0.0015787677486566436,-0.08860926064917009,-0.08065860420787407,-0.0836073322828982,0.028812436741140535,0.07494282200133985,-0.07026358481786193,-0.17622911974866026,0.19349393929861636,-0.04235271165780805,-0.08120434544134617,-0.18079837628205092,0.014851895561623299,-0.011372050763092632,0.03095248148647094,-0.13161326299867743,0.17067103535828265,0.06863703108531058,0.13019694669039242,-0.09722509467291056,0.17581428655339337,0.19167488637864183,0.19201906245217612,0.05958745607259193,0.17339076424225044,0.07231809729601776,-0.01663809167182594,-0.1752405421906227,-0.017076950275938255,-0.04650215219549815,-0.15806633644163484,-0.0370682706094513,-0.12082406124183637,0.19229760167672247,-0.1331018086537958,0.08884920116705991,0.09171496486557962,0.09444217453279131,-0.04698378855223616,-0.013216798775800155,0.16430837991048733,-0.09644136834794138,-0.06589087486879447,0.15184650504086453,-0.06560894301853841,-0.17537634154349913,0.04003056773832999,-0.06569617731734084,-0.0535884429888801
-0.11099217015185663,0.07567042219723637,-0.10301300540534929,-0.19150246333212403,-0.012334712191304626,-0.04574583250406445,-0.1753165613536527,0.04726160872893505,0.1682363535313513,0.12092496800676497,0.0732629763655766,0.07414933236846925,0.060893239506805114,0.15078576477514272,-0.14419434963434985,-0.06006957893497937,0.029245739656769867,-0.09998558978518336,-0.1157244233003671,-0.09280077519428874,0.02815582487748785,0.036704503517352244,-0.18820400371402046,-0.20195156570171952,0.16652619269546018,-0.05313734641478436,-0.20513720951295664,-0.07339600137875935,0.15520742474977145,-0.038170297200049455,0.07812666888949654,-0.11650877621161058,0.08044911823698195,-0.009513832128046056,0.06740678235082134,-0.062388313305825845,0.1863355334297129,0.15989059559871446,0.11818429576971132,0.0724837169994261,0.07366534608068213,0.12250245869657807,0.12146508474785443,-0.18347340905956838,-0.17336386663935155,-0.1581966245180933,-0.010235051197733647,-0.19372609301252214,-0.10297607741050954,0.17836618689702674,-0.05344125270766439,0.17803378922316498,0.028199604904967812,0.0006835973326275774,-0.1536210132157867,-0.024836525603628534,0.03195332988093608,-0.062309093888058574,-0.13802802698784955,0.12903822179849905,-0.04918846872101679,-0.0029936056607310765,0.060401095626809016,-0.04138128262641473,-0.18697969068302905
-0.1142290239855988,0.15139754949804046,-0.053004352657895944,-0.113807933796847,-0.18950174759822197,-0.04354364650154142,-0.08403221139270792,0.018530299698197628,0.08538349412243332,0.16453613179168805,0.06276359921065057,0.028895928352742496,0.038569853655188446,0.04861644816000724,-0.09361561763793959,-0.006036110187544941,0.11434123027998659,-0.10001091647730512,-0.011048931945848958,-0.04160132017218922,0.03449481277955795,0.07530454088028107,-0.14567376662677317,-0.20228150419281796,0.1578036577492117,-0.08745358546793211,-0.15486647896453218,-0.19715410156980345,0.07637658028178052,-0.1801453950031621,0.10235728248205939,-0.15921438361358956,0.16861070211632653,0.1296922058529605,0.060580931140991,-0.06957719916276746,0.13576406671537192,0.11660363358571191,0.10996053938812135,0.19569160427014354,0.014685622855598072,0.1137729726364458,0.003358721830740797,-0.1102134584872955,-0.11850945912013602,-0.0006439774487259933,-0.1455916018715495,-0.04783713404050613,-0.15284612059697447,0.07876686278608318,-0.15016000546289332,0.14637346116357172,0.15794697817328343,0.08621471373639883,-0.0511773033650097,-0.010249617519790734,0.1959201972318402,-0.03009988581463564,-0.05787564110830476,0.12044595237971838,-0.03166960670314052,-0.11333785363904483,0.05122788882326396,-0.08181242704189111,-0.12989104848937458
-0.09305954244814213,0.06408732023053426,-0.06858473431136011,-0.1005443116311727,-0.036006813918505645,0.11047974856224853,-0.12676757365203026,0.15437076948533485,0.10224048199368396,0.17468181695475876,0.11424850624571559,-0.0611596028757463,0.17960392391602636,0.13986891494232603,-0.08256739558001609,-0.007925917514828457,0.1709531607908506,0.039121017760099956,-0.12568440120958788,-0.16534724971352488,0.08641317899321833,0.09494432064943559,-0.08833873819280107,-0.049778421451699306,0.048789217801031855,-0.11614780445516387,-0.11591193859794563,-0.09306790094431835,0.05382530549390242,-0.14227518975252607,0.007220601824657778,-0.02840874988034729,0.12753223061215657,0.04581473712142498,0.10723641962992016,-0.1727778949627834,0.1433066572030824,0.02231819699100354,0.08677361320161942,0.08204436859420498,0.1587303165930985,0.09947102468581165,0.0050687305192605924,-0.1134773850456017,-0.10481133229248203,0.01509433476131765,-0.019261159309482606,-0.16001328723445557,-0.09842339013973343,0.15687602702976658,0.034664456784961974,0.15708127281574696,0.035936283840042396,0.04341395572792984,-0.05002472134819471,-0.18189805073282558,0.15686067164070122,-0.13841442373529306,-0.1258964927647426,0.039971373257109144,-0.1521970560300195,-0.006921622894567335,0.1626708063772557,-0.0407367714538955,-0.06930813245893783
-0.10942161383748733,0.07948436446953455,-0.05748683671665186,-0.1518285441694083,-0.15720937394187867,0.03378713534086516,-0.1396931144396259,0.0901182344607914,0.06649941612680832,0.0612142214311983,0.11166080066306033,-0.06197231665360979,0.10408496111914603,0.19867118363389974,-0.18975488018782347,-0.015224431614967072,0.015678843935513383,-0.06908155415594346,0.01466860762246545,-0.14886973049138405,0.18692267451738867,0.10188982536413195,-0.1702938733730337,-0.10898472665286923,0.18422143772429192,-0.03281624154130625,-0.15823256982640188,-0.0731641643550208,0.06302501645773251,-0.06007556165554014,0.0908367395254286,-0.15377200277337277,0.03762286103077299,0.17613927918094324,0.046643577897602435,-0.13907965280545956,0.0634846197872251,0.09253446348987018,0.1794906398644944,0.03644636496211748,0.05826333696636076,0.0926489965442054,0.047422852236603905,-0.005279884091391592,-0.023047148951159904,0.0168895524340672,-0.11200369465774526,-0.0805275779852986,-0.18294757803486902,0.0338244315775333,0.006625423354064087,0.09487526024186084,0.07228553881027076,0.05865392760602627,-0.10332206431905411,-0.1274224201076822,0.1578135184827584,-0.035689944720258826,-0.08680733865728689,0.10073363151965956,-0.18152404793407065,-0.09470937719189948,0.05245481326227139,-0.025202218688525832,-0.19288008401459836
-0.10932216215093006,0.02016905305333675,-0.15527185309750377,-0.10674439849153164,-0.09259638133012137,-0.0155006729938043,-0.17139809067416942,0.08955529814211646,0.0869186200429071,0.07906724476987545,0.1011638543631998,-0.023466680660685718,0.10095092242704357,0.16423970837689766,-0.08228600697810891,-0.17364745889940353,0.10122872363894075,-0.014438451812246128,-0.049127566572891725,-0.09664396142910305,0.18253411257888988,0.002470946518281243,-0.13933897179867916,-0.005677855218951195,0.09929162212531031,-0.14196935984937903,-0.1370907745462071,-0.08824164706313949,0.044265856353832136,-0.07195786910691929,0.10588257891240889,-0.15791133425849982,0.07344173252942184,0.11748852736858821,0.13486344798652328,-0.009940426507286035,0.1640835844799917,0.17425728037506527,0.04638635260796375,0.022601291708496674,0.1838156359791895,0.11786649527998717,0.03790788755458409,-0.11336704345721892,-0.11882769196205292,-0.12566833305231642,-0.18273457465858556,-0.03826371734582638,-0.016228613890023873,0.08317912719535765,0.02543563172874261,0.09643530503782023,0.00530380419635404,0.015031425308897015,-0.1421817823014769,-0.15756601451831473,0.07424525109253483,-0.059772546811911395,-0.0074082614086031,0.14102530235529817,-0.1790882066930353,0.0192233443830591,0.17978494092518413,-0.11838026359585802,-0.1355930932304078
-0.10945346453194292,0.09710681539932446,-0.0037178164558565718,-0.043578337417999095,-0.08850812423000823,0.08204769570277907,-0.07128363359444265,0.13803752309450512,0.18740194976323793,0.1418074356094727,0.08386088867614257,0.015488960367410617,0.10343796552522291,0.08384374009351174,-0.0986746169967789,-0.046807211501261055,0.026642289445013456,-0.0710924095132473,-0.14475490952556963,-0.11224932993980143,0.17971301591591063,0.09218225910098782,-0.11904574381883003,-0.05288086291274471,0.12731443577171087,-0.04087744461612641,-0.05719225776475464,-0.16754453851659465,0.014157552546814797,-0.06249684084829279,0.09626813121782145,-0.08179474821870945,0.08402022464628496,0.008291931366589976,0.07463048884952637,-0.05306838691258364,0.1865782787568459,0.17703374606166614,0.12038202749568895,0.18675780652058,0.03842423496718507,0.10272711209779276,0.02121985420418827,-0.05217285495946346,-0.018184333812775816,-0.060239836036547555,-0.17820721811708512,-0.039679889704781646,-0.04153076670718808,0.09613152568823603,0.01513259541867333,0.10444024746579428,0.05788620789875372,0.0527465839293937,-0.13082939258324722,-0.11885710918320547,0.1692738767267174,-0.05799506350725645,-0.07156191253431883,0.09667602761716931,-0.14487984414540384,-0.12511606939805892,0.15782513728679,-0.101942109458951,-0.039813467437100264
-0.10891270808094103,0.11602679972837031,-0.08045217160312321,-0.06865932494156632,-0.10526545901644808,0.02383077514279125,-0.16446212603927576,0.08695658540148554,0.11137645048465845,0.027886261668456935,0.17420413761589826,0.017096498181790893,0.08871407841772425,0.11389947902736475,-0.07694375997790155,-0.03445221522540855,0.14639655380160632,-0.010622635648703804,-0.055061079885618716,-0.09117244795779687,0.17549191537390005,0.1889178247267776,-0.1464409611707076,-0.025968606269571544,0.05915718659089503,-0.16493714417715138,-0.12062086702492304,-0.06140199781248976,0.17221135164504217,-0.1476154795197407,-0.04492615626999082,-0.01692369651191745,0.10417873174201096,0.06732816835667516,0.040469896510965477,-0.08146766096459002,0.11339703824708058,0.03610694891230156,0.1465193408717584,0.12114605625100451,0.11304415987573774,0.048961445935165215,0.1625687661190792,-0.19005119491171135,-0.11478466403333602,-0.05114496781052456,-0.13842114583347717,-0.03669187481229128,-0.025852278552653818,0.1461862849669566,-0.0016846516533670505,0.07396186845240833,0.03438109579194932,0.009149607638941647,-0.06717321317616351,-0.031213394288560257,0.01592219109314454,-0.0406143926885081,-0.01351616509950901,0.13437410361924518,-0.1088370162002993,-0.08516999134798472,0.037872157334800684,-0.08659874392135593,-0.17346889005316715
-0.09612903060509528,0.03978833086480923,-0.15246835100179446,-0.18196792258393588,-0.10642853979578618,0.08852008573941739,-0.11395663790542228,0.005606594989643196,0.00930479240841823,0.07525965152629863,0.04953699524490028,0.002734948667131029,0.08129446214471961,0.03669088367490351,-0.15751374505593965,-0.14164000351682293,0.013318178465096824,-0.10023219544387296,-0.01563766235715916,-0.10107797138585213,0.12811731521497197,0.10897686519585478,-0.08745601217765217,-0.1495802930063882,0.08297527925687141,-0.11484722685499511,-0.19121536555143895,-8.842322922981879e-05,0.15380325218638252,-0.16622694153378012,0.003249749591022747,-0.061413388113704274,0.1641292389244728,0.1292609337010232,0.002527840617690299,-0.13462010777283911,0.055215481648124926,0.15312068160475145,0.18531763303365328,0.11471946907338035,0.0022584005530001936,0.14604377564389415,-0.021583659107742688,-0.060609292409849226,-0.15590666808631168,-0.17457484776488352,-0.06412270676154211,-0.039670742796849734,-0.015212880341606014,0.0816243031241755,-0.1266625132386107,0.11320428876443815,0.031030097991074607,0.0724001437555195,-0.006111893555732905,-0.12069871179924836,0.08880047760788207,-0.07155417488231083,-0.16757754827952562,0.09852012549629381,-0.18150598908809792,-0.01857254375461141,0.13511161367017469,-0.07090520692408249,-0.013079168868485485
-0.0752933451423737,-0.03214513733793103,-0.02173164403407727,-0.051966482513780075,0.014351468998822746,-0.08691279035519348,-0.021151687558824246,0.059507098071852296,0.04412807495387843,-0.018973754349686536,0.13912245424970127,-0.11483005750012641,0.14108835159919716,0.02875854783833767,-0.14764654372649683,-0.15196317441813798,0.16278097468952465,-0.0040699080936865304,0.013179882485577069,-0.16933029908294328,-0.010805739117490167,0.0022669024623028656,-0.16232834092498213,-0.0547855567009054,0.050799876908510386,0.020262664834338123,-0.06503977746966545,-0.054082803054195654,0.12723269101325735,-0.10247213830590673,0.09565156213022423,-0.12269251946866556,0.1656363053623168,0.13834994324256347,0.09277900009038088,0.023656976876777577,0.09176746406441755,0.09307083771387022,0.10220727879601342,0.16079344297941134,0.06529872829119829,0.06043328462397789,-0.042174238322232376,-0.08594916208021922,-0.0008871108461584999,-0.12863888375188975,-0.027462985677960815,-0.12314523446237663,-0.16727638600072212,0.07651706645111266,-0.1544669772582128,0.09773448122786561,0.15902432202373054,0.07862057743096453,-0.10669284409937911,0.01468167357052834,0.0617429176115584,-0.22088888740642298,-0.13433813813689202,-0.05209781291026933,-0.16475779339463067,-0.10719011688888347,0.04657568694935946,-0.0470952235923245,-0.09627032240786307
-0.09345989172550029,0.03629980231626019,-0.0140829367356377,-0.07289766330163856,-0.12385984489468439,-0.11098909856217413,-0.13535642260872435,0.16599996151833984,-0.013094755740794023,0.16680241884345187,0.03639945953777371,-0.059953811590007816,0.02077962008692848,0.057582112176861495,-0.17192388977331283,0.009138613871930759,0.04771798796901869,0.12213672570867665,-0.028389398442252488,-0.028253327448915788,0.08880530793154749,0.025929839987749552,-0.09039925551711436,-0.07876888235293265,0.13292183683674,-0.13792721665360969,-0.1315676480854908,-0.011692073147632126,0.17913517438822776,-0.11223256242087025,0.15979757387512744,-0.1481328082643036,0.08878263771617645,0.007509839212476919,0.15539197364896631,0.02633007275870618,0.012458082756283873,0.15564776107627648,0.11460287065990321,-0.004586999955980891,0.03070436941709716,0.024571057197406283,-0.058520611831961014,-0.028542701544774923,-0.16813879807401674,-0.12841199347326732,-0.0021743229266709156,-0.1065505664633477,-0.08001140633656981,0.11612976630112419,-0.17950876616513364,0.09067171343875077,0.08226298216588218,0.07467057124552809,-0.008419720977610462,-0.14702956315404173,0.12089834521904916,-0.1259823201322064,-0.17646743586594285,-0.028195155691781052,-0.053916009884698524,-0.005188196507036832,0.09210598489809,-0.12956653579381994,-0.01237241360088312
-0.09308539209088044,0.0300988625067069,-0.07924584392663543,-0.08394299047335248,-0.0756064925252597,-0.02907033878659276,-0.1849136168609688,-0.009234985493679303,0.15262650836499048,0.17146413721779113,0.0164996321601258,-0.11849442229278419,0.1426377839170723,0.0520856804614446,-0.018673923160717115,-0.1172985558679496,0.14933071796341185,0.06727039148866895,-0.041758434395601535,-0.08587985979406522,0.07667306868038948,0.07103384129052534,-0.16533674705637516,-0.007280998925919378,0.10249003004024093,-0.12129859928093618,-0.012948042544502597,-0.1059775406959605,0.17524732670573562,0.008827678204316954,0.07593625806324716,-0.032683049717209874,0.0327477496567194,0.04810219225443295,0.04633139576500891,-0.15724004613318304,0.004516195382363516,0.0755670037172925,0.10376504347659483,0.11942206787820857,-0.01873991049401383,0.02854959492860537,-0.08216742238160889,-0.013448512159049613,-0.013203979961151961,-0.04804757619551115,-0.08475084593984641,-0.05653030265084502,-0.10922838333562396,0.05820067988131643,-0.16028471578673983,0.040545851495575116,-0.02141474119368983,0.12939839119483304,-0.10198271429363637,-0.1743002474842204,0.13135378306220805,-0.2748504628735026,-0.12835287497680203,0.045949102328176734,-0.09560961941499357,-0.0729243941349319,0.07215401224980156,-0.06381296152990781,-0.042713213570594946
-0.07725358294428898,0.023865494308775888,-0.12491997691487373,-0.09061158497106929,-0.13709178141167438,-0.023801140532141805,0.01785855586566258,0.007087362447423515,0.10544522200219124,0.024306977432481898,0.03462255249460769,0.028552579150722394,0.05916746526076793,0.11721413790948071,-0.05852682764109936,-0.08404736358109653,0.10994671881441921,0.07317761531986766,-0.003357651377323438,-0.15738461225325837,-0.024673223586290562,0.16743765382435122,-0.012256279348616965,-0.06822779447175403,0.1511819852721665,-0.13568330560051817,-0.17200590435153895,0.00819130710429269,0.17221862849074196,-0.04244107653465893,0.14748007283044776,-0.1361529143126755,0.1273123025054882,-0.02371193037760241,0.12694282856128863,-0.045779059109978607,0.16628942502767483,0.16836507147279206,0.0526004931148834,0.04683504575003096,0.09416792975803054,0.09993895029799672,0.10996174818362607,-0.13165460603136558,-0.02732262898865326,-0.12848394941091937,-0.12693562893877722,-0.04328117590793951,0.02772313250918306,0.06368239603318769,-0.07784022305577198,0.12137995890748017,0.11496822895033715,0.11877046459485664,-0.1184273266604688,-0.09931472192770689,0.04325443527140282,-0.1032077107136624,-0.0813573460428602,-0.06517346800073742,-0.07088623024057165,-0.03449076062399957,0.06659139766337105,0.03685114228149823,-0.05168916877427253
