-0.11472365289416867,0.18062328831399024,-0.19390667141229073,-0.11965824732236646,-0.15135688591630003,0.0427107531112845,-0.09210897154316464,-0.06426564818930748,-0.16986966294184055,0.11121927723570953,0.07204546084295954,0.014222763520168756,-0.07396963703381618,-0.03755233328095185,-0.10965567785121182,0.09274606056560929,0.13831961973033355,0.02076317397650119,-0.1459412350279873,0.01786593180010217,0.03582576108677981,0.13134129606724457,0.10353569498778223,-0.03852143442041388,-0.13052931129294387,0.025770969409573553,-0.09283449830994282,-0.20415420638298928,0.1085804534708524,-0.07145233399587612,-0.024610304287395877,0.03611401364655721,-0.08736755926672644,0.14264739854255853,0.12539498375571867,0.11069724851672044,-0.00414408014851382,-0.013822869934692774,-0.041655226873913064,0.1884256265277433,0.11708856897846805,-0.06927793565667141,0.08244392447990136,0.186785695350221,0.11605875649596749,0.1021419946011416,-0.1588429413676302,0.05476416816220854,-0.026423280445376916,-0.10833512805266633,-0.18364049140727917,0.024593459767435898,0.03675150227321303,0.1927700896895088,-0.07550619091591075,0.013727053954980268,0.09179931147615392,0.14028630825593477,-0.12387636295874771,-0.07837992200923763,0.06763537810692874,-0.04446388527793362,-0.1694970378239662,-0.10921259385162642,-0.028925257375272184
-0.10839323603041931,0.15412989984485234,-0.18931198085037748,-0.07836035420035171,-0.10760377559471462,0.05746313010313061,-0.0761911420428527,-0.026611726743126764,0.003057492154506833,0.01544048195015647,0.05929325879414513,-0.007537686047942863,-0.01718595954909887,-0.10771560909663842,-0.19582382612054966,0.19790465299852186,0.03925130385111531,0.12099299421734443,-0.19793263932396465,0.16430338790247284,0.03448095199940957,0.18911012798605834,0.039761809618771383,-0.11522927076068235,-0.16094118241294655,0.01491630259886463,-0.061824680470288725,-0.15405265787671504,0.07958715990988477,-0.13119937491731548,-0.04165904773390894,0.04519777070566395,0.012691987824204802,0.04177799350914056,0.1913882047944357,0.16925243902915665,-0.1946794843443047,0.01015626267909175,0.003193318148505737,0.1740095107307587,0.1028677617388604,-0.06044250662306588,0.13481837464874916,0.03564171689177035,-0.011962759920056026,0.10936530565987915,-0.1390179211949534,0.03948193510917594,-0.17429897913264308,-0.01651859916278175,-0.14877871119258235,0.11306964888758958,0.01581232317062088,0.11606639750331305,-0.11107365025876316,-0.09578260398326902,0.06896195298380825,0.10405283764036274,-0.14820647465352746,-0.08869129069110293,0.18582572058936836,-0.09645257541481454,-0.030407291753173943,-0.141103732744265,-0.0969592851333198
-0.113309312715767,0.03453111631035436,-0.0154974400883164,-0.009804062397726335,-0.05546818638163811,0.098092836876774,-0.049295574722675504,-0.15055242333920818,-0.0072542901106739475,0.034210117813803245,0.020892479247913955,0.09481521215276852,-0.058553978420029566,-0.027267117560033464,-0.1400500185286304,0.045162130591694966,0.14193664349868657,0.19622099387917477,-0.16607924117397477,0.11836633785056001,0.022564998080485264,0.14100521916406186,0.16937199821667648,-0.018120247754903007,-0.12269969521080482,0.05653020166061824,-0.09546218255444794,-0.06811916687956299,0.05787182639441538,-0.1060547416442072,0.08772093778438703,0.17386547029211147,0.011143863012685828,0.10609680588612949,0.1756140249450706,0.043728990965541066,-0.11857971250418238,0.04380222401054387,-0.029071509201484897,0.08437844189853136,0.05153998963913048,-0.1194798262847376,0.04348848285958118,0.07591173331593529,0.09379620728946135,0.2038408792007345,-0.19981464837006588,0.11671411028666974,-0.10428149208655048,-0.18010505417626768,-0.06650023973895633,0.18039484134860964,0.1233627241655554,0.14112648393619637,-0.19665535580894603,0.0012276246537410045,0.15681528013958781,0.05022762532617577,-0.04544899682727647,-0.08862952382352342,0.1798057494778603,-0.1276004231004671,-0.0577396026178593,-0.17429135335737614,-0.05743726354169663
-0.10957253255943195,0.16785067245165206,-0.06656649415777843,-0.1797843865618144,-0.019165569114029016,0.02156717832727216,-0.03162007872702585,-0.1441381184203722,-0.17572384991183904,0.20137449619657644,0.055820131006470416,0.12787127098454792,-0.11786913507847036,-0.1679474735721263,-0.13591744191300317,0.1309117730953993,0.13230169795328434,0.13832632050928662,-0.050485779863554396,0.09149841314674007,0.2035412753980165,0.09045888052942058,0.08938147330173585,-0.10305705515558493,-0.04165926359121555,0.18431237087470534,-0.10679081773419143,-0.03295537201958103,-0.03082983607436118,-0.019283299296467556,0.07255930657135574,0.08825984558584764,-0.04362916956604535,0.02352435481381235,0.11086768685329074,0.05866021619390401,-0.054710578954923234,0.13373232499436707,-0.01048941502634237,0.06549139149871686,0.09536457804142191,-0.2049768898002864,0.15643251894243318,0.13121771349519393,0.15074592336976786,0.17226204111176807,-0.09399073612013166,0.08331722003523037,-0.0025154471853724245,-0.10463805681973903,-0.11637732552032612,0.1779581987427167,0.05962264244110909,-0.0041268562514721096,-0.16920173502801564,-0.0930244288164611,0.09240015258859387,0.19590455560700024,-0.1625869250568342,-0.0544032185593656,0.01444184672075518,-0.18238970838737775,-0.10586718997991847,-0.150544854977151,-0.05584438393104232
-0.10316076585771426,0.16413143051186263,-0.026766600221010125,-0.10627543799754696,-0.08178009843067033,-0.0033794849737875266,-0.06755246774482863,-0.15031528389809312,-0.10270945175544738,0.0996901582978887,0.041065489309250074,0.08136316105236474,-0.13874738998754316,0.00044242873722393313,-0.151156421770012,0.044962417508441696,0.11181242778557686,0.06066920477720286,-0.01691970705019681,0.0033108232479007915,0.17000051694911417,0.12523891647907215,0.04259251029532428,-0.13503027732722545,-0.18530725627095723,0.06284007578020617,-0.1534932968749717,-0.14611886608461586,0.0009880355262990878,-0.03528268655384139,0.12582402575112925,0.09227523145375668,-0.08682700901204513,0.18548146906328344,0.17789297188615913,0.16460983660953835,-0.017055648893249193,-0.017501094540783184,-0.16385784029432074,0.04650968868193904,0.036945427388402646,-0.09847738422112258,0.12591082849248147,0.0994179934527027,0.0688449939065844,0.09488003455924009,-0.18224452460466778,0.10689528335371504,-0.05250747461910756,-0.06691381593012853,-0.14864076511054802,0.07832794712305449,0.14991890485737425,0.15755738521287668,-0.13958176478793152,-0.07144348081800365,0.07190430507739297,0.1623044767875752,-0.11032972103584263,-0.06639935462692129,0.08025725964817526,-0.08642835463701541,-0.06527629898842825,-0.11149873688717454,-0.1567537274863878
-0.10527448779992549,0.05450979970497988,-0.014923498799554227,-0.1127097002647807,-0.010666292686827504,0.09904917557265926,-0.145253010515963,-0.0674922426110737,-0.05263166325049127,0.19037081089865418,0.16063942148585122,0.0645508249902923,-0.14932414560936438,-0.073804713538853,-0.20068410229711062,0.037029347725451724,0.193316594402195,0.07831747707532528,-0.14332887294680113,0.14348236231386727,0.19422735053409917,0.05295420864657637,0.1466484999194915,-0.12474901447250973,-0.11447554349749688,0.16406214492983842,0.00044134951819671146,-0.19937156750847615,0.012021914261279252,-0.08274226604011062,-0.04767762357879607,0.045081016751325524,-0.07206234080368974,0.018446863636712437,0.07900170155696404,0.16079079032230023,-0.10621566723252657,0.14506614083901392,-0.16453813841343057,0.12376766390575449,-0.002885972263419952,-0.1797472810992348,0.04994938106803866,0.11004102587683073,0.10237291240241779,0.16995424144886406,-0.11716247538788416,0.05315318194394499,-0.04464632123111962,-0.10972719165910182,-0.013766549590010923,0.14001803016447,0.07292242409000632,0.12078677751305948,-0.06719060475411723,-0.01992410880320991,0.11405740422634597,0.00023888937760463072,-0.07615732691380163,-0.10151875533733662,0.15956363508709798,-0.1483812647773196,-0.02252635522361167,-0.18986813234734015,-0.03243185225926866
-0.1049373726659697,0.1974772787750246,-0.12419064382810925,-0.024605291275785465,-0.016767385060011304,0.10703153315155645,-0.16909302305084692,-0.022378975523890562,-0.13723601212827408,0.04572383495448359,0.06462149218401786,0.11417853941379509,-0.1215640079825178,-0.15348124444383532,-0.17956863257606037,0.11638017289429807,0.10921895905825024,0.05296833097674777,-0.03373652053436853,0.0739449830003711,0.10897687267448504,0.1811864906856549,0.008557713374349126,-0.03327146231021567,-0.07042867208622623,0.07934831561093827,-0.10909686567353065,-0.05305739940828507,-0.035989718850289246,-0.09235718980596883,0.09638306026026784,0.13401312440942784,0.023175763456982076,0.08593579128927387,0.13284820912605624,0.0899387283727282,-0.014366571762691361,0.1408778185691654,0.005057102353170509,0.16889404916211476,0.17588924508644446,-0.12111336690364302,0.093815452592663,0.05591806380014926,0.10702864245205854,0.19673410904327265,-0.0259245112545389,0.1233140090392436,-0.12980368740690584,-0.11564146730099303,-0.1579715657674751,0.160589461093072,0.011278659786436334,0.09047401653985931,-0.15385702423720374,-0.06865051584183872,0.13574249019446125,0.09662517698743778,-0.09175167371621067,-0.123034049283993,0.1619280195430352,-0.12115494723684853,-0.18075750015831568,-0.06497149150264679,-0.08191744787386973
-0.10803930804165697,0.0361037865566095,-0.09012636913367254,-0.06646114332013361,-0.14543107173675163,0.13793036274742657,-0.13313237572348866,-0.1291474745389844,-0.0046239867796051565,0.10753966486142542,0.17107409075456836,0.13210823580385675,-0.03359854649378541,-0.09990793291757362,-0.09250222803535109,0.14493089684131982,0.14541174093201822,0.031775895897581036,-0.1719674439540785,0.010714611361646975,0.011335934798561296,0.14895821626860403,0.000652648354759413,0.027179815233594987,-0.11853882064009241,0.1490880017218996,-0.19165169941593957,-0.05937327417083591,0.13999338456290167,-0.07898377578692242,0.008639937465594329,0.08635875882730122,0.015524892155274639,0.15863746206779705,0.013743397140407256,0.04519283669275784,-0.076248660222058,0.03841340024601674,-0.1215808472295449,0.13617567293795368,0.004737154624256616,-0.13986270570306789,0.1262995425609791,0.006370879143270702,0.13975041345457928,0.13588243619133544,-0.16149310292223573,0.06306283242687162,-0.07373271024633611,-0.17931759763936736,-0.08175768410518575,0.19546179300458458,0.15118008573769812,0.15132925825952653,-0.16777242882258728,-0.028017028081565205,0.011771611144936269,0.11017712498108934,-0.10928532522977201,-0.15330948610244222,0.10728184388545832,-0.08841010717480481,-0.17939705454938165,-0.07946963938628238,-0.13012148816549887
-0.10432060361369301,0.15267097701602123,-0.14459634894347942,-0.067777225182837,-0.17323838734562155,0.15090099299666235,-0.050180309702741115,-0.14598130794374609,-0.15016826540015643,0.1610449513721305,0.12898716709922578,0.04642970963402137,-0.1662623874448087,-0.1524471189360523,-0.0057888482338024445,0.08022944304565914,0.1813244238269932,0.011022731338395576,-0.0383281187355793,0.07215615978299966,0.061497912873015176,0.1744203867606897,0.023316656716829424,-0.13414210362928555,-0.16730188596953333,0.1046239357074121,-0.0016174145862739029,-0.1527636887955069,0.07734268093468041,-0.16090256144759224,0.09891472325174569,-0.00823526601091038,-0.05811590622999768,0.1663095060916607,0.0272941002770736,0.09393089125584277,-0.11253050610726172,-0.013832984795963722,-0.1069976258238784,0.03661311729602316,0.04310662694844111,-0.15333803765348838,0.028171222475105534,0.1770486538467032,0.07390501020955759,0.023182952719386814,-0.10479023934621776,0.18712016386041666,-0.19107620094823943,-0.00801689449653367,-0.0792205479515626,0.19836104103375624,0.07266752444464368,0.017014970619098593,-0.16827825908736002,0.04952817748800848,0.07197891793333994,0.16071907082374667,-0.12732494420762186,-0.0005681701974925234,0.02208774005545867,-0.1532840386835057,-0.11715949226148882,-0.08550070064997592,-0.1471413384296385
-0.11998578599111104,0.06962394144973062,-0.10313599404780634,-0.08609536060444173,-0.20129272140188814,0.06751586247684666,-0.059726092646828745,-0.014753698657340986,-0.19984816355014107,0.0808348709371216,0.17859204968622655,0.10188634927220955,-0.0811634637761554,-0.19775693696248797,-0.031551590167211215,0.1999958783495193,0.07914015274559007,0.01833634961654645,-0.14792354692310816,0.11033897192006642,0.05728973243775369,0.011361780923107363,0.14109391915760383,-0.1307128220969642,-0.04364313733395277,0.1748764992575668,-0.1636906353773409,-0.1415815279290456,-0.01837099534844996,-0.03790704828280046,0.01732800077496759,0.17438456122327056,-0.11276299225704171,0.14819526553278062,0.027471597244424467,0.09134511883717625,-0.1386156589907085,0.15479774715177266,-0.11882183523864463,0.055573544422904714,0.03443536726698031,-0.11906688284237425,0.0679018249894886,0.021105190529579668,0.11733098484451532,0.01591720529422546,-0.10111806541858248,0.16697367611624314,-0.048728939506969667,-0.1431107188523479,-0.05203284046163004,0.07829491374502115,0.07681694919442689,0.003939599125836369,-0.09829690533594325,-0.12201356284136343,0.04946834137182671,0.10737512350897059,-0.18793196353826613,-0.1829213329464698,0.11054162614649393,-0.01935903064789205,-0.15782285290431608,-0.06946156423888056,-0.19338439941500102
-0.09792393663125899,0.19022150527442155,-0.17747896593519272,-0.04006302714504914,-0.134173629521723,0.15151847443924374,-0.14941207788556096,-0.10801981954865397,-0.1678102987810134,0.14007978452935313,0.09144750882803455,0.018623527681515675,-0.12613657714064513,-0.0671196703472328,-0.129669533781827,0.00018297853753951565,0.08765121861658026,0.04468508989702696,-0.153142660563936,0.10306972234509038,0.04236374563137089,-0.000627818817763125,0.10315746542360807,-0.01893252053625328,0.010489531163400935,0.11138833437934122,-0.18708753208586615,-0.1470604544612591,0.08959530156433798,-0.18539626868726997,-0.005602934360353094,0.15550225405736415,0.004150556412559963,0.16647338088288557,0.03064642683925156,0.07421199551069109,-0.08274792763026279,-0.03955882934389202,0.009214436823349076,0.043976498426376416,0.08922834461343655,-0.1452105792870005,0.0955421782829469,0.10861107566390225,0.08450221838691213,0.06390891832680737,-0.15672327692125418,0.11283118713429428,-0.06160168453497639,-0.16016760402821514,-0.04553517668051297,0.029092359021415666,0.18989857183557537,0.145273925033926,-0.11094198666019799,-0.10088796194688408,0.006445035785939415,0.16710046218924476,-0.07778512956958,-0.010611312928610159,0.07526224176683365,-0.1428197871102248,-0.16471104221248845,-0.126093423407803,-0.11842827442749691
-0.09858968430133119,0.1297782755814871,-0.19117949379393978,-0.023728665953368897,-0.08694310881763599,0.1235428880823832,-0.17912384144221993,-0.18612424571753994,-0.18038100650838274,0.10199973746514207,0.0783383536608547,0.13566482798500967,-0.14052383475007077,-0.1218400216415125,-0.003928285315697206,0.09107590338144622,0.09160636072065916,0.0803488449049986,-0.14995295146647422,0.13474785236781195,0.1589085490458473,0.14916972544111123,0.11000021810454945,-0.10977624704347405,-0.06848891320017939,0.18448358633786852,-0.11194951870542366,-0.10632740511511589,0.002546096093644138,-0.031489990524951286,0.09866034722983129,0.05332664319010418,0.041633737213139156,0.019890848392663127,0.0865922364302415,0.15929465511879012,-0.12160856141147386,-0.03755350788960149,-0.0718846863743841,0.05123375946274488,0.04862381370739297,-0.09499839634935824,0.1144467245290619,0.1915054581602056,0.06877060267771183,0.10245923359977302,-0.053290492908284366,0.16086324098769086,-0.14144179895452688,-0.1763527921444326,-0.0704579083617227,0.02990333761876385,0.14348106840926197,0.09681298826780002,-0.08574341732990996,-0.06747449784475092,0.18688831633452502,0.1157334786981353,-0.04021182135974789,-0.04886855753646077,0.07006208809502068,-0.10049755500495788,0.004670369953742986,-0.013600892424985292,-0.08849737640274098
-0.11555528090803918,0.1690996904271134,-0.09934265081916435,-0.08378456977729999,-0.1751814127926837,0.09353139802824377,-0.1456680099736873,-0.19536594582188554,-0.12949779519314053,0.11151319634568045,0.011682756648560517,-0.015012925226123748,-0.14382127912706766,-0.1576962763481984,-0.1591369269833447,0.1298861395405143,0.10572156424229527,0.05223228371220516,-0.14410511981840227,0.012921771950474942,0.14537267222732508,0.20438370011400128,0.02921455492213413,-0.14768463929608333,-0.13922616497618448,0.0195649132902574,-0.014074205219307427,-0.035210757230425174,0.06858911333493714,-0.17348317108794586,0.048873893107999576,0.030007515358236286,-0.1256338187983553,0.13767183363080027,0.09475922341882621,0.11753101161239597,-0.08930238299778052,0.0782231305820803,-0.14155759225707004,0.019901292191350003,0.15427168175752756,-0.1337307125687863,0.1318567847286992,0.07770295822584967,0.12154710314119171,0.17908722750003767,-0.01831944136253689,0.18400830542008634,-0.17436738850499928,-0.06956910611741017,-0.1359315499743777,0.058342201685930004,0.041474263072456476,0.0934266523968039,-0.05615147571684197,-0.006401301320222023,0.009957407034123674,0.14988073981899078,-0.01175680423920257,-0.18864735745819639,0.040061676872977,-0.10262049457577145,-0.04304406308331318,-0.12066748722925011,-0.051201621403710054
-0.11448979158805513,0.18995902755749777,-0.14236824958992392,-0.173602381742385,-0.04521045602312401,0.12318497623094868,-0.1321435505341466,-0.1259576216296601,-0.07982941030803335,0.07871625746437805,0.05171542712451143,0.08153236348207504,-0.03367162191790744,-0.0850505021506446,-0.04801650631647738,0.04355249320902144,0.060237108825344,0.029193082642388322,-0.18855221613809414,0.040988065915561235,0.12857206562596804,0.13087608776607265,0.17149017618974083,-0.11723435781712288,-0.15264199511777937,0.1424932528777832,-0.018846228663618816,-0.13535541486592687,0.008898512589812247,-0.1772625075281053,-0.016687662659477662,0.049729896386752716,-0.07367398640454066,0.15263624747494176,0.09016165767099285,0.15464426182074054,-0.17730744420217961,0.006771009990160182,0.004292277062295768,0.0277460897966145,0.16417187929044663,-0.04111727564614655,0.010847220843076665,0.06793177390502333,0.0785441356178365,0.049758187781527664,-0.10427224163678174,0.028553888842422964,-0.057925569014220524,-0.03660868214478295,-0.03357875440362251,0.19295365803908396,0.168791168992596,0.10621350639388757,-0.06787270527851119,0.007586446648802051,0.1683342036414275,0.10669089764784292,-0.15925458431377726,-0.08417884339220759,0.11083595797373691,-0.15168683147221743,-0.045607874014015795,-0.19502113599312643,-0.12192695162124922
-0.10321892307615689,0.02885200421752341,-0.03805999292650304,-0.10716761235261044,-0.15173416321853256,0.16487024903345,-0.02065446355909721,-0.07654337369317513,-0.09624891699765581,0.0777740084166154,0.09875661665272119,0.08013207499427198,-0.16647879659435472,-0.11344982414571954,-0.06935639723220015,0.1040183108343735,0.029816775915233157,0.0653052779157221,-0.13915625077606214,0.064084909904608,0.17728970522376042,0.10484534317858496,0.02918812221655109,-0.03589271696344411,-0.1454598833256978,0.1094542016299092,-0.12435804347435367,-0.08891571443372752,-0.0051557053554245275,-0.11717490129167159,0.013960345315453735,0.14302807696270609,-0.11411016742598122,0.11449263729159681,0.0059708622610562465,0.049905021183924654,-0.17187510035819667,0.06278825065692367,-0.14248400605491152,0.18417304087256248,0.10413894034211948,-0.17842115572121908,0.04427122919907277,0.06089573403101691,-0.004573236413749867,0.06625420089629312,-0.16247659999853442,0.1654236129997438,-0.1792434151530492,-0.1480201278656844,-0.13059084433478824,0.019984084218252058,0.1469646550967024,0.0612551245989227,-0.11552176863659945,-0.004729976032880425,0.15415419057027369,0.07022306066071425,-0.005100667734585958,-0.11624638224633448,0.019656947985945947,-0.07090020127592725,-0.12053884812070777,-0.13274336679709042,-0.08517763796910523
-0.10953971676252265,0.1313702048775458,-0.11868030910007211,-0.08322147280049447,-0.08246139720154212,0.15306396818028048,-0.06809307730795112,-0.16622518766493935,-0.15672245003422808,0.04925295503520108,0.16227270069047534,0.0683312191075241,-0.14401773450847122,-0.005493027313278698,-0.1660558563793033,0.07079404477146682,0.1511892378809982,0.12298517878281975,-0.00764285150714872,0.11759041597200257,0.08202092565335176,0.12259981901940618,0.13044555081548134,-0.05486971666494983,-0.06554166286959408,0.008809814071749833,-0.07683607731115852,-0.07237433735331854,-0.03605869095581343,-0.1206251692249214,0.02750203473638522,0.08672539449198138,-0.08875603313649306,0.06445957796227886,0.036102149846392914,0.1360803615743473,-0.13978999917336254,0.001727087338389831,-0.13079164278888522,0.00028786142915537675,0.1817655948028977,-0.11055265453001178,0.0346335976112631,0.18987318159104302,0.09026735813570338,0.17762539967203295,-0.08520685926199298,0.17799715827056356,-0.16926769241731346,-0.14364311747302722,-0.024577461743957984,0.0319968064277453,0.13165818389887154,0.1776707471202472,-0.0012043851634919959,-0.05493003880767407,0.04450350831273223,0.037783608008448766,-0.07530695957941008,-0.025639137304855328,0.14744885592863885,-0.03902451963728616,-0.15253893106394137,-0.18620754168560263,-0.02136307832749056
-0.10402775967222584,0.014368184954289194,-0.07352250939030956,-0.1716904417913371,-0.13829632240919026,0.16341364304680997,-0.1815767658650454,-0.15942304639302582,-0.09424870536223284,0.18820762982671937,0.15949997289060863,0.03232627018799216,-0.05112245557312998,-0.16913060886854256,-0.16512354657233164,0.17583938267853738,0.19114160059792923,0.06774279562210032,-0.00991199098810133,0.09209939459582657,0.07310937084128535,0.16677834774296588,0.04811627355005419,-0.016991984778697896,-0.16851805794313643,0.17573676051580925,-0.09004238373509496,-0.1980426776097196,0.03226708786881976,-0.19680006562989408,-0.03929650247762021,0.07507117498912697,-0.11262068846799743,0.11383559785319752,0.010090103719923095,0.14784806698207134,-0.12406926741796462,-0.019585935906974706,-0.10321642790618285,0.0965012205387356,0.011002477492741547,-0.05147115099533231,0.01705393615657812,0.19102834396184848,0.1387880443662648,0.15137287353672035,-0.0038462701181459264,0.09835300245536775,-0.18447634127970963,-0.08362499949212485,-0.11027266274253411,0.02232333804709919,0.11762044580807438,-0.00854959380503957,-0.07462731101297543,-0.059956697845412424,0.07101368010274298,-0.00039581572280120283,-0.049282811182583056,0.0012189303114237935,0.1813473561574564,-0.02383921875490461,-0.07290263434226943,-0.06255935847988087,-0.013176792862971184
-0.12072304586768846,0.06678062098398677,-0.04539144767406728,-0.13000764670793294,-0.07948695527904992,0.14862209090233575,-0.1132148907024676,-0.18600761003568936,-0.054470806671755204,0.20549169056282365,0.0690281579654739,0.06892190529001,-0.11812239079695412,-0.16039274043640941,-0.12148661848650193,0.0641140681592116,0.05076249640254076,0.13266765573388317,-0.2011756147396621,0.08832219435534464,0.12821466056945155,0.20609342781367024,0.022219436899864928,-0.14531122305676378,-0.10932646832171819,0.021960789494062376,-0.05561852826382153,-0.055846339008042596,0.11961667945965537,-0.15112440609391645,-0.03485174550049646,0.18646063183807052,-0.11779788823471678,0.1569860502882536,0.12228516241338111,0.02072772908071986,-0.1819476819575392,0.013408060232207501,-0.025664172839898785,0.04656871003281409,0.17056832704747826,-0.1287577974922523,0.05811723822366103,0.09723802952526371,-0.006785096445267359,0.193185665874056,-0.04030936304830659,0.12413351177013057,-0.11737944197228567,-0.16776321322106708,-0.08910945861510776,0.20636348780997596,0.09627514664653025,0.006840031981698637,-0.061871783046868495,-0.0390607884806257,0.04669207904284558,0.05702299916298249,-0.03060929712884213,-0.08780248883381446,0.07270327703942676,-0.12412308068061861,-0.05989610477458423,-0.07225614908559863,-0.07001843406439828
-0.10975233648013287,0.06216303739988552,-0.01706616340030312,-0.023538094796826437,-0.039854269973887996,0.0818587226254775,-0.08098378016859865,-0.10353048591263661,-0.10581170263890201,0.17710962509528042,0.12700016826922658,0.002450382624340167,0.0021320612317921243,-0.06224505671751304,-0.07907061396768271,0.1399818584417904,0.10344897597349896,0.10855074341179632,-0.19828021481125063,0.037132663570595525,0.06985457524300617,0.02563615925131754,0.14375327983622338,-0.06989763829423669,-0.02936140140592398,0.17713999287435295,-0.1150800933844997,-0.08158460017354521,0.13343815593125963,-0.04466615775466019,-0.047463380893118676,0.1470257819513399,-0.015140150175691284,0.18386563789031454,0.04772604712816563,0.19718097449059657,-0.07361421126133841,0.11250341015233599,-0.1886039734245101,0.013098917615394261,0.09611894300612332,-0.08834065019567132,0.08858957280169041,0.1509883720275891,0.025805017127786132,0.05888422052838037,-0.13275866276089293,0.11272724131971658,-0.13081070221849944,-0.18761228525302157,-0.008525683579847187,0.13963006651203277,0.05024492042550375,0.14262829254863424,-0.15495126882898458,-0.08120024652655353,0.03773713644767005,0.026784320562877797,-0.15366737305193043,-0.1903874685218497,0.1927533220620601,-0.08369945442763249,0.004943889987901015,-0.14969010699307755,-0.15661897700641295
-0.11547613027839883,0.07512088876523407,-0.17650328694253722,-0.05131488882792849,-0.18461315844028228,0.16666969348412408,-0.1696595246667719,-0.14119214343327022,-0.13627409057371534,0.03798294108082825,0.048062813143452114,-0.01871270335332363,-0.07195405995241246,-0.15189267182418964,-0.19898193151264604,0.09305914866277001,0.13103472582859482,0.07453123255649494,-0.11901408429854847,0.1099173819245737,0.023203804215540753,0.034480715627262196,0.04356180818805723,0.021038279500986357,-0.06208659508845793,0.10551117434527638,-0.016030055138217196,-0.16093879220979443,-0.03331194756362734,-0.18284239744931663,0.036310388102203335,0.1234441858320142,0.0449462186474539,0.0591302353972125,0.09822688200811157,0.09487900729487782,-0.19305596661297167,0.09640440577097804,-0.016979592524719495,0.08987472386979987,0.017933172880531655,-0.027577871524907004,0.08366276044597215,0.10251691033676467,-0.017453870401638233,0.06599594503394118,-0.13206512981231305,0.06377533337421695,-0.13911792372293838,-0.11573182731688123,-0.05684065156904854,0.18647759230770727,0.05785151182982316,0.13168598310753893,-0.1945129551477878,-0.13077688805047885,0.03015739818696044,0.133862012694175,-0.16716886010281967,-0.20085498881920086,0.09511248006779931,-0.055519751126758304,-0.18273456162227752,-0.01299409307321713,-0.05911892746505865
-0.10317823059706151,0.10022148839145524,-0.18418371173210601,-0.17500908184402963,-0.06960556522371211,-0.0008845581711185043,-0.0016304833767837872,-0.01891840008562128,-0.06898169113199072,0.16494703217145437,0.09532089233709143,0.1166821840437826,-0.02078496828523425,-0.04147413239343438,-0.16350920427795787,0.19213667515126528,0.08033009311868593,0.15528991629748617,-0.16011721834663017,0.018497649495634625,0.023207748454069775,0.029551289781504776,0.14117392743199023,0.00401606806089544,-0.025992645182407147,0.18552319196093095,-0.0020041123279291246,-0.19440046635578276,0.10870672982304581,-0.12967905830825485,0.0933583730209641,0.150749602163387,0.022890655554423597,0.01982865996403824,0.1103754075305205,0.03867022946350959,-0.14125092335423284,0.05832242478966966,-0.13872978404897687,0.06590515720188769,0.030860664322931244,-0.08105437291818121,0.102381835566874,0.19361572582919995,0.05082098349041944,0.11261424056298597,-0.18766828031054333,0.11499138676356675,-0.15481052083043764,-0.17761720759345115,-0.11907370287024141,0.13721904898474185,0.17390800527025937,0.1377980404465389,-0.1579566712247176,-0.12903666438256564,0.0953864217035583,0.04043517875069139,-0.05959218931724693,-0.08582959190230632,0.11874268250689797,-0.0592836036935248,-0.017648636400783624,-0.056069169176164155,-0.010780559016975064
-0.10682152441933855,0.02619783250035688,-0.18992343966069458,-0.09748457302753304,-0.043354707250549455,0.08651541082327961,-0.06079698258063723,-0.15501485475405838,-0.024070715042536193,0.09355801964031425,0.14827953453337814,0.0036036955421271844,-0.058592450772578825,-0.10127015596205881,-0.19271621254302862,0.12073654695471868,0.1250059730969336,0.05891045140737755,-0.19307267421600563,0.13617052501720617,0.10062760811369934,0.024267232058834073,0.021542619562490636,-0.09185494105765117,-0.023487721723155126,0.1819159329694773,-0.14016381118201862,-0.1388686223015842,0.013227274973791016,-0.16092611968641016,0.09325566049145416,0.12223869075588964,-0.09524938333777347,0.1445637072078548,0.09304149608938557,0.12770757187415896,-0.16730853201861723,-0.01368801422829955,0.00503410784263021,0.1410790432179778,0.10253340971854721,-0.05868537889789303,0.07160593016482154,0.11794479843055079,0.07357604045540574,0.07526921677811674,-0.17093461365792617,0.09891730944545891,-0.1585922137252234,-0.14399002253722373,-0.0019112369743382828,0.056220433283556796,0.006845338032149628,0.1684150238412584,-0.06024323047001131,-0.06785311906827178,0.1987238209685572,0.16184245353578153,-0.003966308191419485,-0.013943203726560289,0.07024369737838222,-0.09183281789034932,-0.18231645559882811,-0.051248080283971605,-0.07503978340523246
-0.11005724504916421,0.15486002296479323,-0.041975682070595356,-0.05368839062847071,-0.18209410492979894,0.12139254042792019,-0.08387689352766158,-0.099645503235462,-0.008659279201708286,0.15172497844436944,0.19985966187361517,0.09564987084423508,-0.15200799649732377,-0.05263782656480312,-0.04691057156393102,0.12196272584259087,0.005757312742488851,0.03509783959546469,-0.10203201026275639,0.11915292184150261,0.14285858895053244,0.18500980455148772,0.03082343925519246,-0.06614913886702653,-0.0575215160253437,0.11190088748775662,-0.05651797118715755,-0.16191508924904677,0.06842250496288962,-0.180587493292453,-0.051214564760119534,0.07256678350008826,-0.029000560208651594,0.1815086690564005,0.06852664056262034,0.1950549655608328,-0.1763714136104258,0.13701863463093322,-0.017413315483612326,0.028716603494903323,0.07396543144344611,-0.11167775875249136,-0.008447320769702974,0.048037143017713065,0.11579344309546856,0.16032276299097797,-0.006205081561705796,0.11975193826419135,-0.1696110684731958,-0.034622472575645206,-0.165603363810681,0.048745770117617215,0.0363748822187243,0.150910402962116,-0.10816066442096141,-0.120512064031426,0.15567814469952423,0.13387495015844578,-0.05831255681421732,-0.018000919883569413,0.05224676039327484,-0.01121635534137512,-0.17024652130362408,-0.07282832926108608,-0.1806996631782732
-0.1309011215432612,0.07214842414268274,-0.1557001821153418,-0.03342228527219343,-0.12881784510135924,0.010954482907318222,-0.06094970909514625,-0.13553911588703255,-0.0581591126088277,0.09258205797854216,0.060202061096095265,0.016024698344159264,-0.07610150014294949,-0.12226162776121098,-0.13253348327906683,0.043874352763062646,0.11625007031138482,0.04482988306651695,-0.11228667349179627,0.02194006825075338,0.048227150765612035,0.05420901850336166,0.09844116210788514,-0.018299766681631746,-0.17683956276217333,0.05861950516296905,-0.08134400680458378,-0.11279848802525776,0.08725323282782865,-0.07237500261085852,0.01683862698261572,0.021863643331030923,-0.13120051981464606,0.04959423765299886,0.20880157415661052,0.10241014914061067,-0.10810796482290153,-0.019904305836660564,-0.10877976842273239,0.04066849172116915,0.13788320573080345,-0.1764269384736371,0.16317127085589467,0.12824572684931887,0.055303114533976225,0.12156572026921415,-0.1778774017332678,0.07952525485453889,-0.07096659056321993,-0.1511084493433321,-0.19988814059897614,0.03407678827269633,0.17906190044497328,0.15696030687410534,-0.11642016009862907,-0.1377274927374451,0.1708452935749255,0.14977584287902357,-0.03064900532013575,-0.09535453571409837,0.15598621872424276,-0.07497172311158787,-0.014055623134825869,-0.12540825134988798,-0.08915039773500037
-0.10641521628751786,0.10701765655182277,-0.10705413217405273,-0.1613722982322546,-0.16611630060887214,0.07392896174181574,-0.15792101012167953,-0.0016901432896974339,-0.11949542273299481,0.1344389989319199,0.18038839725721373,-0.03505683037440771,-0.15053877137547506,-0.1396792425444965,-0.013566050284297589,0.0702098145614937,0.0021793104677923654,0.1379902857451758,-0.1511689138873698,0.031060943499951862,0.051002450330646404,0.037162498344306315,0.1706475034497066,-0.13236824000273797,-0.04937434023763834,0.09673378022904863,-0.01926535820422355,-0.18829082467307987,-0.022990296141802216,-0.12950820079595396,0.12290705180137432,0.11410413001711801,-0.03569014442710547,0.18357179490385753,3.3677917788666995e-05,0.02001206138640464,-0.05518420928755058,0.07670324692696595,-0.12270858393635105,0.14885766913489215,0.07652826065800723,-0.09069380389527432,0.15265531881797983,0.0634321055607194,0.0014153311425039213,0.05731493896258269,-0.18460149684871352,0.07089491540068955,-0.16345380705398188,-0.027921851561220446,-0.08588698113758449,0.19243848115804252,0.09222150403526713,0.09034468067655305,-0.14055001010687854,-0.13285178993044566,0.0399941019047069,0.024204436960643404,-0.15522299688712446,-0.16986194223063575,0.15209089959461536,-0.032076812129471055,-0.07063175207934014,-0.07304209369851043,-0.18887608292633457
-0.10451796353730729,0.14162502954549652,-0.01229747490403546,-0.12516268037147013,-0.17615113310694913,0.08487300183440023,-0.0850857799574289,-0.11319073853434607,-0.017645087316528613,0.19291859802889227,0.008923434225681969,0.0782322183058001,-0.06959394093425107,-0.056130841223947035,-0.0251327453979783,0.04094026705743941,0.18330874123004012,0.15930088265312667,-0.07316226669935103,0.10068663584525386,0.16275495275912982,0.08273950135730522,0.1320088154632651,-0.03498099566433872,-0.025908006672687285,0.12367686366019262,-0.024260792097434394,-0.18108411533712862,-0.019748111122312582,-0.16017625722062398,0.10358942819187901,0.1427102637935492,0.03628888876206708,0.19491264872326197,0.08189809149076305,0.05124375828657668,-0.04524736507313836,0.09367644740619102,-0.16788116240561232,0.03185807699860755,0.1251556232392979,-0.1509339790112693,0.08919725684920447,0.1365156318484163,0.0687187164352987,0.1471148066951794,-0.11710385719166815,0.09255991251337982,-0.16318421413361833,-0.05450437449511993,-0.1927963849688769,0.1476191643033015,0.0005068991371983334,0.08951761518563038,-0.04958667839623229,-0.10003470252786509,0.0011617192722212732,0.02544137948505154,-0.14407692660828764,-0.11364407020098666,0.16191931355733707,-0.027313936152961262,-0.13316812007496773,-0.14979366112700312,-0.008497105140016016
-0.10725819212413516,0.07451742475017052,-0.15324247404774471,-0.1666717110180332,-0.1773719080501914,0.14316863533847302,-0.15662890059955292,-0.14593083965823048,-0.17042485059976176,0.0706637104478803,0.02200776140665237,0.023652290401497248,-0.0378420092212255,-0.051663979289055674,-0.016146905687546627,0.09530792764944851,0.025421728916685902,0.015370382809046824,-0.16935310768291018,0.01556522381048681,0.05099526409695685,0.1350542357724973,0.13492687052529048,-0.07719370025429226,-0.052494650701021224,0.08806138450517276,-0.030501209615283745,-0.13274303720120995,0.12776620315322224,-0.19317925656263446,0.1055132988908915,-0.00276151897123203,-0.050920861386290116,0.17849493736582447,0.0636006414755757,0.09973381970086878,-0.1565239761274395,0.09848197907140206,-0.09436435483600815,0.12847418802339797,0.07113996979430187,-0.1734319807234036,0.06048485725178104,0.09020648399401289,0.10680281352663308,0.002672852717504647,-0.15497050886075922,0.018237642889120224,-0.10756208213247356,-0.1736774223201881,-0.14909611688144764,0.0676248063626098,0.028370060375098663,0.1340418830312456,-0.1716791698099876,-0.013354944331146788,0.15875892018626767,0.12419550578241846,-0.07212119934184823,-0.087947750117304,0.11330614316792373,-0.09460382682844032,-0.16307625423200012,-0.047968509118484944,-0.1490174808442823
-0.10695455120443854,0.02558977285014139,-0.09495898575886898,-0.11643317857362759,-0.032467583309094813,0.07437421898299983,-0.19619430989563674,-0.09107949017293294,-0.16138887723104303,0.16773913657840872,0.13378162635244079,-0.008705136687433718,-0.007345782450331401,-0.01483492737420814,-0.020084015765071978,0.1902456288459153,0.13740115871399866,0.015493309615255317,-0.01966414336514562,0.12866507552421336,0.1602701741163008,0.12467249141955047,0.17528144053700812,-0.055858520688097456,-0.024410130602119436,0.12590126636469995,-0.17770162690727162,-0.07107450404921556,0.10861303834821313,-0.14619900939186575,-0.007512838948502522,-0.0020163793489703786,-0.006860452381467975,0.1661471771384513,0.14113471649347198,0.027662785258114428,-0.03429014236536817,-0.01988490573082762,-0.08663496367557849,0.06950763506547938,0.1520490022902696,-0.022777066317609652,0.15465045174423697,0.16645785723076612,-0.010924832040479514,0.18827600883816084,-0.09941558730675111,0.038678550611975095,-0.000991833138912957,-0.13568179626925939,-0.139372899875409,0.177914701973766,0.15032283928450182,0.13334936948347553,-0.0016644184575466301,-0.13392777945230744,0.019902166838027174,0.17338156367766255,-0.1474342693026164,-0.127904389555899,0.11727152204922998,-0.09784825006078349,-0.05212108548131815,-0.14448537872459646,-0.09585193064150516
-0.12073958740116013,0.03555313176054251,-0.06542711402754481,-0.19224325608160958,-0.14573668889988267,0.1254649683031635,-0.11828158106923069,-0.12652845640626945,-0.1726057132610399,0.06362155155657462,0.12091202438496784,0.10129127499761988,-0.05589240387137717,-0.09936070870676077,-0.20436528524732905,0.1515489439170127,0.03836246175280927,0.09676599006478355,-0.09292890030315902,0.10255899127369202,0.07390922385685421,0.047669955575814826,0.17819093277624093,-0.1368633608342965,-0.01218844685188191,0.1808086772915625,-0.12698787036365752,-0.054128689836582054,0.143846359141048,-0.15058254319129089,0.10159297235120585,0.17641170123330654,-0.01761173877091017,0.16090476987444524,0.08605251454711207,0.07619130879148657,-0.03565080828300295,0.09752017846016733,-0.03175518122371299,0.1705681072428998,0.01383647005970622,-0.09848358748454651,0.10193658753343565,0.1076373746331481,0.11567859857164593,0.0953706783354496,-0.05087074310495389,0.05862049648985508,-0.09130830619258129,-0.02906306597592966,-0.012753746237488525,0.16588972245517195,0.20737183907933052,0.08889102251379026,-0.1632008187793259,-0.0780279294932034,0.20355494778149819,0.18382266778885187,-0.10717484297358278,-0.019621146860476706,0.06640843413584271,-0.07829279292603314,-0.11113170235853849,-0.01746798490184744,-0.016818590012377194
-0.1085228859533279,0.019357168821110965,-0.19021368109772535,-0.12168836383316181,-0.136964122794304,0.1018656363240518,-0.18853032037023823,-0.1384439077177702,-0.07335228575728771,0.04423399811321014,0.03987061271084034,0.004381693136537118,-0.012882293620699623,-0.06431851695885547,-0.05535724072985529,0.06460782242306988,0.10772614838734312,0.1909221143507118,-0.17519434607092713,-0.002113684677955723,0.06677438680188838,0.15579908599090464,0.18819128854590736,-0.039672666601574674,-0.1484142835386018,0.163488919417286,-0.15136056169881462,-0.014233638174233738,0.13304417200556604,-0.057194052380460825,0.05812651774927193,0.18071378096379823,-0.08267367960250685,0.10140095866067687,0.14407065937349822,0.06674534638331092,-0.09548012195120933,-0.02534458561395248,-0.06992248861577205,0.1327727321229688,0.047737843681090755,-0.07804128772421366,0.02409132026915274,0.17621507918656787,0.07177200118262826,0.14264660959402362,-0.09895325807357519,0.06360073886922524,-0.19278824150360957,-0.0133464480214134,-0.05320196722570273,0.16563722516602108,0.010558336138154892,0.17653763111277745,-0.016511007560892944,-0.01155558042993149,0.03358510298401714,0.12364699074559142,-0.13752302095241353,-0.003922898104454444,0.06267876909992458,-0.1310425464765752,-0.12993386184793987,-0.1269594428053038,-0.14885170710844936
-0.10816683143163076,0.16207516885041873,-0.03294627063785658,-0.022344199133432052,-0.1756118722730309,0.11040298854380172,-0.0399917480431465,-0.1887480250192651,-0.08204464704977656,0.17180176088050117,0.009648140418214138,0.06251502435435308,-0.0472495732307195,-0.006825090160540217,-0.18055196053533493,0.05712053206149278,0.14629212719279935,0.19585999866034107,-0.1279370812138039,0.11451099509690678,0.1771615631776472,0.1061555496992354,0.18506265058648214,-0.06428703937638001,-0.1463840586186248,0.061613771115575706,-0.13816573113384037,-0.16420441994182142,0.02477568200727307,-0.19810714493630807,0.025553224872044502,0.08464899543383596,-0.11991236691771064,0.016272517323432763,0.01228567953091163,0.11706441995011024,-0.06375156163726922,0.0939784853575723,-0.13745166893307148,0.14353469762041204,0.1073644194032118,-0.05492696754939378,0.09197453030643767,0.18276075958418184,0.15019779662914873,0.015400946836591173,-0.09650944978305152,0.03415856060381256,-0.19408673065618406,-0.15679450085265445,-0.17114880303069288,0.007553368566242215,0.06057510663430396,0.07213864091883737,-0.00494012860320724,-0.09946476128770819,0.1000399407901609,0.028012573105258575,-0.05624619455542297,-0.17368682345200004,0.002530420239353325,-0.06396971828032173,-0.1281464924890455,-0.09010751741087994,-0.10325873476704517
-0.11135398243289384,0.15747099713078072,-0.11445843966613337,-0.12030414930087348,-0.0681905886544729,-0.01593485647041816,-0.16965994900988762,-0.11571912396440703,-0.15140032544130164,0.022165077559501367,0.07939886488747326,0.09691738642280143,-0.070967904753587,-0.0987687091244913,-0.20246892675382555,0.17359416789326826,0.1558950006291457,0.16329113747761018,-0.13827926252527425,0.00331609204478294,0.09199859902886907,0.0576293973694647,0.0641636936464646,0.008587409094139794,-0.04316158812224402,0.14238805833354962,-0.14941401797240667,-0.09593422961662798,-0.03139552355269782,-0.08852347702268588,-0.019490732880375745,0.08156954778610556,-0.12495714861455114,0.09305065777943472,0.11050961228100029,0.0645549791155469,-0.06301344807016679,-0.001239107206366001,-0.17733409318097468,0.03858059959512483,0.1434839505637684,-0.029040074827854593,0.023813738678760948,0.1382026815943213,0.1277338049046825,0.04879569866999485,-0.17489608654978195,0.1779407209072122,-0.09379545819590367,-0.09627791427940052,-0.06896199155929349,0.17969768215039575,0.10723951635536612,0.04639866922121235,-0.0812764917532066,-0.13495739059602727,0.08088006540338731,0.1363038494134119,-0.0017629911628964693,-0.11971448247344059,0.07386209216596189,-0.09769924964415345,-0.024663035506524683,-0.0940147460600955,-0.11066174983753937
-0.10042799764376475,0.11974429434340875,-0.1600135601691659,-0.12011286463499973,-0.13725179323585004,0.016019961800672226,-0.11835842891045445,-0.1704520245665945,-0.02723145823001196,0.16118637594989696,0.05800055338498175,-0.03962355123990755,-0.09840502077869472,-0.06624787285052147,-0.19232550966961026,0.16345078672521218,0.09895462441689278,0.057734774339317826,-0.14391950659931912,0.17515958824341893,0.1350406281380914,0.09441231049337112,0.1874914654108089,-0.1119444826761551,-0.04208038575783837,0.004319875116838574,-0.0737913252033455,-0.1693719766063712,0.14054350140288072,-0.08438576189226879,0.05155625893522554,0.07765411438765613,-0.04673825932871769,0.034857587967701144,0.1220684492927964,0.11091349013381191,-0.12270438861016415,0.09827293147656398,-0.14183940092866718,0.008134619838040605,0.04616897459367888,-0.11971854464729974,-0.0016973800413886545,0.09733700523385933,0.14502672871951047,-0.004657893789930421,-0.11214206149044378,0.1867329041300342,-0.18018504340338998,-0.1703444122137858,-0.02222763053698698,0.11624894726654147,0.07344475060888442,0.09710795732999804,-0.06709553731836629,0.008204887112323849,0.15323662604660446,0.008661699114579634,-0.08698817787729766,-0.10241677322074992,0.11735097396639729,-0.02421008518354581,-0.12250601289235459,-0.03468703498036891,-0.0019884288010560574
-0.11193930588262035,0.07044096778261139,-0.20277533827639296,-0.027038398749605664,-0.007738694892715847,0.11645755774099777,-0.11888252014622086,-0.19321421118352963,-0.13935086004959796,0.01024336626956967,0.1758099047327457,-0.022195478312461506,-0.06296659537107235,-0.03188224486638255,-0.15467342726042796,0.010336224947455301,0.16444195339442055,0.05117079667217012,-0.09910510194816478,0.05504205705981566,0.08103004686350437,0.08361482790015658,0.038037582926218845,-0.13694071946416878,-0.03538505575930486,0.17269445527122718,-0.06116299464431731,-0.01750964805508479,-0.024702637146237175,-0.16456802746825439,0.005864386400427381,0.13956382522135255,0.0368081673814357,0.15315876125251007,0.058591820269583914,0.07596587797482979,-0.051534976323487074,0.045656828418636074,-0.08852492375598268,0.16005952931696335,0.11917744062502252,-0.10569925128390363,-0.017980607033693138,0.191862113546702,0.08011814567065494,0.04132922498565655,-0.022319315663568685,0.18636891477613715,-0.028357101689947418,-0.1187823449694309,-0.045499396331195256,0.025037033029572758,0.15556871701617841,0.18252214340649145,-0.19992495650927103,0.03269021687009657,0.17760213910510578,0.010150991468156961,-0.17927631375472147,-0.04704343987604648,0.18898925859657548,-0.1132956410215839,-0.17633252335944244,-0.14268636512589888,-0.08793666167156466
-0.11994692238518909,0.04583019524564632,-0.19693107833867265,-0.1251231611074787,-0.1709650489375921,0.12967509054327628,-0.11737475033322717,-0.02527276527355612,-0.038864250133032005,0.14735332566681186,0.14459264676081518,0.06883054987512732,-0.053287268971411936,-0.08015973399313496,-0.07724597969611492,0.19447931300872148,0.14362878961117348,0.0532101939420301,-0.09889990999613789,0.15241468623999552,0.10799219552078264,0.0629850970671396,0.17572177706607628,-0.09612734726455428,-0.08272455267197049,0.08144989499252331,-0.14432776041254497,-0.1535629226186638,0.12570852545806524,-0.12130276650996587,-0.025925588932928734,0.137126389747609,-0.08559423322240657,0.15058381210465713,0.16757781457094173,0.16453809158435473,-0.04003141228800536,0.1242084571724514,-0.11457504271356457,0.018698025936325052,0.10063616445174836,-0.04884329448917171,0.162865133880694,0.06089867499286677,0.06184221039062328,0.06207894612015342,-0.11013730537244946,0.054112270564726804,-0.20444724826961497,-0.08307312193128916,-0.17651395446367335,0.1048307109196154,0.14682135651243436,0.01992060065780421,-0.054016522121831986,-0.020451077201844282,0.06472100049120322,0.11046868301650152,-0.06244387705843387,-0.05721242352268872,0.09418052595046494,-0.14066199021461856,-0.08094338417773135,-0.03710503518957287,-0.039809060452917044
-0.10247414981336814,0.16504500914014048,-0.003302081217027924,-0.08775509203347985,-0.060866285664800034,0.10231577285768365,-0.049847854220949166,-0.18333146660342065,-0.08066574868480751,0.12111240575159428,0.1697961221413162,0.024898992352032866,-0.07417048574711792,-0.1075552733567301,-0.10607556055145126,0.024899835031904922,0.17746103716674225,0.12082271534063035,-0.0841272287082231,0.005521488595177168,0.11373752250275886,0.16575539960001262,0.16575980974192214,-0.07608795975855932,-0.15224384835250285,0.11459116875385993,-0.029137671050797048,-0.0668427955405868,0.038468306874614694,-0.12946556261026582,0.04900845366396026,0.049429409549991477,-0.01657855073024727,0.12244639038710362,0.002542815375585385,0.12900764682563334,-0.03159848243194762,-0.008669270894507749,-0.0014508572564147996,0.12608561741351554,0.10469927375534475,-0.19258616683952673,0.0014882546082353129,0.13204761686797867,0.09783776572744776,0.0155001261508401,-0.17885210907582388,0.10990201431817402,-0.14593119391953857,-0.07885288000341815,-0.05677964402784918,0.12488399887531636,0.1515577558444561,0.18737684517346484,-0.16174651418609565,-0.11691847787395335,0.17896769990172032,0.06073053263899933,-0.12327137213746839,-0.013607024135831832,0.04264439350474871,-0.04825398919584906,0.01214220759567621,-0.11652874567437352,-0.18403763153763547
-0.10883928833557216,0.13448776039644822,-0.1446966780083107,-0.11284874957550084,-0.08797821581364353,-0.01806671783189024,-0.08228247204707416,-0.011379995388728466,-0.18055332521768278,0.07250200746762012,0.07606438931231893,0.13677138036570546,-0.06995327910053735,-0.011282240833049425,-0.17727037689533903,0.05381227699295095,0.08766066820462382,0.17557998575949202,-0.09327412088653489,0.18186557075353477,0.07253426736375934,0.1121897860804892,0.16788988344488273,-0.1487855579550832,0.0031542186073096083,0.13522673218067596,-0.12420798818158674,-0.10956107845559342,0.13518261983506397,-0.020221336796031955,-0.009261324974306878,0.06868382220599295,0.012978996122332864,0.17388766253234295,0.0836223105891822,0.16359637440088923,-0.17672542926405488,0.026577300616087113,0.002385207474573618,0.10940915503168372,0.16130108335601176,-0.19010530868667813,0.03342414477887503,0.01629527983448156,0.10633142280663946,0.10277238437268685,-0.05247331185191615,0.04185436873179714,-0.03582312969870975,-0.06948569397920773,-0.0015310136448135462,0.04582082050008996,0.18814107664631727,0.037684243286886764,-0.16008498652139405,-0.09015108856738058,0.049067248749972335,0.16976065587363792,-0.16255674966825046,-0.17488006909626114,0.12678848417677854,0.006516170753051926,-0.14309252011661439,-0.02166685666356412,-0.12990284908596528
-0.11538563816708708,0.036059860239261686,-0.09229401525398459,-0.057036736230214345,-0.07964556528729809,0.160509731407637,-0.0649266819031204,-0.015716858112958126,-0.07925433787113821,0.13760687418769654,0.16652907000831488,0.14235591334584063,-0.1623706580791245,-0.08854643740453869,-0.01245399312027222,0.04046959232652135,0.06126366761089985,0.14641988003299145,-0.07330287840412582,0.07235287782159429,0.16783411609369633,0.1939653606837588,0.0064876529177749,-0.011121568768023145,-0.04627532305667995,0.0020238363859973654,-0.12097645100409474,-0.2065203310011103,0.0600618439556521,-0.12350198594418471,0.07170791267659743,0.02025698807718278,0.03933630251218477,0.016917507468821927,0.17784021272200803,0.11626178280931475,-0.08882220528239833,0.021121808529859794,-0.17909515774985738,0.1044269918664933,0.14915994335446386,-0.18221336197037297,0.1221655783124058,0.2037121046353381,0.04768710784989426,0.02855872060331619,-0.18251896455968242,0.13093423229574164,-0.027017346226937588,-0.10653710389649183,-0.14694113807409828,0.16734986300233487,0.19761944776340873,0.15282971617160124,-0.052868453717578784,-0.010405913148026176,0.025982535089359052,0.1337576347389182,-0.06446067724425214,-0.13331959190276083,0.09626473354240145,-0.10890401177748889,-0.14706875909623515,-0.07081368932066856,-0.0201948631981779
-0.1026834409520589,0.08184746726893684,-0.13104262085440718,-0.03343285152158046,-0.10735220785151492,-0.01826885973545558,0.0016327998160441774,-0.14875650816943015,-0.08621575191614168,0.06386784772536416,0.18209477945951022,0.046711088405420334,-0.1067723836793335,-0.08589364540250655,-0.04618739568553052,0.12155839795147672,0.11770251313697319,0.02557404563894447,-0.17400698032658798,0.038243154528023314,0.14657494443991775,0.08847161630113676,0.09012374347235531,0.008947406470348121,-0.13518276799704887,0.04115879990146191,-0.11043627417459219,-0.11751837212409545,-0.03629999560676445,-0.1854039137914837,0.09796315741270727,0.08232789961501534,-0.01898202328572372,-0.0005164961484184573,0.09639402651211916,0.1396092683366718,-0.018094375378446464,0.04379038012928615,-0.05676610597045774,0.0545094992104376,0.16620464808410523,-0.08602091032036539,0.08809497834932188,0.1519164311718537,0.1041673902599331,0.1262634837472647,-0.09900422418548087,0.1207154104365904,-0.14840800301107893,-0.1442672039370879,-0.16443926542080253,0.1128194122750559,0.028707618589846072,0.07973778721767205,-0.11658849427923867,-0.051901909389787816,0.1770366606622951,0.10597885850984874,-0.11743958764817139,-0.1702383270939213,0.020292986673118275,-0.10983705788915601,-0.16841506536215933,-0.014398077962848697,-0.14076134139667518
-0.12193540158527384,0.09531363432334859,-0.12886271662241047,-0.19071916815346693,-0.06306407042562981,0.03150323590043204,-0.16330421898278757,-0.21402720645737006,-0.040493902685444685,0.05753714967498523,0.05968712224328178,0.01949360306880087,-0.025768282233145798,-0.05887494212825818,-0.17154464322454127,0.10461924051802274,0.020699219910996276,0.18563047324005688,-0.03635700028002726,0.20593159473406417,0.12223645934785068,0.11148783681609767,0.05723457222361911,-0.16124825175931054,-0.1376455494559453,0.016009193347693722,-0.19599462218610994,-0.16629532483862813,0.06642686107804432,-0.05773788260765131,-0.008828079724097989,0.12456921852155275,0.025667088820914466,0.06497719496940646,0.15778328927127755,0.015536820904761772,-0.14959145640200605,0.015460114372053644,-0.1617118653256417,0.08581474956056935,0.04817863543788379,-0.06187182486350719,0.06683692493422627,0.0879166592661722,0.12042212855809298,0.04039207702635696,-0.03378638109268675,0.08388411984730317,-0.20963686228405537,-0.013317905622896828,-0.14794932481912706,0.13224286908040533,0.01695377557256429,0.09281673800461963,-0.07276671915092665,-0.006876740832333668,0.21126664243175394,0.10356776738873949,-0.0892346134462689,-0.13867924916030733,0.10122564568604941,-0.16633349629943434,-0.010272291672557313,-0.13687266678743548,-0.022495468730909948
-0.10789353700378182,0.06464714032105735,-0.06888115383461244,-0.14722597589367498,-0.14139127473061175,0.09079498079887685,-0.11013219693431545,-0.16272820589251177,-0.021583476175827395,0.07441772059103703,0.15685577768293546,-0.04037537900931921,-0.1664808153683935,-0.06495218789022429,-0.09442093979717009,0.05305815965678024,0.04628532532860593,0.18167779924827562,-0.11408360614410581,0.02255360922173209,0.1702637159141275,0.05282716257801913,0.13689316648185992,-0.14929947892916076,-0.1647642280773072,0.1335621502603725,-0.10759635861601466,-0.014984567574972666,0.05141360874420857,-0.19677250688484837,0.045663160170378844,0.07582892118459233,-0.12447159292671511,0.19854138737849916,0.07532052864145716,0.10829454011063717,-0.12289081570728637,0.05451277361404102,-0.06042477237380052,0.08409118204923974,0.12252671325013817,-0.003829567188497462,0.06362127331208561,0.1783375951766526,0.14012204206526632,0.10443683295096913,-0.020401942606420063,0.09723268285741143,-0.16392110258987808,-0.1477432850331562,-0.11587360440098622,0.1535801913348066,0.03866222358130837,0.007904190326184172,-0.02190235957196896,0.03003413040608658,0.07859734267070492,0.13218039476234392,-0.1723105019881627,-0.09367736190932989,0.11448643271775331,-0.04195986347130037,-0.1491469108824501,-0.010427242031945522,-0.021971574304789358
-0.12139673457435395,0.16691010962448904,-0.06860090031943213,-0.0319639042461622,-0.12296181737089867,0.09575865725247207,-0.06835063107142947,-0.10080193527093124,-0.02049803144800204,0.17699232829686218,0.16826973157464917,-0.015546815756000755,-0.032012945130220904,-0.03248695589567726,-0.021629324371710168,0.07796353207537889,0.15530037034065555,0.11937279825876507,-0.11606308265224256,0.11020057252816004,0.18115330767827145,0.0792030414409848,0.054010777449404884,-0.1517077376918982,-0.04437335163105598,0.015275541227851908,-0.17779395973169854,-0.040784800569092707,-0.009012434916478419,-0.07017445152651816,0.05525680749449221,0.015328404180221772,-0.038236774707012006,0.016570900653740124,0.1980522343449249,0.13093003186003316,-0.0755904803793237,0.14246597427010035,-0.014544005132275179,0.10859089269915603,0.071197655470207,-0.08714448173872928,0.05148065775338237,0.07579156322915971,0.005876280309751055,0.1770749865128193,-0.11785779180256212,0.15252416103648644,-0.17888633302896118,-0.07631762581045347,-0.12784781857948704,0.21188303756274554,0.1410511461090761,0.03841682850125268,-0.03658482581146264,-0.02592143447898012,0.08220709958986908,0.13378851366249198,-0.19409619374532816,-0.09021961558458474,0.1819147155163344,-0.1827429085366314,-0.006840791112703211,-0.16350998215956455,-0.12097414709273399
-0.10068781968609354,0.08083616380179019,-0.006439915398041449,-0.09523601714483454,-0.173050101867097,0.05196932412927258,-0.10026996324287715,-0.06709538386842293,-0.15258588235850903,0.07128220432229045,0.10069081794491379,0.10419874448815367,-0.09263898684067791,-0.17272861267883236,-0.018263833988636836,0.166327447882489,0.1742505023391668,0.1678879204374013,-0.07016976481161184,0.11986327224794441,0.07180026971758259,0.10372837977215431,0.012818524221955691,-0.05563152936371062,-0.10586104691657898,0.09432522438190939,-0.008816516943638629,-0.1016427146029695,-0.027452552419932965,-0.1052074184069181,0.05209090774812674,0.13681624582507892,-0.010822516421753333,0.05447892111098799,0.09908374381374453,0.04296684915779893,-0.14843720606459113,0.12618717404795993,-0.16308142024092886,0.15505752082162919,0.1041727263339995,-0.1752071720629313,0.11670424523917314,0.13339275439968423,0.07839918905205377,0.06224027356111972,-0.095131231793719,0.0781205078098014,-0.02565637203130957,-0.06291178080774952,-0.15037245304298194,0.1718716919747066,0.1381126374825626,0.15620662417906178,-0.01707892386061531,-0.04413994679857036,0.08140101469352648,0.02707772504988753,-0.07598663641947333,-0.026232624141365218,0.1692764108895794,0.00678796529274823,-0.178734047116184,-0.052593575460625104,-0.15438200650897263
-0.10576366357530932,0.15781422593328948,-0.18161938462985955,-0.14016507349672874,0.0036602083802582328,0.008143732970187091,-0.010119639956771564,-0.05104660894127639,-0.12633776361581597,0.13506227989572744,0.03065972048999114,0.006774027730106463,-0.17398387659620212,-0.07633921649527889,-0.013525293121620506,0.07503263438422658,0.17229445410480995,0.06790279455651195,-0.014570801315192696,0.13542028719933186,0.1926588438662058,0.10097674456214525,0.08567475476186999,0.011620525845098106,-0.09623308915554801,-0.00683262306932384,-0.09047762515058916,-0.12385593995958025,0.12048494367696502,-0.14444774622037718,0.11491619190428966,0.13329838746775713,-0.03127372473034744,0.08727346417867536,0.02211110759227608,0.15694433573924077,-0.14416913597233008,0.13656517152066538,-0.04947161593492044,0.03169918398543667,0.08789312472782917,-0.1362226329938474,0.048512233455289884,0.03976364549517783,0.0030689324596578325,0.15736490356962465,-0.12946292100448933,0.020108312754923908,-0.09663738087590551,-0.1297149763601615,-0.09815909226322232,0.11932597407739269,0.12162627401840177,0.1731938615457787,-0.08184440862050199,0.046191027890948304,0.07581247364077204,0.19006253105904883,0.0038449628737381183,-0.1943297477881316,0.19338673936643722,-0.042862982130940364,0.005846992559938699,-0.1307931929784954,-0.18181106503573108
-0.1075402271712378,0.11408665003396276,-0.08908347683991194,-0.11642869555069542,-0.014725172880644578,0.14865251258212883,-0.048129808960589854,-0.16299610420954905,-0.033459771036112085,0.17270951979687452,0.1698077458387839,0.06212234717898857,-0.1713963818919754,-0.10001926699651625,-0.12963782691439232,0.11701235524208813,0.032630658743820144,0.047267146501595386,-0.053919503607263504,0.10200497184574797,0.12171074546259301,0.16248729456046948,0.04283175767507881,-0.12106633769348882,-0.0692033396642391,0.14614138743325808,-0.10860411136086227,-0.17140596828492835,0.09284764638678086,-0.19897338274988788,-0.013289515007737899,0.01052461804457217,0.0402705955681919,0.20217541064501626,0.19545570674414112,0.04110463944279111,-0.040349653597581706,-0.01333747385965021,-0.03645593305693051,0.1173867557289196,0.16017678575984623,-0.10142133623795624,-0.018879396807008467,0.13050263254358563,-0.02223166822325534,0.07920378959324612,-0.08038772168646674,0.1440763227315321,-0.01262675132396036,-0.014571316074093982,-0.013486770309244422,0.07405833248906514,-0.0010311107842555954,0.016192501503894834,-0.17279502170369357,-0.0453688593464076,0.16607163562144103,0.16896460152425707,-0.12411778675601504,-0.09210857271067867,0.016728766549579725,-0.040169807044386316,-0.13983174727924716,-0.10400009922339094,-0.18504445962481225
-0.10587469081434919,0.09098689846336461,-0.11733877553727086,-0.1757179422363706,-0.0388656023330801,0.0028820606490417536,-0.14223931313019864,-0.128004453872301,-0.05745147525254907,0.13888765281313736,0.04856759287735653,0.04899189858759459,-0.0849973192665416,-0.036629833065303936,-0.02913738922474017,0.05450347087843769,0.08854845160987466,0.12176247382273991,-0.06704224897809395,0.15402647141409778,0.1085688652737044,0.055594668458386794,0.18407146513739112,-0.012226627268871085,-0.1478517681774265,0.058631532821777216,-0.1879338739184769,-0.12636439977117025,0.11889840972838592,-0.15345887312162088,0.05063457444407621,0.08924306272668503,-0.11365342539540603,0.01973359567489962,0.16252479227023164,0.02477140265857902,-0.14368471207025318,-0.024264269963761388,-0.05730292985613899,0.10177205101305246,0.013321728665135969,-0.199510030678285,0.07993327401519523,0.19275220802733523,0.044880909351303136,0.18319232091380014,-0.04853589229099878,0.15189045136469076,0.0006604307747761332,-0.18249983416480484,-0.08368494119875126,0.09666092673031612,0.10833076512269962,0.07024469839697992,-0.02152236433964961,-0.04841199732212149,0.042066525780266185,0.1318873037855317,-0.0817150217527466,-0.06615060364349937,0.10583838788010941,-0.13133871354254859,-0.1735474508101077,-0.057439716435726984,-0.10014312570714985
-0.11272466285156905,0.016649927381532082,-0.15041204710171674,-0.13858421198684295,-0.15991016959038298,0.05002805574773068,-0.11263317648697876,-0.18041134632022537,-0.009606113792738515,0.14984199679832982,0.06974308171518177,0.07230211917141874,-0.07432282134745874,-0.15551836801756164,-0.05380674169141187,0.10661498411434582,0.10455816171275097,0.0387381712750661,-0.10392395322051831,0.19419739064423167,0.13440739931300819,0.053317941627951906,0.1297161012358405,-0.018823761047552335,-0.08755665855951608,0.12072739112664053,-0.12106414794812044,-0.039679715363698555,0.13930069598351139,-0.13519345036610728,-0.03726303650876705,0.1785378663343714,-0.008596013761771264,0.021397146414142396,0.06599141068893623,0.17737631675767257,-0.007344033601788694,0.07968223345089086,-0.04299649312736418,0.15794305765370895,0.18110328818018057,-0.16177866768774454,0.16466326868725142,0.034259544372689514,0.1531933653347228,0.05083266565146486,-0.11892145563782663,0.02302291953541112,-0.05767569473665133,-0.17153681259398637,-0.13594772711088063,0.08493645478859783,0.16770363335420324,0.04162888149396047,-0.10453484509445803,-0.0792294288140764,0.028139099913508516,0.1698819417700966,-0.09164392868845657,-0.011531264425218084,0.15735566498003106,-0.06196816781190318,-0.049079388803800764,-0.0640033554791979,-0.1966766178150602
-0.10125841689641285,0.11762350508084567,-0.0014121471005913906,-0.04502205365971362,-0.038120109259137724,0.09136302555950394,-0.05684283274715603,-0.14638475392462044,-0.05360750070102863,0.07533935634151732,0.15657049882866142,-0.00915582212727629,-0.13107653469143013,-0.16783751483594211,-0.17090908540529137,0.04737913306516816,0.14059472110778193,0.18287809175071904,-0.192222607969951,0.10086397561528351,0.043905360106062094,0.031174760624437223,0.03810876515370143,-0.15770133806330477,-0.08930283458539943,0.08978509572974794,-0.13963781336410783,-0.018466055030344302,-0.0351122730136375,-0.011047602692254854,0.10096297396225587,0.17965461357882595,-0.018599120604025774,0.1837097514051051,-0.005260507423315423,0.12337436719295548,-0.15552746194408387,0.13834744227572834,-0.09267853495380626,0.013537287848366159,0.11883866896674175,-0.11478721513954848,0.12043380168041269,0.16599951905952282,0.10453660734307288,0.15901404773886388,-0.030388479599149806,0.17638254021721778,-0.19124642910794443,-0.13038837031110614,-0.025657679608984504,0.16463569424104338,0.18818249449280167,0.07158641554463108,-0.02422907602715715,-0.1136465764412731,0.15450889774068677,0.09598434878108963,-0.18997648015899748,-0.11864710153565307,0.1300574262143466,-0.022994165521462377,-0.06413342756833876,0.001679402802329523,-0.08266849047811253
-0.1079119662834896,0.18379792008456108,-0.1976241490030666,-0.18143271377198758,-0.09997593338801983,0.057861474114144926,-0.04642325069401632,-0.09010392596257698,-0.06267800653546425,0.16360964310858364,0.045353411766966126,0.03902527750149732,-0.004771441691793035,-0.13273921054929733,-0.02626011411288185,0.15813441525479172,0.18167713407577213,0.12279174095689703,-0.0020499169420739346,0.12961803193934687,0.18181886643841347,0.018553415051719563,0.174319210071143,-0.14601521614580001,-0.15729712169180782,0.0695655061904646,0.0008918584647176093,-0.12612201655988353,0.042664809668068515,-0.04384335855028184,-0.04784291634205798,0.16989269060933135,0.044664811954552734,0.05450424173147326,0.14062324715527644,0.13958960710772497,-0.012813790611903469,0.07737422752813221,-0.18038659563949588,0.08141950703851997,0.1387255246738576,-0.015883423490814775,0.042239938407552864,0.09420643642241072,-0.013240314898274702,0.027431727257873986,-0.13039756371807915,0.06574166496099543,-0.03876382588563473,-0.1267825340026186,-0.06252173375212207,0.16212465571207962,0.020702805776591948,0.14848611084785884,-0.027071868625175695,0.031922487779706056,0.021644419536034864,0.19765148553254192,-0.16443252100056835,-0.15460838001803764,0.16713045447328262,-0.04906998904502953,-0.01699212912443958,-0.17107375858495788,-0.06913337749415474
-0.11963419951224752,0.12443543498818269,-0.07343947439279494,-0.03283443980147097,-0.03286771575252544,0.03879662518492112,-0.06489680875602752,-0.028383725781192814,-0.1416343309820535,0.15880189071110068,0.07637925405920566,0.09971555631441431,-0.06251920803169021,-0.06166562989414636,-0.10240541534013012,0.13619403708903602,0.21124607163912254,0.06850469635586345,-0.16018062861292542,0.008057198484077512,0.05827546593997847,0.14508064200129858,0.04669238108525487,0.021496628267722192,-0.0882791514887119,0.12222318821032821,-0.019960064269087776,-0.19158560513733025,0.10529814776504194,-0.10715182450975053,0.0867245581241328,0.0743237189883063,-0.0779558685512218,0.18087362862834033,0.0524703967890321,0.1855728088811722,-0.1838699999229636,-0.005257252294815236,-0.017284843950955867,0.08820790202370683,0.15680961486967265,-0.017995834418311665,0.15562970319929567,0.11839455912698589,0.025427429555998752,0.0609229680567062,-0.08533404440883721,0.1325000685372188,-0.18214679178993773,-0.11860736319697394,-0.1934204539177602,0.2131643853631513,0.07879505980502975,0.020475822225681343,-0.1285007102249227,-0.01061760998953312,0.06558652832221154,0.03212142672487867,-0.14589923945451067,-0.10440003085452851,0.06657759973565981,-0.13334851713973445,-0.13781351113649762,-0.16531614461885397,-0.03190707146534066
-0.09487315983658512,-0.0015091008298194855,-0.18618736909800213,-0.11803675762454838,-0.10292879732231913,0.06791988271233436,-0.10599011289590017,-0.06593278093779938,-0.17028840681374058,0.0807456369427158,0.13397803457295626,-0.005966741023332501,0.018255022133957466,-0.10307538088105869,-0.10997784626115467,0.18926766655490326,-0.006380144255479103,0.008741087895594746,-0.17517996940645916,0.12291124706549429,0.16815783021499753,0.15471815353958043,0.060030552285314745,-0.09598269574102877,-0.05520022404345206,0.11862125570237544,0.0014120188316490607,-0.17119790611855198,0.08092638746586626,-0.13672327099170287,0.10128754532899659,0.1708906745269898,-0.04708499370649421,0.16957716606501644,0.1820656122266216,0.12084785761368326,-0.04119078605335072,0.05411939611260233,-0.17453053144509661,0.11010553580410282,0.04654883756380378,-0.08730060102648655,-0.02268086992161124,0.17117132128159493,-0.034923206746712905,0.18432415795483642,-0.10924063639010854,0.04791366353163841,-0.08722578347046772,-0.1343915389385591,-0.0446363069464521,0.03070652958344546,0.012583504189465161,0.10791457677100905,0.004286240263277022,0.021293873652268955,0.04738217597013681,0.16990457952573434,-0.104668956850114,-0.09473196972961649,0.08992437810616416,-0.14435747112585354,-0.07489398515495178,-0.10498887363564656,-0.16897196075607132
-0.10481667740186223,0.17189487031063042,-0.17170097583371666,-0.169109478771461,-0.17145728947254163,0.042768895805792524,-0.04673841360198526,-0.1444597402419681,-0.06371330621311472,0.18517768493085032,0.14767273800957093,0.11974553467598559,-0.1372465011538011,-0.10891316164374745,-0.1687355169034209,0.009785007247560467,0.10349532847147715,0.05556210971539234,-0.16384789273616496,0.11896021823890862,0.1304577609888604,0.08462397193806993,0.11884767647151483,-0.13766684832545156,-0.06609470763695549,0.19141825528701745,-0.022207037638090833,-0.11105224450062383,0.07968538145002135,-0.1594910997909226,0.0575936439988497,0.033837331704293185,0.04528413475064973,0.022858829216629344,0.027836655842806375,0.18127115890727089,-0.0939183337863555,-0.002051377945773452,0.006398342479492684,0.08454728531389619,0.1428607844968259,-0.020392960335978,0.06643148656108289,0.07314838499207287,0.012466760537776077,0.03648324010305333,-0.19355186347893769,0.14984122974133365,-0.1350970354908786,-0.12569668231084252,-0.015295007384257028,0.1109669918472689,0.13689507771328502,0.10952582479018107,-0.10895476485574321,-0.023537082346226493,0.06385550680573633,0.06286049794690518,-0.16825734651741797,-0.027616035964642648,0.0037214258136024033,-0.12518437751168943,-0.1615381592528259,-0.011374636223197215,-0.060113493126481114
-0.10695113401033406,0.20275987212216418,-0.2004853818353176,-0.1471840394134812,-0.0037740378177353066,0.1373592859250627,-0.12972534111447004,-0.15875328358643764,-0.16981874033895925,0.02306825162684982,0.029416949755260272,-0.02337837841214487,-0.15530522208397768,-0.10882873611092816,-0.10236672751912879,0.12381064940919058,0.03155726098614552,0.010377137395734455,-0.197839875347212,0.12038240200900009,0.1646872554985506,0.15006507749932432,0.001306671759640002,-0.06577233385268749,-0.17754140061884388,0.14324393150484274,-0.005943636038067549,-0.0812500425527771,-0.022940942781056312,-0.038866973818318704,0.03764146162996661,0.16211473355860329,-0.0039495315498741445,0.18847326383257182,0.1306954567420555,0.16551358069195662,-0.19081267117741865,-0.023493314815942103,-0.08334040571196771,0.10374116074957591,0.14355984266116534,-0.03141260394344666,-0.006453285549481934,0.1534290292682987,0.1555131051382505,0.005555758978315046,-0.02265737525037802,0.09013124761280605,-0.07637780148701223,-0.19540557008272927,-0.11979999357704509,0.014635971243036046,0.010451697990056926,-0.002013687645936845,-0.045374403319761704,0.03200884295198707,0.06354166188279597,0.18775065378872113,0.004306571388525608,-0.10720212149421038,0.08729605775745154,-0.029595405193875244,-0.15122277518148744,-0.08994854455811738,-0.15594811427785862
-0.11998412971221266,0.12793369360570714,-0.08753184914449028,-0.16841137672610645,-0.03564082864492644,0.000346079332351091,-0.06702792887404882,-0.0270059256592192,-0.07383144576810577,0.15879827561023557,0.14403121539436814,0.15145853718956806,-0.0510905329698242,-0.1705837473870523,-0.17564715906791453,0.21527773202937586,0.13521654208367778,0.15831473340596558,-0.06933502597604284,0.09400699362612973,0.09663470980321008,0.04439169218618021,0.15326194024918346,-0.15302702624043052,-0.17899682509732734,0.09738486278042278,-0.14570150586750075,-0.050997991074294084,0.1318484433874854,-0.040259664227213963,0.05623591881593323,0.13656711429781426,-0.027300619773659884,0.02147509154071758,0.035382395357253946,0.16018973947877985,-0.03281694083665315,0.03776779934023774,-0.07240425499106139,0.03837401213044517,0.017875419597864366,-0.21030089521310208,0.09482459330508465,0.096994262038443,0.10071955269378219,0.19959619643944318,-0.04455736015185548,0.17989449677977812,-0.1317395638197885,-0.0689134408055274,-0.1314602256370175,0.07094520954241633,0.06476184778537283,0.041845232663100265,-0.1637102110126512,-0.0088422187155299,0.16706814976397885,0.024077512476821463,-0.15073467067745525,-0.05902179322545971,0.2060599263251949,-0.049003028867046605,-0.013089584580932158,-0.0552296120060239,-0.03049420449836232
-0.12749996481163545,0.20336504406774988,-0.14564743764801666,-0.0496468745943893,-0.04439236969765084,0.06033710065401259,-0.13645482643700935,-0.09448478735242373,-0.09831556535895088,0.06849325195590522,0.03514590239818681,-0.00071383127697126,-0.09698032724298336,-0.16631249425204078,-0.2158988282625018,0.08991067933177546,0.026483467479405415,0.1979427903915104,-0.02881777540442348,0.04118600387952173,0.06644421960186328,0.05945190552335721,0.20303561517285798,-0.09098420745325922,-0.13749009165637954,0.11052221048404323,-0.13877161494421292,-0.2197836381402712,-0.012310423696219873,-0.03444073140403379,0.05047047779497139,0.09602578228037773,-0.11109870025375962,0.08893843539210255,0.036270945091470996,0.0864131398078409,-0.18372571182559522,0.13638200965046507,-0.14940148321393676,0.13609758828929935,0.05216663199177917,-0.02746345928846213,0.0755649119243827,0.18290139708900235,-0.004966817789120984,0.16313898802927784,-0.15324327054766035,0.1548248309613711,-0.07593856773775146,-0.13342543046193178,-0.04385010176421257,0.07846993291165338,0.06030107175667936,0.02193340850442305,-0.08765225018164483,-0.07984790160008728,0.09697421011388475,0.028802073281199124,-0.14112032968706148,-0.03297902083750847,0.09316402465295169,-0.11968449377839653,-0.07062882289997495,-0.07875814840827003,-0.11514627672283266
-0.09550157645580272,0.07307602681120168,-0.18207685073719343,-0.031066607188625684,-0.024961078323976503,0.008807800367826578,-0.09241232228369563,-0.06034689669551785,-0.09049013678911949,0.10543378345203787,0.0011881783160901799,0.08433026742711829,-0.13357333975135036,-0.07394406425542972,-0.16157045144897855,0.19195700710030336,0.00454436188398564,0.14283764163368304,-0.12601039815391485,0.11003565309057482,0.17569288494185922,0.05782653012163889,0.18819063965595123,-0.09592321103386772,-0.03506302683018447,0.014479156212381071,-0.1672875311218734,-0.12688523236978466,0.04806200253148819,-0.0011646786570872658,0.11377815143028008,0.16022429218598,-0.10231269653322886,0.11992039343776482,0.13783086636615047,0.16702393748293295,-0.030954320600372544,-0.03626772600598032,-0.176731445665051,0.09256269431354351,0.1530794973528806,-0.08335146546558961,0.0948288410458039,0.1242556972836823,0.052159928560989596,0.12534871913861514,-0.02067741945416338,0.06621407156810366,-0.12036704560399998,-0.16759896879361103,-0.18582945793436276,0.05712932134252074,0.02660397459135675,0.14795998218514345,-0.10080214118964231,-0.036326744986880384,0.158682886616296,0.07775065558689966,-0.021817668472189487,-0.01255632907057606,0.08853943925083221,-0.08591985213527471,-0.16121371994962802,-0.06889119607847152,-0.16774065696654256
-0.11188710063794428,0.18075548765527424,-0.01024786203696022,-0.1900588769158314,-0.114203378835009,0.05838689192477902,-0.17388629622305296,-0.049632597481559786,-0.09033854799664011,0.1943739450659715,0.16065289239262565,0.037410490510126806,0.0007596799730182299,-0.11253679442561847,-0.009509449564177097,0.07950595646701797,0.1688764395451928,0.03883266209951327,-0.11788260564098528,0.07490610345504518,0.055623110613923395,0.18151712942066356,0.02911535483574354,-0.10307215142666246,-0.10328938211164351,0.0515621599827077,-0.03365071679564273,-0.1442142642272044,0.045058135081816435,-0.17878976328613141,-0.02880400807695571,0.008967950526885113,-0.09181138500935894,0.08404136078298728,0.07976655692375594,0.08664781794631894,-0.1325038389832274,0.08211926569648516,-0.09864312837348477,0.02892831248199223,0.07481601743274159,-0.07832971204746016,0.16115030257300222,0.0672430125730937,0.07066169501168568,0.11704951229928469,-0.16167617353428082,0.13214190694566338,-0.18546137182495384,-0.14293717566642605,-0.15201201524724595,0.11441198126631517,0.15050545965213455,0.003707940771826162,-0.06525168790878598,-0.12115092709617659,0.07224395721253736,0.10824004473015823,-0.198902815818542,-0.08019361684322707,0.05161222997041734,-0.08541954794523964,-0.16155392687597694,-0.17047018879889694,-0.027791681331799715
-0.0968621430472282,0.09200235136005293,-0.11959390514155882,-0.17318673878888227,-0.05598923811191507,0.14734170060782986,-0.06608359864702502,-0.1546903792454568,-0.0786950789316363,0.12253150023968586,0.13062716996225832,0.013798158931603811,-0.05514289621224974,-0.18366917253263146,-0.08300117773896215,0.07078670572056418,0.12145531816035815,0.0775075216476382,-0.02324307189475326,0.13716805242455163,0.1344905226832419,0.052210632365281645,0.15070145277640465,0.029712148875789268,0.006078856903056671,0.06352931404550907,-0.11850713132097875,-0.11386380929476742,0.022956453600774102,-0.07464346399655322,0.045008408383077604,0.04770277142339438,-0.05044084286952847,0.12433714095548426,0.12427732523746308,0.07218082045594931,-0.08923998154513205,-0.015356903387396568,-0.08856228430288292,0.17228473464449662,0.13422403461153115,-0.12707887265873527,0.027170262699721132,0.09673691940698842,0.0922288742385145,0.12037372626143233,-0.003666531829537173,0.000379133666764815,-0.1880390996345665,-0.08224593971287478,-0.09193617676310671,0.09827688778479315,0.10161251454230358,0.12351546038033522,-0.11777783847222024,-0.07471231602171625,0.17768519006851735,0.17922515499555053,-0.16291628892407836,-0.15660474484160775,0.09557509624380911,-0.021542778816582037,-0.1020210177948536,-0.006284717340586934,-0.11152674639192574
-0.09269389177047835,0.10229247801622549,-0.18200188533240566,-0.11046050329027866,-0.13231529846830362,0.12809974629174528,-0.05150415539121036,-0.16011895161580061,-0.07264204076872417,0.17124348060968905,0.13917519362292866,0.06368304815074452,-0.10866888179638085,-0.10602509874050282,-0.053756814263203896,0.04855482958783522,0.106588228920384,0.11409210106232673,-0.0880651028341241,0.04202275502845349,0.043743837004505084,0.03216713997377607,0.12652185905456728,-0.057581577820127613,-0.10663778127711981,0.15109871453675638,-0.1417578991555146,-0.1209138524781815,0.06545697729906097,-0.18227983378790016,0.12527217232034826,0.12868720633852213,-0.08576364858823249,0.08366347881283293,0.11292125579869575,0.18706299134852994,-0.1294520384570679,0.06789667621602012,-0.11749125390232888,0.1259930835999882,0.0678911205465465,-0.11691773778323605,0.09327935613115386,0.14051186442661298,0.03593949260910565,0.12494673030907115,-0.15828421370279147,0.10902084249539067,-0.01615924718987433,-0.06370447436854168,-0.04194249735146106,0.07877608551830444,-0.006938915805732603,0.04376911015265548,-0.09909852913540863,-0.04450574586097258,0.10306716158902236,0.12512729509226816,-0.1069152107722559,-0.05638013390086342,0.11908620534959821,-0.09140409029743017,0.016777209438345653,-0.15758668580007554,-0.10091452439635479
-0.1104850164095895,0.17278030210586903,-0.11478119466144425,-0.09751743543433983,-0.15857233021035633,0.0005598933258502143,-0.1721733117832896,-0.040680613309776216,-0.05476938651302288,0.1388258329471347,0.15244025998113128,-0.0011979258130639392,-0.05785434154252479,-0.18957400490589146,-0.1067630238485861,0.10027410865012967,0.11730893603795316,0.006261375405908646,-0.10718949090828717,0.07493839436287161,0.15541095679350608,0.12445589169022149,0.08433666229588264,-0.14741305123166001,-0.03185042787364209,0.03752551054311436,-0.05181115570037767,-0.1633111405287596,-0.022633924784384037,-0.01735360895251879,-0.004473903804220106,0.16711586343347823,0.043956687757055496,0.00629371102510463,0.12335353296845543,0.1197638362272492,-0.18789097597502416,0.027677546270621828,-0.16681683669980205,0.05715115612725821,0.1194868935392568,-0.1822374059038821,-0.01658738497748844,0.1151165648239934,0.007046653999750074,0.14374461048811885,-0.05217319720701461,0.07607963695556426,-0.03177062916647012,-0.14514510660337102,-0.03395559624770466,0.10280959545694666,0.051687815196195384,0.058135131487824794,-0.19154789438833467,-0.03629872360621492,0.13339606717618435,0.011908684750101685,-0.12166433421297136,-0.08785734864370219,0.191548603305626,-0.15004640137732178,0.003780809457978525,-0.02668615184362284,-0.19472930950972406
-0.10685948960554544,0.11394168675672713,-0.09977787840537326,-0.03545211517089004,-0.12814472206233604,0.07810121039410188,-0.19483230642708768,-0.1996950969866056,-0.07484846463981035,0.02499904918416869,0.12571848030447644,0.08027902112398094,-0.12055867313473795,-0.12557757686625765,-0.1927959987564577,0.1025378122929484,0.01819993840410698,0.15523971653732987,-0.02651908884927528,0.10142954628298033,0.04638160782773219,0.1705268061807675,0.10298636045991681,-0.05440004578782772,-0.12628090006089931,0.07303699966537812,-0.12794514427482864,-0.10921150707265602,0.026957461931688808,-0.08011612316401004,0.011990146690052692,0.1918829992847753,-0.01495884639420785,0.17847246293630373,0.0643241211866444,0.11038613374228361,-0.18850582765807303,0.11002205441135499,-0.0682665160370676,0.0012643670522837986,0.15296255818480878,-0.19665052419314982,0.12970162413704941,0.12582313743143667,0.01636202318136729,0.05991391965189506,-0.06783323527040451,0.12853065213404732,-0.004036976975183719,-0.04871716268365822,-0.08500221427831094,0.19464209772980978,0.07013378559514458,0.16606528278303517,-0.07871641932387244,0.025698196008034288,0.13531560080778823,0.1709861334759407,-0.02149510142627292,-0.13097912247459606,0.02620114022796953,-0.14729190458870428,-0.045750250903403414,-0.011948484337531514,-0.0006241843100429144
-0.1059512595280554,0.026415329206540047,-0.05025898701276143,-0.17145466495126171,-0.06918311463244185,0.03179366608275537,-0.1474105968960857,-0.1881236118954947,-0.06327569745773745,0.17745659542601494,0.15032898323771177,-0.02443330410658291,-0.013128533447750864,-0.01297839778492273,-0.08667936182690958,0.13402045589732825,0.131101233970122,0.12523125183509917,-0.0568860358878564,0.0756491572275429,0.09326621343223174,0.04537142214462582,0.15558299914999496,-0.10711827898927236,-0.058223700944863295,0.037615217809406715,0.0009750329572096319,-0.1656836521155092,-0.028629117665449705,-0.061551498770686885,0.07074634933146433,0.020983206968143025,-0.027305920418521985,0.1244791248515667,0.01352412357155704,0.17368143781473053,-0.03580364720093059,0.05504665642100682,-0.15064075480753564,0.15733961145234263,0.016668572812918666,-0.03203977970865522,-0.013986761760041102,0.009406954148415258,0.08129753662193458,0.006216598667790343,-0.18882086587721683,0.1758963992408699,-0.03680686961728929,-0.14961141002616882,-0.14789814708706184,0.1962404275719507,0.17670558854670843,0.00707759576114437,-0.029257358270440827,-0.110160485621806,0.11885602202941424,0.16747344136657574,-0.15371744211746485,-0.16335020268485775,0.1603388571858481,-0.14460281671195052,-0.17299499933613724,-0.19579892025922824,-0.07499992629649958
-0.09166021386538832,0.036469776729134096,-0.1362197945899374,-0.0847707082371254,-0.046786205506849934,-0.014332843152670124,-0.035462584248816924,-0.03377483112095669,-0.018648830620064092,0.16621152425110947,0.023735177669093645,0.05660117431796036,-0.16786501868444131,-0.11885294639306472,-0.1795394846322739,0.053456601595265704,0.006405527305008977,0.033999911954480176,-0.1268311164489454,-0.012554871140924663,0.16082980942519645,0.1759585697580468,0.05235323815728784,-0.07508529319479662,-0.15191431622483495,0.16920266570048,-0.17352360641963271,-0.11230378456238048,0.10045093539565171,-0.07660069357883961,-0.05399248396653082,0.09507754746412932,-0.0572574989362852,0.03411060705091427,0.153924746754141,0.05294095221098347,-0.0191623132788032,0.04148138575002146,-0.1252925545638742,0.0855298289919458,0.16388474963357635,-0.058677319033969104,0.13819866156595087,0.14630157226927915,0.06398433801502602,0.08104667991732842,-0.145987467037597,-0.01093051853321965,-0.16351603051654467,-0.06916952089225926,-0.09402299239676216,0.18860768776096076,0.13426263325227025,0.02933107525291109,-0.1594581546344661,-0.0730179502111101,0.15854489912604366,0.14477805938560653,-0.030938164345165456,-0.15981619869427086,0.1436558816385393,-0.17074795411522203,-0.07044041223901218,-0.1841611175776435,-0.1631110169888674
-0.0956867436040374,0.12485032998554729,-0.11885890293833598,-0.017695587432014687,-0.15478007405904337,0.0018283957856935127,-0.17637649224983792,-0.02571538787514797,-0.09260277962987011,-0.007427149604104953,0.15184433623589533,0.1309235461963992,0.005394654182565675,-0.022355215445727935,0.0013758589635530258,0.17515060063433172,0.01582643741585626,0.11617032482006139,-0.0877295434226634,0.14554649155089916,0.175059101779258,0.10772146391148311,0.14961046751781049,0.02548277512764891,-0.17161973574495626,0.17677413403226888,-0.14544583381514786,-0.10349415051338222,0.03992706923651666,-0.16175361926162224,0.09018174181475677,0.12868222463076687,-0.12490868150159239,0.14404304142884383,0.11388981818402356,0.18515569593775072,-0.014268078874315188,0.002808947768872091,-0.16242179213038607,0.028879206551922755,0.05957662241208795,-0.03053991425267334,0.03085580179478934,0.02821948583640384,0.04055736027106829,0.05225401986321298,-0.10824405497457393,0.11430202623047764,0.000589738386339469,-0.05488092881460716,-0.020432063681928556,0.1608586749209963,0.0664513300464619,0.051654606670030814,-0.18814284583538482,-0.07429718589842725,0.16123507484336183,0.16479142860681045,-0.169876804445237,-0.00022437640408834043,0.1778741511043216,-0.09091609932189762,-0.08082433387159434,-0.14622446055141947,-0.10625127995047554
-0.09918208352474399,0.0882017089808829,-0.12908327301707842,-0.09558903773379178,-0.17982508275494052,-0.007243380462743365,-0.05524037877218777,-0.11087631486474131,-0.1393136572329339,0.15576759562726553,0.11946913135269559,0.030852359340441324,-0.021893053814910246,-0.02503142782244324,-0.011231682178353361,0.16048554810675764,0.15693367843222478,0.11218201679590446,-0.03058886721423273,0.18709076793599014,0.05710905762396305,0.16951770297478322,0.1286508928103902,-0.04183584256876897,-0.051067796443276504,0.16686664693399278,-0.17539738496767815,-0.17831938126526972,-0.035453718873865094,-0.09509738840497767,0.08673996384095131,0.12517763804252208,0.024244815840387672,0.17097871280771032,0.18450076473052332,0.04544272967600069,-0.003679897443667878,0.044389377200071,-0.06463252903659068,0.06381374802399806,0.05438858263281434,-0.03338872266612137,0.060117056846500046,0.05211681484154981,0.1328452855329369,0.16152385330270355,0.00040583603053267765,0.16159557974583025,-0.17314177070192072,-0.023953459618486262,-0.04945177383983392,0.10270901856178173,0.0699253559211656,0.06918327295687919,-0.17992904158557485,0.026143743235228938,0.08721806442200687,0.03121675825293759,-0.08563793742802807,-0.1499119743473938,0.056186400911382633,-0.034133825615123736,-0.10411230547335304,-0.15589496327864,-0.07648647300051198
-0.0967534684891633,0.14401354617356424,-0.013054209134990336,-0.06506898615267503,-0.09024587041195258,0.020874238733289443,-0.02332348303773958,-0.1289616209474753,-0.08154291744769862,0.1575460335493737,0.11831506809860712,-0.019082111477406665,-0.07537440701222718,-0.004730367497463013,-0.1855539334434093,0.09182509702084031,0.11741684549353515,0.109537266972624,-0.09748803012214088,0.16334136402797242,0.08905671499824952,0.08214851901378716,0.0485725482229869,0.004393122225186005,-0.05208770228700987,-0.011764062312372977,-0.1630356781214762,-0.14021093053409267,0.13117135649489922,-0.027617595094856968,0.08574494930651551,0.1384645872172837,-0.014665205334159305,0.07940492443551488,0.023190070250553113,0.16403967770560274,-0.09366410513918005,0.017236840894008655,-0.0715452563275437,0.15904954159919865,0.12418036556627667,-0.11516311659333288,0.05889070475220533,0.08534649500177838,0.13030680738244768,0.07779125844784247,-0.16242946571184713,0.19031430694687662,-0.0650014781437479,-0.08848388216964352,-0.06384037222949344,0.18746993183787852,0.16029890248929468,-0.007562356674770096,-0.1615222315495168,-0.014453063261655453,0.17113830761624485,0.08277489468928136,-0.13223960169742083,-0.05601691632093088,0.08619019913087342,-0.038875792503709,-0.05511747763923124,-0.15327574563366073,-0.009923903280999673
-0.09930012187609431,0.13617611489753312,-0.08764533080965846,-0.03786752992529797,-0.022531462510804907,0.14404562013327468,-0.15783862040452018,-0.028245112561841996,-0.023169970960393443,0.05885277755004783,0.02532703965414349,0.020761848671752126,-0.01782949273921984,-0.05805232128644426,-0.011686982359928419,0.1869242384623972,0.1326724273276202,0.15808238138790645,-0.12486573038802662,0.016780490545310847,0.06805569111907557,0.1299376100532383,0.05668930654691758,-0.08915447292627847,-0.1256774824685081,0.11602495677417698,-0.1393888515634797,-0.01805812287302276,0.03672787897147908,-0.09334759171760405,0.018342752768331937,0.07471147693015437,0.05077398198800468,0.13127414739389737,0.1708118549320228,0.1694221600927919,-0.14395785166149805,0.1533443560997259,-0.12771884448089577,0.08255023603752765,0.1306047775769861,-0.03453985229972576,0.0030197749473264055,0.18916565030567334,0.04948171869737281,0.01999355159096915,-0.17269298128048247,0.13828285342305593,-0.11717435712873872,-0.0748882376736701,-0.028016044786964615,0.013578225194678877,0.11237746771682924,0.10940024275070828,-0.0814111569773931,-0.006752569636629205,0.19223088263457147,0.14098528442032235,-0.08629231380063926,-0.14939073531211772,0.03831133434214919,-0.1668605509005016,-0.06713977033027055,-0.16103883797626756,-0.06457058017853033
-0.10356547915189443,0.14506289474943757,-0.004068544199869886,-0.17974227305502063,-0.0583868700652506,0.142782147294467,-0.14828779871212322,-0.14419387980899206,-0.15369159728316928,0.1653088920082427,0.1435569778533554,0.039151417451209876,-0.10643629137599872,-0.15591688349136806,-0.05513254941799219,0.16004605752814394,0.10392554929297446,0.05593165698037902,-0.0652473664093161,0.03887947012911391,0.08398882093767622,0.014401839314475662,0.0678777189660021,-0.11205299623135136,-0.02793674472669892,0.11095976010959718,-0.04498336190224175,-0.1918394992295545,0.12609658223490963,-0.04092353640909358,0.03734463663532943,0.014444983571648414,-0.01765289788835117,0.04635508112245297,0.1118013725862595,0.10380998139630104,-0.14069972910163492,-0.0019630359734470974,-0.1126131886032128,0.020317117662813834,0.11245744004155356,-0.10145655245782939,0.040207870434632344,0.1335767598095414,0.024298906480128946,0.18261001391049256,-0.012094214669815608,0.14575161322943095,-0.08181117608074318,-0.08704953567164293,-0.07912946403717805,0.026873899632895,0.08244437326203141,0.08776984871285799,-0.15000438413011122,-0.10331401660571493,0.09087716051608118,0.008849498676895629,-0.037661765325980805,-0.1901558871697334,0.04761171129865752,-0.023325452149820437,-0.05960515313130601,-0.0955740806341295,-0.10665922636279915
-0.09803570553262181,0.15210528773636708,-0.10345819524816094,-0.12949815627829997,0.002455429122262058,0.024934609716680118,-0.045505929143273484,-0.14720462666266035,-0.12027700550456791,0.06559945550237978,0.07942725118579584,0.013805409020026665,-0.01202473533877898,-0.11551762553781686,0.004964217401364491,0.17835490633013087,-0.006318490554191729,0.08426605486981598,-0.0865226313359917,0.032373166072556005,0.1844917507356508,0.09657233930037595,0.051312837052458725,-0.14385428568671896,-0.06646485015361299,0.021493161478371527,-0.0834980632131998,-0.09896945757818165,0.009932051576382906,-0.10686347592564047,0.1541454320171893,0.13777980116235064,0.041355101373154374,0.07033931598346017,0.0004668161576052066,0.021803691387586432,-0.12867604838479768,0.1826418231329629,-0.12654262891756363,0.10397341692587772,0.08381381709870021,-0.11940172826611035,-0.012555147707305587,0.1884992461172702,0.042131141835395035,0.023784518831298375,-0.07885959108260211,0.10608224558286922,0.0006836347832398732,-0.12047871366762769,-0.08156052493174848,0.1194979616829963,0.15820859010766797,0.1781182209066146,-0.16571631264075348,-0.11854629316153278,-0.006531159099190887,0.033331332105727,-0.13685027410171088,-0.08334495463919983,-0.004327010663188416,-0.09993154448256417,-0.13942221592647158,-0.0440297617285939,0.010724814374699014
-0.09733534606150772,-0.000911263453470434,-0.09424127761004136,-0.03753817924533555,-0.07260693444147712,-0.03268014353337705,-0.004686526689771667,-0.15698628278335153,-0.09995624786418862,0.09510075480764987,0.06840445080377572,0.035098881070719005,-0.06897833057008326,-0.1945466269524171,-0.07050866690393519,0.03201007929217515,0.04794024966120673,0.08550591900176509,-0.17424158669083015,0.045381754543056756,0.11320841891173856,0.06792662431030401,0.15468121196155624,-0.13982329670472018,-0.005565058807020425,0.08266681996737002,-0.0521124801586502,-0.024972682322848543,-0.08945381936487533,-0.12714181340638597,0.19441606735041758,-0.014272535918602327,-0.07602325510733159,0.18564034577630448,-0.011088558984052753,0.13107764318705084,-0.12796508403038007,0.05322764953408751,-0.02749054988207539,0.000894035151941824,0.0981347915678522,-0.17025019149111217,-0.016979966021283155,0.08335199852413609,0.016426592501107364,0.12470322587541376,-0.028466563361302606,0.051970644746860646,-0.12028254199492507,-0.05061157953961226,-0.07208321418411194,0.11484719080836915,0.03808143641404766,0.1530121138960036,-0.17861170074949465,-0.15617483604469917,0.10607382872208782,0.07211220473914279,0.0009300414283584079,-0.1739103197059362,0.08996585056611482,-0.1536431641471195,-0.026302948034830197,-0.045501873116958136,-0.0739508862931363
-0.08211067045281767,0.10256435641851422,-0.005473815050518786,-0.05832060756633818,-0.12227196573940825,-0.0055090713896775055,-0.15755664321485036,0.009241318575276559,-0.050881082878840196,0.027137028662505253,0.03490617313830547,0.02457090603484703,-0.15109485591637314,-0.11855843472994602,-0.08897934809045917,0.0219005747326171,0.00207405104548824,0.09383108803787002,-0.16614467205198322,0.05312621212218227,0.07083140418755418,-0.017425480175172158,0.1372635092615613,-0.08944747823376958,0.02306847689082931,-0.004038780686264944,0.01114860255864486,-0.12434884730852185,-0.10558638408738438,-0.04950267300046678,0.2216762313371059,0.13181298753786333,0.004153434721379536,-0.004336192504623288,0.04506639908849234,0.07676928680491737,0.005414455091703397,0.10211641010420565,-0.16001157353910075,0.17322462258645252,0.06841847477103846,-0.1394309004841443,-0.06720625295394118,0.13027466289050868,0.16578147682388547,0.08556696798944212,-0.02459831954813863,0.034195776425491,-0.0026182424100489113,-0.12470408198576337,-0.11057899189170842,0.032027404255758625,0.12357816348401986,0.004349572328230815,-0.15309857303852978,-0.13033384105428672,0.15209973574086075,0.1573925508106916,0.002718445760245652,-0.06694410703738665,0.04939229782373539,-0.031522288568576105,-0.05531806629618815,-0.15576397600469313,-0.14084069465884494
-0.08833398330000214,0.05568619487275809,-0.10474177160620009,-0.1289856684796576,-0.1487593110609914,-0.05052353567067838,-0.029247793698585687,-0.03735455994385707,-0.0685861913707402,0.07585474229553439,0.021615706894559904,-0.10627612237780328,-0.12862539002120654,-0.1744297814722035,-0.08318631157002822,0.03075708239459189,0.012977627525031859,0.008464870070822512,-0.12676769270700777,0.13902515739908522,0.043022586206410675,0.003923563636031141,0.17278772019669109,-0.0782803455907886,-0.016318559195975198,0.035238380115696064,-0.04412444159282792,-0.05029982846966006,-0.06149863099496422,-0.09223674239222096,0.18278846113420993,-0.026215393532428122,-0.037060080008222515,0.09900021662525264,0.010645822086347123,0.020022753519284692,-0.027211253784227497,0.07561355164822145,-0.11016475883363179,0.05754390218963892,0.045153923424026673,0.016104633530432424,-0.021136907578212287,0.02690040491366949,0.015350624690495281,0.14624974592262008,-0.17811806139443892,0.10435636341248752,-0.14769323016511565,-0.07890655567234935,-0.12150737180276278,0.09210676285935292,0.10203545282688249,0.06177991818632923,-0.12793861872307838,-0.21459930989358159,0.12300781080532237,0.04627413791855639,0.019736300124488453,0.02070470219440597,0.09483413906859348,0.001904151785349101,-0.03942411664489624,-0.17226416892775054,-0.08494626835252894
-0.09112294245478138,0.08570321613839026,-0.0556675058747012,-0.006557941565918421,-0.177860441963105,0.09033511806648992,-0.14792799070946813,-0.01634054180288731,-0.01950474840777779,-0.0086718812676085,0.023719595665135554,-0.04395123008437385,-0.03429579687473264,-0.03336493368720489,-0.06484326124810325,0.1830695936111476,0.10920753204965156,0.02844894601515932,-0.025004007560200655,0.1410465937161595,0.1744396600664652,0.07438667716942873,0.02514616482350143,-0.13770253513705455,0.015049382341551542,0.1308954872131343,-0.16026449352745217,-0.0836305400271241,-0.032618738645988604,-0.11354158736302573,0.21588117219822955,0.04337444103497688,-0.02749627646986739,0.06510956628875306,0.10028087766086159,0.004582900005978252,-0.1608341991400816,-0.006973780211910586,-0.1337978902164104,0.07631690478632021,0.14653199225568053,-0.03392064953707378,-0.06506029782376543,0.01580875968362418,0.08414611272646373,0.05553309688461138,-0.0006269784138608414,0.07050224181573693,-0.10534630856019765,-0.14936052070302777,-0.01293657103899326,0.17375187721335808,0.047807405255992225,-0.024146681182592448,-0.05604741850660688,-0.20157608017596837,0.0648472697983103,0.07128061197942433,-0.018130848260034995,-0.11762254475496833,0.018084788305170133,-0.17395957135730208,-0.1290814120715308,-0.07278523104973442,-0.09087081372426865
-0.06741371842610794,-0.010402768929738848,-0.1170448166945291,-0.10493754139925901,-0.06782605749584737,-0.046641820281833044,-0.1525761197147468,-0.14767866392282003,-0.07023429706492582,0.04918912329555189,0.06665763109560384,-0.14175198540492556,0.002387253440181071,-0.03040859305430397,-0.15024179681702002,0.15613454473229532,0.0710667352235693,0.10169326091083493,-0.025818492117987625,0.013635342455373513,0.01258448622603181,0.07119269964554623,-0.003947545190953708,-0.20618296031318384,-0.01288591042914774,0.11205037094373034,-0.0811790977455744,0.008173529333227195,-0.06338854853320454,-0.09547967374320454,0.21857723603131604,0.12400990364158535,-0.10123669588688752,0.13330947142877228,0.04615650741633393,-0.01612684302639322,-0.12273220727225274,-0.008524171943721572,-0.013861444840119402,0.0588180374279732,0.012407612832167013,-0.1042930362417674,-0.1272194435630544,0.09437563681652517,-0.03561724575538551,0.10056539951546392,-0.06356741963270338,0.14160303398735113,-0.07518203993740163,0.004854747705446033,-0.15646819326119674,-0.003911142658578611,0.005330731912617565,0.06211665858214834,-0.01157934818099398,-0.27169129652300633,0.047524407071583924,0.10092671689780724,-0.10349252639245443,-0.11100859023834728,0.11714426224643446,-0.14172419011666892,-0.14414160322614653,-0.09099733030627141,-0.14740857643610963
