-0.11588329767179242,0.022066151672731706,-0.02645615556050628,0.02504651888995489,-0.08480719522274552,-0.03442504598337853,-0.11135054590351874,-0.11325507259773712,-0.12910351377157572,-0.02974952802376693,-0.06988048369737403,-0.16117379214799257,0.11971300241851475,0.1029314762071073,-0.014647321211149119,0.0850207434001805,-0.1259227278595789,-0.023006051060222167,0.19182817949856912,-0.147080772716862,-0.13089402590935748,-0.06408607834409498,-0.15055430980489862,0.0013993049437293708,0.06320949686612712,0.1927758173477697,-0.17587871477635436,-0.11629536502510358,-0.18252320973728964,-0.06290692141591797,-0.1055010724860377,-0.1619000822871407,-0.08897575967399125,0.12199529653933536,-0.04605010979564921,0.023918110437399786,-0.029482742690352146,0.04940166280592233,0.1794449781725578,0.13773587450192556,-0.04346266864045954,-0.14651962612458463,-0.06379942055704771,-0.19452093218058136,-0.09819484602098569,-0.03535522164053539,-0.11329012122125964,0.05297885872314568,-0.053272174395097564,0.012703652220804629,0.06951490156069484,-0.15348211739677736,-0.18055771203286575,-0.16021554049686262,0.08175001897822155,0.06453593295759393,0.11996616275589816,0.04622906402960545,0.1423373229765994,0.1597613663427971,-0.1050191196940282,-0.15980058559804455,-0.030753301807215333,-0.03266356525341916,-0.027368683965042166
-0.11920999056907726,0.13629151965243505,-0.185084542853777,-0.02633147458334832,-0.05117625485511918,-0.11110918700902538,-0.04051196261489581,-0.20842368584444956,-0.15651811064432244,-0.040304053280429686,-0.10638635983510011,-0.07913706452365694,0.1665601557069648,0.07564305329911872,-0.08461987035259182,0.2046980037407908,-0.2056421406315584,-0.082367605413842,0.06768926858175012,-0.02901914204966612,-0.11807372809115528,-0.02762790893715169,-0.04513588521629547,0.006591673520165304,0.06524353894218769,0.18294663421723006,-0.17784749731119306,-0.1018401032668814,-0.08780629076959345,-0.15026671333135472,0.0023459098394784184,-0.05783592938563888,-0.08003403852039107,-0.0019159341219391465,-0.08609622427341948,0.07458304032795664,-0.08643709135227097,0.06929796062375085,0.13843412814669373,0.11338615921358722,-0.20366963204152294,-0.0819037254352427,-0.15891407539432217,-0.14897064048169545,-0.21245147037375584,0.09580433030705933,-0.13171188427125416,0.1085845124403541,-0.14101286441615848,0.009172380486395926,0.055848586195575124,-0.03173492672626846,-0.08319841513754694,-0.06724094265932828,0.05703456741564868,0.13936063637494137,0.10540111556223473,0.09740983060664292,0.059190638952007185,0.10603886838799555,-0.0402825926379634,-0.11929697000767481,-0.034669452873378886,-0.1516586775664338,-0.02658913106802371
-0.10475190071941717,0.16306613780394263,-0.15581236316511818,-0.023636325225190335,-0.005989536222008748,-0.15218923630686013,-0.10989172531517055,-0.06871580927532292,-0.049804032982340166,-0.046532352007849165,-0.001244591779906495,-0.03350592872766223,0.13972382000690137,0.09329798527309902,-0.08281555599317061,0.1848344416479977,-0.10922531552835645,-0.0993038539932353,0.07146474034537839,-0.18294280709898872,-0.06688700965243577,-0.16434788846740309,-0.02984739987419771,0.004985837708357396,0.0797757446111668,0.20047794876623923,-0.07164759944093722,-0.11866255758132715,-0.08567366489260815,-0.08587157567032197,-0.13947625664466917,-0.0038139841194774677,-0.09094887542879455,0.0892722261520163,-0.14592608094841666,0.16984037285984063,-0.11809967574410717,0.16960512605416508,0.012381497113503644,0.06020442788902586,-0.053883885551170005,-0.017523839926059506,-0.02518051470860892,-0.1664211110108649,-0.1943577687157021,0.02307167372506729,-0.11646091380534006,0.05596225882545315,-0.18312196393887356,0.04003394847680684,-0.01317479086803063,-0.18862618633226683,-0.11421656492325358,-0.07175846364993607,0.027837831751324274,0.14163531645387287,0.09856280164920256,0.10160940630725593,0.09732998260963278,0.015330796099124291,-0.15620440396132235,-0.17763381153733138,-0.10400470335140306,0.0376761945006845,-0.1610920116685196
-0.12206333677947034,0.16546382076563246,-0.20225712466898751,-0.02033315115043838,-0.06579884826027861,-0.07839043070421675,-0.0883913256410302,-0.1642662028881174,-0.08081802006300856,-0.07017557932576077,-0.19240413361983677,-0.05411661640807297,0.06117190505284731,0.11118082711292629,-0.10198792118307892,0.10285545903898069,-0.16074681507151695,-0.09108674248432376,0.1707634771556153,-0.21589469086117039,-0.08837632367050517,-0.06647305505993789,-0.059269637001822015,-0.10348344579232678,0.019400084860367754,0.13761456412462314,-0.05631050000129792,-0.06666844358289334,-0.20767977226739356,-0.17326539263311772,-0.0012392623499749569,-0.17981424113391264,-0.10817054151694978,0.06700730450936349,-0.02835070501144552,0.15008346145285534,-0.0998766012914514,0.18372361884939423,0.08598218901635472,0.1375241995634209,-0.14247296434238113,-0.052373187182562016,-0.0878406973564773,-0.0793531124954397,-0.04942911974776909,0.031541816965143084,-0.11748979182138673,0.1307241706814745,-0.030132008035467412,0.10494625875432556,-0.012073604024936686,-0.03191357638247715,-0.20135177809920995,-0.01781811239091765,0.06030226337498136,0.018511619412231204,0.03309083093367289,0.0003232333255688133,0.10770117437538661,0.08750615353033774,-0.19810907949660742,-0.01707373774300774,-0.08458963498240442,-0.023369205826271396,-0.048848256344197566
-0.11415947317205019,0.13065958404520683,-0.13302800957489236,-0.01794745045286619,-0.04807060494590025,-0.052293524159619166,-0.19207006282355932,-0.1846772130113995,-0.015709295833324807,-0.010416840732893413,-0.027444075576881638,-0.07793589228420456,0.17125322514656305,0.17701353022100824,-0.1781487645084298,0.011668041839221611,-0.08596244552417004,-0.08098791270438613,0.13310960584453194,-0.027788206091605906,-0.19775152882815641,-0.03013307586829514,-0.1706487104591546,-0.12478981343705065,0.1100405549366246,0.12931654538667767,-0.06977255381900084,-0.11318361605742905,-0.07449794190145513,-0.11050513282383759,-0.01776527076781966,-0.07023708178298081,-0.1538359643506194,0.16405834426119537,-0.012076446412285667,0.16452655023558987,-0.07634159008774044,0.15127891824143042,0.11874329350334371,0.20362805751861288,-0.06958176672050555,-0.04677270699063258,-0.08286191417484515,-0.10209106517835956,-0.09606540600223511,0.0017960089949235626,-0.06566785352501785,0.166515110833813,-0.08339063741420702,0.137072452275933,0.1253903054450349,-0.057931203314533566,-0.12612269343676963,-0.10404424889428579,0.16359527562577908,0.04481763415383197,0.16424548018069493,0.026403392868650507,0.12815237461253812,0.1578552928176878,-0.01802911686485855,-0.07352624012137607,-0.02196828066581545,-0.12633241619983354,-0.052704054584131736
-0.08304454433250237,0.17680792251921712,-0.17539298513972734,0.04811079715390087,-0.10590926094370559,-0.03436216107716389,-0.16118603141650026,-0.12525849638707023,-0.12893356042286583,-0.011630945839393081,-0.1687068302188246,-0.13165903918447144,0.11032691976389296,0.14583578029786035,-0.09248965167899383,0.14982560623679483,-0.07410176229848112,0.022073412318115514,0.1316623583063768,-0.17647461115545432,0.007688891133814767,-0.010717798793871821,-0.003906877299279286,0.014605633077465024,0.09364099304999235,0.18039132259996224,-0.11607063208967625,-0.10217352241995677,-0.161212786588054,-0.0028473195403324013,-0.035530564018520325,-0.023698282134445935,-0.04589497712235724,0.07997742351820378,-0.16112572329138652,0.1355033273680563,-0.05428765048754378,0.16403591199047302,0.12286292453864367,0.1145164543197965,-0.09334437741483921,-0.16959232230021606,-0.11637669920567639,-0.05195312470454281,-0.11205269639484772,0.035464505309005204,-0.008276181567804197,-0.030100783070801697,-0.04012561074263733,0.16247148865427025,-0.013939776295480625,-0.09089602521975225,-0.15094596755010048,0.009629044293097558,0.015375231965445263,0.07062441132575148,0.15104488857119855,0.14842332092155303,0.17149774564950931,0.11957382923077405,-0.11627620876345612,-0.1193778819024882,-0.11089588044159687,0.026493274894230635,0.015627085811111247
-0.09917744919054715,0.14338071255931423,-0.1560444278934662,0.016909091316310635,-0.15060878625335566,-0.05507901044271881,-0.05491811547503975,-0.13365355260117592,-0.16080335404365348,-0.09392501214043529,-0.1375182628674639,-0.15568640118663873,0.14273415976582401,0.1246538602180518,-0.0693299493252981,0.1397726122336726,0.00047274363757889915,-0.041562553523229115,0.14982688869880537,-0.02501782709741415,-0.15544382481470767,-0.18117045936150958,-0.028206943564087386,0.008184561915718373,0.09508103198885252,0.07323996186366293,-0.10447744925170042,-0.04827809964623234,-0.1889421491302148,-0.19112804475299824,-0.11487895990365443,-0.17999395601458532,-0.03186050298092974,-0.014832876905494069,-0.12151866577357194,0.05698732978717539,-0.00954760458462893,0.00977792940871039,0.14448410686830065,0.11576136670891286,-0.08554226349598651,-0.00014577083095285092,-0.10960849456429504,-0.13589198287152665,-0.025293350342205544,0.04136866656269191,-0.13226044753329683,0.08512158196508672,-0.10657468624253891,0.14155343421907277,0.020543077826689248,-0.10141034568047208,-0.12203390281377198,-0.1605850982731447,0.09809979011180742,0.05146910666896892,0.14673052058253466,0.15284869339807086,0.08737979542661503,-0.0010789517352424959,-0.15891982409406719,-0.16990033193855947,-0.0808661747520595,-0.11552765822421517,-0.018494424083877824
-0.12152682769139847,0.15631239440735095,-0.17269565504485207,0.018522380869327393,-0.17547331584974976,-0.12417616175803291,-0.01161883320897042,-0.04235679933173265,-0.13279711938519434,-0.05392304230015271,-0.01854121772931113,-0.00857254840705529,0.04829149318021293,0.07962520204888263,-0.06820018994263012,0.18398444740059153,-0.05291072020103327,-0.045436262951951814,0.12803790254617847,-0.20448110594261484,-0.05007496437689462,-0.12756001916869114,-0.050004888382562424,-0.04699393712227875,0.12050580557376561,0.03463938588539515,-0.09862285209053162,-0.043522150393052926,-0.06404960447553368,-0.07737414311069028,-0.07511509684845642,-0.09201085837228491,-0.09103089232989948,0.13940184128031938,-0.18114858521425922,0.09026452779182198,-0.21215153443664683,0.024459306443929227,0.10909111741070288,0.18627113405541895,-0.210084045748683,-0.03028962578832524,-0.04843552111242307,-0.021644495229003937,-0.07678286152230605,0.09197998429208591,-0.019285147095245064,0.13813916677582563,-0.09049882413588341,0.20276498234527435,-9.125862865576533e-05,-0.1425887981924898,-0.14095508845598093,-0.05706039634480687,0.027280772672808998,0.20643238226064858,0.03219742800570481,0.19186139353140888,0.06929003758409516,0.1706852728057497,-0.16415872961121553,-0.19735946703454732,-0.17469416871943577,-0.11085176934457709,-0.047242305216765576
-0.10787467369812982,0.002749154037168767,-0.0008684634209249679,0.0723234170758382,-0.03812457798055472,-0.16438616102802486,-0.08694189811946472,-0.13439220255392356,0.01136894398792821,-0.028180743511535156,-0.03569445628315092,-0.11112276908788923,0.12204054703990486,0.08547217380902138,-0.12632066392373587,0.09949700078467598,-0.14661273291392557,-0.146267655681918,0.0029379564043576327,-0.18064851399409904,-0.14107509116709463,-0.19084826173270353,-0.031114961080234094,-0.11182744104828718,0.18777451373887444,0.13004466094976574,-0.12162284862087244,-0.12355391841314606,-0.07251604791444397,-0.056349759237075324,0.002594532333141949,-0.009511793020447523,-0.02334095689012797,0.003717031193974157,-0.1319571771732635,0.05132349408033676,-0.12836054717963083,0.11322853873676976,0.1311142668675476,0.015678918416797888,-0.16591876707699355,-0.11079040735365242,-0.058850102982523314,-0.1518467554612444,-0.12000662779140023,0.0973836429234603,-0.17147134110878562,0.14048797177760722,-0.16481607386767327,0.19274349139452546,0.11078380803905584,-0.15730575256007454,-0.07975952497779634,-0.112726116956603,0.05316083811230843,0.05425484149095448,0.18742749163990918,0.12402381045890931,0.02909823744634986,-0.0084787801636541,-0.20042174782222733,-0.16634609800913214,-0.19337846863319452,-0.09788232012097388,-0.04880694473713039
-0.11300897636592724,0.18392439206311492,-0.009250583251747388,0.0047703778406619985,-0.07342872542348401,-0.019160747218758708,-0.1472337153576512,-0.0842991882500437,-0.1299297485695954,0.001646888605062881,-0.051295206788469196,-0.0010309018578448658,0.09296370345602899,0.00940950139408165,-0.1987626214166774,0.0884071545889981,-0.07959027567605191,-0.07215494842963777,0.09523743900754642,-0.06833085200761703,-0.18830775972570848,-0.19661835934254862,-0.07263800299400833,-0.08333932225386004,0.1252469103723223,0.1596272847653814,-0.15701507048803376,-0.027698658758444177,-0.1559707868319701,-0.06207626606239351,-0.10400998838753939,-0.03035309582495319,-0.029627167969085617,0.12093127335073124,-0.09331445564215582,0.17883598849073076,-0.10043200273544839,0.09428954005632399,0.03864668770722595,0.1923837848245461,-0.07854353956290965,-0.08704312526040682,0.004441856864866961,-0.14389864948003792,-0.1912267647370542,0.10179624438519351,-0.18878010744496143,0.06872216037739551,-0.16944578387367998,0.07382507985740717,0.07412981899358796,-0.20330863720099332,-0.10235797197408825,-0.009637759997494888,0.06444574857689181,0.04230752196822913,0.14461661835693598,0.13179961558406686,0.18045847676929433,0.08732341080422702,-0.05326585314250897,-0.17204310345739604,-0.09609179751683358,-0.09325539800203933,-0.00997786778329888
-0.13137267144576684,0.03779606100851552,-0.1576311409416378,0.017426009756177478,-0.07406391368629135,-0.1687131324233858,-0.11822828720775853,-0.04167861437874683,-0.15070568109522586,-0.15092925228077617,-0.13698176515085392,-0.09150233573802749,0.034419946521110474,0.05027169391689774,-0.07392634558318396,0.19116224552005728,-0.1522991557485693,-0.09535401298641345,0.13106393780839345,-0.2065179436332834,-0.10922379214906269,-0.14911327221118548,-0.14736131890570286,-0.09868070211294515,0.15484282690136505,0.037021209566856526,-0.13428505894592316,-0.046831204784680086,-0.031758414885806455,-0.03125428522424218,-0.03465148828990122,-0.11946153950982315,-0.07923210660641418,0.027538310079511123,-0.2073789052415325,0.024937017830176506,-0.05747053368860214,0.031286052004810445,0.11633830111467582,0.07277681849123514,-0.08836315576001853,-0.12727813559665788,-0.16048674068253385,-0.185283883223701,-0.1709470225665911,0.046705011422051655,-0.17907037577422355,0.09692369940825893,-0.027420493673722634,0.027666397648496904,0.12905032427604804,-0.035865343056369195,-0.12162125066992223,-0.05321158961317257,0.12281957213721238,0.11883876210184008,0.029217449728832712,0.16953501012199693,0.07788589510347997,0.1347799568474277,-0.03000061412385017,-0.1873287251430917,-0.07860079598882606,-0.08306180259288129,-0.10576404272907235
-0.10846426447271586,0.13137929338324916,-0.06869480414777006,0.07223066941308214,-0.030502803541724074,0.0032545391832956767,-0.19320695035500285,-0.1286669005363416,-0.05245624049579005,-0.13107645239635324,-0.05429561892985422,-0.02506688905692108,0.04860690285253197,0.07823590582913759,-0.14244642853107153,0.1190074311624953,-0.17314944725147258,-0.08523802410834931,0.12600224813317712,-0.16660729040950178,-0.16577211244655182,-0.09395526932945561,-0.19747186596769978,-0.10436697431589384,0.08257761149215331,0.16337554995740877,-0.1176719059606945,-0.001115763943127477,-0.1991189080163962,-0.08080477298330922,-0.08915433061998962,-0.0016605595119558929,-0.04268919958201192,0.03672533818920179,-0.1359580859450482,0.046345227792269975,-0.05432001006946031,0.18769499954485866,0.10155850347706825,0.0714723470193354,-0.020920928220485833,-0.08047228024981366,-0.1579967924972236,-0.112421173210746,-0.015522306657770343,0.051207857388974744,-0.1844062316837932,0.17086368397487062,-0.007745728884990811,0.07670150304166799,-0.00997654932034084,-0.08686751491625438,-0.1376581649067735,-0.06873055950122374,0.13222064977519596,0.13025281974405972,0.1456106243492655,0.18293698955498947,0.011393837268662646,0.171112017960562,-0.13132649785155184,-0.06678842186397767,-0.03758409513550257,-0.03926511680275133,-0.19956802034217047
-0.11047878066979132,0.06020545304362745,-0.17771442612554342,0.1093332785552068,-0.017124765046958115,-0.07639532108746398,-0.08269619247773,-0.11654957838436435,-0.14143865979468712,-0.13459438135542148,-0.10190194967702067,-0.006233914074566179,0.10554608780219889,0.026417598651455012,-0.12499898170534841,0.09184195200930682,-0.1873104006192865,-0.15157249224867295,0.10056340867960903,-0.13295513549756957,-0.1445655527157708,-0.17859547675140075,-0.14267782258268139,-0.1276833615513764,0.04302639742938155,0.15426163813272686,-0.1958093748827503,-0.05559868693959258,-0.10240627893537665,-0.13460038253108028,-0.049693832687314324,-0.07988580682248633,-0.12855547151365018,0.13605265619930831,-0.034598452324089764,0.06556789927803801,-0.06678647488408886,0.10502185358034805,0.03453139394864013,0.1597588826636771,-0.15493379716961056,-0.11591979264104889,-0.12547282589751935,-0.16861994218030496,-0.0381407884778792,0.05066637739403517,-0.027307818962593895,0.05018034061170743,-0.031133613199832728,0.05994746482435894,0.13928370148402291,-0.16461623660093314,-0.17290917675076373,0.009071515263551018,0.1574373625465029,0.1517689034488344,0.0959280398240398,0.054499366176824174,0.1769805965153487,0.11070800944165904,-0.02696824532680419,-0.10225116711203944,-0.09517141680379776,-0.09316059580082281,-0.059021502417144406
-0.12295662001114893,0.05435977856403739,-0.1579918719538426,0.04488297971068132,-0.09570208605279212,-0.07347427986012299,-0.10392170998226789,-0.1488600042155171,-0.11123034846324414,-0.09453313086996684,-0.1025625375126264,-0.1379078563514507,0.06122877489339264,0.16833207055722404,-0.040652310899589705,0.03320007544518488,-0.06397154567316735,-0.040632263479546245,0.002637709734825402,-0.11247077163184169,-0.1014351933353615,-0.13072223006536043,-0.17286837362772894,-0.0769310402520328,0.051466592425520666,0.12279218021282089,-0.10925808939822847,-0.0862862296314464,-0.1640894194860634,-0.12304608078059935,0.012220909251460924,-0.026668920836631534,-0.036495602036050186,0.004054135682453729,-0.2179981003792597,0.021216542256060112,-0.1129057292796571,0.1529866450110447,0.1281335783149534,0.16710848249112661,-0.10476188734901522,-0.03570860886198441,-0.10336765679248429,-0.04652692372194929,-0.09511549960822949,0.04607076052095086,-0.1484373158728007,0.005845927713536952,-0.17453944014123124,0.14363371791264848,0.13402043274344594,-0.16437421023698812,-0.036676044698868836,-0.1053196180512276,0.15488116992309708,0.15358007275452396,0.14866150643319254,0.10401056654432694,0.01026798238499311,0.040745785227080555,-0.08443522081232104,-0.06019011401389437,-0.027436341141126676,-0.12934800820869405,-0.17882685649548524
-0.11918857281819066,0.15687368559443854,-0.18721085191317077,0.07267917725147226,-0.10699566371256278,-0.08176149551052224,-0.08376583022288117,-0.01776955124294511,-0.12991757417543054,-0.008332698195599135,-0.1738968140272648,-0.04752676282294477,0.20617160310197627,0.06035898305725824,-0.18879732904270072,0.10596537732403802,-0.05561956824065889,-0.02363117525561525,0.08592637251610413,-0.08959523486950988,-0.05505735640134124,-0.19576851414630192,-0.019154550113464338,-0.12101934785451661,0.09262863378792341,0.05033226668670754,-0.03088952930991948,-0.10446039400197618,-0.016642382069828206,-0.07059807411094511,-0.04916114332306539,-0.06552867374572774,-0.186740395237556,0.04632064149084893,-0.09758487406396357,0.0931968088138525,-0.12040424468281984,0.17967977818358613,0.05400434955550854,0.18297134855193928,-0.02064322889100283,-0.11256461238703915,-0.12002241789773835,-0.042561184605137053,-0.16057911603201408,0.01687255024913076,-0.13596551384495875,-0.006613680179252223,-0.16476736198094638,0.033140769225335376,0.09181556956127436,-0.07039239623502742,-0.024452259034682726,-0.03118385103596764,0.19164388885764286,0.1271637177646458,0.11155051437161796,0.11366594745089052,0.1407244282629634,0.014615016405490787,-0.016034449266068184,-0.153572299768531,-0.21099174966954554,-0.10808121682143526,-0.1224346982508883
-0.10846624895185795,0.07480749489369774,-0.11734492310164364,-0.057980383941545914,-0.1735499290491255,-0.049979599497722016,0.001416633312797587,-0.11842183434988005,-0.042374311100709126,-0.15123619725030146,-0.08250000859806451,-0.0569493921003063,0.11229585210128404,0.1588915188631346,-0.1718817507452594,0.03839523357622392,-0.08122628289154214,-0.11076971775883263,0.17255678170114402,-0.01377986329002522,-0.11741573636216539,-0.025735726617699715,-0.08907909841104948,-0.06025228627171163,0.10345147346925226,0.1166235088320285,-0.19076956136114973,-0.18688952284004087,-0.011672374276016544,-0.015471295716738744,-0.09047499977839066,0.0038542611489529644,-0.1695803344385181,0.16796046405470805,-0.196622871390788,0.19111497861883076,-0.09769633776022316,0.055266118942461286,0.04560699751975258,0.05756869284272374,-0.019347574144075168,-0.11076680013633573,-0.06695346521043506,-0.07345695688010871,-0.15570391786716659,0.06458544459385583,-0.1873275300036716,0.09303724310792676,-0.11476431017290478,0.15778226958703384,0.0689000003271457,-0.1480169998320288,-0.13426717962279816,-0.06020510715978482,0.0844421090507357,0.01607120103100685,0.048960824083328074,0.18516861953087857,0.1905675168799786,0.01801633483780705,-0.0665340518752399,-0.17856409695581263,-0.10866736976181028,0.03228298948440923,-0.0750879620155118
-0.10915947019964763,0.023152667362463086,-0.13959042103481048,0.06334235508217649,-0.037587200556564275,-0.13907877623329926,-0.1891023230770322,-0.10865702854251107,-0.09090596231982594,0.014491366135054059,-0.07477743263447097,-0.09177409254250635,0.19092036525363182,0.0747907962438702,-0.07931042132446069,0.07623351838687517,-0.035510665836477,-0.09354621049477714,0.09863285414026916,-0.041229982791616535,-0.1572067924221458,-0.14891424254480085,-0.144655533227442,-0.03697215983417752,0.028386968204023012,0.19679208608874557,-0.0983224962629741,-0.04096622695856898,-0.11915495632461455,-0.12121738237019809,-0.12005120499858765,-0.08551648822019159,0.009466019246559897,0.06647783184441057,-0.06349435918510925,0.1406488452674591,-0.10109075393864365,0.1505243390838126,0.08981774043247248,0.20099694487448144,-0.12422720584537283,-0.14423436725953495,-0.011267327692496922,-0.1969487952697872,-0.16455845597740426,0.0678597042068855,-0.09900273877986462,0.09948053998901527,-0.17937690307138524,0.08180892835958205,0.12598456323655244,-0.09553487735929933,-0.004448690947909039,-0.044942721535092996,0.11299493553499243,0.13203720891593826,0.08692044720530243,0.09155103681577927,0.04468385906907334,-0.011221834759464129,-0.16915605827038976,-0.1996895984627679,-0.0970514547387004,0.025256381404709448,-0.08369675511529644
-0.12591434148641711,0.038933502943832236,-0.1253224882270127,0.04344037110169483,-0.039258933058895634,-1.5145703340825078e-05,-0.1633187945333721,-0.10626386192658241,-0.13452732253654331,-0.0665576465782599,-0.09131130928756968,-0.03652256953896975,0.10837496820833054,0.10351336978332,-0.1224642107237482,0.1688118001455646,-0.02318104979881825,-0.1390107258410609,0.11016340021762018,-0.14949009545780204,-0.14816275081616462,-0.08026488915585127,-0.01839202106931511,-0.11687593304146981,0.14040019190148212,0.03282236175695893,-0.2180983193871508,-0.17362918958989323,-0.20058932936653762,-0.21554787993764854,-0.07283418268706275,-0.19060399678720685,-0.03917137398674954,0.1103361985835189,-0.030518660862284885,0.021637952307684845,-0.17377948714568495,0.18186314628215244,0.02982621147231329,0.01937331538480905,-0.20696588961587598,-0.0610990896826444,-0.18312022824014948,-0.04816592794418179,-0.08093288801634949,0.13860685620970936,-0.07475418947438316,0.050210921650218725,-0.049398576541136795,0.06250973099247045,0.07823594076226784,-0.13617812745789598,-0.04901405024652229,-0.001410269330224733,0.055594296703133796,0.1845663034155905,0.029952189202236836,0.0798965566740956,0.09471943540544384,0.11658612851168189,-0.12239937403065894,-0.09856501688183084,-0.0987268529595422,-0.12157643014295585,-0.1727697479279368
-0.10992673481861291,0.005567305089328926,-0.05103810064695952,-0.0032520722371981218,-0.10287850064033698,-0.10176513650326947,-0.025343873584461288,-0.09940696402067141,-0.10206617348748188,-0.11500674255489565,-0.05079808130023513,-0.0036094379686681245,0.08197916402241809,0.05801966011320337,-0.0029283642079006985,0.16933622786674185,-0.033518491069255085,-0.05938919214219808,0.14268417328914731,-0.11696611600448421,-0.02132709955520243,-0.1694656900195617,-0.1780386128089732,-0.07355147430103626,0.1877359534284174,0.09249183389201084,-0.13814840364191486,-0.11452286630430586,-0.20361317900946796,-0.06013742835771696,-0.042785764272115986,-0.036641328438708876,-3.487274956417405e-05,0.1594554196442328,-0.09370810398251239,0.108632510362391,-0.14770523126152382,0.18404221032313348,0.07408526173884018,0.1474932226654675,-0.01150492176258425,-0.024447362497192263,-0.1680999512338445,-0.0943631069336327,-0.06022971215182298,0.05747573712609025,-0.13026221622450782,0.08346681603468711,-0.1990302959069691,0.12016532058190427,0.12990955375586535,-0.16379043727346215,-0.12097461780639035,-0.07733885453681608,0.10344904230543389,0.16879316181676232,0.2023772340226006,0.12983640458538248,0.07461709467071212,0.08936907746219733,-0.13875977559968336,-0.03166564065263054,-0.15344191174046537,0.011860463517897407,-0.08009652807734424
-0.12348821004551216,0.15008286009227642,-0.01895555966984308,-0.04653666206541419,-0.19606199649835257,-0.01701123803769716,-0.02291639482412884,-0.10442496545925176,-0.054751782906252454,-0.046100155687003534,-0.17218055933547097,-0.04754288874107237,0.10519538222271886,0.07302237375141599,-0.11285577559780463,0.07642072233344648,-0.018366650267468476,-0.05996701752933625,0.03204638122656463,-0.14260685867408796,-0.19735738283574508,-0.06500407980940576,-0.065660193292518,-0.011826183694118692,0.1540085817434628,0.055146812861719186,-0.11363041632713618,-0.015393697088201605,-0.10037395741314334,-0.09221320663684403,0.009641838489018097,-0.05485060111573131,-0.1443041321135354,-0.005274824005320715,-0.11702287480781043,0.11816147450278454,-0.2019630548307193,0.060511653206777316,0.17810045466378482,0.09583415067093495,-0.06970940319484385,-0.04456458421261195,-0.027595254458672835,-0.03738396497848445,-0.03732852025702103,0.06662310470765226,-0.13057761103137752,0.15064675138205494,-0.06085632132366954,0.16675876398856415,0.10330106536037564,-0.14749356123984808,-0.033508028500678806,-0.16598865766325385,0.16984715078283924,0.09647500077872916,0.16280103223084205,0.10407663001439689,0.13059840555876304,0.18142261927469172,-0.16779838264668556,-0.12189912030883658,-0.12567957309537534,-0.03288463529184813,-0.1571801881862068
-0.11670102357601574,0.04518013702763451,-0.043098917021032794,0.10374439474030923,-0.033091020690487354,-0.007277537977624697,-0.19239790134039808,-0.11800353809786795,-0.044061169690061346,-0.05860104329127864,-0.05697512065458923,-0.03822275861842499,0.11224575179246823,0.06487365650233501,-0.025487367306511573,0.047004589964468255,-0.09736584001004618,-0.09493504679074222,0.007647084171262895,-0.08051182276550295,-0.1459212150066699,-0.19339991213128593,-0.17374107596982938,-0.06668471136247997,0.07539361694736646,0.20928348675306813,-0.1494333539896723,-0.16239743933023637,-0.18296868278001235,-0.13236032177380697,-0.1465917361572136,-0.09603528682426006,-0.1571287476780012,0.1569672859360384,-0.18865523615307742,0.015924617268532875,-0.09920216738975922,0.07446194232102084,0.019533221148126983,0.1700692667381376,-0.15561394159796801,-0.14692845211989294,0.005794584543507993,-0.018462940308945422,-0.019057696599253035,0.07191843240491255,-0.1472463733879675,0.17538450871743336,-0.2007394898461387,0.04850010226910643,-0.012880653233261945,-0.11474565709437674,-0.1876982269116605,-0.06117602686393186,0.02645958848939632,0.07892858502380687,0.18368124436943467,0.17792572063372625,0.12736163372473694,0.07589276278017516,-0.09527119489573671,-0.02156997049114827,-0.0712358998051763,0.01614454189598134,-0.1540681522143879
-0.09817600272987118,0.04505829456198591,-0.13878984248329948,0.09730961123591514,-0.14767700738389974,-0.005928985430869624,-0.16992216420150272,-0.03476494208137715,-0.05023509145002953,-0.04506182606578762,-0.12849944152160717,-0.06704578525064275,0.08175356432268807,0.15881138828900354,-0.17201335741067336,0.13003145168378916,-0.1882831516270184,-0.14333523179584806,0.13602148631867875,-0.16832948240743914,-0.05180385689271853,-0.1498883480067551,-0.021335790199540742,-0.09288571854711514,0.14808214413778323,0.012956338687239825,-0.057670898242155565,-0.12746466899913708,-0.07760233534430165,-0.1382899811221436,-0.09263703753440534,-0.1560879481050118,-0.15017095522775345,0.12459519324468436,-0.1806747424482157,0.13665296302223515,-0.04059229537797876,0.02094155397661168,0.1630003915622494,0.09279674847877989,-0.035779046651039835,-0.006016731564047628,-0.032077667468307355,-0.09333114780513158,-0.16348377507958045,0.049200025510222865,-0.13152436863502304,0.08684167502580539,-0.08310670191047723,0.058027461313559944,0.10226018235224793,-0.0881008425899601,-0.09699326321140603,-0.10904167546855935,0.12392451738122195,0.08043563816921609,0.10780916171141144,0.06403102592662044,0.017886312381610675,0.11372980310354296,-0.1406306948790307,-0.06259779896222376,-0.09435725815942511,0.012653148467217537,-0.1663727184927553
-0.10275845480904201,0.16176182926650193,-0.09628350332684449,-0.010111528281576236,-0.14927030789711976,-0.13356123504763093,-0.10950904319437012,-0.12691054860539328,-0.017628312796133798,0.01256536272373302,-0.04773811687846796,-0.16754134565189702,0.10504197590314844,0.13369727895193276,-0.16948998882500305,0.1555885916943337,-0.11414796245612202,-0.14273440877823715,0.06401084064303172,-0.06553347965872587,-0.011904497013271738,-0.06217558693075094,-0.010764229424560295,0.015562949387381508,0.18107426107828298,0.1867084612664667,-0.007496793791006149,-0.05958199378826907,-0.1604934293878453,-0.052440604233803575,0.030164104384534787,-0.08544030521415846,-0.06662682018095359,0.14010635800543694,-0.16315183763196903,0.04230786141474365,-0.18334114062358856,0.13267909035184672,0.10430246939746685,0.034872039865437444,-0.1441514378168842,-0.17178658917287762,-0.12088119786447385,-0.06680786791888378,-0.17367066168807282,-0.04161380892402993,-0.16069234330894996,0.11047295868265096,-0.0055327080960557344,0.12546031541249789,0.08877965938987839,-0.1481644791954481,-0.027626148425051164,-0.16538874275917975,0.07824388219694439,0.03754249640954602,0.13102761883671046,0.11885225553528327,0.08382550521862409,-0.00860435708779552,-0.12888557226208416,0.00493001429726882,-0.069839910509012,-0.12503129806417992,-0.18325867522370204
-0.10478309892860155,0.10152589921268773,-0.03338998780682862,0.11030868146401394,-0.13699207667889068,0.011298311779303018,-0.13140686393426146,-0.08155111959216627,-0.03246012257274547,-0.11994344395094053,-0.1804131231573184,-0.05442294903603358,0.01771735753098704,0.16797804458183363,-0.11236193524016974,0.10069799348917745,-0.18022319170702544,-0.024620864718154722,0.1547055500424075,-0.19194413255388326,-0.05719390383427228,-0.13131211424513695,-0.08324395315898599,-0.014908664075167503,0.0970798986082334,0.009855856815050062,-0.1028694824067403,-0.0977592592098398,-0.1206936088883383,-0.12234021503332883,-0.03754002796681906,-0.10483167630212323,-0.017406567273183928,0.07035130634870919,-0.11476861659322601,0.021739310575172106,-0.05208870754218525,0.06567384346531652,0.18188766082651459,0.09041020192905608,-0.1485348174258403,-0.041531593653113666,-0.06197615876571845,-0.06498912285651876,-0.15105741822130558,0.0297366328702001,-0.09319204924520066,0.035769187506778544,-0.170294786649578,0.16234495850150651,0.09779424648730153,-0.12709260640606973,-0.1579376439849361,-0.09188713893717147,0.16279183638488431,0.1218662493217889,0.167463790833023,0.09612106596487643,0.028798941498587843,0.15619393344556515,-0.007833843493914507,-0.08821443773890907,-0.05640877487115681,-0.06215690763822658,-0.12180398333360554
-0.10951798797369316,0.02128934527911181,-0.10416472203739717,0.001393219359104439,-0.1953792691490772,-0.003901797450194416,-0.17127586479495197,-0.041649803434585346,-0.008545879818343259,-0.10172852815102973,-0.041801592678238825,-0.057488780595097586,0.0239799343731409,0.07333159282852561,-0.12206741305965398,0.15236628702602864,-0.04779558316993595,0.006704284749364239,0.16549177097299766,-0.04190867576029923,-0.022317391844020065,-0.007370508974727234,-0.14103659155782303,-0.011092385757891194,0.1506392892174714,0.11091423121510821,-0.1660729701033093,-0.06835314989096418,-0.18579894113503,-0.10576685974084966,-0.03814480794803078,-0.08537953267432667,-0.13412753718366727,0.064209954726566,-0.17991122348796768,0.10745747796125965,-0.1755688739029347,0.1059908650022175,0.1472013147394736,0.1722534041821057,-0.04507559714131302,-0.1322692727915918,-0.08470193068209521,-0.04938961554944178,-0.12999917559292778,0.10355885550581338,-0.061069404779165296,0.08417175992155011,-0.13476036697679572,0.011200814706666961,0.09204334556278686,-0.17387571182775421,-0.026145292780253186,-0.04420874341798496,0.10684706240866548,0.047176638376997204,0.17513015250097352,0.03993264286491083,0.16813642128117168,0.09456698981108118,-0.16227350692826287,-0.12405829891184104,-0.09236518344446089,0.025281208294270066,-0.12360777563699568
-0.11760557279494131,0.15697751497162174,-0.20357151809852997,-0.04567476845227023,-0.013448963282544033,-0.0828488186410246,-0.167223752006652,-0.1683739270061011,-0.17280985264974338,-0.12117571096248585,-0.07528143682420384,0.0006950259555401448,0.11272282684164518,0.07741551394232243,-0.08114366975316224,0.20879871280421322,-0.05075431746436523,-0.1354267008141739,0.12941289196507902,-0.11306670194622304,-0.030521462397443206,-0.04162563916451135,-0.0072970013937911265,-0.03583062080778035,0.1347942802315118,0.09818811537085292,-0.034219175968362284,-0.037897313800315434,-0.04960301026740637,-0.09525270354519436,-0.018220941195644613,-0.1719460464317688,-0.0800625870727048,0.15273915890023432,-0.12046266712751713,0.14865629252867785,-0.04656106842417788,0.01656954569111776,0.07923065284654325,0.06713425761493362,-0.13080640421626874,-0.13738994732146703,0.004954485421923082,-0.16607239949733496,-0.09877415353142453,0.07792012482644269,-0.10443480413421073,0.06129416958584361,-0.18262506999864506,0.11190409302810478,0.10583589423512028,-0.04295935721398957,-0.16755552219847075,-0.15686327276539336,0.16070294408574118,0.043945384193812956,0.1336843936758872,0.042016613282968025,0.09639356063521497,0.08401463228990348,-0.07669721087255672,-0.20418006401812472,-0.14270891362717328,-0.007724164252793264,-0.1939553128022433
-0.12444953903678806,0.1555571688020178,-0.14316050882102188,0.10264877437832848,-0.07044987845864775,-0.17988072945057768,-0.15966251244239668,-0.04281654780082665,-0.03778959931553744,-0.07833108837375176,-0.11930119508952994,-0.20129289454487906,0.08128080748787092,0.034410812473914,-0.012232978636081075,0.09899795412077027,-0.04102148202773547,-0.1628284039922555,0.006916140304120623,-0.10736730302054087,-0.08443563886700695,-0.15999444675228422,-0.18407035480476266,0.021019524658770085,0.06678030631775757,0.12887023009876258,-0.2072963044680858,-0.10713399894664433,-0.11995551478286355,-0.13049259619707543,-0.11998849878013575,-0.10451663202329821,-0.12408770599014209,0.011278940126635733,-0.07817970998729523,0.03922536598034319,-0.020720644592345648,0.11976057705712646,0.18136795817276968,0.06153840839301323,-0.11708690643583818,-0.1160653070134214,-0.019297527863501224,-0.1867924157204975,-0.03573406063092686,0.013810213802456549,-0.11362257758219098,0.15874065939330792,-0.16041120113197355,0.021742061463692917,0.016566483860688184,-0.16526714108667326,-0.17356826450520715,-0.16467779598250332,0.03992971633158303,0.12622548997802632,0.017032269617365047,0.009569725837441844,0.1104104084329287,0.14218093026211523,-0.1657643708238775,-0.11306932486681347,-0.19076606842291916,-0.034343711405249826,-0.057051036923208585
-0.11675934396568842,0.20937682407431346,-0.11601977277745028,0.020528397618115698,-0.12380016034798978,-0.14578606301793615,-0.08736633586314631,-0.07784886852038819,-0.12185474649651538,-0.1505067971354836,-0.20143960658103338,-0.09042221705670937,0.04944024224417359,0.053449014080321954,-0.11319780233715836,0.08497710394670051,-0.03546312081627205,-0.09726937806656005,0.08293991115107571,-0.03476650418286688,-0.1208670992169658,-0.13688959709181445,-0.17014899037222814,0.030967666181163648,0.08039192330457665,0.1578014764705167,-0.21214833666588948,-0.1638638459315133,-0.07298160543781777,-0.1262802093883484,-0.10259866990977905,-0.09441378582775493,-0.10438789821976592,0.03401507396292379,-0.18243630718652318,0.023427067331541096,-0.17146870518018004,0.022934794210141777,0.08578805752238579,0.11577010136838826,-0.10075153598984368,-0.03915751322658691,-0.008913063177395899,-0.15859634925672456,-0.1415207394341857,0.020005155733379715,-0.04130866216742545,0.04311576088828326,-0.17319401213410224,0.1290999758987245,0.004261805511993728,-0.07458433850022371,-0.12379018585689518,-0.0486919872593628,0.08571446708054542,0.19935696086283516,0.13267071055874838,0.13494442613896143,0.017193320231015823,0.15866335725853437,-0.07959776533783745,-0.035994414441339655,-0.021920230723626623,-0.024227364708543964,-0.03873306864496024
-0.11056619909270822,0.08272113845367822,-0.1064343626692237,0.041410705407595345,-0.14206467940060888,-0.13200722743611737,-0.1317075475299521,-0.013668242217831843,-0.023572713408574385,-0.059962683325577824,-0.0056955627547319344,-0.06101214917460615,0.19029340839491937,0.19998486928678713,-0.1772511062964239,0.0061901425553721546,-0.19452903131116916,-0.02355539406572182,0.010449671571700628,-0.1647945979132528,-0.018474874225217177,-0.05262382759969874,-0.16872211149293728,0.03261307983457192,0.1919881458307153,0.1832463776895975,-0.15489452970731113,-0.05222516931078532,-0.10017089539235051,-0.02678573442996802,0.023853862143534216,-0.04389320843116193,-0.142570392176284,-0.009139201817328843,-0.08839572154411048,0.0590778047320773,-0.03218365439815603,0.08612976544217603,0.09537744360426165,0.14657926523619633,-0.16098477749790813,-0.02789027867743779,-0.1813659054811458,-0.06590032219325404,-0.15146698567037228,-0.01692694269206375,-0.06520719058532992,0.08017002470922252,-0.06410702931133337,0.1242667219919449,0.14947040720027396,-0.10145424629726069,-0.025061846290781373,-0.007732231372961166,0.16878802419941646,0.19075659291228614,0.048344149755858636,0.1153370053145698,0.15920440823668272,0.06310379550348326,-0.020435686804987092,-0.1799508649258295,-0.17492036466330516,-0.013477111781283446,-0.11259133018929231
-0.11770417830660047,0.07079353562492531,-0.07965962217305544,-0.01961131516326353,-0.14225611694393533,-0.09995188135363665,-0.0676529546604846,-0.08144775978434134,-0.02366420709372683,-0.07988978645216602,-0.11607497355337272,-0.08218468655346214,0.11771184298607058,0.043332829938182285,-0.026485974310879457,0.026974329642237487,-0.05585560677013741,-0.010510326925696013,0.07383295254124214,-0.05031346987430112,-0.030088283690743567,-0.06383511516872337,-0.15469301442207298,-0.08778499457622836,0.022263716402896764,0.1778342630199641,-0.1698057435972241,-0.194414162484378,-0.0871461085197112,-0.151714508238898,-0.04899506643012982,-0.1783884944342535,-0.1716076760418712,-0.005227394448861504,-0.16522116130209916,0.16289057454310568,-0.01574911327917908,0.08495435783178812,0.1595024349707125,0.15193618184505653,-0.18587506855144675,-0.11480831825218236,-0.1218996717468037,-0.011501910834132375,-0.131164059214118,0.12741343066823307,-0.06005598366897406,0.00874539286116403,-0.09847518263756024,0.1224432681763534,0.1283533986928813,-0.14165418292723916,-0.15192555695137447,-0.11386510419794778,0.0057847444762510825,0.1992382994022748,0.20088358916884755,0.007716552124013849,0.15166874806184238,0.03389011857395783,-0.04706516361889208,-0.01252996026572772,-0.16731313854073124,-0.03906700064050579,-0.13538395594787603
-0.09864579880632457,0.11316188031107166,-0.18048707237831177,-0.003722248497932946,-0.12830983351386246,-0.13955210584824798,-0.17183855105534407,-0.16146789279239043,-0.07753128612437456,-0.02639383845716994,-0.028765113866133875,0.007604845406714388,0.01996791018769463,0.04721538301116803,-0.053966538328235406,0.047315709105044845,-0.15970293952547948,-0.0165545673111133,0.02603800667282086,-0.16861238914628013,-0.05524665878075422,-0.1037587902315699,-0.11375722020559892,-0.04080209985077776,0.11339276519917646,0.09657239568221453,-0.04643268625940456,-0.13361793155087254,-0.13217925093765073,-0.046967198725580674,0.045930900083970924,-0.14778578373943585,-0.1792436077022433,0.05127018600288425,-0.13665146336802309,-0.00016091474226900365,-0.014428268778923631,0.16386949958925193,0.07552256438517395,0.04937265189529498,-0.08319127582138269,-0.18607029319779925,-0.06315603975302607,-0.15258268096629304,-0.07021673733402622,0.04446413029009346,-0.17425625907602654,0.1142302014772291,-0.12158652493926683,0.10300166776009649,0.048336653124055634,-0.08343602125867075,-0.014960549856454565,-0.10644097188988544,0.12750687787492032,0.12016548348839373,0.10754637749378429,0.15545439814396686,0.13416610754970373,0.09147255141000334,-0.19479722989900272,-0.14930915427395078,-0.03854440485359986,-0.09944862770979429,-0.17808846346111107
-0.10502479308703266,0.10689134059417003,-0.1496511522542526,-0.02360400924181839,-0.17654880364936623,-0.173264512078216,-0.1380889919654078,-0.1895565776636263,-0.015827592934927793,-0.12468418831035818,-0.10555082933848461,-0.1191469577902029,0.18672230337425416,0.15755605976451093,-0.14914219874228646,0.09654580503445685,-0.12888638264623142,-0.02884422312783559,0.1468373254433715,-0.09079933199590415,-0.06684358913668732,-0.16992459222821546,-0.016269340061768264,-0.024280665795984285,0.17800085376300712,0.09935486100770252,-0.029252081667347996,-0.16563097587009912,-0.030823975326914797,-0.16195945831043257,-0.015572792233569489,-0.008781048000351458,-0.03193033145714786,-0.007154976945181897,-0.0502950373097255,0.035166643289081395,-0.1587395663762458,0.07537950930592946,0.10683937060149289,0.15260931320478716,-0.18345583994908424,-0.013566608379988234,-0.10135287418677495,-0.16342249538120368,-0.043365616070499685,0.03604245084030358,-0.07269403288445049,0.014906370170933974,-0.06430124416152426,0.19185265150845365,0.01956087312668896,-0.19453048507984186,-0.02820961231080475,-0.03229851172562166,0.12846403530099884,-0.005366971052469579,0.1508801499359501,0.0813784336227614,0.1748335548297326,0.06007680820854881,-0.015972451269449982,-0.012537201599799824,-0.1758279163187619,-0.11160847336010887,-0.006398561930414705
-0.10362126711262808,0.19084164575352097,-0.022718631188224158,-0.029509066564086247,-0.0007703459956530754,-0.11972761901854465,-0.1799743006747992,-0.08437464391017922,-0.0674472274751788,0.01012950961264636,-0.045200319768688726,-0.100091644271512,0.07548535987969522,0.013462709500353207,-0.097209821131103,0.043573004695603074,-0.13361915780230463,-0.0348614098481762,0.013223448759680744,-0.020597182645394993,-0.01805266916457692,-0.16405366303026522,-0.11349556114361478,0.038907545160001,0.13070774133247176,0.14756348836191038,-0.1313944302615877,-0.1567898008611298,-0.19768675396061147,-0.13237698083230487,-0.014558776059531429,-0.16116269283379114,-0.0785512766636556,0.015803941607356316,-0.09989515870026133,0.07092280540790699,-0.07220815456610019,0.15373888974274524,0.1345302929280258,0.08623114948632087,-0.17692984800459574,-0.1426959339044003,-0.002864305532351557,-0.08069926895377126,-0.09336617770275851,0.05515196980367563,-0.12610683871393918,0.14670191857895987,-0.04241204701238457,0.09351905346197617,0.02167766141101388,-0.11636893617822838,-0.16440295871899718,-0.10372316862152631,0.17297015535700386,-0.0072834825571116,0.18584853025812315,0.17406887012836994,0.12445027253224246,0.027327297970799476,-0.12807947277239634,-0.13970825713556628,-0.0876186498349105,-0.08381863251232756,-0.13557109582617527
-0.10130602215121881,0.14210455694928814,-0.12383822292910526,-0.01834742206030199,-0.11968167642388626,-0.03744096373690732,-0.048694595395675805,-0.13097584083991468,-0.09064280813440082,-0.09428956154926199,-0.11232380571523168,-0.1319382092704975,0.14858863928924565,0.13548784922615148,-0.1345977283556597,-0.0004992526640344793,-0.020844329196167036,-0.0511707861861134,0.06700649344882077,-0.06463139789809787,-0.14630689580898004,-0.11550108126019686,0.005066842928787992,0.008544138624613963,0.10330093758549942,0.05046042211305519,-0.006443581753487509,-0.09568297076342708,-0.0890876993554425,-0.14767003272371987,-0.08324119921783962,-0.016993931016418343,-0.02427464232802443,0.09685538593723919,-0.08005862340297644,0.16203934204549647,-0.142887096093142,0.06460244167175172,0.14139562276126916,0.06269625792351878,-0.06873068327888844,-0.11128489898187345,-0.12174675820770743,-0.11164773826529568,-0.12572004585360202,0.101001430476343,-0.13724517641759107,-0.007541083821052307,-0.07871924847297482,0.14835627622557948,0.047577165884072216,-0.09414168407634833,-0.14162410579306658,-0.17858210012177606,0.13804263437778633,0.10308931445454513,0.12452258005985063,0.1199467681057609,0.17330074830479542,0.09405138505896117,-0.17318223852138814,-0.06877724586767502,-0.09502553963344908,-0.08218902049632204,-0.18040669844694388
-0.11300253169643774,0.0858195772230484,-0.01945328848169443,0.022172176066343145,-0.09632313656775572,-0.0195200361647351,-0.020884072653866433,-0.17749250594830135,-0.08584366443545201,-0.10289665321714257,-0.19581312624019392,-0.06525162544052977,0.0786116289157615,0.04338317557446124,-0.14136707753765576,0.10776423151838835,-0.203992548074524,0.011406798668567796,0.06769124673061695,-0.07897941663384525,-0.024926347266439452,-0.19033965124005275,-0.11709646334563235,-0.11693421885910361,0.02586652798451788,0.12802101708173716,-0.04516109444386945,-0.19201117538613158,-0.10942693780977986,-0.10291467845344861,-0.09148299175125221,-0.05163359766955471,-0.15007583534698563,0.08988419141394996,-0.011270969231759197,0.01350387207245814,-0.12072999334849457,0.12842366458521537,0.056233888632242594,0.1534472610192059,-0.048966053245725415,-0.15358486077711325,-0.1274940455785509,-0.16380330647500072,-0.1130211487744725,0.05409475505840866,-0.04758618785307819,0.0672027343073128,-0.1816468210887241,0.12643482938190598,0.025387484798359464,-0.19936852167064384,-0.12680351573032966,-0.12642244291782398,0.09981202861538675,0.06298108194733082,0.1269902905280047,0.010725779013350612,0.11312690458390386,0.1505788293640317,-0.07352363065752957,-0.055834341070912945,-0.1547493647185858,-0.06014766524367658,-0.11246917428256706
-0.11724291486449293,0.16764937331772936,-0.18873542264980886,0.11068317847790954,-0.05518030703047315,-0.1061209882411217,-0.04708160965121112,-0.05058651105430737,-0.16689758684011283,-0.08978802300146028,-0.13509290379894395,-0.08121469378119285,0.12512758699766893,0.1392519622692443,-0.07363371395215176,0.09660003760132478,-0.1786210484501959,0.0004169565458655834,0.07142083057186248,-0.06022351552058623,-0.0850466322553638,-0.04591877954621656,-0.03735139642486554,-0.10438953402702848,0.20085533934382366,0.040579882002380836,-0.16575215325098502,-0.1493376186041579,-0.028483723772951035,-0.16189861077347534,-0.02076916278631817,-0.17746863157303455,-0.07164032314550331,0.18419129116872685,-0.09456928539832524,0.15607533182888653,-0.15365191560756383,0.12142960791557773,0.1345524371573858,0.03834548892304567,-0.0915717074560972,-0.18279611572292281,-0.10641573083257883,-0.007926284633470138,-0.05285243747029586,0.012593204256460511,-0.02050431928457241,0.05413541495045717,-0.20186360682418034,0.030942643119503666,0.13428891637967846,-0.09179484147222715,-0.10801857739604274,-0.14703696156279128,0.046606503257911304,0.10276735513280813,0.07019696976642568,0.10206131757683763,0.10779954451772239,0.15782148677371233,-0.05895993558016745,-0.12445369783979174,-0.1594223956614082,-0.10382984477781326,-0.010506428648769491
-0.10513126389945365,0.1700428056429064,-0.13982537965824368,0.056847834595222184,-0.02863178687136357,-0.06913732663850922,-0.09175332042315532,-0.11893086138104642,-0.14515491291354451,-0.001729275464057113,-0.14131060056039757,0.006945911811638096,0.1961460068868591,0.17994707451820846,-0.10198277791065229,0.13012220758251994,-0.07641612843911641,-0.06646654185333528,-0.004479076599728539,-0.07497951289547776,-0.10605913773786502,-0.1245114845382569,-0.09218482509876626,-0.010013948308778912,0.1459390093456064,0.09738045856922468,-0.19190749557432868,-0.09146670133572717,-0.04036923431575821,-0.13909553841301334,-0.11586973316634908,-0.04238653564716364,-0.015079447081852894,0.04115165265910879,-0.1666480263534562,0.07945793571408685,-0.003673650173981878,0.1358419734617483,0.11447522015374927,0.18303956481459457,-0.12886681621209659,-0.09359706669713144,-0.01366070858095461,-0.18950729452762183,-0.15616744956694179,-0.02611519444519221,-0.029167463154660758,0.10803487730224398,-0.13535974481013674,0.04863222824778173,0.06413679872249656,-0.18007243455066052,-0.05365935398315062,-0.15458064993316423,0.07553076560816911,0.02243023799798494,0.06491110070349315,0.14294451016616821,0.04266954100344236,0.12200076808107553,-0.12267737207350837,-0.0780764514861625,-0.1724064005605147,0.03323857549317918,-0.15159701329735983
-0.11460823999318426,0.10638762671462869,-0.19713668257354436,0.048312719959130286,-0.16767317525384695,-0.08722536473262818,-0.10439909335498769,-0.14734273269681308,-0.023565628316473155,-0.14450774973954997,-0.1255108135242089,-0.16877808219928514,0.09521073040933443,0.09718513192175676,-0.08617340604230041,0.14581290411080558,-0.1024554567170501,-0.11113146147018992,0.015819258645316466,-0.2038318709008594,-0.008783974706151634,-0.06169172273927725,-0.013940161022835794,0.025215299234382187,0.18421095513890723,0.05848055838556965,-0.20344378813228078,-0.08599817690081403,-0.036419854153169104,-0.18053014318623473,-0.11775949530262597,-0.09049915158843702,-0.1508222936261182,0.10451618596259656,-0.1084858110605326,0.19151210019397186,-0.0900877039366984,0.04510631117756035,0.05752773813371494,0.03959390246362259,-0.16580793191603935,-0.04000670159344476,-0.13468428669431642,-0.08981731055115971,-0.20524038433482264,0.04307629045823886,-0.028182568224808094,-0.009021242566372305,-0.008157945934751684,0.055931190969013535,-0.010737066065616417,-0.03914026893853719,-0.0791610623478945,-0.15713339619646688,0.013963032440575606,0.09324856836329594,0.11577757554414846,0.10721936851779097,0.1599218481225881,0.08798677552138079,-0.12120601127755412,-0.1359062797651441,-0.1195203221665378,-0.00921213117872709,-0.035365929369457656
-0.12460399979777396,0.04430052330594534,-0.06173441968196966,0.010631530734245997,-0.04880899444890631,-0.06645672714754086,-0.2030453180234432,-0.11518025112770068,-0.10455165015042985,-0.15792484660937467,-0.04505340075835997,-0.10281868996124932,0.029177954525526444,0.05456971764299923,-0.1818098319994966,0.21502489372925204,-0.09596249502343279,-0.16184707695099218,0.04448240154810635,-0.10734571888239657,-0.032989373702601354,-0.10810594064734791,-0.08626564582188209,-0.14407926742375068,0.12046120577489514,0.11688221084795737,-0.1405400525815714,-0.03364359952447261,-0.1685348480470223,-0.03794890625578775,-0.11755338404464274,-0.09927965249138107,-0.15751926744523365,0.1268780990826267,-0.1887109896141946,0.09616428319775437,-0.10320058063892766,0.06273733540904439,0.0527989572935883,0.05175422877776137,-0.16688777196642043,-0.07627987605824764,-0.01928118849032325,-0.03796224396532726,-0.14611616078329284,0.06381476028479027,-0.049925593688818645,0.03445831717636135,-0.18976790746967911,0.07080850533680495,0.14384596747138617,-0.1019872712186993,-0.09842384953101706,-0.14236147349687886,0.20513763006853095,0.13954827440817663,0.07832184765504582,0.037113414206691946,0.19445963836133193,0.045181642719690655,-0.10850396927352399,-0.10444555170862058,-0.13601940515281813,-0.06408598289628226,-0.10823003788471039
-0.11139199940011552,0.16073470538024034,-0.1494085925606405,-0.049910762565125166,-0.10188500014159443,-0.07451539410850808,-0.12668211056732376,-0.17941629351718064,-0.15829335633322672,-0.07913477757791178,-0.18759951122820576,-0.18400121560988242,0.038807566718128995,0.11289928367028483,-0.1385562491222299,0.12735785819286288,-0.14994942336728392,-0.14690553800961742,0.032453843757491295,-0.039819523464548146,-0.005154162301172656,-0.03709356033483784,-0.12730615902049708,-0.056268493706145783,0.12317451437762181,0.17278767088191505,-0.12522486748706857,-0.1199181772596643,-0.04037365591106609,-0.12010500641058464,-0.0889721018006758,-0.09596343524672814,0.006410730712611058,0.11769772583343814,-0.051730452052862176,0.16446463455660512,-0.12225456388463438,0.11356990211370382,0.13455489483965807,0.1472349338036085,-0.07926628107206503,-0.044643835275359006,-0.04588469375319641,-0.08154112687911706,-0.0422044093250918,0.043175005996147646,-0.17541101913472484,0.06563155620933547,-0.1852512067399699,0.054679831953393356,0.018663648719004184,-0.0216778964756469,-0.1416767773861833,-0.08554425598028183,0.018524292826190444,0.027563588900196383,0.1854405532491007,0.024320810400128397,0.12102035924563062,0.07267208011471708,-0.09566664707561363,-0.1975861055663304,-0.07453694514990132,0.0324893344769832,-0.035070661060123444
-0.10261882328577457,0.05815996890563465,-0.09322275829709324,-0.031717905858586005,-0.08706008822842147,-0.11914095058016012,-0.07687679111914864,-0.09376083384616853,-0.16604839806984356,-0.07208801831435416,-0.14833559928561854,-0.07088652025801757,0.16294134810156993,0.04307898437692271,-0.13425289507572993,0.041638153303621826,-0.035382367010003184,-0.097416376632257,0.09932486517346109,-0.03425170472521173,-0.09231305979453254,-0.0727590546200752,-0.0351879470510031,-0.059519494097307925,0.15872796687616983,0.025047184680181474,-0.15670872790062418,-0.17830652995172383,-0.09051649620366159,-0.13498474334469013,-0.06932235764735059,-0.02598001130585457,-0.10008060514868838,0.10256603041953252,-0.06209867168484655,0.14555010441747782,0.001692379709692416,0.13483686192259078,0.16712281917477545,0.025246898856478035,-0.0416409404168893,-0.11615281901628088,-0.11412737887217392,-0.11878051397970907,-0.11980488560353668,0.014650332846156132,-0.10696592802562054,0.06872163589375588,-0.1931065267927135,0.185037148987701,0.12192767605506903,-0.18282911099982538,-0.1139563712665874,-0.13545082717326995,0.1645603993363126,0.17354771888861775,0.13418206074096545,0.18359011881965454,0.039003704156142044,0.05821065219144396,-0.07263949707632186,-0.026524007462221957,-0.18043611447880836,-0.08696230114974171,-0.016271441642456447
-0.07657651057454883,0.08609328018538516,-0.055336536137450196,0.049965712139390724,-0.14722159141264335,-0.04221667602299815,-0.09041144875862116,-0.11295982113536872,-0.0393122764137329,-0.058683234464338846,-0.16560333340272657,-0.12171149191316265,0.10389791255112728,0.14358059411670568,-0.03813997058844012,0.15254345171059183,-0.10416268590377345,-0.07574431610515524,0.03983635054374321,-0.09553089010358162,-0.11160487114020168,-0.14050023637528308,-0.10324816871990751,-0.10523846261535955,0.12675878105028937,0.0800525203331467,-0.167524198335343,-0.13524199814779433,-0.08394614473616191,-0.05841320332581842,0.022823392711649033,-0.11241223556605076,-0.10321149220157749,0.14860219079902245,-0.1272248352341787,0.10313546667606008,0.014325249570676046,0.066795851203376,-0.017132049167390823,0.10024151422532282,-0.0712871121722185,0.006476829572360219,-0.14759801628111616,-0.14330449160037725,-0.11340625070710114,0.07415680680950999,-0.14736985785918746,0.0942839902935491,-0.028926786798501542,0.0018963693302671007,0.12921146350396406,-0.10822496591086146,-0.12085015202995848,-0.040760313329271484,0.11290361822000403,0.12625338909886025,0.1599158046280659,0.0962509985435552,0.09664405387760118,0.15861140136352425,-0.09166851750617667,-0.15389443682820975,-0.16520180154308545,-0.028261002322847825,-0.15815711944319502
-0.10644003122023762,0.12155301067505696,-0.10444978550778963,0.09603345308495446,-0.09436974941477977,-0.11269722544839755,-0.11259795424117532,-0.19688688139353744,-0.164001409687141,-0.1477006184163848,-0.06523265046762544,-0.04209858705266513,0.05723261135250018,0.0057135766990422535,-0.05531817537278179,0.10345991819459147,-0.18154067725384626,-0.04750138263758321,0.14837992699550417,-0.1259908800634324,-0.090918375517307,-0.09282999633257069,-0.1472383735552188,-0.03715856558413126,0.12841197309953592,0.13120911122075202,-0.1553096788737622,-0.06395140673796722,-0.06903858468115309,-0.06702255959378375,-0.035711301936129626,-0.11667149987598978,-0.012862554163018555,0.0010284004524339597,-0.16093462547358423,0.15794172713964189,-0.030430696249878847,0.05090737029285116,0.07924259990663696,0.11365360661467647,-0.14400090929860365,-0.02137705658904669,0.0033350987370412955,-0.12010245470289985,-0.14748029025313064,0.07021060102151021,-0.03731760252294907,0.044994484270045265,-0.18427957601780423,0.15784104346309255,0.1459625064668312,-0.015376200948381913,-0.15684716221187234,-0.16792238825974717,0.054975122536677634,0.03166926868859771,0.18994613565945817,0.18800244969081079,0.042374422669583925,0.1685970877521097,-0.08793184985775816,-0.11996415313687712,-0.13714455886414734,-0.0705732186183458,-0.10716530174675633
-0.1078498835721157,0.08865003434296115,-0.04131241842707715,-0.027877894680405087,0.001063573459788774,0.004407286699595868,-0.03596189266488729,-0.15933891913731668,-0.16522181688406026,-0.1643012823959694,-0.11375276530270899,-0.1056958067107744,0.1814961951388873,0.08301817775568716,-0.18384663168295762,0.08902148129021861,-0.06366073525629423,-0.01992708897300562,0.12567170157262783,-0.011618301333415007,-0.12764176950918218,-0.1599448055029756,-0.13961630747559547,0.003580551622709769,0.1358027940119654,0.17400065121865585,-0.07154923086319205,-0.1708231881711199,-0.1654880930938154,-0.11364098981809984,-0.08533626923610584,-0.13777007340571865,-0.14739149595385037,0.053742677693039094,-0.2006847838283683,0.12254749903082761,-0.04680276674938169,0.14979300625206593,0.1897937545019477,0.06583447640888727,-0.08074745888762164,-0.14133301677408283,0.014366464475316988,-0.11307890564031446,-0.12885586571620464,-0.029101159715183105,-0.07481657849090283,0.13538365190059595,-0.14080336420122036,0.01114384585991594,0.08722568451920568,-0.11381574873528162,-0.16239904882864772,-0.061161464348217315,0.18590510513879951,0.002633848293694713,0.023042477084035482,0.031280185762058994,0.011258190135970998,0.051734933273162774,-0.038504527989485456,-0.0005818391268275574,-0.1533324703190923,-0.021940975293626548,-0.10481723843132999
-0.09137927251158875,0.12025497268618503,-0.003731439021355729,-0.004802010615431278,-0.15464005657531188,-0.032525194011868264,-0.07391018374754982,-0.10757163047577169,-0.09784966731316383,-0.1194510457789171,-0.10085284675447713,-0.14135545946559547,0.1342088555815264,0.17156437306694913,-0.024363340664306874,0.1472501441013054,-0.10212255581423911,-0.15007491753133373,0.08050228276125505,-0.030771337132842237,-0.11921509325934601,-0.08859623328556857,-0.14701629246044282,-0.09265797599202895,0.13055080037711828,0.059255091356551735,-0.11843931315272792,0.006603676554681418,-0.17094425703017563,-0.07673566817445858,-0.0850721596685654,-0.1259104799511942,-0.155317264757374,0.055153193062259985,-0.0003635076087388528,0.16953754726029144,-0.12218358110820479,0.13404806618142032,0.1339793614225097,0.10688958404158651,-0.1565139155016975,-0.16469674185325384,0.006852675962233006,-0.06334223788410134,-0.11073241866077198,0.05835575126397586,-0.05296629825096419,0.03812847666973093,-0.1303450928190903,0.05301052205507448,-0.011245758662174038,-0.16884892363270176,-0.019761705495339083,-0.10923530508756064,0.16027356155776368,-0.01226785746852012,0.08412308050413658,0.14374940595764577,0.1683248931398438,0.16620882660465763,-0.029166280751695865,-0.15898323443499282,-0.10200099563326344,-0.029472673636142886,-0.10070177811410168
-0.10822738020908843,0.17800925176289772,-0.1389593065125477,-0.014483354062712058,-0.05657990996262292,-0.10535939498911981,-0.13572433644828943,-0.10219527635339351,-0.011132985174731887,-0.10876125204488024,-0.06209586090218561,-0.04789117267495102,0.048529190187805445,0.1403816684270188,-0.004058354940260183,0.19404615012982757,-0.08354354741027752,0.004256456605131581,0.1486280992742306,-0.06503007387536854,-0.09593779054574018,-0.032981173925461765,-0.19729649468440777,0.01874765354873412,0.013578318605438774,0.16147268182965435,-0.08563199925459189,-0.08239085413176654,-0.036072350746653735,-0.1846861606838033,-0.12244972398481829,-0.07737504827911292,0.0008921764120614844,0.07811932453341493,-0.15029050971317487,0.17088572388738507,-0.1507165956842583,0.07295268833140418,0.1655781839782355,0.036631152042954467,-0.057419528940961403,-0.15022638408511765,-0.14559643833490898,-0.030187503376199357,-0.18180295453294668,0.015526086095660726,-0.1341646799789326,0.16286448611498347,-0.08233136548425081,0.17143155481115638,0.10841025245017272,-0.04682071514913476,-0.001878132189275159,-0.11905782009948147,0.16300145763927307,0.006455383253723248,0.04956284051318779,0.15785360147088534,0.05781570314811682,0.14804654553681565,-0.15244595878676218,-0.026820430482554985,-0.16985649451294088,-0.13867454391176498,-0.1820442725022213
-0.09276147688510386,0.09206183799628992,-0.17538162603025753,-0.06654231370477671,-0.15749711467770303,0.02709286394565765,-0.14889190368169597,-0.18576941104384231,-0.12382730036221201,-0.0022943843036478213,0.004962377559396413,-0.16458851704057978,0.10800724498276701,0.07632465717532828,-0.10313971725432891,0.1551667426243419,0.0004946235887265542,0.012687081300223637,-0.013822022302458591,-0.10709323993618013,-0.17200525766172375,-0.18176153171458265,-0.02752152264193144,0.0005048369757156682,0.08222069004657041,0.1841149280974783,-0.021274113418952537,-0.061520697114165517,-0.1764233683254877,-0.07785758964979865,-0.03159641393345936,-0.09843337913786217,-0.12127762454778425,0.133875065151167,-0.006028930585657348,0.09924348265200678,-0.04291635933858483,0.1538241217371281,0.116116141806303,0.11574995800618619,-0.02655865185673216,-0.006445074205803384,-0.11209512421000702,-0.10627807166644089,-0.10453318312223589,0.07711051624362443,-0.1444279513659233,0.06010883299396531,-0.0022906828968958107,0.15820213835534136,0.15045855326097418,-0.15658942141339188,-0.08464580586092715,-0.13013313321742975,0.06424223067602003,0.15451585879039229,0.1376057084513833,0.0901028938740448,0.145034695315965,0.11750881966731581,-0.09537613235182438,-0.0995980079897533,-0.10915285677650757,-0.12946951791869202,-0.14137969670815587
-0.10094374606033304,0.1821303561451671,-0.07785637179584813,0.12531836566230234,-0.11861609322019241,-0.008942033796942484,-0.10805376951675438,-0.024889217095273145,-0.11895202276389777,-0.02412872560348834,-0.08973619023020003,-0.0834845087187423,0.14069114026417998,0.1663522508898626,-0.154025454390696,0.19033487159292226,-0.12033338974762578,-0.028476427165709882,0.18104289387543868,-0.08856698240199301,-0.025468630693571075,-0.04917599298310137,-0.14350088887738485,-0.06991821609515146,0.1742679922155508,0.09337112449044951,-0.07405521229611758,-0.053559777061660305,-0.09109491567033046,-0.05869604845729285,0.010132798081785367,-0.14072654772871768,-0.07687691428996155,0.058167866905474104,-0.19055335986532407,0.17979304405508464,-0.04855029447288446,0.0785680496516635,0.18855996183955775,0.17703247769351443,-0.019604010057252742,-0.0720591103096663,-0.11523485485838572,-0.12812668289986529,-0.09276983263251505,-0.04470631529084545,-0.004065315402766161,0.017389016887872654,-0.03112937246033838,0.1693605173288263,0.11500189249789046,-0.11375639743920958,-0.03112819598038233,-0.0603490345198769,0.09865965556907727,0.008066665998293391,0.16997817805312285,0.160361675719833,0.04105057537133059,0.06718593710094303,-0.11002097389396247,-0.10193374884470667,-0.11299837307639429,-0.03437916151412549,-0.03978789712565794
-0.10652016346539954,0.0824466430529284,-0.15647023259571813,-0.051943673369383964,-0.17950356262460831,-0.1482917852898902,-0.07940734738252588,-0.19862685345815692,-0.17229099368365652,-0.11374969903192687,-0.07553144426742248,-0.10868847561591909,0.1576413850401859,0.13437038537124685,-0.056266852133399395,0.08606578895828583,-0.12949298220875738,-0.003492831254636403,0.09896707904561436,-0.08266510940303977,-0.09246313813782885,-0.12133479847146422,-0.1934005643265837,-0.05543043684298273,0.04174572656368616,0.15034548512418533,-0.09076039272948486,-0.03091544996990732,-0.16798064018832645,-0.08580580741239227,-0.012984959796258414,-0.1882576291301733,0.011231936332102057,0.07913148909007145,-0.1834526437524099,0.0785967187125778,-0.028276729226776078,0.10160068308324972,0.14654783228377685,0.1611441875900669,-0.03404569929910897,-0.15482548825056872,-0.05086722684510204,-0.070891448203566,-0.1365713320869031,-0.006408129916498608,-0.07112210105306396,0.17135034606855024,-0.19542909063434707,0.1180873908742429,0.06878530214118428,-0.13732703029727608,-0.00998782763239984,-0.014926963882178143,0.0454877576317427,0.09196103616479014,0.028478611287803587,0.09382648180696224,0.06269974051413935,0.1232978403594835,-0.15530145177420374,-0.0694484589146936,-0.053062747115971844,0.003258108024445136,-0.05069275524398709
-0.09700873214075176,0.04769838819314068,-0.07986516492466003,-0.03894514322354225,-0.14954837173907143,-0.10004696365391236,-0.08452062562932962,-0.02748617770332525,-0.10391801752219952,-0.14890671320669133,-0.0531367125779195,-0.058112442366800285,0.10929030501586415,0.042178771986656254,-0.16020409455772996,0.11441746268995745,-0.11337654669203377,-0.06799900419901574,0.15983708993390203,-0.10307894048616112,-0.17049667467042648,-0.09269525608477078,-0.1874500714295738,0.016419568130715836,0.11110968375408954,0.12813869489267352,-0.1619112650981548,-0.1772460281304831,-0.016624462329516945,-0.027756613311752106,-0.14274346975524196,-0.18307301641092594,-0.15177898235155537,0.07733076132114601,-0.03516515938522596,0.04360304363826936,-0.050583696210682504,0.06885913202495562,0.15889375751987622,0.1511529596019993,-0.16422597525260582,-0.11182630211200993,-0.16715685195269875,-0.07382982068322858,-0.13741502172571277,-0.033234039551019286,-0.06166621443769301,0.03549570640257408,-0.09376611228411902,0.14379977227603277,0.023668217885885457,-0.17670303378945149,-0.07383103660283082,-0.07213361640435442,-0.010161518970592141,0.1406169991824665,0.10396247724151139,0.052804362394045255,0.05703779702899106,0.07248415309674551,-0.10565602829671283,-0.05961739498326049,-0.15758854913674883,-0.0029274138391435457,-0.08589676093259097
-0.10310726156500322,0.11863711357426243,-0.14768989063573223,-0.003468419584730987,-0.19053176438797964,-0.08246860222531094,-0.16144445733470536,-0.19572078075780824,-0.12541876725573115,-0.005780339818663666,-0.09876355630856919,-0.04622054888841741,0.14653789693076424,0.16118208754008756,-0.18197882510170282,0.06489118669431422,-0.029101228885310682,-0.10837220507972888,0.14703706953996584,-0.03795663313216087,-0.05905005457929468,-0.17509014340475526,-0.10573142483644375,0.0007174465972696499,0.08469538485981794,0.17071710873168108,-0.10852045136315049,-0.1477591179807333,-0.023142500600654967,-0.028180311919304327,-0.035823738424980746,-0.11478256996542369,-0.0671821829412136,0.08954093142603671,-0.09809542429733077,0.16275744753784668,-0.08843638100901328,0.17196267253614594,0.1300165964668559,0.018104056217666916,-0.0830835058069852,-0.030574592511672466,-0.07870647749097237,-0.17087921292741792,-0.0676017721526683,0.12910134752662847,-0.07708396718580002,0.16145965276821392,-0.1427626728630453,0.12276464520782136,0.07132044178960636,-0.16955156332243132,-0.10472648391014629,-0.06217707821022763,0.1647557765531685,0.050187986734770186,0.104257424705853,0.01690515093565691,0.11452288107181505,-0.005190720809076152,-0.04434733319058418,-0.044629429322120676,-0.1347281548065354,-0.1320537973189623,-0.03962080023621479
-0.09636272991045718,0.1117548788518077,-0.1690412232854692,0.015162072102586428,-0.15285881229115494,-0.1233711349258909,-0.09880224712968014,-0.18534718034463113,-0.10055301828220146,-0.09170491711243164,-0.12744827816032442,-0.13381633751539118,0.09198490609392473,0.11457249208335062,0.0050763086068951,-0.003377546315256117,-0.17330939767348258,-0.07609539728452899,0.09062418848912529,-0.10084952118657713,-0.024375010909747544,-0.0008187884232568317,-0.0495987192088534,-0.06582930806597435,0.12018254293914106,0.16785996565529665,-0.06293329898884051,-0.12800303318045833,-0.1714907459925765,-0.1790961665012408,-0.10441989728420889,-0.08893298937208147,-0.12455201726625299,0.12991925760670608,-0.11755571245425775,0.13769892923741667,-0.07038362507072456,0.14601014781434835,0.08806242625263438,0.1647156492039395,-0.18656262157456854,-0.14384274405863895,-0.003828797965710597,-0.013305095922300522,-0.060660805903946166,0.04341642571129001,-0.040666859736648575,0.039328932262167986,-0.06900207134263489,0.1426925042812989,0.14415267698031783,-0.07958494284227102,-0.1821062138280775,-0.0520590934487941,0.13496501047763912,0.14591290408777438,0.02203851971771322,0.0365414393767384,0.09087658886548412,0.1385563557978884,-0.09624692817169615,0.0005815919769810041,-0.12999540982626492,-0.12702943126484792,-0.16981972962733644
-0.11187475251329114,0.17831267684277435,-0.03380248595799829,-0.023034390933348654,-0.0277580456572676,-0.03645140991773863,-0.08339190898103434,-0.17961303145712407,-0.06127050163105619,0.014357830436452234,-0.16508849108680002,-0.11962349154442845,0.058903729042685565,0.15041582164458295,-0.0036400242997505247,0.08101072789378032,-0.15054152992807215,-0.10682066440291527,0.05069165947899288,-0.1395379095941255,-0.02154340869593906,-0.13287505660725268,-0.06335377110659794,-0.09273380404876645,0.11628107182562902,0.13144232745314222,-0.15230502392477174,-0.018020568952041526,-0.1920283983788725,-0.0556291197159999,-0.0919403669534025,-0.07063681176539796,-0.029742050472736748,0.15047287945359952,-0.09641617793531437,0.14133627302562057,-0.1743927473646738,0.1412637545785215,0.1278359787668132,0.07646215487771515,-0.08703416410402995,-0.09220441128252056,-0.013032247513463218,-0.1387331139833075,-0.15199706620703604,0.005704281512825911,-0.033516999390782926,0.14492546687368763,-0.11779209652678634,0.18144434781616708,0.06388094611215857,-0.02301306753158937,-0.1372478491383253,-0.04986111745473224,0.0016107914177444528,0.1710687191195122,0.12703697802671052,0.1107492300474022,0.09506165315154003,0.17740052587900296,-0.12010273907727405,-0.151924316192306,-0.1567313391627269,-0.10098089906194899,-0.06269510818246009
-0.11402377111860515,0.1452890984487855,-0.055232392425365484,0.07883704957998194,-0.17683984041362544,0.010218655754170136,-0.15937492491085842,-0.15229391106214984,-0.09770452167040773,-0.13378674907975088,-0.0710013912714203,-0.08898261075316344,0.15057449371844892,0.08630359463923934,-0.17038934690364538,0.14231546561731329,-0.12664223487240736,-0.12794084479714496,0.06447834282661849,-0.04115551978652791,-0.09200208627952995,-0.034988542558924376,-0.07925435990100041,-0.11245232920877846,0.0257283659688916,0.1231486373456501,-0.013835905032756212,-0.09034384675575592,-0.18957297343934765,-0.1709310811172159,-0.047452913304882924,-0.07990972562340751,-0.042651801341190024,0.14004148460302143,-0.1788444753875092,0.16066644581546496,-0.05228287247796911,0.03705075999051723,0.018163485684020615,0.013511706152272818,-0.166937875759681,-0.10828729277478591,-0.025135689992534578,-0.0200748401095614,-0.15096985526140547,0.13250887523466748,-0.1525551102062172,-0.012976274735108017,-0.15623356568739186,0.07432468048999927,0.1465731988097622,-0.07337039744210587,-0.0755096323432863,-0.14913442537243912,0.05745678234326418,0.18720671669633696,0.18260392719006424,0.1440230859398377,0.014448694962070798,0.14250477529499195,-0.14635180111122364,-0.151157564440673,-0.07261167610530682,-0.10043846047869687,-0.10856370451710166
-0.11622101345062351,0.1517229242589093,-0.13214516785770716,0.027535106142117814,-0.0046170652576404125,-0.0046872697823819075,-0.04156425740007086,-0.19258525343611158,-0.12724210337831487,0.003435270336852105,-0.17997178852614143,-0.17863962072108386,0.08914480489462731,0.11719499145942944,-0.059834246517390395,0.11983637177537405,-0.028621555920784497,-0.025558873247219584,0.15536682197494442,-0.017516797414710853,-0.10924470688344265,-0.16696600940768544,-0.006741200981230084,-0.03129061080935276,0.17046026811223777,0.04512522785132217,-0.10687019099454975,-0.03446227602931396,-0.1743288197505438,-0.0743812086746845,-0.058002485776145515,-0.14095970419981868,-0.07259038990970391,0.06268926918213712,-0.1012393032360423,0.19157453707293007,-0.19077849020960783,0.14418727901672737,0.04052215451873637,0.1710573933803501,-0.04732243224832758,-0.055636171607780886,-0.0030633143962178217,-0.18901230682574383,-0.051181851164086654,0.02293339421707437,-0.03491206951059441,0.019273157912630703,-0.11397020585549916,0.1286054187846576,0.06860052217802959,-0.17840757684478808,-0.019705655163829865,-0.09418526265317055,0.05390147749365679,0.12940631418461124,0.13465388044486834,0.0649649812853328,0.07691410008517045,0.09440375057133567,-0.051183368681021246,-0.18214359836062702,-0.19853584671376187,-0.08155783161957295,-0.061859386659109686
-0.11466537748687958,0.01748969503693325,-0.16942117306493473,0.03851352279317548,-0.015304875367321292,-0.045876218966501514,-0.12435032138232403,-0.11521646066342107,-0.02588647103930806,-0.05072993940404833,-0.1318725383656491,-0.05783038287005271,0.16186947120197226,0.1128219485754847,-0.15112284609597404,0.11007410461980835,-0.20057862447982758,-0.10141028389331058,0.045117787305780865,-0.20652057594199208,-0.05528545322699887,-0.062398087386196975,-0.08471244200949261,-0.09488664743501289,0.13400335826683207,0.16306378478035177,-0.0523849274220855,-0.059241766722682776,-0.14342604050174446,-0.021425201865189952,0.002231337807483195,-0.18402764658668622,-0.07373109139096042,0.005188591342597217,-0.14755893592244282,0.03601921355664399,-0.14215263732353753,0.03362866770888397,0.16119133512926734,0.08472553951173459,-0.1347301215218374,-0.11045963018966634,-0.1789211025180799,-0.11324104297623838,-0.06838510141467796,0.02459166052296241,-0.024719280140671908,0.050038021040044414,-0.0271496002476682,0.14692552717714352,0.08919846012860942,-0.16200348723253108,-0.1780962213651479,-0.05093110357058055,0.0067212747748484555,0.048436904979867884,0.02562853314279658,0.05781406409855005,0.01705579829014256,0.1008174937357372,-0.14762833590062743,-0.17133791447849653,-0.176560095970262,-0.06852309579246187,-0.1549944638356057
-0.10959969421574395,0.06198794961495165,-0.0726980332088653,-0.019431101945709836,-0.055877475247249765,-0.012983569362037565,-0.029785066728798937,-0.1318656409037656,-0.1241083418360268,0.00175765946091988,-0.11218842801893392,-0.032567956269690175,0.11392604861227609,0.16696376016011916,-0.05234437752060631,0.10729829111913262,-0.025159132717593895,-0.02785207838713541,0.09873045117843254,-0.04970206123186858,-0.08857660100973373,-0.19098318225143085,-0.026616520533990808,0.0030749289245072388,0.18620512332862146,0.08586842086192556,-0.037883226603575654,-0.17128125202577568,-0.08642384295868719,-0.17958636594745322,-0.10865230502121254,-0.13697265124885824,-0.016116439412654997,0.009024403025260289,-0.009065711293126905,0.037521531956683445,-0.14547799303703174,0.0910359778344759,0.16093120345340506,0.20186411022196002,-0.19094816415083507,-0.19227763458767028,-0.03442274152784344,-0.1558192665445092,-0.10419120510636397,0.0944409083425136,-0.16211883739796912,0.1316918708949784,-0.068491521445789,0.15512460376108939,0.06394851266456399,-0.09439363315589945,-0.055873879359222264,-0.16161185788660465,0.11833574965652001,0.05791647422811349,0.1752902397593939,0.17567453220022025,0.12463347083107552,0.13382510964281616,-0.075279693623523,-0.052061349690026716,-0.052519838076747545,0.013063723785391,-0.15020733852093185
-0.10321613425505659,0.029666748079968035,-0.10431744483120588,-0.01818518226694695,-0.0036286286253902783,-0.005697326322639278,0.000835565331883985,-0.18452998330931034,0.021812321450741884,0.01753446907997826,-0.11457299124421118,-0.0582808473252203,0.19160624180903307,0.1180910368906158,-0.04240253838588654,0.08245240749786975,-0.005464326325909116,-0.06676216999273821,0.047960158401558366,-0.06944531165836623,-0.03208451640914025,-0.1341367103033609,-0.1782886193072991,-0.09349113930666896,0.10439480431063522,0.09276729764074819,-0.008426466406213194,-0.15339455367704172,-0.06789669478089443,-0.16607673739555492,-0.021190087145635413,-0.12188131487632706,-0.07611849830359296,0.1226687224506045,-0.12396235654583276,0.07918433413860211,-0.16697866469014738,0.11490842271361186,0.18110460239408208,0.1346334633930165,-0.17131565633157178,-0.019085406451877642,-0.1283227223913134,-0.09365718659403865,-0.0688025309138874,0.07957753849337207,-0.07723839307328777,0.0350225519538239,-0.18030973222041388,0.14354451577988667,0.09768045394160141,-0.137882078967927,-0.09505600294912978,-0.1483018173087822,0.14939784451832694,0.11870474850731115,-0.0035206983493008817,0.09604624064316662,0.16610184382920884,0.102274546193078,-0.18280184063687954,-0.09251468671453637,-0.13479092793346692,0.01646016638281865,-0.1280064909470362
-0.12000268977931319,0.07402512830263555,-0.02410848973313562,0.0007568186250689943,-0.07479608874873486,-0.1004386081931336,-0.04398218310610531,-0.20581458491104312,-0.08939294153051891,-0.026922270034735945,-0.040966154039466164,-0.050361169006772795,0.13556892062352743,0.1212759065754948,-0.05619549586677033,0.16409275683853605,-0.09276036524798577,-0.16448077474590592,0.04048495007922518,-0.20479756381128414,-0.015460554127931363,-0.036664277745224044,-0.08295184934017125,-0.02221398515982187,0.20504036988528918,0.03453135615214974,-0.09027663725995062,-0.06295009657967851,-0.1692919940123713,-0.12335602472204489,-0.06732570027809047,-0.16650098184536397,-0.028509861100103902,0.17342421141306738,-0.12240501197672933,0.069333147116627,-0.046067159170425934,0.054456507996359725,0.18442845837028748,0.10297982192315756,-0.18134169456656712,-0.07491433200363776,-0.17644451646427675,-0.019779277777864594,-0.02230186127263914,0.013577815177563842,-0.19826382373665763,0.0651124370397929,-0.12154319529495594,0.1858649703742472,0.08531628164930731,-0.19507902420254808,-0.013338801368860474,-0.15199783113372753,0.12354415594198682,0.14734618762406765,0.07029212045293154,0.14548967798275594,0.19180063669094394,0.13431087866483288,-0.07869658886073237,-0.04829472610328118,-0.06048668313964272,-0.038005667951752545,-0.07103979025271717
-0.10777943599612881,0.10536369454015612,-0.060388292530127195,0.09336176278406308,-0.13662198615115886,-0.1654366631943227,-0.12282238375885131,-0.1254792919995612,-0.14817557696360686,-0.11850731486243204,-0.11201418162313119,-0.17558580432140583,0.19535665221513876,0.08167950647901444,-0.15630933418953918,0.07859130820761573,-0.17604640125713625,0.011660956271407716,0.019825862042588654,-0.10682703628269227,-0.009886275810842652,-0.15137876657492783,-0.16976694084544977,-0.10650087531576374,0.1977594640094869,0.12985374057584112,-0.04522217975611867,-0.02099259202304159,-0.11865147734378638,-0.1301867674452784,0.03772629476498717,-0.0636975708928524,-0.025857150031339045,0.012766354928508269,-0.15866037696972887,0.022828767494552128,-0.06814821676590156,0.04563995642899185,0.11751093136604733,0.017342704921107878,-0.08540694439102012,-0.1091932466369498,-0.0866943613773872,-0.12435815338726104,-0.02118086988724803,0.08828031260105244,-0.029734973891725632,0.16430963942701354,-0.1486615576074991,0.11592338625611619,0.08648013799348192,-0.09982977262553219,-0.16615831268573067,0.0002391489300880796,0.1240293589846773,0.07016195676374856,0.1484341535225781,0.08667532718378845,0.08953163466024514,0.07672112027380867,-0.1982828018352052,-0.1705082150942501,-0.01663577603306541,-0.028058765019353497,-0.14975490360217647
-0.11411291275711372,0.06742470656778832,-0.20101147364266933,0.024152243093117032,-0.03148697592759932,-0.01733978975625922,-0.033614843167684476,-0.1139570795063021,-0.06750329673268353,-0.024482024672122155,-0.05336656390294722,0.004096263123399961,0.07406302851040092,0.0992871015626147,-0.007409140001399213,0.1968582994178335,-0.1511858954197907,-0.009517361814065173,0.15240316830620704,-0.16449301908284356,-0.07444654834332183,-0.17424865911641985,-0.12023990099798287,-0.03675697253729181,0.18273045518893563,0.052700396222164665,-0.025115779147821937,-0.17803553594076615,-0.172016270752512,-0.0130171672468304,-0.04964516093834607,-0.020082738676879357,-0.10961936007440272,0.01829159041650477,-0.02704049928029091,0.1925372025818222,-0.187294002797575,0.19967160785264076,0.18740859720897385,0.01649914178825338,-0.19483923811410017,-0.15696051542617936,-0.1710177210067235,-0.01299204753545679,-0.022497833756991846,0.06359156231008457,-0.18463912609206898,0.018113466613945653,-0.10184489071279886,0.06129283319633488,0.1075029249849729,-0.06656426954236201,-0.12208663212641532,-0.06296276060205114,0.17485961639304093,0.007103807902191891,0.175708296582189,0.07838159438611168,0.13892670055491577,0.041360213608409885,-0.07686129758131562,-0.11929889729202178,-0.042235252834821525,-0.09889638901413958,-0.0824180490812562
-0.10737239840826868,0.00865640562062674,-0.1945176902008512,0.018922482236289163,-0.07618497633548989,-0.11215232491285583,-0.0030597800970598235,-0.04835611202608577,-0.1341260412453439,-0.1283326592182808,-0.170204407188779,-0.11876426052156534,0.15986309987260106,0.07197817400627923,-0.10957203918246974,0.001085101775295018,-0.04574924206021045,-0.07427330794810545,0.18581331553249616,-0.05938466012899637,-0.011357335390758937,-0.1659925119541853,-0.08219279165007444,-0.11928006596234388,0.10749854796724405,0.09617892258476157,-0.06393537178265256,-0.09054561217258071,-0.10539165228993104,-0.18277489651634612,-0.04019557292936202,-0.14099028605363131,-0.1478993490928798,0.09349876312716573,-0.14025739627291364,0.06341969981889573,-0.1523044843906299,0.08039036651962887,0.134473115881682,0.16062891288016082,-0.19789151745453534,-0.05044618406465401,-0.042856954783911404,-0.1366543812610397,-0.1594637565026075,0.09233183631515388,-0.12901590444523078,0.03880620709290823,-0.08306299415203458,0.05336596812631699,0.0563069939670488,-0.0135452108113261,-0.12329435705359687,-0.160120821691624,0.08248825508111161,0.01536514588309045,0.16048687376682982,0.022932835801250634,0.012024914471402708,0.11671336693518325,-0.17072443974495188,-0.15231921475302002,-0.16523927634535404,-0.04973039536758094,-0.12750527206916892
-0.10153283368772063,0.1643502222162939,-0.19282631670012823,0.00886305091539391,-0.043514483990463225,-0.10895771686967023,-0.13905695073954594,-0.013551098430705571,-0.16738761356867174,-0.03996367633901689,-0.192823263475095,-0.032999009152654205,0.1810573488050553,0.16476862439868653,-0.04181274403177479,0.07127306516706128,-0.10557546803258076,0.0044352650284333476,0.0869931750658353,-0.04209054138779476,-0.05436761436806766,-0.1870785488992908,-0.13941533641266968,-0.028418207211208812,0.17149791798911432,0.07991407223722968,-0.063639448418737,-0.05271552314689825,-0.13009708552670193,-0.1007341466615657,-0.08590882621505203,0.009720722278260326,-0.0644000330515459,0.17473135065988593,-0.0705224126553483,0.06499146505012317,-0.09319657675395508,0.18049738190321993,0.17800652597088762,0.018485537650031417,-0.13467724102148024,-0.040552238391519314,-0.10501696986118308,-0.11083671628222744,-0.1225379331089773,0.036853066306005176,-0.15049667499676192,0.16116180946373704,-0.08734033726097996,0.15113666924983096,-4.372756302881253e-05,-0.15703854230048372,-0.12078475171657972,-0.06643212553757528,0.08890695330817248,0.1721328116155098,-0.0038126624388564465,0.12299836481184856,0.11338489368962447,0.11585746847208751,-0.10916400642374448,-0.02875570306003318,-0.10176228109663531,0.04028714640312629,-0.06703783133054317
-0.11219855228172704,0.09765817397034805,-0.017904534094252023,-0.029700663630282,-0.0024927374804148148,-0.1265669781201963,-0.15224838629932322,-0.09797006062397141,-0.057075048297158364,-0.09824886106534629,-0.18921108114351953,-0.1256194785894933,0.1816239623086933,0.07602150392770719,-0.09912651806234403,0.1587981307814743,-0.10465341425655235,-0.11473031870242431,0.11862281882676695,-0.14130007605783582,-0.12093876912701153,-0.1607528905684738,-0.1638647511223897,-0.003959739998403174,0.15357336081706835,0.05704169543520796,-0.15747893938925603,-0.08581215225765246,-0.11430170064022684,-0.1723781385396056,0.03642416749573598,-0.005115583717988389,-0.1287222050570056,0.016964525572660316,-0.07006652155391148,0.051493781642833664,-0.07179059649730193,0.003066316474412469,0.17592004293041852,0.12655606932962749,-0.04513141900932982,-0.04902868402536643,-0.07930923215392288,-0.03228307995979824,-0.06199477429283964,0.14217760192101375,-0.07211513194900672,0.1465741522694257,-0.031943788409509094,0.14634568823829552,0.016964216120168255,-0.13555748397567088,-0.023537302257819408,-0.011621144277864374,0.17847600607949204,0.11438807863000856,0.03942411417454428,0.17268726697048542,0.07583883201833262,0.11984100547753619,-0.13220824687792382,-0.09894059169669066,-0.10598197850983722,-0.14851030816285396,-0.17690111088554528
-0.10738982810200076,0.14209088994309624,-0.04860183451070094,-0.05048805368382329,-0.03135482315075627,-0.031100624487077143,-0.0811583672245951,-0.11441645677061146,-0.02978589858987579,-0.11411442093225459,-0.13414494225392917,-0.009682419061345284,0.19548383100338088,0.1226905764554434,-0.0505077714128517,0.0863651289531365,-0.1833266463830885,0.012152907689760371,0.08864897888234544,-0.14909615544029123,-0.18659339655622117,-0.19110968789454993,-0.022764587547144,-0.03232913635385455,0.004905178426179276,0.10977070786769426,-0.13390788696820927,-0.1520669010444404,-0.16632470086665396,-0.10960196971375753,-0.10677219177410109,-0.025874499270099723,-0.03347271383440152,0.09553287277671824,-0.12766414966427653,0.03220848638077299,-0.16005125590217267,0.1108664558795899,0.05519854540190441,0.09216964482206728,-0.1639019730856915,-0.15697841359060938,-0.11153222322441586,-0.003018663915471602,-0.15564404902276002,0.12662301277714086,-0.05575926480341824,-0.0035111311821326052,-0.04954194450253733,0.0922032684422905,0.04453292587525446,-0.1614168653452986,-0.04638170963368421,-0.14140365338171887,0.1574110002467513,0.09089943798006145,0.026134629829543263,0.1703653865117626,0.058809679926949784,0.09060668240863719,-0.036492363013465416,-0.1383607208062629,-0.1400440978862092,0.022680548158016768,-0.11733159104160781
-0.11115049840915124,0.19378409793012372,-0.09565554500010444,0.005767692179188174,-0.1475358641658175,-0.055305574814656006,-0.00408519412444033,-0.04861286059076062,-0.10554301652859431,-0.149974190399702,-0.14527300702936746,-0.14786439930270748,0.13163338966502697,0.013715360616666264,-0.17502085759185243,0.19127826316093927,-0.05168044115367191,0.004190010754195696,0.12263849750220178,-0.012910023934694488,-0.14057401118457186,-0.12664765738759395,-0.07448506401391324,-0.13030388486917394,0.09340110695624466,0.04436533257376236,-0.19956155915744805,-0.08497125045618044,-0.1374034179806314,-0.2005182937132114,0.0033688881417800005,-0.09747414190276987,-0.07254367797785907,0.14803072835368428,-0.029128590831677008,0.13685779495483671,-0.13241565948234474,0.19592633162782536,0.06956624925073525,0.18013141608739364,-0.10727065620120464,-0.09071510656524331,-0.0112469918480344,-0.19289453734896078,-0.036209356455901016,0.10382924488097149,-0.027140967655595438,0.014271590894760705,-0.16874676614504028,0.029343606392696783,0.0957342961161907,-0.05209112418730445,-0.1028913295244155,-0.08863918132562984,0.022820309689728382,0.00859231101681228,0.02268782678394586,0.12130807739810939,0.14845117344875036,0.10605747930484227,-0.0164881329577161,-0.07521875349390411,-0.09382773415231406,-0.037930168051473916,-0.10575223117531768
-0.09849442894458195,0.05470362121781364,-0.16429334104795132,0.06677627380081963,-0.14014033886347457,-0.021321731850998317,-0.1773929161504968,-0.16542095984310703,-0.06528339563476501,-0.03735559436902742,-0.047889165594847384,-0.14234249219546283,0.0053477586688261145,0.0733284509927381,-0.1746245504728002,0.16820955271346907,-0.12897808702717686,-0.10596279237219411,0.013428504584882466,-0.11223514505203822,-0.06310784009910578,-0.03885219213741875,-0.17219209284345374,0.023961394931011102,0.0013379788464560332,0.1613166324829524,-0.026906535555059372,-0.1773713118965726,-0.11777247505481345,-0.03553749999921261,-0.12276095490509789,-0.09991644974823381,-0.09326998436784882,0.15704762190193686,-0.1039214706940317,0.13957806563669634,0.0034381465756502714,0.18043148857257665,0.14892137466106664,0.15731879174172764,-0.14862989763075898,-0.10952575351244498,-0.10047104310706409,-0.08460950994826527,-0.18954688425484265,-0.058058839668307785,-0.12499786532541521,0.06902996723055536,-0.020829661336273068,0.13577463717700874,0.10362877074241922,-0.13983996866865833,-0.03240549707715749,-0.07989264452566734,0.06747916608326521,0.04386570011919909,-0.00444944861541844,-0.007454060377685484,0.027668764252898354,0.011142789137006837,-0.18942829292307942,-0.07284021981674783,-0.0165673071678064,-0.09726686014598158,-0.08683663391112796
-0.09911619758920069,0.15684128529940453,-0.14857697111906254,0.05661375962283018,-0.02268751895852698,-0.029087729886904053,-0.08035702389786385,-0.17514390924422987,-0.02395967699334399,-0.13817886975530064,0.00013566822258902848,-0.13664211421090638,0.045497759901822844,0.16067366996894297,-0.17170985436698935,0.1039044543205052,-0.0348812825246129,-0.1454909824081827,-0.012334976407081127,-0.02977146352982159,-0.10666673555898935,-0.024334482946028226,-0.08490788942354605,-0.03761283612590101,0.047251318974864474,0.1929186547657195,0.0012704435531190824,-0.11714186166791131,-0.08606518074891957,-0.11040073322945432,-0.0707670249650496,-0.1094521228910642,0.00366486081178658,0.12607991467910074,-0.04242701534657865,0.07508684340287287,-0.13644965625017913,0.047508202361626825,0.15297370857208684,0.10642010032605076,-0.11331422497087545,-0.16991517724441485,-0.16223949444031452,-0.0835897463346792,-0.01410660812127235,-0.018069598930499326,-0.09157940658044149,0.06893233826075262,-0.07968017091830981,0.08067181175556941,0.10901064798394441,-0.15868742575520717,-0.034273342069054316,-0.1565282473809859,0.0004859379040732675,0.15939737846467084,0.13020228881140633,0.06925206108897267,0.15308168964100646,0.12512393912919492,-0.08060667709068575,-0.044521720336104034,-0.1613437620713707,-0.07618514665419251,-0.09580774177692711
-0.10464319535071864,0.0737942777291529,-0.1458767226466945,-0.04989498263387585,-0.021608014033096784,-0.10182514823036228,0.001957604982386021,-0.0740793946188182,-0.13521944653799453,-0.18770733088108732,-0.15667918817996587,-0.05391256534709601,0.1352016568992275,0.07319760549523692,-0.08977592736045517,0.18675183794875772,-0.05748853462126186,-0.17579669537550255,0.020530202460332957,-0.06668861244974832,-0.03128116541993147,-0.1758604965661443,-0.062159667952587074,0.05149576164786066,0.1617063193590143,0.05191063016906569,-0.15597654618424356,-0.13605421020911157,-0.16794787679691886,-0.08690744116851579,-0.05982278350306628,-0.10672200104891118,-0.0911354056878918,0.08733344302621775,-0.08167164340265815,0.08070987947580889,-0.010279747687996582,0.008918252949648459,0.04228660198474815,0.13563197112639547,-0.14480036783921052,-0.12993540292087638,-0.09460605584391958,-0.09387313809604028,-0.06386749334093042,-0.06904059101477239,-0.1775516686912977,0.043909159873625724,-0.03172180510539269,0.039730797332964446,0.0017143094887608252,-0.029599055843900584,-0.08693722218774087,-0.1213621038460221,0.10057469808553858,0.004214597650095932,0.13597075508784526,0.05939478344524996,0.13406346782739917,0.079349413765023,-0.17965716713948165,-0.11563821688767571,-0.004283990193100385,-0.09308029659689818,-0.018382779503241395
-0.08722627313052649,0.0172790037368171,-0.0058248934342277885,-0.05882606249758332,-0.034431679187891494,0.03742870850212858,-0.0660833566871904,-0.07237829561501742,-0.12504845829802194,-0.1764675389751455,-0.10755233370090905,-0.0988062987444268,0.1718015406962939,0.06048529700863454,-0.14423390639671407,0.0963577122949609,-0.07967152673420871,-0.15564840436401714,0.15070136788060143,-0.05388788198968651,-0.1137100693745193,-0.11779460250347246,-0.16252396670372388,0.055567421286559,-0.01849361251642794,0.004419355840593902,0.01113258584102476,-0.06318662701591132,-0.10843264157878728,-0.07423947479788305,-0.10726191978110748,-0.08141451990522464,-0.013799126999779466,0.15267057835777476,-0.024815426871280778,0.09880961376111294,-0.14435727088337494,0.011820672348266337,0.17266705907418534,0.1582627571624284,0.009414095059169219,-0.1681875577963931,-0.0817896324540831,0.019589153952037135,-0.17727384881991518,-0.09088325172860888,-0.1468672180320338,0.0760171864273385,-0.05761528919677325,0.16539093308346195,0.0015358694750914363,-0.17130989469287422,-0.10704395539354125,-0.14813501181303598,0.0256181914852127,0.14214119059349659,0.011331382364092398,0.0632938418114424,0.10452685614905474,0.01248420440507796,-0.10065827933000736,-0.13230922472083814,-0.09074217466377725,-0.08416822378907454,0.0006210022845789636
-0.08591987007341885,0.1737327137238715,-0.09410458910112467,0.03240893391241,-0.04690137919384587,0.05209115184108563,-0.17085748776112522,-0.04457938692663813,0.0036727372328055376,-0.2156748712861068,-0.12404737844209117,-0.1332354710040981,0.14760231884745742,0.07139950121336848,-0.03894112263716577,0.0895636233588655,-0.003193153195479954,-0.04507152544810371,0.013061056701718012,-0.11081270980792801,-0.07513592361060488,-0.096076707819095,0.006564488987862893,-0.09339901508206586,0.06725557429192267,0.12902695852369334,-0.031309239626603154,0.009757542429160512,-0.043204943991187635,-0.09653472918197797,-0.005487539516548828,-0.09527173735955996,-0.16265110094471188,0.05160943171479895,-0.07844138805342867,0.10050022646151495,-0.09672823714006809,0.037584249935971266,0.0635321854908616,0.11606440694989982,-0.042200946038419535,-0.13350949013792476,-0.020687407486470147,-0.06896023006182929,-0.08182737956998408,0.03689492578929235,-0.15111598949547866,0.0009013667991059001,-0.03545657881959007,0.10100892436121917,0.06434985100110326,-0.1100968302803091,-0.01465295405189343,0.004479533945644209,0.13187316319414885,-0.0001474250497136456,0.11520061631334963,0.12030604154288453,0.08591353928634464,0.10697190209881993,-0.08859872003224918,-0.0820386475901259,-0.14616708489739602,-0.12429599636746096,-0.07411958067243213
-0.0806781012104552,0.15898495121272446,-0.05202930126616879,0.013665884694688876,-0.11885972878569531,-0.018226230345307924,-0.13732581222241547,-0.0016337085668914444,-0.08649518562828061,-0.2168959768213767,-0.07713023494404392,-0.0676808886676597,0.052158402514789655,0.0337183419768198,0.027324532841089,0.019634943088954415,-0.08686604067215238,-0.12108529561995303,0.053852196699483136,-0.16129367190677582,-0.11588572697900991,-0.0007489274121900766,-0.09218755935658157,-0.017301292858532616,0.04342287391123831,0.068122362231722,-0.09105345347377565,0.01233045491876357,-0.025117407669891637,-0.1610877681649755,0.003228508471283477,-0.07687266183557383,0.016431744710093545,0.05398609101986364,0.02093713098139811,0.0027026069024511422,-0.0620281279830611,-0.005446420677981656,0.15438176074973714,0.031032638678797245,-0.07561710688651643,-0.12421559227257725,-0.043491629073953895,-0.0337194549897578,-0.1551517705252523,-0.13644796153574587,-0.11317650717625218,0.06896340679989332,-0.11788225664743696,-0.00651169285284627,0.0682208965686423,-0.1482541588698655,-0.12207099181396094,-0.039356361511791886,0.1656207948505979,0.15951224582689633,0.14751570276196052,0.15396226081793582,0.05965712166553339,0.07356913259261937,-0.12927830978095056,-0.11553208429129423,-0.12030019674391068,-0.02881645191186532,-0.01551241347367627
-0.08610044775985506,0.06284559370089067,-0.1419127732016557,0.044785141890619065,0.014975286587563011,0.06560316404313905,-0.016854484773498775,-0.015730689720989257,-0.05499418035026034,-0.08894926386301301,-0.1708064738470723,-0.14494078248600661,0.013359019870099641,0.06740832279812882,-0.10124156252525435,0.03693123807737689,-0.15834667661856933,-0.11654267254465146,0.08047576602204613,-0.06791312236373513,-0.034059572460409346,-0.10404522427176506,-0.06819339256981564,-0.014860279765762062,0.10659863633350412,0.16037699119140747,-0.15363802535472676,-0.1119910162853429,-0.058118442909657154,-0.0491972344185478,-0.08664187691154276,0.01814511693981054,0.01960356587753262,0.12561338745361014,-0.1252932525839894,0.023614093729671406,-0.17485078867722967,0.0536646234123982,0.0453140987664285,0.05061882957033984,-0.13241745011869052,-0.04573279581765566,-0.12793872435975825,-0.10094545312359145,-0.12612183616270975,0.002974910418927201,-0.1274257045867697,0.1479598330386361,-0.045172752584406645,0.04537493186033993,0.10553919571867561,-0.10287485876065008,-0.08552595509911179,-0.10847508478085495,0.08995072835993076,0.1163626852815692,0.0012542442225989656,0.12070348742843844,0.09860752285908889,0.14554869106109775,-0.057636601064515805,-0.056893480749343604,-0.13120118847410533,-0.029254047362056865,-0.09305060652975758
-0.09905177271134784,0.0764905341807081,-0.1139900321486778,-0.02358610183772219,-0.09308440637139721,0.01857550794929742,-0.01865467781524763,-0.15215562552517392,-0.10584110729793014,-0.18813452850300566,-0.036738332062796614,-0.011778954142068601,0.004886459702736364,0.04619299961449182,-0.13182645787256508,0.11385955882488068,-0.03286418697493995,-0.01964273901017623,0.02866448964732778,-0.03769263470708641,-0.12816659495701266,-0.06209422365955777,-0.1867974445888513,-0.0031819793893892237,0.15016302235229792,0.19493524717336488,-0.12754729650395877,-0.09754344538907167,-0.0923813993930201,-0.15507801133342966,0.03272531341452397,-0.13198518068459583,0.023381214915175766,0.06270047615044769,-0.07764199985667398,0.06518572105848619,0.005341461912110586,-0.010627737335105395,0.13109705066440264,0.01508751408120072,-0.07849220846013477,-0.13729863403936776,-0.0015703028199710826,-0.030413967224954805,-0.08247823842754358,0.0535269830618098,-0.008020421019791326,0.054493505259707475,-0.1684922817546689,0.16256998456703134,0.05599159684500069,-0.10318555337850273,-0.11211938261453448,-0.015285487851831467,0.12420204434710494,0.008046410633667261,0.15410722247004024,0.0049827242925434235,0.0012705774252532273,-0.013686692069214615,-0.10064852353079697,-0.06611398284095504,-0.04288876148927144,-0.11728484974466898,-0.18636656653066713
